amazon-toys.csv,-1.196146011352539,1.039579153060913,-0.2569047212600708,-1.0067837238311768,-0.8868690133094788,-0.3187378942966461,-1.1365987062454224,1.2847846746444702,0.25500503182411194,1.0954511165618896,-1.3210022449493408,0.5649698972702026,0.8493531346321106,-0.07307632267475128,0.9936899542808533,0.6622607111930847,1.1096612215042114,0.4906217157840729,0.4562799632549286,-1.6311023235321045,-2.7886486053466797,-1.0179990530014038,-0.4912704527378082,-0.12444712966680527,1.2084978818893433,-0.5119795203208923,0.7880637645721436,1.5686264038085938,-0.8611542582511902,1.460870385169983,1.2102192640304565,-0.6673610806465149,-0.2269868105649948,0.279255747795105,1.070603370666504,0.694796085357666,-0.3888166546821594,0.4594867527484894,-0.7538047432899475,0.9773558974266052,-1.2722920179367065,1.924519658088684,0.8383258581161499,0.2507852017879486,-1.4917105436325073,-0.6145707964897156,0.42826300859451294,-1.1897052526474,0.3621274530887604,0.17484891414642334
bookcrossing.csv,-0.044461172074079514,-0.8570290207862854,-0.7105394601821899,0.1272156983613968,0.32224345207214355,-0.6266488432884216,-0.9959243535995483,0.5357514023780823,0.09667589515447617,0.7290464043617249,0.6243149638175964,0.9577946066856384,0.09591085463762283,0.6646645069122314,-0.505150318145752,1.3275036811828613,-0.32529979944229126,1.372484803199768,-0.10191304981708527,-1.3365614414215088,-1.1848118305206299,-2.0950140953063965,-1.8978527784347534,-1.0575525760650635,0.11741156876087189,-1.3044887781143188,0.21135501563549042,0.992070198059082,-1.183840036392212,0.7072144746780396,-0.12518148124217987,-1.2943438291549683,-0.9506705403327942,0.29057803750038147,0.19088181853294373,1.4340859651565552,-1.138707160949707,0.08939813822507858,-1.2480947971343994,0.9640727639198303,-1.1032390594482422,-0.1327960193157196,0.5792437195777893,2.5342187881469727,-2.287806987762451,-0.6089073419570923,0.6280461549758911,-0.5261136889457703,-0.6424150466918945,-0.6781005859375
amazon-games.csv,1.0333813428878784,-0.1321258693933487,-1.8304774761199951,-0.2780284583568573,-0.4728411138057709,-0.9418668150901794,-1.2386292219161987,0.8360475301742554,-0.6022102236747742,0.19572144746780396,0.12858426570892334,-0.5296773314476013,-0.7433117628097534,-0.3818700313568115,0.9317399859428406,-0.09118622541427612,-1.139757513999939,2.069064140319824,1.4715461730957031,-1.1122030019760132,-1.2819818258285522,-1.8914345502853394,-0.26453155279159546,-1.1519582271575928,0.3957183063030243,-0.726893424987793,0.52352374792099,1.2963865995407104,-1.4481698274612427,-0.09014872461557388,-0.5350390672683716,-1.1134357452392578,-0.39890384674072266,0.30674728751182556,0.5173834562301636,0.2769542336463928,-0.08310699462890625,-0.02119830995798111,0.07849584519863129,1.743823528289795,-1.0538020133972168,0.05140988901257515,1.2569022178649902,0.1502281278371811,-3.1614954471588135,0.57960045337677,0.7377636432647705,-0.5934381484985352,-0.4472014605998993,-0.4511115550994873
movielens_latest.csv,-0.2542259693145752,0.6627529859542847,-0.3311460614204407,-0.34035348892211914,0.4897719919681549,-1.1246427297592163,-1.9264938831329346,-0.05823274329304695,1.3274273872375488,0.7707366943359375,-1.1884762048721313,0.07844974100589752,-0.8300549983978271,0.2238311618566513,0.06680506467819214,1.4198497533798218,1.2163312435150146,1.779538631439209,-0.6441393494606018,-0.6130794286727905,-1.739003300666809,-0.8449475169181824,-0.4374155104160309,-1.808419108390808,-0.23790410161018372,-1.2029058933258057,0.08836419135332108,0.06627481430768967,-1.0521469116210938,1.4258066415786743,0.061516765505075455,0.055130716413259506,-1.808588981628418,0.9722450971603394,-0.4984342157840729,0.01672106608748436,-0.9790390729904175,0.632703423500061,0.18879511952400208,0.5259391665458679,0.40010952949523926,-0.6329646706581116,1.5463000535964966,-0.6628552079200745,-1.4546172618865967,0.2778642475605011,-0.23016735911369324,2.5119287967681885,-1.037550449371338,-1.0285788774490356
amazon-clothes.csv,-1.192427635192871,-0.7241012454032898,-0.3729705512523651,0.4521130323410034,-0.4826415777206421,-0.09457658231258392,-0.9489604830741882,-0.005041623953729868,0.3865678608417511,0.3882271349430084,0.4845212996006012,0.37395548820495605,-0.1613806039094925,0.516283392906189,-0.9797549247741699,1.792272925376892,-1.1693428754806519,0.24774911999702454,0.5785012245178223,0.2739499807357788,-0.3630527853965759,-1.9046024084091187,-1.9712491035461426,-1.4082950353622437,0.2972015142440796,-1.7417354583740234,0.6418666839599609,-0.36590999364852905,-1.556124210357666,0.9715585112571716,0.49938106536865234,-1.0033661127090454,-0.5231953859329224,-0.6957585215568542,1.3409301042556763,1.3406105041503906,-0.48292556405067444,-0.38060593605041504,-0.03661295399069786,1.0316005945205688,-0.797900378704071,-0.02698676846921444,1.220168113708496,1.8158010244369507,-2.8883702754974365,-0.5870773792266846,-0.382609486579895,1.0420548915863037,-0.36630013585090637,-0.6309842467308044
amazon-office.csv,0.7785199284553528,-0.6475048661231995,-0.6764079928398132,-0.15055373311042786,-0.8581802248954773,-1.3979421854019165,-0.8250583410263062,0.9577445387840271,0.4453447759151459,1.4342172145843506,-0.44979408383369446,0.3625034987926483,-0.2373015433549881,0.6264936327934265,-0.05985220894217491,1.424831748008728,-0.539228618144989,1.5833123922348022,-0.8064283132553101,-1.3215240240097046,-1.4595752954483032,-1.9688670635223389,-1.1145379543304443,-0.9371304512023926,0.4185464084148407,-0.9516791701316833,0.3667351007461548,0.9785240888595581,-1.8430018424987793,1.1937068700790405,-0.1174863800406456,-1.4642258882522583,-1.1530706882476807,0.33741870522499084,-0.16438983380794525,0.9652566313743591,-0.7492701411247253,0.13804714381694794,-1.7145681381225586,1.5162194967269897,-0.6055769920349121,-0.9412500858306885,0.3631119132041931,0.9245181679725647,-2.100087881088257,0.4275284707546234,0.7185442447662354,-0.5370022654533386,0.1173492819070816,-0.8877951502799988
amazon-kindle.csv,0.381306916475296,-0.7135075330734253,-0.16858918964862823,0.3788394033908844,-1.3672081232070923,-1.0190447568893433,-1.388899803161621,0.7212908267974854,0.9262922406196594,0.8195367455482483,-0.6226143836975098,0.053912363946437836,-0.7384743094444275,0.6176270246505737,0.8025796413421631,0.10868872702121735,-1.530898094177246,2.0087637901306152,0.501373291015625,-1.7164033651351929,-1.6254690885543823,-1.0109487771987915,-0.7850586771965027,0.07669565081596375,0.8979831337928772,-1.3564695119857788,0.5251197814941406,1.0760014057159424,-2.4535000324249268,0.35603901743888855,-0.8632971048355103,-2.0756618976593018,-0.6705400943756104,0.5727930665016174,-0.0026036466006189585,0.2994982898235321,0.4928261935710907,-0.1002473458647728,0.2729629874229431,1.0466797351837158,-0.8600022196769714,0.13325895369052887,0.9275646209716797,0.8638404607772827,-1.8926559686660767,-0.11955881118774414,1.0645145177841187,0.8325384855270386,-0.20090961456298828,-1.0264315605163574
amazon-food.csv,0.028308285400271416,-0.004862976260483265,-0.8326469659805298,0.5419535636901855,0.3100588917732239,-0.17968019843101501,-1.5226929187774658,-0.008887913078069687,0.9579514265060425,0.6521964073181152,-0.4508260190486908,0.7381966710090637,-0.545857310295105,0.28218382596969604,-0.5592881441116333,2.219630241394043,-0.42440271377563477,1.8771569728851318,-0.1336461305618286,-1.164718747138977,-1.3350965976715088,-1.359109878540039,-1.9257822036743164,-1.1959720849990845,0.3500002920627594,-1.4232406616210938,-0.2794603705406189,0.9418382048606873,-0.12443743646144867,0.759498655796051,0.2993725836277008,-0.3949757516384125,0.29164355993270874,-0.5966545939445496,1.043392539024353,0.6993241906166077,-0.6081757545471191,1.274677038192749,-0.7011252045631409,-0.46038931608200073,-0.9590728878974915,0.48479682207107544,1.5312267541885376,2.033700466156006,-1.8648080825805664,-1.194812536239624,0.9475210309028625,0.1607065051794052,-1.2240180969238281,-1.1743956804275513
jester1.csv,-1.4094091653823853,1.7404778003692627,-1.1936571598052979,0.4238016903400421,0.08844287693500519,-0.833686888217926,-1.5449711084365845,0.14983679354190826,-0.15129293501377106,0.037141103297472,-0.9098060727119446,1.0692694187164307,-1.5689953565597534,-0.007169859018176794,0.48445433378219604,1.61967134475708,-0.21112117171287537,1.121153712272644,-1.1046222448349,-1.246752142906189,-0.8833732008934021,-2.30800199508667,-1.098745346069336,-0.8354543447494507,0.8810526728630066,-0.13608305156230927,0.7313627600669861,0.436261385679245,-2.4576640129089355,-0.6718971133232117,1.0507769584655762,-1.7722667455673218,-0.9145222902297974,0.7087253332138062,-0.5976129770278931,0.7668798565864563,0.11834774911403656,0.027145739644765854,0.015786414965987206,-0.7318759560585022,0.43143773078918457,0.3206576108932495,0.1544683575630188,0.7999529838562012,-1.9002318382263184,-0.5227624177932739,-0.36479729413986206,-0.025928976014256477,-0.6196376085281372,-0.6466326713562012
amazon-apps.csv,-0.3093169033527374,-0.275071382522583,-0.5455121994018555,0.02938782051205635,1.4008954763412476,0.024261118844151497,-1.052982211112976,1.5141223669052124,0.713131844997406,-0.14186915755271912,0.8437605500221252,0.9894973039627075,-0.4221894145011902,-1.106606125831604,0.2967582643032074,0.6054671406745911,-0.5252167582511902,2.5895767211914062,-0.2990279495716095,-1.6013740301132202,-1.2243576049804688,-2.1074862480163574,-0.9119700789451599,-0.19196510314941406,0.5299484729766846,-0.6961266994476318,0.3981906771659851,0.835273265838623,-1.0052231550216675,1.944451093673706,0.8959584832191467,0.11054084450006485,0.4615399241447449,-0.1412317454814911,0.2565714716911316,-0.30693286657333374,-0.4649961590766907,-0.08192651718854904,-0.6600733995437622,0.8097044229507446,-0.5754352807998657,0.40989890694618225,-0.48787355422973633,1.764823079109192,-2.287755012512207,-1.5564374923706055,0.929129958152771,-1.021047592163086,-0.43932098150253296,-1.0496408939361572
yahoo-music.csv,0.1051100566983223,0.8235078454017639,-0.12004971504211426,-2.069880247116089,-0.17953388392925262,-0.5621505379676819,-1.783542275428772,-0.39163923263549805,-0.2854403257369995,-0.7745339870452881,-0.9232093095779419,-0.755275547504425,-0.51798415184021,0.5077653527259827,0.4096035063266754,0.5301665663719177,0.2811921536922455,0.6328365802764893,-1.6927459239959717,-1.9950429201126099,-0.07889934629201889,-0.3276946246623993,-0.9342985153198242,-0.9670987725257874,-0.27981865406036377,-0.8406586647033691,-0.5258261561393738,0.061200886964797974,-2.7626092433929443,0.8048250675201416,0.7742679715156555,-0.40120819211006165,-0.48690319061279297,0.8783284425735474,-0.3916224539279938,-0.5849865674972534,-0.258390873670578,0.1662442535161972,0.3006846606731415,0.4884602129459381,-0.8183116316795349,-1.2844281196594238,1.3203673362731934,1.2242162227630615,-1.948999285697937,0.05448111519217491,1.978179931640625,-0.41722673177719116,1.1408957242965698,-1.4894092082977295
movietweetings_latest.csv,0.4113503098487854,-0.4388764798641205,-1.9067413806915283,-0.6803271174430847,-1.5607858896255493,0.347777783870697,-1.3951904773712158,0.382060706615448,0.5676558017730713,1.3650012016296387,-0.04228942468762398,0.3638714551925659,0.3177795708179474,1.0531275272369385,1.2787784337997437,1.6243727207183838,0.02521216683089733,1.4585634469985962,-1.5385257005691528,-1.8642241954803467,-0.5925013422966003,-0.5463009476661682,0.05107879266142845,-0.38343462347984314,0.2787792682647705,-1.303598403930664,0.9202218055725098,1.8375236988067627,-0.04293707385659218,1.234358787536621,-0.3345997631549835,-2.0777077674865723,0.04707235097885132,0.017999473959207535,1.7410539388656616,-0.21623431146144867,-0.25909391045570374,-0.6395966410636902,-0.9972096681594849,-0.06112375110387802,-0.5286238193511963,0.1310015767812729,0.008794357068836689,0.53941810131073,-2.0342183113098145,-0.2605400085449219,1.1855627298355103,0.0839238092303276,-1.2180382013320923,0.3428649604320526
amazon-garden.csv,0.29384681582450867,-0.20641650259494781,-0.6324118375778198,0.4922230541706085,-0.7646464109420776,-0.6877188086509705,-0.6962447762489319,0.28899750113487244,1.5661461353302002,1.2033941745758057,-0.6401347517967224,0.6939588189125061,-0.3225764334201813,0.46784737706184387,-0.44567129015922546,1.8675971031188965,-0.567802369594574,1.8310319185256958,-0.6739608645439148,-1.268008828163147,-1.4468852281570435,-1.423248052597046,-1.404068946838379,-1.4549318552017212,0.3832428455352783,-1.6351747512817383,-0.11599092185497284,1.5246273279190063,-0.9755119681358337,0.7862862944602966,-0.5677340626716614,-1.2142462730407715,-0.11690675467252731,-0.35875406861305237,-0.13679184019565582,1.2988917827606201,-0.44494014978408813,0.865263819694519,-1.6884855031967163,0.11584167182445526,-1.0257408618927002,-0.45163801312446594,0.6002578139305115,1.7927587032318115,-1.816436529159546,-0.07986894249916077,1.1928883790969849,-0.05711418017745018,-0.17850646376609802,-1.0381734371185303
amazon-sports.csv,0.550305962562561,-1.160222053527832,-0.4856266677379608,-0.9344001412391663,0.33013907074928284,-0.9659819006919861,-1.0769933462142944,1.973688006401062,1.6085302829742432,1.3137205839157104,-1.673378825187683,0.043584708124399185,-0.4449006915092468,0.6787596344947815,-0.8831416964530945,1.110681414604187,0.38806456327438354,0.9850677847862244,-0.35060593485832214,-1.5653388500213623,-0.49934759736061096,-0.8600808382034302,-0.8980512022972107,-0.7604230642318726,0.05333731696009636,-1.2217732667922974,0.21895520389080048,0.6536911129951477,-1.4008913040161133,1.1383490562438965,-0.5091856122016907,-0.6955574154853821,-0.5370833873748779,1.049939513206482,0.37083518505096436,1.2129870653152466,-0.9535576105117798,1.2245807647705078,-1.4697604179382324,-0.4634346067905426,-0.5446181297302246,0.4996650815010071,1.18022620677948,2.2160825729370117,-1.0771050453186035,-0.22097259759902954,0.11063013970851898,-0.8335886001586914,-0.3739418387413025,-1.6208659410476685
tripadvisor.csv,1.1986831426620483,-0.08741191774606705,-0.29983779788017273,-0.6666771173477173,-0.883802592754364,-1.4242738485336304,-1.6147680282592773,2.0726418495178223,0.44147735834121704,0.24462023377418518,-0.4509665369987488,0.3081914782524109,0.9379843473434448,0.05890749394893646,-0.030473360791802406,-0.09226058423519135,-0.5449970364570618,0.9537527561187744,-1.0182020664215088,-0.9232807755470276,-1.8132593631744385,-1.029221534729004,-1.3543916940689087,-1.0459188222885132,1.1495301723480225,-1.258528232574463,0.13861677050590515,1.8886914253234863,-1.8063961267471313,0.5294897556304932,0.3862186372280121,-2.3789560794830322,0.3341416120529175,0.14752647280693054,1.1063830852508545,-0.06736457347869873,-1.0887542963027954,0.552204966545105,-0.7713867425918579,0.744033932685852,0.5721652507781982,0.15529605746269226,-0.76856529712677,1.9384926557540894,-0.7920722365379333,0.6689849495887756,-0.17366832494735718,0.5244476795196533,0.661167323589325,-0.35928839445114136
amazon-baby.csv,0.046191830188035965,-0.059097617864608765,-1.7200846672058105,-0.20572686195373535,-0.5634403824806213,-1.1610009670257568,-1.4152777194976807,1.4682071208953857,-0.11687985062599182,-0.47430548071861267,-1.8016754388809204,-0.22605203092098236,-0.39534541964530945,-0.65312659740448,0.15225709974765778,-1.0801432132720947,-0.35378193855285645,1.0992869138717651,-0.33359068632125854,-1.4829795360565186,-2.066551923751831,-1.4163411855697632,-0.4837096035480499,-0.38941794633865356,1.1734874248504639,-0.5018696784973145,-0.12829092144966125,0.3034017086029053,-1.2748509645462036,0.6710824966430664,1.2216960191726685,-1.9150655269622803,0.335539847612381,-1.2859702110290527,0.6725462079048157,0.2670647203922272,0.8041603565216064,0.5478163361549377,0.3117755055427551,1.091604471206665,-0.36314117908477783,2.224205255508423,1.1576889753341675,0.4926232397556305,-1.310043454170227,0.2873046398162842,0.9333920478820801,1.1374566555023193,-0.8781982064247131,-0.8117379546165466
amazon-tools.csv,-0.36856043338775635,0.12348043918609619,-0.08787740021944046,-1.6791995763778687,0.9526956677436829,-0.6171677708625793,-0.5249097943305969,-0.537930428981781,-0.3695366680622101,0.3463997542858124,-1.6087785959243774,1.1619603633880615,-0.5774197578430176,-0.4823293685913086,-0.5175596475601196,1.635373592376709,-0.7444928884506226,1.0735702514648438,-0.008716614916920662,-0.00556027190759778,0.01717657968401909,-2.081899881362915,-0.8640878200531006,-1.7025995254516602,1.4095202684402466,-0.5839568376541138,0.10006696730852127,0.2778520882129669,-0.31664472818374634,0.7537581324577332,1.3995361328125,0.41912874579429626,0.20746596157550812,-0.35825300216674805,1.5725663900375366,2.2279462814331055,-1.1944924592971802,0.8341564536094666,-0.8490763902664185,1.4602471590042114,-0.8948345184326172,0.6774095296859741,0.5073060393333435,1.259839653968811,-1.6928669214248657,-0.015754638239741325,-0.1632504165172577,0.6559357643127441,-0.6423103213310242,-1.7709838151931763
amazon-beauty.csv,0.5691384077072144,0.4996202886104584,0.1977640837430954,0.14858271181583405,0.08930883556604385,-0.06207820028066635,-0.9989083409309387,0.30789119005203247,-0.30012041330337524,1.7346566915512085,-0.885632336139679,1.7383294105529785,0.01816493459045887,-0.5763395428657532,-0.7521479725837708,0.673672616481781,0.908613383769989,0.5567213296890259,0.39318251609802246,-1.364797592163086,-0.897469699382782,-1.3993887901306152,-1.7618557214736938,-0.10621987283229828,1.7576744556427002,-1.9072047472000122,0.20258772373199463,1.0111950635910034,-1.7656207084655762,1.1641765832901,-0.31505003571510315,-0.8712905645370483,-0.27298909425735474,0.3983105719089508,1.3148287534713745,-0.4839475452899933,0.21223044395446777,1.133124828338623,-2.3691632747650146,0.7237049341201782,-0.5071777701377869,-0.23728583753108978,-0.4972149431705475,-1.2052658796310425,-1.6448380947113037,-1.0208160877227783,0.507439911365509,0.10642288625240326,0.4172482490539551,-1.4086536169052124
amazon-instruments.csv,1.0815480947494507,0.2554064691066742,-1.115416407585144,0.011854490265250206,-1.9940438270568848,-0.9753917455673218,-0.3165057301521301,1.2488412857055664,0.4597695469856262,0.7484197020530701,-0.6229245066642761,0.6784268617630005,0.9610307216644287,0.54777592420578,-0.6043251752853394,1.6561028957366943,0.905451774597168,1.6751972436904907,-0.7079280614852905,-0.6151895523071289,-2.0469818115234375,-1.9082305431365967,-0.8543856739997864,-0.7259384989738464,-0.28923842310905457,-0.9103944301605225,0.025462185963988304,1.0921399593353271,-1.6221293210983276,0.25823405385017395,0.36763131618499756,-1.9486538171768188,-0.79795902967453,-1.5023099184036255,1.3428339958190918,0.7135223150253296,0.023996291682124138,0.8912017345428467,-0.5654006004333496,-0.27825653553009033,0.5085166096687317,-0.5240289568901062,1.3137472867965698,1.1439961194992065,-1.21477472782135,0.38060110807418823,0.5241519212722778,-0.13954965770244598,0.07554405927658081,-0.874814510345459
amazon-movies.csv,0.521181583404541,-1.1646156311035156,-1.7564789056777954,-0.11974956840276718,0.3542810082435608,-0.26241424679756165,-1.9039053916931152,0.24717646837234497,0.8004047870635986,0.596400260925293,-0.37337666749954224,-0.07800453901290894,1.3342292308807373,1.3638110160827637,0.2881867587566376,0.2476687878370285,-0.3580615520477295,0.31666409969329834,-0.7109514474868774,-1.2718820571899414,0.32170626521110535,-1.6359102725982666,-3.093142032623291,-0.40744179487228394,0.8513808250427246,-0.9251977205276489,0.4063665270805359,-0.0037108624819666147,-1.1638319492340088,0.5738564729690552,0.701300859451294,-1.1791338920593262,0.11642152070999146,-0.011166859418153763,-0.1413038969039917,2.4432578086853027,-0.5228297114372253,-0.3975318372249603,-0.4702398180961609,-0.5262073874473572,0.15843284130096436,-0.5041125416755676,0.9908698201179504,1.2668843269348145,-1.698894739151001,0.5166756510734558,-0.07117467373609543,0.6287255883216858,-0.6734777688980103,-1.5758168697357178
jester2.csv,0.10069745779037476,0.5944814682006836,-0.9341170787811279,0.032619625329971313,0.1606028527021408,-0.7603745460510254,-0.7062973976135254,0.6859923601150513,0.31693968176841736,0.5184842944145203,-1.589091420173645,-0.2943389117717743,-0.7948194146156311,-1.3842397928237915,1.2546491622924805,1.2567156553268433,0.09976445138454437,0.7402138113975525,-1.1297938823699951,-1.2011382579803467,0.8845710158348083,-2.6376607418060303,-1.4810774326324463,-0.7779026627540588,0.017692899331450462,-1.0448368787765503,-0.21407519280910492,-0.29325252771377563,-1.0069692134857178,0.9299845099449158,-0.37017709016799927,-1.1310383081436157,-2.075443744659424,0.16311027109622955,1.426741600036621,0.20471827685832977,0.18441720306873322,-0.19629403948783875,-0.17357182502746582,-0.697538435459137,-0.9590338468551636,0.8937620520591736,0.7322219014167786,2.2376010417938232,-1.6921734809875488,1.170339584350586,-0.3924415409564972,0.5168755054473877,0.8556243777275085,0.7236960530281067
amazon-digital-music.csv,0.897570788860321,-0.9071077108383179,-1.447948694229126,-0.4951472282409668,-1.3215398788452148,-0.33472442626953125,-1.147918939590454,0.6915751099586487,0.11458609253168106,2.0668082237243652,-0.6467779278755188,0.45595380663871765,-0.9260661602020264,0.5439512729644775,-0.5525686144828796,0.2713291049003601,-0.12966929376125336,1.2254008054733276,0.09335394203662872,-1.52872896194458,-0.7328664064407349,-1.6151068210601807,-0.1229739859700203,-0.8869041800498962,0.7560299038887024,-0.8343809843063354,-1.238221526145935,-0.1821059286594391,-1.8317493200302124,1.014977216720581,1.5380032062530518,0.9578266143798828,0.35342928767204285,0.352842777967453,1.1632152795791626,0.41609153151512146,1.5305845737457275,-0.19534052908420563,0.5351383686065674,0.07929474115371704,0.26685622334480286,-0.758499264717102,-0.16321489214897156,1.6518648862838745,-1.1667983531951904,-1.4682310819625854,0.0033647753298282623,1.1591624021530151,1.823534369468689,-1.2572883367538452
movietweetings_recsys2014.csv,-0.0620603933930397,-0.3432169258594513,0.20531970262527466,-0.06411460787057877,1.1071587800979614,0.9542820453643799,0.010530438274145126,1.8128739595413208,0.4738194942474365,0.24552026391029358,-1.3047547340393066,0.20712438225746155,1.4205840826034546,-0.7429040670394897,1.0627511739730835,1.2479974031448364,-0.9704582691192627,0.8062317967414856,-1.3496299982070923,-1.3077419996261597,-1.5052154064178467,-2.2016689777374268,-0.6866452097892761,-1.599192500114441,-0.5722256302833557,-1.5449714660644531,1.0390020608901978,1.0893021821975708,-2.4976584911346436,1.8027547597885132,-0.4886436462402344,-0.198517307639122,0.08666277676820755,-0.16680294275283813,0.9630430936813354,-0.7674974799156189,-0.33497610688209534,-0.5739122033119202,-0.3517395853996277,0.5484287738800049,0.5984184145927429,0.20666855573654175,0.539851725101471,-0.11910831183195114,-0.892494797706604,-0.9751565456390381,1.1690545082092285,0.37819603085517883,0.23746611177921295,-0.8196285367012024
amazon-cd.csv,0.12711751461029053,-0.15663595497608185,0.47853150963783264,-0.06260516494512558,-1.0368410348892212,-0.6445394158363342,-0.6862385869026184,0.6494881510734558,1.2721093893051147,0.5911096930503845,-0.35988351702690125,-0.3973047137260437,-0.18344517052173615,-0.14521968364715576,-1.1188071966171265,2.049713611602783,-0.9796925187110901,-0.40029099583625793,-0.11665547639131546,0.18806320428848267,-0.26513588428497314,-2.2353389263153076,-0.11185107380151749,-1.3237390518188477,0.5555744171142578,-2.035942792892456,0.47659072279930115,-0.7299011945724487,-1.5782585144042969,1.6615806818008423,0.3356269896030426,-1.4461162090301514,-0.8059794902801514,0.21362408995628357,1.3555864095687866,0.290757954120636,-0.8583295345306396,0.011626271530985832,-0.7693427205085754,1.7270779609680176,-0.22423940896987915,-0.6435855031013489,0.24541714787483215,0.27854567766189575,-3.115929365158081,-1.0416960716247559,0.03238048776984215,-0.11809775233268738,0.3858036398887634,-0.648837685585022
amazon-automotive.csv,0.17879971861839294,-0.818148672580719,-1.573463797569275,-0.2422407567501068,-0.11864421516656876,-1.1053106784820557,-1.5999969244003296,1.5179015398025513,0.03200998902320862,0.4267423450946808,-1.012369990348816,0.2121940404176712,-0.1756899356842041,1.2477227449417114,-0.3221428692340851,1.2260260581970215,0.3814500570297241,2.1431398391723633,0.13860100507736206,-0.34974905848503113,-0.62827068567276,-1.1769185066223145,-1.4817696809768677,-0.5302428603172302,0.7197964191436768,-1.0747435092926025,-0.18641042709350586,1.6656955480575562,-1.2821557521820068,1.0810210704803467,-0.4035440981388092,-1.1326762437820435,-0.38537758588790894,-0.8117604851722717,1.3347632884979248,-0.24581824243068695,-0.849385142326355,0.4604324698448181,0.01001771166920662,-0.46247777342796326,-0.21969154477119446,0.19406826794147491,2.213731288909912,1.8106002807617188,-1.2575488090515137,0.8529583811759949,0.7966589331626892,-0.40301409363746643,-1.2328749895095825,-1.2850764989852905
amazon-instant-video.csv,0.19807206094264984,0.16489720344543457,-0.49882224202156067,-0.9154694676399231,0.5434139370918274,-0.9825364947319031,-1.371732234954834,0.8885254859924316,-1.0956988334655762,1.907910704612732,0.3873937129974365,1.2171591520309448,0.44030487537384033,0.12295941263437271,0.024909112602472305,0.27768653631210327,-0.08401215076446533,1.5579391717910767,-1.2544173002243042,-0.6733591556549072,-0.6241255402565002,-2.014737129211426,0.13095609843730927,-0.5451677441596985,-0.11769548058509827,-0.42156633734703064,0.629933774471283,0.3509800136089325,-1.784052848815918,-0.052357275038957596,0.40842586755752563,-1.172859787940979,-1.2629081010818481,-0.03721253201365471,0.14102543890476227,-0.2658339738845825,-1.1450703144073486,-0.7797772884368896,-1.5151350498199463,1.5588867664337158,-1.697609543800354,-1.515109896659851,0.944408655166626,1.8068116903305054,-1.359490156173706,-0.7288421988487244,-0.08102978765964508,-0.5215878486633301,-1.1132457256317139,-1.388861894607544
amazon-phones.csv,0.44395142793655396,0.12799924612045288,-0.6838910579681396,-0.41334298253059387,-0.24332156777381897,0.1657242476940155,-1.2984707355499268,-0.5284690260887146,-0.6788068413734436,1.1463992595672607,-1.7273062467575073,-0.23592156171798706,-0.22307614982128143,-0.34989893436431885,0.3678049147129059,2.1419341564178467,-0.175816610455513,1.1412951946258545,0.03806081414222717,0.49495357275009155,-0.8968467116355896,-2.483168601989746,-0.20290325582027435,-1.3812568187713623,0.8541631102561951,-1.061936378479004,-0.6020958423614502,1.7347790002822876,-0.28870928287506104,0.045552290976047516,0.7919394373893738,-0.588219165802002,-0.800866425037384,-0.6233285069465637,2.177227258682251,0.03540917485952377,-0.8380628228187561,0.9318311214447021,0.49122530221939087,0.4183153808116913,0.18165667355060577,0.4307520389556885,1.5613611936569214,0.8155129551887512,-0.8876205682754517,0.13037271797657013,1.5085065364837646,-0.3439214825630188,-1.344049334526062,-2.124615430831909
yelp.csv,-0.5185520052909851,0.6354192495346069,-0.7339305877685547,-0.5875807404518127,1.2713783979415894,-0.7454134225845337,-1.2516320943832397,0.9305405616760254,1.034099817276001,0.28594112396240234,-0.21949997544288635,-0.6239556074142456,-0.8890736103057861,-0.26458045840263367,-2.06835675239563,-0.05389508977532387,-1.1706550121307373,0.19277645647525787,-0.38329774141311646,-1.2969684600830078,-1.2187166213989258,-0.5562655925750732,-1.1198043823242188,-1.6146198511123657,0.059306852519512177,-2.7975902557373047,-0.05158068239688873,0.421212762594223,-0.10239368677139282,0.012974832206964493,1.439365029335022,-1.5558511018753052,0.5864940285682678,-0.10061414539813995,1.6503947973251343,0.33904576301574707,-0.22190962731838226,-0.6279323697090149,-0.10539783537387848,1.2034564018249512,-0.804762065410614,0.9529381990432739,0.3687480092048645,0.7951359152793884,-1.1500353813171387,-1.4384061098098755,0.42662128806114197,0.1840457320213318,-1.628750205039978,-1.4224117994308472
amazon-home.csv,0.1670743227005005,-0.03781454637646675,-0.9667673707008362,-0.3656332194805145,-0.5612130165100098,-0.860560417175293,-2.580662488937378,-0.058193907141685486,0.592461884021759,0.8364340662956238,-0.3966125547885895,1.2679977416992188,0.8165976405143738,0.3936745524406433,0.17976872622966766,0.3782026767730713,1.2081624269485474,0.9166439175605774,0.6480001211166382,-1.0353264808654785,-1.405713677406311,-0.04423237591981888,-0.8558804988861084,-1.4173153638839722,1.530555009841919,-1.3035297393798828,-0.5243195295333862,0.48007115721702576,-1.9823811054229736,-0.13747113943099976,-0.23410597443580627,-1.8592894077301025,-0.8464208245277405,-0.7237921357154846,1.0320595502853394,0.5897862315177917,-0.692838191986084,-1.302230715751648,-1.222900152206421,0.47043150663375854,0.7580444812774658,-0.46530136466026306,-0.5149288177490234,0.6908890604972839,-1.0918828248977661,-0.5336376428604126,-0.6061651110649109,1.233194351196289,-0.8295891284942627,-2.1723461151123047
flixter.csv,0.15956252813339233,0.9958713054656982,0.9711005091667175,-0.7618135213851929,-0.6127141714096069,-0.8490967750549316,-0.4378123879432678,0.7699261903762817,0.8726179599761963,0.9643071889877319,-0.08416847884654999,-0.5357228517532349,0.7384539842605591,-1.0869641304016113,1.325600266456604,1.0814533233642578,-0.9702794551849365,0.7843650579452515,-0.7459144592285156,-1.680484414100647,-1.8346821069717407,-1.3503084182739258,-1.3260756731033325,-2.019955635070801,1.2301819324493408,-1.3392829895019531,0.22200557589530945,0.47633349895477295,0.724922239780426,0.5239896774291992,0.9514495134353638,-1.1078461408615112,0.856762707233429,1.2463005781173706,-0.1663358211517334,0.9087227582931519,-0.501527726650238,-0.3862406015396118,-0.2471601665019989,-0.806987464427948,-0.7736577391624451,0.02052711881697178,0.44898825883865356,2.4414002895355225,-1.0070953369140625,-0.8533319234848022,0.7047296762466431,1.0284088850021362,-0.6235613226890564,-1.3259769678115845
movielens20m.csv,-0.30108121037483215,0.37431153655052185,-0.31546157598495483,-0.5850554704666138,0.02611495554447174,-0.9569297432899475,-1.567293643951416,1.327142357826233,-0.5255902409553528,1.5291913747787476,-0.7970215082168579,-0.673001229763031,-0.4246499836444855,1.130318522453308,0.04670260474085808,0.2863357961177826,0.0997600108385086,2.0014474391937256,-1.290197491645813,0.4193376302719116,0.0893315002322197,-0.8780883550643921,-0.898466944694519,-2.0685527324676514,1.4692542552947998,-1.285408854484558,1.41543447971344,-1.025246024131775,-0.5228918790817261,0.5641891360282898,1.3657437562942505,-1.4591459035873413,-0.05105463042855263,-0.07288222014904022,-0.13298004865646362,0.5881451368331909,1.1228203773498535,0.485194593667984,-2.054319143295288,0.44724133610725403,0.08432070910930634,-0.01723693683743477,1.8496878147125244,0.9639352560043335,-1.1465919017791748,-1.637911319732666,0.21662063896656036,-0.290250301361084,0.975993812084198,0.21986575424671173
amazon-pet-supplies.csv,0.2799266576766968,-1.0061583518981934,-0.33225905895233154,-0.9964258074760437,0.01640946790575981,-1.254887580871582,-1.4108638763427734,1.7758868932724,0.5718201398849487,0.8795266151428223,-0.5743992924690247,0.267350971698761,-0.5945092439651489,0.6664844751358032,-0.2566702961921692,1.1461206674575806,-0.3362516760826111,1.2150928974151611,0.4368012547492981,-2.2537739276885986,-0.9943979978561401,-0.9780389666557312,-0.9568048119544983,0.131866455078125,-0.48454079031944275,-1.2664604187011719,0.15582816302776337,0.5812346339225769,-1.6052554845809937,1.190389633178711,-0.381320983171463,-0.8033085465431213,-1.6255229711532593,1.3593659400939941,0.9346687197685242,0.4418381452560425,-0.9094884991645813,1.1670498847961426,-0.6812540888786316,0.05496274307370186,-1.1098544597625732,0.8704527616500854,1.3626501560211182,2.0394985675811768,-1.0911270380020142,-0.9654527902603149,0.48324835300445557,-0.5811613202095032,-0.47875216603279114,-1.2409135103225708
movielens100k.csv,0.25724130868911743,0.02147304080426693,-2.220871925354004,-0.25278258323669434,-0.5522201061248779,-0.19817206263542175,-2.357942581176758,-0.9086637496948242,-0.5529427528381348,-0.16773901879787445,-0.1470923125743866,-0.908993124961853,0.20939099788665771,-0.8220066428184509,-0.19466908276081085,1.2307002544403076,-0.05651078373193741,0.5437228679656982,-0.42200884222984314,-0.3730938732624054,-1.261492371559143,-1.6401550769805908,-0.902259349822998,-0.7138017416000366,0.08107490837574005,0.20393185317516327,0.5679027438163757,0.05278930440545082,-1.124125599861145,1.2689852714538574,1.7763514518737793,-0.49041295051574707,-0.934777557849884,1.6569504737854004,1.3072025775909424,0.5149149894714355,-1.5190019607543945,0.4974639117717743,-2.1927618980407715,0.3673507571220398,0.11764887720346451,0.9804500341415405,0.07887112349271774,1.5144034624099731,0.11423314362764359,-0.44347867369651794,2.1326422691345215,0.5775620937347412,-0.15709811449050903,-0.6378980875015259
jester3.csv,-0.04349083453416824,2.0768558979034424,-1.2051377296447754,1.083328366279602,0.8192529082298279,-0.5803304314613342,-1.6290024518966675,1.2851684093475342,-0.8806002736091614,0.8085929155349731,-0.9154883623123169,0.4283488392829895,-0.6122347116470337,1.0186741352081299,0.3346700370311737,-0.4885006546974182,1.857144832611084,1.190772533416748,0.9556199312210083,-0.8368224501609802,0.6785706877708435,-2.201996088027954,0.2943572700023651,-0.9199143648147583,-0.33944597840309143,0.2653876543045044,-0.5740451812744141,0.037033285945653915,-0.1400122344493866,1.4856045246124268,0.47422319650650024,-1.9563428163528442,-0.4119745194911957,0.5469024777412415,0.39887192845344543,-0.6485906839370728,-0.7876926064491272,-0.11735037714242935,-0.602540135383606,-0.24601513147354126,-0.15652908384799957,1.1173344850540161,0.4453412592411041,1.6244632005691528,-1.9634363651275635,-0.6163197755813599,0.53865647315979,0.7243795990943909,0.6250726580619812,-1.5351048707962036
yahoo-movies.csv,-0.40840452909469604,1.3210982084274292,-1.4873192310333252,-0.6078612208366394,0.1996104121208191,-1.7085837125778198,-1.0992704629898071,0.2557283043861389,-0.003219997975975275,0.06804678589105606,-0.8375150561332703,-0.8548469543457031,-0.13549752533435822,1.4331376552581787,1.6151930093765259,2.187976360321045,-1.436208963394165,0.21293485164642334,0.7559884786605835,-1.100960612297058,-0.1711491197347641,-1.2884927988052368,-0.9182835817337036,0.02613741159439087,0.3971421718597412,-1.7318121194839478,-0.5578805208206177,0.7997714281082153,-0.3677119314670563,2.009716033935547,0.6872119903564453,-0.41178813576698303,0.8592712879180908,-1.2440400123596191,0.5749471783638,-0.7794315218925476,0.22291262447834015,0.7827710509300232,-1.691082239151001,-0.6423933506011963,0.293086975812912,-0.26753976941108704,0.8556641340255737,0.3369663953781128,-1.7946124076843262,-0.34297043085098267,1.0500450134277344,0.5203812122344971,-1.0515767335891724,-1.0197091102600098
movielens10m.csv,0.37506023049354553,0.9630668759346008,0.07199415564537048,-0.1443808227777481,-1.3792239427566528,0.27295371890068054,-2.182495594024658,1.9148125648498535,0.6685099601745605,1.7606886625289917,-1.3476107120513916,-0.4880574941635132,-0.8049255013465881,0.015613153576850891,-0.08926225453615189,1.3825594186782837,-0.7742001414299011,1.3106005191802979,-0.18516360223293304,-1.150639533996582,0.2719702422618866,-1.8144892454147339,-1.596210241317749,-1.3597546815872192,0.8707632422447205,0.27068373560905457,0.47944048047065735,0.38742372393608093,-1.151175856590271,-0.8357787132263184,1.1034523248672485,0.49927011132240295,-0.3203100562095642,0.01491234079003334,1.2684301137924194,-0.7318180799484253,-1.3152133226394653,0.0857473760843277,-1.5643131732940674,-0.6302043795585632,-1.8210604190826416,-0.2549325227737427,0.4913254678249359,-0.46330899000167847,-0.8706270456314087,1.0257279872894287,0.1525631994009018,0.8266959190368652,-0.08666589856147766,-0.9998185038566589
movielens1m.csv,1.91006338596344,0.8353670239448547,-1.100728988647461,-0.10425685346126556,1.0406103134155273,-0.759800374507904,-1.6152527332305908,-0.07733560353517532,-0.08049969375133514,0.6601347327232361,0.5153056383132935,-0.014934041537344456,-0.32565122842788696,0.24854685366153717,0.3315475285053253,1.9868931770324707,-1.2889251708984375,0.9907509088516235,0.18270348012447357,-1.4095656871795654,-1.0886074304580688,-1.0730592012405396,0.6216258406639099,-2.8222262859344482,1.1771459579467773,0.40156665444374084,-0.44672927260398865,0.5014239549636841,-1.2111694812774658,1.2029659748077393,0.8735149502754211,-1.6121838092803955,-0.847415566444397,0.6403013467788696,1.0036098957061768,0.3080795705318451,0.27199646830558777,-0.7972210645675659,0.29013583064079285,-0.7881805896759033,-0.49334076046943665,0.013482993468642235,1.7414028644561768,-0.07243826985359192,-0.33722177147865295,0.7704812288284302,-0.434940367937088,-1.12505304813385,0.34572234749794006,-1.5456812381744385
amazon-health.csv,0.20023860037326813,-0.31430742144584656,0.14554888010025024,-0.21658267080783844,0.31525537371635437,-0.7153730988502502,-1.8831647634506226,-0.004269965458661318,0.6940268278121948,0.6967735886573792,0.13204026222229004,0.17188037931919098,-0.8057893514633179,0.5369757413864136,0.04980473220348358,1.1946654319763184,-1.292136311531067,1.6111068725585938,0.8183377981185913,-2.220057487487793,-0.8731501698493958,-0.9124422669410706,-1.7218413352966309,-0.30867326259613037,0.136092871427536,-1.2535706758499146,0.28946104645729065,-0.38735634088516235,-1.5773074626922607,0.3763642907142639,-0.0685727596282959,-0.8433986902236938,-1.3629432916641235,1.0523053407669067,0.7285803556442261,0.9257587194442749,-0.5175500512123108,0.5576657056808472,0.02731397934257984,-0.17390595376491547,-1.0984078645706177,1.0002257823944092,1.504626750946045,2.2108919620513916,-1.3064078092575073,-1.7065366506576538,0.3551499545574188,0.8125463724136353,-0.18367469310760498,-1.6749628782272339
