amazon-instant-video.csv,-2.0154807567596436,0.45577719807624817,0.14718422293663025,-1.3517875671386719,-0.6297780871391296,0.9439342617988586,0.0063209375366568565,0.2046957165002823,1.312427043914795,1.1464283466339111,-2.1360034942626953,-0.42041751742362976,-0.7777066230773926,-0.11191534996032715,0.7001000046730042,0.7880786657333374,0.7051286101341248,-1.2256933450698853,0.8607521653175354,-0.5536518692970276
movielens_latest.csv,0.19076025485992432,-0.23552122712135315,0.8823333382606506,-0.9869723320007324,-0.5479714274406433,0.6159085631370544,0.04626768082380295,-1.0717912912368774,0.9163593649864197,0.37470942735671997,-1.8348091840744019,0.8089149594306946,0.3910370469093323,-0.17101649940013885,-0.06045477092266083,1.4459424018859863,-0.4911816120147705,-1.5877721309661865,0.5015231370925903,-2.4563517570495605
amazon-baby.csv,-1.623499870300293,0.2340659201145172,0.4136541485786438,-0.9261740446090698,0.09107844531536102,0.04586410149931908,0.327985554933548,0.8441833257675171,1.5668234825134277,1.089882493019104,-1.2557549476623535,1.2280452251434326,0.1851685643196106,0.8245347142219543,-0.6929146647453308,0.20517383515834808,1.121504545211792,-1.9692720174789429,1.2723444700241089,-0.8550437092781067
tripadvisor.csv,-2.0987441539764404,-0.3505769968032837,0.2701868712902069,-0.5721805095672607,-0.2738197445869446,0.1780099868774414,0.6985467672348022,0.23196853697299957,1.157095193862915,1.4041821956634521,-1.6937220096588135,-0.520399272441864,-0.14240725338459015,0.3691093325614929,-0.8728498220443726,0.8679193258285522,0.04504699632525444,-2.290201187133789,0.19035008549690247,-1.0091949701309204
amazon-sports.csv,-2.4059324264526367,-0.09717026352882385,0.8177632689476013,-0.34431684017181396,0.3578871488571167,0.28306230902671814,0.6850464940071106,-0.7107400894165039,1.3551080226898193,0.856186032295227,-1.741106390953064,-0.02305692248046398,-0.34770673513412476,0.5184359550476074,0.27529048919677734,0.6471099853515625,-0.1775447577238083,-2.1936049461364746,0.7360982894897461,-0.6010621190071106
yelp.csv,-0.964361310005188,0.7285832762718201,-0.8398641347885132,-0.703534722328186,-0.09794823080301285,0.26922407746315,-0.8935457468032837,0.11503253132104874,0.5236097574234009,0.76904296875,-2.175217628479004,-0.4602203071117401,-0.27551591396331787,0.23066915571689606,0.4341626763343811,1.0231462717056274,-1.2332683801651,-2.755234479904175,0.027458449825644493,-0.39834004640579224
amazon-phones.csv,-0.6388939619064331,-0.11202145367860794,0.08160041272640228,-0.36537984013557434,0.023581216111779213,-0.4626415967941284,-0.35025250911712646,0.11338179558515549,1.2483803033828735,1.4042452573776245,-2.643805503845215,-0.11930222809314728,-0.3912868797779083,0.5558430552482605,0.6946420669555664,0.5116701722145081,1.210677981376648,-2.0100607872009277,0.9901517629623413,-0.9283283352851868
amazon-cd.csv,-1.6980682611465454,-0.3962632119655609,-0.00239270250312984,-0.3724897801876068,1.374071478843689,-0.07088132947683334,-0.018543070182204247,-0.5867655277252197,0.5315921902656555,1.2521737813949585,-2.284034013748169,0.04683585464954376,0.02496320940554142,0.5775054097175598,-0.4431537389755249,-0.3370819091796875,1.1345784664154053,-2.2644283771514893,0.5320115685462952,-0.4140388071537018
yahoo-movies.csv,-1.9835963249206543,-0.45159196853637695,-0.23901855945587158,0.22254334390163422,-0.8299438953399658,-0.04817051813006401,0.18294954299926758,-1.6627739667892456,0.308893084526062,1.4380340576171875,-1.5047621726989746,0.7552598118782043,0.48045241832733154,-1.1823512315750122,0.08817584067583084,1.367322564125061,0.32383671402931213,-1.5057233572006226,1.0757149457931519,-0.48154234886169434
jester3.csv,-0.40939000248908997,0.6074622869491577,-0.25499120354652405,0.3187336027622223,0.31575465202331543,1.0168334245681763,0.6845058798789978,-0.5313615798950195,1.2196093797683716,1.908952236175537,-1.4491530656814575,0.528110682964325,-1.4763582944869995,-0.7423537373542786,0.1507212519645691,-0.40800341963768005,-0.32243338227272034,-1.4028072357177734,0.9515140652656555,-2.0011560916900635
amazon-kindle.csv,-1.3331313133239746,0.341704398393631,-0.3456738591194153,-1.6238468885421753,-0.6671870946884155,-0.8187013864517212,0.6717851758003235,-0.9201172590255737,0.7295905947685242,1.1440818309783936,-1.7214932441711426,0.41226083040237427,1.0574387311935425,0.5846778154373169,0.9012724757194519,0.14180803298950195,-0.2868412435054779,-2.287761926651001,0.5814077258110046,-0.12243316322565079
flixter.csv,-1.4350031614303589,0.16456300020217896,1.2219276428222656,0.6831758618354797,0.1176171749830246,0.11606782674789429,-0.012751305475831032,0.6703036427497864,1.5417426824569702,1.0366615056991577,-2.241469144821167,1.3052256107330322,-0.21052846312522888,-0.464435875415802,1.0775749683380127,1.3386032581329346,0.11523201316595078,-0.6928342580795288,0.6014424562454224,-1.1088541746139526
amazon-digital-music.csv,-2.2216176986694336,0.9198641777038574,0.4464327096939087,-0.5782910585403442,-0.4167066514492035,-0.6858528852462769,-0.6460609436035156,-0.3439336121082306,0.5623486042022705,1.3923875093460083,-0.9290863275527954,0.5475010275840759,-1.0510324239730835,0.5337791442871094,0.8465366363525391,0.2578790783882141,0.39530467987060547,-1.8499971628189087,0.49008360505104065,-1.7593268156051636
amazon-tools.csv,-1.0279535055160522,1.1710937023162842,-0.6651997566223145,-0.45136162638664246,0.711428165435791,0.8035902976989746,1.2372608184814453,0.4512730836868286,1.8856024742126465,0.6236609220504761,-1.311418890953064,-0.2511274814605713,0.3749678432941437,-0.09890797734260559,0.8917289972305298,0.13528674840927124,1.2019296884536743,-2.368651866912842,0.4947296380996704,-0.2194957584142685
bookcrossing.csv,-1.9676287174224854,1.1185972690582275,-0.13028846681118011,0.4332680404186249,-0.6609146595001221,-0.2591645121574402,-0.544156551361084,1.177975058555603,1.7663086652755737,1.1526774168014526,-1.242953896522522,0.13142311573028564,0.36203858256340027,-1.0596518516540527,-0.03157616779208183,0.9039031863212585,0.14412331581115723,-1.915701150894165,0.5682618021965027,0.6232839822769165
amazon-clothes.csv,-0.6949093341827393,0.6595460772514343,0.21437384188175201,-0.9599202275276184,-0.07953998446464539,0.1528361290693283,-1.026749610900879,0.33890390396118164,0.882736086845398,0.5245069861412048,-1.0093528032302856,0.4460679888725281,-0.6472668647766113,-0.2160676270723343,-0.19513645768165588,0.5117949843406677,0.6836485266685486,-3.312659978866577,1.3511513471603394,-0.7819746732711792
jester2.csv,0.2027600258588791,0.19140025973320007,0.8640707731246948,-0.7083116173744202,-1.2628273963928223,0.2586243748664856,0.8709573149681091,0.2868976294994354,1.1313247680664062,2.3859519958496094,-1.997897744178772,1.063755989074707,-0.5960294604301453,-0.586685061454773,-0.5509731769561768,0.42517563700675964,-0.20177266001701355,-1.6793919801712036,0.05162470042705536,0.16753973066806793
movielens100k.csv,-1.4405370950698853,0.8696511387825012,0.0614486038684845,0.07606592774391174,-0.5914970636367798,1.4057263135910034,0.293593168258667,-0.3961915373802185,0.10588815063238144,1.1480032205581665,-2.215526819229126,1.555173397064209,-0.25966572761535645,1.2320042848587036,-0.34451547265052795,0.8961465954780579,-0.3950704336166382,-0.9890686273574829,1.388986349105835,-0.6024940609931946
movietweetings_recsys2014.csv,-1.2915775775909424,-0.25285273790359497,-1.2641685009002686,0.7668793797492981,-0.987898051738739,0.9306447505950928,0.2249755561351776,-0.172686368227005,1.3893592357635498,0.025853006169199944,-1.5539960861206055,-0.4591037631034851,0.015000064857304096,-0.19885872304439545,-0.7440224885940552,0.939306378364563,0.6244351267814636,-1.3537774085998535,1.315949559211731,-2.042677164077759
jester1.csv,-0.6446039080619812,0.7229384183883667,0.10273704677820206,1.0717415809631348,-0.9040566086769104,-0.5902010798454285,0.8604675531387329,-1.2114763259887695,1.6272772550582886,0.3612775504589081,-2.4116663932800293,1.2470614910125732,-0.6524409651756287,0.19324949383735657,-0.8867162466049194,-0.05709304288029671,-0.415897399187088,-1.4816733598709106,-0.678309440612793,-0.5459831953048706
amazon-health.csv,-0.857793927192688,-0.029415180906653404,0.18004228174686432,-1.211235761642456,-0.7750556468963623,-0.6590297222137451,0.7200350761413574,0.2677825093269348,1.7840790748596191,1.1867974996566772,-2.186378240585327,-0.7938042879104614,0.7392199635505676,0.06306499242782593,0.3352068364620209,0.3687656819820404,0.0032176992390304804,-1.6342871189117432,0.6212692856788635,-1.5103553533554077
amazon-office.csv,-1.7848683595657349,-0.15876471996307373,-0.24216081202030182,-0.41676804423332214,-0.7365924119949341,-0.022195467725396156,1.1432688236236572,0.845158040523529,1.008599042892456,1.3150030374526978,-0.7913039326667786,0.062340158969163895,-0.39072245359420776,-0.38695064187049866,0.923590362071991,0.04459314048290253,0.6256253123283386,-1.889290690422058,2.1445772647857666,-0.9477806091308594
movielens10m.csv,-1.402007818222046,1.2323654890060425,-0.4213603436946869,-0.9205753803253174,-0.3106759190559387,1.2585742473602295,1.3504570722579956,0.25873592495918274,0.6012167930603027,0.28997722268104553,-1.02243971824646,1.2358644008636475,0.1351337432861328,-1.7359243631362915,-0.6192928552627563,0.6316729187965393,-1.0554996728897095,-1.7099637985229492,0.1598060131072998,-1.0115952491760254
amazon-garden.csv,-1.4473263025283813,0.17648205161094666,-0.22551971673965454,-1.7533067464828491,0.5123400688171387,0.3740178942680359,-0.06493283063173294,0.8957984447479248,1.8374179601669312,1.5642198324203491,-1.5858861207962036,0.3664287328720093,0.605612576007843,0.6335271596908569,0.1972344070672989,0.29144585132598877,-0.47337478399276733,-1.4144032001495361,0.9851818680763245,-0.9903240203857422
amazon-movies.csv,-1.3736993074417114,-0.6833775043487549,-1.9255722761154175,-0.24710698425769806,-0.11509940773248672,-0.38010576367378235,0.6926917433738708,0.09308131784200668,1.1957991123199463,0.7745320200920105,-2.112433910369873,1.561349630355835,-0.20660187304019928,0.793547511100769,0.47871699929237366,0.5361214280128479,0.446288138628006,-1.3595449924468994,0.3493020832538605,-0.9707052707672119
amazon-beauty.csv,-1.5901340246200562,0.27545788884162903,-0.2339158058166504,-0.6173364520072937,-0.1146373301744461,-0.5194267630577087,-0.1308300495147705,-0.7240355610847473,2.62540602684021,0.5073744058609009,-1.0622804164886475,0.08089545369148254,0.14685647189617157,-0.6717290878295898,0.6315996050834656,-0.9852815270423889,0.6343095898628235,-1.8221265077590942,0.9587347507476807,-1.168831467628479
amazon-food.csv,-1.2161202430725098,1.5037049055099487,0.4912523329257965,-0.36466267704963684,-0.2515529692173004,-0.3724488914012909,0.43899431824684143,-0.5589264035224915,1.5012873411178589,-0.4742376208305359,-2.0052554607391357,-0.022520147264003754,0.2232823520898819,0.4167475700378418,-0.2673879563808441,0.782524585723877,0.43912166357040405,-2.116912603378296,1.5810893774032593,-0.7725399136543274
amazon-automotive.csv,-1.163833498954773,0.43180522322654724,-0.37627631425857544,-0.5825527310371399,0.4800783395767212,-0.8700993061065674,0.9669784307479858,-0.6817291378974915,1.8805882930755615,0.5940325260162354,-1.4549205303192139,0.37545570731163025,-0.38825899362564087,0.1422920674085617,0.43935054540634155,1.3480719327926636,0.09591701626777649,-2.3011691570281982,1.3126686811447144,-0.4842386245727539
amazon-toys.csv,-1.6252212524414062,-0.0076776547357439995,-0.2026733160018921,-0.04537269100546837,0.2250078320503235,-0.1451454609632492,-0.7885714769363403,-0.5318129658699036,2.8013715744018555,1.4023607969284058,-1.6127581596374512,0.25402510166168213,0.203673854470253,0.31130266189575195,0.3361053764820099,0.3121476173400879,0.08579596877098083,-1.6075166463851929,0.8793632984161377,-0.3817501366138458
movielens20m.csv,-0.3346010446548462,-0.23653116822242737,0.20376905798912048,0.6936482787132263,-0.3247716724872589,1.0096901655197144,0.695790708065033,0.01669233851134777,1.1356805562973022,0.9612502455711365,-1.7768021821975708,1.2405614852905273,1.4486393928527832,-0.40406376123428345,0.46475034952163696,0.16259369254112244,0.12704451382160187,-2.5824825763702393,1.0224130153656006,-0.7452117204666138
movielens1m.csv,-1.283357858657837,-0.013177411630749702,0.26798030734062195,-0.2637898027896881,-1.0230127573013306,0.7395020127296448,-0.7910378575325012,-0.3224678337574005,0.6814616918563843,1.2061741352081299,-2.5847396850585938,1.2624194622039795,0.0010614384664222598,-1.0949890613555908,-0.005978655070066452,-0.9069985151290894,0.43611466884613037,-1.2778486013412476,0.3754795491695404,-1.3071659803390503
amazon-pet-supplies.csv,-1.7772047519683838,0.41627275943756104,-0.35824811458587646,-1.5753296613693237,-0.38366612792015076,-0.5471583604812622,-0.21184082329273224,-0.006683692801743746,1.9845609664916992,0.59452885389328,-1.3597257137298584,0.5057357549667358,-0.6416003704071045,0.15327365696430206,-0.43221554160118103,0.36537089943885803,0.7882906794548035,-2.0162758827209473,0.21311965584754944,-1.2971265316009521
amazon-instruments.csv,-1.7959572076797485,-1.3675849437713623,0.07143791764974594,-0.7822398543357849,0.8448829054832458,-0.27827417850494385,0.43275314569473267,0.3287064731121063,1.2706979513168335,0.4510565400123596,-1.6415916681289673,0.5754908919334412,-0.7015190720558167,-1.0289628505706787,0.25358209013938904,0.7494857907295227,-0.05628987029194832,-2.3811726570129395,0.4162232577800751,-0.577236533164978
amazon-home.csv,-1.6582709550857544,0.2380782514810562,0.45404326915740967,-0.1290121227502823,-0.8570896983146667,0.002322969725355506,0.2695061266422272,0.634658694267273,1.3656797409057617,0.37502628564834595,-2.43109393119812,-0.14711713790893555,0.2796885073184967,0.7762867212295532,0.6153354644775391,-0.6177954077720642,-0.47262337803840637,-2.2424025535583496,0.6676284074783325,-0.8272924423217773
yahoo-music.csv,-1.1283997297286987,0.8459863066673279,-0.043147534132003784,0.24879129230976105,-0.023440741002559662,1.4593886137008667,0.08428636938333511,-0.8990446329116821,1.1175814867019653,1.6450384855270386,-0.6181868314743042,1.0636578798294067,0.22709795832633972,0.30210080742836,0.3382898271083832,1.0656063556671143,1.1840344667434692,-1.8079172372817993,-1.4907095432281494,-1.1168426275253296
movietweetings_latest.csv,-1.0675106048583984,1.405512809753418,-0.24026218056678772,0.07476914674043655,-0.2455989122390747,-0.8054603934288025,0.6551772356033325,0.34608209133148193,0.3349241018295288,0.8921061158180237,-2.2775352001190186,0.8241890668869019,0.9274895191192627,-0.48013541102409363,-0.14035019278526306,0.830087423324585,1.2459466457366943,-1.4993928670883179,0.31472936272621155,-1.757814645767212
amazon-games.csv,-0.9584778547286987,-0.5348583459854126,0.31356993317604065,-0.8663038015365601,-0.6108622550964355,0.28028810024261475,0.21450713276863098,0.37886857986450195,1.8729286193847656,-0.4256812632083893,-2.1311516761779785,0.7756974101066589,-0.1511811763048172,0.40045541524887085,-0.2189914882183075,1.1392426490783691,1.697241187095642,-1.8699570894241333,0.750113308429718,-0.059176698327064514
amazon-apps.csv,-2.19582200050354,-0.5652734041213989,0.11352305859327316,-1.3432278633117676,-0.7990966439247131,-0.006574536208063364,-0.5197520852088928,-0.26698195934295654,2.0310802459716797,0.534980058670044,-1.0978257656097412,0.770462155342102,-0.48343294858932495,0.6490005254745483,-0.04521148279309273,0.29759737849235535,0.3914864957332611,-1.9347717761993408,0.8581154346466064,-0.6876462697982788
