yelp.csv,-0.16329284012317657,-0.09420964121818542,-0.9530462026596069,-1.8613629341125488,-0.10658983886241913,1.247780442237854,-0.16780304908752441,0.4781854450702667,-1.0059794187545776,0.9338974952697754,-0.49009159207344055,0.540579617023468,-0.38037195801734924,-0.8773431777954102,-0.8264551758766174,-0.3033106327056885,0.04817434400320053,2.469585657119751,1.1757612228393555,0.5888656377792358,0.748436689376831,0.945513129234314,0.646344780921936,-0.13772785663604736,-0.4768577218055725,-0.4844350516796112,0.7348496317863464,2.845700740814209,-0.7562282085418701,0.5168564915657043
amazon-kindle.csv,0.02178316004574299,0.051127202808856964,-1.818941593170166,-1.8819152116775513,-2.3455798625946045,0.41836825013160706,-0.5436059236526489,-0.7617584466934204,-1.3595033884048462,0.8303496241569519,-1.0429798364639282,-1.0694547891616821,-0.20859870314598083,-1.147945761680603,-0.3625725507736206,-0.9027508497238159,0.21421614289283752,0.5249589681625366,0.5500077605247498,0.16415934264659882,1.3206684589385986,0.05077729374170303,0.07590901851654053,-0.8281534910202026,-1.2677667140960693,-1.4608347415924072,-0.12991639971733093,1.5491431951522827,-0.4047183692455292,-0.3258122503757477
amazon-movies.csv,0.524863064289093,0.46669045090675354,-0.8518838286399841,-1.258405089378357,-0.9282987117767334,1.4467344284057617,-0.2770572900772095,0.27370762825012207,-0.9067057967185974,1.0203144550323486,-1.2314422130584717,-0.9448368549346924,-0.8585227131843567,-0.6804786324501038,0.9647027254104614,-2.3516578674316406,-0.24085627496242523,0.8935867547988892,0.9587849378585815,0.07387375086545944,0.9045500159263611,1.1599116325378418,-0.6506117582321167,0.897710382938385,-0.7202897667884827,1.469110369682312,0.6306899785995483,1.8446742296218872,-0.6694543957710266,-0.24022577702999115
amazon-garden.csv,-0.058715175837278366,0.1867028772830963,-1.9154269695281982,-0.17775863409042358,-1.7992534637451172,1.4279394149780273,-0.1997241973876953,-0.058221977204084396,-0.6425685882568359,0.6539888381958008,-0.667518675327301,-0.6733809113502502,-0.6434016227722168,-0.450573593378067,-0.11589814722537994,-0.37599682807922363,0.24924835562705994,1.1779148578643799,0.6776338219642639,-0.09043892472982407,1.5563139915466309,1.9804768562316895,0.6775416135787964,0.015569610521197319,-1.4345285892486572,0.0575401708483696,0.9410248398780823,2.029372215270996,1.4447846412658691,-0.7463793158531189
amazon-health.csv,0.380875825881958,0.5268764495849609,-2.27413010597229,-1.4826464653015137,-1.6555464267730713,1.5542879104614258,-0.07929736375808716,0.1590268462896347,-0.9913510084152222,0.34343069791793823,-0.2943994402885437,-0.9580711722373962,-0.5469233989715576,-1.2292194366455078,0.057182908058166504,-0.4936006963253021,-0.1814797967672348,0.3948978781700134,0.4185166358947754,0.6256148815155029,1.9577196836471558,1.8133585453033447,0.3828900456428528,-0.03234906867146492,-0.7558226585388184,-0.8863893747329712,0.6883670091629028,0.9197170734405518,-0.7266990542411804,-1.2759721279144287
movielens_latest.csv,0.6850091218948364,0.6185585856437683,-0.9916932582855225,-0.26462194323539734,-0.49870163202285767,1.367628812789917,-0.4822845160961151,-1.019222617149353,-0.16007907688617706,0.802986741065979,-1.7433595657348633,-0.3041631579399109,-1.9182360172271729,-0.18517863750457764,0.28839340806007385,-1.279951572418213,0.7649797201156616,0.6107036471366882,0.2070375233888626,-0.8905831575393677,0.9060823917388916,0.9057528376579285,0.977361261844635,-2.1405608654022217,-1.7264357805252075,0.44848328828811646,0.46607354283332825,1.5486565828323364,-0.7770429253578186,0.3044705390930176
amazon-automotive.csv,0.10143965482711792,0.39081719517707825,-2.8569931983947754,-0.17517252266407013,-1.2685456275939941,0.8581013083457947,-1.3876579999923706,0.013768789358437061,-0.5398080348968506,0.5517861843109131,0.4997323155403137,-0.03364723175764084,-1.4125444889068604,-0.2465408593416214,0.7062062621116638,-0.8873319625854492,-0.08775544911623001,0.9541547894477844,1.2821911573410034,-0.26373907923698425,1.6405924558639526,0.4664760231971741,0.9949565529823303,0.1614346206188202,-0.6136718392372131,-1.1104837656021118,1.1178154945373535,1.5292422771453857,-1.0557935237884521,-0.5606098771095276
movielens20m.csv,-0.7786327004432678,0.666145920753479,-1.8724408149719238,-0.748033344745636,-0.9713729619979858,-0.34547868371009827,-0.28774210810661316,0.13061249256134033,-1.366086483001709,2.847670555114746,-1.2954516410827637,-1.0307402610778809,-0.9047791957855225,-0.2665945589542389,-0.2131900042295456,-1.1518399715423584,0.44037047028541565,-0.05369472876191139,0.9688320159912109,0.7145165801048279,0.1921011209487915,1.9330532550811768,0.7075374722480774,0.05508824437856674,-0.8140966892242432,-0.5899392366409302,0.037164799869060516,1.2389293909072876,-0.4046953320503235,0.3310285806655884
jester2.csv,0.4860707223415375,-1.5642364025115967,-1.5907154083251953,-0.8787888288497925,-1.1233502626419067,0.5260257720947266,-0.03969829902052879,-0.11989623308181763,-0.4884550869464874,0.9601178765296936,-0.5206936597824097,-0.9097331166267395,-1.0045230388641357,1.0382112264633179,0.6055392026901245,-1.1813369989395142,0.9359527826309204,0.6359201669692993,1.48556387424469,1.2394700050354004,1.0200860500335693,0.8461092710494995,0.4413575232028961,-0.5612712502479553,-2.116427183151245,-0.3459869623184204,1.359865427017212,1.3780580759048462,-0.8425145149230957,0.0662006139755249
amazon-clothes.csv,-0.24437019228935242,0.3267316222190857,-2.6660549640655518,-0.5458430647850037,-2.1326844692230225,1.6229068040847778,-0.09619678556919098,-0.4853348135948181,-1.2174327373504639,0.448401540517807,-0.8807308077812195,-0.5331199765205383,-0.6211311221122742,-0.5928382277488708,0.1015210822224617,-0.881506085395813,0.5816417336463928,1.7932145595550537,1.1011098623275757,0.27095121145248413,1.3629868030548096,0.6040394902229309,0.24142837524414062,0.42964303493499756,-0.6362227201461792,-0.5296928882598877,0.9386409521102905,0.600077748298645,-0.9473322033882141,-0.7770712971687317
amazon-baby.csv,-0.4902781546115875,0.42532891035079956,-1.6744954586029053,-1.3645918369293213,-1.8551630973815918,0.683387279510498,-0.49227577447891235,-0.45105865597724915,-1.46318781375885,0.04002135619521141,0.42657601833343506,-0.46951016783714294,-0.9737148284912109,-0.5774540305137634,-0.43225160241127014,-2.270352363586426,0.5196676254272461,0.46340641379356384,0.17687176167964935,1.0889393091201782,1.4570908546447754,0.6787785887718201,0.8673014640808105,1.0411477088928223,-1.361506700515747,-0.5268951058387756,0.19826845824718475,1.469277024269104,-0.8353651165962219,0.4911523759365082
amazon-cd.csv,-0.8202669620513916,0.4717056155204773,-1.2187052965164185,-0.6162319183349609,-1.905103325843811,1.884719967842102,-1.052268624305725,-0.21526780724525452,-0.9733436703681946,0.3882993459701538,-1.2456860542297363,-0.44916045665740967,-0.49253472685813904,0.12146185338497162,0.5101172924041748,-1.1616311073303223,-1.1980277299880981,0.2167382687330246,0.8660354018211365,1.1929519176483154,1.419289469718933,0.9937881827354431,-0.023282691836357117,-0.7348179817199707,-0.6395031809806824,-1.0727537870407104,0.9018393754959106,1.83718740940094,-1.1128568649291992,0.03453144431114197
movielens10m.csv,-0.49317172169685364,0.40744754672050476,-1.9249677658081055,0.4105331599712372,-0.16003678739070892,0.46542271971702576,-0.008606397546827793,-0.7153027653694153,-1.2273998260498047,0.15831409394741058,-0.9811970591545105,-0.3136431574821472,-0.164422407746315,0.6752943992614746,-1.269618272781372,-1.1104665994644165,1.2219042778015137,0.3270606994628906,0.6638322472572327,0.3297756612300873,1.734521508216858,2.0026164054870605,0.5810450911521912,-0.7323738932609558,-1.4457001686096191,-0.8640056252479553,-0.019608497619628906,1.161265254020691,-2.010582208633423,-0.8783895373344421
amazon-games.csv,1.414776086807251,0.7360366582870483,-1.690391182899475,-0.30735301971435547,-2.180405855178833,0.669037938117981,-0.21579588949680328,-0.27587637305259705,-0.620288074016571,0.8430954217910767,-0.4519325792789459,-1.056900143623352,0.03526169806718826,0.9714414477348328,-0.7135688662528992,-1.7741608619689941,0.11078213155269623,1.0733729600906372,-0.010231290012598038,1.0034868717193604,1.9400357007980347,1.0294331312179565,0.686204195022583,-0.14044290781021118,-0.04160445183515549,-0.48852723836898804,0.3342821002006531,1.8378623723983765,-0.48205000162124634,-0.8449165225028992
yahoo-movies.csv,0.09036476910114288,-0.24660496413707733,-0.9990471005439758,-0.6362901926040649,-1.552060842514038,1.6173709630966187,-0.5766423344612122,0.7637349963188171,-0.6938090920448303,0.7500886917114258,-0.5647741556167603,0.24917925894260406,-1.1555248498916626,0.11793313175439835,-0.46877095103263855,-0.6260327100753784,-0.5538764595985413,-0.5287261605262756,1.6478220224380493,0.6123007535934448,0.15800976753234863,0.5149458646774292,0.2537704110145569,-0.10896488279104233,-2.3702306747436523,-0.6350357532501221,-1.3683619499206543,1.9699864387512207,-1.336533546447754,-1.2640340328216553
movietweetings_recsys2014.csv,0.21218031644821167,-0.2914791405200958,-0.6163732409477234,0.47745105624198914,-1.0782761573791504,0.7701423764228821,0.24027259647846222,-1.3294439315795898,-2.0871872901916504,0.49988970160484314,-0.48754116892814636,0.7513790726661682,-1.8433701992034912,-0.13211186230182648,-0.35812506079673767,-2.0952162742614746,-0.9894159436225891,1.2781354188919067,1.60781991481781,0.32841306924819946,0.09365011006593704,1.089866280555725,0.4305802285671234,-0.39294910430908203,-0.6277009844779968,-1.4180984497070312,0.7644311189651489,1.4502265453338623,0.38335663080215454,-0.5075856447219849
amazon-office.csv,-0.515971839427948,-0.3339764475822449,-1.4415957927703857,-0.9594802260398865,-1.8324780464172363,1.113689661026001,-0.5770853161811829,-0.9188344478607178,-1.2083020210266113,0.9156664609909058,-0.48336783051490784,0.07018393278121948,-1.4966175556182861,-0.4960162043571472,0.7060208320617676,-0.9262553453445435,-0.31817784905433655,1.456827163696289,0.41927972435951233,0.9946898818016052,2.619929552078247,0.371536523103714,0.5104221105575562,0.3826395273208618,-1.0859529972076416,0.08257322758436203,-0.13657790422439575,1.5339065790176392,0.22741658985614777,0.24777893722057343
amazon-phones.csv,-0.5961825251579285,-0.23340892791748047,-1.8585574626922607,-0.36748069524765015,-0.9762576818466187,1.5097070932388306,-1.87284517288208,0.06640681624412537,-0.9097668528556824,0.5413645505905151,0.07826219499111176,-0.6972694993019104,-0.04014798626303673,-0.21713246405124664,0.44590750336647034,-1.4999423027038574,-0.07328835129737854,-0.21649117767810822,0.08282516151666641,0.11420667171478271,2.1327590942382812,1.1733949184417725,0.6301745772361755,0.7780739068984985,-2.075751543045044,-0.8265714049339294,0.8190735578536987,1.56325364112854,-0.07905475050210953,-0.1817646622657776
jester1.csv,-0.20329813659191132,0.01877269521355629,-1.5821623802185059,-0.2273719310760498,-1.3090624809265137,0.7589285373687744,1.0084408521652222,-0.6527925133705139,0.4869030714035034,1.478388786315918,-0.41117578744888306,-0.8316857218742371,-0.5479574799537659,-0.6073930859565735,0.12685325741767883,-1.2942088842391968,0.7468438148498535,-0.1719418317079544,1.1883931159973145,0.722259521484375,0.8620733618736267,0.753070592880249,-0.7171604037284851,0.0074672759510576725,-0.767780601978302,-1.0419913530349731,1.6680980920791626,2.7562928199768066,-1.118229866027832,-0.6128913164138794
tripadvisor.csv,-0.8335936069488525,0.25361841917037964,-1.0068672895431519,-1.5463601350784302,-1.0199506282806396,-0.1986217051744461,-0.15017014741897583,-1.0125411748886108,0.11466357111930847,1.2201308012008667,-0.8457717895507812,-0.424795538187027,-1.5729787349700928,0.44150981307029724,-0.5882773995399475,-1.6458531618118286,-0.7665382027626038,1.4748504161834717,-0.05788063630461693,0.2867419421672821,1.6465351581573486,1.169602632522583,-0.2568431496620178,0.08271844685077667,-1.4215577840805054,-0.3958478271961212,1.094251036643982,1.3461883068084717,-0.9159128069877625,-1.6000882387161255
amazon-instruments.csv,0.20335324108600616,-0.741848349571228,-2.159240961074829,-0.8261123299598694,-2.2439005374908447,0.8339417576789856,0.07043956220149994,-0.05220314487814903,-0.6644023060798645,0.9863978028297424,-0.7388627529144287,-0.22583691775798798,-1.3932373523712158,-1.0645543336868286,0.26560941338539124,-1.0722407102584839,-0.7183493375778198,0.5665030479431152,-0.47110795974731445,0.14371678233146667,2.068492889404297,1.5058526992797852,0.81548672914505,0.1973164677619934,-0.9637888669967651,-0.37944647669792175,0.8576370477676392,0.9239334464073181,-0.942878007888794,-0.3721363842487335
amazon-digital-music.csv,-0.9352015852928162,-0.3553682565689087,-1.8996034860610962,-0.9187639355659485,-1.5472204685211182,0.3981856405735016,-0.8783832788467407,-0.4043218195438385,-0.4691893756389618,0.8637747764587402,-0.325607568025589,0.0375882163643837,-0.6137537956237793,-0.6249265074729919,0.9670184254646301,-0.4718022644519806,0.29202258586883545,1.5852417945861816,-0.8148925304412842,0.2103530317544937,1.8071542978286743,1.2028218507766724,0.5512078404426575,-0.09278018772602081,-1.4081788063049316,-1.1723817586898804,0.8836262226104736,1.8812185525894165,-1.3118388652801514,-0.5750222206115723
amazon-toys.csv,-0.3838522434234619,-0.5202447175979614,-3.014157295227051,-1.3467652797698975,-1.086159110069275,0.5291200280189514,-0.2641211748123169,0.40861037373542786,-0.6950586438179016,0.17653554677963257,0.24820773303508759,-0.5892444849014282,-0.8657457232475281,-0.32047325372695923,0.8732048273086548,-1.7090784311294556,-0.8363333940505981,1.8291633129119873,-0.40971601009368896,0.3926122188568115,0.4432255029678345,1.1105787754058838,0.696256160736084,-1.343494176864624,-1.516749382019043,-0.44678544998168945,0.00323879555799067,0.9090321063995361,-0.2394869476556778,-0.2391034960746765
movietweetings_latest.csv,0.07347291707992554,-0.04035681113600731,-1.7442102432250977,0.6586041450500488,-0.9936519265174866,-0.45049646496772766,0.27189725637435913,0.3355743885040283,0.028300385922193527,0.23073861002922058,-1.9052553176879883,-0.8275948762893677,-0.7144279479980469,-0.7260515093803406,0.810060441493988,-1.4060213565826416,-0.672355592250824,1.9921722412109375,0.2645585238933563,-0.5011855363845825,0.80323725938797,0.8529632687568665,0.8889393210411072,0.6933228373527527,-1.2125440835952759,-0.39720889925956726,-0.8183794617652893,2.3340888023376465,-1.3443195819854736,-0.40239498019218445
amazon-pet-supplies.csv,-0.16140875220298767,-0.8017406463623047,-2.4298925399780273,-0.9608522653579712,-2.192412853240967,1.092134952545166,-1.0042543411254883,-0.8297858834266663,-0.5834483504295349,0.6793028116226196,-1.304969310760498,0.3140500485897064,-0.6588398814201355,0.01424137782305479,-0.6327627301216125,-1.3815356492996216,0.12723781168460846,0.8533008098602295,-0.46504032611846924,-0.1153215691447258,-0.2771783471107483,1.0175883769989014,0.21829776465892792,1.1270544528961182,-1.284172773361206,-0.6570738554000854,1.3820353746414185,1.3395416736602783,-0.5091158151626587,0.10849465429782867
bookcrossing.csv,-0.0031490554101765156,0.5179303884506226,-1.2438437938690186,-0.6840090751647949,-1.6260145902633667,1.0446414947509766,-0.07303167134523392,-1.0715913772583008,-1.036486029624939,1.8099405765533447,-0.03885665535926819,0.3680557310581207,0.6294865012168884,-0.7645353674888611,0.963579535484314,-0.9971804022789001,0.48118555545806885,1.654785394668579,0.4143747091293335,0.17062067985534668,0.7959591150283813,1.2719743251800537,0.20227885246276855,0.2672562599182129,-2.341093063354492,-0.8361198902130127,0.679564356803894,1.091665267944336,-1.4222241640090942,-0.21571125090122223
flixter.csv,-0.6289769411087036,-0.12224822491407394,-1.5752830505371094,-0.014423211105167866,-1.4260505437850952,1.0369293689727783,0.47220247983932495,-1.2153247594833374,-0.010651801712810993,0.5933077335357666,0.3562588393688202,-0.7214741110801697,-0.9462843537330627,-0.7457656264305115,-0.47891587018966675,-1.014234185218811,-1.1168410778045654,0.4459894597530365,1.0332080125808716,0.8550605177879333,0.7614342570304871,1.9327276945114136,1.7631608247756958,-0.6587864756584167,-1.2851712703704834,0.9745553731918335,0.30288949608802795,1.7344095706939697,-1.2496248483657837,0.47319769859313965
amazon-beauty.csv,-0.6332383155822754,0.24950513243675232,-1.145383596420288,-0.40205639600753784,-1.744014859199524,1.2693793773651123,-0.4145280718803406,-0.11172258853912354,0.12627841532230377,1.055263876914978,-0.43587207794189453,-0.9656021595001221,-1.7074007987976074,-0.29257187247276306,-0.35649940371513367,-1.3190131187438965,0.14197537302970886,1.5926921367645264,0.3547675311565399,-0.11524458229541779,2.0378496646881104,1.1089873313903809,0.7711657881736755,0.6383118629455566,-1.5403581857681274,-1.5213813781738281,0.5784919261932373,0.9496949911117554,-0.5119698643684387,0.9162923693656921
movielens1m.csv,-0.28535541892051697,-1.2537277936935425,-1.1997119188308716,0.31698864698410034,-1.528336763381958,0.3551369905471802,0.10341788828372955,-0.2773952782154083,-1.8118062019348145,0.045074399560689926,-0.6858248710632324,-0.5295066833496094,-1.7689989805221558,0.22749781608581543,0.5830858945846558,-0.6496252417564392,0.7091777920722961,-0.10352218151092529,-0.016414958983659744,0.04086606204509735,0.47654810547828674,2.699946880340576,-0.44241863489151,0.0028450717218220234,-0.7835731506347656,-0.027845051139593124,0.1761743277311325,2.320711135864258,-1.3103910684585571,0.5496177077293396
amazon-instant-video.csv,0.5906978845596313,0.14105525612831116,-0.6659907102584839,-1.36515212059021,-1.6722056865692139,1.1069163084030151,-0.5746228098869324,-0.015572293661534786,0.06698121875524521,0.6648894548416138,0.02665599249303341,-0.2164640724658966,-1.0865247249603271,-0.43512704968452454,0.9144155979156494,-1.7976878881454468,0.2876659333705902,1.0587677955627441,0.831091582775116,0.995908796787262,1.487014889717102,2.202629804611206,0.5666930675506592,-0.4365766942501068,-0.8809953927993774,-1.4716780185699463,-0.5428800582885742,1.788388729095459,-0.3059109151363373,0.22525642812252045
yahoo-music.csv,0.1269652396440506,-0.06540469080209732,-1.5186114311218262,-0.347490131855011,-1.0684571266174316,1.0378602743148804,-1.0835200548171997,-1.626355528831482,-0.14269529283046722,0.7542256116867065,-1.3727480173110962,-0.11780550330877304,-1.8001514673233032,-0.7598487138748169,0.4749552309513092,-0.885157585144043,1.429606556892395,0.24588198959827423,0.32539141178131104,2.1030285358428955,0.021309232339262962,1.4276490211486816,1.2299673557281494,-0.40018516778945923,-0.10864485800266266,-0.20063446462154388,0.034358374774456024,1.473691463470459,-0.7648215293884277,-1.0227088928222656
amazon-apps.csv,-0.7872595191001892,-0.07938727736473083,-0.6632229089736938,-0.8708099722862244,-1.8720442056655884,1.1437385082244873,-1.1243640184402466,-0.14103998243808746,-1.7760772705078125,1.0157036781311035,0.48255887627601624,-1.643522024154663,-0.5125951766967773,-0.6021632552146912,0.6827565431594849,-1.594308614730835,0.4132854640483856,1.3866162300109863,-0.06102370098233223,0.3122980296611786,0.37950485944747925,0.40147507190704346,1.0041449069976807,-0.29527997970581055,-0.6750471591949463,-0.38712525367736816,0.8367794156074524,1.889441967010498,-1.1587369441986084,-1.2294832468032837
amazon-sports.csv,0.06537686288356781,0.4991922974586487,-1.396870732307434,-1.6455451250076294,-2.3970553874969482,0.8903547525405884,0.3438536524772644,0.07423441857099533,-1.2815272808074951,0.7228855490684509,-0.8944694995880127,0.24263598024845123,-0.1436827927827835,-0.22526873648166656,0.9671927690505981,-2.0356028079986572,-0.15235792100429535,0.326913982629776,0.36397475004196167,-0.5652984976768494,1.877497673034668,0.5746645331382751,1.3892830610275269,-0.06200328469276428,0.06279178708791733,-0.8299890756607056,0.5165916085243225,1.2083537578582764,-1.078477144241333,-0.5445366501808167
amazon-food.csv,-0.15146759152412415,0.5517858266830444,-1.568965196609497,0.11447688937187195,-1.8047269582748413,1.618812084197998,-0.20247992873191833,0.8926210403442383,-0.672415554523468,1.0072922706604004,0.319907009601593,0.7958810925483704,-1.6737979650497437,-0.5458402633666992,-0.5551630258560181,-2.1704232692718506,0.6950972080230713,1.011940598487854,-0.03576674312353134,1.1391280889511108,1.518043875694275,1.0016251802444458,-0.21717782318592072,-0.17492635548114777,-1.4504916667938232,0.36515796184539795,0.7422049641609192,0.4508700668811798,-0.4110165536403656,-0.8997412919998169
jester3.csv,-0.6178488731384277,-0.3550680875778198,-1.1124529838562012,-0.06477433443069458,-0.17087619006633759,1.1851409673690796,1.1794312000274658,0.32013583183288574,-1.4568873643875122,0.5603248476982117,-1.1349397897720337,-0.6180102825164795,-1.1524937152862549,-0.7966846227645874,0.4045761227607727,-1.1503995656967163,0.46864446997642517,0.08384157717227936,-0.13376875221729279,1.8984992504119873,1.027445912361145,0.6269721984863281,1.6962543725967407,-0.4643346071243286,-1.843575358390808,-1.2507718801498413,0.47370386123657227,1.987578272819519,-0.1800794154405594,-0.4534406065940857
amazon-tools.csv,-0.20105895400047302,0.40790268778800964,-1.399890661239624,-0.8396360874176025,-2.600843906402588,0.3294791579246521,-0.7943965196609497,0.5957803726196289,-1.1216564178466797,-0.2651195526123047,-1.8709176778793335,-0.12941475212574005,-0.6421126127243042,-0.22888197004795074,0.41216427087783813,-1.3740037679672241,0.38146334886550903,1.0994439125061035,0.7220072150230408,0.9206380844116211,1.2943021059036255,1.5128065347671509,0.4625106155872345,0.5720012187957764,-1.3284357786178589,-0.4641248285770416,1.3179429769515991,0.9446322917938232,0.003177075646817684,0.25311973690986633
amazon-home.csv,0.42330145835876465,1.062697410583496,-1.8423184156417847,-1.0152785778045654,-1.852419376373291,1.316847324371338,0.21616877615451813,-0.6484479308128357,-1.6971733570098877,0.186303049325943,-0.24929462373256683,-0.638709306716919,-1.4941741228103638,0.2192043960094452,0.8318721652030945,-0.6319046020507812,-0.6166867613792419,1.1634230613708496,0.09702470153570175,0.3936600387096405,1.5927650928497314,0.5896902084350586,0.17825624346733093,0.3469323515892029,-1.4840044975280762,-0.8794451951980591,0.4715587794780731,1.8732670545578003,-0.4382377862930298,-0.20597796142101288
movielens100k.csv,0.11449816077947617,-0.7240537405014038,-2.4340670108795166,-0.5695348381996155,0.5061805248260498,1.1481338739395142,0.08582901954650879,-1.0583266019821167,-1.1487832069396973,1.8421276807785034,-0.6394811272621155,0.028612012043595314,-1.8296422958374023,0.09007693827152252,0.38691258430480957,-1.7750316858291626,0.2202155590057373,0.6624284982681274,0.17004020512104034,0.37491580843925476,1.2320047616958618,0.962275505065918,-0.20806296169757843,0.2891054153442383,-0.39376625418663025,-0.5673547387123108,-0.5680674314498901,1.7695932388305664,-1.2517437934875488,-0.08521571755409241
