amazon-garden.csv,-0.5565542578697205,-0.2317712903022766,1.062580943107605,-1.6366982460021973,0.14310011267662048,2.4237279891967773,-0.0488959364593029,-0.835320770740509,1.0043154954910278,0.8013530373573303,0.4452098309993744,0.1901329755783081,-0.0048535894602537155,-1.0111148357391357,-0.7077560424804688,-1.1175520420074463,0.2679769992828369,0.3496951162815094,0.47016435861587524,0.24075475335121155,2.1251039505004883,-0.9427897930145264,0.3310805857181549,-1.48970627784729,0.16969208419322968,-0.6594321727752686,-0.5132708549499512,-0.9360650181770325,2.179718255996704,-0.12177854031324387
amazon-health.csv,0.24996070563793182,-0.5171563029289246,1.3304450511932373,-2.060014486312866,-0.408803790807724,1.9464592933654785,-1.4242024421691895,-0.600943922996521,0.22818556427955627,0.5639981627464294,0.656758189201355,0.5886929035186768,0.22986748814582825,-0.6206138134002686,-0.9329544305801392,-0.6729794144630432,0.6020589470863342,-0.8339177966117859,-0.1942228078842163,0.43034833669662476,1.91178560256958,-0.657820463180542,-0.95325767993927,-1.4575064182281494,0.7635834217071533,-1.2618132829666138,-0.6265885829925537,0.08010055869817734,1.8428479433059692,0.17265743017196655
amazon-kindle.csv,-0.0002612298121675849,0.0020007588900625706,0.4022189676761627,-1.3212926387786865,-0.5078095197677612,1.9383164644241333,-0.7808992862701416,0.19030317664146423,1.3232653141021729,0.5808978080749512,-0.2991504669189453,-0.2932393252849579,0.8597393035888672,-1.159028172492981,-0.34077325463294983,-0.24959754943847656,1.758127212524414,1.4739468097686768,-0.30202966928482056,0.3049289286136627,1.846522331237793,0.39065423607826233,-0.6812398433685303,-1.3259625434875488,0.4424838125705719,-1.0897656679153442,-0.532599151134491,-0.6433096528053284,2.348775625228882,0.27690503001213074
movielens10m.csv,1.255510687828064,-0.9563642144203186,0.8885224461555481,0.30933862924575806,0.1993090957403183,1.0855273008346558,-1.025497555732727,-0.4219946563243866,0.6085880398750305,0.06953749805688858,-0.3599427044391632,-0.24769742786884308,0.10660873353481293,-2.2806997299194336,-1.7234697341918945,-1.5370086431503296,-0.5863733291625977,-1.411497712135315,0.2682381570339203,0.5661133527755737,1.8558989763259888,1.0230692625045776,1.2601526975631714,-0.05161101743578911,0.3918853998184204,-0.9775285720825195,-1.022301197052002,-0.958258867263794,0.9116719961166382,-0.5918888449668884
yelp.csv,-0.5644952058792114,-1.2344273328781128,1.4094082117080688,0.10001978278160095,-1.382280945777893,1.4769986867904663,0.24271340668201447,0.0636434257030487,1.0615675449371338,1.2317086458206177,0.24659118056297302,0.8900666236877441,-0.06580221652984619,-0.8255151510238647,-1.6190812587738037,-0.8960752487182617,0.9327048659324646,-0.2888241708278656,-1.3580068349838257,0.8734820485115051,1.5719207525253296,-0.03937174379825592,1.0613014698028564,-1.5154820680618286,0.7751783728599548,-1.1719250679016113,-1.1652778387069702,0.07498857378959656,1.2598661184310913,0.132523313164711
amazon-clothes.csv,-0.3836355209350586,-0.7876758575439453,1.6552865505218506,-1.5376646518707275,-1.015925407409668,1.6886391639709473,-1.514941692352295,-0.31766319274902344,1.6491048336029053,0.5254945755004883,0.7153582572937012,-0.6633870005607605,0.26450660824775696,-1.0133529901504517,-0.8323373794555664,-0.9965218305587769,1.0759752988815308,0.1434469223022461,-0.06694816797971725,0.48729240894317627,1.1346421241760254,0.5617507696151733,0.6438392400741577,-1.6978880167007446,-0.07851330935955048,-0.5254529714584351,0.139754980802536,-0.47587403655052185,2.050889730453491,0.25154268741607666
movielens20m.csv,1.628684639930725,-0.929777204990387,1.2251545190811157,0.3729265630245209,-0.7753865122795105,1.050764560699463,-0.09822782874107361,-0.5989165306091309,0.2472917139530182,0.13846902549266815,0.7711343765258789,-1.091881275177002,-1.7413978576660156,-2.1249139308929443,-0.9095545411109924,-0.009789581410586834,0.3555114269256592,0.43504443764686584,-0.11691633611917496,1.3250072002410889,1.9986751079559326,-0.2562757134437561,0.49440351128578186,-0.7373164296150208,0.4044837951660156,-0.9280598759651184,-0.6776190996170044,-0.2931945323944092,1.298197865486145,1.529079556465149
jester2.csv,0.8514198660850525,-0.5783023238182068,0.9485887885093689,-0.13294735550880432,-0.428178995847702,0.9893606305122375,-0.1368929147720337,-2.628643274307251,1.3814040422439575,-0.03414573147892952,0.8105618953704834,0.612400472164154,0.22350379824638367,-1.2598577737808228,-1.6798983812332153,0.20760364830493927,1.7954672574996948,-0.6909321546554565,-0.18775776028633118,0.1957782506942749,2.1152491569519043,0.1541031152009964,0.9693136811256409,0.14794836938381195,0.46340110898017883,0.3886794149875641,-0.35946744680404663,-1.1726444959640503,0.30315151810646057,1.1368613243103027
amazon-automotive.csv,-0.4823788106441498,-1.1474751234054565,1.9434661865234375,-1.1808984279632568,0.06102247163653374,1.2757320404052734,-0.36222630739212036,0.19311995804309845,0.8873308300971985,-0.2840903103351593,-0.6528971791267395,-0.4576800465583801,0.08161323517560959,-1.274424433708191,-0.8938010931015015,-1.908858060836792,-0.1129833236336708,0.34345149993896484,-1.4852793216705322,0.4857046902179718,1.1618958711624146,-0.059201546013355255,0.7940844893455505,-1.8382172584533691,1.3144158124923706,0.057796645909547806,-0.04842748865485191,-0.20523661375045776,2.0416808128356934,0.14932627975940704
amazon-movies.csv,-0.33963868021965027,0.5111098885536194,-0.27084609866142273,-0.8926368951797485,0.16596610844135284,0.35928791761398315,-0.349443256855011,0.4180751442909241,1.194206953048706,1.7997210025787354,1.6157598495483398,0.1610163152217865,-0.46596574783325195,-1.685962438583374,-0.635491669178009,-0.5572938323020935,0.4456446170806885,-1.0752521753311157,-0.6003378629684448,0.510650098323822,2.351475238800049,-0.029309486970305443,0.11105024069547653,-2.3361237049102783,0.5797905325889587,0.14297351241111755,-1.8021363019943237,-0.3555668592453003,0.6861947774887085,-0.2152968943119049
movietweetings_recsys2014.csv,0.23573052883148193,-0.7328615784645081,1.356632113456726,-0.7780774831771851,-1.1928232908248901,0.728230893611908,1.1390548944473267,-0.0716804563999176,-0.23766513168811798,1.4633376598358154,-0.1873558610677719,0.08292190730571747,-0.5522382855415344,-2.289954423904419,0.039687447249889374,-0.6089311242103577,1.1441301107406616,0.07003366202116013,0.17007334530353546,-0.6067801713943481,1.2711776494979858,1.1243067979812622,0.6214103102684021,-1.3082823753356934,1.3839823007583618,-0.6075495481491089,-0.9206979870796204,-2.019779682159424,1.2628724575042725,0.2222151905298233
amazon-office.csv,-0.13089123368263245,-0.018946783617138863,1.6037774085998535,-1.5625911951065063,0.2602277398109436,1.9168821573257446,0.5138729214668274,1.313529133796692,1.151836633682251,0.16372142732143402,0.7977108359336853,-0.31931477785110474,0.2416069060564041,-1.1488220691680908,-1.5972102880477905,-0.8047996163368225,0.5305194854736328,0.08771549165248871,0.41702744364738464,-0.3876958191394806,1.6314247846603394,0.2720419466495514,-0.2988194227218628,-1.6555920839309692,-0.1725178062915802,1.2559425830841064,-1.1244016885757446,0.2282858043909073,1.646644949913025,0.8684282898902893
amazon-games.csv,1.0570926666259766,-1.101422667503357,0.5429396629333496,-1.4444942474365234,0.4375561773777008,0.8245843052864075,0.14711475372314453,-0.10970793664455414,0.7546902298927307,1.132785677909851,-0.5731915235519409,0.12859231233596802,0.7383290529251099,-0.6536130309104919,-1.6678369045257568,-1.5118911266326904,0.06143256276845932,-0.34127679467201233,-0.24364103376865387,1.0260329246520996,1.4554396867752075,-0.5928625464439392,0.6540770530700684,-2.0527071952819824,0.752795398235321,0.4624473750591278,-0.10352544486522675,-0.07608456909656525,2.3646411895751953,1.188767433166504
amazon-baby.csv,-0.12424599379301071,-0.7543771862983704,0.8501315116882324,0.3460659384727478,0.2362191528081894,1.7577985525131226,-0.9687286019325256,-0.5267597436904907,0.6897018551826477,0.8745129704475403,-0.22412216663360596,-0.2190520316362381,0.6337736248970032,-1.6687076091766357,-1.1587878465652466,-1.2285295724868774,1.421360731124878,0.2149275690317154,-0.910438060760498,-0.7759783267974854,1.2502830028533936,0.0634661614894867,-0.4447566270828247,-2.344696283340454,-0.5990781784057617,-0.2821476459503174,-0.8649895787239075,0.24905262887477875,2.1871867179870605,0.20434266328811646
amazon-cd.csv,-0.7304672598838806,-0.8997935652732849,0.8466785550117493,-2.1013357639312744,-0.25362810492515564,1.3997083902359009,-0.1783590316772461,-0.9861907362937927,0.7004993557929993,-0.08927276730537415,-0.9631735682487488,-0.2820388078689575,0.47656524181365967,-2.390608310699463,-0.39672306180000305,-0.8758652210235596,0.5280066728591919,-0.5350731015205383,-0.8376792669296265,0.3011907637119293,0.9224366545677185,0.11662682145833969,0.9915515184402466,-1.7419970035552979,0.35582971572875977,-0.6356200575828552,-1.26777184009552,0.8892260193824768,1.71467125415802,0.12415001541376114
amazon-instruments.csv,-0.6738265752792358,-0.6932790875434875,2.034020185470581,-1.700595498085022,-0.37219858169555664,1.5987544059753418,-1.1009254455566406,0.09362471848726273,0.7990579009056091,0.7488803267478943,0.5324722528457642,0.09090089797973633,0.376164972782135,-1.2466381788253784,-1.0945039987564087,-0.36432090401649475,0.4080060124397278,0.01923869550228119,0.46763530373573303,-1.0641403198242188,1.4348725080490112,-1.1754885911941528,-0.37719401717185974,-2.092674970626831,0.5301239490509033,-0.3233124017715454,-0.7866537570953369,0.43590474128723145,1.7113754749298096,0.0025428140070289373
bookcrossing.csv,-0.06669124215841293,-1.1450822353363037,2.1387743949890137,-1.2174372673034668,-0.07746993005275726,0.2968635559082031,-1.0634891986846924,1.0237382650375366,1.3836392164230347,1.2157460451126099,-0.3422849178314209,1.0165596008300781,-0.6530354619026184,-1.2330803871154785,0.8456908464431763,-0.644601047039032,1.564409852027893,-0.6652683019638062,0.46420952677726746,0.7017313241958618,2.0949583053588867,0.5835098028182983,0.4750414490699768,-1.050109624862671,-0.17742784321308136,-0.8943662047386169,-0.16379733383655548,0.6142547130584717,1.244612693786621,0.5420159697532654
tripadvisor.csv,-0.6177996397018433,-0.2768377363681793,0.5796501040458679,-0.9477637410163879,-0.8537968397140503,1.4425816535949707,-0.5593389272689819,-0.37325894832611084,0.9720607995986938,1.2044259309768677,0.42211848497390747,0.5210490822792053,-0.5400991439819336,-1.5797594785690308,-0.37085992097854614,-1.8830972909927368,0.02540525048971176,-0.43434715270996094,-0.057416882365942,-0.06847446411848068,1.2491856813430786,0.09016945213079453,-0.007387859746813774,-0.8954318761825562,1.5503767728805542,0.15877559781074524,-1.0075244903564453,0.8600667715072632,2.812645196914673,1.032799243927002
jester1.csv,-0.7376489639282227,-0.7815770506858826,1.1775791645050049,-1.4526759386062622,0.5712938904762268,0.31504812836647034,-0.6789519190788269,-1.1376539468765259,0.49614766240119934,-0.6391665935516357,0.21637322008609772,0.7035296559333801,-1.6401830911636353,-0.7769080400466919,-1.4731957912445068,-1.379891037940979,1.1225179433822632,-0.16461040079593658,-1.6302909851074219,-0.2069569230079651,1.9874382019042969,0.7270023822784424,0.12803299725055695,0.38447028398513794,-0.04843725264072418,0.21695661544799805,-1.7152884006500244,-1.1811110973358154,0.5107640027999878,1.1508764028549194
amazon-phones.csv,0.3514987826347351,-1.2727142572402954,1.3263347148895264,-1.323521614074707,0.5104873180389404,1.830527424812317,0.13964499533176422,-1.0814106464385986,-0.14270080626010895,0.48524320125579834,-0.13163995742797852,0.9536400437355042,1.1056292057037354,-2.1474928855895996,0.15315034985542297,-1.0090351104736328,-0.12218663096427917,0.9114870429039001,-0.31819435954093933,0.016831954941153526,2.2545406818389893,-0.041673000901937485,-0.20553162693977356,-1.6811048984527588,0.3860766589641571,0.32125622034072876,-0.8335928320884705,-0.1097138449549675,1.3798446655273438,0.35157129168510437
movietweetings_latest.csv,-0.9797247648239136,0.22301413118839264,0.36801934242248535,-0.4248281419277191,-0.6642121076583862,2.3555405139923096,-1.142876386642456,0.020363472402095795,0.19437186419963837,0.5420712232589722,0.5563434958457947,1.2036787271499634,-0.8669275641441345,-2.956108331680298,-1.6284124851226807,-0.9396467804908752,1.3234539031982422,0.2991396486759186,0.37123918533325195,1.0048176050186157,-0.701824963092804,0.2599332332611084,0.8378872871398926,-0.6340077519416809,0.22850483655929565,-0.5275575518608093,-0.4414960741996765,-0.39134421944618225,0.7038968801498413,0.6608065962791443
movielens_latest.csv,-0.2773245871067047,-0.5048156976699829,0.061558231711387634,0.5057528614997864,-1.1380723714828491,0.7001609802246094,0.7556076645851135,0.890701949596405,1.7903929948806763,-0.7042922377586365,-0.10371337831020355,0.23117128014564514,-0.3418903350830078,-2.6007485389709473,-0.6694371700286865,-1.6701364517211914,0.3580988943576813,-0.7867097854614258,-0.8309165239334106,0.18251502513885498,1.7869354486465454,-1.376681923866272,0.18979981541633606,0.2978397011756897,-0.3190596401691437,-1.0273317098617554,-0.5084137320518494,-1.2807214260101318,1.2932214736938477,0.9811046123504639
amazon-toys.csv,0.4452073574066162,0.5464876890182495,2.581430196762085,0.42892375588417053,-0.23050695657730103,0.9270325899124146,-0.8366506099700928,-0.006824742071330547,1.2949321269989014,0.9330589175224304,0.20002049207687378,1.2655893564224243,0.6560925841331482,-1.5669538974761963,-0.7486632466316223,-0.596376359462738,0.6226037740707397,0.6604418158531189,-0.7512717247009277,-0.3907647728919983,1.058219313621521,-0.44975659251213074,-0.2109508365392685,-1.3621697425842285,0.9754806756973267,0.9059314727783203,-0.6912998557090759,-0.8144281506538391,2.3010568618774414,-0.2834274470806122
amazon-digital-music.csv,-0.5781627297401428,-0.14680452644824982,2.1237947940826416,-0.09778059273958206,-0.003756105899810791,1.9986218214035034,-0.8569633364677429,-0.5469658374786377,1.7509889602661133,-0.1868513822555542,-0.04954804480075836,-0.5404854416847229,0.13655291497707367,-2.4130260944366455,-0.3795352280139923,-0.7466137409210205,0.6701034903526306,0.4715678095817566,-1.2113585472106934,-0.01324717327952385,1.6147205829620361,-0.3668304979801178,0.028557850047945976,-0.633185088634491,1.634350299835205,-0.2046699821949005,-0.7281829118728638,0.8207880854606628,0.7723625898361206,0.6014091968536377
flixter.csv,0.04920445755124092,-0.8948572278022766,0.7988729476928711,-0.3580104112625122,-1.197482943534851,0.3776111304759979,-1.0677344799041748,-1.032943606376648,1.343347430229187,-0.2937339246273041,-1.6406391859054565,0.47307276725769043,-1.5270967483520508,-2.0630595684051514,-0.7538565397262573,0.03782852366566658,-0.3093235194683075,-1.188692331314087,-0.11684903502464294,0.6663047671318054,1.6471776962280273,-0.3444884717464447,-0.37728390097618103,-2.0183584690093994,0.1384938359260559,0.35093823075294495,-0.42821136116981506,-0.9322540760040283,1.5630764961242676,-0.1739313304424286
amazon-beauty.csv,-0.668889045715332,-1.1958749294281006,0.4408424198627472,-0.7431184649467468,-0.7622897624969482,2.4925360679626465,-0.40431690216064453,-0.4653850197792053,2.222287893295288,1.4902667999267578,0.2567405104637146,-0.3088374435901642,-0.6010977625846863,-1.3852319717407227,-1.0761030912399292,-0.6773112416267395,-0.2581908702850342,0.5062227249145508,0.13275501132011414,-0.4369063973426819,0.7323576211929321,-0.20093925297260284,0.437921404838562,-1.9021635055541992,0.1075984537601471,0.15190884470939636,0.06606148928403854,-0.6538511514663696,1.439584732055664,1.2358109951019287
amazon-apps.csv,-0.5118475556373596,-0.20126460492610931,1.6275041103363037,-0.004925205837935209,1.1249433755874634,0.6511572599411011,-0.2361595332622528,0.23871749639511108,1.0428016185760498,0.9568026661872864,-0.697313666343689,-0.024446705356240273,1.2413454055786133,-1.7633157968521118,-1.1897073984146118,-0.29160186648368835,1.4957002401351929,0.5154470801353455,-0.42240455746650696,1.501441240310669,1.0202879905700684,0.4357997477054596,-0.7565492987632751,-1.1311936378479004,1.612835168838501,-0.6717051267623901,-1.5486050844192505,0.008714541792869568,1.340444803237915,1.15764319896698
amazon-sports.csv,0.3658148944377899,-1.2211527824401855,0.5907227993011475,-1.618553876876831,0.3737538456916809,2.2123067378997803,-1.2674682140350342,0.3041246831417084,1.9794505834579468,0.5777149200439453,-0.32910510897636414,0.005022975616157055,0.5910330414772034,-0.8407061696052551,-0.9591776132583618,-0.3242213726043701,0.7291646003723145,-0.519782304763794,-0.9807813167572021,0.03590951859951019,0.998494029045105,-0.13729850947856903,-0.19791150093078613,-1.0024683475494385,0.5532585382461548,-0.7118927836418152,-1.0368880033493042,-0.18149879574775696,2.5195820331573486,0.37078890204429626
yahoo-music.csv,1.0563915967941284,-2.1510391235351562,0.7939707040786743,-0.6794368624687195,-1.1140472888946533,-0.00236265710555017,-0.4514043629169464,-0.8260850310325623,1.3871681690216064,0.2882947325706482,1.4136179685592651,0.3775942921638489,-0.1302156299352646,-1.8241298198699951,-0.6592245101928711,-2.684997081756592,1.1976484060287476,0.5929983258247375,0.027805529534816742,0.36533835530281067,0.5052367448806763,-0.7703366875648499,-0.03492794185876846,-0.2008296549320221,0.43732935190200806,-0.4039100408554077,-1.630778431892395,-0.24391034245491028,-0.10139016062021255,-0.0849592462182045
amazon-instant-video.csv,0.8697363138198853,-0.05685369670391083,1.5168143510818481,-0.28652098774909973,0.652485191822052,1.2451330423355103,0.003297108458355069,-0.31854307651519775,1.396012783050537,1.1143444776535034,-0.7404157519340515,0.827484667301178,-0.8801283836364746,-1.0166858434677124,-0.8619120717048645,-1.4698373079299927,1.4574809074401855,-0.042028263211250305,-0.616256833076477,-0.5084691047668457,1.5208117961883545,-0.4967813491821289,0.7556406259536743,-1.7716306447982788,0.8075448870658875,-1.1132750511169434,-0.8429670333862305,0.8396120667457581,1.7347522974014282,-0.5428656339645386
movielens1m.csv,-0.21668145060539246,-0.4703347682952881,1.4013214111328125,-0.2833549380302429,-0.36439451575279236,1.1009163856506348,0.02088101953268051,-1.0516321659088135,0.3744337558746338,1.6397985219955444,0.19107115268707275,-1.6743923425674438,-1.3565751314163208,-1.8757736682891846,-1.515100359916687,-1.1598529815673828,0.8884878158569336,-1.7109373807907104,-0.7146648168563843,0.19593164324760437,1.0802040100097656,-0.716337263584137,-1.183779001235962,-0.1928423047065735,1.3434861898422241,-0.9370949864387512,-0.09481895714998245,-0.5968506336212158,0.31192928552627563,0.19455315172672272
yahoo-movies.csv,0.216242715716362,-0.290386825799942,0.9275724291801453,-0.7327403426170349,-1.0488946437835693,0.6603149175643921,0.9206296801567078,-1.1534428596496582,1.1723889112472534,1.3332439661026,0.6005563139915466,0.31827211380004883,-0.3702246844768524,-2.5434515476226807,-0.8103063106536865,-0.7269614934921265,0.03405248373746872,-0.15473204851150513,-1.2105810642242432,1.8981753587722778,1.3225312232971191,1.135385513305664,-0.8245119452476501,-0.01367201004177332,0.17791837453842163,-0.5227245092391968,0.023985769599676132,-0.4941848814487457,1.8040320873260498,-0.8579349517822266
movielens100k.csv,0.3228781521320343,-0.34062233567237854,1.1904164552688599,-0.6800119280815125,-1.885090708732605,0.6263275146484375,0.043718673288822174,-0.5914894342422485,1.633210301399231,1.1388901472091675,-0.3943256437778473,-0.677818238735199,-0.9212011098861694,-1.7502630949020386,-1.9500372409820557,-1.1571966409683228,0.15573331713676453,0.4309099614620209,-0.11373721808195114,0.39050087332725525,1.629978895187378,0.39984041452407837,-0.6236013770103455,0.14008496701717377,-0.08654071390628815,-0.5797276496887207,-2.2163732051849365,-0.7957773208618164,0.09974631667137146,0.6853987574577332
amazon-home.csv,-0.49796420335769653,0.402122437953949,1.3003493547439575,-1.1576677560806274,-0.8347769379615784,2.1168458461761475,-0.1210407167673111,-0.233880415558815,1.2606717348098755,0.6752126812934875,-0.7665013074874878,-0.0637853741645813,0.9887644648551941,-1.4912137985229492,-0.5137649178504944,-2.397810697555542,0.777776300907135,-0.47485408186912537,-0.7115789651870728,0.3633905351161957,1.6115816831588745,-0.0706300213932991,0.012668651528656483,-1.9542121887207031,0.6383396983146667,-0.2685060501098633,-0.5257803797721863,-0.2509452700614929,0.7716780304908752,0.3946802616119385
amazon-pet-supplies.csv,-0.6736491322517395,-0.4759982228279114,1.0963691473007202,-1.4429537057876587,-0.5760613083839417,1.0167053937911987,-0.9132558703422546,0.2003798931837082,0.5684943795204163,2.1983542442321777,0.05417842045426369,-0.5549293160438538,-0.43731552362442017,-1.6858006715774536,-0.8077266812324524,-0.774467408657074,0.46278518438339233,1.2891353368759155,-1.5433993339538574,-0.13484057784080505,1.70769464969635,-1.1815301179885864,1.3505874872207642,-0.3701564073562622,0.32311904430389404,-0.16691292822360992,0.2223559021949768,0.2866491973400116,1.7886881828308105,-0.17496538162231445
amazon-tools.csv,-0.7797201871871948,-0.3435942232608795,1.3867981433868408,-0.555068850517273,-0.25123095512390137,1.3692162036895752,-1.0194683074951172,0.06586980819702148,1.3643766641616821,0.5162105560302734,0.9961836934089661,-0.6041280627250671,0.3547755181789398,-1.0558159351348877,-0.17673428356647491,-0.7029332518577576,-0.06822213530540466,-0.7422422766685486,-0.889304518699646,0.22817005217075348,1.1637266874313354,-1.3927191495895386,0.35604459047317505,-1.7973600625991821,-0.9642944931983948,-0.6864438652992249,-2.1864655017852783,-0.360535204410553,2.0966787338256836,0.22887830436229706
amazon-food.csv,-0.34744083881378174,-0.3936868906021118,1.4865021705627441,-1.4282548427581787,0.2700478434562683,0.692166268825531,-0.6529597640037537,-0.3664693236351013,2.2792580127716064,1.1623207330703735,0.4518888592720032,0.5598036050796509,0.6077712774276733,-1.8887534141540527,-1.140238881111145,-0.6067569851875305,-0.4150161147117615,-0.059833791106939316,-0.5160709619522095,-1.0288243293762207,0.7988832592964172,0.524896502494812,0.2343449592590332,-1.5765331983566284,-0.09462370723485947,-1.0901612043380737,-0.6309270858764648,0.1472931057214737,2.0543220043182373,0.949321448802948
jester3.csv,-0.6315280795097351,-0.7708278298377991,0.9290801286697388,0.5302128791809082,0.25297993421554565,1.0744819641113281,-0.37323787808418274,-0.7308931946754456,0.6217049360275269,0.4696212410926819,-0.42248427867889404,-1.3774094581604004,-0.5597156882286072,-1.518768548965454,-0.20960202813148499,-1.740560531616211,1.9176422357559204,0.09198275208473206,1.111955165863037,1.3652806282043457,2.452601194381714,-0.34742286801338196,0.11112915724515915,0.6902377605438232,0.11609800159931183,0.9629053473472595,-0.5187153220176697,-1.316908359527588,1.0594173669815063,-0.3421963155269623
