amazon-garden.csv,-0.6712082028388977,0.3882180154323578,-0.6785722970962524,0.4881785213947296,1.6487171649932861,-0.07207673788070679,0.033287812024354935,-1.5385547876358032,-0.272481232881546,0.45198652148246765,-1.7640784978866577,-1.4142588376998901,-0.5785495638847351,1.6307519674301147,0.02616030164062977,0.9150188565254211,-1.055294394493103,-1.1778011322021484,-0.09041570127010345,0.19218620657920837,0.08517535030841827,0.026877230033278465,0.8277658820152283,-1.0941860675811768,-0.28970977663993835,2.4774861335754395,0.13254116475582123,0.998150646686554,-0.5711393356323242,-1.5450831651687622
amazon-health.csv,0.23774051666259766,0.24392014741897583,-0.8547093272209167,-0.04731711745262146,1.4245412349700928,0.45200735330581665,0.6118733286857605,-1.3281282186508179,-1.146122932434082,0.46141335368156433,-1.1845616102218628,-1.137211561203003,-0.11907260864973068,0.915903627872467,-0.6832517385482788,1.1323648691177368,0.6111112833023071,-1.190955638885498,0.0789978951215744,-0.5103267431259155,0.7254008054733276,0.08001188933849335,0.7480783462524414,-0.9228550791740417,-0.2141215056180954,2.1626617908477783,0.571761965751648,2.0567009449005127,-1.7889548540115356,-1.2130767107009888
amazon-kindle.csv,-0.5583953261375427,0.19552457332611084,-0.009001823142170906,0.33957043290138245,1.2113951444625854,0.5284061431884766,0.6165918707847595,-1.6102020740509033,-0.10985109955072403,0.5842779874801636,-1.13344144821167,-1.8083961009979248,0.472921758890152,-0.48471352458000183,-0.8670667409896851,1.8945541381835938,-0.4949812591075897,-0.21053145825862885,0.2563006281852722,-1.2727009057998657,0.9513596296310425,0.2040766179561615,0.41668495535850525,-0.2866041362285614,-0.1193627268075943,2.6239216327667236,-0.3290477395057678,1.4328616857528687,-1.1684293746948242,-1.2262446880340576
movielens10m.csv,0.9955931901931763,-0.431100994348526,-0.34837380051612854,-0.1638071984052658,0.7613131403923035,-0.007950806058943272,1.9893131256103516,-1.2335129976272583,-2.1530885696411133,0.48924070596694946,-1.7962050437927246,-0.012695745564997196,1.0471214056015015,0.39002200961112976,0.08877401053905487,-0.03222736716270447,0.1398361176252365,0.7752418518066406,-0.37298905849456787,-0.4880067706108093,-0.058756452053785324,-0.014523737132549286,1.1551096439361572,-1.2345942258834839,-0.763619601726532,1.5445551872253418,-0.765352189540863,0.24861998856067657,-2.2134997844696045,-0.9386657476425171
yelp.csv,-1.2340383529663086,0.9526118040084839,-2.0507426261901855,0.2361941635608673,0.46346086263656616,-0.28322097659111023,1.1778430938720703,-0.6172057390213013,-1.1485553979873657,1.2337085008621216,-0.29263901710510254,-0.48779991269111633,-0.37686678767204285,-0.05215059593319893,-0.33813047409057617,1.4206230640411377,-0.22217483818531036,-0.5660669207572937,0.2807559072971344,0.28081461787223816,1.0646954774856567,0.7187950015068054,0.23119807243347168,-0.38457974791526794,-0.2995033264160156,2.058952569961548,-1.6753134727478027,0.9053791165351868,-2.044536590576172,-1.1351011991500854
amazon-clothes.csv,-0.6708005666732788,-0.23602308332920074,0.1914719045162201,-0.8893676400184631,1.1061931848526,0.36182212829589844,0.3084322512149811,-1.4572012424468994,-0.2160690575838089,1.0097382068634033,-1.369885802268982,-0.8426390290260315,-0.3273416757583618,0.1772037148475647,-1.0592963695526123,0.4009783864021301,-0.3841552436351776,-0.30180200934410095,0.24671314656734467,-0.2028975933790207,0.3383239507675171,0.34598076343536377,1.2863014936447144,-1.0681291818618774,-0.6845166087150574,3.2172739505767822,0.06954019516706467,1.4221832752227783,-1.74855375289917,-0.862890362739563
movielens20m.csv,0.6505410671234131,-0.6955376863479614,-0.9387415647506714,-0.27124932408332825,0.33658328652381897,0.9089938998222351,0.26726260781288147,-0.6786602735519409,-1.384426236152649,-0.2925168573856354,-0.25640350580215454,-0.5208456516265869,-0.1857881247997284,0.203395813703537,1.3084660768508911,1.03612220287323,-0.8529544472694397,-0.745479941368103,1.114490270614624,-1.0189152956008911,-0.5353104472160339,-0.5791658163070679,0.614905834197998,-1.6374744176864624,-0.21644099056720734,2.355635404586792,-1.2546532154083252,0.8254571557044983,-1.3245046138763428,-2.148305654525757
jester2.csv,-0.1288372278213501,-1.0752708911895752,0.39587831497192383,0.314431369304657,1.8085416555404663,0.9752499461174011,1.5886545181274414,-1.7382011413574219,-0.6281402707099915,0.6749492883682251,0.38041460514068604,-0.9396469593048096,-0.21382860839366913,0.41830670833587646,0.27177804708480835,0.49355268478393555,-1.4598231315612793,-0.520717978477478,-0.9227800369262695,0.09806334972381592,0.2939254641532898,-0.13698887825012207,0.66616290807724,-1.0734047889709473,-0.514712393283844,1.111857295036316,-1.224299669265747,0.8415464162826538,-1.4532456398010254,-2.367253541946411
amazon-automotive.csv,0.5228523015975952,0.2502214014530182,-0.34268924593925476,0.364457905292511,1.443600058555603,-0.7529982328414917,0.3974098265171051,-0.7019188404083252,-0.3999713957309723,0.3274858295917511,-0.3368624150753021,-0.4642573893070221,-0.33714020252227783,0.3844444453716278,-0.22836413979530334,0.3969624638557434,-0.9615890383720398,-0.9813510179519653,-0.06722571700811386,-1.1295039653778076,1.517117977142334,0.09543807059526443,2.295167922973633,-1.0935090780258179,-0.576010525226593,2.880953550338745,-0.49594369530677795,0.9520588517189026,-1.7062504291534424,-0.6380044221878052
amazon-movies.csv,-0.04670318588614464,1.2694909572601318,0.026332274079322815,-0.3933265805244446,1.1337335109710693,1.1077601909637451,1.2902201414108276,-1.3176332712173462,-1.3109545707702637,0.17458754777908325,-0.6674402356147766,-1.4823945760726929,-0.4160289168357849,0.672546923160553,-0.5789231061935425,0.8474107980728149,-0.4631071984767914,-1.8348783254623413,0.3723919093608856,-0.3118603527545929,0.08603418618440628,-0.7845501899719238,1.55833101272583,0.4035895764827728,-0.43965861201286316,1.8175017833709717,0.513161301612854,-0.5659109354019165,-1.886315107345581,-1.255797266960144
movietweetings_recsys2014.csv,0.20226293802261353,0.5355657339096069,0.04049457237124443,-0.48519355058670044,1.5957547426223755,-0.07248903810977936,0.7395566701889038,-1.4039242267608643,-1.2540476322174072,-0.06889774650335312,-0.8275496959686279,-0.15673799812793732,0.2664973735809326,0.16708406805992126,-0.3217468559741974,-0.8384214639663696,-0.044388651847839355,-0.9158969521522522,1.1158568859100342,-0.014317784458398819,1.8135406970977783,-0.8865941762924194,0.07158353179693222,0.13241784274578094,0.8879234790802002,2.3307483196258545,-1.3150546550750732,0.310712605714798,-0.707771897315979,-2.5380923748016357
amazon-office.csv,0.3598862588405609,0.2745160758495331,-0.3712620139122009,0.2588161528110504,0.20520955324172974,0.8056438565254211,1.561453104019165,-1.2996041774749756,-0.24183790385723114,0.2053351104259491,-1.661769986152649,-0.8859300017356873,-0.5719735026359558,0.07381203025579453,0.8177869319915771,1.3604328632354736,-1.5343514680862427,-0.4120773673057556,0.0037162424996495247,-0.23941931128501892,1.341939091682434,0.6157128810882568,1.4092541933059692,-0.7779388427734375,0.43366947770118713,2.6768085956573486,0.47459858655929565,0.4724436104297638,-1.2611955404281616,-1.2361088991165161
amazon-games.csv,-0.17090053856372833,-0.3205840289592743,-0.14205892384052277,-0.6353212594985962,1.7202606201171875,-0.6117199063301086,0.6733583807945251,-0.7866502404212952,-0.770855188369751,0.87276691198349,-1.0967684984207153,-0.6232873201370239,-0.7903906106948853,0.9086610674858093,0.40746042132377625,1.277000069618225,-0.08794784545898438,-0.6208668947219849,0.2694435715675354,-1.2572424411773682,1.6708086729049683,-0.17444466054439545,0.16825151443481445,-0.49167776107788086,-0.7680395245552063,2.7317254543304443,0.6326889395713806,0.5179760456085205,-1.3356581926345825,-1.789041519165039
amazon-baby.csv,0.17987309396266937,0.25441575050354004,-0.48002398014068604,-0.24162721633911133,1.5687893629074097,0.06284058094024658,1.3137707710266113,-1.3004965782165527,-0.08987279236316681,1.5500649213790894,-1.105721354484558,-0.6061309576034546,0.5984707474708557,-0.41135478019714355,-0.31149956583976746,0.7875251770019531,-1.2868088483810425,0.20692184567451477,1.391148567199707,-0.10354164242744446,1.033233404159546,-0.39267489314079285,0.786725640296936,-1.035969853401184,-0.9007722735404968,2.5823659896850586,0.5499013066291809,0.9402239322662354,-0.15049363672733307,-1.7996302843093872
amazon-cd.csv,-0.3464072048664093,0.3163248598575592,-0.2463163435459137,-0.12903617322444916,3.078488826751709,0.0677967220544815,1.0565482378005981,0.4753296673297882,0.09803267568349838,0.6164032816886902,-0.5899056792259216,-0.4757409691810608,0.09284642338752747,0.540427565574646,-0.2218959778547287,1.0439199209213257,-0.7183307409286499,-0.7005103230476379,0.6802234053611755,-0.0015379629330709577,0.3736368417739868,0.2437526136636734,1.0140012502670288,-0.7165206670761108,0.28778979182243347,2.106705904006958,0.26949629187583923,0.7982271313667297,-2.502307415008545,-1.3314332962036133
amazon-instruments.csv,-0.4073910117149353,0.5106229186058044,-0.11877857893705368,-0.21514230966567993,1.280556559562683,1.3519634008407593,-0.5308634638786316,-1.4566582441329956,-0.6293220520019531,0.2619832456111908,-1.7184761762619019,-0.08081922680139542,0.16045992076396942,0.6211861371994019,0.18231336772441864,0.9551729559898376,-0.822064220905304,-0.9587918519973755,0.23203416168689728,0.04432253539562225,1.5984708070755005,-0.0794554278254509,1.1614196300506592,-0.9616526365280151,0.03282316401600838,2.272073268890381,0.5446485280990601,1.4509611129760742,-2.0374083518981934,-0.8109815716743469
bookcrossing.csv,-0.3334273397922516,0.6269141435623169,0.35657599568367004,0.4004098176956177,1.0633825063705444,0.3133755922317505,1.6413730382919312,-0.7088010907173157,-0.42299118638038635,0.897275984287262,-1.7062498331069946,-0.06244882568717003,0.5116787552833557,-0.13065916299819946,-0.035601794719696045,1.298003077507019,0.14288267493247986,-0.6655300259590149,-0.35527917742729187,0.8505082726478577,1.1352916955947876,-0.4959869384765625,1.9707005023956299,0.7155070304870605,-1.0116971731185913,2.120271682739258,-0.6845957636833191,1.6717522144317627,-1.1716676950454712,-1.232845664024353
tripadvisor.csv,-0.5464816689491272,0.23788657784461975,0.9138156771659851,0.2803628742694855,1.1458287239074707,-0.643607497215271,1.2943354845046997,-0.9743989109992981,-1.1497502326965332,-0.41887742280960083,-1.2915464639663696,-1.8292009830474854,-0.9212625622749329,1.2143481969833374,-0.03481272980570793,0.9566068649291992,-0.41924166679382324,0.06646508723497391,0.9173255562782288,-0.19487705826759338,1.1239441633224487,-0.6991474032402039,0.40609076619148254,-0.7058456540107727,-0.2582348883152008,1.6336414813995361,-0.39543506503105164,1.2913912534713745,-2.2394111156463623,-1.2564804553985596
jester1.csv,0.28987395763397217,-1.5505540370941162,0.05827496200799942,0.23656781017780304,1.9980957508087158,1.3364933729171753,0.8664433360099792,-0.9659332633018494,-2.0956287384033203,0.1810157597064972,-0.041028279811143875,-0.6591293215751648,0.024201396852731705,0.6823932528495789,-0.26562613248825073,0.6931607127189636,-0.7047086358070374,0.0699186623096466,-0.6117486953735352,0.28829312324523926,1.1387465000152588,0.9682664275169373,0.0075743719935417175,-0.7552587985992432,-0.21893811225891113,2.7147181034088135,-0.7256709337234497,0.5742778182029724,-0.9013871550559998,-1.1234225034713745
amazon-phones.csv,0.005525024142116308,1.4614826440811157,0.05611516907811165,-0.5766758918762207,2.084286689758301,-0.25337421894073486,1.2145049571990967,-0.8823475241661072,-0.7072912454605103,0.20112846791744232,-1.682570457458496,-0.7498705387115479,0.642760157585144,0.8922491073608398,-0.11322766542434692,1.3399121761322021,-0.8066141605377197,-0.3209644854068756,0.07558775693178177,-1.123958945274353,1.4688854217529297,1.0573539733886719,0.9373956322669983,-1.4674521684646606,-0.8272014260292053,1.3625211715698242,-0.008931111544370651,0.591930091381073,-0.5294867753982544,-1.5533493757247925
movietweetings_latest.csv,1.1044032573699951,0.5216853022575378,-0.6051386594772339,-1.33637273311615,1.944739818572998,-0.9472816586494446,0.34813234210014343,-2.281282663345337,-0.43028563261032104,0.29768967628479004,-1.2426695823669434,-0.8254470825195312,-0.12293654680252075,0.4744689464569092,-0.763953447341919,1.0509910583496094,-1.3255858421325684,0.2769051790237427,0.25388264656066895,0.8515649437904358,-0.03381217643618584,0.06698273122310638,0.37347277998924255,0.1141858920454979,0.0578954815864563,1.894413709640503,-0.8063390851020813,0.037908412516117096,-2.106616258621216,-0.6783995628356934
movielens_latest.csv,0.17847687005996704,-0.22482281923294067,-1.8500558137893677,0.30388742685317993,1.9184870719909668,1.1732115745544434,0.8973905444145203,-0.6982602477073669,0.006524025462567806,-1.3008475303649902,-1.4468090534210205,-1.5314315557479858,-0.022323720157146454,0.20672106742858887,-0.09267385303974152,-0.5164487361907959,-0.7345761656761169,0.686489999294281,-0.3196256756782532,-0.14280979335308075,0.42078056931495667,-0.30906516313552856,1.3362337350845337,-0.09621322154998779,-0.08605649322271347,1.8878296613693237,-1.019472360610962,0.8077038526535034,-1.1671311855316162,-1.9435361623764038
amazon-toys.csv,1.5109403133392334,0.26562434434890747,-0.28650152683258057,0.6238715052604675,0.9467172026634216,0.29825401306152344,-0.43717172741889954,-0.45294493436813354,-1.2118865251541138,0.5535650849342346,-1.3854676485061646,-1.240993857383728,-0.20847450196743011,0.748179018497467,-0.18990890681743622,1.536314606666565,-0.6435971260070801,-0.08424239605665207,0.9952817559242249,-0.14322805404663086,1.6254286766052246,0.5272191166877747,1.7335892915725708,-0.04943515360355377,-0.3595017194747925,2.3999640941619873,-0.30366185307502747,1.2381511926651,-1.1039245128631592,-1.2109204530715942
amazon-digital-music.csv,-0.1063481867313385,0.05704604089260101,-0.5954100489616394,-0.02995883673429489,1.4377925395965576,-0.01763477362692356,-0.049359798431396484,-1.1734435558319092,0.30974510312080383,0.15945012867450714,-0.7406231760978699,-0.48901304602622986,0.15067413449287415,0.5367215275764465,-0.26720696687698364,1.7235519886016846,-0.48328715562820435,-0.12630322575569153,0.5620401501655579,0.0386633537709713,1.8944666385650635,-0.001795675721950829,2.086965322494507,-0.7549736499786377,-0.9573230743408203,1.7364977598190308,-0.9872711300849915,1.0843414068222046,-2.051283359527588,-1.5967961549758911
flixter.csv,0.07625030726194382,0.46674221754074097,-0.3346000611782074,0.10799179971218109,2.136307954788208,0.1398710012435913,0.08825082331895828,-1.608253002166748,-1.5789679288864136,0.45453402400016785,0.1269657164812088,-1.1539002656936646,0.8324723243713379,-0.04959947615861893,1.3711631298065186,-0.26218774914741516,-0.9756813645362854,-0.011719929985702038,0.405338317155838,-0.803309977054596,0.323538213968277,-0.3768480122089386,0.24158215522766113,0.14722777903079987,-1.585800051689148,2.3159563541412354,-0.8098055124282837,1.4082040786743164,-1.665510892868042,-0.6354808211326599
amazon-beauty.csv,0.21753175556659698,0.21624593436717987,0.05411989614367485,0.36197713017463684,0.87736576795578,-0.41425225138664246,0.7124406099319458,-1.7570421695709229,0.48906034231185913,0.7748278379440308,-1.4546314477920532,-1.0354877710342407,0.09791901707649231,0.7360826730728149,-0.4139377176761627,0.2777980864048004,-1.2039930820465088,-0.19939878582954407,0.13945625722408295,-0.7717380523681641,1.4718055725097656,-0.004812642466276884,0.14271263778209686,-1.22843599319458,-0.43343278765678406,2.518580436706543,-0.47613289952278137,0.10456503182649612,-2.216707468032837,-1.7104344367980957
amazon-apps.csv,-0.07718581706285477,-0.06609728932380676,0.4315076768398285,-0.05444815009832382,1.5848428010940552,-0.44026613235473633,0.8017350435256958,-1.2568650245666504,-1.1277929544448853,-0.03223032131791115,-0.5827576518058777,0.02701725624501705,-0.0644376128911972,-0.37479168176651,-0.5833274126052856,1.9635413885116577,-0.30542466044425964,-0.42938047647476196,0.6780750155448914,-0.5282062888145447,0.6453027129173279,0.5386275053024292,1.4346846342086792,-0.42654627561569214,-0.08576034009456635,2.177574634552002,0.4583881199359894,0.8855161070823669,-1.2007306814193726,-2.78753399848938
amazon-sports.csv,0.35354721546173096,-0.4177873134613037,-0.39476749300956726,-0.21556249260902405,1.021619439125061,-0.39232540130615234,0.8616601824760437,-0.3807727098464966,-0.6258364915847778,0.23749233782291412,-0.9421796202659607,-1.013985276222229,1.2447658777236938,0.29587990045547485,-0.6149082779884338,2.2195558547973633,-0.6619582772254944,-0.9689936637878418,-0.584922194480896,-0.20180705189704895,1.469165325164795,-1.208924412727356,0.47646185755729675,-0.7762877941131592,0.06712683290243149,2.4363319873809814,0.18746182322502136,1.4788905382156372,-1.792781949043274,-0.7221362590789795
yahoo-music.csv,0.49787935614585876,0.35373327136039734,0.44137901067733765,-1.3821676969528198,1.6188948154449463,0.6639197468757629,0.30626723170280457,0.6572132110595703,-1.1946942806243896,-0.0799655020236969,-1.2323853969573975,-1.5635279417037964,0.20024040341377258,-0.9934880137443542,-0.06178242713212967,0.6910818219184875,0.02900453470647335,-0.38354185223579407,-0.7454490661621094,-0.3303348422050476,0.3658279478549957,-0.09489067643880844,0.3862050771713257,-0.5741742849349976,-0.6136448979377747,2.0031580924987793,-2.133997917175293,0.04164048284292221,-1.856607437133789,-1.7895632982254028
amazon-instant-video.csv,0.1627563238143921,-0.14378204941749573,-0.40887734293937683,0.5750675797462463,0.8705535531044006,0.08365882188081741,0.8059861660003662,-0.9396268725395203,-0.3564470112323761,0.7590193748474121,-0.7385164499282837,-1.0227798223495483,1.3961191177368164,2.0003628730773926,0.1106683611869812,1.2074475288391113,-0.8725717663764954,-0.06455069780349731,0.8962020874023438,-0.4173797070980072,0.7731138467788696,0.07271552830934525,1.3500651121139526,0.5794700384140015,-0.07526163756847382,2.4463706016540527,0.5093995928764343,0.41511839628219604,-1.5647567510604858,-2.016704559326172
movielens1m.csv,1.279496192932129,-1.1490814685821533,0.08211221545934677,0.22483263909816742,2.063615560531616,0.6398530006408691,0.632561981678009,-1.77095365524292,-0.13157570362091064,0.08374196290969849,-2.0826823711395264,-0.7781598567962646,-0.5251675248146057,-0.40329915285110474,1.3663907051086426,0.6692607402801514,0.342436820268631,-0.5598503351211548,0.5553774833679199,0.24918676912784576,0.3159509599208832,0.37807729840278625,0.29502758383750916,-0.07251963764429092,-1.2621240615844727,1.9715162515640259,-0.8817260265350342,0.45283156633377075,-1.5109261274337769,-1.0856040716171265
yahoo-movies.csv,0.26105108857154846,-0.5269718170166016,-0.49268442392349243,0.4097520709037781,1.7699600458145142,-0.18327736854553223,0.3788786828517914,-0.3495334982872009,-1.7231361865997314,0.4665411710739136,-2.2538201808929443,0.1408379226922989,-0.6312323212623596,0.18399466574192047,-0.09518180787563324,0.6726204752922058,-2.0680124759674072,-1.1227918863296509,-0.14855732023715973,-1.0159132480621338,-0.3083328604698181,-0.16562211513519287,0.037744518369436264,0.8433822393417358,-0.20175689458847046,1.3563576936721802,-0.9272539019584656,1.0045294761657715,-1.6460705995559692,-1.6570203304290771
movielens100k.csv,-0.024281147867441177,-0.7798301577568054,0.005899146664887667,-1.039017677307129,1.6052559614181519,0.8344254493713379,0.443001925945282,-1.298764705657959,-1.0416165590286255,1.2322310209274292,-1.045850157737732,-1.2181110382080078,-0.3201986849308014,0.4263294041156769,0.8334125280380249,0.4165196716785431,-0.8364099860191345,0.6189847588539124,0.5983855724334717,-1.1703145503997803,0.8755617141723633,-0.010998195968568325,1.7893847227096558,0.021277375519275665,0.6323516964912415,1.660495638847351,-1.7923015356063843,0.49431511759757996,-1.6199320554733276,-0.8970686793327332
amazon-home.csv,0.2299407571554184,-0.11978717148303986,-0.26372918486595154,-0.6859998106956482,1.5769741535186768,-0.02476874180138111,1.8152211904525757,-1.0261354446411133,0.19525209069252014,-0.1780133843421936,-1.1382863521575928,-0.5199137330055237,-0.3753320574760437,1.238921046257019,-0.5183631181716919,1.136525273323059,-0.693305492401123,-1.1227134466171265,0.9871346950531006,-0.9694480299949646,1.359398365020752,0.21711713075637817,0.998331606388092,-0.7886568903923035,-0.6480100154876709,2.778095006942749,-0.7049200534820557,1.074602484703064,-0.6767669916152954,-0.5182512402534485
amazon-pet-supplies.csv,-0.4068780541419983,0.4778410494327545,-0.42879050970077515,0.5845093131065369,1.4898046255111694,0.6573361158370972,0.4718099534511566,-0.6691386103630066,-0.5795192122459412,0.1741698831319809,-1.4219577312469482,-0.21602965891361237,-0.4478887915611267,0.41555100679397583,-1.0939888954162598,1.6553865671157837,-1.0349078178405762,0.5363590121269226,0.30595678091049194,-0.5931701064109802,0.7636244893074036,-0.8670623898506165,0.7955318689346313,-0.7833925485610962,-1.604374647140503,2.7127842903137207,-0.026061609387397766,0.14204902946949005,-1.9449516534805298,-0.9438480734825134
amazon-tools.csv,-0.19428539276123047,0.02941780537366867,-0.6560330390930176,-0.6610854864120483,1.0751960277557373,0.6436092257499695,0.6025846004486084,-0.4332754909992218,-0.49971845746040344,0.19021588563919067,-1.3422675132751465,-1.4472503662109375,0.27216461300849915,0.37929341197013855,-0.620416522026062,0.8719005584716797,-1.7253950834274292,-1.270179271697998,0.7289891242980957,0.2522672116756439,1.1696844100952148,0.44051095843315125,1.0060133934020996,-0.7849094867706299,-1.4841042757034302,1.8613462448120117,0.7514619827270508,0.8308899402618408,-2.07606840133667,-1.3489271402359009
amazon-food.csv,-0.9965260624885559,-0.18974290788173676,0.43617090582847595,0.58579021692276,1.0568698644638062,-0.18651141226291656,0.3964727520942688,-0.9871496558189392,-0.914713442325592,0.4517064094543457,-1.9119659662246704,-1.059637188911438,0.8188526034355164,0.31097838282585144,-0.1322641521692276,0.8176870346069336,-0.5708826780319214,-1.6946637630462646,0.9716115593910217,-0.03354267030954361,1.3606339693069458,0.09391385316848755,1.00514554977417,-1.3633904457092285,-0.47586923837661743,2.571070432662964,-0.1168736144900322,-0.24527548253536224,-1.5331707000732422,-0.8649170994758606
jester3.csv,0.7676805257797241,-0.7033215165138245,-0.9914457201957703,0.39652612805366516,2.3791821002960205,1.6817162036895752,0.08978193998336792,-1.1012547016143799,-1.2613469362258911,1.7475688457489014,-0.9388551115989685,-0.9576209783554077,0.48205089569091797,0.7664830684661865,-0.8948071002960205,0.6685047149658203,0.01305715274065733,-0.512825608253479,0.579259991645813,-0.8216443657875061,0.5688122510910034,-0.784546971321106,0.3549603521823883,-1.0934568643569946,-1.0139378309249878,0.8053305745124817,-1.4335254430770874,-0.1476888209581375,-1.1437283754348755,-0.9794489145278931
