movietweetings_latest.csv,1.0090452432632446,0.2036949098110199,1.5753945112228394,0.6356856822967529,0.3144010901451111,1.556655764579773,-0.8656880855560303,-0.17801670730113983,0.8050088286399841,-0.6668045520782471,-0.0629524365067482,0.8680137991905212,-1.2530628442764282,1.6345595121383667,0.38609325885772705,1.1706395149230957,-2.585057497024536,0.8591359257698059,-0.3770013451576233,-0.3937119245529175,-1.3154327869415283,0.02986385114490986,-1.0938612222671509,1.1840721368789673,-1.0683608055114746,0.922228217124939,-0.014719199389219284,-0.24338066577911377,-0.5198559761047363,0.8079056143760681,0.085110142827034,-0.2241992950439453,0.6715692281723022,0.17715108394622803,0.6194853186607361,0.07847201824188232,-1.1576251983642578,1.1576743125915527,0.8350074291229248,-0.03777685388922691,-0.503320038318634,-0.5239912867546082,-1.15651273727417,1.2339869737625122,-0.6300343871116638,-0.7117665410041809,1.311894416809082,1.8645250797271729,1.712077260017395,1.957829236984253,2.0060904026031494,-0.2859475016593933,1.4313018321990967,-0.3753201365470886,-0.6517841219902039,-0.3860313594341278,-0.3932453691959381,0.4202892482280731,0.8551433682441711,-0.31250613927841187,-0.13784748315811157,-1.0963664054870605,0.05189945548772812,-0.6122931838035583,0.9098551273345947,-0.9409035444259644,1.4756157398223877,-1.3293143510818481,-1.3911030292510986,0.3178524374961853,1.7911860942840576,-1.296812891960144,0.3700544834136963,0.6445773243904114,0.8059791326522827,-0.4642719328403473,1.4078015089035034,-1.8683679103851318,0.7690709233283997,0.23044486343860626,0.10593397915363312,-0.32679635286331177,0.6338670253753662,-0.8908840417861938,1.6186103820800781,-0.44862377643585205,0.39723435044288635,-0.18745745718479156,0.6606703996658325,0.04453719034790993,-3.1639487743377686,-0.9207298755645752,-0.5977789163589478,0.8512724041938782,-0.3115259110927582,-0.5610622763633728,1.135392189025879,1.8459303379058838,0.935697615146637,0.8851864337921143,0.03485317900776863,0.10212443023920059,-1.1167246103286743,0.7263679504394531,0.40562522411346436,0.9746782183647156,0.6186403036117554,-0.441953182220459,-0.8776026964187622,-0.6325825452804565,-2.131056308746338,1.5469406843185425,-1.584397554397583,-1.5869687795639038,0.5328068137168884,0.9980010390281677,1.7615317106246948,0.6838085055351257,-0.8426128029823303,-0.6663358807563782,-0.1496530920267105,0.2982613146305084,-0.40550631284713745,-1.3286809921264648,0.7506483793258667,-1.378061294555664,0.9088693857192993,-0.06904267519712448,1.0980998277664185,-0.47296440601348877,-1.116068720817566,-1.232864260673523,0.8970473408699036,0.16913902759552002,0.09633024781942368,-0.7848066091537476,0.02979404293000698,2.6125547885894775,-1.2709473371505737,1.9090616703033447,-0.9532788991928101,-0.22617825865745544,0.6562088131904602,0.6035975217819214,1.1572495698928833,1.0854698419570923,-0.3401947021484375,-1.3786444664001465,0.6420784592628479,0.48662349581718445,0.7677764892578125,0.923725426197052,0.5556424856185913,-0.0928310677409172,-0.0492931604385376,0.09774266928434372,-0.5306487679481506,0.8920265436172485,1.47310209274292,1.3701969385147095,-0.8228448033332825,-0.7499148845672607,1.5190880298614502,0.3787175714969635,-0.9242719411849976,-0.9133711457252502,-1.3139991760253906,-0.8863763809204102,0.8749467730522156,-0.7382771968841553,-0.06281723082065582,-1.415090799331665,-1.693240761756897,-0.7814370393753052,1.092038631439209,0.9418540596961975,0.638752281665802,0.9988940954208374,-0.08583076298236847,0.8488601446151733,-0.44741806387901306,-0.9355811476707458,0.886885941028595,-0.26749157905578613,-0.8284058570861816,1.2304939031600952,0.4890535771846771,0.4738096296787262,-1.524613618850708,-0.7065316438674927,-0.062088750302791595,1.607230305671692,0.08996184915304184,1.263215184211731,-2.2099955081939697,-0.8279865980148315,0.1962488293647766,0.10350414365530014,-0.44858017563819885,-0.6907535791397095
amazon-movies.csv,-0.05483610928058624,-0.8374966979026794,1.550692081451416,-0.3630286753177643,0.23309804499149323,1.0457282066345215,-0.6587424874305725,0.16402246057987213,1.192883014678955,0.3183952271938324,-0.23666371405124664,-1.100258708000183,0.24337272346019745,2.1878466606140137,0.43961188197135925,0.9544429183006287,-2.078887462615967,1.0433675050735474,-0.036258067935705185,-0.7265454530715942,-2.25168514251709,0.30196285247802734,-0.3052300810813904,0.7495192885398865,0.7669349908828735,1.1505306959152222,0.49096620082855225,-1.8742190599441528,-1.0699317455291748,-0.050772134214639664,-0.2632511556148529,0.7359799742698669,0.01003723032772541,0.31689950823783875,0.38571012020111084,0.7848822474479675,-0.5802547931671143,1.5837733745574951,1.3596199750900269,-0.4162557125091553,-0.461153119802475,0.36752021312713623,-0.760905385017395,1.4512957334518433,-0.7147243618965149,0.602130115032196,1.4330979585647583,1.0865554809570312,1.1905460357666016,1.8745379447937012,1.363579273223877,-0.057351548224687576,0.02095365710556507,1.3654407262802124,0.5166992545127869,-0.6598858833312988,0.6463429927825928,0.051818814128637314,0.9596337080001831,1.06404709815979,-0.8492136597633362,-1.87640380859375,0.2543734908103943,-1.1049951314926147,0.6635768413543701,0.31069087982177734,1.8937073945999146,-0.35350197553634644,0.2919073700904846,1.2649688720703125,1.547927975654602,-1.2311331033706665,-0.060977544635534286,-0.5936927795410156,-0.7395626306533813,-0.32336142659187317,0.9276359677314758,-1.461784839630127,-0.9185685515403748,-0.8640876412391663,-0.2763635516166687,0.44097432494163513,-0.673121988773346,-0.16241486370563507,1.1594785451889038,-1.9276047945022583,0.34480616450309753,0.8628451228141785,0.4795355796813965,1.1083165407180786,-1.4288835525512695,-0.9513165950775146,-1.3511406183242798,0.4741192162036896,0.12537255883216858,-1.428136944770813,0.8799147009849548,1.6325352191925049,0.10931283980607986,0.22724464535713196,0.12683333456516266,0.6833371520042419,-0.19687393307685852,1.21240234375,1.5536859035491943,1.4423810243606567,-0.028312159702181816,-0.8871191740036011,-0.7174371480941772,0.13829268515110016,-2.6620943546295166,1.094469666481018,-1.3558037281036377,-0.6712272763252258,1.0108768939971924,0.6202043294906616,2.3251755237579346,1.4513740539550781,-1.047558069229126,-0.41411805152893066,0.31910839676856995,0.35560739040374756,-2.0945353507995605,-0.6363368630409241,0.12901818752288818,0.10478200763463974,-0.020132234320044518,-0.7493593096733093,0.6507846713066101,0.2388404905796051,-0.6624207496643066,-0.143009215593338,0.37080511450767517,-0.28448307514190674,-0.517562210559845,0.0034574333112686872,-0.8871734142303467,2.108203649520874,-2.217855215072632,1.5893113613128662,-0.4960573613643646,-0.47199344635009766,0.014866138808429241,1.409175992012024,0.18481793999671936,0.7420207858085632,-1.1679883003234863,0.041464466601610184,0.5049102902412415,-1.2146952152252197,0.16256065666675568,1.8762439489364624,0.5737289190292358,1.2042237520217896,0.0572640597820282,-0.7251379489898682,-0.0014360720524564385,0.5319854617118835,0.6591473817825317,-0.1515425443649292,0.11539137363433838,-0.19326885044574738,2.5386412143707275,-0.17150314152240753,-0.8115946054458618,-1.2066435813903809,-0.6831535696983337,-0.4103999733924866,0.42747604846954346,-0.6613342761993408,-0.6077361702919006,-0.14230482280254364,-1.7191863059997559,-0.7729989886283875,1.3394416570663452,0.3174149990081787,0.8010895848274231,2.1486711502075195,-0.903527557849884,-0.5119473934173584,0.23802103102207184,-0.5936539769172668,0.3039412498474121,-1.2290915250778198,0.3950953483581543,0.6753393411636353,0.04019293189048767,-0.7119273543357849,-1.2418627738952637,0.028268955647945404,2.263054847717285,-0.016586070880293846,1.615757942199707,-0.2308608889579773,-0.7511350512504578,-1.9747520685195923,0.440042644739151,-0.18278105556964874,-1.5429480075836182,0.5005571246147156
yelp.csv,0.4567295014858246,-1.0309289693832397,0.013304810971021652,0.5845833420753479,0.6518310904502869,2.3557567596435547,-1.96937096118927,0.7509327530860901,0.9879896640777588,0.2562772333621979,0.133778914809227,-0.12407531589269638,-0.08091020584106445,2.738461971282959,0.9184073805809021,-0.376015841960907,-1.2636380195617676,0.9170584678649902,0.08423430472612381,-0.8049561977386475,-2.6797125339508057,0.5597842335700989,-0.3666325807571411,0.5889678597450256,-0.09962643682956696,-0.45807427167892456,-1.2020131349563599,-1.6409844160079956,-1.021323800086975,0.7051027417182922,-0.4106752872467041,-1.1483666896820068,2.325368881225586,0.19958452880382538,-0.01450190320611,0.6580442786216736,-0.3218008577823639,2.062302827835083,0.9033109545707703,-1.0115325450897217,1.0070387125015259,-0.823675811290741,-1.7914273738861084,1.0667496919631958,-0.14449837803840637,0.6513285040855408,-0.24416537582874298,0.500353217124939,0.19931820034980774,2.5076041221618652,1.3875280618667603,-0.7650984525680542,0.8861995935440063,0.2645813822746277,0.7712218165397644,-0.21811118721961975,0.7230629324913025,-0.032442811876535416,1.6189779043197632,-0.41728129982948303,0.004502508323639631,-0.0635981634259224,0.0762934610247612,-0.3146248161792755,1.661842703819275,-1.5837820768356323,1.42104172706604,-0.5422015190124512,-0.19348052144050598,0.481370210647583,1.5284711122512817,-0.7453487515449524,-0.04594923183321953,-0.7851957678794861,0.7237952351570129,-1.0770714282989502,1.4218617677688599,-0.6423691511154175,-0.0987943485379219,0.6691045761108398,-1.8126733303070068,0.07923237234354019,0.5847011208534241,-0.26730644702911377,1.1195197105407715,0.23316311836242676,0.03348420560359955,-0.19524991512298584,-0.39323410391807556,-0.38782793283462524,-1.8431072235107422,-0.7311733961105347,-0.24061478674411774,0.4910363554954529,-0.9727537631988525,-0.45733875036239624,-0.10651520639657974,1.0777713060379028,0.30621492862701416,0.16299645602703094,0.31016287207603455,-0.20880885422229767,-0.7827948331832886,1.7039239406585693,0.07195981591939926,1.6880923509597778,-0.46136218309402466,-1.8025696277618408,-1.8277169466018677,0.7803797721862793,-1.1523537635803223,0.5268873572349548,-1.2684837579727173,-2.07504940032959,0.04157927259802818,1.8325673341751099,2.163926362991333,0.45514360070228577,-1.611410140991211,-0.7055495381355286,1.0104032754898071,0.5677906274795532,-0.5572229623794556,-0.6731981039047241,0.5483552813529968,-1.1384118795394897,0.4524875283241272,-0.5796278715133667,-0.4884968101978302,-0.5184543132781982,-1.3976596593856812,-0.3806084990501404,0.7361865639686584,0.18361490964889526,-0.3780709505081177,-0.6937797665596008,-0.20297688245773315,1.503474473953247,-1.260387659072876,0.7541112303733826,-0.18567055463790894,-0.9162591099739075,-0.8665037751197815,-0.02407689578831196,0.502583920955658,-0.7717745900154114,-0.17150536179542542,0.5003854036331177,0.9991816878318787,-1.1177637577056885,-0.15752238035202026,-0.7393727898597717,-0.19262103736400604,0.32255226373672485,0.7074809074401855,-1.0756291151046753,1.4382776021957397,0.33482351899147034,1.1130094528198242,0.8321055173873901,-1.7267228364944458,-0.43886542320251465,1.4288346767425537,-0.8690336346626282,-0.19246366620063782,-0.20890313386917114,-1.8962067365646362,-0.3184507489204407,-0.008980846963822842,-2.663384199142456,0.24659506976604462,-2.5607025623321533,-1.0472172498703003,-1.2376172542572021,1.2852438688278198,0.02983761578798294,0.2091398388147354,0.22803400456905365,1.109798550605774,1.787394642829895,1.4338551759719849,-1.2688233852386475,0.21192792057991028,-0.3045065999031067,0.007665422745049,0.23528333008289337,0.49219852685928345,-0.044877707958221436,0.007254530675709248,-0.4751717746257782,0.3401971757411957,0.9659132957458496,0.01463824138045311,1.4473991394042969,-0.8108788728713989,-1.3364399671554565,0.20685073733329773,0.5034701228141785,-0.05644000694155693,-0.285127729177475
amazon-kindle.csv,-0.1999075561761856,-0.9670001864433289,0.5908781886100769,0.561447024345398,0.14577119052410126,1.9378070831298828,0.08996494859457016,-0.7928692102432251,0.7377647161483765,-0.1397971361875534,0.43235793709754944,0.04431558772921562,-0.6585441827774048,2.210447072982788,-0.17086201906204224,1.4830546379089355,-1.3119008541107178,0.49464884400367737,0.5649031400680542,-1.3641334772109985,-1.7914478778839111,0.15429998934268951,-0.4927879571914673,0.7146157622337341,0.5815333127975464,1.0338064432144165,-0.8175570964813232,-1.0667493343353271,-0.3518853783607483,0.5276451110839844,0.2235821783542633,1.0911225080490112,1.5920395851135254,0.7709424495697021,0.7153080701828003,0.870097279548645,0.45652520656585693,1.1558088064193726,-0.2569793462753296,-0.3460032641887665,0.23986324667930603,-0.026569116860628128,-1.6897032260894775,1.25501549243927,-1.9811296463012695,0.6967811584472656,1.2453060150146484,1.296329379081726,0.1601547747850418,0.2432035207748413,0.40691545605659485,0.37621039152145386,0.27427223324775696,1.275765299797058,-0.7144646644592285,0.1105332300066948,0.16053242981433868,-0.9744049310684204,1.4701961278915405,0.17767056822776794,0.014678563922643661,-0.47393175959587097,-1.1040925979614258,-0.6725232601165771,-0.1860450655221939,-0.5669850707054138,1.5535922050476074,-0.939704954624176,0.16733837127685547,-0.2330864816904068,1.1755377054214478,-2.304386854171753,0.7308024168014526,0.22350870072841644,1.1016582250595093,-0.06948906928300858,1.3762071132659912,-0.3469846844673157,0.5100244283676147,-0.8474343419075012,-1.989001750946045,0.38479000329971313,0.4245014786720276,-0.1796565055847168,2.203537702560425,-0.563397228717804,0.5374690294265747,0.01585228368639946,0.5946614146232605,0.6217473149299622,-2.183610677719116,-1.9673150777816772,-1.2268989086151123,-0.651383638381958,-1.3004257678985596,-1.6080843210220337,-0.1884443610906601,2.243173837661743,-0.7944665551185608,0.13890428841114044,-1.5851026773452759,0.2691427767276764,-0.7818764448165894,-0.11481303721666336,0.35131144523620605,0.8306853771209717,-0.6743081212043762,-1.746338963508606,-1.9966018199920654,-0.4212632477283478,-2.180642604827881,0.86370450258255,-1.2633609771728516,-1.4237432479858398,1.5131951570510864,1.0274877548217773,0.3153659999370575,0.87076336145401,-2.305830717086792,-1.3015953302383423,0.4820684790611267,-0.7207005620002747,-1.468448519706726,-0.8877277970314026,0.0973677709698677,-0.4326539635658264,0.1345922201871872,0.291151762008667,2.0230536460876465,1.0637834072113037,-1.25679612159729,-0.8156868815422058,0.20643295347690582,-0.4163437783718109,-0.5338326096534729,-0.6123781204223633,-0.552639365196228,1.1996327638626099,-0.6232638955116272,0.6221602559089661,-0.27369675040245056,0.20026780664920807,-0.2328987568616867,0.14273159205913544,-1.7257404327392578,-0.5966523289680481,-0.8798312544822693,-0.9120110869407654,1.8203843832015991,0.5803618431091309,0.4622061550617218,0.9999440908432007,1.8023405075073242,-0.6682605147361755,0.11033675074577332,0.09290780872106552,-0.015323619358241558,-0.555355966091156,0.4481053650379181,1.659204363822937,-0.9572052955627441,-0.2290782630443573,1.5745389461517334,-0.41453641653060913,-0.20228496193885803,-0.5168348550796509,-1.1377754211425781,0.0729265809059143,1.2301548719406128,-2.517803192138672,-0.00728594372048974,-0.9105648398399353,0.08843277394771576,-0.7732526063919067,-0.881915271282196,1.4579812288284302,0.8907596468925476,0.2946667969226837,0.1724054366350174,0.403985857963562,0.9743404388427734,-0.714765727519989,-0.4694129526615143,-0.9677351713180542,-1.2848701477050781,0.7003325819969177,-0.7549715042114258,-0.4685438871383667,-0.9509348273277283,-0.49324846267700195,0.909940779209137,0.8965784311294556,2.735682725906372,-0.5866744518280029,0.35856106877326965,-0.7924608588218689,0.6329834461212158,-0.6657030582427979,-0.5400830507278442,-0.10917439311742783
flixter.csv,0.9048658609390259,-1.2450462579727173,1.4353845119476318,-0.24733053147792816,0.8675898909568787,1.296981692314148,0.13584989309310913,0.12643873691558838,1.1077967882156372,-0.20269933342933655,-0.05232147127389908,0.12173888832330704,0.04151896759867668,1.616661548614502,-0.16567763686180115,1.8319549560546875,-0.8785768747329712,2.2582671642303467,-0.053804729133844376,-0.3877254128456116,-2.1452693939208984,-0.402633935213089,1.1473355293273926,1.6364725828170776,-0.60221928358078,0.7246920466423035,-0.5260300040245056,-0.5525915026664734,0.8685758113861084,1.2866549491882324,0.18293194472789764,-0.8678972125053406,0.27271124720573425,-1.3074125051498413,0.7758105397224426,0.2432723492383957,-1.7285274267196655,1.8747004270553589,0.3879176676273346,-0.006950665265321732,-0.4686885178089142,0.8126838803291321,-0.6489961743354797,0.48951900005340576,-0.4148908257484436,-1.7506732940673828,0.017721125856041908,0.44898825883865356,0.9439149498939514,1.5318833589553833,0.4997014105319977,-0.4680024981498718,0.8856498599052429,-0.052440062165260315,-0.03628917410969734,0.09875954687595367,-0.7435468435287476,-1.428450107574463,1.4916476011276245,-0.6299103498458862,-0.48171254992485046,-0.9667127728462219,0.0953865796327591,0.0064458842389285564,0.830155074596405,-0.07903500646352768,1.327073097229004,-1.1561236381530762,1.270565390586853,0.006809909362345934,1.1490474939346313,-0.8400049209594727,1.6358062028884888,-0.8918731212615967,0.8102304339408875,-0.5369886159896851,-0.08439096808433533,-1.3761448860168457,-0.42857369780540466,-1.2139416933059692,-1.0781909227371216,-0.6099919080734253,0.91445392370224,0.04810933396220207,0.6266223788261414,0.0795724019408226,0.48392432928085327,0.4025302827358246,1.9176301956176758,0.15810315310955048,-2.891784191131592,-0.9625303149223328,-0.585946261882782,0.21880896389484406,-0.5495375990867615,-1.524990200996399,0.6186156868934631,1.9223164319992065,0.7252810597419739,-0.44965943694114685,-1.1300220489501953,0.2895599603652954,0.37483155727386475,0.6824111342430115,1.1243910789489746,0.5882832407951355,1.261877179145813,-0.2629465162754059,-0.42055872082710266,0.43255680799484253,-2.351940155029297,1.5734810829162598,0.39207136631011963,-1.0918731689453125,0.5228484869003296,1.1442354917526245,1.877545952796936,0.4122700095176697,-1.4316505193710327,-2.2741501331329346,-0.011673906818032265,-0.14924180507659912,0.05589936673641205,-1.432161569595337,0.5160597562789917,-1.2014862298965454,0.5896564722061157,-0.07242339849472046,-0.06763457506895065,0.3466653525829315,-1.291200041770935,-1.1268393993377686,0.9648638963699341,-0.8346708416938782,-1.5586457252502441,0.47776806354522705,0.2681306004524231,2.8158414363861084,-0.9211147427558899,1.2290644645690918,-0.8873040080070496,-1.4258852005004883,0.06504373252391815,0.9131720066070557,0.3249550461769104,-0.052999142557382584,-0.5448093414306641,0.6081382632255554,0.2702934443950653,0.6574453711509705,-0.30791690945625305,-0.24720312654972076,-0.10228239744901657,0.7407659292221069,0.08834019303321838,0.5809952616691589,0.02762024477124214,0.41457197070121765,0.745676577091217,0.00300171272829175,-0.124010369181633,-0.1013958528637886,2.1087512969970703,-0.9799938201904297,0.7670217752456665,-0.2366977483034134,0.8070085644721985,-0.5550263524055481,1.4452778100967407,-2.3294570446014404,0.027364831417798996,-1.1312386989593506,-1.0705572366714478,-1.4686709642410278,0.5572241544723511,0.44683295488357544,2.5763230323791504,0.8416533470153809,0.9179704785346985,-0.655418872833252,0.071021668612957,-0.4150291979312897,0.2827610671520233,-1.7041329145431519,-0.8912559151649475,0.5482251048088074,1.000243902206421,0.9697175621986389,-1.7431738376617432,-1.2155202627182007,0.052464671432971954,1.8402485847473145,0.45444053411483765,0.2879803776741028,-0.724970281124115,-0.8172888159751892,-1.3631258010864258,0.45012396574020386,-0.008034874685108662,0.02768806926906109
movielens_latest.csv,1.0590229034423828,0.1171048954129219,1.3234888315200806,0.05399329587817192,0.18464204668998718,1.4650661945343018,-0.55748450756073,0.9483809471130371,1.316774606704712,-0.30293816328048706,0.4605829417705536,0.9550399780273438,-1.1322342157363892,1.7448047399520874,0.14927086234092712,2.2634871006011963,-1.467848300933838,0.9170920848846436,0.3664134442806244,-0.8345987200737,-2.3109707832336426,-0.9511349201202393,-0.7955953478813171,1.7154676914215088,0.47671276330947876,0.6088118553161621,-0.5683812499046326,-1.2492811679840088,0.009306422434747219,0.18727798759937286,-0.0009283522958867252,-0.24122554063796997,0.8554235696792603,-0.27233201265335083,-0.3288498818874359,1.2347279787063599,-1.5147744417190552,1.858161211013794,1.3950788974761963,-0.8132426738739014,-0.9021520018577576,0.26388904452323914,-1.1928857564926147,0.23113976418972015,-0.7692238092422485,-1.3701177835464478,0.4687741696834564,1.3645305633544922,0.9801973104476929,1.463283896446228,1.2439547777175903,-0.42152151465415955,1.204962134361267,1.1506589651107788,0.8599550724029541,0.9370265603065491,1.430376410484314,-0.08445996791124344,2.423220634460449,-0.3817841410636902,0.1956348419189453,-0.550642192363739,-0.372278094291687,-1.1801135540008545,0.8878136873245239,-0.22797220945358276,1.8211053609848022,-0.8575421571731567,-0.6824639439582825,-1.3228697776794434,1.3234814405441284,-0.8669056296348572,1.3536041975021362,-0.640155553817749,0.945967972278595,0.26812314987182617,-0.09142347425222397,-1.147095799446106,0.5149268507957458,-0.4050215482711792,-1.3008041381835938,-0.8616617918014526,1.0170142650604248,-0.21838907897472382,0.9651368856430054,0.21622316539287567,0.2592882812023163,-0.9509966969490051,0.5174657106399536,0.5321788191795349,-2.915327787399292,-0.9631126523017883,-0.6125900745391846,0.5391188859939575,0.8457394242286682,-1.0171177387237549,1.554670810699463,1.9209799766540527,0.5929670333862305,0.5590104460716248,1.2573879957199097,0.4482392370700836,-0.9771771430969238,0.8512948751449585,1.5730223655700684,1.0418709516525269,-0.11759621649980545,-1.2391523122787476,0.532925009727478,-0.44202569127082825,-2.8990392684936523,0.5075991153717041,-1.0219275951385498,-1.075529932975769,0.6153973937034607,0.8288949131965637,1.9305599927902222,1.178523063659668,-1.060876727104187,0.7831065058708191,1.2147107124328613,0.8748192191123962,-0.47987306118011475,-1.516611099243164,-0.02269796095788479,-1.0216515064239502,0.21027250587940216,-0.3875003755092621,0.79230797290802,0.42202308773994446,-1.7377573251724243,-0.9348048567771912,0.5779359936714172,1.5042352676391602,-0.17302359640598297,-0.5712394714355469,1.3384976387023926,1.498828649520874,-0.31502729654312134,1.7538385391235352,-1.0391253232955933,-0.7132835388183594,-0.20820225775241852,0.6188139319419861,-0.49203479290008545,-0.19708411395549774,-0.25934934616088867,-0.0038530579768121243,0.18630710244178772,0.41814467310905457,-0.43964430689811707,1.1155509948730469,-0.322254478931427,-0.32883694767951965,-0.4404720366001129,-0.1301363706588745,0.8757084012031555,0.17644654214382172,1.1983413696289062,-0.2093663215637207,-0.8231838941574097,-1.1661840677261353,1.8113492727279663,-0.701940655708313,-1.0465224981307983,0.026833035051822662,-0.978696346282959,-1.0894722938537598,0.22907449305057526,-1.6780877113342285,-0.6218689680099487,-0.6360812783241272,-0.6072869300842285,-1.1929742097854614,0.5109072327613831,0.461661696434021,0.7690224051475525,0.6354661583900452,-0.6471226811408997,-0.06951683014631271,0.10090132802724838,-1.3482798337936401,0.32024306058883667,-1.4881110191345215,-0.4293534755706787,-0.01698758266866207,-0.09001877158880234,1.287400722503662,-0.7152579426765442,0.09787417948246002,0.4436160922050476,1.7730085849761963,0.9068617820739746,0.8410936594009399,-1.1856403350830078,-1.7392470836639404,-0.15419358015060425,-1.0496197938919067,0.3405916392803192,0.3558225631713867
jester3.csv,0.8005551695823669,-0.522399365901947,-0.0941406637430191,-0.2302161157131195,0.9501509666442871,0.3737287223339081,0.5374538898468018,0.017668187618255615,0.9709493517875671,0.10279984027147293,0.7243466973304749,0.19337621331214905,-0.6137284636497498,1.523776888847351,0.29424816370010376,1.7081574201583862,-1.540279507637024,1.3524187803268433,-1.1532529592514038,-0.7169504761695862,-2.2115485668182373,-1.3660210371017456,0.5739825963973999,1.7604987621307373,0.2845051884651184,0.5087832808494568,-0.15738755464553833,-0.6203899383544922,-0.8656299710273743,0.9699908494949341,-0.31518781185150146,-0.6025400757789612,0.8193739652633667,-0.7374374866485596,0.8376199007034302,0.6860657930374146,-0.625572681427002,1.8263016939163208,1.481387972831726,-0.8338181972503662,-0.7328858375549316,-0.5676265358924866,-1.1923446655273438,0.9329249858856201,-1.3451694250106812,-0.648810088634491,0.8316662907600403,1.4014514684677124,0.8574607968330383,1.1183626651763916,1.3875166177749634,-0.05923980847001076,0.7609115242958069,1.1943429708480835,1.1412129402160645,0.026831520721316338,0.7833571434020996,-0.14216254651546478,1.8610801696777344,-0.6391778588294983,0.15186373889446259,-0.47541284561157227,-0.46045318245887756,-2.3972320556640625,3.2760050296783447,0.693199098110199,1.858781099319458,-0.8147192001342773,-1.2216379642486572,0.3700147867202759,1.3146612644195557,-1.8189806938171387,0.5776065587997437,-0.4022834897041321,0.12421096116304398,0.3287174105644226,-0.5234952569007874,-0.6380957961082458,-0.4354343116283417,-0.7381194233894348,-0.639222264289856,0.1250622272491455,0.9930444359779358,-0.2724107801914215,0.9276474118232727,0.0016062260838225484,0.6542951464653015,-0.030022278428077698,0.641208827495575,0.7416884899139404,-3.015871524810791,-0.6556511521339417,-0.9551648497581482,0.14070254564285278,-0.04724070802330971,-0.443891704082489,0.8021901845932007,1.8877153396606445,1.609023094177246,-0.268157422542572,0.3454088568687439,-0.8121679425239563,-0.38674017786979675,-0.05151059105992317,0.36198118329048157,0.46430060267448425,0.09330669045448303,-1.1225250959396362,-0.7141872644424438,-0.8028580546379089,-2.872587203979492,1.128682255744934,-0.886346697807312,-1.530677318572998,0.21481764316558838,0.5046664476394653,0.7192659974098206,0.15314805507659912,-1.2075365781784058,-0.5138574242591858,1.3630675077438354,0.1542498767375946,0.3477928936481476,-0.9358329772949219,-0.3041152060031891,-1.1949478387832642,-0.05418265983462334,0.12240483611822128,0.5445544123649597,0.21039600670337677,-2.3007264137268066,-0.6858022212982178,1.1696503162384033,0.2864943742752075,-0.5490608811378479,-0.36559364199638367,-0.8950179219245911,2.0250627994537354,-1.1505424976348877,1.9349833726882935,-1.9169784784317017,-0.6485055088996887,-0.08910175412893295,0.4296896755695343,-0.38896825909614563,-0.015626966953277588,-1.1516826152801514,-0.8988799452781677,0.6489059329032898,0.366310179233551,0.762022078037262,1.6513339281082153,-0.40184319019317627,0.6732609868049622,0.8210701942443848,0.866643488407135,-0.2127053141593933,-0.3466121554374695,-0.23853681981563568,1.1859519481658936,0.1160246878862381,-0.5598791241645813,2.650533676147461,-0.5234053134918213,0.04555660858750343,0.2036120891571045,-0.1241624653339386,0.08440450578927994,0.9818944931030273,-1.9280154705047607,-0.13564833998680115,-0.6268741488456726,-0.9597168564796448,-0.10266464203596115,0.5011036992073059,1.226558804512024,0.23290510475635529,1.5286484956741333,-0.5433076620101929,0.6238210201263428,-0.5380333065986633,-0.7459619641304016,1.0436142683029175,-0.6322457790374756,-0.21300369501113892,0.6476322412490845,0.12115132808685303,0.06537174433469772,-2.043736219406128,-1.452335000038147,0.9475189447402954,0.8308183550834656,0.3106224536895752,0.5612781643867493,-1.305320143699646,-1.6012723445892334,0.842333197593689,-0.0790700614452362,-0.46244898438453674,-0.9053347110748291
amazon-phones.csv,0.714945375919342,-1.19271719455719,2.6995558738708496,0.17541466653347015,-0.0534714050590992,1.471713900566101,-0.13009515404701233,-0.13705259561538696,1.0550518035888672,-0.2504480481147766,-0.11226382851600647,0.4652903974056244,0.348522424697876,1.5024915933609009,0.6683615446090698,1.2572784423828125,-2.0362708568573,0.726107656955719,0.060842182487249374,-0.4653015732765198,-1.8277193307876587,-0.6471941471099854,0.6767445206642151,0.36597397923469543,-0.8505362272262573,-0.010910679586231709,0.46048176288604736,-1.313515067100525,-1.4419175386428833,0.27865391969680786,0.7228972315788269,0.1300581991672516,1.5371655225753784,-1.1931037902832031,0.6512405276298523,1.3119510412216187,-0.5131088495254517,1.230501413345337,1.1183806657791138,-1.6323055028915405,-0.1053699254989624,-0.851188600063324,-2.6400094032287598,0.5762154459953308,-0.6535159349441528,0.3960845172405243,-0.73435378074646,0.9645968675613403,0.09590476006269455,0.6257330179214478,-0.14364860951900482,-1.555160403251648,-0.1057891920208931,-0.6274144649505615,0.33520036935806274,0.10139590501785278,-0.5654887557029724,0.04351722449064255,0.7388293743133545,0.781171441078186,-0.10653036832809448,-0.8158212304115295,0.4462427794933319,0.8430708050727844,0.061615895479917526,0.050788115710020065,0.7541556358337402,-0.6215550899505615,-0.5521098971366882,1.8438785076141357,0.48743852972984314,-1.7311476469039917,0.8670215010643005,-1.258149266242981,0.548240065574646,-0.5234847664833069,0.8844925761222839,-0.673179566860199,-0.4732196629047394,0.8778500556945801,-1.7444132566452026,-1.0784839391708374,0.19457459449768066,0.4615161120891571,0.15510858595371246,-0.08133194595575333,-0.07679234445095062,-0.5100963711738586,0.2126483917236328,-0.019090602174401283,-2.8168795108795166,-0.5603373050689697,-1.1882026195526123,-0.02403225377202034,-1.556251883506775,-0.5960072875022888,0.2988784909248352,0.7843271493911743,0.5739012956619263,-0.9069303274154663,-0.02951224334537983,-0.8780567646026611,-1.129468560218811,0.18471382558345795,1.1943670511245728,0.541941225528717,1.19760262966156,-0.1443505436182022,-0.3702388405799866,-0.33563441038131714,-1.6601563692092896,1.1219062805175781,-0.5491098761558533,-0.5667755603790283,-1.1557329893112183,-0.7843182682991028,1.9339168071746826,-0.6429892778396606,-0.6999401450157166,-0.914406418800354,1.8078160285949707,1.2411973476409912,-0.7904268503189087,-0.6063037514686584,0.3563991189002991,-0.946582019329071,-0.6250819563865662,-0.2172589898109436,0.8917136192321777,0.18690481781959534,-1.7321704626083374,-0.11110775917768478,1.448471188545227,-0.9281254410743713,0.19344866275787354,0.21386536955833435,0.6179070472717285,1.9034862518310547,-0.09078062325716019,1.1670814752578735,-1.2036975622177124,-0.4154956638813019,-0.7366607189178467,0.5252121090888977,0.1812722384929657,1.28351628780365,-0.8816000819206238,-1.0456973314285278,1.605985403060913,-1.7680785655975342,1.3768234252929688,-0.4090259075164795,0.22041884064674377,2.0394906997680664,-0.2239132523536682,1.4146811962127686,-0.6051282286643982,-0.3424297571182251,-0.18200503289699554,0.8673146367073059,-0.8109819889068604,-0.09977477043867111,2.300849437713623,0.07780172675848007,-1.4617823362350464,-0.7392941117286682,-2.196899890899658,0.44184285402297974,0.9282635450363159,-2.508862018585205,-0.023059185594320297,-1.5852493047714233,-1.7493971586227417,-1.500771164894104,0.8963379859924316,0.7179388999938965,1.7504518032073975,0.4010111391544342,-0.22346962988376617,-0.6458842158317566,-0.47691458463668823,-0.28336405754089355,1.7981257438659668,-1.1682929992675781,-0.8967714905738831,0.6148695945739746,-0.710501492023468,0.3523957133293152,-1.4252729415893555,-0.5195385813713074,0.6265472173690796,0.6088098287582397,1.4297473430633545,0.7636260986328125,-0.7768496870994568,-0.34926918148994446,0.7128955125808716,-0.37003612518310547,-1.2716503143310547,0.6330033540725708
amazon-baby.csv,0.2813730239868164,-1.8530023097991943,1.9067891836166382,-0.39039355516433716,0.6170205473899841,1.149748682975769,-0.033446960151195526,1.4712847471237183,1.4979851245880127,-1.029463768005371,-0.7321316599845886,0.39929598569869995,0.1242624968290329,2.66538405418396,0.8327740430831909,0.8452443480491638,-1.5154350996017456,1.4177321195602417,0.05782300606369972,-0.3427547812461853,-0.799251914024353,0.30458369851112366,-0.5597397089004517,0.4482531249523163,0.7690909504890442,1.4307665824890137,-0.22315454483032227,-0.5416132211685181,-0.4436779320240021,0.8984757661819458,-1.076423168182373,0.5344986319541931,2.036302089691162,0.40942198038101196,0.8297659754753113,0.945010781288147,-0.48125362396240234,2.0625240802764893,1.3645143508911133,-0.8859045505523682,-0.2678634524345398,-0.9909535646438599,-0.7457666993141174,0.05656997859477997,0.17796115577220917,-0.4141595959663391,0.6907692551612854,1.8758147954940796,0.4571481943130493,1.9702702760696411,1.6364104747772217,-0.11885254085063934,1.552920937538147,1.0101104974746704,0.15399357676506042,-0.2177971601486206,0.3573547601699829,-0.9599988460540771,0.47711503505706787,0.7548858523368835,-0.5045500993728638,-0.8128935694694519,0.693489670753479,-0.6770026087760925,1.2078293561935425,-0.11996069550514221,1.2805629968643188,-0.4414860010147095,0.0026629792992025614,0.40299364924430847,1.6946274042129517,-1.6766122579574585,0.2004990577697754,-0.8347798585891724,0.16780002415180206,-1.2145965099334717,0.332655668258667,-1.1499966382980347,-0.5561987161636353,-0.6195744276046753,-1.3834593296051025,0.32622912526130676,0.46516409516334534,0.41719740629196167,0.3550223410129547,0.1155138686299324,0.5525774955749512,0.1594323068857193,0.6230350732803345,0.8251408934593201,-3.2703733444213867,-1.9993963241577148,-0.998895525932312,0.25175565481185913,0.06658224761486053,-1.25497305393219,0.37667152285575867,0.44561293721199036,0.9655019044876099,-0.645984411239624,0.33671513199806213,-0.38383394479751587,-0.8957864046096802,0.506186842918396,0.9670867919921875,1.5631530284881592,-0.8518431782722473,-1.1728730201721191,0.22804319858551025,-0.637405276298523,-2.5187554359436035,2.1780216693878174,-1.9168832302093506,-0.7235419750213623,0.9997543692588806,-0.49284571409225464,1.5437616109848022,0.661410927772522,-0.8189399242401123,0.3655049800872803,1.9960575103759766,-1.2888785600662231,-0.9495314359664917,-0.40833964943885803,0.126280277967453,-0.7784264087677002,0.7060379981994629,-0.25127819180488586,0.2745886743068695,-0.11200607568025589,-1.019136667251587,0.022867126390337944,0.14953412115573883,0.6642861366271973,0.32514891028404236,-1.1348308324813843,0.04047347977757454,3.0437443256378174,-0.9562984704971313,1.5270740985870361,-0.3540330231189728,-0.4513557255268097,0.1261628419160843,1.310315489768982,0.46345120668411255,0.16304868459701538,-0.7063874006271362,-0.4333555996417999,0.5593068599700928,-0.39439675211906433,-0.03648713231086731,1.0894159078598022,0.15620654821395874,0.3726853132247925,-1.0779610872268677,0.5107113122940063,0.026449060067534447,0.4938950836658478,0.7292241454124451,1.236896276473999,-0.966040313243866,-0.09808214008808136,2.656428575515747,-0.7012462615966797,-1.2040518522262573,0.7093547582626343,-0.7374704480171204,0.3516024351119995,0.6414319276809692,-1.293921709060669,-0.4659627676010132,-0.35721269249916077,-0.7578212022781372,-1.7333760261535645,1.2798548936843872,0.003338400274515152,1.1201809644699097,1.5005664825439453,-0.5121622681617737,-0.24096927046775818,-0.07522241026163101,-0.06550619006156921,-0.013391909189522266,-1.8459174633026123,-1.136175274848938,0.4253045320510864,0.3950885534286499,0.4401874244213104,-1.2984050512313843,0.11196477711200714,0.08501242101192474,1.7624948024749756,-0.08330854773521423,-0.42096927762031555,-1.2489800453186035,-0.3342040479183197,0.4859894812107086,-1.3164901733398438,-0.1866237223148346,-0.19585877656936646
amazon-instruments.csv,0.8184516429901123,-1.0358564853668213,-0.019728749990463257,0.35307398438453674,0.16797752678394318,1.4074441194534302,1.0555005073547363,1.3407114744186401,2.107487201690674,-0.3178800642490387,0.5286840200424194,0.5945688486099243,-0.6918823719024658,2.3816449642181396,0.49097439646720886,0.37993669509887695,-0.7770557999610901,1.4285870790481567,-0.9558881521224976,-0.832571268081665,-2.2404797077178955,-0.5065786838531494,-0.1641036421060562,-0.134588360786438,-0.47680720686912537,1.300441026687622,0.7308896780014038,0.1012801006436348,-0.4188052713871002,0.6775818467140198,-0.5485568046569824,0.17066551744937897,1.1889716386795044,-0.6092082262039185,-0.8062360286712646,0.4406094551086426,-1.072302222251892,1.3236303329467773,0.7851990461349487,-0.8725555539131165,-1.1259554624557495,0.19463926553726196,-1.1814357042312622,1.054552435874939,-1.515434980392456,-0.15801182389259338,1.6449341773986816,1.7073824405670166,-0.9866668581962585,1.3881111145019531,0.3570772111415863,-0.5188977122306824,0.7747552394866943,1.3654073476791382,0.5383471846580505,-0.504696249961853,0.8384206295013428,0.3766429126262665,0.5009240508079529,0.5797447562217712,0.7028481960296631,-0.1319136619567871,0.5740033984184265,-0.6151059865951538,0.2849990129470825,-1.0201219320297241,1.5448139905929565,-2.042506694793701,-0.39414462447166443,0.7959418892860413,1.9566229581832886,-1.449570655822754,0.40614384412765503,-0.4460042417049408,0.8330773115158081,-0.3580942153930664,1.1489158868789673,-0.17062300443649292,0.1738802194595337,-0.012469506822526455,-2.0484752655029297,-0.1508512943983078,0.7075689435005188,0.8583606481552124,0.4274420440196991,-0.9635606408119202,0.609167754650116,-0.14556853473186493,0.9687431454658508,1.9707227945327759,-1.2390824556350708,-0.17847543954849243,-1.0548022985458374,-0.43135762214660645,-0.9747518301010132,-0.19528362154960632,0.6345915794372559,1.3434141874313354,0.3507138788700104,-0.6857904195785522,0.054120879620313644,0.8969376087188721,-0.4088399112224579,1.2665523290634155,0.4599383473396301,1.9138939380645752,-0.43410712480545044,-1.0738651752471924,-0.3875497281551361,-0.4711783230304718,-3.65553879737854,1.6874216794967651,-1.310792088508606,-0.576297402381897,0.8450860381126404,0.804663360118866,1.6919394731521606,2.0724050998687744,-0.9952260255813599,0.5950343012809753,2.00610089302063,-0.8677442073822021,-0.49974656105041504,-0.08477511256933212,-0.09064596146345139,-0.6164048910140991,0.3842180073261261,-1.0544793605804443,-0.3657589852809906,-0.4022693336009979,-1.5343834161758423,-1.2847731113433838,0.3820931017398834,0.46604666113853455,-1.119147539138794,-0.7853352427482605,-0.19326116144657135,2.7762932777404785,-1.602348804473877,1.1049351692199707,-1.3753801584243774,0.043799757957458496,-0.167236790060997,0.533538281917572,-1.1522547006607056,0.5481751561164856,-0.2827438712120056,-0.711546778678894,0.009159969165921211,-0.15789732336997986,1.0001802444458008,0.6020562648773193,0.11839891970157623,0.47576475143432617,-0.4240686595439911,-0.8956429958343506,-0.08221674710512161,0.710128128528595,1.3882554769515991,0.8310026526451111,0.9228717684745789,-0.05567335709929466,2.6043548583984375,-0.9922665953636169,-0.6140804886817932,-0.16358372569084167,-0.05403643846511841,-0.17087644338607788,0.8259207606315613,-1.0194593667984009,-0.5988786816596985,-0.7978844046592712,-1.4986345767974854,-1.650577187538147,-0.5160282254219055,-0.12867674231529236,0.9073273539543152,0.5384906530380249,0.00809150468558073,1.4277496337890625,-0.1062888354063034,-0.6697322130203247,-0.12158713489770889,-1.0992592573165894,-1.182813286781311,-0.2805432677268982,0.4554942846298218,0.9241297245025635,-1.6741772890090942,-0.3688802123069763,0.7299179434776306,0.6078742742538452,0.4634648859500885,1.1099035739898682,-1.205841302871704,-0.6512123346328735,0.24728381633758545,0.38256558775901794,-1.443398356437683,0.6457585692405701
amazon-digital-music.csv,0.0965881422162056,-1.458004117012024,1.5282853841781616,-1.0465590953826904,0.40261009335517883,1.5703206062316895,-0.6771836876869202,1.037930965423584,0.6456844806671143,-0.11942286044359207,-1.879022240638733,-1.0887173414230347,-1.4983519315719604,1.0380611419677734,0.7215458750724792,1.2925351858139038,-2.088438034057617,1.6456878185272217,0.4253847599029541,-0.899633526802063,-0.8242287039756775,0.22176745533943176,0.8548822402954102,-0.5578140616416931,-0.22022417187690735,0.4122164249420166,-0.42206504940986633,-1.6773897409439087,-0.41139453649520874,-0.0632103979587555,-0.6407453417778015,0.10676173120737076,1.9002394676208496,-0.3144277036190033,0.8071326613426208,0.9443855881690979,-1.0337542295455933,1.5221081972122192,0.8723198175430298,-0.0072415960021317005,-0.6197810769081116,1.2638155221939087,-1.6189866065979004,1.1886447668075562,-1.257176399230957,0.8483841419219971,-1.008301854133606,0.9862751364707947,0.0036761134397238493,1.0031734704971313,0.03989190235733986,-0.23643182218074799,1.4445278644561768,1.260847568511963,0.7887204885482788,0.5806931257247925,0.2166999876499176,2.0825726985931396,0.4424574077129364,0.37940964102745056,-0.9701512455940247,-0.261714369058609,1.1080095767974854,0.03370976820588112,0.025833671912550926,-0.37644708156585693,0.9881179928779602,-0.7454075813293457,-0.4393937289714813,1.2409497499465942,1.1374561786651611,-2.4340646266937256,0.5723525881767273,-0.04499920457601547,0.49301981925964355,-0.30892983078956604,0.6272890567779541,-1.1134766340255737,0.3583013117313385,0.1664983630180359,-1.7627573013305664,0.5047409534454346,0.5212041139602661,0.13284949958324432,0.7689487338066101,-0.25926342606544495,-0.10927978157997131,0.10462144762277603,-0.48851898312568665,-0.07875877618789673,-3.379635810852051,-1.4685907363891602,-0.36044633388519287,-0.6090977787971497,-0.014749668538570404,0.3893018960952759,0.9118512868881226,1.4341031312942505,0.47524774074554443,-0.8570213317871094,0.8972697257995605,0.41816461086273193,0.10783545672893524,-0.025280063971877098,1.2988746166229248,0.21557317674160004,0.3173140585422516,-0.571895956993103,-0.7307348251342773,0.23084519803524017,-2.9426486492156982,0.8434954881668091,-1.4534046649932861,-1.1372994184494019,0.29802608489990234,0.3675920367240906,2.5148539543151855,0.20661942660808563,-1.376230239868164,-1.9455217123031616,1.802546501159668,-1.5550575256347656,-0.9741127490997314,-0.11514134705066681,1.223435878753662,-0.7601001262664795,1.0258679389953613,-1.158143162727356,0.26861006021499634,0.3399047255516052,-0.26242169737815857,-1.3851580619812012,1.4283944368362427,0.14593516290187836,-1.255854606628418,-0.5676046013832092,0.3483148217201233,2.3962337970733643,0.4053441286087036,0.02062167041003704,-1.4672240018844604,-0.5961928367614746,-0.7720579504966736,-0.5896768569946289,0.7825369834899902,1.3049299716949463,-0.23657727241516113,-0.6526069045066833,0.688594400882721,-0.4070693552494049,0.23004750907421112,0.3208805024623871,0.22902657091617584,0.19547335803508759,0.549383819103241,1.309929370880127,0.2494276911020279,-0.5187197923660278,1.4055789709091187,-0.6543834805488586,-1.4610579013824463,-0.7253715991973877,1.520371437072754,-1.223908543586731,-0.5017156004905701,-0.8604767322540283,-1.0909947156906128,-0.20234458148479462,0.20952916145324707,-2.3777763843536377,-0.8611530065536499,-0.5887442827224731,-1.3338054418563843,-1.1816072463989258,-0.49486225843429565,0.3939538300037384,0.4941401183605194,1.4762722253799438,-0.9840377569198608,0.29698750376701355,-0.07810928672552109,-1.0502082109451294,1.1279817819595337,0.23683926463127136,0.408182829618454,0.5631329417228699,0.41022375226020813,0.4933484196662903,-0.49663421511650085,-0.6079270839691162,1.3656307458877563,0.5128458738327026,0.7983883619308472,1.0681360960006714,-0.37259069085121155,-0.9697873592376709,-0.5046826601028442,-1.2653220891952515,-0.5313463807106018,-0.5656980872154236
movielens20m.csv,0.7456838488578796,-0.6344335079193115,1.1254100799560547,-1.1134827136993408,0.14283348619937897,0.05011686310172081,0.20380151271820068,-0.6148799061775208,0.6387091875076294,-0.6611015796661377,-1.1566210985183716,-0.0840797945857048,-1.3457262516021729,2.8420445919036865,0.5373596549034119,1.5012389421463013,-0.8119882941246033,1.5086926221847534,-1.020618200302124,-0.918956995010376,-1.2885884046554565,-0.2529788613319397,0.7892268896102905,1.236027717590332,-0.10351800173521042,1.2366983890533447,-0.15991666913032532,0.35339346528053284,-0.7622243165969849,1.3896594047546387,1.0113893747329712,-1.0176769495010376,0.16083933413028717,0.23231960833072662,0.875465452671051,0.5237230062484741,-0.47426530718803406,0.2866392135620117,0.8461126089096069,-0.34088262915611267,-0.47016072273254395,0.7160065174102783,-0.6000242233276367,1.4597655534744263,-1.4261255264282227,0.642699658870697,-0.29578396677970886,0.6508301496505737,0.6557703614234924,1.1824933290481567,0.004604743793606758,-0.036118052899837494,-0.061515454202890396,0.7308031320571899,0.5345888733863831,-0.2482767254114151,0.975385308265686,1.6541017293930054,2.772599697113037,0.325711190700531,0.20891529321670532,1.066030502319336,1.5467629432678223,-2.1905081272125244,1.003907322883606,0.4084338843822479,1.383486270904541,0.011211024597287178,-1.5329276323318481,0.3514886498451233,1.444725751876831,-1.020797848701477,0.6690002083778381,-0.71858149766922,0.09015852957963943,-0.44232499599456787,-0.45841920375823975,-1.3561053276062012,-0.3906992971897125,0.5735026597976685,-1.0447627305984497,-0.46434924006462097,0.152826189994812,-0.2615410387516022,0.1698138415813446,0.43011385202407837,1.8089888095855713,0.11607207357883453,-0.33786094188690186,1.3872491121292114,-2.150452136993408,-1.699988842010498,-0.29185768961906433,-0.4998687505722046,-0.021692590788006783,-1.3162918090820312,-0.931343138217926,1.1127270460128784,0.8358055353164673,-0.08224710822105408,0.3191814422607422,-0.31667381525039673,-0.8053349256515503,0.2234312742948532,1.1144917011260986,0.35405588150024414,-0.07885661721229553,-0.6000027656555176,-0.7752986550331116,0.005807559937238693,-1.8376117944717407,1.1297839879989624,-0.1577586680650711,-1.6392152309417725,1.4593918323516846,1.2429641485214233,1.5945709943771362,1.202189326286316,-0.7582809925079346,0.9323887825012207,1.4709895849227905,0.2462959736585617,-0.0722566768527031,-0.9358055591583252,0.6082091927528381,-0.5410623550415039,0.0657631903886795,-0.4027784764766693,-0.16090135276317596,0.8616915941238403,-1.1261426210403442,-0.8394922018051147,-0.4320386052131653,0.1713947057723999,0.20482061803340912,0.36734268069267273,-1.0216197967529297,2.213254451751709,-2.2725419998168945,0.5721483826637268,-2.18690824508667,-1.1502108573913574,-1.3394265174865723,-0.056911710649728775,1.5824828147888184,0.28223228454589844,-1.9165798425674438,-1.3328150510787964,0.6074296832084656,-0.24694707989692688,-0.25596773624420166,1.1037640571594238,0.023104511201381683,-0.5843884944915771,0.14781329035758972,-0.2465766817331314,0.668923020362854,1.551299810409546,0.7806527018547058,1.0057964324951172,0.5404741168022156,-0.7134319543838501,1.7567245960235596,0.4725058376789093,-0.34936633706092834,-0.6181046962738037,-1.903047800064087,1.4384303092956543,-0.5949614644050598,-1.4998657703399658,1.5465792417526245,-0.2027668058872223,-0.8173484206199646,-0.05772245302796364,0.20144793391227722,0.92879718542099,1.9644415378570557,-0.21162427961826324,1.0363566875457764,-0.3180646300315857,-1.1084538698196411,-0.36535918712615967,-0.512944757938385,-0.03789399191737175,-0.44673994183540344,-0.7083827257156372,0.9504191875457764,0.20590557157993317,-2.3249449729919434,-0.864352285861969,1.021850824356079,0.743479311466217,-0.5926579236984253,-1.2782765626907349,-2.34708833694458,-1.4239975214004517,-0.010093116201460361,-0.26204052567481995,-0.5935888290405273,0.2495294213294983
amazon-office.csv,0.8853261470794678,-0.7412787079811096,0.7079877853393555,0.07334348559379578,0.29291436076164246,1.5028762817382812,-0.10892363637685776,1.6452555656433105,1.1356158256530762,0.5772799849510193,-1.0378520488739014,0.4760741591453552,-0.058057744055986404,1.8525447845458984,1.5862278938293457,0.9483349323272705,-1.480026364326477,0.9441393613815308,0.007850296795368195,-0.6903156638145447,-1.5619568824768066,-1.1563611030578613,-0.0756315290927887,0.7540185451507568,-0.20305287837982178,1.147844910621643,0.6596283316612244,-1.1042290925979614,-0.5451790690422058,1.642413854598999,0.26716724038124084,-0.8024726510047913,1.6049174070358276,-0.6402531266212463,0.6626384258270264,0.2764410972595215,-0.9257018566131592,0.9348780512809753,1.4493826627731323,-0.5007770657539368,-0.8363261222839355,-0.6798558235168457,-0.07533170282840729,1.3701467514038086,-1.8111844062805176,-0.4351355731487274,2.16508150100708,1.527839183807373,1.3062227964401245,0.6914688944816589,1.576316237449646,0.1973579227924347,0.38168779015541077,0.906724750995636,0.6526200175285339,0.6419076323509216,0.9716055393218994,0.020332492887973785,1.5402815341949463,0.3202126622200012,-0.041846148669719696,0.04992547258734703,0.5151384472846985,-0.2021155059337616,0.7108888626098633,-0.4510249197483063,0.7434998750686646,-0.5302790999412537,-0.963314950466156,1.0967001914978027,1.5002473592758179,-1.938377857208252,1.3760019540786743,-0.6870459914207458,0.7118625044822693,-0.5495716333389282,0.9056575894355774,-1.0441136360168457,-0.4466521441936493,0.5083065032958984,-0.6790560483932495,0.3177344799041748,-0.12443515658378601,0.04774648696184158,0.42967110872268677,-0.5282729268074036,-0.13301078975200653,-0.35259726643562317,1.2234834432601929,0.940909206867218,-2.7730143070220947,-0.12120994925498962,-1.1694642305374146,0.28525272011756897,0.6895864009857178,-0.405368834733963,-0.27160418033599854,0.8286332488059998,0.2838844656944275,0.5633567571640015,-0.1630445122718811,-0.36185455322265625,-1.3003787994384766,1.5577311515808105,0.1111733540892601,1.0469114780426025,-0.9438888430595398,-1.3754847049713135,-0.4527997672557831,-0.7068730592727661,-3.1251392364501953,0.8897517919540405,-1.2784435749053955,-0.9748199582099915,-0.7389714121818542,0.8447811007499695,1.7533900737762451,1.287116527557373,-1.6253266334533691,-0.32045501470565796,2.022636890411377,-0.41077902913093567,-0.3495626449584961,-0.9418927431106567,0.27812010049819946,-1.7689306735992432,0.7872427105903625,-0.23928184807300568,0.4918465316295624,1.1362106800079346,-2.126614570617676,-1.5109388828277588,0.4870719015598297,0.16260145604610443,-1.4044135808944702,-0.33112263679504395,-0.5511521100997925,3.671898126602173,-0.7992047667503357,0.9519356489181519,-1.4543629884719849,-0.10230424255132675,-0.4861685633659363,0.8726491928100586,-0.47423121333122253,0.36497026681900024,-0.5631135702133179,-2.058375120162964,0.08710547536611557,-0.7105816006660461,0.006993790157139301,1.0432977676391602,0.3254408538341522,-0.7250685095787048,-0.3401634693145752,0.07258837670087814,-0.7592089772224426,-0.7245920300483704,0.824695348739624,1.1159780025482178,-0.21714559197425842,0.18337026238441467,2.3241219520568848,-0.41383880376815796,-0.4689992368221283,0.01341275405138731,-0.3192712664604187,-0.4620817303657532,-0.22287991642951965,-1.698860764503479,-0.8024470806121826,-0.3686746656894684,-0.7788957953453064,-0.8600336909294128,0.2508772313594818,0.2596685588359833,0.4824218153953552,0.831663191318512,-0.0634571835398674,0.3704700767993927,-0.4134466052055359,-0.9081010222434998,0.8457123041152954,-1.811819076538086,-0.35000503063201904,-0.49993419647216797,-0.5332164764404297,-0.8492222428321838,-1.1730334758758545,-0.9082147479057312,-0.008646339178085327,1.7964293956756592,0.21850784122943878,-0.31147927045822144,-1.2081193923950195,-1.1157264709472656,-0.36879485845565796,-0.8176296353340149,-0.5869794487953186,-0.0366053581237793
movietweetings_recsys2014.csv,0.5119264125823975,-0.13358095288276672,2.3922529220581055,-0.798183262348175,0.01263713650405407,1.2061455249786377,-0.5218752026557922,0.20178352296352386,0.1742294728755951,-0.3400772213935852,0.35628172755241394,-0.47209832072257996,-0.934485137462616,1.600651502609253,1.2606679201126099,1.034925937652588,-2.8228774070739746,0.44029778242111206,-0.40613439679145813,-0.7315078973770142,-1.6603784561157227,-0.20279866456985474,0.27180561423301697,1.0948466062545776,-0.2596554756164551,0.06642187386751175,0.5856158137321472,-1.3231512308120728,-0.3147090971469879,0.23225374519824982,-0.5098630785942078,0.05399995669722557,0.760783851146698,0.12563082575798035,2.2517361640930176,0.9639479517936707,-1.0826462507247925,1.0170526504516602,1.2150278091430664,-0.1295938938856125,-0.5314691662788391,-0.7990412712097168,-1.132444143295288,0.6998762488365173,-0.5233414173126221,-0.11585061252117157,0.5452497601509094,1.3365267515182495,0.03711199760437012,1.3749520778656006,1.2872544527053833,-1.159490704536438,0.25011780858039856,0.9904648065567017,0.37441834807395935,0.08381682634353638,-0.5660793781280518,-0.14428730309009552,1.9133126735687256,-0.11791050434112549,-0.006147508975118399,-0.876344621181488,-0.111080601811409,-0.5660144686698914,0.5529031753540039,-0.15839961171150208,0.7480788230895996,-1.7447896003723145,0.2211889773607254,0.3705752491950989,2.025367021560669,-1.6193262338638306,-0.09419838339090347,-0.9431166648864746,0.06716204434633255,-0.3124660849571228,0.7955470085144043,-1.2925877571105957,-0.576204776763916,-0.1865796148777008,-1.2600537538528442,0.15607576072216034,0.07466478645801544,-0.4025685489177704,1.2563608884811401,-0.5100294947624207,-0.3470686972141266,-0.7899966239929199,1.7380146980285645,1.2230194807052612,-2.371906042098999,-1.5295222997665405,-0.615036129951477,0.2717736065387726,0.7596064209938049,-1.7347846031188965,1.0325840711593628,0.9846829771995544,0.054518409073352814,-0.043384574353694916,0.15590612590312958,-0.8217396140098572,-0.3057084083557129,1.1060627698898315,0.9666736721992493,0.3605703115463257,0.00822815578430891,-0.6116738319396973,-0.19045355916023254,-0.381865918636322,-2.189821720123291,0.9802355766296387,-1.2315175533294678,-1.470565915107727,0.3122834861278534,0.9868353605270386,2.4196510314941406,1.0026737451553345,-1.5490291118621826,-0.27172166109085083,1.2077044248580933,-0.44120800495147705,0.4117923080921173,-0.287231981754303,0.011544209904968739,-1.0032660961151123,0.6707987785339355,-1.0661146640777588,1.1947022676467896,-0.06649058312177658,-2.8253047466278076,-0.4656370282173157,0.8085774183273315,0.07119641453027725,-0.5594804286956787,-1.2898377180099487,0.06964890658855438,2.1553499698638916,-1.8634458780288696,2.300954818725586,-1.2507367134094238,-0.8972805142402649,0.0794869065284729,0.08528530597686768,-0.2128559648990631,0.32426688075065613,-0.15214145183563232,-0.7879632115364075,-0.4065582752227783,0.16542701423168182,0.45865756273269653,1.397493839263916,0.26643797755241394,0.11945109069347382,-0.5909304618835449,0.22593750059604645,1.3438664674758911,1.2222670316696167,1.3626526594161987,0.42611783742904663,-0.3241724967956543,-0.40583112835884094,3.0445377826690674,0.20757819712162018,-0.3879024386405945,-0.013756736181676388,-1.0822062492370605,-0.15806113183498383,0.9012581706047058,-1.0845601558685303,0.6907991170883179,-2.1582109928131104,-1.0058577060699463,-0.16426514089107513,-0.2182602435350418,0.2661045789718628,-0.1597781777381897,1.5247371196746826,0.1729392111301422,0.9049999713897705,-0.17803294956684113,-0.7662696838378906,0.4431630074977875,-0.7155590653419495,-1.3450989723205566,0.9412355422973633,0.44507360458374023,1.2550023794174194,-0.021836286410689354,-0.050078265368938446,0.6431230902671814,1.7325024604797363,1.1100164651870728,1.2158942222595215,-1.5602067708969116,-0.9476595520973206,0.3246915340423584,0.023689022287726402,-1.5501861572265625,-0.5438485741615295
tripadvisor.csv,0.30970999598503113,-1.0393117666244507,-1.052954077720642,1.3498727083206177,0.09135572612285614,0.39201024174690247,0.038375139236450195,1.0446219444274902,0.02143477089703083,-0.7503284215927124,0.1113177090883255,-0.3334365487098694,-0.20546060800552368,3.113863229751587,1.7895375490188599,-0.7847068309783936,-1.9914495944976807,-0.20272444188594818,-0.08380987495183945,-0.9052317142486572,-1.3836700916290283,0.7773041129112244,-0.5084407925605774,1.4825448989868164,0.24797940254211426,0.12273769080638885,0.9214251041412354,-0.09552934020757675,-0.6650721430778503,1.2678382396697998,0.10242781788110733,-0.04856462404131889,1.434544324874878,0.46446722745895386,1.4436508417129517,0.9517931342124939,-0.08278094977140427,0.955419659614563,0.1358618587255478,-0.06322067230939865,-0.4868853688240051,-0.6720516681671143,-1.3831449747085571,0.11733140051364899,0.2882053554058075,0.7461462616920471,0.4113996624946594,1.2298029661178589,0.542203426361084,2.2378218173980713,0.5634092688560486,-1.5926519632339478,0.9456735849380493,1.7133959531784058,0.5932438969612122,-0.931053102016449,0.441913366317749,0.9022771716117859,0.6109695434570312,-0.7740470170974731,0.5184299945831299,-0.12073271721601486,-0.3874679207801819,-0.8480806946754456,0.8726370334625244,-1.434164047241211,1.798445463180542,-1.6403263807296753,0.2954099774360657,1.2170178890228271,1.2693921327590942,-1.0809036493301392,2.257465362548828,-1.1816766262054443,0.7397621870040894,0.36792734265327454,0.07510048151016235,0.2113085687160492,0.4125678241252899,0.2862327992916107,-0.7970512509346008,-0.6678726077079773,0.24219705164432526,0.32492169737815857,0.7763460874557495,-1.0633527040481567,1.3510023355484009,0.03502592071890831,0.8946009874343872,0.2271336317062378,-2.3060078620910645,-0.7135252952575684,-2.4475080966949463,1.722193717956543,-0.31624743342399597,-0.17316782474517822,1.2475775480270386,1.029695987701416,1.1208343505859375,-0.0040353150106966496,1.3736523389816284,-0.43721574544906616,-0.6856278777122498,0.24989566206932068,0.756979763507843,1.2833154201507568,0.12195584177970886,-0.8940489888191223,-0.9457255005836487,-0.7554002404212952,-1.9223757982254028,1.383989691734314,-0.833911657333374,-0.6495893597602844,1.0069036483764648,0.09747326374053955,2.6207351684570312,1.097065806388855,-1.3435890674591064,0.05495501682162285,2.551912546157837,-0.27096572518348694,0.566341757774353,-0.7926813364028931,0.035271257162094116,-0.8136340975761414,-0.583234965801239,-1.1430366039276123,0.34089305996894836,1.2602180242538452,-1.9622464179992676,-2.354255437850952,0.10387575626373291,0.08468177169561386,-0.33533719182014465,-0.8552331924438477,0.5213178992271423,0.9914558529853821,-0.9779857397079468,0.6148359179496765,-1.0008432865142822,0.3465430736541748,0.3590417504310608,-0.11049182713031769,-1.0234030485153198,-0.045426495373249054,-0.8298450112342834,-0.327717125415802,-0.13107648491859436,-0.6760138869285583,-0.09141156077384949,1.1167079210281372,0.4047662317752838,1.012887954711914,-0.30429479479789734,-0.45796579122543335,-0.7507817149162292,0.02490651048719883,1.26048743724823,1.2198231220245361,-1.1983001232147217,-0.2689301371574402,1.6740469932556152,-0.4369630515575409,-0.30822357535362244,-0.5462151169776917,-0.8095618486404419,0.6523382663726807,0.16932883858680725,-0.8993253111839294,-0.9601965546607971,-0.7654932141304016,-1.0140348672866821,-1.7899580001831055,0.5045828223228455,0.7055269479751587,0.9757308959960938,1.4456558227539062,0.31289342045783997,0.6667205095291138,1.0196306705474854,-0.058030009269714355,-0.5541849136352539,-1.5976133346557617,-1.0342576503753662,0.8243561387062073,0.9994580149650574,0.6401830911636353,-0.6150305867195129,0.8541411757469177,0.9847937226295471,1.3132519721984863,-0.9475240707397461,0.7195236682891846,-1.7831958532333374,-1.7827774286270142,-0.1744784563779831,-0.4677218794822693,-0.4597059190273285,0.0378020741045475
amazon-apps.csv,-0.039612673223018646,-1.0237796306610107,0.8991734981536865,0.46200045943260193,-0.5204810500144958,1.282086730003357,0.5585201382637024,0.8578653931617737,1.505889892578125,-0.5422725677490234,-0.40611812472343445,-0.4204534590244293,-0.02214929461479187,1.2122594118118286,1.0131089687347412,1.3869166374206543,-1.1467671394348145,1.1818091869354248,-0.26298680901527405,-0.4280180335044861,-2.2934818267822266,-0.9280057549476624,-1.1298950910568237,-0.13534051179885864,0.19577473402023315,1.770883560180664,0.22891190648078918,-1.0663201808929443,-0.38658562302589417,1.062840223312378,-0.6304866075515747,0.9250966310501099,1.5480401515960693,-0.716316282749176,1.1855683326721191,-0.3699968755245209,-0.6859889030456543,1.8104183673858643,1.308681607246399,-1.0389189720153809,0.2656831443309784,0.22737373411655426,-1.022445797920227,0.2629455626010895,-1.0891826152801514,1.150525450706482,0.7709991335868835,0.8677118420600891,-0.4645041227340698,2.2577993869781494,0.17608816921710968,0.28543418645858765,1.3025859594345093,1.220095157623291,0.5278880000114441,0.48480719327926636,-0.19165900349617004,0.46032583713531494,0.33787307143211365,0.9842529892921448,-0.10480977594852448,-0.1057368591427803,1.3708158731460571,-0.6509447693824768,0.8698218464851379,-1.6832195520401,1.5676308870315552,-1.3364859819412231,-0.7109217643737793,0.11350005865097046,2.0348095893859863,-2.2063355445861816,0.24230843782424927,-0.18268944323062897,1.1499096155166626,0.1624605655670166,0.5761959552764893,0.333584725856781,-1.2073479890823364,0.10225086659193039,-1.9945850372314453,0.2752912938594818,0.006391994655132294,-0.0766562968492508,1.6460164785385132,0.12254397571086884,-0.5811168551445007,-0.20176269114017487,1.31150484085083,0.9390844702720642,-2.515523672103882,-1.2212308645248413,-1.8774688243865967,-0.7404870986938477,-0.8783086538314819,-0.6131721138954163,0.028947237879037857,0.804998517036438,0.2617741525173187,0.3084203898906708,1.1332131624221802,0.6271417737007141,-0.3808683454990387,0.3806654214859009,0.16474661231040955,1.0431007146835327,-1.219890832901001,-0.7319793701171875,-0.407990962266922,-0.3498989939689636,-2.095353603363037,1.5444425344467163,-2.45405912399292,-0.370131254196167,1.1297613382339478,0.5728272199630737,2.196784496307373,0.999890148639679,-2.4602060317993164,-0.677009642124176,1.7788931131362915,0.4106971025466919,-1.2322145700454712,-0.19550730288028717,0.31939786672592163,-0.16446244716644287,-0.752525806427002,-0.5761172771453857,0.13360197842121124,-0.8789908289909363,-1.3168623447418213,-1.172728180885315,1.0161303281784058,-0.283704549074173,-0.25367385149002075,-0.30552029609680176,-0.3238673210144043,2.868805408477783,-0.8560824394226074,0.6150071620941162,-0.6031450629234314,-0.07242374867200851,-0.28131288290023804,1.130768060684204,-0.3467608094215393,0.6657847166061401,-1.938015103340149,-0.7869277596473694,0.6892498731613159,-0.3105611503124237,0.4630986452102661,1.1396465301513672,0.9150204062461853,0.8171751499176025,-0.14537465572357178,0.12311118841171265,-1.1391570568084717,-0.7889357805252075,0.8135114908218384,0.9320133328437805,-0.4266124963760376,-0.6434659957885742,1.9735468626022339,-0.17015360295772552,-0.3665899932384491,0.09882401674985886,-0.29982858896255493,-0.5077772736549377,0.7323611974716187,-1.7025234699249268,-0.2333487868309021,-0.2519133388996124,-0.8555194735527039,-1.377691388130188,0.2502612769603729,0.6900665760040283,1.2752470970153809,0.661558210849762,0.12911288440227509,0.36572790145874023,0.39440128207206726,-0.8071547746658325,0.8845250010490417,-1.2876203060150146,-0.5439687371253967,0.3145698010921478,0.5381077527999878,0.2625804543495178,-0.8440427780151367,-0.5764639377593994,0.8019892573356628,1.763649821281433,0.8622857928276062,0.5229302644729614,-2.0022451877593994,-0.5403006076812744,0.9465401768684387,-0.9505170583724976,-0.836646318435669,-0.2380894124507904
yahoo-music.csv,1.1589514017105103,0.6129803657531738,2.305835247039795,-0.40354296565055847,-0.0487673319876194,2.09002947807312,-0.37823057174682617,0.8929489850997925,0.3546198308467865,0.055008962750434875,1.2647448778152466,0.9279165863990784,-0.4232487976551056,1.2963234186172485,0.6150732636451721,1.895485758781433,-0.7800905704498291,0.70869380235672,-0.2712416648864746,-0.5234581828117371,-0.37950271368026733,-0.10738395154476166,-0.282464861869812,1.7052619457244873,-1.7460076808929443,0.6213622093200684,0.6117533445358276,0.0696108415722847,-1.3541901111602783,0.3953228294849396,-0.8646929264068604,-0.2871803939342499,1.5000861883163452,-2.1670360565185547,1.2903584241867065,1.2548565864562988,-1.115405559539795,1.0012619495391846,0.35255730152130127,-0.7637014389038086,-1.2042903900146484,-0.17604868113994598,-0.8571742177009583,0.21887332201004028,-1.7694183588027954,-0.9284776449203491,-0.5707999467849731,1.5933055877685547,1.4913569688796997,1.1250609159469604,-0.014503582380712032,-0.2218526154756546,0.37081220746040344,0.6075728535652161,0.35456225275993347,0.1855831891298294,-0.16745467483997345,-0.7844853401184082,0.8836917281150818,-0.14905734360218048,0.9511993527412415,0.4122053384780884,0.21952778100967407,-1.3476871252059937,1.5759745836257935,-0.6085520386695862,1.6658916473388672,0.23899053037166595,0.2554553151130676,0.08405936509370804,0.9963518977165222,-0.7681630849838257,0.31317928433418274,0.12317077070474625,0.8483905792236328,0.06698437035083771,1.2748477458953857,-0.7177229523658752,-0.828478217124939,-0.15829747915267944,-0.6409172415733337,-0.2729056477546692,0.014250233769416809,0.8546335101127625,1.5761971473693848,0.7081839442253113,0.6027953028678894,0.9488523602485657,0.20918047428131104,-0.4459577202796936,-2.8175454139709473,-0.20326954126358032,-0.6327185034751892,0.8173967003822327,-0.00263263494707644,-1.784030795097351,1.2294358015060425,1.6383483409881592,0.5940004587173462,0.21508587896823883,0.27970412373542786,1.1272553205490112,-1.344880223274231,0.41420459747314453,-0.3631353974342346,1.7009222507476807,-0.5589960217475891,-1.455734133720398,0.34698864817619324,-0.8918132781982422,-2.155085802078247,-0.5441733598709106,-0.34757083654403687,-1.1513997316360474,0.13789431750774384,0.5043442845344543,1.464902400970459,1.099708914756775,-1.7706414461135864,-1.1566674709320068,2.7887277603149414,-0.46409857273101807,-0.46290233731269836,-0.26298588514328003,-0.05115491896867752,-1.2480895519256592,0.7589215636253357,-1.3506274223327637,1.4731066226959229,-0.9941710829734802,-1.7610121965408325,-1.8785231113433838,-0.3496168553829193,0.49789100885391235,-0.512527346611023,0.6180776953697205,-0.9260542988777161,1.7759137153625488,-1.0182747840881348,1.0366637706756592,-0.614881157875061,-0.052603282034397125,1.278274416923523,1.2849576473236084,1.4729911088943481,0.5083425045013428,-1.1959000825881958,0.8969818949699402,0.8327441811561584,-0.4496873617172241,-0.110453762114048,2.243941307067871,0.9189677238464355,0.3544195890426636,1.306097149848938,-0.19310124218463898,1.414124608039856,-0.19351913034915924,1.1882518529891968,1.3894929885864258,0.036444101482629776,-0.43191996216773987,1.8580836057662964,-0.5038151144981384,0.2583288550376892,-1.0334548950195312,0.03757114335894585,-0.5132066607475281,1.0056995153427124,-1.7714710235595703,-0.37536025047302246,-0.5304839015007019,-1.0824555158615112,-0.7980883121490479,0.5602603554725647,-0.5234653949737549,1.619224190711975,1.2807128429412842,-0.6895028948783875,0.888878345489502,-0.08685524761676788,-0.7098540663719177,0.31223687529563904,-0.2418697327375412,0.6068084239959717,0.4752291738986969,0.4970870912075043,0.14778085052967072,-0.5794767737388611,-0.8358882069587708,0.19887606799602509,0.9048612713813782,0.7492143511772156,-0.3353768587112427,-1.1561838388442993,-0.4562242329120636,-0.5578117966651917,-0.33546575903892517,-1.8089847564697266,-0.7553054690361023
amazon-garden.csv,1.0730773210525513,-1.2157340049743652,1.3838163614273071,-0.29462864995002747,0.6093812584877014,0.3416687548160553,-0.15686720609664917,0.6767237186431885,2.0799412727355957,0.19959884881973267,-0.01604357175529003,0.5205771923065186,-1.1637799739837646,0.6952332258224487,1.5947749614715576,0.23822329938411713,0.23510463535785675,1.448946237564087,-0.6662421226501465,-0.5457826256752014,-0.8257455229759216,-0.03627096489071846,-0.5151723623275757,0.772830069065094,0.5918116569519043,1.32440185546875,0.036863505840301514,-0.8564258217811584,-1.1183780431747437,0.4536532163619995,-0.9981642365455627,0.5553803443908691,1.465045690536499,-0.29199638962745667,-0.0949043482542038,0.9895420670509338,-0.3244871199131012,2.4145689010620117,0.8294103741645813,-0.8038402795791626,0.11716412752866745,-0.6801296472549438,-0.3622990548610687,0.46327561140060425,-0.5887823700904846,0.6518635153770447,0.4801139235496521,1.1434719562530518,1.3531769514083862,1.4315320253372192,2.10371732711792,-0.015747589990496635,1.7943320274353027,0.1307605355978012,0.09289054572582245,0.5924187302589417,1.255678415298462,-1.5771540403366089,0.5267703533172607,1.0461559295654297,0.2132727950811386,-0.20167891681194305,0.01371071022003889,-2.043652296066284,1.3881901502609253,-0.2933746576309204,2.5985267162323,-1.0202610492706299,0.377750426530838,0.2340819388628006,1.745513677597046,-1.340689778327942,-0.3447706401348114,-0.6107704639434814,0.5985826253890991,-0.7322342395782471,1.0022655725479126,-0.4280848503112793,0.559362530708313,-0.3436112701892853,-1.7410869598388672,0.2546493709087372,0.18665719032287598,0.4203660488128662,0.40790021419525146,-0.023527922108769417,1.3720288276672363,-0.25738057494163513,1.1882739067077637,1.010710597038269,-2.5481624603271484,-0.7309300303459167,-1.830545425415039,0.0512060709297657,-0.2237013578414917,-2.1167564392089844,0.03757036477327347,1.1857255697250366,0.8331921696662903,0.526769757270813,-0.1862427443265915,0.24581000208854675,-1.0605517625808716,0.2697122395038605,1.1829153299331665,0.9920179843902588,-0.7648013234138489,-1.6427277326583862,-0.9482797980308533,-0.5678748488426208,-1.8454208374023438,2.2883052825927734,-1.6426533460617065,-1.1433511972427368,0.7903587818145752,0.5914633274078369,1.4713608026504517,0.5422119498252869,-2.269310712814331,0.03839853033423424,1.5638209581375122,-1.4840415716171265,-1.2688547372817993,-0.47778457403182983,0.18234118819236755,-0.05899651721119881,0.05256723240017891,0.22316738963127136,0.3843032121658325,-0.5045000910758972,-1.0540608167648315,-0.811640202999115,0.8871626257896423,0.19253964722156525,-0.7685345411300659,-0.30537253618240356,0.137449711561203,3.096298933029175,-1.0671252012252808,1.598752498626709,0.5354546904563904,-0.11721470952033997,-0.24147765338420868,0.1713261604309082,0.211723193526268,-0.7930203080177307,-1.088546633720398,-0.3890104591846466,0.5097866654396057,-0.34972864389419556,0.3991405665874481,0.4202687442302704,0.3742419481277466,0.6513754725456238,-1.2557270526885986,-0.18709856271743774,-0.29968971014022827,2.0563466548919678,0.9094451665878296,0.6815198659896851,-0.43543362617492676,-0.7309457063674927,2.7311387062072754,-0.18196913599967957,0.178249791264534,0.22073253989219666,-0.8147802352905273,-0.6342069506645203,-0.10127507150173187,-2.570413112640381,-0.08487172424793243,-1.162886619567871,-0.5744169354438782,-1.2029496431350708,0.776780903339386,0.21855610609054565,0.20922502875328064,0.49846214056015015,-0.023231755942106247,-0.312044233083725,0.13547492027282715,-0.447182297706604,0.43739497661590576,-0.9246244430541992,-1.6534957885742188,0.10014722496271133,-0.38990703225135803,1.0469063520431519,-0.22369065880775452,0.15209873020648956,-0.036370906978845596,0.498872309923172,1.0347884893417358,-0.4351434111595154,-1.4012234210968018,0.050996698439121246,1.0688097476959229,-1.1928074359893799,-1.0198158025741577,-0.7845805883407593
bookcrossing.csv,1.1991406679153442,-0.594396710395813,1.7167586088180542,-1.015662670135498,0.18790137767791748,1.441339135169983,-1.7563120126724243,0.9298973083496094,2.2977805137634277,-1.189738392829895,-0.5012372732162476,-0.4387218654155731,0.009022670798003674,0.9945707321166992,0.3889788091182709,1.1549842357635498,-1.1769615411758423,1.1612579822540283,-0.46453940868377686,-0.9755632877349854,-2.371443748474121,-0.7546409368515015,-0.042103301733732224,1.3713409900665283,-1.0007566213607788,1.2745871543884277,-0.42764776945114136,-0.5820903182029724,-1.504745364189148,0.43352729082107544,-0.004462740384042263,-0.02549746260046959,2.137063980102539,-0.11824951320886612,-0.7473921775817871,0.43169403076171875,-0.8901777267456055,1.3044167757034302,0.28525009751319885,0.01905607059597969,-1.7140167951583862,0.8907802700996399,-0.5205932259559631,0.9473313093185425,-0.5081283450126648,-0.42088550329208374,0.6744717955589294,0.16692717373371124,-0.22355976700782776,1.2495810985565186,0.5248510241508484,0.19808802008628845,0.9998559355735779,0.5072392821311951,0.08002117276191711,0.2153809517621994,1.0808168649673462,0.8111519813537598,0.7077662944793701,-1.8009974956512451,-0.2892608642578125,-0.629682719707489,-1.044221043586731,-0.2530638873577118,0.27126172184944153,-0.7323501706123352,1.4384394884109497,-1.3893396854400635,-1.0121270418167114,1.6633402109146118,2.1874911785125732,-1.3616993427276611,0.5177878737449646,-0.5986473560333252,0.8480358123779297,-0.37606823444366455,1.3765710592269897,-0.5403040647506714,-0.7646529674530029,-0.837077796459198,-0.9046639204025269,0.19413642585277557,0.5174591541290283,-0.32066279649734497,2.197871685028076,-0.25458604097366333,0.7111209034919739,-0.36170583963394165,1.3387765884399414,2.0150654315948486,-2.131995677947998,-1.0357873439788818,-0.3315068483352661,-0.6274901628494263,-1.1173571348190308,-0.4265807271003723,-0.12293684482574463,1.525015115737915,0.7981634140014648,0.22963207960128784,1.1690658330917358,-0.535775363445282,-1.5691440105438232,1.4899309873580933,0.35235610604286194,2.0420868396759033,0.7365959286689758,-0.8957322835922241,-1.1648399829864502,-0.9194841980934143,-1.3930596113204956,2.4914896488189697,-1.0939621925354004,0.5790306329727173,0.3385332524776459,0.16485553979873657,1.7533520460128784,0.29852229356765747,-2.364867925643921,-0.5219132304191589,1.6739248037338257,-0.01784657873213291,-0.02403290942311287,-0.3332391083240509,0.1277576982975006,-1.29697847366333,0.8861839771270752,-0.5372021198272705,0.39329081773757935,-0.1972687542438507,-0.24805118143558502,-1.6985641717910767,0.19223937392234802,0.03863150626420975,-0.5210685729980469,-1.4930349588394165,0.9619020819664001,1.8489075899124146,-0.513659656047821,1.5775552988052368,-1.3333184719085693,0.5522931814193726,-0.831944465637207,0.9525903463363647,-0.4730054438114166,0.1760767698287964,-0.7140292525291443,-0.42286428809165955,0.6436996459960938,-1.0225309133529663,0.07214614748954773,1.069119930267334,0.10693027824163437,1.1872076988220215,1.1134557723999023,0.08252236992120743,-0.5246545672416687,0.09896198660135269,0.9282723069190979,1.0380303859710693,0.26627761125564575,-0.665001630783081,1.3475666046142578,-1.1319692134857178,-0.09189984947443008,0.9149294495582581,-0.663262665271759,-0.23222044110298157,-0.5790627598762512,-1.8298732042312622,-0.33634474873542786,-0.009210243821144104,-1.350577473640442,-0.03900841623544693,1.096130609512329,0.27626726031303406,0.8513198494911194,1.590514898300171,-0.18556900322437286,0.18186970055103302,0.5754923224449158,0.5788708925247192,-0.7291375398635864,-1.0815482139587402,-0.5662708282470703,0.7999707460403442,0.0326697863638401,-0.6356949210166931,-0.47948744893074036,-0.35744708776474,0.47529271245002747,1.0956887006759644,0.49755364656448364,-0.35734087228775024,-1.4392454624176025,-1.9295530319213867,0.14628122746944427,-0.2659648656845093,-0.1727232187986374,-1.7394601106643677
amazon-sports.csv,0.3024260401725769,-1.2940462827682495,0.6551105976104736,-0.10671459883451462,-0.12244828045368195,1.512007474899292,-0.7886924743652344,1.0947227478027344,0.9831668734550476,0.013480772264301777,-0.21320681273937225,-0.3555286228656769,-0.6321215629577637,1.689589500427246,0.7280144095420837,1.1862702369689941,-1.522391438484192,0.7955363988876343,-1.0126752853393555,0.10354548692703247,-1.9372748136520386,-0.6987533569335938,-0.6381231546401978,0.8407438397407532,-0.01715482585132122,0.8696914315223694,0.6055518984794617,-1.1419686079025269,-0.42080143094062805,1.208906650543213,0.04052358865737915,0.26741281151771545,2.1047475337982178,-0.29975035786628723,1.476808786392212,1.0956720113754272,-0.7465386986732483,2.0585038661956787,0.7424973845481873,-0.886100709438324,-0.39137399196624756,0.22283406555652618,-1.3725693225860596,0.19463026523590088,-0.715787947177887,0.3396129906177521,0.04448428004980087,1.4010263681411743,-0.07767903059720993,1.4463136196136475,0.6343738436698914,-0.8316742181777954,2.102030038833618,1.0076935291290283,0.42646217346191406,0.3759307265281677,0.49257755279541016,0.13714902102947235,1.1533095836639404,0.21522386372089386,0.21653565764427185,-0.8897755146026611,1.0300405025482178,-1.0027157068252563,0.8406217694282532,-0.3736705482006073,1.7214480638504028,-1.5312310457229614,-0.4566611349582672,1.6197885274887085,1.0734052658081055,-2.4334001541137695,1.3022626638412476,0.12448524683713913,0.9468292593955994,-0.9768756031990051,0.9458808302879333,-1.0522834062576294,-0.1595284640789032,-0.04227776452898979,-2.3635387420654297,-0.1309216469526291,0.8348105549812317,0.8248980045318604,0.4498871862888336,-0.2628932595252991,0.7774004340171814,-0.947806715965271,1.0451561212539673,0.40565598011016846,-3.3039753437042236,-0.07719024270772934,-1.4859100580215454,-0.24201829731464386,-0.5947141051292419,-0.7814604043960571,1.1866413354873657,1.6742674112319946,1.6171778440475464,-0.2819069027900696,1.009648084640503,-0.08905643969774246,-0.2168743908405304,1.1862707138061523,0.7117368578910828,1.0377932786941528,0.18514694273471832,-0.7827678322792053,-1.0246819257736206,-0.2375633418560028,-2.4830780029296875,1.139962911605835,-1.6607059240341187,-1.2026394605636597,0.8355160355567932,1.0240695476531982,2.01116943359375,0.8856427073478699,-1.796164870262146,-0.14496175944805145,2.1802804470062256,-0.5315473675727844,-1.1127430200576782,-0.7505767345428467,0.7443642020225525,-0.6115880012512207,-0.793088972568512,-0.6200106143951416,0.6405054926872253,-0.24074462056159973,-2.0703399181365967,-1.3739378452301025,0.6924960613250732,0.4173268973827362,-0.18404312431812286,-0.44815051555633545,-0.04512189328670502,2.879572868347168,-0.9688059091567993,0.592191219329834,-1.3290584087371826,-0.22943009436130524,0.1725144237279892,0.45677483081817627,-0.3995250463485718,0.3821370005607605,-0.8891228437423706,-0.7964606881141663,0.19911055266857147,-0.7707911729812622,-0.1795738935470581,0.9236268401145935,0.3496161997318268,0.34822964668273926,0.167954221367836,0.8862687945365906,0.014468690380454063,-0.46780189871788025,0.48106062412261963,0.4938150644302368,-0.7187061309814453,-0.6890256404876709,2.2521307468414307,-0.5059671401977539,-0.6570791602134705,0.09589006006717682,-0.2505813539028168,-0.5431203246116638,1.032025694847107,-1.1298670768737793,-0.11453410238027573,-1.4657856225967407,-0.8235762119293213,-0.6201277375221252,-0.35366931557655334,0.41157615184783936,0.5257993936538696,1.5662115812301636,0.18625473976135254,0.4866650700569153,0.021504784002900124,-1.0430611371994019,0.6694660782814026,-0.5175376534461975,-0.5719519257545471,0.0705031231045723,0.7974982857704163,0.7165412306785583,-0.6378768086433411,-0.18137088418006897,0.2666289806365967,0.7548812627792358,0.4410798251628876,1.3659001588821411,-1.5861164331436157,-1.6671831607818604,-0.005700422916561365,-0.8148238658905029,-0.45454972982406616,0.2458483874797821
amazon-tools.csv,0.18917614221572876,-1.0303623676300049,1.39944589138031,-0.08506538718938828,1.0085816383361816,1.2697299718856812,-0.5239647030830383,1.2868071794509888,0.48316726088523865,-0.5404936671257019,0.20150762796401978,0.6190146803855896,-0.741447389125824,2.198903799057007,0.9260613918304443,1.3659580945968628,-1.2249623537063599,-0.07685013860464096,0.3477449417114258,-1.4553993940353394,-1.0717267990112305,0.2131471186876297,-0.7932224273681641,-0.2588097155094147,1.3706614971160889,1.9294320344924927,1.0215634107589722,-0.22061657905578613,-1.4060909748077393,1.035901665687561,-1.7394713163375854,0.2232770174741745,1.4096245765686035,-0.6288581490516663,-0.155052050948143,0.8898694515228271,0.020096875727176666,1.235420823097229,0.6629675030708313,-1.1551551818847656,-0.41328322887420654,-0.9542235136032104,-0.8082371950149536,1.4153404235839844,-0.11523841321468353,-1.1670068502426147,1.2775994539260864,2.077383041381836,-0.3346005976200104,2.0110974311828613,1.1000431776046753,-0.3023412227630615,0.25142496824264526,0.6702614426612854,-1.035233736038208,0.9525481462478638,0.7552265524864197,-0.7818267941474915,1.7063416242599487,-0.335851788520813,0.18079805374145508,-0.8506799936294556,-0.6263010501861572,-0.792259931564331,0.3956606686115265,0.1152210682630539,1.3002769947052002,0.6921646595001221,0.14190001785755157,0.7640016078948975,2.7979228496551514,-1.6982494592666626,-0.1825399547815323,0.44168686866760254,1.0905516147613525,-1.0316730737686157,1.9768272638320923,-0.45785054564476013,-0.3216334581375122,-0.10432670265436172,-0.943215548992157,-1.37641441822052,1.4782602787017822,1.8492004871368408,0.9799767136573792,0.4385563135147095,0.3932192027568817,0.6762113571166992,0.6987629532814026,1.3649818897247314,-2.191845417022705,-1.3470510244369507,-1.4106552600860596,1.4083548784255981,-0.48028698563575745,0.8933570981025696,0.07921383529901505,0.9990630149841309,0.15956559777259827,-0.528444766998291,-0.4175741374492645,0.3751544654369354,-0.9299631714820862,1.6182537078857422,1.8494478464126587,1.5852489471435547,-0.7334704995155334,-0.50377357006073,-0.038235969841480255,-0.4120417833328247,-1.4612798690795898,1.0345581769943237,-0.913641631603241,-0.8805213570594788,-0.3662368655204773,0.29421406984329224,1.3282899856567383,-0.3540383577346802,-1.5013246536254883,-0.6571041345596313,1.4878337383270264,-0.5969607830047607,-0.3191671073436737,0.036354150623083115,-0.3087143301963806,-1.0934925079345703,0.46107062697410583,0.30908024311065674,0.11051081120967865,0.8086656928062439,-1.1077120304107666,-0.6281221508979797,-0.829142153263092,0.4967828094959259,-0.38772720098495483,-0.469852477312088,0.32443246245384216,2.681178331375122,-1.3476195335388184,1.4247064590454102,-0.12494264543056488,-0.8788426518440247,0.5409277677536011,0.9196369647979736,0.489854633808136,0.5936614871025085,-0.5994543433189392,-1.2524492740631104,0.5376649498939514,0.36880961060523987,-0.23947736620903015,1.0557743310928345,-0.18906696140766144,-0.643546998500824,-0.5989128351211548,0.8699750900268555,-0.41255703568458557,0.9886689186096191,1.1076328754425049,1.305175542831421,0.010646584443747997,0.30440205335617065,3.389322519302368,-1.1818532943725586,-0.4755513072013855,0.6453477144241333,-0.353423148393631,0.04108823463320732,0.4584139287471771,-0.125449076294899,0.8197202086448669,0.036496639251708984,-1.270298957824707,-0.646366536617279,0.391567587852478,1.286828637123108,-0.4316859543323517,0.8751358985900879,-0.45845869183540344,0.40268343687057495,-0.2626165449619293,-0.17666871845722198,-0.21127614378929138,-1.4493992328643799,-1.5854943990707397,1.0326863527297974,1.4231877326965332,-0.5291182398796082,-0.7368659973144531,-0.5913189649581909,-0.9488312005996704,1.2380340099334717,0.11745937913656235,0.21855208277702332,-0.5958683490753174,-1.1760345697402954,0.05275315046310425,-1.7469874620437622,0.6677308678627014,-0.01958225481212139
movielens10m.csv,-0.028823085129261017,-0.6858303546905518,2.1837501525878906,-0.8076867461204529,1.4169366359710693,1.0534694194793701,-0.7582725286483765,0.37356290221214294,0.08406636118888855,-0.8516411185264587,0.5624845623970032,0.8857980966567993,-0.7122713327407837,1.5175563097000122,0.20391300320625305,0.8342462778091431,-0.5001078248023987,1.0971978902816772,-1.2792303562164307,-0.8093507289886475,-1.4677283763885498,-0.9823459386825562,-0.7907068133354187,0.5161751508712769,-1.6592934131622314,-0.0712990090250969,0.053284041583538055,-1.2346775531768799,-0.5061677098274231,0.9887775778770447,-1.1229000091552734,-0.9540064334869385,0.6702173948287964,-0.2838026285171509,0.7725014686584473,1.4121845960617065,-1.1256033182144165,0.7628943920135498,0.82811039686203,-1.3502593040466309,-0.291994571685791,0.6449594497680664,-2.3208017349243164,-0.037436213344335556,0.2781250774860382,-0.6586515307426453,0.3599204421043396,0.10824660211801529,1.0117613077163696,1.1698719263076782,1.0154768228530884,-0.9190177321434021,0.6905646920204163,1.1428190469741821,0.539580225944519,-0.3532925248146057,0.7598881721496582,-0.7148781418800354,1.6454156637191772,1.1196410655975342,0.11331436783075333,-1.5480717420578003,0.8197789192199707,-0.22349703311920166,1.0767287015914917,0.9358601570129395,2.251958131790161,-0.31277456879615784,-1.2681406736373901,-0.07282204180955887,1.4841735363006592,-0.37312212586402893,-0.5995298027992249,0.7322874665260315,0.9706418514251709,-0.8545588850975037,1.4619404077529907,-0.379809707403183,0.06408722698688507,-0.2673194706439972,-0.7382908463478088,-0.7309043407440186,0.6032877564430237,-0.3851530849933624,1.704188585281372,0.07953055202960968,0.2591060698032379,-0.2913270890712738,0.9392849802970886,0.24098926782608032,-2.755441188812256,-0.9223530292510986,-0.011916013434529305,0.34450453519821167,1.2262810468673706,-0.5167209506034851,0.6083516478538513,1.8450148105621338,0.7165293097496033,-0.23407603800296783,0.9841837286949158,0.6831640005111694,-0.7643077969551086,0.48343518376350403,2.2663235664367676,-0.28027966618537903,0.23431430757045746,-2.1105804443359375,-0.23073320090770721,-1.1255301237106323,-2.066073179244995,1.2575371265411377,-0.7319117784500122,-0.71724534034729,1.5461093187332153,1.2215553522109985,0.9403870105743408,0.537301242351532,-2.0451366901397705,0.0930284634232521,1.708879828453064,0.7592155337333679,0.5529656410217285,-0.17891909182071686,1.4779387712478638,-0.2598761320114136,-0.9058906435966492,1.697954773902893,-0.5251539349555969,0.38671284914016724,-1.757327914237976,-1.5728706121444702,0.6931142210960388,-0.7377203702926636,-0.8453488349914551,-0.9619694948196411,0.8441649675369263,0.7965655326843262,-1.6744916439056396,1.7924046516418457,-1.8508079051971436,0.12361488491296768,-1.204222559928894,2.461346387863159,0.019475607201457024,0.4158106744289398,-1.080028772354126,-0.16458725929260254,1.0250468254089355,-0.3563038408756256,0.22222216427326202,1.6408958435058594,0.18624897301197052,-1.0951451063156128,-0.4766385555267334,0.17379721999168396,-0.8085361123085022,0.20070721209049225,0.7057609558105469,0.8762929439544678,0.07655312865972519,-0.9682114720344543,0.33781877160072327,-1.4807591438293457,-0.12297658622264862,-0.2312268167734146,-0.3824096620082855,-0.21283479034900665,0.8492051362991333,-1.7391258478164673,1.1223911046981812,-0.5490368604660034,0.4180357754230499,-1.0420887470245361,1.4227447509765625,-0.03465011343359947,0.7847392559051514,1.1315163373947144,1.1230347156524658,-0.4414263665676117,-0.3968420922756195,-0.6181558966636658,-0.12831845879554749,-0.5001492500305176,0.9581143260002136,-0.2153841257095337,0.13560262322425842,0.4656897187232971,-0.439993292093277,-2.1088480949401855,-0.24699217081069946,1.6888108253479004,0.6289846301078796,-0.5292648077011108,-0.8930344581604004,-0.8791966438293457,-0.5813093781471252,-0.07977819442749023,-0.7039943337440491,-1.1775009632110596
amazon-clothes.csv,0.7178844213485718,-1.1273976564407349,1.8686293363571167,-0.5993162393569946,0.9434394240379333,1.490975022315979,-0.2101096212863922,0.7832432389259338,2.2250640392303467,-1.2643482685089111,-0.7961637377738953,-0.8034711480140686,0.4832639992237091,1.902225375175476,0.10362761467695236,0.7787191271781921,-1.1613401174545288,1.5358779430389404,-0.24494220316410065,-0.768724799156189,-1.906651258468628,-0.6404877305030823,-0.5923656225204468,0.3301774859428406,-0.4395017921924591,0.7944446206092834,-0.5237480998039246,-1.4565584659576416,-0.7391325235366821,-0.5790822505950928,-1.1992895603179932,0.5600652694702148,0.7441393136978149,0.4247537851333618,0.12487150728702545,1.468346357345581,-1.1978974342346191,1.8315808773040771,0.904498815536499,-1.4097068309783936,-0.3340495526790619,-0.3811080753803253,-2.3800344467163086,1.0853673219680786,-0.839440107345581,0.2379629760980606,0.6836353540420532,0.5848761796951294,-0.3233563303947449,1.3197311162948608,0.7441592812538147,-0.6116840243339539,0.5783480405807495,-0.37734299898147583,-0.4968344569206238,0.15018467605113983,0.3750072419643402,-0.23942336440086365,1.1224910020828247,0.7861231565475464,-0.002655753633007407,-1.0329512357711792,0.6450479626655579,-0.6344868540763855,0.4110301434993744,-0.1719128042459488,1.4860042333602905,-0.37080708146095276,-0.20595720410346985,1.3418939113616943,1.2355080842971802,-1.6427667140960693,0.7300437092781067,-0.6790848970413208,0.37979650497436523,-0.3759870231151581,0.7413046360015869,-1.2502833604812622,0.25502267479896545,-0.08479049801826477,-2.5593013763427734,-0.40459007024765015,0.5881580710411072,0.8514000773429871,0.3970267176628113,0.43508490920066833,0.3565255403518677,0.8059641122817993,0.5165733695030212,1.2617729902267456,-2.94525146484375,-0.5230174660682678,-0.46684226393699646,-0.36345773935317993,-0.051552046090364456,-0.48521068692207336,0.20417341589927673,0.7443800568580627,-0.2802044451236725,-0.750473141670227,0.3965117633342743,-0.48794978857040405,-1.5384835004806519,0.8150485754013062,0.33386921882629395,1.318180799484253,0.23917891085147858,-0.6492038369178772,0.008475784212350845,-0.8940925598144531,-2.6460697650909424,1.7423466444015503,-1.4319065809249878,-1.3176641464233398,-0.24136871099472046,-0.531964898109436,2.537301778793335,0.44725674390792847,-1.861321210861206,-0.16080895066261292,1.699765920639038,-0.8370877504348755,-0.3482523560523987,-0.041430771350860596,0.09157038480043411,-1.0153968334197998,1.1364237070083618,-1.1073102951049805,-1.0380802154541016,-0.45311248302459717,-0.7030889391899109,-0.9636750817298889,1.005487322807312,0.7873142957687378,-1.1901129484176636,-1.0504189729690552,0.1479007750749588,2.267448902130127,-0.8955955505371094,1.2637659311294556,-0.5629590749740601,0.08943021297454834,-0.3046737313270569,0.7495012879371643,0.8425686955451965,0.5344314575195312,-1.280882716178894,-0.9331796169281006,0.3234472870826721,-0.46783527731895447,0.298482209444046,0.1335829198360443,-0.6037406325340271,1.329653024673462,-0.604865550994873,0.9675329327583313,-0.7337926030158997,0.7835400104522705,0.3216342329978943,0.9964386224746704,-0.8813221454620361,0.1556948721408844,3.0724408626556396,-0.46391600370407104,-0.632347583770752,0.17121146619319916,-0.4241967797279358,0.03265603259205818,-0.4053216278553009,-2.0171399116516113,0.008887524716556072,-1.6319990158081055,-0.870036780834198,-0.8059957027435303,0.7432788610458374,0.24901996552944183,0.8753833174705505,0.1950422078371048,-0.05487879365682602,0.8636357188224792,0.7301270961761475,-0.9202903509140015,1.1825615167617798,-0.8092061281204224,-0.5277041792869568,1.0196830034255981,-0.6459081768989563,1.4889020919799805,-0.8057711124420166,-1.5144543647766113,-0.8412893414497375,1.3101030588150024,0.3915252089500427,0.4630812406539917,-0.9320249557495117,-1.5458438396453857,-0.0641326829791069,-1.3916268348693848,-0.4814620018005371,0.28362324833869934
amazon-cd.csv,-0.7243394255638123,-0.9315548539161682,0.6050037145614624,-0.26901131868362427,0.3062267005443573,0.8831160664558411,0.5745686888694763,1.0426132678985596,0.4735492765903473,-0.36403363943099976,-0.550390362739563,0.8388972878456116,-0.8012251853942871,2.4648799896240234,0.6677438020706177,0.38802164793014526,-1.5036249160766602,0.49319562315940857,-0.4699159264564514,-0.6262716054916382,-2.143428087234497,0.030867135152220726,0.6292826533317566,0.3342117965221405,-0.4664366543292999,-1.0783095359802246,1.1009372472763062,-0.39109155535697937,-1.3689860105514526,0.8342639207839966,-1.1281148195266724,0.028305284678936005,0.8113019466400146,-0.0020957624074071646,0.3980681598186493,1.001573085784912,-0.25972285866737366,1.742763638496399,0.9026467204093933,-1.252883791923523,-1.039368987083435,-1.2439991235733032,-1.8907843828201294,1.0595252513885498,0.027390269562602043,-0.43951892852783203,0.24562592804431915,2.5173609256744385,-0.035880036652088165,1.9874014854431152,-0.5687729716300964,-1.0863938331604004,0.42928966879844666,1.1922106742858887,-0.4441560208797455,-0.7908008694648743,0.3989900052547455,-0.5978506207466125,2.2088980674743652,0.6570935845375061,0.056111302226781845,-0.26749637722969055,0.9572204947471619,-0.07336361706256866,0.543144166469574,-0.2641688883304596,2.057175874710083,-1.0766373872756958,-0.3630167245864868,1.8082934617996216,1.7477585077285767,-2.3389837741851807,0.08323761075735092,-0.4015161991119385,0.31325751543045044,0.1182812824845314,-0.2872142493724823,-0.5148404240608215,0.29012253880500793,0.16058017313480377,-1.4211381673812866,-0.7520904541015625,0.17232857644557953,1.3949981927871704,-0.27221280336380005,-0.11572732031345367,1.6927073001861572,-0.08795695006847382,0.9985226988792419,0.4239146113395691,-1.730261206626892,-0.7143322229385376,-1.5677707195281982,0.6014155745506287,-0.3862689733505249,-1.1937199831008911,1.314018726348877,0.9503768086433411,0.8421213030815125,0.876854658126831,-0.32748132944107056,-0.2612999975681305,-1.5584681034088135,0.7242022156715393,0.8051561713218689,0.8785658478736877,0.6338504552841187,-1.1588900089263916,-0.9661808013916016,-0.5947867631912231,-2.1629397869110107,1.300286054611206,-1.5838541984558105,-0.3724138140678406,0.035406652837991714,-0.1412143111228943,2.0258193016052246,1.4149929285049438,-1.4915732145309448,-1.066470742225647,1.5556937456130981,-0.036795321851968765,-1.2231483459472656,-0.0993761271238327,-0.3908085823059082,-1.208441972732544,-0.2146347314119339,-1.2617268562316895,0.5110926032066345,0.907505452632904,-0.883689284324646,-1.6320091485977173,0.545577347278595,0.06042308360338211,0.6172145009040833,-1.61848783493042,0.37216073274612427,1.6867433786392212,-0.5229594707489014,1.1791707277297974,-1.7456852197647095,-0.28870466351509094,0.4033643901348114,-0.7070857286453247,-1.072831153869629,0.7669282555580139,-0.9749585390090942,-1.2337713241577148,0.7274821400642395,-1.1313520669937134,0.3927033245563507,0.22608213126659393,-0.08139640837907791,0.47356167435646057,0.13928212225437164,-0.04877309873700142,-0.8554797172546387,-0.6746249794960022,1.0467592477798462,1.7082535028457642,-0.7216082215309143,1.1921976804733276,1.5250155925750732,-0.32286474108695984,-0.5306345224380493,-0.25136798620224,-0.46839773654937744,-0.07340342551469803,1.3284528255462646,-2.2346489429473877,-0.8683510422706604,-1.6253957748413086,-0.57488614320755,-0.98161381483078,0.5801417231559753,1.1382304430007935,0.6211554408073425,1.0079288482666016,0.22560474276542664,0.15220066905021667,0.8919839859008789,-1.1744651794433594,0.2133277952671051,-0.9847028851509094,-1.321413278579712,0.2611358165740967,-0.05193837359547615,0.6950380206108093,-1.4254555702209473,-0.17793653905391693,0.011348218657076359,1.0099389553070068,0.7336077690124512,-0.07225790619850159,-1.2479119300842285,-1.7834789752960205,0.19403031468391418,-0.6703299880027771,-1.1477845907211304,0.9793317914009094
movielens100k.csv,1.112215518951416,-1.4430185556411743,-0.11344988644123077,-1.291037678718567,-0.29281583428382874,1.3199371099472046,-0.6761074066162109,0.642385721206665,1.1782357692718506,-0.28530022501945496,0.22495697438716888,1.0029149055480957,-0.19675035774707794,1.5083667039871216,-0.1379859298467636,1.9137824773788452,-2.2875618934631348,1.675507664680481,-0.34064218401908875,-0.49393850564956665,-0.9467477798461914,-1.6592148542404175,0.9208711981773376,2.16538405418396,0.6655954718589783,0.21820835769176483,-1.0929245948791504,-0.8827418088912964,-1.2930314540863037,0.052895862609148026,-0.014080929569900036,1.7475162744522095,1.1084381341934204,1.597663164138794,0.25796014070510864,0.33744165301322937,-0.7533031105995178,1.6152335405349731,-0.5353101491928101,-0.42309996485710144,0.3920513987541199,0.6583143472671509,0.5331945419311523,-0.21259328722953796,-0.9374403357505798,-0.5112966299057007,-0.031081654131412506,0.2177509218454361,0.1822029948234558,1.8648613691329956,1.0430890321731567,0.28093287348747253,-0.611604630947113,2.1722559928894043,0.26062723994255066,-0.17481541633605957,0.5458230376243591,-0.6796342134475708,2.266897201538086,-0.4468267858028412,1.0301541090011597,-0.4875123202800751,0.03237992897629738,-0.19483648240566254,0.7582384943962097,-0.41697800159454346,0.6692614555358887,-0.5283308625221252,-0.22459682822227478,-0.7703280448913574,1.7776602506637573,-0.7050960659980774,-0.8334617018699646,-0.06526252627372742,-0.7015448212623596,-0.07713575661182404,0.8760376572608948,0.132269948720932,-0.2108040601015091,0.09336331486701965,-1.065498948097229,-0.5339246392250061,0.5343602895736694,1.4263516664505005,0.520167350769043,0.7097715735435486,0.7726855874061584,0.6718526482582092,1.2708784341812134,-0.3824365735054016,-2.836982488632202,1.441188097000122,-0.2729738652706146,0.4715724587440491,0.7824327945709229,-1.812477469444275,0.5082401037216187,0.7518215775489807,1.3200651407241821,-0.30400121212005615,1.3639905452728271,0.24978989362716675,-0.541535496711731,0.17754791676998138,0.8776076436042786,1.2495367527008057,0.2860715687274933,0.07429955899715424,-1.123022437095642,-0.6783691048622131,-1.3442869186401367,0.5073619484901428,-1.479587197303772,-1.0539904832839966,0.017352011054754257,-0.1932528018951416,0.35615041851997375,0.31717535853385925,-0.8208834528923035,-1.1756008863449097,1.9017603397369385,-0.3496206998825073,0.7262437343597412,-1.3873181343078613,1.6129847764968872,-1.1839094161987305,1.5634173154830933,1.1289262771606445,0.6219121217727661,-0.029224343597888947,-0.7388507127761841,-0.07951964437961578,0.848224401473999,-0.3031790256500244,-1.5591940879821777,0.24403269588947296,0.15114173293113708,1.5263478755950928,-1.4955863952636719,2.103790521621704,-2.8299503326416016,0.6816101670265198,-0.2559612989425659,1.544517159461975,-0.4577147662639618,-0.25377002358436584,1.2575747966766357,0.8430728316307068,0.20009121298789978,-0.43148142099380493,0.37534385919570923,0.04209478199481964,0.3975945711135864,0.6486959457397461,-0.2576730251312256,0.8085227012634277,-0.022952841594815254,1.2605688571929932,2.1433963775634766,2.083420515060425,-0.36897507309913635,-0.8043918013572693,1.0035380125045776,0.47368159890174866,-1.257474660873413,-0.3125758171081543,-0.2816554307937622,-0.11182625591754913,1.1858470439910889,-1.2918533086776733,1.4811128377914429,-0.6140523552894592,-0.11347651481628418,-0.8974862694740295,0.16714268922805786,0.7759203910827637,-1.0233947038650513,0.8531895279884338,-0.1914665549993515,-0.9123850464820862,-0.13233788311481476,-2.031426429748535,-0.3116160035133362,-1.8993422985076904,0.3525121808052063,0.47748053073883057,-0.598912239074707,0.1514548361301422,-1.9847211837768555,-1.8800638914108276,0.897686779499054,0.9264517426490784,-0.7963477373123169,0.7960365414619446,-0.043725427240133286,0.12993881106376648,0.3167247474193573,0.07622026652097702,-0.04572788625955582,-0.5543649196624756
