jester2.csv,-1.6491284370422363,-0.1844271719455719,0.33184385299682617,-1.4836225509643555,-1.459860920906067,-1.8147333860397339,-1.6721192598342896,-1.4785127639770508,-0.823910117149353,-0.10810425132513046,-0.04059135541319847,0.8906598687171936,-0.8059775233268738,-0.31887054443359375,1.1578584909439087,0.1191672757267952,-0.13131697475910187,1.0127050876617432,0.29471227526664734,-0.5548802018165588,-1.3331795930862427,-1.8444513082504272,-0.7940794229507446,1.5938106775283813,-0.8632795214653015,-0.23540768027305603,0.3757511079311371,-0.17257317900657654,0.5516270995140076,-0.3786206841468811,-1.3067561388015747,2.789525270462036,0.8584344387054443,1.0285921096801758,-0.4427626132965088,-0.13672588765621185,-0.07824166864156723,-0.09631488472223282,1.048467993736267,0.356303870677948,-0.4234919250011444,0.3550645411014557,-0.9783050417900085,-0.966612696647644,0.588840901851654,0.5093698501586914,0.5926721692085266,-0.5367180109024048,-0.2668764293193817,1.1804091930389404,-1.2371366024017334,-0.9127464890480042,-0.6128610968589783,0.10601922869682312,0.37396204471588135,0.10445146262645721,-0.9849089980125427,-0.7053382396697998,0.019144775345921516,-1.3807249069213867,1.355156660079956,0.5909597873687744,-0.5750195980072021,-1.8498172760009766,2.0299270153045654,3.1256167888641357,1.5041215419769287,0.3422643840312958,0.38692066073417664,-0.6737022399902344,-0.4377407133579254,0.8889645338058472,-0.08197948336601257,1.2539088726043701,0.8435729742050171,2.1495275497436523,0.11317907273769379,0.3362619876861572,-0.21343325078487396,-0.6133219599723816,-0.34119027853012085,-0.6183518767356873,-0.7862734794616699,1.0078489780426025,-0.24627719819545746,-1.825913667678833,1.425142765045166,0.21298547089099884,0.02529320679605007,0.8700649738311768,0.5738527774810791,-0.5940554738044739,-0.48935970664024353,0.9498617649078369,0.20469950139522552,-0.5728909969329834,0.07059067487716675,0.058378346264362335,-0.770943820476532,0.8248757123947144,-0.028709998354315758,-0.4264165461063385,-1.9680554866790771,-0.10383006930351257,-0.11061449348926544,-2.6837375164031982,-0.5712104439735413,2.505620241165161,0.028631063178181648,-0.21076080203056335,-0.05359954014420509,0.38764622807502747,-1.04176664352417,-1.176061749458313,-0.3103675842285156,-1.0044288635253906,0.36633065342903137,-0.04493081569671631,-0.2828783094882965,0.8668183088302612,-0.43691524863243103,0.7486441731452942,0.5586404800415039,-0.843231201171875,-0.17278634011745453,-0.5728421211242676,0.6684706807136536,-0.11486764252185822,1.0253123044967651,0.7114088535308838,0.3853580951690674,0.03688431158661842,1.5513166189193726,0.24063633382320404,0.5287451148033142,0.8739778399467468,-0.3289288282394409,-0.7517556548118591,-2.0625898838043213,1.0688539743423462,0.36894530057907104,-0.7648540735244751,-0.3393314778804779,0.12851384282112122,-2.007654905319214,0.14581705629825592,-0.029578590765595436,0.19630829989910126,0.14796292781829834,1.289753794670105,-0.446524053812027,0.7236465215682983,-0.37756964564323425,0.41547325253486633,-0.3332598805427551,0.4692884087562561,-1.575168490409851,0.13959622383117676,1.6079710721969604,0.4206050634384155,-0.21585962176322937,0.3616955578327179,1.4585320949554443,1.2508728504180908,1.4695924520492554,-0.16644445061683655,-1.0471982955932617,1.2498985528945923,0.35117480158805847,-0.10418498516082764,-0.9758923053741455,-0.35760703682899475,0.6983596086502075,-0.9446742534637451,-0.4432950019836426,1.5245908498764038,-1.5605098009109497,0.5159753561019897,-1.7667821645736694,0.6384036540985107,0.21592079102993011,-0.9647316336631775,1.729894995689392,-1.937469244003296,0.19901922345161438,-2.805647134780884,-0.2582210302352905,0.8284269571304321,0.7290383577346802,0.17319287359714508,-1.1866862773895264,-2.1065125465393066,-1.055932641029358,0.9126207232475281,0.4871666133403778,0.8651789426803589,-0.2569222152233124,0.18680907785892487,1.50019371509552,-2.1930999755859375
amazon-digital-music.csv,-0.13380677998065948,-1.8660975694656372,0.1894056797027588,-0.5615670680999756,-0.6597720384597778,-0.8539268970489502,0.3082340359687805,-0.8681312799453735,-0.06254398822784424,0.41036951541900635,0.4953197240829468,-0.8343012928962708,-0.5568000078201294,0.7126763463020325,1.5170304775238037,0.058599550276994705,1.1112303733825684,1.3785150051116943,-0.33893582224845886,-1.103345274925232,-1.6675338745117188,1.024263858795166,-1.8007580041885376,1.4024549722671509,-1.454135775566101,-1.1984624862670898,-1.2107542753219604,0.724639356136322,0.5776910781860352,1.2851636409759521,-0.39347949624061584,1.767742395401001,0.5039766430854797,0.2491750866174698,0.5435280799865723,-0.24130898714065552,0.055699776858091354,-0.8260766267776489,1.4205564260482788,-0.24098491668701172,-0.3986237645149231,0.21982339024543762,-2.3038313388824463,-0.780887246131897,-1.972488284111023,0.3507539629936218,0.49901387095451355,-1.7800307273864746,-0.04940909892320633,-0.2567310631275177,0.44521111249923706,-0.8789984583854675,-1.1269949674606323,-0.267292320728302,-0.1410636305809021,1.5001657009124756,-1.7967807054519653,-0.26704779267311096,-0.4758926331996918,-1.7070943117141724,0.6777852773666382,0.3635048270225525,-0.024697743356227875,-1.9476706981658936,2.0079872608184814,0.5289607048034668,-0.31333479285240173,-0.7547265887260437,0.0483316034078598,1.0947141647338867,-0.3178679049015045,1.981064796447754,0.618147611618042,-0.4973137080669403,1.6446917057037354,1.2602815628051758,0.6965412497520447,0.6762900352478027,-0.07279334962368011,1.7555532455444336,-0.09004387259483337,0.30328550934791565,0.8487346172332764,-0.27937567234039307,0.45891207456588745,-2.0303263664245605,1.1096190214157104,-0.08016800135374069,-0.8376740217208862,1.3654227256774902,0.3240813910961151,-0.35858866572380066,-0.04448524862527847,-0.041667334735393524,0.32324111461639404,0.5928630232810974,-0.5628558993339539,0.3542921245098114,-0.5472434163093567,-0.8317001461982727,-0.9792307615280151,0.8616836667060852,-0.6877675652503967,-1.1682006120681763,0.3610634207725525,-0.16424007713794708,-0.15850518643856049,2.1057417392730713,0.1448182910680771,-0.23831844329833984,0.7333621978759766,0.7702040076255798,-0.9128559231758118,-2.1898539066314697,-0.10351066291332245,-0.7941104769706726,1.0488287210464478,-1.1679704189300537,-0.5678624510765076,1.5161069631576538,0.8421935439109802,-0.12283402681350708,0.2977340817451477,-0.8687106370925903,-1.1547622680664062,0.35479536652565,0.22603927552700043,0.6984050273895264,1.0808783769607544,-0.6656618714332581,1.5455559492111206,1.0887417793273926,2.4659597873687744,-0.6811156868934631,0.3810151517391205,0.5401217341423035,-0.4077066481113434,-0.07075167447328568,-2.5814363956451416,-0.46817106008529663,-0.3337263762950897,0.04952314868569374,-0.5347889065742493,0.766258955001831,-1.3064162731170654,1.8781559467315674,-0.4038105607032776,-1.164860725402832,-1.042541265487671,1.2344608306884766,-0.913131833076477,1.612721562385559,-0.41021373867988586,2.032853841781616,-1.2327057123184204,-1.5147472620010376,-0.2125338464975357,-0.27804967761039734,1.4982635974884033,1.2796237468719482,0.20463955402374268,0.2339475154876709,0.4634851813316345,0.46625715494155884,2.609039068222046,-0.043069757521152496,-0.8160420656204224,-0.21516108512878418,0.5259248614311218,-0.16579000651836395,-1.2133148908615112,-0.06461019068956375,2.3966357707977295,-0.3009154796600342,-1.1090121269226074,-1.1660372018814087,-0.9733248949050903,-1.1570590734481812,0.028090769425034523,-0.17827971279621124,-0.6857402324676514,-0.22754071652889252,0.8985477685928345,-0.6225978136062622,0.5690626502037048,-0.872725248336792,0.5448737144470215,0.4164954423904419,0.6365973353385925,0.1630755364894867,-0.3677496910095215,-0.5195181965827942,-1.326551079750061,0.19313015043735504,-0.07327291369438171,0.971865177154541,0.27099502086639404,0.3705484867095947,2.391852617263794,-0.15971188247203827
amazon-cd.csv,-0.38799911737442017,-2.113640308380127,0.5314977765083313,-2.074897289276123,-0.4326837658882141,0.1166093572974205,-0.5029432773590088,-0.9691802263259888,-0.5734388828277588,-0.45619145035743713,-0.04543611407279968,-0.16633674502372742,0.36574044823646545,-0.9566560387611389,0.09123095124959946,0.2596624493598938,-0.773308277130127,0.7345461249351501,0.05060087889432907,-0.13831639289855957,-1.928851842880249,0.8797922730445862,-2.0026257038116455,1.1809108257293701,-1.065583348274231,0.25886693596839905,0.12994429469108582,0.4537133574485779,1.2812024354934692,0.06822744756937027,-1.3635157346725464,2.0181963443756104,0.48106440901756287,-0.04903494566679001,0.8736242651939392,-1.3417915105819702,0.06487678736448288,-0.18328703939914703,-0.5693944692611694,-1.1247355937957764,-0.6978063583374023,0.21949081122875214,-0.623853862285614,-1.3627378940582275,-0.1878848522901535,0.6922813057899475,-0.2978939414024353,-0.924294114112854,0.27818596363067627,0.8715707063674927,-0.8337534666061401,-1.672227382659912,-0.3920842707157135,0.24688701331615448,-0.9466999769210815,1.6594312191009521,-0.8610398769378662,-1.0224361419677734,-0.8653037548065186,-0.6217957735061646,0.8779544830322266,-0.13448284566402435,-1.3408145904541016,-1.272390365600586,1.112166404724121,0.46280908584594727,1.1576727628707886,0.9971989989280701,-0.4636872410774231,0.3355245888233185,-0.8360636234283447,-0.587523341178894,0.5931335687637329,-0.6710765957832336,0.5772663950920105,1.5971083641052246,1.8456717729568481,0.1947958767414093,-0.6870618462562561,1.3932526111602783,0.6718365550041199,0.5757654905319214,0.7538573145866394,0.9530433416366577,0.3834141492843628,-1.4025356769561768,0.6516176462173462,2.25636887550354,-0.4722612798213959,1.4049373865127563,-0.8198946118354797,-1.3936209678649902,0.21525424718856812,0.05309147760272026,0.3283746838569641,-0.035268139094114304,-1.2253471612930298,1.0601922273635864,-1.0790519714355469,-0.443695992231369,-1.5510059595108032,-0.327627956867218,-1.0288676023483276,-0.12973639369010925,0.9749005436897278,-1.724571704864502,-1.4171936511993408,2.970278024673462,-0.2759234309196472,-1.2320314645767212,0.5269285440444946,0.5723416209220886,-0.6850957870483398,-2.10980224609375,-1.2008304595947266,-0.47825539112091064,-0.12099719792604446,-0.9495732188224792,0.3663279712200165,0.9688759446144104,-0.7803159952163696,0.14129287004470825,1.9310455322265625,-0.12623381614685059,-0.5030512809753418,-0.4980698823928833,-0.8173661828041077,0.4000794291496277,1.3957332372665405,-1.2160007953643799,0.8729729652404785,1.3729714155197144,1.4042420387268066,0.5572724342346191,0.7755851149559021,0.5557422637939453,-0.24094542860984802,-0.3932112157344818,-0.7849002480506897,-0.18658247590065002,0.7877832651138306,-0.3739897310733795,-1.7446914911270142,1.0802123546600342,-0.06962241232395172,0.28357401490211487,-0.2726973295211792,-0.5253077745437622,-0.3212282359600067,2.2461085319519043,0.31443968415260315,1.0841602087020874,0.5241843461990356,1.6213151216506958,0.3360712230205536,-0.054624445736408234,-0.8794357776641846,1.3708754777908325,1.7075634002685547,0.914306640625,-0.9833223223686218,-0.9409056901931763,1.919525146484375,0.04236939921975136,0.8274902105331421,-0.7878797054290771,-1.3392704725265503,-1.776158094406128,-0.45354923605918884,-0.944459080696106,-0.44210925698280334,-0.5431675910949707,0.4202812612056732,-0.9984549283981323,-0.9048798084259033,-0.783416748046875,0.12999244034290314,-1.0588475465774536,0.08501853793859482,1.1167871952056885,-0.6044174432754517,1.170699954032898,-0.4998639225959778,-1.229247808456421,-0.18475906550884247,-0.5417634844779968,0.25925812125205994,1.2089306116104126,-1.0676144361495972,1.5927236080169678,-0.12039647251367569,-0.6287684440612793,-1.0609936714172363,2.177150249481201,1.9668712615966797,0.5908606052398682,-0.7232954502105713,1.3662562370300293,1.8897745609283447,0.20654945075511932
amazon-instant-video.csv,-0.20207980275154114,-2.2959213256835938,0.07580792158842087,-1.1349804401397705,-0.5696912407875061,-0.6548334360122681,-0.19816908240318298,0.2044113278388977,0.005867636296898127,0.009528229013085365,-1.0736830234527588,-0.1301693320274353,-2.2294371128082275,-0.3796084225177765,0.7825253009796143,-1.3142471313476562,0.6940249800682068,0.9286633133888245,0.29757288098335266,-1.5548349618911743,-1.2695705890655518,1.5573221445083618,-1.7959859371185303,1.076765775680542,-0.5936347842216492,-1.2977583408355713,-0.3008563220500946,0.1467406004667282,0.47465449571609497,-0.25317367911338806,0.21875135600566864,1.6891539096832275,0.14352279901504517,0.16260898113250732,0.4241624176502228,-0.8246536254882812,-0.9221529960632324,-0.15981078147888184,0.808296263217926,-0.25405386090278625,-0.8918855786323547,0.17922937870025635,-1.9738492965698242,-1.5740108489990234,-0.04206789284944534,0.926811695098877,0.29213014245033264,-0.8732503056526184,-0.26578447222709656,-0.09852156788110733,-0.9846274852752686,-1.1333552598953247,-0.6572320461273193,-0.9178075790405273,0.8806958198547363,-0.8367009162902832,-2.6465303897857666,-0.2593268156051636,-1.4125831127166748,-0.8689918518066406,-0.10677564889192581,0.44926950335502625,-1.655255675315857,-2.075082778930664,0.9177371859550476,1.2695366144180298,0.054373849183321,-0.27344927191734314,0.9827614426612854,-0.7054004073143005,0.7764637470245361,1.4769606590270996,0.458211749792099,-1.5360273122787476,1.2493993043899536,2.0461316108703613,0.3345978856086731,-0.6542108654975891,0.15523189306259155,1.832682490348816,-0.42126551270484924,0.7689942121505737,0.4851090908050537,-1.575850248336792,-1.4153889417648315,-1.8747706413269043,0.6691277623176575,-0.5518351793289185,0.2894577085971832,1.0637638568878174,-0.573694109916687,0.5310676693916321,-0.3116445243358612,1.6957528591156006,0.33027055859565735,0.008925538510084152,-0.7452965974807739,-1.4695788621902466,0.1297859400510788,0.1578243374824524,-1.373059630393982,0.5162384510040283,-0.12638260424137115,-0.3090876042842865,-0.8535970449447632,-1.1706137657165527,0.18656723201274872,2.2334978580474854,-0.7465347647666931,-0.9465799331665039,0.8012049794197083,0.24567432701587677,-0.5915362238883972,-1.6241682767868042,0.9773717522621155,-1.2179263830184937,1.2030792236328125,-0.7458692193031311,0.3987759053707123,0.45687878131866455,0.29376283288002014,-0.3913947343826294,1.1834239959716797,0.6769174337387085,0.7932217717170715,-0.2040168195962906,0.15603035688400269,0.4033302366733551,1.0727810859680176,0.4927452802658081,0.9920787811279297,-0.5931554436683655,0.8470686078071594,-0.5299902558326721,0.6243849396705627,1.02516508102417,-0.24036702513694763,0.306808203458786,-1.9132273197174072,0.7690967917442322,0.13210390508174896,0.5433871746063232,-1.2535732984542847,1.5032086372375488,-2.1771111488342285,1.2150564193725586,-0.7766249179840088,-0.4574359655380249,-0.14581039547920227,1.278618335723877,-0.8093651533126831,2.568878173828125,0.31449759006500244,1.2933168411254883,-1.7303673028945923,-0.44401299953460693,0.08760837465524673,1.0626484155654907,0.9683791399002075,2.0560295581817627,-0.13742923736572266,-0.8985599279403687,1.6214382648468018,0.02621774561703205,1.5927926301956177,0.2544039487838745,-1.6585357189178467,-0.15902893245220184,0.29161545634269714,-0.11141589283943176,0.02246432937681675,0.08330633491277695,1.1904934644699097,-0.4692649841308594,-0.9489466547966003,0.3191703259944916,0.32020777463912964,-0.5146903991699219,-1.7141963243484497,0.12135308235883713,-0.856351375579834,-0.8589663505554199,1.480207085609436,-0.8956992626190186,0.9490880370140076,-0.7223272919654846,1.4017244577407837,-0.23332417011260986,0.6894233226776123,1.5554463863372803,0.4075957238674164,-0.8352674245834351,-1.1853046417236328,1.3400039672851562,0.11524991691112518,0.07923424243927002,-0.5991460680961609,0.9355788826942444,1.4320731163024902,0.14633379876613617
amazon-phones.csv,-0.19524428248405457,-1.9695093631744385,-0.08855124562978745,-1.2096692323684692,-0.5645217895507812,-1.0145106315612793,0.08388420194387436,-0.2311381697654724,-0.457701712846756,-0.8486109972000122,-0.6250385046005249,1.1138577461242676,-2.3950259685516357,-0.6059632301330566,-0.08138325065374374,-1.0369775295257568,0.18551331758499146,1.4844664335250854,0.7361971735954285,-1.565893292427063,-0.8660369515419006,0.9816038012504578,-0.5536690950393677,0.8373475670814514,-0.6416131258010864,-0.9201409220695496,-0.2688875198364258,0.2173987776041031,0.9498246312141418,-0.17036409676074982,-0.6632118821144104,2.3416996002197266,-0.6161414384841919,-0.06830678880214691,-0.20535703003406525,-1.0918493270874023,-0.6887139678001404,-1.1543995141983032,1.1613267660140991,-0.197036474943161,-0.30777832865715027,0.4284651279449463,-0.8303611874580383,-1.8267885446548462,-1.0890576839447021,0.6207593083381653,0.6262903213500977,-1.3477615118026733,-0.3354225754737854,0.5737614631652832,0.21835200488567352,-1.5157158374786377,-0.24103081226348877,0.3200618624687195,0.37898898124694824,0.07675007730722427,-2.3303420543670654,-0.3799114227294922,-1.3434779644012451,-0.9230172634124756,-0.9274871349334717,0.1303602010011673,-0.8447414040565491,-1.3938698768615723,1.666053056716919,2.0457828044891357,1.2030878067016602,-0.32425475120544434,1.0156196355819702,-1.5593575239181519,0.14730402827262878,1.087780475616455,0.33768200874328613,-1.0079843997955322,1.1060192584991455,1.4375030994415283,1.2451860904693604,-0.8245326280593872,-1.5193241834640503,0.8126334547996521,-0.7346317768096924,0.7344171404838562,0.5220611095428467,-1.1668611764907837,-2.083406448364258,-1.6411892175674438,0.6581197381019592,0.9971011281013489,-1.4478261470794678,1.3754024505615234,-0.33651742339134216,-0.03796575590968132,0.03638364374637604,1.7651320695877075,-0.7941291928291321,0.7527146935462952,-0.42310094833374023,-0.9895709753036499,-0.7322114706039429,-0.4571417570114136,-0.8827153444290161,0.23431068658828735,-0.7314897775650024,-0.8250975012779236,0.3790287375450134,-0.192864790558815,0.4334169626235962,1.1742160320281982,-0.87468022108078,-1.0463128089904785,0.21831586956977844,0.8327177166938782,-1.0462924242019653,-2.0773768424987793,0.12717397511005402,-0.31191447377204895,-0.053343575447797775,-0.7003181576728821,0.7869679927825928,0.9175649285316467,0.29202184081077576,1.2087215185165405,0.8055188059806824,0.7700817584991455,0.9404317140579224,-0.5686196684837341,-0.19196803867816925,0.5292473435401917,0.7760816216468811,0.19463039934635162,0.6041372418403625,0.1771833598613739,-0.0577208586037159,-1.2291613817214966,0.1276339441537857,2.8336639404296875,0.11321135610342026,-0.532902181148529,-1.40422523021698,-0.8081726431846619,0.21895074844360352,0.10507265478372574,-0.7773061990737915,2.046917200088501,-1.5157749652862549,0.07235191017389297,-0.1029609739780426,-0.06692231446504593,-0.022495219483971596,1.45172917842865,-1.5422697067260742,2.999394178390503,0.3506532907485962,1.7076772451400757,-0.9694182872772217,-0.9613820910453796,-0.5904885530471802,0.9564236998558044,1.4372923374176025,2.107835531234741,-0.5480550527572632,-1.344355583190918,0.8276821970939636,-0.4107315242290497,2.3356869220733643,0.03222671523690224,-0.862964928150177,0.14438621699810028,-0.1509011834859848,0.22550159692764282,-0.49933090806007385,-0.6305128335952759,1.479185938835144,-0.258826345205307,-0.6587809324264526,-0.08777663111686707,0.5066759586334229,-0.4317944645881653,-1.4376920461654663,-0.4139922857284546,-0.3072735071182251,-1.2759288549423218,0.908261239528656,-1.142911434173584,0.03383892774581909,-0.5353677868843079,1.5161898136138916,0.3380996882915497,-0.032938435673713684,0.9946553707122803,0.0991731658577919,0.5265318751335144,-1.4905377626419067,1.3182456493377686,0.021216964349150658,0.7770926356315613,-1.0257165431976318,0.05775684863328934,1.1980139017105103,-0.099698506295681
yelp.csv,-1.4391160011291504,-2.8414108753204346,0.6460471153259277,-1.4854331016540527,-1.2727664709091187,0.0453464612364769,-0.7626734375953674,-0.10595808178186417,-0.8598613142967224,-1.1429818868637085,-0.6276983022689819,1.8051908016204834,-1.3816758394241333,-0.34364840388298035,-1.0292558670043945,-0.4140462577342987,-0.2837027609348297,1.6458234786987305,-0.6197680830955505,-1.168635606765747,-1.6259067058563232,-0.1444389820098877,-0.7178674340248108,-0.3295530080795288,-0.8665045499801636,-0.09138529747724533,0.22880469262599945,0.4316915273666382,-0.04991719871759415,-0.4011227488517761,-0.7290567755699158,2.463890552520752,0.522551953792572,0.07999635487794876,-0.7451852560043335,-1.0017584562301636,0.8450678586959839,0.7264581322669983,-0.07265058159828186,-0.3415810167789459,-0.8145408034324646,0.3229958117008209,-0.559036910533905,-1.575162649154663,0.5311417579650879,0.48542264103889465,0.5634761452674866,0.28257623314857483,1.7912311553955078,0.24998217821121216,-1.798898458480835,-1.2020033597946167,0.04620903357863426,-0.4837731420993805,1.1738492250442505,1.3053066730499268,-1.2752583026885986,0.18226788938045502,-0.5611288547515869,-0.4573526680469513,-0.861404538154602,0.3885142207145691,-0.9618743062019348,-1.3346973657608032,0.243522509932518,1.3609459400177002,-0.531139612197876,-0.10269724577665329,0.5211775898933411,0.8496208786964417,-1.7851520776748657,-1.7798751592636108,0.5701779723167419,-1.0311836004257202,0.9140896797180176,0.907196044921875,2.35917592048645,-1.9061520099639893,-1.191916823387146,1.2331126928329468,-0.9522526264190674,-1.1421407461166382,0.6513027548789978,0.08716835826635361,0.11790303140878677,-0.3323321044445038,0.12538279592990875,0.6747400164604187,0.2255617082118988,0.42215222120285034,1.2597970962524414,0.6329990029335022,0.6779647469520569,1.0398142337799072,1.2881666421890259,-0.18040941655635834,-0.09064466506242752,0.5112141370773315,-1.1933550834655762,-0.46344199776649475,-1.7320681810379028,0.01147266011685133,0.575541079044342,1.0513319969177246,-0.06836231797933578,-1.4022585153579712,-1.611541509628296,1.6954692602157593,-0.9727120399475098,-0.2038385272026062,0.011108973994851112,2.2589962482452393,-0.5575296878814697,-0.9000261425971985,-0.2534796893596649,-0.17289823293685913,0.4447838366031647,-0.7462332248687744,-0.7371047735214233,1.1840983629226685,-0.956426739692688,-1.112845778465271,0.6837272644042969,0.04147753864526749,0.3457294702529907,-0.07614815980195999,-0.9980142116546631,0.19546645879745483,1.1711738109588623,-0.5044726133346558,1.0764387845993042,0.7654404640197754,2.3624889850616455,-0.47719305753707886,0.07491530478000641,1.1145501136779785,-1.730453610420227,-0.311727374792099,-0.33355477452278137,0.4659174382686615,-0.4682401418685913,-0.8336833119392395,0.10712134093046188,0.36347270011901855,-1.8888063430786133,0.9910897612571716,0.08752498775720596,0.3950822949409485,-1.129764437675476,2.092344045639038,-0.7022646069526672,0.6849597096443176,-1.1580674648284912,1.1415622234344482,0.6660665273666382,-0.30538174510002136,-0.7429707050323486,0.735778272151947,1.4184060096740723,1.0437569618225098,-0.47147175669670105,-0.6639586091041565,0.7051064968109131,2.4109485149383545,0.5259060263633728,1.3214260339736938,-0.9101643562316895,-1.117158055305481,0.711743175983429,0.3216341435909271,-0.44729477167129517,0.31949934363365173,0.4986000955104828,0.01178976520895958,-1.7525278329849243,0.021745864301919937,-0.48184579610824585,-0.06580817699432373,-1.487089991569519,-0.7387962341308594,-0.5553609728813171,1.3519562482833862,1.134678840637207,-1.3183958530426025,-0.7087641358375549,-0.1942509114742279,0.946403443813324,0.9234763979911804,0.7329009175300598,1.6918178796768188,-1.2348474264144897,0.46869710087776184,-0.5239216089248657,1.5287630558013916,1.4629065990447998,0.4384833872318268,-1.939530372619629,0.3255618214607239,1.1799954175949097,0.15890425443649292
amazon-home.csv,-0.4886423945426941,-1.9292657375335693,0.5552250742912292,-1.5019805431365967,-2.2113351821899414,0.34458068013191223,0.33770665526390076,-0.1371554136276245,-1.1186951398849487,-0.5754318237304688,-0.27353012561798096,0.6191450953483582,-2.5104103088378906,-0.687027096748352,0.3715096116065979,-0.1705254167318344,0.4202283024787903,0.5397508144378662,1.581258773803711,-0.8993541598320007,-1.484030842781067,1.4888297319412231,-0.2065231055021286,1.0949294567108154,-1.3050769567489624,-1.1011062860488892,-1.2162762880325317,0.30448096990585327,0.3112841844558716,-0.6386567950248718,-1.3657413721084595,3.4593381881713867,-1.556018590927124,0.28457897901535034,0.6585512161254883,-1.727002739906311,-0.7461754083633423,-0.3928579092025757,0.7053895592689514,0.06776826083660126,-0.7875257134437561,-0.6210036873817444,0.7585337162017822,-0.17691607773303986,-0.9052280187606812,-0.5362269282341003,0.46183159947395325,-2.301765203475952,0.510470449924469,-0.39867785573005676,0.3276331424713135,-2.0253400802612305,-0.5293458700180054,1.0420880317687988,-0.9290478229522705,1.2522590160369873,-1.8171700239181519,-0.16226035356521606,0.46285203099250793,-1.0517821311950684,0.3892756700515747,-0.20638859272003174,-1.485721468925476,-1.4563506841659546,1.001094937324524,0.11432349681854248,0.7116225361824036,-0.1319456696510315,0.5409823656082153,0.2630586624145508,-1.111251950263977,-0.44227686524391174,-0.13206353783607483,-0.47375762462615967,0.5211430191993713,-0.6027470231056213,1.3093615770339966,-0.18226586282253265,-2.2541098594665527,0.8853411674499512,-0.7032514810562134,0.8909177780151367,0.9329627156257629,0.5810471177101135,-0.6116884350776672,-1.2581840753555298,1.4975460767745972,0.9228882193565369,-1.5170129537582397,0.37832584977149963,-0.3322122097015381,-1.3149394989013672,0.7792441248893738,0.8598418235778809,-1.173865795135498,-0.23099756240844727,-0.24545976519584656,0.4137054979801178,-1.0881327390670776,0.4810231029987335,-0.5727950930595398,-0.8821849226951599,-0.4934162497520447,0.3659808933734894,0.7000490427017212,-1.3301184177398682,0.21349991858005524,1.336706519126892,0.32674869894981384,-0.5009791254997253,0.16153275966644287,0.9038008451461792,-0.8512569665908813,-1.6050277948379517,-0.4461427628993988,-0.10074479132890701,0.26666679978370667,-0.7739661931991577,-0.6662307381629944,0.7777252197265625,0.8268537521362305,1.1061891317367554,0.9890187382698059,-0.3878304660320282,0.04722759127616882,0.16219335794448853,0.3785446286201477,0.46371060609817505,0.4784587621688843,-0.5448197722434998,0.15789996087551117,0.5779765844345093,1.2702330350875854,-1.9525878429412842,0.2370716780424118,1.52166748046875,-0.4053865373134613,-1.1794530153274536,-2.3974220752716064,-0.2979378402233124,0.4141813814640045,0.8323538899421692,-0.29250478744506836,0.28492817282676697,-1.2056469917297363,0.3622865676879883,0.4334633946418762,-0.42649492621421814,-0.13683021068572998,2.4607391357421875,-0.3478773832321167,1.6668057441711426,0.7443841099739075,-0.19063560664653778,-0.7755109071731567,0.8422924280166626,-0.3459792137145996,1.3535112142562866,0.1135634183883667,1.5994551181793213,-0.4587949514389038,-1.0267258882522583,0.6533495187759399,0.4116138815879822,2.5249996185302734,-0.09673003852367401,-0.4181289076805115,-0.6702425479888916,0.06171239912509918,-0.08612477779388428,-0.7151080965995789,-0.7189809679985046,1.4497817754745483,0.01582726463675499,-1.8714241981506348,0.33970072865486145,-0.2241171896457672,-0.2237333208322525,-0.9417145848274231,-0.12619677186012268,-1.207086443901062,0.0014339074259623885,1.8676819801330566,-1.1854990720748901,-1.29978609085083,-1.4258356094360352,0.7577597498893738,0.42880868911743164,0.5361095666885376,0.9104898571968079,-0.21929463744163513,1.4390262365341187,-0.9471513032913208,1.5363919734954834,1.108879804611206,0.62985759973526,-1.3248893022537231,-0.1272704005241394,1.648283839225769,0.3086026906967163
flixter.csv,0.2940598130226135,-2.013277769088745,0.0874924287199974,-2.298006296157837,-1.8174107074737549,-1.3978651762008667,-2.0049123764038086,-0.8386231660842896,-0.16814328730106354,-0.5849452614784241,0.2651091516017914,0.45642635226249695,-0.8689587712287903,-0.2970539331436157,0.12430043518543243,-1.6889824867248535,0.5179187655448914,1.2422146797180176,-0.17453821003437042,-0.015004773624241352,-1.8477280139923096,0.3150515854358673,-0.7330920696258545,0.15059852600097656,-0.8259283304214478,-0.3049023449420929,-0.7226815223693848,-0.12983104586601257,-0.42069700360298157,-0.23742355406284332,-0.6710243821144104,2.254962682723999,1.823642611503601,0.07176445424556732,1.1023918390274048,0.7064374089241028,1.0345412492752075,1.0705375671386719,0.5167765617370605,-0.4538838565349579,-1.4036988019943237,-0.8908820152282715,-0.6040182113647461,-1.9832172393798828,-0.3035949766635895,-0.17798735201358795,0.8868400454521179,-1.9522426128387451,-0.4652230143547058,0.5934380292892456,-0.7150527834892273,-0.281878262758255,-0.5996740460395813,-0.6726766228675842,-0.9246122241020203,0.6703847646713257,-0.7488446831703186,-0.20350056886672974,-0.3019646108150482,-2.5156712532043457,0.066236212849617,0.7756427526473999,-0.3790358304977417,-0.19661305844783783,1.059065818786621,0.017884911969304085,1.2616783380508423,0.02304672636091709,1.1612263917922974,0.21407175064086914,-0.16548790037631989,-0.20316487550735474,0.9359071254730225,0.009306765161454678,1.0081675052642822,0.8111461400985718,0.29022088646888733,0.0655609592795372,-2.102140426635742,-0.18684713542461395,0.018568020313978195,0.45951104164123535,0.7164245843887329,-0.5013465881347656,0.25829586386680603,-2.1095123291015625,0.2973720133304596,1.518993854522705,-0.2989996373653412,1.54347825050354,0.48077157139778137,-0.8996173143386841,0.4541855752468109,-0.5073837041854858,1.1411162614822388,1.0899865627288818,0.6220418810844421,0.34272757172584534,-0.1801108866930008,-0.28728440403938293,-0.9296256303787231,1.7925316095352173,-0.10710333287715912,-1.1900020837783813,-0.6223332285881042,1.5298047065734863,-0.6389089822769165,2.290513038635254,1.1886979341506958,-0.2177227884531021,-0.8550216555595398,0.4037860333919525,-0.08515085279941559,-1.9478410482406616,-0.07708501815795898,-0.9893085360527039,-0.3909296989440918,-0.5001046657562256,3.332040309906006,1.0619454383850098,-0.0815233588218689,0.9734788537025452,1.0060595273971558,-1.4349031448364258,0.5095632672309875,-0.28785252571105957,0.7006253004074097,-0.38048940896987915,0.7674625515937805,-0.024698082357645035,0.3363787531852722,0.8462672233581543,0.8076253533363342,-1.804865837097168,1.2165943384170532,-0.0064184702932834625,0.7668076157569885,-0.08029713481664658,-0.42273297905921936,0.1605694741010666,1.365694284439087,0.6780813336372375,-0.35301634669303894,0.5690031051635742,-1.4934272766113281,1.9871175289154053,1.3330132961273193,-0.030882427468895912,-1.0415972471237183,1.0936825275421143,-0.4544174075126648,0.6791567802429199,-0.7804209589958191,-0.18889378011226654,-1.1595474481582642,-0.4646831452846527,-0.10891369730234146,0.5241374969482422,-0.09802968055009842,0.3266349732875824,0.6844982504844666,-0.5144295692443848,1.500504732131958,-0.3201933801174164,1.0228259563446045,-0.6218268275260925,-1.4491249322891235,-0.8303856253623962,0.25192686915397644,0.5095727443695068,-1.042271614074707,0.9395742416381836,1.615829586982727,-0.36348170042037964,-0.1927691102027893,-0.004141910932958126,1.0170559883117676,0.39654529094696045,-1.3707726001739502,-0.9742282032966614,-0.700322687625885,-0.2381453812122345,-0.11820932477712631,-1.227756142616272,0.13728579878807068,0.06178058683872223,1.1245434284210205,1.963578701019287,-0.05569641292095184,2.4999256134033203,-2.411614418029785,-0.899522602558136,0.0847896859049797,0.9331198334693909,-1.0891402959823608,1.4868444204330444,-0.9211993217468262,-0.5498695969581604,0.8526575565338135,-1.0869929790496826
movielens20m.csv,-0.9630383253097534,-1.04697585105896,-0.5249496698379517,0.03816380724310875,-1.5289082527160645,-0.47276929020881653,-0.5018323063850403,-0.4469699263572693,0.6614603996276855,-0.9809941053390503,1.1299114227294922,0.5081958174705505,-0.4440001845359802,0.1640041023492813,1.1358686685562134,-1.6198697090148926,-0.09155869483947754,1.0843576192855835,0.4002906382083893,-0.6790876984596252,-1.8947515487670898,1.85843026638031,-0.676924467086792,-0.8139736652374268,-1.8044395446777344,-0.7046692371368408,0.0072950320318341255,-0.18944458663463593,0.5905265212059021,-0.052348971366882324,-1.0700830221176147,1.415825605392456,0.4906530976295471,-0.8432468771934509,-1.3488115072250366,-1.1566483974456787,-1.0658156871795654,-0.14487695693969727,0.3038710653781891,-0.36316704750061035,-0.8321149349212646,-1.0202507972717285,0.06797322630882263,-1.3276740312576294,-0.6162227988243103,-0.7821289300918579,1.6582585573196411,-1.085852026939392,1.1222257614135742,-0.5106658339500427,-0.25871506333351135,-0.9773497581481934,-1.2629135847091675,-0.5538254976272583,-0.06068762019276619,-0.009485999122262001,-1.3868309259414673,0.32781723141670227,0.3202245533466339,-1.0213104486465454,-0.3986646234989166,0.24874724447727203,0.11653859913349152,-2.4266200065612793,-0.9113737940788269,1.6929527521133423,0.5799629092216492,1.5810604095458984,-0.8414919972419739,0.2515617907047272,0.9028364419937134,0.37927109003067017,0.9809797406196594,0.5036863684654236,1.5223913192749023,-0.45224931836128235,1.097462773323059,0.732955276966095,0.4479864835739136,0.31907787919044495,0.3949742913246155,-0.5510520935058594,1.0374090671539307,-0.6722513437271118,0.748331606388092,-0.9285479187965393,0.9385137557983398,0.9745668172836304,-1.0971819162368774,0.4773436486721039,-0.21808676421642303,-0.21032047271728516,-0.40076133608818054,1.5907773971557617,0.8167127370834351,0.12040487676858902,-0.913672685623169,0.5602226853370667,0.0035663985181599855,-0.8479858636856079,-0.7463800311088562,-0.5734755992889404,-1.2803395986557007,0.09190956503152847,0.49642252922058105,-1.1463910341262817,-0.33099544048309326,2.959172487258911,0.20841127634048462,-0.6781747937202454,-0.5532495975494385,1.1644619703292847,-0.2445283681154251,-0.05559128150343895,0.960172176361084,0.22166374325752258,0.5494725704193115,-1.0856144428253174,-0.7637673020362854,3.277812957763672,-2.2867939472198486,0.8200696706771851,1.1174767017364502,-0.12553571164608002,-0.0763489156961441,-0.16962480545043945,-0.261785089969635,0.6546459197998047,1.3410186767578125,-0.2204216569662094,1.4394593238830566,-0.6132059097290039,0.544455885887146,-2.730586290359497,2.2325034141540527,0.34550800919532776,-0.2139967530965805,0.3179730772972107,-1.3659356832504272,2.250654935836792,0.2658384442329407,0.6530040502548218,-1.6963515281677246,0.9593825936317444,-1.67084801197052,0.2571052312850952,0.8438445329666138,-1.0881274938583374,-0.8273427486419678,1.3200864791870117,-0.6761600375175476,0.3017914593219757,0.410534530878067,0.5402316451072693,1.1091772317886353,0.2938193380832672,-1.201414942741394,0.7487141489982605,0.13470837473869324,1.0458532571792603,-1.8730846643447876,-1.0643742084503174,2.72955060005188,0.10343373566865921,-0.0891900360584259,0.12971732020378113,-1.1336379051208496,-0.07223041355609894,0.23334142565727234,-0.3693113327026367,0.6167013645172119,-0.34627625346183777,-0.06152867153286934,-0.49444761872291565,-0.9185102581977844,0.4039381444454193,0.19132539629936218,0.6953898668289185,-1.3740211725234985,0.5005859136581421,-1.1859954595565796,-0.4681563675403595,1.0947318077087402,-1.378291368484497,-0.1909448802471161,-1.7977330684661865,1.8226892948150635,0.6599108576774597,1.3364665508270264,0.38983848690986633,-1.4409505128860474,0.6849310398101807,-0.410432904958725,1.3766964673995972,-0.5921996235847473,-0.04831648990511894,-0.2628430426120758,-0.5922070741653442,-1.2776143550872803,-0.32927706837654114
amazon-movies.csv,-1.5457770824432373,-2.4248528480529785,1.4253114461898804,-0.5287483930587769,-2.750016927719116,-0.7051233649253845,0.19360089302062988,-0.7371501326560974,-0.12115509063005447,-0.11479712277650833,0.328277587890625,0.20406222343444824,-0.38784778118133545,-0.43825045228004456,-0.03577956184744835,-0.262753427028656,1.0321720838546753,1.3721046447753906,0.4269254505634308,-0.6338198184967041,-1.6764459609985352,0.6625888347625732,0.5053122043609619,-0.561478316783905,-2.5093038082122803,-1.7413069009780884,-1.5503501892089844,0.6651771664619446,0.538374125957489,-0.23324576020240784,-1.2027398347854614,2.0221962928771973,-0.9103885889053345,0.2619207203388214,0.21304801106452942,-1.137724757194519,-0.9631562232971191,-0.3980483114719391,0.1752605438232422,-0.11835271120071411,-0.12297561019659042,-0.5925968885421753,-1.0851694345474243,-1.430390477180481,-1.4168015718460083,-1.0114295482635498,-0.5037747621536255,-1.8538042306900024,-0.8330218195915222,0.00019777019042521715,-0.019625164568424225,-1.9374884366989136,-0.4085945188999176,0.5650059580802917,-0.0834096372127533,0.9375253915786743,-1.4118828773498535,0.32705146074295044,-0.9610517024993896,-1.145171880722046,-0.5721211433410645,-0.755354642868042,-0.13117823004722595,-1.6328225135803223,1.2755416631698608,1.82489013671875,0.5686434507369995,0.003513516392558813,-0.3538229763507843,0.05295770242810249,0.1636933982372284,-0.09733597189188004,0.964417576789856,0.6179564595222473,0.27187347412109375,0.13682854175567627,2.0543406009674072,0.02259148098528385,-2.254655361175537,0.9451644420623779,-0.43945133686065674,0.43584126234054565,0.9832563996315002,-0.6134689450263977,-0.06555040180683136,-1.6094417572021484,0.356320321559906,0.13090045750141144,-0.8829482793807983,1.8397890329360962,-0.18190129101276398,-0.2699684202671051,-0.7397491335868835,0.0003817615797743201,0.43848830461502075,-0.39275360107421875,-1.619687557220459,-1.0061842203140259,-1.168392300605774,0.035524070262908936,-1.5747038125991821,0.7992146611213684,-0.9711469411849976,0.19145935773849487,0.37758105993270874,-1.9268286228179932,-0.19377979636192322,1.9370214939117432,-1.9480324983596802,-1.3719415664672852,0.05210861936211586,0.8954576849937439,0.34536364674568176,-0.42568138241767883,-1.2165663242340088,-0.13539797067642212,-0.028302619233727455,0.2879883050918579,0.7827666997909546,0.8359813690185547,-0.585335373878479,-0.45817816257476807,-0.07106298953294754,-0.11213549971580505,0.07333081215620041,-0.4540616571903229,0.6330776214599609,-1.1608401536941528,1.3046294450759888,-0.2592030465602875,1.7070550918579102,1.8945057392120361,1.0548665523529053,-2.497072219848633,-0.5282214283943176,1.4653844833374023,0.19171160459518433,0.3669147193431854,-1.4910614490509033,0.41809624433517456,0.22481046617031097,-0.08681615442037582,0.09867642819881439,-0.10279273986816406,-0.5595987439155579,0.6587410569190979,-0.0825648382306099,-1.8425145149230957,-0.9886018633842468,1.7118386030197144,-0.49885064363479614,1.2002968788146973,-0.9818174242973328,1.106454610824585,0.15382766723632812,0.3799065053462982,0.2745867669582367,0.6375165581703186,1.5596197843551636,1.3846474885940552,-0.7796984910964966,-0.9292831420898438,0.17065420746803284,0.9105083346366882,1.7745596170425415,-1.5159634351730347,-1.2149670124053955,-0.39320608973503113,-0.24152643978595734,0.17445068061351776,-0.21783405542373657,-0.40120911598205566,-0.5146259665489197,0.37883853912353516,-0.582930326461792,-0.16170577704906464,-0.43062159419059753,-0.7245123982429504,-1.7348898649215698,0.39603695273399353,-0.481747567653656,-0.05860668793320656,0.7669765949249268,-1.72213876247406,-0.7397652268409729,-0.4445956349372864,0.07468804717063904,-0.29511111974716187,-1.143072485923767,1.040883183479309,-1.5560203790664673,1.7442628145217896,-0.1596224159002304,1.403765320777893,0.8807963728904724,0.4049080014228821,-0.4256737232208252,-0.5520027279853821,1.269571304321289,-1.4966760873794556
movielens100k.csv,-1.508591651916504,-0.9876287579536438,0.6989116072654724,-1.7244738340377808,0.36676180362701416,-1.0725773572921753,-0.5162283778190613,-0.8284854888916016,0.7912434935569763,-1.9775313138961792,-0.005834302399307489,-0.391655832529068,-0.22676831483840942,-1.6739636659622192,0.2962520122528076,-0.8914175033569336,0.32906949520111084,1.784171462059021,-0.8781687021255493,-0.6544527411460876,-0.305775910615921,0.47461217641830444,-0.4181309640407562,0.9687151312828064,-2.4019572734832764,-0.45734310150146484,0.02372664213180542,-0.4447261691093445,0.5767560005187988,-0.6715922355651855,1.0037158727645874,2.9948911666870117,-2.1103408336639404,0.32188957929611206,-0.21137256920337677,-0.09553156793117523,-1.569751262664795,2.0583267211914062,1.3717504739761353,0.5522359609603882,-0.9268133044242859,0.5800320506095886,-0.2680537700653076,-2.086397409439087,-0.3566051423549652,0.42413607239723206,0.5177736282348633,-1.4988566637039185,-0.3028753399848938,0.04101433977484703,-0.27891865372657776,-1.6470998525619507,0.7202789783477783,-0.42333123087882996,-0.41697922348976135,-1.1963905096054077,-2.7868034839630127,0.618362545967102,-1.4630987644195557,-1.1450133323669434,0.11802513152360916,1.4953800439834595,0.3647259771823883,-1.4575940370559692,-0.04023300111293793,0.9377802014350891,0.3441530466079712,0.12047027051448822,-0.4226817190647125,-0.2586999237537384,0.3563922345638275,1.250144124031067,-0.04023362323641777,-0.2432749718427658,-0.2365051954984665,0.610988199710846,1.2847626209259033,-0.21563079953193665,-0.9017044305801392,-0.433451771736145,-0.07931696623563766,1.524244785308838,0.14782440662384033,0.34551456570625305,0.554222583770752,-0.5219194293022156,1.1949690580368042,1.2163541316986084,0.5144935250282288,0.21903222799301147,-0.8493678569793701,-0.19035467505455017,-0.6793422698974609,-0.038285013288259506,0.9452061653137207,0.2027054876089096,0.2065754234790802,-0.1493747979402542,-1.3390940427780151,-0.6333892345428467,-1.166059136390686,0.24621203541755676,-0.9520242810249329,-0.22928667068481445,-0.3821598291397095,0.06281375139951706,-1.1999393701553345,3.5340795516967773,0.8249201774597168,0.7539952993392944,0.9060992002487183,2.4748644828796387,-0.5635632872581482,-0.3842889666557312,1.6393197774887085,-0.8516343235969543,-0.320198655128479,-0.5043421983718872,0.9270911812782288,1.0303272008895874,-1.6957975625991821,-0.6390156149864197,0.36293837428092957,0.28291088342666626,0.9785991311073303,0.8952429294586182,-0.993760883808136,-0.23201055824756622,1.8918005228042603,0.09548046439886093,1.286311149597168,-0.5173463225364685,2.5607497692108154,-0.745718240737915,0.29602381587028503,0.18443316221237183,-0.10860806703567505,-0.5672919154167175,-1.6458816528320312,0.8558357954025269,-0.5812481641769409,0.19370333850383759,-0.13024990260601044,0.16449172794818878,-0.7038862109184265,0.6105432510375977,-1.089884638786316,0.4727742075920105,-0.8461361527442932,2.6056644916534424,-0.37705695629119873,1.7923738956451416,-0.3357459008693695,0.05416765809059143,0.6218639016151428,-0.6858521103858948,0.19379432499408722,0.23176069557666779,-0.6607759594917297,1.2779806852340698,-0.35852906107902527,0.36813536286354065,0.24185895919799805,-1.509010672569275,0.9594460129737854,-0.3968479335308075,-1.0925476551055908,1.2194478511810303,1.2415704727172852,-0.32642364501953125,0.18552714586257935,-0.7011448740959167,1.1591435670852661,-0.0974898636341095,-1.4841519594192505,-0.13174527883529663,-0.47150135040283203,0.39686334133148193,-0.2642872631549835,-0.539504885673523,0.251522421836853,0.1654602438211441,1.028220295906067,-1.259778618812561,-0.12165375053882599,-0.6100905537605286,0.9467610716819763,0.996974766254425,0.0595717579126358,1.970633864402771,-0.6747772693634033,-1.0378392934799194,-1.0394989252090454,0.5364487171173096,0.0578741617500782,-1.1670734882354736,-0.7724830508232117,-0.7289457321166992,0.7791596055030823,-1.2794804573059082
tripadvisor.csv,-0.22376804053783417,-2.5402746200561523,-9.821244020713493e-05,-0.7591589689254761,-0.3312801122665405,-0.9046259522438049,0.8780044317245483,0.037114523351192474,-0.39017757773399353,-0.4783169627189636,-0.16628588736057281,0.30465883016586304,-2.0769386291503906,0.0581725649535656,1.0146924257278442,0.0572235994040966,0.6116241216659546,2.5435807704925537,0.05022067949175835,-0.36650070548057556,-0.6310085654258728,0.0356702096760273,-0.8110787868499756,-0.10502206534147263,-1.0312457084655762,-0.046358622610569,0.20539987087249756,1.4237953424453735,1.0797629356384277,0.42052415013313293,-0.5446056127548218,2.0348291397094727,-1.1782554388046265,-0.045984167605638504,-0.2839677929878235,-0.29690849781036377,-0.5396876335144043,-1.012926697731018,1.0945367813110352,0.3922143280506134,-0.2165091335773468,0.11564554274082184,-0.20433148741722107,-1.4971147775650024,-1.1515089273452759,0.19823254644870758,-2.074901819229126,-0.9908468723297119,1.3195801973342896,0.03549578785896301,1.6268988847732544,-0.7470754384994507,-1.116961121559143,-1.0387225151062012,-0.9405224323272705,0.6549202799797058,-1.5213924646377563,-0.9642049670219421,-1.2908551692962646,-0.3884929120540619,-0.9490317106246948,-0.28085678815841675,-0.3727089464664459,-2.751814603805542,1.8361119031906128,0.7468311786651611,-0.4428197741508484,0.1913132220506668,1.1602193117141724,-0.030042970553040504,0.059473756700754166,0.6357757449150085,0.5032501816749573,-1.461421251296997,0.1724538505077362,0.7468553185462952,1.301172137260437,0.1594519317150116,-0.8848326802253723,0.8373150825500488,-0.8511725664138794,0.1830216944217682,0.9927566647529602,-0.6482772827148438,0.03077840991318226,-1.6989697217941284,1.0261991024017334,-0.33827653527259827,-0.7283161282539368,0.34100601077079773,-0.050320692360401154,-2.199366331100464,0.7589741945266724,0.1951799988746643,-0.3836522698402405,-0.8196643590927124,0.2063467651605606,0.4230949580669403,-0.6408581733703613,0.30721861124038696,-1.0182466506958008,0.07743144035339355,0.019054066389799118,0.15501189231872559,0.19770421087741852,-1.0347079038619995,0.08141574263572693,3.395426034927368,0.013286133296787739,0.27976566553115845,0.5173203349113464,1.412946343421936,-0.7469785213470459,-2.836087465286255,-0.3202778398990631,0.15308229625225067,-0.30819034576416016,0.08037637174129486,0.18879252672195435,1.4173979759216309,-0.3430127799510956,-0.5476573705673218,1.0080758333206177,-1.1517106294631958,-0.2885252833366394,-0.5295004844665527,-0.08655263483524323,0.31525707244873047,0.34172090888023376,0.5153728723526001,0.5877341032028198,0.7430623769760132,1.2821561098098755,-0.7991539835929871,0.14156322181224823,1.2869101762771606,-0.03852846473455429,0.23624490201473236,-1.0666223764419556,-0.29197368025779724,1.3676776885986328,-0.15656700730323792,-1.6360329389572144,0.4734651744365692,-2.125514507293701,2.0661075115203857,0.8828218579292297,-1.8509387969970703,0.3939744532108307,1.6255602836608887,-0.8849035501480103,1.5514756441116333,0.12557882070541382,0.2100798338651657,-0.7108444571495056,-0.06275040656328201,-1.231164574623108,-0.07089079916477203,1.0071260929107666,1.7493544816970825,0.5264893174171448,-1.7362548112869263,0.5813738107681274,1.1939010620117188,2.0380914211273193,-0.814687192440033,-1.2737692594528198,-0.612474262714386,0.34657931327819824,0.3672153651714325,-1.1783833503723145,0.5239953398704529,1.6490572690963745,0.062455371022224426,-0.7887247800827026,-0.4547473192214966,-0.2699941396713257,-0.21331991255283356,-1.6447175741195679,1.0801520347595215,-0.5480286478996277,0.7579264640808105,0.7503921389579773,-1.277614712715149,0.38552752137184143,-1.0063316822052002,0.6869020462036133,1.0706114768981934,-0.009660487994551659,1.2474030256271362,-0.2728281319141388,-0.23931877315044403,-2.232649087905884,1.6778916120529175,0.5320409536361694,0.8817123174667358,-0.6195429563522339,-0.002990548498928547,1.4466989040374756,-0.23789912462234497
movielens1m.csv,-1.449407696723938,-0.7175105810165405,0.8204337954521179,-1.1198822259902954,-0.2092369794845581,-2.233773708343506,-1.3593833446502686,-0.9830707907676697,-0.6215384602546692,-0.5447097420692444,1.8114678859710693,0.9874030947685242,-1.7864084243774414,-0.8357277512550354,1.3483092784881592,0.5187438130378723,0.828384518623352,-0.5192204713821411,-0.29048317670822144,-0.804840087890625,-0.7428848147392273,0.2584984600543976,-0.6045393347740173,-0.25906428694725037,-1.6933350563049316,1.1038323640823364,-0.8583992123603821,0.8162334561347961,-0.21676388382911682,0.3837584853172302,-0.2816791832447052,1.7355505228042603,0.284704327583313,-0.6358510255813599,-0.13819946348667145,-1.7158101797103882,0.6132004261016846,-0.5280600786209106,-0.23057787120342255,-1.3647079467773438,-0.6198094487190247,0.3600471019744873,-1.1884044408798218,0.4086410105228424,-0.3032469153404236,0.3012804090976715,-1.470824122428894,-2.1533713340759277,0.8686431646347046,0.19977232813835144,0.42177194356918335,0.40920576453208923,-0.4504816234111786,-1.0179795026779175,-0.799898624420166,1.0373635292053223,-2.766554594039917,-0.38848599791526794,0.12039051204919815,-1.1536694765090942,-0.5221726298332214,1.6395972967147827,-0.33989349007606506,-1.2785053253173828,0.7905628085136414,1.3894217014312744,0.03298052400350571,1.6396839618682861,0.24130594730377197,-1.0662997961044312,1.021254539489746,0.5531495809555054,-0.43471723794937134,-0.6304829716682434,2.1962995529174805,2.1390342712402344,0.9785223007202148,-0.5411525368690491,-0.4353570342063904,0.4453551471233368,-0.3809809684753418,0.529571533203125,-1.2452075481414795,-0.6371623873710632,-1.7811455726623535,-1.6822041273117065,0.5990609526634216,-0.37715262174606323,-0.26133471727371216,0.41285279393196106,0.5713194012641907,-0.8578706979751587,-0.3550221025943756,0.11839848756790161,0.35961800813674927,0.45287245512008667,-0.6567573547363281,0.6931884288787842,0.06889340281486511,-0.2221841812133789,0.13497771322727203,-0.6429727673530579,-1.61117684841156,0.4796169698238373,-0.9244739413261414,0.6092615723609924,-0.6109777092933655,1.6890997886657715,0.7854743003845215,-0.51252681016922,-0.9370864033699036,1.3198310136795044,0.5946195721626282,-0.13871701061725616,-0.1477234661579132,-0.547214150428772,0.13295142352581024,-1.6021779775619507,0.8263939023017883,2.731705665588379,-0.31225237250328064,0.3160795271396637,0.0647551566362381,0.2740555703639984,-0.035899773240089417,1.0525944232940674,-0.6303086280822754,-0.4440798759460449,0.9732152223587036,-0.34118300676345825,1.9942635297775269,-0.2748974561691284,2.5787458419799805,-0.3526040017604828,0.6249545216560364,1.8144272565841675,1.1767206192016602,0.03007195144891739,-1.2449009418487549,0.482382208108902,0.15218281745910645,1.5376471281051636,0.6141335368156433,0.2637276351451874,-1.0173368453979492,0.9191069006919861,0.7348383665084839,-1.3749172687530518,0.38045597076416016,1.6484218835830688,0.10914964973926544,-0.2998071014881134,0.10389114916324615,0.6195510029792786,0.16522334516048431,1.0251246690750122,-0.5832853317260742,0.156801238656044,1.826570987701416,1.3186781406402588,-0.5059324502944946,-0.9582269787788391,-0.4188636541366577,1.3153153657913208,-0.0432681180536747,0.16449964046478271,-1.37174391746521,0.44928625226020813,0.7437757849693298,0.08537454158067703,-0.7321364879608154,0.5986196398735046,1.5836119651794434,-0.36330175399780273,-1.6717240810394287,0.3157259225845337,0.2243117243051529,-0.579156219959259,-0.6790971159934998,0.25439703464508057,-0.5683276653289795,0.36576855182647705,-0.3168252110481262,-1.2116942405700684,0.9483947157859802,-1.5538794994354248,1.1779483556747437,1.6745615005493164,0.47577178478240967,1.8739296197891235,-1.0109626054763794,-1.3481659889221191,-0.8248185515403748,1.9387168884277344,-0.4308873116970062,1.6843218803405762,-1.1710455417633057,0.8510386943817139,1.3562235832214355,-0.33710744976997375
amazon-games.csv,-1.1272521018981934,-1.7416231632232666,0.77556312084198,-1.6691160202026367,-1.2016732692718506,-0.03641955554485321,0.3939417898654938,0.14279192686080933,-1.0690193176269531,0.038592856377363205,0.18216224014759064,0.0809725970029831,-0.22875019907951355,0.2794637680053711,-0.583870530128479,0.5936181545257568,-0.03488384932279587,2.101407766342163,0.2106161117553711,0.3683170676231384,-1.4526991844177246,0.3356723189353943,-0.9821454286575317,0.7979680895805359,-0.8043192028999329,-0.5431333184242249,-2.0587069988250732,-1.5294688940048218,1.464962363243103,-0.5146836042404175,-0.8523532748222351,2.2770471572875977,-0.9040155410766602,0.12147770822048187,-0.565819501876831,-1.0698113441467285,-1.1544440984725952,-0.2793043255805969,0.033578768372535706,0.16644909977912903,0.748969316482544,-0.6599856019020081,-1.4201289415359497,-0.5578340291976929,-0.29831463098526,1.2258667945861816,-0.17040622234344482,-1.3705483675003052,0.22928696870803833,0.691015899181366,-0.3346041738986969,-1.088968276977539,0.19769889116287231,0.2334565818309784,0.8158778548240662,0.9017058610916138,-1.4199159145355225,-0.24985752999782562,-0.8998045921325684,-1.1375837326049805,-0.7094500064849854,-1.0160531997680664,-0.48925983905792236,-2.3861637115478516,0.5457590818405151,1.1183936595916748,-0.05885319411754608,1.4766829013824463,1.731650948524475,-1.7452852725982666,-0.5329180359840393,-0.9982413053512573,0.9660172462463379,1.0175126791000366,0.7763031125068665,1.1409474611282349,1.874868631362915,0.37769022583961487,-1.958268642425537,0.43266987800598145,-0.5686195492744446,-0.467721551656723,-0.2302483469247818,-0.08073621988296509,1.5157109498977661,-0.9535688161849976,0.24146229028701782,0.2875804007053375,0.15388095378875732,0.9943900108337402,-0.9843270778656006,-1.923288106918335,0.7157797813415527,1.5303925275802612,1.2735207080841064,1.1159554719924927,0.20158514380455017,-0.2471814751625061,-1.0272477865219116,0.02530025504529476,-0.3067649006843567,-0.3235374987125397,-0.08923004567623138,-1.4341574907302856,-0.4741586446762085,-0.4869443476200104,0.504437267780304,1.9465569257736206,-1.1831295490264893,0.8871609568595886,0.2611190676689148,0.5462231040000916,-0.8057198524475098,-2.4994893074035645,0.2791914939880371,-2.067976474761963,-0.0027325365226715803,-0.6476548314094543,0.13068896532058716,0.8917611241340637,-0.8155789971351624,0.1015724167227745,0.19980429112911224,-1.1904679536819458,-1.0230417251586914,-1.111488938331604,-1.3330010175704956,0.6388236284255981,0.6695998311042786,-0.39885780215263367,2.349579095840454,0.7841542363166809,0.9126496911048889,-0.5724216103553772,0.5597004890441895,0.5609472990036011,-1.041274070739746,-0.4587688446044922,-1.142978549003601,0.04943036288022995,0.8914614915847778,0.0677403062582016,-0.10262414813041687,-0.0777873620390892,-1.4067891836166382,1.0232881307601929,-0.1625615656375885,-0.5676539540290833,-1.2565633058547974,1.8017148971557617,-0.09306230396032333,0.36367887258529663,0.2510160505771637,-1.0706024169921875,0.5143292546272278,0.32990527153015137,-0.9603189826011658,0.16789662837982178,1.531281590461731,1.9631035327911377,0.5108512043952942,-0.12677910923957825,1.3056225776672363,0.9584313035011292,0.30541786551475525,-1.3549457788467407,-0.2716030180454254,-0.689970076084137,-0.31494173407554626,-0.9716123938560486,0.7353945970535278,-0.029136838391423225,1.4800490140914917,-1.3493013381958008,-1.1805492639541626,-0.8606333136558533,-1.4353160858154297,0.6659914255142212,-0.47894978523254395,0.187941774725914,1.1427584886550903,0.257915735244751,-1.1632983684539795,-0.54231196641922,-0.2358471304178238,-1.307275414466858,0.5439102649688721,-0.4025155305862427,1.7732417583465576,0.9934864640235901,-0.1345123052597046,-0.4624579846858978,-1.353561282157898,2.31003999710083,-0.5559422969818115,1.1616020202636719,-1.1847140789031982,0.1685982495546341,2.5505166053771973,0.0991373360157013
amazon-instruments.csv,-1.5769383907318115,-3.2154698371887207,1.2330920696258545,-0.5433254241943359,-2.5884602069854736,0.2591790556907654,-0.9448161721229553,-2.191849708557129,-0.23399288952350616,-0.005589733365923166,0.1795509308576584,0.8122830390930176,-0.8146971464157104,-0.29904335737228394,-0.27779820561408997,-0.05443694815039635,1.0131545066833496,0.4730798900127411,-1.1422505378723145,-1.2247002124786377,-2.182037115097046,1.7346590757369995,-1.2860592603683472,0.3136695325374603,-0.6920688152313232,-0.5291134715080261,-1.5907541513442993,-0.6315755248069763,1.0795308351516724,0.7413669228553772,0.5783756375312805,1.5131895542144775,0.5480118989944458,0.4271721839904785,1.0035866498947144,-0.6721693277359009,-0.727976381778717,-0.1523021161556244,1.232831597328186,-0.3488641381263733,-0.26493561267852783,-0.6469330191612244,-0.3120773434638977,-1.8226863145828247,-0.28274282813072205,-0.004712268710136414,-0.7422399520874023,-2.023502826690674,0.5969813466072083,-0.25634294748306274,-1.2142970561981201,-1.5912526845932007,-0.6896026730537415,1.0515861511230469,-0.6468616127967834,-0.1475251168012619,-1.3659181594848633,-0.5494672060012817,-0.05328797549009323,-1.2718490362167358,1.071258306503296,-0.1250317543745041,-0.595005214214325,-0.9279699921607971,0.8359463214874268,0.7741131782531738,-0.5397000908851624,-0.2239413857460022,-0.32318824529647827,0.8566805720329285,-1.0186350345611572,-0.6984803676605225,0.7682708501815796,-0.3387107849121094,1.2318320274353027,0.35589849948883057,1.4212371110916138,-0.5885905623435974,-0.6027040481567383,0.4009135067462921,0.9983015060424805,-0.1861405372619629,0.6712643504142761,-0.8316473960876465,-0.9640414118766785,-1.044151782989502,-0.4202073812484741,0.16395124793052673,-0.530301034450531,1.3944401741027832,0.14867877960205078,0.20754604041576385,0.18081220984458923,-0.236105278134346,0.6591756343841553,-0.7768429517745972,0.04962730407714844,-0.048403527587652206,-2.552579402923584,1.3112030029296875,-0.946544885635376,-0.059641655534505844,-0.5363220572471619,0.266301691532135,0.257659375667572,-1.3882107734680176,-1.1128296852111816,2.506859540939331,-1.6367110013961792,-0.13823311030864716,1.9547044038772583,0.5659191012382507,-0.8333267569541931,-1.6574183702468872,-0.5415475368499756,-0.7327149510383606,-0.2941620349884033,-1.677398443222046,-0.2000778764486313,0.41076430678367615,0.3708168566226959,0.41447553038597107,0.9004202485084534,-0.7586528658866882,-0.9982067942619324,0.4637540876865387,-0.7867767214775085,0.708156943321228,0.5988995432853699,-0.920982301235199,1.8167766332626343,1.1247930526733398,1.0711547136306763,-1.4089264869689941,-0.8723942041397095,0.5369347929954529,-0.18935273587703705,0.1629544198513031,-1.3376877307891846,-0.33504554629325867,-0.8209260106086731,-0.5526073575019836,0.17463789880275726,0.8166851997375488,-0.8596661686897278,0.2894156873226166,0.15156275033950806,-0.22535847127437592,0.3488346040248871,0.5446698665618896,-1.4094910621643066,2.102651834487915,-0.35993432998657227,0.4381350874900818,-0.9045911431312561,-0.1863970011472702,-0.6308766603469849,0.9775984287261963,2.043937921524048,0.7792733907699585,-0.609035313129425,-0.7625568509101868,2.1384122371673584,1.9386777877807617,1.79513680934906,0.016159793362021446,-0.5519740581512451,-1.1475929021835327,0.19486865401268005,-0.8236626982688904,-0.44395002722740173,-0.843238353729248,0.43517613410949707,0.304663747549057,-1.655738115310669,0.3117716908454895,-0.2859719395637512,-0.7972164750099182,-0.3789956867694855,0.3638225197792053,-0.018974777311086655,-0.19891099631786346,0.4056723415851593,-0.7390776872634888,0.2175537347793579,-1.3536893129348755,-0.9466919898986816,0.4714689552783966,0.12830619513988495,2.252790689468384,0.3429509997367859,1.1679848432540894,-1.4989652633666992,1.7980785369873047,0.5892666578292847,1.3959059715270996,0.4207766652107239,0.08420176059007645,1.7359946966171265,-0.45814675092697144
amazon-toys.csv,-1.7617987394332886,-2.2367122173309326,1.0807138681411743,-0.3157980442047119,-1.1972707509994507,-0.6620334982872009,-0.17647965252399445,-0.27235108613967896,-1.3245075941085815,-0.5529631972312927,0.2548997104167938,1.1341243982315063,-0.48879775404930115,-0.5281000733375549,0.6064590811729431,0.7221208810806274,0.21401488780975342,1.622066617012024,0.35443830490112305,-1.9995452165603638,-1.0493565797805786,0.017732970416545868,-1.1883457899093628,1.0242046117782593,-0.957316517829895,-0.3166412115097046,-0.4886337220668793,-0.5428813695907593,0.5028285980224609,-0.7959690093994141,-0.2758234143257141,2.2271289825439453,-0.5453118681907654,1.080925703048706,-0.6467347741127014,-1.2353311777114868,-0.5947407484054565,0.20162922143936157,-0.015327434986829758,0.23902879655361176,-0.13213814795017242,0.08443405479192734,-0.6620482802391052,-1.8928163051605225,-1.2872580289840698,0.6452767848968506,0.2465839684009552,-0.13282282650470734,1.439125657081604,0.046704307198524475,0.4216105341911316,-0.7583362460136414,-1.0000172853469849,-0.6686846017837524,-0.5401803255081177,1.525404930114746,-2.5133423805236816,-0.8771275281906128,-1.9028642177581787,-0.8607896566390991,-1.7965956926345825,-0.5864532589912415,-1.5963746309280396,-1.886184573173523,1.3624614477157593,0.854813814163208,1.0213189125061035,0.31614238023757935,-0.09750169515609741,-0.7509074211120605,-1.5470037460327148,0.02133629284799099,0.7105539441108704,-0.6647235751152039,0.3499734401702881,1.326393485069275,1.8867690563201904,-0.7412086129188538,-0.8761287331581116,0.4845123291015625,-1.1760053634643555,-1.0229241847991943,0.1919793337583542,0.26391491293907166,0.10485678911209106,-1.4822733402252197,0.9180395007133484,1.7519848346710205,-1.544736385345459,-0.5528740882873535,-0.5910933613777161,0.02111644670367241,0.537237823009491,1.3679426908493042,-0.27729111909866333,0.31265944242477417,0.6205925345420837,0.5895506739616394,0.1320464313030243,-0.42204245924949646,-1.1057260036468506,0.7038732767105103,-0.9621621370315552,-0.01207553781569004,-0.38329580426216125,-0.5367018580436707,0.041746754199266434,1.9163652658462524,-0.47248339653015137,0.35862573981285095,0.5330731272697449,1.8331727981567383,0.128340944647789,-1.257102608680725,-0.6984812617301941,-0.9910657405853271,0.6152704954147339,-1.731065273284912,-0.46375536918640137,0.9460086226463318,-0.18449287116527557,0.6894093155860901,0.4965045750141144,0.1453188955783844,0.5675351023674011,-0.35154756903648376,0.27480870485305786,1.156941294670105,0.1538117676973343,-0.5364274978637695,0.9961409568786621,1.1681842803955078,0.8136934638023376,0.33382871747016907,0.1736489087343216,1.0635112524032593,-0.4003772437572479,-0.6219310164451599,-1.3027781248092651,-0.6707531213760376,0.6781527400016785,-0.25945600867271423,-1.2517921924591064,0.5373278856277466,-2.16888689994812,0.9698718190193176,1.0792194604873657,0.23662427067756653,-0.19738468527793884,2.4826788902282715,0.08340071141719818,2.5862512588500977,0.7494354844093323,1.3202325105667114,-0.16958016157150269,-0.7424482703208923,-1.2066326141357422,-0.18797807395458221,2.0884366035461426,0.8160220980644226,-0.20216721296310425,-1.3016718626022339,1.5534987449645996,1.1969754695892334,1.8458794355392456,0.6327425837516785,-0.9456044435501099,0.06841350346803665,-0.2610798478126526,0.2752055823802948,-0.2797437608242035,0.563880205154419,1.3060499429702759,-0.4020023047924042,-0.9990322589874268,-0.36944305896759033,-1.2987147569656372,-0.013163368217647076,-0.5113399028778076,0.22259674966335297,-0.2793234586715698,0.35536089539527893,0.38171935081481934,-1.8750485181808472,-1.0163636207580566,-1.300958275794983,1.7031772136688232,0.6300908923149109,0.1615670621395111,1.292145013809204,-0.4306548535823822,0.7975010275840759,-1.6918678283691406,1.2543388605117798,-0.5658982396125793,0.6349993944168091,-1.2243685722351074,0.26177844405174255,1.748984932899475,-0.7163538932800293
amazon-automotive.csv,0.1074129194021225,-1.588815450668335,0.2480604201555252,-0.737524688243866,-1.5266298055648804,-0.5212478041648865,-0.46614691615104675,-0.32561150193214417,-1.1308748722076416,-0.017085609957575798,-0.5211242437362671,1.5028975009918213,-1.4456204175949097,-0.7812467217445374,0.22844314575195312,0.35217905044555664,-0.38636907935142517,1.3053779602050781,0.3156396448612213,-1.0635128021240234,-0.5020755529403687,1.452832579612732,0.3633495569229126,0.3867564797401428,-1.207617163658142,-1.4078704118728638,-0.6638069152832031,0.27005159854888916,0.8476924300193787,1.0290380716323853,-0.9756729602813721,1.3311939239501953,-0.24786682426929474,0.36638620495796204,-0.6074467897415161,-0.579724907875061,-0.38433006405830383,0.0623188391327858,1.2759016752243042,1.107051968574524,0.2519143521785736,1.5094252824783325,-1.0393807888031006,-1.5462243556976318,-1.0395246744155884,0.6483526229858398,0.14663656055927277,-1.242471694946289,0.11343009769916534,0.9462961554527283,-0.18006213009357452,-1.3164184093475342,-0.6961118578910828,-0.20650655031204224,-0.392657995223999,1.28371262550354,-2.744235038757324,0.2171325832605362,-0.8900876045227051,-0.9509868621826172,-0.402129590511322,0.04173470288515091,-0.7623275518417358,-2.0509159564971924,2.1673080921173096,1.897085189819336,0.5517940521240234,-0.4206017851829529,-0.019401906058192253,0.616756796836853,-1.4273067712783813,0.043085768818855286,0.2486036866903305,-0.620764434337616,-0.012306070886552334,1.3320330381393433,2.0526607036590576,-1.2152409553527832,-1.3200697898864746,0.22671295702457428,-0.6834844946861267,0.3613632023334503,1.4637970924377441,0.34303173422813416,-1.5494837760925293,-1.3391090631484985,-0.12789951264858246,2.055575370788574,-1.3869752883911133,0.9947304129600525,-0.23851899802684784,-0.748938262462616,-0.06814727932214737,1.2344169616699219,0.27498331665992737,1.0713319778442383,-0.08843839168548584,-0.06946247071027756,-0.7197442650794983,-0.8517410755157471,-1.1968944072723389,0.4578130543231964,-0.3827693462371826,-1.0684020519256592,0.055805400013923645,-0.3874621093273163,0.0363738015294075,1.241744041442871,0.304331511259079,-0.2641281485557556,-0.15486088395118713,1.326481819152832,0.13849039375782013,-2.1029605865478516,-0.882758378982544,-1.202938437461853,0.7242193222045898,-0.5546300411224365,0.11006423085927963,1.0766164064407349,-0.2507938742637634,1.594894289970398,0.44211822748184204,0.17531049251556396,0.1333160102367401,0.13777099549770355,-0.5379243493080139,-0.03091006726026535,0.5150220394134521,-0.10529381781816483,0.4661625921726227,0.7841066122055054,1.4305444955825806,-1.4044157266616821,0.0908757820725441,2.020691156387329,-0.23361149430274963,-0.7160075306892395,-1.212525725364685,-0.8322461247444153,-0.152057483792305,-0.33165669441223145,0.09109557420015335,1.9007688760757446,-1.5418230295181274,0.6636729836463928,0.6942781209945679,-0.10897042602300644,0.12502601742744446,1.8861178159713745,-0.9136677980422974,2.3927154541015625,0.36720848083496094,1.4187467098236084,0.10894213616847992,-1.4323137998580933,-0.7769988179206848,0.3602142035961151,1.5978530645370483,1.1528655290603638,-0.46889445185661316,-1.144331693649292,0.9246286749839783,0.08165717869997025,1.7294926643371582,0.4045718014240265,-0.575510561466217,0.10606498271226883,-0.3881901204586029,-0.4488788843154907,-1.5692648887634277,-0.18421363830566406,1.6806706190109253,-0.6898153424263,-1.870529294013977,-0.1867377609014511,-0.5943188667297363,-0.9547321200370789,-1.030336618423462,-0.8624078035354614,-0.8576836585998535,-0.20052215456962585,1.358870267868042,-1.4156641960144043,-0.5147799849510193,-1.093268871307373,0.8725810050964355,1.4978141784667969,0.576930046081543,1.4871543645858765,-0.44110241532325745,1.0734360218048096,-1.0640251636505127,1.6227368116378784,0.5452405214309692,1.8661384582519531,-1.1726653575897217,-0.07949711382389069,2.0835204124450684,-0.20909923315048218
bookcrossing.csv,-1.602692723274231,-1.7652416229248047,-0.5082613825798035,-0.08769851177930832,-1.361434817314148,-0.8855253458023071,-1.0007174015045166,-0.8578669428825378,-0.19627366960048676,-0.5142478942871094,-0.2890150845050812,-0.566354513168335,-1.2001256942749023,-0.5868987441062927,1.1350992918014526,-0.4158402979373932,0.1213507130742073,2.840252161026001,-0.8695532083511353,-1.7390509843826294,-1.093995213508606,-0.35586273670196533,-1.4231935739517212,-0.4065813422203064,-2.3745782375335693,-0.643632709980011,-0.7663175463676453,0.3098333477973938,0.7253974676132202,-1.334120512008667,-0.2582964301109314,2.037917375564575,-0.08122869580984116,2.1425015926361084,-0.3959428668022156,-0.39836323261260986,-0.3650141954421997,0.1754014939069748,-0.23173829913139343,0.5641050934791565,-0.9764105081558228,1.2052644491195679,-0.5471946001052856,0.2554325461387634,-0.9042695164680481,0.16009216010570526,0.9704612493515015,-0.815123975276947,-0.022453172132372856,-0.40133100748062134,-1.1222015619277954,-1.6296602487564087,-0.7425699234008789,-1.3044763803482056,0.45368102192878723,1.9036657810211182,-1.3664783239364624,-0.18050824105739594,-0.4896237254142761,-2.326051950454712,-0.4761142432689667,-0.9215443730354309,-0.4358203709125519,-1.4379911422729492,0.5312278866767883,0.6071579456329346,0.535169780254364,-0.41147032380104065,-0.04874781146645546,-0.27606943249702454,-0.18042388558387756,-0.8370011448860168,0.3410484194755554,1.7163467407226562,0.49747052788734436,0.9215465188026428,1.2272026538848877,0.3731619417667389,-0.07615070790052414,1.3963730335235596,0.003973336890339851,0.2833181321620941,0.3207694888114929,-0.09398365020751953,0.15298467874526978,-0.3853701651096344,1.2990721464157104,0.2280457764863968,1.125519037246704,1.6573810577392578,0.29482677578926086,-0.2816142439842224,0.6369276642799377,0.6129257678985596,0.08347839117050171,-0.37544122338294983,-0.2761014699935913,-0.2154845893383026,-0.4163013994693756,-0.06845463067293167,-0.6671472191810608,-0.3414818048477173,-0.6026666760444641,-0.4539509117603302,0.753757119178772,-0.21080689132213593,-0.2168235331773758,2.557157278060913,-0.21840646862983704,-0.8514470458030701,0.16092287003993988,0.9448755979537964,0.8817611932754517,-0.14644192159175873,-2.463796854019165,-1.4310355186462402,-0.5227002501487732,-1.5349786281585693,-0.05529467761516571,0.9320551156997681,0.4652640223503113,-0.03941455855965614,-0.8230999112129211,-0.382642924785614,0.9966127276420593,-0.34723132848739624,-0.4457051157951355,0.73736971616745,1.456416368484497,0.17742110788822174,2.371853828430176,0.6793763041496277,2.095933198928833,-0.7110002040863037,-0.18411603569984436,1.7668803930282593,0.5479316115379333,-0.6451678276062012,-2.4906885623931885,-0.9837427735328674,-0.15701334178447723,-1.0048680305480957,-0.8906812071800232,0.7199744582176208,-1.1141098737716675,0.7508872747421265,-0.07128114253282547,-1.178720474243164,-0.049342796206474304,1.9065394401550293,-0.10374263674020767,2.2185893058776855,0.7723106741905212,1.0250918865203857,-0.6887533664703369,-1.157887578010559,-0.9703372120857239,-0.027746101841330528,0.5762373805046082,1.6899213790893555,1.4197064638137817,-0.3861272931098938,-0.1855582296848297,-0.2662386894226074,0.8771273493766785,-1.6506584882736206,-0.6145709753036499,-0.7752571702003479,-0.3971869647502899,-0.09085747599601746,-0.16013342142105103,0.6201903223991394,0.841076672077179,0.377501904964447,-0.600387454032898,-0.1790873110294342,0.18873919546604156,-0.3369573950767517,-2.1891441345214844,0.4809196889400482,0.7994911670684814,-1.31891930103302,1.4095909595489502,-1.6716967821121216,-0.1546289175748825,-1.1933636665344238,1.06850004196167,-0.5310436487197876,0.018793771043419838,1.326614499092102,-0.4874992370605469,-0.4486636519432068,-1.3607913255691528,1.3370555639266968,0.657077431678772,-0.6896364092826843,-1.3729562759399414,-0.26016291975975037,2.0968964099884033,-0.29915690422058105
amazon-tools.csv,-1.3275196552276611,-2.8790671825408936,0.20978300273418427,-0.974153459072113,-1.7494369745254517,-0.10512173175811768,-0.5277793407440186,-0.7169027328491211,0.0366993173956871,-0.8384425640106201,0.995031476020813,1.0778552293777466,0.6577758193016052,-0.3559338450431824,-0.9281455874443054,-0.4598829448223114,1.3244915008544922,1.744428277015686,0.3589651584625244,-0.9928584694862366,-1.6377902030944824,-0.5126721262931824,-0.11647623777389526,0.26586198806762695,-2.1895363330841064,0.6169297695159912,0.31352123618125916,0.9425860643386841,0.3833182752132416,-0.6886928677558899,0.42854446172714233,3.6461551189422607,0.3084052503108978,1.9762941598892212,-0.34929904341697693,-0.833695650100708,0.12460526078939438,0.9058973789215088,1.288840651512146,-1.403711199760437,-0.3880656659603119,0.23744221031665802,-1.0583196878433228,-1.7900145053863525,-0.41284996271133423,-0.8698992729187012,0.11878173053264618,-1.9672422409057617,-0.06081685051321983,0.4986353814601898,-1.012108325958252,-0.6752291917800903,-0.14563848078250885,-0.127919003367424,-0.7371912002563477,0.8926895260810852,-0.2837850749492645,0.26374363899230957,-0.833040177822113,-0.22082820534706116,0.007690384518355131,0.29941168427467346,-0.8415587544441223,-0.8829197287559509,2.073310613632202,1.3790621757507324,1.1365028619766235,0.2456868588924408,-0.19639956951141357,1.2957013845443726,-0.7563223838806152,0.09705307334661484,0.2761137783527374,-1.3134002685546875,-0.06512181460857391,0.49348244071006775,1.8224965333938599,0.5375851988792419,-0.02823615074157715,1.2170709371566772,-0.3188301920890808,0.6477394700050354,0.8187537789344788,-0.0574529804289341,-1.779842495918274,-1.6243809461593628,0.41476163268089294,0.12132328748703003,-1.1200120449066162,1.655953288078308,-0.11462464183568954,0.2559603154659271,-0.48764461278915405,-0.6745079159736633,-0.09791578352451324,0.6040472984313965,-0.6878010630607605,0.8678666353225708,-1.3368209600448608,-0.1418723613023758,-1.0727708339691162,0.88957679271698,-1.2775501012802124,0.6443690061569214,-0.25704336166381836,0.2945930063724518,-0.45601725578308105,1.020981788635254,0.23070986568927765,0.5140870809555054,0.5560592412948608,1.5852572917938232,-0.3398481607437134,-1.8408384323120117,0.010892918333411217,0.7062913775444031,0.5400214791297913,0.014237796887755394,0.3197401165962219,-0.7117846608161926,0.4159316122531891,0.8168070316314697,1.5334994792938232,-0.38123512268066406,-0.06050805002450943,-0.05678541213274002,0.4759495258331299,0.9472085237503052,-0.8065983653068542,-0.5881347060203552,1.3429718017578125,0.02420451119542122,0.6279245018959045,-1.601033329963684,0.31488996744155884,1.3206322193145752,-1.2839930057525635,0.07443440705537796,-0.6546632647514343,1.007563829421997,0.28783079981803894,0.41922053694725037,-0.6082341074943542,0.9808759689331055,-0.8241429924964905,2.7941477298736572,-1.7283129692077637,-1.7034815549850464,0.3819062411785126,1.582960605621338,0.3842851519584656,2.511246919631958,0.9981483221054077,0.5836941003799438,-0.6954972147941589,-0.3899432122707367,0.613899290561676,-0.017552534118294716,-0.13890177011489868,1.1163783073425293,0.4442361295223236,-1.1366469860076904,0.7116349935531616,0.1421964019536972,1.99314546585083,0.3704919219017029,-0.12847080826759338,-0.4902016520500183,-1.2475781440734863,1.3634977340698242,0.09011872112751007,1.013731837272644,1.0639806985855103,0.410965234041214,-1.391646385192871,0.5691545605659485,0.3375444710254669,0.5529943704605103,0.5407537817955017,-0.009377051144838333,-0.2824799120426178,0.7850845456123352,-0.34271618723869324,0.020900238305330276,-0.8336083292961121,-2.010071277618408,0.482809454202652,-0.18664677441120148,-0.15762877464294434,1.518399953842163,0.22610712051391602,-1.4008513689041138,-0.9562177658081055,1.5078151226043701,0.010973106138408184,1.2731770277023315,-1.3978885412216187,0.6753944158554077,2.11389422416687,-0.7665628790855408
movielens_latest.csv,-2.2614426612854004,-1.0105631351470947,1.0281741619110107,-0.26326483488082886,-0.7135586142539978,-0.8481202125549316,-0.776328980922699,-0.6716722249984741,-1.08016836643219,0.3391232490539551,-0.6010521054267883,0.23692235350608826,-1.1691163778305054,-0.4892125725746155,0.8025938868522644,-1.410319209098816,1.0116462707519531,1.6521164178848267,-0.4809861183166504,0.14285044372081757,-2.202113389968872,0.42608892917633057,-1.1250232458114624,-0.04772030934691429,0.2965303063392639,-0.7194519639015198,-1.8496078252792358,-0.191440150141716,0.16879460215568542,-0.49724212288856506,1.4517356157302856,0.5948147773742676,-0.3730851709842682,-0.5167033076286316,-0.3435690701007843,0.5081173181533813,-0.5946774482727051,0.5995103120803833,0.24909865856170654,-1.379783034324646,-0.8471934795379639,0.9896331429481506,0.10433782637119293,-0.15571843087673187,-0.459377259016037,-1.1215789318084717,0.099272720515728,-1.595442771911621,0.004483538679778576,1.0499478578567505,-0.3634757101535797,-0.16468629240989685,-1.4503517150878906,-0.6033628582954407,0.2273644655942917,0.3726195693016052,-0.7864663004875183,-0.18764819204807281,-0.7367234230041504,0.3797757029533386,1.306254506111145,0.537833034992218,-0.5064412355422974,-2.3768110275268555,0.04573337361216545,0.423714816570282,0.778806209564209,-0.49079206585884094,0.30550360679626465,-1.169373869895935,0.44309213757514954,-0.364035964012146,1.6175789833068848,-0.6148292422294617,1.9722799062728882,0.9902899265289307,0.14001640677452087,1.0997650623321533,-0.5382357239723206,-0.20803891122341156,1.8999735116958618,0.10855565965175629,-0.7091624140739441,-0.20768626034259796,0.226579487323761,-0.5546861290931702,0.9208292365074158,-0.11691983044147491,0.6550917625427246,1.5026196241378784,-0.694060742855072,0.996873676776886,-0.30347293615341187,-0.7084797024726868,-0.02424253709614277,0.673983633518219,0.565030574798584,-1.3179558515548706,-1.122227430343628,-0.8230957388877869,0.041973505169153214,0.078729048371315,-0.5304393172264099,1.2376089096069336,-0.0762367695569992,-1.05850088596344,-0.756708562374115,2.431718349456787,0.10512489825487137,0.11483112722635269,0.30000102519989014,-0.011271527968347073,-0.5230122208595276,-1.207876443862915,0.24182897806167603,-0.3312038779258728,1.1156357526779175,-1.7361950874328613,0.7100749015808105,1.8707343339920044,0.07943578064441681,0.7645096778869629,-0.39143702387809753,0.19438302516937256,0.3011558949947357,-0.40727487206459045,0.6934083700180054,-0.949907660484314,1.2276089191436768,0.8606479167938232,0.565166175365448,1.8757590055465698,0.6343598365783691,-1.1169461011886597,0.771512508392334,1.8214527368545532,-0.7261757850646973,0.31160998344421387,-2.368345260620117,1.3101543188095093,-1.8192894458770752,-0.4235571026802063,-2.4168760776519775,0.170516237616539,-1.172303318977356,2.820014715194702,-0.21379849314689636,0.6072877645492554,0.769167423248291,1.5031850337982178,-1.4082491397857666,1.9060473442077637,-0.9904873371124268,0.2870793044567108,-0.7918516397476196,0.062329988926649094,-1.351677417755127,2.04345703125,-0.43517857789993286,1.189558506011963,0.19276228547096252,-0.9429433345794678,1.4724470376968384,0.7338980436325073,1.6020790338516235,0.2549198567867279,-1.1187463998794556,1.557233452796936,0.2886750102043152,0.6798893213272095,1.0471755266189575,-0.25269532203674316,0.4056055247783661,0.46207723021507263,-2.616809606552124,1.0149731636047363,0.7313104867935181,0.46131378412246704,-0.6203930974006653,0.015243913978338242,-2.3586575984954834,-0.01235897932201624,1.0085386037826538,-1.1459791660308838,-0.04322371631860733,-1.3769922256469727,0.25254112482070923,0.6156920790672302,0.21559664607048035,-0.40457990765571594,-0.043838974088430405,-0.8831130862236023,-0.7671557664871216,0.48175060749053955,-1.0888032913208008,-0.01255677081644535,-0.25690799951553345,-0.566977322101593,1.8339269161224365,-1.2549575567245483
movietweetings_recsys2014.csv,-1.4537906646728516,-1.974300503730774,-0.09914978593587875,-1.2118887901306152,-2.09484601020813,-0.9799789786338806,0.0948825478553772,-0.36828628182411194,0.03373541682958603,-1.1058399677276611,-0.36542803049087524,1.0038436651229858,-0.9492578506469727,-1.4330683946609497,-0.7422760128974915,0.17759449779987335,0.19521479308605194,2.6119918823242188,-0.16318146884441376,-2.68645977973938,-2.2606449127197266,0.2872924506664276,-0.8724239468574524,-0.6489902138710022,-0.6335253715515137,-0.5257838368415833,0.16693320870399475,-1.3656706809997559,-0.23400206863880157,-1.3628714084625244,0.36849647760391235,1.0220870971679688,0.3696840703487396,0.0118416678160429,-0.21793292462825775,-0.8285673260688782,-0.08951838314533234,1.1209927797317505,-0.1842886209487915,-0.6953665614128113,0.8007291555404663,-1.144080400466919,-0.9040111303329468,-1.872331142425537,-0.4444041848182678,-0.6083138585090637,-0.7176836133003235,-0.8301436305046082,-0.39957186579704285,-0.39277541637420654,-1.3254961967468262,-0.9739315509796143,-0.5883397459983826,0.3062330484390259,-0.17785055935382843,0.9168153405189514,-0.7348127961158752,-0.8312007784843445,-1.8836520910263062,-1.4504265785217285,-0.22996686398983002,-0.40674450993537903,-1.595047950744629,-1.8724634647369385,0.5166778564453125,-0.3934125602245331,0.6432376503944397,1.1055876016616821,0.5752574801445007,0.1455717235803604,-0.48930245637893677,-0.38431453704833984,-0.4305513799190521,-1.2619532346725464,2.0414111614227295,-1.2110543251037598,0.6670821309089661,-1.8502308130264282,-0.21911802887916565,0.050757355988025665,0.2522120475769043,-0.6413540840148926,-0.4458777606487274,-1.6365599632263184,-1.5793720483779907,-1.5783181190490723,1.0776290893554688,1.1287463903427124,0.25483593344688416,-0.038982320576906204,0.1179986521601677,-0.4879150390625,-0.12620887160301208,0.8375693559646606,0.4098023772239685,-0.06657245010137558,-0.5860443115234375,-1.3084396123886108,-0.04116499796509743,1.228536605834961,-0.45720961689949036,1.1726435422897339,-0.7806038856506348,-0.018380628898739815,-0.07979777455329895,0.5942310690879822,1.35116446018219,2.9895219802856445,-0.530796468257904,0.013551839627325535,0.1347900778055191,-0.4315204322338104,-0.8396485447883606,-1.018633246421814,0.07623474299907684,-0.27720391750335693,1.360054850578308,-0.8342555165290833,-0.3455289900302887,1.2648483514785767,-0.4331585168838501,-0.2716871500015259,1.7168043851852417,0.7355850338935852,-0.5369033217430115,0.20373548567295074,0.7095741629600525,-0.4052037298679352,0.8387852907180786,-0.5790684819221497,1.774989366531372,1.8089021444320679,2.0558054447174072,0.6646625399589539,0.6135542988777161,0.5780201554298401,0.5717944502830505,1.4156254529953003,-1.2569321393966675,-1.1844712495803833,0.2447938174009323,-0.9277382493019104,0.13186132907867432,0.7937708497047424,-0.9536383748054504,1.954099178314209,-0.002952961018308997,-0.8638117909431458,-0.16706077754497528,1.3861240148544312,0.09788047522306442,1.8315043449401855,-0.38733625411987305,1.6624408960342407,0.11244134604930878,0.17199714481830597,0.7880605459213257,0.14357472956180573,0.8544473648071289,0.41658344864845276,-0.8107289671897888,-0.49420997500419617,2.2761213779449463,1.2355371713638306,0.5196911692619324,0.3519606590270996,0.07909980416297913,0.1267661154270172,-0.9069889783859253,-0.4210945963859558,-0.8440922498703003,-0.8953000903129578,0.20941974222660065,-0.5626077651977539,-1.2109713554382324,-0.5749028921127319,0.45853573083877563,-1.0840234756469727,-1.1081416606903076,1.8360323905944824,-0.550622820854187,0.5167768001556396,0.6659789681434631,-1.1222517490386963,0.32858413457870483,-2.1794450283050537,0.03568871691823006,-0.09331310540437698,1.1611583232879639,0.8384341597557068,0.43582281470298767,0.2868584990501404,-1.049501895904541,1.4859211444854736,-0.785197377204895,0.1954653561115265,-1.560690999031067,0.9936642050743103,1.2742888927459717,-0.5547143816947937
amazon-clothes.csv,-0.46650534868240356,-2.0713894367218018,0.9437540769577026,-0.21803735196590424,-0.8566259741783142,-0.16986612975597382,-1.2652686834335327,-0.6106661558151245,-0.6573905348777771,-0.6188613176345825,0.08008351922035217,1.011010766029358,-0.9401459693908691,-1.4084696769714355,-0.7245496511459351,0.4253534972667694,0.9383020997047424,1.3434269428253174,-0.6536089777946472,-0.6103342771530151,-0.8321661949157715,-0.1888255625963211,-0.1891956627368927,0.15541207790374756,-1.0655149221420288,-0.3184815049171448,-0.4117783308029175,0.18281258642673492,1.0198956727981567,0.9043154716491699,-1.5196073055267334,1.0473424196243286,-1.1783870458602905,-0.08545282483100891,0.05560391768813133,-0.5332640409469604,-0.714115560054779,0.5131824612617493,1.1415883302688599,1.2313686609268188,0.4385339617729187,0.8598178029060364,-1.687355875968933,-0.46384498476982117,-2.0906097888946533,-0.04756912589073181,0.2499779462814331,-1.290499210357666,-0.939727246761322,0.8863946199417114,-1.4008910655975342,-1.6195112466812134,0.9629567265510559,0.06840351223945618,0.11923997104167938,1.282209038734436,-1.5458219051361084,0.2109142243862152,-1.2436108589172363,-1.8021336793899536,-0.39511638879776,0.5120775699615479,-0.3708232343196869,-1.3949289321899414,1.6284044981002808,1.394618034362793,0.18245363235473633,-0.13195407390594482,-0.33490312099456787,0.09600488096475601,-1.1647260189056396,-0.28867438435554504,0.024861395359039307,0.6510840654373169,1.0882232189178467,0.8708258271217346,2.0767552852630615,-0.20288237929344177,-1.3241938352584839,1.383050799369812,-1.4163585901260376,0.7511091232299805,1.3588637113571167,-0.24248583614826202,-1.0303858518600464,-0.6564654111862183,-0.32259976863861084,0.9909421801567078,-0.1889747679233551,1.952004313468933,0.094358429312706,-0.18955735862255096,-0.9167981743812561,1.4747967720031738,1.5454918146133423,0.4111437499523163,0.44549793004989624,-0.6000017523765564,-0.7361133098602295,-1.0935100317001343,-1.4044017791748047,-0.012323945760726929,-0.8223811388015747,-0.6298422813415527,0.11596544831991196,-0.2726719379425049,-0.4656747877597809,1.7759336233139038,-0.41592705249786377,0.14522743225097656,-0.3438469171524048,0.9758514165878296,-1.2144275903701782,-0.08251894265413284,-0.5724440813064575,-0.4869755506515503,0.9944683313369751,-0.8470656275749207,-0.104261115193367,1.8791944980621338,-0.5407539010047913,-0.2101401537656784,0.7019274830818176,-0.06415087729692459,0.13717608153820038,-0.028768809512257576,-0.8801069259643555,-0.6479474902153015,1.36574387550354,-0.042803648859262466,1.098069429397583,0.7887938618659973,2.191310167312622,-2.0732481479644775,1.2914936542510986,1.5911647081375122,-0.014068232849240303,0.4766024947166443,-0.6053317189216614,-0.817065417766571,-0.34622374176979065,-0.45119690895080566,-0.5465090274810791,2.310349225997925,-2.6319260597229004,1.0367721319198608,0.023098839446902275,0.3724907636642456,-0.8579486608505249,2.1432435512542725,-1.022243857383728,1.9316157102584839,-0.20823031663894653,1.290114164352417,-0.2054218202829361,-0.9481713771820068,-0.4460081458091736,0.07412279397249222,2.7124946117401123,1.160196304321289,-0.2223646640777588,-0.6815169453620911,0.3863302171230316,0.9572045207023621,2.189502239227295,-0.4517013430595398,-1.4936500787734985,0.09519604593515396,-0.38658514618873596,-0.20003321766853333,-1.2807457447052002,-0.1206454187631607,0.520595908164978,0.17414337396621704,-1.485350251197815,-0.05734136328101158,-0.6519889235496521,-0.39084193110466003,-1.239334225654602,-0.5718531608581543,-0.5289911031723022,-0.7351102828979492,0.1300066113471985,-1.9630290269851685,0.05280569940805435,-0.6304341554641724,0.045649245381355286,0.7671948075294495,0.10350356996059418,1.5959699153900146,-1.2374576330184937,0.7899429798126221,-0.17568565905094147,0.8896873593330383,0.6175079345703125,0.34228211641311646,-1.8715025186538696,0.6232677698135376,1.683570384979248,-0.9387694597244263
amazon-office.csv,-2.025179386138916,-1.4707815647125244,1.718284249305725,0.2872923016548157,-1.7920026779174805,-0.6520465612411499,-0.9895400404930115,-0.9663748741149902,-0.4511987268924713,-0.6661056280136108,-0.08506845682859421,1.222056269645691,0.3933340907096863,-0.3847915232181549,-0.8746265172958374,-1.1269241571426392,1.0443016290664673,2.3630409240722656,-1.061872124671936,-1.8562519550323486,-2.2343225479125977,1.0481733083724976,-0.09596959501504898,-0.25693029165267944,-1.2730611562728882,-0.7953258156776428,-0.7818074226379395,0.09203696995973587,0.26218459010124207,-0.8132688999176025,-0.3479803800582886,1.807277798652649,0.2539176940917969,1.0385375022888184,-0.2495344579219818,-1.2129803895950317,-0.9107499718666077,-0.14718273282051086,1.0311639308929443,-0.8070811629295349,-0.6933438181877136,0.7503286004066467,-0.6172133088111877,-1.3235756158828735,-0.8222467303276062,-0.4913606345653534,-0.12795093655586243,-0.8175503015518188,0.2920996844768524,0.49096202850341797,-1.578769326210022,-1.1079097986221313,0.21590325236320496,-0.6778494715690613,0.991040050983429,-0.5630604028701782,-1.3483268022537231,-1.2910529375076294,-1.5307549238204956,-1.3884971141815186,-1.0496444702148438,-0.7046348452568054,-0.47588151693344116,-2.7331795692443848,0.3157516419887543,0.4818709194660187,0.5968663096427917,0.80531907081604,0.34705325961112976,-0.35200759768486023,0.6654883623123169,-0.5480464100837708,0.284789115190506,-0.7192311882972717,0.5631372332572937,-0.44732922315597534,1.5446721315383911,0.4925670623779297,-1.242347002029419,0.7486071586608887,-0.15960468351840973,-0.24149741232395172,-0.5095526576042175,-1.2226723432540894,-2.437424421310425,-1.708087682723999,0.6608873009681702,0.9478366374969482,0.3878343105316162,1.0763920545578003,0.12087315320968628,0.8170251846313477,-0.6906952261924744,0.7459020614624023,-0.36306875944137573,0.3466355800628662,-0.4903688132762909,-0.7710689306259155,-1.6042780876159668,0.06900935620069504,-1.533813714981079,-0.41407591104507446,1.1235636472702026,0.3565079867839813,-0.47087278962135315,-0.7935446500778198,-1.2138965129852295,2.2742092609405518,-1.7476115226745605,-1.6223002672195435,-0.36246392130851746,1.1843016147613525,0.378820538520813,-0.16197772324085236,-0.24665768444538116,0.6038649678230286,0.5434783101081848,-0.7906017899513245,-0.09689351916313171,0.16717106103897095,0.4586319923400879,-0.5446352362632751,-0.06906066089868546,-0.03746459633111954,0.8180840611457825,0.22144855558872223,-0.28387436270713806,0.7889555096626282,1.0620136260986328,-1.5381187200546265,1.1364117860794067,0.9614787101745605,0.3571341037750244,-0.4471783936023712,0.43256428837776184,0.8246468901634216,0.30959370732307434,-0.19073604047298431,-2.3189823627471924,-0.9256000518798828,0.05340481549501419,-0.3454781770706177,-0.12053421884775162,-0.03982185572385788,-1.2735676765441895,-0.20603816211223602,-0.09033012390136719,-0.9071266651153564,-0.5456461310386658,1.6952093839645386,-1.679295301437378,1.2470625638961792,0.1955277919769287,0.9278351068496704,-0.9364246129989624,-0.5723997354507446,0.11967537552118301,-0.36394399404525757,2.3966612815856934,0.5448615550994873,0.24219182133674622,-0.08625013381242752,1.7335858345031738,1.0215611457824707,2.1162259578704834,-0.9103494882583618,-1.7428094148635864,-1.4807463884353638,1.278092384338379,0.932475745677948,0.007381161209195852,-0.009074394591152668,-0.23817522823810577,1.4169092178344727,-0.6129679679870605,0.7034851908683777,-0.3170957565307617,-0.20805568993091583,-1.159038782119751,-0.3829920291900635,0.16868282854557037,0.2742663621902466,1.1673928499221802,-2.015177011489868,-0.22428184747695923,-1.4829182624816895,0.609183132648468,-0.7807614803314209,0.5895341038703918,0.9660794734954834,-0.6118909120559692,0.5849424004554749,-1.0697784423828125,1.799450159072876,-0.7779760360717773,0.2619340121746063,-0.41424858570098877,-0.2528640925884247,2.053952932357788,-0.7696764469146729
amazon-kindle.csv,-2.266730546951294,-2.5318708419799805,0.6578131914138794,-1.0303919315338135,-1.229092001914978,-1.2745108604431152,-1.2259224653244019,-0.5547810196876526,-0.7159327864646912,-0.5530157089233398,0.2342430204153061,0.7328018546104431,0.18362194299697876,-1.1158525943756104,0.07476672530174255,-1.4183018207550049,0.8582548499107361,1.554261565208435,-1.2036144733428955,-1.400436282157898,-1.5879074335098267,0.8133192658424377,-0.6949093341827393,1.105523705482483,-1.2322016954421997,-0.42044565081596375,-0.208489790558815,0.5784019231796265,0.4059264063835144,-0.7173293828964233,-0.39281952381134033,1.8183971643447876,0.12190672010183334,0.5028623342514038,0.16893108189105988,-0.18489563465118408,0.8756210803985596,-0.6938180327415466,-0.348138689994812,-0.7013766169548035,-0.693756103515625,0.6664207577705383,-0.23271283507347107,-1.603700041770935,-0.9497292637825012,0.43954622745513916,1.748871922492981,-0.6819681525230408,-0.1811402440071106,0.6299260854721069,-1.2090649604797363,-2.15548038482666,-0.7250406742095947,-0.646151602268219,0.34649941325187683,1.3503271341323853,-0.6452634334564209,-0.9180007576942444,-1.5255175828933716,-0.7796697616577148,-1.355109453201294,0.34198880195617676,-1.911606788635254,-0.7275822758674622,1.437042474746704,0.2688128650188446,1.1855018138885498,0.2630525827407837,0.872894823551178,-0.442354679107666,-1.284604549407959,-0.300222247838974,1.000002384185791,-0.7275573015213013,0.4248930811882019,1.1409884691238403,1.5306177139282227,-0.6371954083442688,-1.2405062913894653,0.007590400520712137,-0.5536184310913086,-0.591572642326355,-0.17188087105751038,-0.15847893059253693,-0.08529171347618103,-2.4290902614593506,0.4976244866847992,0.7831841111183167,-0.014745304360985756,1.3944112062454224,-0.48026713728904724,-0.21219150722026825,-0.45727109909057617,0.33056265115737915,-1.3135093450546265,0.6241917014122009,0.7881883978843689,-1.7019704580307007,-1.4085230827331543,-0.12239985167980194,-0.576274037361145,0.014576668851077557,-0.12708674371242523,0.963004469871521,0.11103639006614685,-0.6586676239967346,-1.0282857418060303,1.4109015464782715,-0.5524312257766724,-1.9742528200149536,-0.33118751645088196,1.4166240692138672,0.05980400741100311,-1.015839695930481,-0.5497699975967407,-0.37361544370651245,0.9995365738868713,-2.2589149475097656,0.29188424348831177,-0.2624792158603668,0.2802761197090149,-0.5010434985160828,0.451317697763443,0.30715298652648926,-0.9169974327087402,-0.07261383533477783,0.48361068964004517,-0.2567216157913208,1.0486823320388794,-0.7760661840438843,1.3901196718215942,1.825357437133789,1.595594882965088,-0.6286941766738892,0.6462845802307129,1.2850322723388672,-0.41027432680130005,0.4184480607509613,-0.47147437930107117,-1.1408811807632446,-1.1034919023513794,-0.052708838135004044,-0.8020778894424438,0.6403272151947021,-1.9589834213256836,0.3270953893661499,0.38861706852912903,0.21428024768829346,-0.4495354890823364,1.8580591678619385,-1.2535154819488525,1.3493366241455078,-0.5426197648048401,1.2830064296722412,-1.2935351133346558,-0.7388561964035034,-1.4235084056854248,0.033615462481975555,1.98216712474823,0.0636795163154602,-0.5420780777931213,-0.29607370495796204,1.7252146005630493,1.240419864654541,1.6673510074615479,-0.9833743572235107,-1.795888066291809,-0.4683138430118561,-0.3110378682613373,-1.3502341508865356,-1.0000081062316895,1.1691004037857056,0.20205318927764893,0.025933122262358665,-1.200461506843567,-0.1631130874156952,0.18068857491016388,0.11682967096567154,-1.6315419673919678,-0.5393375754356384,-0.07127805799245834,-0.4151301980018616,0.01119651272892952,-2.391510009765625,0.1283850073814392,-0.6327015161514282,1.054244875907898,0.2912067174911499,-0.5348784327507019,1.219130039215088,0.27229422330856323,-0.13571107387542725,-2.266859531402588,0.7841416597366333,-0.01363431941717863,-0.33512449264526367,-1.2771550416946411,-0.11709083616733551,-0.019561968743801117,-1.5727076530456543
amazon-food.csv,-0.634779155254364,-1.3364193439483643,0.5646347999572754,-0.5475537180900574,-0.4229622781276703,0.549371600151062,-0.5706801414489746,-0.9323003888130188,-0.722343385219574,-1.898522973060608,0.045213088393211365,-0.26958659291267395,0.7107606530189514,-1.5086880922317505,0.6477145552635193,-0.3653765022754669,-0.6727741360664368,1.1198550462722778,0.09255709499120712,-1.035910725593567,-1.9721587896347046,0.1213725358247757,-1.0372551679611206,0.5187976360321045,-0.9743605256080627,-0.26881593465805054,-0.055814389139413834,0.8706913590431213,1.0596903562545776,-0.010839470662176609,-1.372580647468567,1.6793744564056396,-0.5493443012237549,0.4190215468406677,0.17869631946086884,-0.6591700315475464,-0.5704818964004517,0.19650733470916748,-0.17824970185756683,-0.6406064629554749,0.14211809635162354,0.3195282518863678,-1.4889472723007202,-0.1209774985909462,-1.4003318548202515,-0.22269073128700256,0.359523743391037,-0.970815896987915,-0.5418035984039307,0.8207715749740601,-0.8357099890708923,-1.4197783470153809,0.5875380039215088,0.21688765287399292,-1.2742801904678345,1.5692449808120728,-1.8492764234542847,-0.8862372636795044,-1.596882939338684,-0.7667938470840454,-0.8939056396484375,0.07682984322309494,-1.2606958150863647,-2.1008031368255615,1.9715734720230103,0.770027756690979,0.6166363954544067,1.230343222618103,0.13025644421577454,0.3769298493862152,-0.5685319304466248,-0.5065855979919434,0.34082984924316406,0.23278294503688812,0.5967438220977783,1.1956161260604858,2.9216623306274414,0.35889124870300293,-0.6189727783203125,1.7850955724716187,-1.6480191946029663,0.07444493472576141,0.8273554444313049,0.20603308081626892,0.26544249057769775,-1.5474815368652344,0.5316184759140015,1.6656943559646606,-0.1547817885875702,2.299093008041382,0.1381392776966095,-0.12471433728933334,-0.4924253225326538,0.6521171927452087,0.694372296333313,-0.41262927651405334,-1.2242662906646729,0.695622444152832,-0.43695536255836487,-0.3688884675502777,-1.450547695159912,-0.1825922280550003,-1.1185001134872437,-0.5810665488243103,0.5093091130256653,-1.7013061046600342,-1.5645211935043335,2.516850233078003,-0.25869035720825195,-0.9212791323661804,0.2677372694015503,0.7239865064620972,-0.15924625098705292,-2.154808521270752,-1.1943690776824951,-0.5351484417915344,0.7706618905067444,-1.1812151670455933,0.1522773951292038,1.4352121353149414,-0.7180706858634949,-0.1531524509191513,0.5269572734832764,-0.23135972023010254,0.20971697568893433,-0.3576512336730957,-0.27151861786842346,0.33289262652397156,0.8516577482223511,0.6865589022636414,1.113189458847046,1.2416610717773438,1.6706147193908691,-0.855372428894043,0.7133755087852478,1.0932953357696533,-0.7467069029808044,-0.3913719356060028,-1.1358240842819214,-0.47501876950263977,0.344587117433548,-1.207181692123413,-2.121711254119873,1.3079913854599,-2.080622911453247,0.911930501461029,-0.45844021439552307,-1.1876027584075928,-1.043940782546997,2.7771995067596436,-0.34797731041908264,1.2901841402053833,1.0615769624710083,1.6683744192123413,0.5370843410491943,0.1690286546945572,-0.9244276285171509,-0.03555361181497574,1.7417808771133423,0.8409245014190674,-0.8656123280525208,-0.9453097581863403,1.3321782350540161,-0.061884939670562744,1.222459077835083,-0.9529428482055664,-0.7874391674995422,-1.2032783031463623,-0.3663496673107147,-0.17759954929351807,-0.8294662833213806,0.23197469115257263,0.8283550143241882,-0.27577441930770874,-0.9112417697906494,-0.2584749162197113,-0.6017280220985413,0.012532422319054604,-0.05866585671901703,1.1264524459838867,0.26775631308555603,-0.01898207515478134,0.13863621652126312,-1.288725733757019,-0.07750590145587921,-0.6435428261756897,1.4284608364105225,0.7459546327590942,0.2187366634607315,1.5164110660552979,-0.30313801765441895,-0.061529360711574554,-0.8891584277153015,1.4844810962677002,1.009781837463379,-0.20738960802555084,-0.6679959893226624,0.42850637435913086,2.30246901512146,-0.16468194127082825
