amazon-instruments.csv,0.3244570791721344,-1.4737071990966797,0.29210853576660156,-0.3466281294822693,-0.13975022733211517,0.4069955348968506,0.3949681520462036,-0.6838664412498474,1.2765859365463257,-1.4853535890579224,0.1498420089483261,-0.7682421803474426,-0.018757395446300507,-1.528794288635254,-0.44438520073890686,2.097877025604248,-0.7886828780174255,0.6356365084648132,0.12938469648361206,0.5490924119949341,0.7815654277801514,-0.40045857429504395,1.2616692781448364,-0.29019075632095337,1.161754846572876,0.7996054887771606,-0.27602389454841614,-0.3687651753425598,0.6829834580421448,-0.7285053133964539,-0.9731465578079224,1.1833027601242065,1.5736534595489502,-0.4168698489665985,-0.5883207321166992,0.5187355875968933,-2.019752025604248,1.063903570175171,-0.34876492619514465,-1.0573408603668213,0.1582714468240738,0.14637067914009094,-1.4101117849349976,1.6330597400665283,1.2453982830047607,-1.5364962816238403,0.71160489320755,-0.5827462673187256,0.24708154797554016,-0.3909977972507477,-2.3431148529052734,-0.8094272017478943,-1.0649471282958984,-0.21678853034973145,-0.9057286977767944,0.9525587558746338,1.1261200904846191,0.9906263947486877,0.5193844437599182,-1.889474630355835,-0.6348046660423279,0.46116629242897034,-0.8680837154388428,0.44204214215278625,-0.6368310451507568,-1.0342365503311157,0.029300522059202194,-0.9277766942977905,0.5249125957489014,-0.3572949469089508,0.2704181969165802,-0.5875321626663208,2.520752191543579,0.9343648552894592,-1.119030237197876,-0.09583267569541931,0.6035804748535156,0.9548344016075134,-1.4171613454818726,-1.138104796409607,-0.24751538038253784,-0.7338483929634094,-0.25848549604415894,0.13214005529880524,-3.416952133178711,-0.2649673819541931,0.07747262716293335,0.9606738686561584,0.14588052034378052,-0.5523418188095093,-1.0499505996704102,-0.9037678837776184,0.4933202564716339,0.20941683650016785,0.6779823303222656,2.1661877632141113,-0.39029788970947266,1.3986397981643677,-0.14016517996788025,-0.7002946138381958
amazon-clothes.csv,-0.06441043317317963,-0.19343025982379913,0.9257699251174927,-0.31754201650619507,-1.1237246990203857,-0.4474610388278961,0.014579328708350658,-1.694592833518982,1.8948324918746948,-0.42744845151901245,-0.10422150790691376,-0.25912514328956604,-0.1056753545999527,-1.5069829225540161,-0.4094984829425812,1.6428544521331787,-1.0052071809768677,-0.1972983479499817,-0.4366125166416168,0.7134177088737488,0.7481111884117126,-1.0754531621932983,1.5686194896697998,-1.258054494857788,1.896989345550537,-0.348352313041687,-1.0737773180007935,-0.8945488929748535,0.3032238781452179,-0.811516523361206,-1.5327385663986206,0.9958204627037048,1.1838740110397339,0.2849749028682709,0.08038397878408432,-0.47265759110450745,-1.6951229572296143,0.7363484501838684,-0.40463581681251526,-0.18057964742183685,0.5684593319892883,0.08845112472772598,-1.2890130281448364,0.18185055255889893,1.7164455652236938,-0.8854614496231079,0.332846999168396,-0.17735256254673004,0.270921528339386,0.2146579623222351,-2.2830612659454346,-0.33642545342445374,-0.6535850763320923,-0.880493700504303,-0.30665257573127747,1.0575236082077026,1.3948335647583008,0.38924896717071533,0.22584906220436096,-0.7521856427192688,-0.5849505662918091,0.08570608496665955,-0.4404448866844177,0.6112841367721558,0.6659805178642273,-0.4160757064819336,-0.4519856572151184,-1.128288984298706,-0.181402325630188,-0.39349105954170227,0.902675449848175,-1.143787145614624,1.866287350654602,1.5905669927597046,-1.1876723766326904,-1.8751096725463867,0.5611073970794678,1.5978028774261475,-1.9069368839263916,-0.4394271969795227,0.716055691242218,-0.9255971312522888,0.12665508687496185,0.2688491642475128,-2.686728000640869,0.5669182538986206,0.18204788863658905,0.6168792843818665,0.5384385585784912,1.4895325899124146,-1.6759052276611328,-0.7860158085823059,0.5098486542701721,0.7786577343940735,1.2350913286209106,1.495391845703125,-0.06329654902219772,-1.7502198219299316,0.3043067157268524,-0.7093716859817505
amazon-garden.csv,-0.06154663860797882,0.08970348536968231,0.27858662605285645,-0.7404507398605347,-0.12276411801576614,-0.982763409614563,-0.0189290139824152,-1.1382375955581665,1.6109869480133057,-0.04371791332960129,-0.7031746506690979,-0.7281516194343567,0.08555585145950317,-1.1800217628479004,0.14206379652023315,1.556623101234436,-2.5074310302734375,0.4574287533760071,0.5367494821548462,1.5665966272354126,1.1938605308532715,-0.1999395191669464,1.270123839378357,-1.0836822986602783,0.7172877788543701,-0.8232523202896118,-0.5220922231674194,-1.3624223470687866,0.3100438714027405,-0.8427791595458984,-2.795243263244629,0.670926034450531,0.6657316088676453,-0.7939070463180542,0.011168573051691055,0.9033384919166565,-1.0975172519683838,0.6565476059913635,-0.935606837272644,-0.07226349413394928,-0.2524036765098572,0.2781161665916443,-0.6075841188430786,0.9124965071678162,1.8267948627471924,0.17487043142318726,2.0238184928894043,-0.00024293028400279582,0.12160676717758179,0.3718555271625519,-2.1932106018066406,0.3193962275981903,-1.9722284078598022,0.03289050981402397,-1.2341493368148804,-0.051575157791376114,0.21205204725265503,0.24645772576332092,0.2028035819530487,-1.960620641708374,0.26249101758003235,-0.13336226344108582,0.3375519812107086,0.36229410767555237,0.0030612561386078596,-0.25400638580322266,-0.45146244764328003,-0.39906230568885803,1.4491711854934692,-0.8278612494468689,-0.35329586267471313,-1.2182310819625854,0.9831647872924805,1.0761655569076538,-0.9685239791870117,-0.5571460127830505,0.5730739235877991,1.2750056982040405,-1.4176175594329834,-0.3100632429122925,0.12176623940467834,-0.6242066621780396,-0.029648922383785248,-0.49449408054351807,-3.511230945587158,0.6657281517982483,1.1249148845672607,0.04191390052437782,-0.5265640020370483,0.7824417948722839,-1.4112309217453003,-0.390082448720932,1.1120736598968506,0.2184801697731018,0.1545543074607849,1.2638188600540161,-1.0652668476104736,-0.7968667149543762,0.1881081461906433,1.0164700746536255
movielens1m.csv,-0.5485655665397644,-2.131566286087036,0.7170809507369995,-0.10393673926591873,-0.6488927006721497,-0.5866109728813171,1.2847684621810913,-1.1600929498672485,2.957550525665283,0.35237404704093933,-0.4161911606788635,-1.8898859024047852,0.2751114070415497,0.26024165749549866,-0.027976760640740395,-0.09049186110496521,-0.6956391930580139,0.37527239322662354,-0.7300317287445068,0.4181058704853058,-0.13932469487190247,-0.43983158469200134,-0.11393200606107712,-0.5454509258270264,0.43185123801231384,0.8266645073890686,-0.40758216381073,-0.7984490394592285,0.151039719581604,-0.8342443108558655,-1.1557118892669678,0.12326757609844208,0.11196783185005188,-1.1952240467071533,-0.69969642162323,1.0296096801757812,-2.0990583896636963,1.3580065965652466,-1.1387317180633545,0.10431341081857681,1.4391039609909058,1.3724647760391235,0.34699419140815735,1.0268462896347046,0.3752983510494232,-1.4883582592010498,1.447761058807373,0.12244836986064911,1.1863089799880981,0.3392117917537689,-1.365334391593933,-0.5408068299293518,-1.8581922054290771,-1.0438978672027588,-1.624865174293518,0.26834821701049805,1.13706374168396,0.30691877007484436,-0.9652787446975708,-2.480217933654785,-1.199231505393982,-1.3678070306777954,-0.6839724183082581,0.25149261951446533,1.0995336771011353,0.2913525402545929,-0.20583871006965637,-1.0603539943695068,1.0854600667953491,-2.56969952583313,0.469494491815567,0.17174890637397766,0.5254057049751282,0.7378696203231812,-0.4398306906223297,0.49252942204475403,-0.5865591168403625,0.03106711618602276,-1.657607913017273,-0.03338674455881119,0.05894750356674194,-0.5442487001419067,-0.6472153067588806,-0.3822293281555176,-2.2771270275115967,0.7372405529022217,0.09367267042398453,0.2797105610370636,0.9742874503135681,1.5329307317733765,-1.1618688106536865,-0.040131956338882446,0.12807351350784302,-0.21786408126354218,0.38778960704803467,0.8190904259681702,0.34891706705093384,-1.173549771308899,-0.12556762993335724,0.7337592244148254
amazon-apps.csv,0.5786327719688416,-0.5654397010803223,-0.7586771249771118,0.11164876818656921,-1.3336840867996216,-0.5986341834068298,0.0525643453001976,-0.6340385675430298,1.783968448638916,-0.8914024233818054,-0.7332610487937927,-0.29311779141426086,0.11826548725366592,-1.0345686674118042,0.07021546363830566,1.2997920513153076,-1.8154685497283936,-0.4856702387332916,-0.20439518988132477,0.13325390219688416,0.11664590984582901,0.10977773368358612,0.6739205718040466,0.23259073495864868,0.142373725771904,1.4684885740280151,-0.23881001770496368,-0.056224364787340164,0.41624826192855835,-0.7012197375297546,-1.1320191621780396,-0.22638072073459625,-0.3154257833957672,0.28621357679367065,-0.3198271095752716,0.564961314201355,-0.9911421537399292,1.5216220617294312,-1.0989822149276733,1.0022062063217163,0.32162725925445557,-0.2105785310268402,-0.32551005482673645,1.1161553859710693,1.410275936126709,-1.1628994941711426,0.6284257173538208,0.13276083767414093,-0.25796642899513245,0.2749275863170624,-0.12860257923603058,0.06575969606637955,-1.6537057161331177,-0.8830336332321167,-0.22020840644836426,1.0544859170913696,1.9805448055267334,0.7796733379364014,0.6644609570503235,-2.2311244010925293,0.7027862668037415,-0.49453601241111755,-1.1607388257980347,1.519235372543335,0.41872116923332214,-1.293200135231018,-1.077769160270691,-0.5316856503486633,1.4323018789291382,-0.5500078797340393,1.9021350145339966,-1.3327040672302246,0.73931884765625,0.45271775126457214,-0.9528989195823669,-1.1265017986297607,-0.6071080565452576,1.006693720817566,-1.1306285858154297,0.7605237364768982,0.8203169703483582,-1.2252000570297241,0.3498029112815857,0.5265448093414307,-3.5314741134643555,0.6046574115753174,0.48697036504745483,0.776228129863739,0.41719144582748413,2.1445844173431396,-1.4931871891021729,0.39297524094581604,0.0055109914392232895,0.5008182525634766,-0.045569054782390594,2.5036864280700684,-0.9760485887527466,-0.35553765296936035,-0.7701985239982605,-1.0582211017608643
yelp.csv,0.22099505364894867,-0.1827484667301178,0.5457350015640259,0.2145356386899948,-0.8413900136947632,-0.6974005699157715,-0.5324575304985046,-0.9671297073364258,1.4134687185287476,-0.7532917261123657,-0.2295229732990265,-1.3236578702926636,-0.28795120120048523,-0.9426153898239136,0.5040433406829834,1.3232593536376953,-1.838428258895874,0.18335190415382385,0.5229935050010681,1.1976397037506104,-0.7204011082649231,1.0172773599624634,1.2668964862823486,0.27420666813850403,0.8324817419052124,1.537157416343689,-1.751981258392334,0.20454415678977966,1.4209932088851929,-1.300995111465454,-0.4031023383140564,1.9977524280548096,-0.7343840599060059,0.6374306678771973,-0.4497142434120178,0.4054153263568878,-1.1705727577209473,-0.03628275915980339,-0.9458707571029663,0.9067322015762329,1.1742373704910278,-0.11555030941963196,0.5431261658668518,0.685346782207489,1.5379304885864258,-1.4630917310714722,0.14281706511974335,0.6278603672981262,0.02379073202610016,-0.8151616454124451,-2.8091378211975098,-0.5246140956878662,-1.9633508920669556,-0.6587704420089722,-0.5454035401344299,0.3559081554412842,1.0521241426467896,1.0644946098327637,-0.3222793936729431,-0.611030638217926,1.0700372457504272,-0.3209186792373657,-1.600030779838562,-0.060899004340171814,-0.35742896795272827,-0.44575899839401245,-0.8913606405258179,0.6944565176963806,1.062927484512329,-0.9807981848716736,0.9356125593185425,-0.6257557272911072,1.245781660079956,0.9561508893966675,-0.4980314373970032,0.9628971815109253,0.608274519443512,1.6337034702301025,-0.729322075843811,-0.2696476876735687,-0.027934251353144646,0.4945617616176605,-1.1241412162780762,0.15354298055171967,-2.0885679721832275,0.4257137179374695,-0.08144000917673111,0.9339920878410339,-0.6600029468536377,0.8829143643379211,-1.720964789390564,-0.46061041951179504,2.145744800567627,0.4239974617958069,0.5183765888214111,2.095801830291748,-1.583324670791626,-0.18707162141799927,-0.5290031433105469,-0.13050085306167603
amazon-health.csv,0.589356541633606,-0.21260838210582733,0.8506049513816833,-0.9046335816383362,-1.2872458696365356,-0.8531093597412109,-0.33105868101119995,-0.43460744619369507,1.5234026908874512,0.19776400923728943,0.28684568405151367,-1.2771377563476562,-0.8050222396850586,-1.2404431104660034,-0.13588537275791168,1.496050238609314,-1.7701677083969116,0.4449160099029541,0.684812068939209,0.7427207827568054,0.4972867965698242,-0.3726556897163391,1.3860759735107422,0.8410336375236511,1.0898463726043701,-0.3765701353549957,-0.5219352841377258,-0.17027361690998077,0.9399227499961853,0.2262779027223587,-0.9438453912734985,1.3237148523330688,0.22384585440158844,0.3985038101673126,-1.1763670444488525,0.15347808599472046,-2.05788254737854,1.6082819700241089,-1.7550302743911743,-0.44409069418907166,1.1788561344146729,0.14331798255443573,-0.49491918087005615,0.7690779566764832,1.5009490251541138,-1.2453668117523193,0.5418250560760498,-0.511029839515686,-0.7944717407226562,0.9825352430343628,-1.9719765186309814,-0.6488539576530457,-2.1410484313964844,-0.4779950678348541,-0.22794456779956818,0.6435617208480835,1.7009341716766357,-0.32232943177223206,-0.7974859476089478,-2.129552125930786,-0.2763782739639282,0.5216284990310669,-0.4633394181728363,0.911514163017273,0.08007141202688217,-0.4250467121601105,-0.5078182816505432,-0.48021215200424194,1.0699156522750854,-0.9763151407241821,0.10644220560789108,-0.5173788666725159,2.0888609886169434,0.6074049472808838,-1.2031073570251465,-0.594408392906189,0.20301134884357452,2.3753626346588135,-0.7851086854934692,-0.27611151337623596,0.8541738986968994,0.4807722866535187,-0.3877631723880768,0.6588622331619263,-2.947977304458618,1.4784290790557861,-0.29954060912132263,0.19585399329662323,0.9763411283493042,0.4126780033111572,-0.48079195618629456,-0.32674089074134827,0.20110610127449036,1.5152305364608765,0.30458584427833557,1.5497386455535889,-0.3281346559524536,-0.13398386538028717,-0.24174764752388,-0.48491930961608887
movielens100k.csv,-0.5655507445335388,-0.16376236081123352,-0.1153024211525917,0.06324522942304611,-1.859160304069519,-0.18816442787647247,0.2253718227148056,0.008326313458383083,0.7806252837181091,-0.5925326943397522,-0.13011328876018524,-1.293959140777588,-0.15215113759040833,-0.47036534547805786,0.04341951012611389,1.7773947715759277,-1.7823154926300049,0.9181978106498718,-0.8708340525627136,-0.6371042132377625,-0.49264252185821533,1.636727213859558,2.0828189849853516,0.7666116952896118,1.2842316627502441,0.8932733535766602,-1.4080764055252075,0.5675516128540039,-0.17929716408252716,-0.6517558693885803,-1.6664944887161255,0.8430256247520447,1.4007765054702759,-1.0892219543457031,-0.15877139568328857,-0.4233240485191345,-0.12446539103984833,1.558181643486023,-2.729962110519409,-1.374266505241394,0.37032705545425415,0.12045473605394363,-0.7923641800880432,2.004448413848877,2.198751449584961,0.06640276312828064,0.12031378597021103,0.12492000311613083,-0.22066976130008698,-0.8380698561668396,-1.3709073066711426,-0.5434848666191101,-0.7357087731361389,-0.6196351647377014,0.764689028263092,-0.6076903343200684,0.8561005592346191,0.09185435622930527,0.8226282000541687,-2.303133726119995,-0.9657421708106995,-2.345672845840454,-0.17624735832214355,0.9619853496551514,1.0849993228912354,-1.0320825576782227,0.340212345123291,0.20717820525169373,0.333621084690094,-0.6726529598236084,-0.4537848234176636,-0.2748962640762329,0.30104541778564453,0.9068188071250916,-0.8930421471595764,0.010317695327103138,1.042093276977539,0.4861162006855011,-1.225088119506836,-0.5230411291122437,0.3758108913898468,-0.6538485288619995,0.15987248718738556,0.8470563888549805,-1.487228274345398,0.6864393353462219,0.6687002182006836,0.6598129868507385,1.1500191688537598,1.8605775833129883,-1.690582275390625,-1.3581467866897583,0.9629417061805725,0.09404150396585464,-0.8938615918159485,0.40188685059547424,0.32299476861953735,0.09700445085763931,0.09298866987228394,0.38493287563323975
amazon-pet-supplies.csv,-0.6424614191055298,-1.4157922267913818,-0.3261895775794983,-0.39149466156959534,-0.5029103755950928,-0.0544922798871994,0.6493732929229736,-0.6415015459060669,0.29163166880607605,-1.023417592048645,-0.238030806183815,0.08106192946434021,-0.5253011584281921,-1.9091700315475464,0.30549901723861694,1.377693772315979,-2.5538673400878906,1.2681689262390137,0.9182310104370117,0.5325583815574646,0.9931074976921082,-0.1321229338645935,0.8666866421699524,0.20591938495635986,0.0705321878194809,1.2482155561447144,-0.5557870268821716,0.46760234236717224,0.1853635460138321,-2.340222120285034,-2.064487934112549,-0.1966070979833603,1.0634711980819702,0.5000401735305786,-0.8488002419471741,0.0050995019264519215,-2.484321117401123,0.5290816426277161,-1.3942826986312866,-0.028646478429436684,1.0662670135498047,-0.006396193988621235,-1.1700226068496704,1.1655285358428955,1.6692466735839844,-1.1283884048461914,1.3723191022872925,-0.09080559015274048,-0.8588777780532837,0.5408704280853271,-1.3827571868896484,0.1565811187028885,-1.1208535432815552,-0.9461978673934937,0.3245987594127655,0.7140443921089172,0.6920874118804932,-0.33317622542381287,-0.45520010590553284,-1.4875062704086304,-0.39688101410865784,0.04170701280236244,-0.9053768515586853,0.3624321222305298,0.5495043396949768,-0.02702399529516697,-0.868143618106842,-0.8310912847518921,0.7298996448516846,-0.18726147711277008,0.48136499524116516,0.3631322979927063,1.1571907997131348,0.7164377570152283,-1.4456032514572144,0.3990768492221832,1.0618517398834229,1.9759979248046875,-3.1360907554626465,-0.4856809973716736,1.210774540901184,-0.35811007022857666,0.020832693204283714,0.05478796735405922,-2.2206523418426514,0.7005992531776428,-0.22096167504787445,-0.1151200458407402,-0.00041772460099309683,0.2745990753173828,-1.4052960872650146,0.16998042166233063,0.6818639039993286,0.4766210615634918,0.4294392466545105,1.1740596294403076,-0.5993106365203857,-0.7306236624717712,0.47888463735580444,-1.2572349309921265
amazon-sports.csv,0.28845417499542236,-0.6388975381851196,0.13176067173480988,-0.636147677898407,-0.703224241733551,0.0812995508313179,0.4202500581741333,-0.19765760004520416,1.4607418775558472,-0.8229354023933411,-0.012532314285635948,-1.32518470287323,0.2917433977127075,-2.014697313308716,-0.052406277507543564,1.9251562356948853,-1.1930822134017944,1.2573434114456177,0.5717855095863342,1.1273707151412964,0.12700243294239044,-0.015349248424172401,0.9053105711936951,0.7173685431480408,0.7510518431663513,-0.10336197167634964,-1.1338062286376953,-0.9831620454788208,0.893355131149292,0.05173039808869362,-1.564408779144287,0.5265988111495972,1.6001948118209839,-0.2083301842212677,-0.02087651938199997,-0.034902866929769516,-1.0717211961746216,2.37410569190979,-1.8594324588775635,-0.12063880264759064,0.35192951560020447,1.6631098985671997,-0.4803355038166046,0.15990665555000305,1.8129538297653198,-0.1361503303050995,1.6761242151260376,-1.1484521627426147,-0.14974172413349152,-0.23107771575450897,-1.698243498802185,-0.14613547921180725,-1.0951812267303467,0.9776142239570618,-0.7628579139709473,0.3919435441493988,1.7228339910507202,-0.10034641623497009,-0.09806792438030243,-1.6213281154632568,-0.9378739595413208,0.49935853481292725,-0.9214552640914917,-0.43885356187820435,-0.19427527487277985,-0.45443791151046753,-0.7839950323104858,-0.08751346170902252,1.2578115463256836,-0.9372512102127075,-0.38614192605018616,-0.8905172348022461,2.4115326404571533,0.9731913208961487,-1.4970510005950928,-0.08031671494245529,0.853314220905304,1.665429949760437,-1.3056913614273071,-0.5905465483665466,-0.16053210198879242,-0.29132455587387085,-0.0011206992203369737,-0.04861920699477196,-3.4239370822906494,1.16182279586792,-0.14472299814224243,-0.2870200574398041,0.002196841174736619,0.12137996405363083,-0.23976169526576996,0.1330791562795639,0.5200818777084351,1.203789472579956,0.6375609636306763,-0.049543946981430054,-1.0364818572998047,-0.7172113656997681,0.69654381275177,0.3550146520137787
amazon-kindle.csv,0.7376682162284851,0.346245676279068,0.1404169648885727,-0.2689191699028015,-0.3679332733154297,0.476616233587265,0.9728754162788391,-1.5123087167739868,1.1137218475341797,-0.45034080743789673,-1.4299359321594238,-0.525187611579895,-0.7872744202613831,-1.3069920539855957,-0.4383294880390167,1.925845980644226,-1.9936692714691162,0.44294866919517517,-0.45224225521087646,1.078497052192688,0.39109915494918823,0.40291863679885864,0.250079870223999,0.5732089877128601,1.5371005535125732,0.6361413598060608,-1.354653000831604,-0.6058868765830994,0.8540403842926025,-1.717168927192688,-0.7339456081390381,1.9296391010284424,1.1115422248840332,0.4679400324821472,-0.5260745882987976,0.16389821469783783,-1.6199394464492798,1.0638211965560913,-0.5807022452354431,1.1911554336547852,1.3621476888656616,0.6537209749221802,-0.9066370725631714,0.5102965831756592,1.7217179536819458,-0.905789852142334,1.2337576150894165,0.18911243975162506,0.14969246089458466,0.19762544333934784,-0.23022931814193726,-0.03982705995440483,-1.4884668588638306,-0.741727888584137,-0.6672940254211426,-0.0577552355825901,0.8077691793441772,-0.7459208369255066,-0.19780148565769196,-2.456115245819092,-1.3171137571334839,0.22973762452602386,0.47398701310157776,0.7978788018226624,0.5513716340065002,-0.42942115664482117,-1.0252255201339722,0.06481602042913437,0.12943094968795776,-0.5719169974327087,-1.1053180694580078,-0.4757736325263977,2.0913233757019043,0.6052498817443848,-1.182508945465088,-0.5865383148193359,1.0318889617919922,2.0384111404418945,-1.2601569890975952,0.6146953701972961,1.1319042444229126,-0.8350433111190796,-0.39437684416770935,0.5129404067993164,-2.8443119525909424,1.193507194519043,-0.1576242595911026,0.31294092535972595,0.570928692817688,0.8666934370994568,-1.6617897748947144,-0.5775488018989563,0.7972283959388733,0.1113235279917717,0.4289964437484741,1.2482398748397827,-0.6703973412513733,0.13646522164344788,0.4859142303466797,-0.978705883026123
amazon-food.csv,1.3478541374206543,-1.4888793230056763,0.7043125033378601,-0.7542906403541565,0.29484766721725464,0.904556393623352,-0.5427159667015076,-1.412566065788269,1.8984495401382446,-0.4734047055244446,-0.3276374340057373,-0.34788790345191956,-0.15159280598163605,-1.393591284751892,0.00561401667073369,1.9944831132888794,-1.2660722732543945,0.9245744943618774,0.11833003163337708,0.4880704879760742,0.29550138115882874,0.32508665323257446,1.0653270483016968,-0.1464378833770752,1.124035358428955,1.3879687786102295,-1.3050611019134521,-0.9903708100318909,0.8994660377502441,-0.4086492359638214,-1.959570288658142,1.1165493726730347,0.8578919768333435,-0.39868083596229553,-0.20810845494270325,-0.42176932096481323,-1.5636824369430542,1.039468765258789,-0.9345048666000366,0.08197973668575287,-0.2837389409542084,0.38533928990364075,-1.4032294750213623,1.0193963050842285,2.346402645111084,-0.6946696043014526,0.9258785843849182,-0.2820761799812317,-0.3187759220600128,0.28743305802345276,-1.7987933158874512,-0.5196930766105652,-1.5271515846252441,0.5976176857948303,-0.9037278890609741,-0.11553917825222015,1.8524295091629028,-0.09445999562740326,-0.16409891843795776,-0.930050790309906,0.026802897453308105,0.6809262037277222,-0.97273188829422,0.01054238248616457,-0.20368503034114838,0.41692206263542175,-1.3223497867584229,0.4386935830116272,1.535693645477295,-0.930425226688385,1.1265652179718018,-0.3029916286468506,1.8336870670318604,1.4709564447402954,-1.0409574508666992,-0.6990597248077393,0.15148623287677765,0.8371624946594238,-1.5737817287445068,0.13565565645694733,0.9427176117897034,-1.680445671081543,0.2140803188085556,-0.30971115827560425,-2.3704845905303955,1.2269325256347656,0.1263449788093567,0.9810395240783691,-0.11061698943376541,1.1686328649520874,-1.6371030807495117,0.462367981672287,0.37049993872642517,0.5499083995819092,0.5979722142219543,0.49845337867736816,-0.33936238288879395,-1.1533560752868652,0.05710715800523758,1.1367700099945068
bookcrossing.csv,0.2067486196756363,-0.5176517963409424,-0.5517150163650513,0.09120248258113861,-1.198001742362976,-0.35503995418548584,-0.08419883251190186,0.010341620072722435,0.7223320603370667,-0.6506317257881165,-0.07540048658847809,-0.4891531467437744,0.6360103487968445,-1.035300374031067,-0.1625961810350418,1.1624171733856201,-2.3339879512786865,0.29404783248901367,-0.0930899977684021,0.39749017357826233,-0.13701727986335754,-0.3009031116962433,0.855482816696167,0.19443289935588837,1.2545491456985474,0.20485875010490417,0.47661012411117554,0.9634233117103577,1.3584028482437134,-0.8785461783409119,-1.2576123476028442,-0.03854581341147423,1.6743401288986206,0.13329628109931946,-1.382606863975525,-0.6601740717887878,-1.6576558351516724,1.8928242921829224,-1.0589786767959595,0.46055617928504944,0.300281822681427,0.7300623059272766,-1.259672999382019,1.101318597793579,1.620964765548706,-0.7172927856445312,1.081404447555542,-0.4520893096923828,-0.28400325775146484,0.8157370686531067,-1.8765195608139038,0.11045020818710327,-1.6936986446380615,-0.8514315485954285,-0.3724362850189209,0.027346566319465637,0.9064391851425171,0.1750808209180832,-0.8555817604064941,-1.5692204236984253,-1.0999263525009155,-0.3525770306587219,-1.3609817028045654,-0.1193501353263855,0.3632532060146332,-0.010498574003577232,-1.250738501548767,-1.304221272468567,1.261326789855957,-0.9050320386886597,-0.15393249690532684,-1.8261319398880005,2.3168764114379883,0.740696370601654,-1.1952835321426392,0.052450284361839294,0.389125794172287,-0.628234326839447,-0.3441202640533447,0.6521056890487671,1.0844922065734863,-1.419494390487671,-1.073906421661377,-0.29488617181777954,-2.322730779647827,0.7961441874504089,0.8197282552719116,1.1491286754608154,0.2920781672000885,0.611487090587616,-1.208225965499878,-0.5392242670059204,1.7096115350723267,1.2948925495147705,0.44502583146095276,1.1259270906448364,-1.0504791736602783,-1.7057989835739136,-0.4878250062465668,-1.264493465423584
amazon-tools.csv,0.07585473358631134,-0.1870248168706894,0.965576171875,0.48129981756210327,-0.43130356073379517,1.3709115982055664,-0.12952157855033875,-1.8368006944656372,0.5629327893257141,-1.3330605030059814,-0.2235666811466217,-0.29795584082603455,0.34004658460617065,-1.2139346599578857,0.6261141300201416,2.0633938312530518,-1.6473127603530884,0.46206632256507874,0.5035191178321838,1.0678040981292725,0.6170197129249573,-0.5187108516693115,1.6542812585830688,-0.0023417584598064423,1.3723398447036743,0.7966625690460205,-0.8688300251960754,-1.2162724733352661,-0.48008084297180176,-1.4812883138656616,-1.0708414316177368,0.236759215593338,1.5275033712387085,-0.9159388542175293,-0.964658796787262,0.059208642691373825,-1.8220624923706055,2.215878486633301,-1.6229404211044312,0.056902676820755005,0.0002095163072226569,0.350313276052475,-1.0825045108795166,0.6200379729270935,1.6624184846878052,-0.8180229067802429,1.1452614068984985,-0.295432448387146,-0.6232622861862183,0.7553845047950745,-1.6359994411468506,0.3590853810310364,-1.1806145906448364,0.019341524690389633,-1.1351147890090942,0.6320858597755432,0.9846639037132263,0.32379838824272156,0.29733699560165405,-1.8183318376541138,-0.2914610207080841,-0.5325128436088562,-1.0814002752304077,0.878679633140564,-1.2292423248291016,-0.3525732457637787,-1.1102030277252197,-0.6346144676208496,1.1176754236221313,-0.8191248774528503,0.04337631165981293,-0.49988773465156555,1.6631255149841309,1.446280598640442,-0.5913698673248291,-1.1669902801513672,0.014009744860231876,1.5824545621871948,-1.2084879875183105,0.1886749416589737,0.2017880082130432,-0.7647817134857178,0.33729901909828186,-0.4667201042175293,-2.308976888656616,1.5907763242721558,0.8267132639884949,0.7189083099365234,-0.2237444818019867,1.063094139099121,-1.321496844291687,-0.2215205430984497,0.7826537489891052,0.03681568428874016,1.300144076347351,1.095596432685852,-0.9270360469818115,-0.23907685279846191,0.4552389979362488,-0.1867641657590866
amazon-digital-music.csv,-0.8730950355529785,-0.07725585252046585,-0.6102586388587952,-0.136380136013031,-0.5646838545799255,0.3541574776172638,-0.39431315660476685,-1.3556863069534302,0.4780851900577545,-0.4275488257408142,-0.2615242004394531,-0.5297088027000427,0.09693262726068497,-1.1041663885116577,0.39162591099739075,1.7090767621994019,-1.0321637392044067,0.417327880859375,-0.3317858874797821,1.4166460037231445,0.5059791207313538,0.4621983468532562,0.9783201813697815,-0.40158501267433167,1.6621798276901245,0.8663511276245117,-1.0962917804718018,-0.4593437910079956,-0.17530402541160583,-0.7881820201873779,-0.9740350246429443,1.6481715440750122,0.4438774287700653,0.405534029006958,-0.4520339369773865,0.41338735818862915,-1.6425833702087402,1.5636743307113647,-0.7996187210083008,-0.8551344871520996,-0.12232360988855362,0.8842490315437317,-1.0200351476669312,-0.1819223165512085,1.6307783126831055,-1.4094487428665161,1.6032204627990723,-0.38002821803092957,-0.17960557341575623,-0.06803672015666962,-2.2402994632720947,-0.1999436616897583,-2.1095595359802246,-0.3601279854774475,-0.28184953331947327,-0.01882241852581501,2.421961545944214,0.07934263348579407,0.5224987864494324,-1.6120198965072632,0.3934022784233093,-0.5143662095069885,-1.2559362649917603,0.8537580966949463,0.48727360367774963,-0.3466818332672119,-1.6835638284683228,-0.05587475746870041,1.8266496658325195,-1.3058055639266968,0.23021391034126282,-0.45157185196876526,1.1733635663986206,1.4641363620758057,-1.2946540117263794,-0.8518304228782654,-0.47112706303596497,0.5035542845726013,-1.1104331016540527,-0.548757016658783,1.4734880924224854,-1.534727931022644,0.0656309574842453,0.2946285903453827,-2.3064777851104736,1.5876036882400513,-0.07089249789714813,0.8162490129470825,-0.2011372447013855,0.5700969099998474,-1.6451467275619507,0.23434211313724518,0.5798894166946411,0.1374717503786087,1.1070095300674438,1.3458236455917358,-1.7103266716003418,-0.6128972172737122,0.11799129843711853,0.23798039555549622
amazon-cd.csv,-0.09921402484178543,-0.7397677302360535,0.6495274901390076,-0.7604255676269531,0.4170478284358978,-0.24207159876823425,-0.09695890545845032,-1.0662282705307007,0.024465806782245636,-0.3175155222415924,-0.6331753134727478,-1.02045738697052,0.19596725702285767,-1.7816994190216064,-0.27528080344200134,1.7380563020706177,-1.7070038318634033,0.569692075252533,0.004372281953692436,0.9029020071029663,0.17421194911003113,-0.8729805946350098,1.7448391914367676,0.20317724347114563,1.2088525295257568,1.3891360759735107,-0.032102931290864944,-1.155596137046814,0.9759541153907776,-0.482392817735672,-1.9533978700637817,0.4417121112346649,1.1413201093673706,1.4495035409927368,-0.37711474299430847,0.5055318474769592,-2.1294105052948,0.6436413526535034,-1.123142957687378,-0.5817704796791077,0.09218387305736542,-0.3510056138038635,-0.30161067843437195,0.8114982843399048,1.1211212873458862,-1.0367366075515747,0.9091394543647766,-0.5906186103820801,-0.2345481812953949,-0.28339526057243347,-2.0459985733032227,-0.5806326270103455,-1.6577664613723755,0.008542116731405258,-0.883692741394043,1.1791810989379883,0.66615891456604,0.21412989497184753,-0.08207879215478897,-1.4683881998062134,-0.4626280963420868,-0.30670297145843506,-0.7717544436454773,0.5907986760139465,-0.7450823187828064,-0.07077270746231079,-0.3419847786426544,-0.6432608366012573,1.0069174766540527,-1.5547459125518799,0.7124858498573303,-1.6580172777175903,0.06332030147314072,-0.2669474482536316,-1.2250933647155762,-1.2958048582077026,0.7055782079696655,0.5523422956466675,-1.250994324684143,-0.6273555755615234,1.1266707181930542,-0.3481670618057251,-0.4682667851448059,1.0834500789642334,-3.40604305267334,0.9161152839660645,0.2995256185531616,0.5762273073196411,-0.24111881852149963,1.2951996326446533,-1.2953568696975708,-1.301194667816162,0.39020025730133057,0.5603802800178528,1.0306577682495117,1.2502408027648926,-0.9900335669517517,-0.7013624906539917,1.934218406677246,-0.529862105846405
amazon-baby.csv,-0.26970046758651733,-1.9673088788986206,1.4466657638549805,-0.22833004593849182,-0.012819738127291203,0.041736919432878494,-0.8205417394638062,-0.7138046026229858,0.8900478482246399,-0.9020036458969116,-0.7172033786773682,-0.24339601397514343,0.4647791385650635,-0.38127008080482483,-0.5560595393180847,1.3000792264938354,-2.0403409004211426,1.101594090461731,0.9919425249099731,0.8659273386001587,1.2263511419296265,-0.052545301616191864,0.8865272402763367,0.46168527007102966,1.779421091079712,-0.2664465010166168,-0.7319623231887817,-1.0208015441894531,1.5059956312179565,-1.4684382677078247,-1.020330786705017,0.14460980892181396,0.31438153982162476,-1.1522785425186157,-0.8487153649330139,0.00022596724738832563,-1.0531513690948486,1.1881006956100464,-1.5867356061935425,0.36248061060905457,0.6671776175498962,0.5187034010887146,-0.16137760877609253,0.9213739633560181,0.654549777507782,-1.3116167783737183,1.725854516029358,-0.7820489406585693,-0.6523573994636536,0.602602481842041,-1.0458816289901733,0.5516077876091003,-1.0794860124588013,-0.18291012942790985,-0.44925418496131897,0.2066405862569809,0.5149868726730347,0.18805642426013947,0.20682652294635773,-2.376067876815796,-0.046246279031038284,0.314462274312973,-1.0578457117080688,0.6627137660980225,-0.2850365936756134,-0.37419572472572327,-1.285300374031067,-1.0853431224822998,1.0444464683532715,-1.8555108308792114,0.4009867012500763,-1.3658533096313477,1.1008927822113037,2.2643415927886963,0.15730342268943787,-1.2388739585876465,0.4823682904243469,0.9972387552261353,-1.0465177297592163,-1.074364423751831,1.6830676794052124,-0.3735300898551941,0.9218286871910095,0.6959866285324097,-1.9502040147781372,1.2553250789642334,-1.3194366693496704,-0.012203602120280266,-0.5610367655754089,0.8966805338859558,-2.3483052253723145,-0.6481791138648987,-0.27560365200042725,1.1678730249404907,0.5526236891746521,0.4557924270629883,-0.6456535458564758,-0.2824563682079315,0.4583846926689148,0.4686849117279053
movielens20m.csv,-0.32269492745399475,-1.0010504722595215,-0.31090110540390015,0.6081866025924683,-0.9090477824211121,-0.8542795181274414,0.6624295115470886,-0.6843088269233704,1.9170691967010498,-2.5548255443573,-0.8780661821365356,-0.4237862825393677,-0.4388291835784912,-0.3007192015647888,-0.08542446047067642,1.2044874429702759,-1.4790356159210205,0.7430445551872253,0.4038700759410858,0.8110624551773071,-0.15575678646564484,0.991805911064148,1.2890582084655762,1.0319033861160278,2.00784969329834,0.5201139450073242,0.1256117969751358,0.5357221961021423,-0.5070092082023621,-0.5647018551826477,-1.3533669710159302,0.5380750894546509,0.9455774426460266,0.08727476745843887,-0.3335217535495758,-0.05810612812638283,-2.377514600753784,2.548985242843628,-1.0520652532577515,0.16614623367786407,0.8105109333992004,-0.5111677646636963,0.35218116641044617,0.18498843908309937,0.8573318719863892,-0.11829306930303574,1.1700729131698608,0.8062378764152527,-0.4535071849822998,0.38845565915107727,-2.511078357696533,-0.3572169244289398,-1.7920985221862793,-0.32337355613708496,0.28310492634773254,0.7513388395309448,0.8684523105621338,-0.009027661755681038,-0.9315540790557861,-1.8258402347564697,-0.12459838390350342,0.8386397361755371,-1.0463027954101562,0.9200279116630554,0.8720438480377197,-0.009318307973444462,-0.12668384611606598,-0.28505632281303406,1.0053582191467285,-1.1751600503921509,0.8087781667709351,-0.35002678632736206,1.0409140586853027,0.3774521052837372,0.020704057067632675,-1.1539798974990845,0.09714392572641373,0.3330666720867157,-0.7311733365058899,-0.8494210243225098,0.4642007350921631,0.5725343227386475,-0.4858282208442688,0.039113305509090424,-2.587446928024292,0.9681980609893799,0.9002978801727295,-0.5292521715164185,0.5783831477165222,0.5369980931282043,-2.59720778465271,-0.09550093114376068,-0.8412352800369263,-0.0958654135465622,-0.5459304451942444,0.17323802411556244,-1.2421190738677979,-2.0187695026397705,-0.012873511761426926,0.6753155589103699
amazon-beauty.csv,0.7636783123016357,-0.7573742270469666,0.6499512195587158,-1.1317447423934937,0.10679837316274643,-0.3918895423412323,-0.2183280736207962,-0.4255523383617401,2.23404598236084,-0.7545844316482544,0.0032620530109852552,-0.9213844537734985,0.719693124294281,-1.7737081050872803,0.5510883331298828,2.7723774909973145,-1.0262409448623657,0.759988009929657,1.130967617034912,-0.13072159886360168,0.22408977150917053,0.09268487989902496,1.2621790170669556,-0.48045814037323,1.378705620765686,1.2102261781692505,-0.8754396438598633,-0.46343794465065,-0.5547135472297668,-0.4958263039588928,-1.564269781112671,0.4628569185733795,1.5459922552108765,0.35827067494392395,-0.34424543380737305,-0.12237884104251862,-1.3474169969558716,0.4099317491054535,-0.5934335589408875,-0.3931798040866852,0.5242602825164795,-0.2251984030008316,-0.5796817541122437,0.618416965007782,1.3923579454421997,-1.9644523859024048,2.03562331199646,-0.28554102778434753,-0.9652014374732971,0.4088492691516876,-1.9704082012176514,0.9848010540008545,-1.9039632081985474,0.010959888808429241,-0.7442746162414551,0.5670517683029175,0.9910440444946289,0.10710563510656357,0.7974626421928406,-2.03751802444458,-0.08561807125806808,0.5841938853263855,-1.4636980295181274,0.6344831585884094,-0.22837723791599274,-0.23035548627376556,-1.0427075624465942,-0.1774776428937912,0.1652035117149353,-1.0542949438095093,1.2361751794815063,-0.6763614416122437,1.8046077489852905,0.6224326491355896,-1.3271087408065796,-1.2506688833236694,1.0311397314071655,1.0992411375045776,-1.485166072845459,0.3542039692401886,0.22503378987312317,-0.5587753653526306,-0.4930424988269806,0.48020583391189575,-2.4086010456085205,0.3749338388442993,0.9110457301139832,0.6432670950889587,0.17022432386875153,0.4512360394001007,-1.02432382106781,0.15957920253276825,0.7350375056266785,0.8076530694961548,0.7776667475700378,1.626118779182434,-0.5379905104637146,-0.2567604184150696,0.5299162268638611,0.805171549320221
amazon-movies.csv,-0.9259797930717468,-0.5488307476043701,-1.3215723037719727,-1.7215927839279175,-0.8789527416229248,-1.2812930345535278,0.3121008574962616,-0.2362663745880127,0.5848025679588318,-0.6806315779685974,-0.4725455939769745,-0.95787513256073,1.1228022575378418,-0.8090502619743347,-0.6771552562713623,0.3638257384300232,-0.9008415937423706,-0.48130038380622864,0.5825539231300354,0.40165141224861145,-0.08543289452791214,1.3349295854568481,2.2976701259613037,1.116667628288269,0.7476977109909058,0.03272538259625435,-2.032226324081421,-0.9974164962768555,0.14035850763320923,-1.4135667085647583,-1.933667778968811,-0.1950342357158661,1.1437891721725464,-0.13429845869541168,-0.04145793244242668,0.41950899362564087,-1.0193870067596436,0.24412670731544495,-1.6802856922149658,0.9385119676589966,0.5848066806793213,0.026611339300870895,-0.3821727931499481,1.4320766925811768,0.9313989281654358,-0.11573820561170578,1.0710053443908691,-0.8164688944816589,-1.499937653541565,1.2648669481277466,-1.110967993736267,-0.11304537206888199,-0.8574028015136719,1.6357347965240479,-0.015614223666489124,0.3873860239982605,0.7175276875495911,-0.22465749084949493,-0.006251745857298374,-1.415952444076538,-0.12158297747373581,-0.7955977320671082,-2.0237598419189453,0.026674343273043633,0.508937418460846,0.45058009028434753,-1.6746623516082764,-0.9072463512420654,1.3315818309783936,-0.9446251392364502,0.2700875997543335,-0.5882191061973572,2.1694083213806152,0.7787202596664429,0.6286891102790833,-0.9014266729354858,0.08744402229785919,1.419067621231079,-0.6191546320915222,-0.6389815807342529,-0.3765959143638611,-1.4814859628677368,-0.7878892421722412,0.7654438614845276,-2.45841908454895,-0.6726371049880981,0.06867766380310059,-0.2322387993335724,1.073438286781311,1.0899078845977783,-1.90943443775177,0.45156359672546387,0.5822990536689758,-0.45796239376068115,0.7341137528419495,1.6084107160568237,-0.6384469270706177,-0.6913020610809326,-0.3382979929447174,-0.8877560496330261
movietweetings_recsys2014.csv,0.260183721780777,-2.3579249382019043,-0.5912556052207947,0.04384521767497063,0.7521781325340271,-0.8360932469367981,0.8205217719078064,-0.5934104323387146,0.9543318152427673,-1.4972870349884033,0.13655808568000793,-1.1706066131591797,1.0089375972747803,0.42366501688957214,0.6438690423965454,1.9627662897109985,-3.281209945678711,0.3921332359313965,-0.23463182151317596,1.2265853881835938,0.08273966610431671,0.15409746766090393,2.2331137657165527,-0.9145976901054382,0.9643681645393372,1.0455036163330078,-0.6619250178337097,0.17736652493476868,-0.48341819643974304,-0.3015556335449219,-0.28520146012306213,-0.3772045969963074,0.034921132028102875,0.3454950749874115,-0.3271408975124359,0.27780160307884216,-1.5914379358291626,0.3026968836784363,-0.5238221883773804,0.4666988253593445,0.18310055136680603,1.5136269330978394,-1.8573800325393677,1.8098564147949219,2.5477397441864014,-1.1448582410812378,-0.5239424109458923,-0.11180531233549118,0.6306594014167786,0.36994603276252747,-1.2650500535964966,-0.11083418875932693,-0.7534570693969727,-0.07276714593172073,0.057366613298654556,-0.20896872878074646,0.8531584143638611,-0.11470983177423477,-0.2389875203371048,-1.8933868408203125,-0.6929028630256653,-0.33156976103782654,-0.26904332637786865,0.5284199714660645,0.569821834564209,-0.8584157228469849,-1.3847272396087646,0.4153253436088562,0.6726549863815308,0.06384410709142685,0.009343639016151428,0.2899192273616791,0.5376120209693909,1.2089773416519165,-0.14853934943675995,-0.6394307017326355,-0.9576314687728882,0.04504651576280594,-0.6891597509384155,0.7193402051925659,-1.165459394454956,1.6385455131530762,0.3098287582397461,0.2257498800754547,-2.526522159576416,1.64012610912323,-0.3193461000919342,-0.5622607469558716,-0.0006770636537112296,0.842081606388092,-2.064595937728882,-0.41357743740081787,0.5622421503067017,1.453068733215332,0.5074285268783569,0.7978150844573975,-1.0633925199508667,-0.3144444525241852,0.3318485915660858,0.6538101434707642
movielens10m.csv,0.10252892225980759,0.036624521017074585,0.34481266140937805,0.7643243670463562,-0.13989493250846863,0.471329927444458,0.5356749296188354,-1.1318358182907104,2.1549501419067383,-0.7832581400871277,0.19077308475971222,-1.0074204206466675,1.3120452165603638,0.8172925710678101,-0.3120662569999695,1.467729926109314,-1.836940050125122,0.4033196270465851,0.5164291262626648,1.2541338205337524,0.2335471212863922,-0.5554332137107849,0.08740758895874023,0.6697682738304138,0.48598727583885193,0.6939385533332825,-0.6178966164588928,1.0309168100357056,0.09511367976665497,-1.47943913936615,-0.4008418917655945,-0.03753384202718735,1.1684837341308594,0.7920759320259094,0.2323457896709442,0.4604252874851227,-2.600311040878296,2.337256908416748,-1.2662633657455444,-0.2569400668144226,-0.15866214036941528,0.11619429290294647,0.43889811635017395,1.2896511554718018,1.6245890855789185,-1.8645602464675903,0.9157454967498779,0.016333170235157013,-0.6546900868415833,-0.5700972080230713,-1.0795514583587646,0.6799008846282959,-1.3824902772903442,2.331489086151123,-1.0524722337722778,-0.3609498143196106,1.023098349571228,0.030763065442442894,0.3322954773902893,-1.1723310947418213,-0.6650148034095764,-1.0096358060836792,-0.4337098300457001,-0.32143574953079224,1.85804283618927,0.0039284368976950645,-0.7097606062889099,0.008602684363722801,0.7278214693069458,-0.6883209347724915,0.3427419066429138,-0.493600457906723,-0.5985743999481201,1.4964104890823364,-0.39959916472435,-0.6099384427070618,0.8529151678085327,0.516737163066864,-1.7922261953353882,-0.1191176325082779,0.5095168352127075,-0.8501529693603516,-0.5355547666549683,0.43820706009864807,-2.449489116668701,0.5287528038024902,-1.5015549659729004,0.9661057591438293,0.0588969960808754,-0.014034218154847622,-1.4972432851791382,0.25118133425712585,1.7126725912094116,0.30754736065864563,-0.2886688709259033,1.8854057788848877,0.24569591879844666,-1.3106944561004639,0.5173860192298889,0.9664280414581299
jester3.csv,0.13868509232997894,-0.32287901639938354,0.09868747740983963,0.054739803075790405,-0.5362779498100281,-0.8671917915344238,0.3935730457305908,-0.45603716373443604,1.0449811220169067,-0.8884347081184387,-1.801851511001587,0.23808921873569489,1.1424769163131714,-1.585151195526123,-0.0944463461637497,0.2469949573278427,-0.5845412015914917,1.4448553323745728,1.2969363927841187,1.8825242519378662,0.02191024087369442,1.236671805381775,0.5088750720024109,1.7836129665374756,2.203641891479492,0.8012522459030151,-1.0752902030944824,0.32041415572166443,-0.48642244935035706,-0.07534332573413849,-1.6421566009521484,1.205240249633789,-0.6431289911270142,-0.4264747202396393,-1.3961703777313232,-0.20636621117591858,-2.6330196857452393,1.260430097579956,-1.5492308139801025,-0.6262830495834351,0.6870522499084473,1.0629193782806396,-0.7572093605995178,1.2677934169769287,2.159865379333496,-0.8671378493309021,0.401462584733963,-0.2766888439655304,-0.30331528186798096,-0.05420072376728058,-1.6618821620941162,0.7120569348335266,-0.49973008036613464,-0.45422881841659546,-1.154834270477295,-0.3818345069885254,0.13011200726032257,1.5743231773376465,-1.0960955619812012,-1.4533984661102295,-0.3199591338634491,-1.3537448644638062,-0.9435068368911743,0.7415820956230164,1.623711109161377,-0.37045860290527344,0.38382890820503235,0.7908403873443604,-0.06118600815534592,-0.4755808413028717,0.23203666508197784,-0.3711700439453125,0.6823566555976868,1.1718940734863281,-0.9736149311065674,0.32507970929145813,0.5503890514373779,-0.20118586719036102,-1.1307809352874756,0.30945268273353577,-0.8484176397323608,-0.8739333152770996,0.6947984099388123,-1.0530898571014404,-1.9080862998962402,0.842315137386322,-0.47596633434295654,1.2428743839263916,0.10489742457866669,1.645176887512207,-1.7066326141357422,0.08033852279186249,-0.715622067451477,1.1991008520126343,0.7132207155227661,1.0172210931777954,-0.4082528054714203,-0.4318538010120392,-0.5869798064231873,-0.4357719123363495
amazon-home.csv,1.0801670551300049,-0.9850196242332458,1.1416466236114502,-0.40461739897727966,0.05924683436751366,-0.03639625757932663,-0.8057114481925964,-0.06531909853219986,1.5915920734405518,-0.23887582123279572,-0.04119275137782097,-1.2103190422058105,0.3388679325580597,-1.4698643684387207,0.07406824082136154,1.1152420043945312,-3.030496597290039,1.2450461387634277,0.8196942806243896,0.2992248833179474,-0.35404568910598755,0.28883761167526245,0.6279726028442383,0.047583241015672684,0.41333839297294617,-0.12430728226900101,-0.2743137776851654,-0.5851818323135376,0.4649732708930969,-1.1830979585647583,-2.054795265197754,0.912678062915802,1.008284091949463,-0.16366814076900482,-0.5124168992042542,0.46112698316574097,-1.701605200767517,1.7709499597549438,-0.7734178900718689,0.34495851397514343,1.111590027809143,0.6830469965934753,-1.0751590728759766,0.6804726719856262,0.9791814088821411,-0.3559049367904663,1.0199509859085083,-0.3065320551395416,-0.4709210693836212,0.7859618663787842,-0.3336902856826782,-1.293247103691101,-1.060636281967163,1.3420015573501587,0.4087226986885071,0.4195045530796051,1.062408447265625,-0.26841065287590027,-0.6853711605072021,-1.6886043548583984,-0.4889903664588928,0.6075720191001892,-0.8467939496040344,0.22053302824497223,0.1529976725578308,-0.6559727191925049,-0.7870160341262817,-0.25558367371559143,1.1369526386260986,-1.4078818559646606,1.1598842144012451,0.5723727941513062,2.4405481815338135,1.675301194190979,-1.374915599822998,0.07741319388151169,0.6973628997802734,1.2135508060455322,-1.3541245460510254,-0.007855785079300404,0.8078582882881165,-1.3254019021987915,-0.05235889181494713,-0.6471871733665466,-3.0838799476623535,0.86179119348526,0.1889510303735733,1.159148931503296,0.3456135094165802,0.989670991897583,-1.776379942893982,-0.8447052836418152,-0.0010250338818877935,1.4266855716705322,-0.18529756367206573,0.37870877981185913,-0.7334608435630798,-0.11158166080713272,-0.391134113073349,-0.5456758737564087
amazon-instant-video.csv,0.34313535690307617,-0.35109907388687134,-0.43781355023384094,-0.3917069137096405,-1.4546844959259033,-1.1916513442993164,0.20034466683864594,-1.1097102165222168,0.06317419558763504,-0.8359422087669373,-0.880954384803772,0.1746528446674347,0.413593053817749,-1.4488109350204468,0.37826427817344666,2.0140328407287598,-1.0597004890441895,1.852850079536438,-0.17850230634212494,1.039212703704834,-0.1901858150959015,-0.46496787667274475,1.1210628747940063,-0.08357333391904831,1.0420069694519043,-0.0360046923160553,-0.7905426621437073,0.5612540245056152,1.6035475730895996,-1.4424049854278564,-0.5019804239273071,0.600383996963501,0.4345000386238098,0.022761793807148933,-1.030944585800171,-0.07020311802625656,-0.8424667119979858,0.424552857875824,-1.5010119676589966,-0.5634381175041199,0.17499232292175293,-0.3295249938964844,-1.0246013402938843,0.6091945767402649,1.199103832244873,-1.4177086353302002,1.4833471775054932,-0.05871952697634697,0.8556981086730957,0.10156556218862534,-0.8120863437652588,-0.25427594780921936,-0.9904907941818237,-0.2647694945335388,-1.2071762084960938,-0.2892051935195923,1.3762136697769165,0.9790331125259399,0.8426095843315125,-1.1532838344573975,0.42428120970726013,0.47229474782943726,-1.1219396591186523,1.0537699460983276,-0.03006376512348652,-1.1677303314208984,-0.39646804332733154,0.3352099657058716,1.3473597764968872,-1.931546688079834,-0.7840079069137573,-0.003552899230271578,1.229036808013916,0.7407964468002319,-0.7492514252662659,-0.2732100486755371,0.07473092526197433,1.4112136363983154,-1.9322563409805298,-0.23830321431159973,0.7022138833999634,-2.216519594192505,-0.8299676179885864,-0.09858811646699905,-3.941728353500366,0.44396406412124634,-0.6020513772964478,-0.946074366569519,0.35565507411956787,0.7809563279151917,-1.2158640623092651,-0.5314126014709473,-0.53389573097229,0.2760232388973236,0.1080213263630867,1.0309381484985352,-2.068354845046997,-0.6423838138580322,0.33823370933532715,0.6219422817230225
tripadvisor.csv,0.39499011635780334,-1.1290231943130493,-0.31937164068222046,-0.5516145825386047,-0.9949701428413391,-0.578933596611023,-0.036386072635650635,-1.4844266176223755,0.7455894947052002,-1.51324462890625,0.6132694482803345,-0.6425603032112122,0.5650702118873596,-1.5012190341949463,0.9891155362129211,0.9319961071014404,-1.4433643817901611,-0.35855403542518616,-0.5360056161880493,1.842909336090088,0.3186216652393341,0.05098063871264458,0.35346123576164246,1.1280370950698853,1.2324631214141846,0.571158766746521,-0.5686665177345276,-1.0290178060531616,-0.13249023258686066,-1.0504441261291504,-1.6423333883285522,2.394671678543091,1.46547269821167,-0.21479681134223938,-1.2398771047592163,0.07442323863506317,-1.2399886846542358,0.5516467094421387,-2.3042187690734863,-0.15084074437618256,0.3363555073738098,0.1265987753868103,-0.5443458557128906,0.7013063430786133,1.926775574684143,-1.4778157472610474,1.212157130241394,-1.3006757497787476,-0.15657395124435425,-0.1439880132675171,-0.9527087211608887,0.5138964056968689,0.021646196022629738,0.33968085050582886,-0.8361579179763794,0.10310328006744385,0.10300415754318237,0.3647193908691406,0.006218018010258675,-2.8460214138031006,-1.0424526929855347,0.04091380536556244,-1.8570994138717651,0.19572533667087555,0.12482738494873047,0.0687786415219307,-0.9992623925209045,-1.110715627670288,1.4718209505081177,-0.452140212059021,1.0037559270858765,-0.8733125329017639,0.8887604475021362,1.2271113395690918,-1.7980546951293945,-0.9172284603118896,0.7237775325775146,0.6342600584030151,-0.8351357579231262,0.1848868429660797,0.2510465681552887,0.3931131362915039,-1.049660086631775,0.7010744214057922,-3.2004685401916504,0.5407845973968506,-0.4001563489437103,0.4225855767726898,-0.48221355676651,0.8630746006965637,-0.31298840045928955,0.10461928695440292,0.323321133852005,0.45326927304267883,0.06862585246562958,0.8175356388092041,0.13724908232688904,-1.2023372650146484,-0.10088492929935455,0.06209220737218857
movietweetings_latest.csv,-0.6336663365364075,-0.3627172112464905,-0.4334220588207245,0.5071200728416443,-1.2011953592300415,-0.6258105635643005,0.7098656296730042,-1.0839163064956665,0.7125614881515503,-0.10015137493610382,-0.6606638431549072,0.5958313345909119,-0.009092116728425026,-0.37778767943382263,0.17623411118984222,2.3635752201080322,-1.5697240829467773,2.0598485469818115,1.0724842548370361,0.9448975920677185,-0.6067951321601868,0.264771044254303,1.5536175966262817,0.13348877429962158,0.5428903698921204,-0.035833436995744705,-1.6495243310928345,-0.8560614585876465,-0.1999111920595169,-0.8626140356063843,-1.0427019596099854,1.120898723602295,0.6731449961662292,1.1129744052886963,-1.005873203277588,-0.7508507370948792,-1.500022053718567,1.1620205640792847,-0.43894001841545105,1.9598109722137451,-0.06375256180763245,0.12808719277381897,-1.354738712310791,1.70138418674469,0.5918295383453369,-0.7550508379936218,0.5198477506637573,-0.38779109716415405,-1.7172679901123047,-0.004043668508529663,-1.8714332580566406,-0.0756613165140152,-0.8312309980392456,-0.3364337086677551,-2.5079991817474365,1.228454351425171,2.7877416610717773,1.2400081157684326,-1.0172367095947266,-1.3819317817687988,0.041919074952602386,-0.807515025138855,-0.19899363815784454,0.16513380408287048,0.3171335756778717,-0.515625536441803,0.945042610168457,-1.3083465099334717,0.49889951944351196,-0.3527618944644928,1.2888952493667603,-1.3150752782821655,0.6690241694450378,0.7639071941375732,0.09444119781255722,-0.4861873984336853,0.06953980028629303,0.16505010426044464,-0.776156485080719,-0.40374094247817993,0.7364417910575867,-0.31474295258522034,-0.34507647156715393,0.9209606647491455,-2.5490942001342773,1.1523499488830566,0.4914262592792511,0.16820670664310455,-1.2603503465652466,0.7770796418190002,-0.8822504878044128,-0.6727760434150696,0.7805770635604858,-0.5663950443267822,0.06322859227657318,0.9762674570083618,0.6546474099159241,0.19281958043575287,-0.5339395403862,0.5824679732322693
amazon-toys.csv,0.38968610763549805,-0.2968672811985016,0.07331399619579315,0.23512183129787445,-0.7901913523674011,-0.8135702013969421,0.0299235749989748,-0.9565064311027527,1.5274369716644287,-1.1521646976470947,-0.4263818860054016,-0.4632914364337921,-0.4823419153690338,-1.0088653564453125,-0.8715516924858093,1.649762511253357,-2.144897699356079,0.5496010780334473,-0.6536975502967834,0.7828398942947388,0.40188342332839966,0.27738577127456665,1.1232492923736572,0.07061830908060074,1.376809000968933,0.3787612318992615,-0.9159278273582458,-1.427342414855957,0.654482901096344,-0.5613619089126587,-1.2978219985961914,0.24205127358436584,1.520418405532837,0.040492475032806396,-0.6210113763809204,0.22750304639339447,-2.328076124191284,0.9420419335365295,-1.9506139755249023,-0.9292192459106445,0.5451776385307312,0.03062053583562374,-1.1085649728775024,0.652752161026001,0.8877384662628174,-1.0761961936950684,1.6840286254882812,-0.22209878265857697,-0.7937313914299011,-0.31565725803375244,-1.374986171722412,0.3439302444458008,-1.323482871055603,-0.9425132274627686,0.2834163308143616,0.0010050823912024498,1.1397130489349365,1.004992127418518,-1.153867483139038,-0.983944296836853,0.18474039435386658,-0.12069415301084518,-0.6122792959213257,0.25312691926956177,-0.5453818440437317,0.19834265112876892,-0.24686332046985626,0.053226325660943985,0.7794170379638672,-1.0962927341461182,0.43429553508758545,-0.5972875356674194,1.5614830255508423,1.457944393157959,-1.8876439332962036,-1.1087584495544434,0.07343176007270813,1.3841090202331543,-1.7879116535186768,-0.4314633905887604,-0.3572455048561096,-0.6742966175079346,-0.48106545209884644,0.23900499939918518,-3.840325117111206,1.10091233253479,0.14561563730239868,-0.3729647099971771,-0.19358578324317932,0.13414344191551208,-0.9353674650192261,-0.6375210881233215,1.3518917560577393,1.101269245147705,0.7435130476951599,1.2768720388412476,-0.7506982088088989,-0.1882089376449585,-0.5674744844436646,-0.9510343074798584
jester2.csv,-1.036546230316162,-0.7962918281555176,0.4214552342891693,-0.38442760705947876,-0.8869467377662659,0.1879677027463913,0.05244627222418785,-1.3679883480072021,1.0111855268478394,-1.6798616647720337,0.9537297487258911,0.23250126838684082,-0.7816160917282104,-2.48793625831604,0.3499041199684143,0.7217352390289307,-1.740548014640808,1.2618470191955566,0.589277982711792,1.1535913944244385,-0.4363374710083008,-0.327982634305954,0.733285129070282,0.553339958190918,1.6782658100128174,0.8291961550712585,0.15269018709659576,-1.013651967048645,-3.2185296731768176e-05,-0.7241550087928772,-0.3896435499191284,0.5504498481750488,0.9486072659492493,-0.5336848497390747,-0.6886772513389587,-0.0488620363175869,-1.1338647603988647,2.083899736404419,-1.9101099967956543,-0.2172805666923523,-0.1493167281150818,0.9008601307868958,0.5050656795501709,0.42726290225982666,1.37655508518219,0.07794801890850067,0.2635345458984375,-0.407880961894989,-0.6978570818901062,0.8036614656448364,-0.23286624252796173,-0.3783351480960846,-1.965184211730957,0.28601640462875366,-0.23984570801258087,-0.07905513048171997,1.9733856916427612,0.6838037371635437,-0.6336575746536255,-1.4433444738388062,-0.32107725739479065,-0.8066447973251343,-0.2840324342250824,0.9959072470664978,1.519400715827942,-0.5626584887504578,-0.21521343290805817,-0.004415594041347504,0.6288147568702698,-2.3483927249908447,0.10771145671606064,-0.770359218120575,0.9319909811019897,1.69650137424469,-1.229858160018921,0.04196031019091606,-0.588129997253418,0.4286569654941559,0.03587029129266739,-0.2941374182701111,-1.483500599861145,-0.42025959491729736,0.3706035912036896,1.4773198366165161,-1.7727723121643066,-0.4523106813430786,-1.3214396238327026,0.5189339518547058,-1.2522965669631958,1.1081572771072388,-2.059293270111084,0.08698298782110214,0.22619487345218658,0.9971950054168701,-1.3403098583221436,1.9187543392181396,-0.21601133048534393,-0.5361729264259338,-0.2006319910287857,1.6030404567718506
yahoo-music.csv,-1.2609771490097046,-1.0257973670959473,0.076771579682827,1.3432446718215942,0.0589587576687336,-1.3368006944656372,-0.5781052112579346,-0.27758893370628357,1.9039130210876465,-1.287173867225647,-0.8293524384498596,-0.2634226381778717,0.5639004111289978,-0.6551735997200012,-0.5111207365989685,-0.21174296736717224,-1.3907036781311035,0.40247419476509094,0.7959566712379456,-0.2643880844116211,0.3402279317378998,0.45318466424942017,1.505394697189331,-0.3768489360809326,1.4365696907043457,0.21346212923526764,-1.6437104940414429,-0.5369990468025208,-0.11072533577680588,-1.398615837097168,0.11074424535036087,1.9733266830444336,0.7540558576583862,-0.08297139406204224,-0.5316531658172607,-1.2338353395462036,-1.2981783151626587,2.1366448402404785,-1.3396930694580078,-0.4913219213485718,-0.043883830308914185,0.004352522548288107,-0.7910422086715698,0.9808927774429321,2.0420303344726562,-0.20902667939662933,1.728987455368042,0.9863749742507935,0.23953664302825928,0.5094302296638489,-0.8496037721633911,-0.9975104928016663,-2.6423678398132324,0.6775092482566833,-0.7023406624794006,0.6073819398880005,0.8371157646179199,-0.3655174970626831,-0.09259984642267227,-2.553387403488159,-0.3045112192630768,0.43370404839515686,-1.3499054908752441,1.5841913223266602,0.2784785330295563,0.3024338483810425,0.420852929353714,-0.7038999199867249,0.4740629196166992,-0.35140031576156616,1.0288609266281128,-0.9071170091629028,0.1103263646364212,1.0552332401275635,-0.38705742359161377,0.8744828104972839,1.559797763824463,0.19404789805412292,-0.06663616746664047,0.16082771122455597,-0.5913770198822021,-1.1557561159133911,0.868495762348175,0.7724677920341492,-2.7378740310668945,0.4543282687664032,0.2074049860239029,0.7389092445373535,0.23069646954536438,0.865294873714447,-1.891507625579834,-0.4972594082355499,0.32768452167510986,1.2824329137802124,0.03778667002916336,0.9737261533737183,0.023653605952858925,-0.3455619215965271,0.4998617470264435,-0.6052489876747131
amazon-games.csv,0.3871993124485016,-1.5454425811767578,-0.15718452632427216,-1.8895394802093506,-1.1820975542068481,-0.5413241386413574,-0.5021249055862427,-0.5969876050949097,0.7079679369926453,-1.09769868850708,-0.7914297580718994,-0.8175308704376221,-0.33149808645248413,-1.4413774013519287,1.5545406341552734,2.0952892303466797,-0.8787927031517029,0.813448429107666,0.46328192949295044,0.7573551535606384,1.3623127937316895,0.9832839369773865,1.2637614011764526,0.01566287688910961,2.144681453704834,0.3556082248687744,-0.45581409335136414,0.31841179728507996,1.2468270063400269,-0.7369152307510376,-1.3823297023773193,1.2647992372512817,1.5584245920181274,-0.3779168128967285,-0.5057988166809082,0.5396701097488403,-1.6522318124771118,1.904144525527954,-0.4609997868537903,-0.7807860970497131,1.036173939704895,0.614698052406311,-0.6716492772102356,0.6557289361953735,1.1489596366882324,-0.6080315709114075,1.4725617170333862,-0.053735408931970596,-0.5750625729560852,0.18467199802398682,-0.6207558512687683,0.3049512207508087,-1.032408356666565,0.5626099705696106,-0.5254154205322266,0.7534214854240417,1.9334841966629028,0.011614114046096802,-0.4320337176322937,-1.5322293043136597,-0.6736705899238586,-0.6313135623931885,-1.0341670513153076,0.8815106153488159,-0.7480425238609314,0.3404371440410614,-0.31116700172424316,-0.144952654838562,0.534498929977417,-1.0101866722106934,0.6046887040138245,0.09582626819610596,0.9509259462356567,0.7667732834815979,-0.6790968179702759,-0.4963293969631195,0.5244613289833069,1.1643586158752441,-1.0365028381347656,0.6709870100021362,1.1771103143692017,-0.8459852933883667,-0.3634045720100403,-0.9818934202194214,-3.36909818649292,0.9308335781097412,-0.924515426158905,-0.1202780157327652,-0.4078942537307739,0.9391331076622009,-0.8291642069816589,-0.16672560572624207,0.8794054388999939,0.78066086769104,0.8583252429962158,1.2811247110366821,-0.6708150506019592,-1.887062430381775,-0.2610183358192444,-0.1969585120677948
flixter.csv,0.5938248038291931,-0.947684109210968,-0.002873835153877735,-0.4348963797092438,-0.5836758017539978,-1.439965844154358,1.2927658557891846,-0.815877377986908,2.283891201019287,-0.35723385214805603,-0.2588788866996765,-0.8731216788291931,0.40075090527534485,-0.5287309288978577,-0.5782213807106018,2.2368061542510986,-1.8120980262756348,-0.547601580619812,1.0947083234786987,0.012609384953975677,1.4526939392089844,-0.6982433795928955,-0.2605092525482178,1.0401051044464111,1.1989463567733765,1.1700794696807861,-1.3825949430465698,0.024221722036600113,0.14764142036437988,-0.5169869661331177,-0.8345047235488892,0.7326852083206177,0.7066704034805298,0.25557416677474976,0.3141348659992218,-0.4129824936389923,-1.6611608266830444,0.17998404800891876,-2.0357120037078857,-0.06645642966032028,0.01499655470252037,1.3680102825164795,-0.047093573957681656,0.3860236704349518,1.2168712615966797,0.2819592356681824,-0.10908325016498566,0.2338048666715622,-1.0277438163757324,0.3237711191177368,-1.289759635925293,0.5156049132347107,-2.373725175857544,-0.5766376852989197,-0.0764508843421936,0.9864746332168579,1.5378865003585815,1.0578466653823853,-0.07055175304412842,-2.0942835807800293,-2.1820595264434814,0.07585649192333221,-0.9181230068206787,0.38235870003700256,-0.4556329548358917,-0.8878708481788635,0.5628283619880676,-0.9681670665740967,1.8549937009811401,-1.0192389488220215,-0.012115518562495708,-0.3499341905117035,0.1400243639945984,1.881512999534607,0.5455437302589417,-0.7219839096069336,-0.004663259256631136,-0.44773876667022705,-0.5620509386062622,-0.00749629270285368,0.036756325513124466,-0.9017167687416077,-0.28122925758361816,1.102686882019043,-1.8200546503067017,0.9121621251106262,-0.03250362351536751,0.16642314195632935,-1.0261105298995972,0.5997388362884521,-1.622483253479004,-1.465706706047058,0.4502542018890381,-0.8574097752571106,-0.092652827501297,0.39222297072410583,-1.4792286157608032,-0.6582648158073425,-2.010855197906494,-0.08059976249933243
jester1.csv,-0.04620455205440521,-0.7374908924102783,-0.11597729474306107,-0.3040688633918762,-0.5955971479415894,-0.7950683236122131,-0.2684822082519531,-0.09488347172737122,1.400968313217163,-1.3797358274459839,-0.3081115484237671,-0.5707623958587646,0.4667724072933197,-1.1341620683670044,0.5623909831047058,1.396636724472046,-2.0528037548065186,0.9575856924057007,0.18452391028404236,1.5865576267242432,-0.44725820422172546,-0.4190709888935089,-0.6662424802780151,-0.9538122415542603,1.5281320810317993,0.7283139228820801,-1.95841646194458,0.34815993905067444,-0.5211983919143677,-1.483374834060669,-1.3581345081329346,0.40293410420417786,0.4480888843536377,-0.7677462100982666,-0.770958662033081,-0.2675749659538269,-0.8716040849685669,1.2299771308898926,-1.3647489547729492,-0.560651421546936,0.4709004759788513,-0.4576759934425354,0.16450034081935883,-0.3090309798717499,1.0065261125564575,-0.19768574833869934,0.37661463022232056,0.5937510132789612,-0.16534481942653656,0.5150324702262878,-2.85329532623291,-0.3319588303565979,-0.15954811871051788,1.4142181873321533,-0.4810081124305725,-0.6499940752983093,1.8431206941604614,0.12452419102191925,-2.187077522277832,-2.8724937438964844,-0.8720887899398804,0.1658131629228592,-0.591551661491394,0.632710874080658,-0.6204065680503845,-0.4676494002342224,0.9146407842636108,0.18144585192203522,1.5670456886291504,-1.189260482788086,0.4441116452217102,-0.33207008242607117,0.9676586985588074,0.36472252011299133,-0.6325663328170776,-0.029216565191745758,0.23437626659870148,-0.25023213028907776,-1.0560351610183716,0.42422986030578613,-0.17017647624015808,-1.1646335124969482,0.017261408269405365,0.6645645499229431,-1.7809404134750366,0.5189606547355652,-1.1970078945159912,0.2484828233718872,-0.48298728466033936,0.8402495384216309,-1.38384211063385,0.2906131148338318,-0.1591564416885376,0.33281123638153076,2.525038003921509,2.3283424377441406,-0.5747121572494507,0.12146054208278656,-1.147783875465393,0.6808874607086182
amazon-automotive.csv,0.13005155324935913,-0.22021904587745667,-0.1214204877614975,-0.5462589859962463,-0.6538918614387512,-0.33808600902557373,-0.5323848128318787,-1.213273048400879,1.9976837635040283,-1.8536596298217773,-0.31880050897598267,-0.4838869571685791,0.4106109142303467,-2.3673245906829834,0.1227649599313736,1.2866218090057373,-1.7457489967346191,1.2763785123825073,-0.4208054840564728,0.32026124000549316,1.0244759321212769,-0.23191119730472565,1.4692859649658203,0.9510263204574585,0.5600020885467529,-0.17423878610134125,-2.0048723220825195,-0.010935765691101551,-0.4660392105579376,-0.254973828792572,-2.1580557823181152,0.2290595918893814,1.620471715927124,-0.11965956538915634,-0.14520712196826935,0.24715864658355713,-1.7938436269760132,0.6177765727043152,-0.36001065373420715,-0.512450098991394,-0.2047804445028305,0.4903945326805115,-0.9198452234268188,0.42261064052581787,1.1753486394882202,0.048864662647247314,1.3897016048431396,0.27298107743263245,0.16495107114315033,0.8873502016067505,-1.0150701999664307,0.5240567326545715,-1.4903792142868042,-0.5322661399841309,0.14777910709381104,1.0161160230636597,1.7073997259140015,0.3288523256778717,-0.31353381276130676,-1.3749160766601562,-0.3199218511581421,-0.872967541217804,-0.8023544549942017,1.1603144407272339,-0.9748231172561646,-0.13506802916526794,-0.693580150604248,-0.9696014523506165,-0.3432268798351288,-1.0735831260681152,-0.18170593678951263,0.13334162533283234,1.3603451251983643,1.4551961421966553,-1.4250528812408447,-1.1571110486984253,0.567755937576294,1.486121654510498,-1.1921143531799316,0.8626577854156494,0.5010460615158081,-0.526430070400238,-0.6850045323371887,-0.7503955364227295,-2.514887571334839,0.35768669843673706,-0.27843034267425537,1.0893809795379639,-0.40241289138793945,1.4516178369522095,-1.773450255393982,0.23602965474128723,0.9802256226539612,0.9111242294311523,0.40586045384407043,1.4788988828659058,-1.1049050092697144,-1.3251361846923828,0.91800856590271,-0.4786764979362488
yahoo-movies.csv,-0.1968592256307602,-1.470979928970337,0.42861565947532654,-0.7645353078842163,-1.0858330726623535,-0.11717231571674347,1.2106064558029175,-1.5648272037506104,0.8900706768035889,-1.2445924282073975,0.6362749338150024,-0.018071414902806282,0.5435624718666077,0.20427952706813812,0.8709649443626404,1.1867262125015259,-1.9369755983352661,0.9116682410240173,1.1698079109191895,0.44263365864753723,0.47877398133277893,0.5291008949279785,1.158065676689148,-1.154649257659912,0.4719950258731842,0.24599191546440125,-0.9351890087127686,-1.4704285860061646,0.35472092032432556,-1.3913378715515137,-0.5131509900093079,0.3858983814716339,1.0379341840744019,-0.3304102122783661,0.12591928243637085,-1.0904241800308228,-1.4260460138320923,2.241744041442871,-1.7865924835205078,-0.4356459379196167,-0.013364708051085472,0.44333481788635254,0.5351380109786987,1.0480281114578247,1.524448037147522,0.011229721829295158,-0.7735679745674133,0.23920460045337677,-0.4263859689235687,-0.7594939470291138,-0.638358473777771,0.7588741779327393,-2.1070148944854736,0.604819118976593,-1.288170337677002,1.06356942653656,1.3434873819351196,0.17680591344833374,-1.2150723934173584,-1.9556567668914795,-0.11427100002765656,-1.4291212558746338,-1.0674121379852295,1.9023597240447998,-0.3027816414833069,-1.0274572372436523,-1.3864332437515259,0.9773730039596558,1.0729141235351562,-1.1362026929855347,-0.286782443523407,-1.0875872373580933,1.9312293529510498,0.6676175594329834,-0.5397731065750122,-0.8764090538024902,1.0594909191131592,-0.3779945969581604,-0.020225048065185547,-0.9263601899147034,0.5130317211151123,0.1647917479276657,-0.7306151986122131,-0.5432910323143005,-2.3013224601745605,0.15033510327339172,-0.1763414442539215,1.104777455329895,0.3628295660018921,0.9789448976516724,-1.186164379119873,-0.4440912902355194,0.2810358703136444,0.7320563793182373,-0.14221124351024628,1.1280649900436401,-1.0375694036483765,-1.116188645362854,-0.5429449677467346,-0.930242657661438
movielens_latest.csv,-0.7314487099647522,-0.5321272015571594,0.751619279384613,-0.22014999389648438,0.16152675449848175,-1.6337854862213135,-0.33837318420410156,0.025041494518518448,1.5064983367919922,-1.1623200178146362,-0.14621159434318542,-0.1991511881351471,-0.1691371500492096,-0.49244943261146545,-1.3126903772354126,2.774176597595215,-2.1784520149230957,0.9975635409355164,0.8384277820587158,1.4710266590118408,0.8568419814109802,0.6609824299812317,0.6107809543609619,0.04469996318221092,1.113767385482788,0.40819984674453735,-0.1267586052417755,0.27869483828544617,-1.2618106603622437,-0.30330947041511536,-0.24662330746650696,1.6654796600341797,1.4728097915649414,0.4441668391227722,-0.8774107098579407,0.08308987319469452,-1.925478458404541,1.687015175819397,-0.8991802930831909,1.171852469444275,-0.003280898090451956,0.5653555393218994,0.11155372112989426,1.4023165702819824,-0.14781217277050018,-0.8755472302436829,-0.5896475911140442,-0.7677457928657532,-0.014911218546330929,-0.6608614325523376,-0.9622328877449036,-0.2912907004356384,-1.2939409017562866,-0.2715744078159332,-0.40784525871276855,-0.6358117461204529,1.4674148559570312,0.515184760093689,0.12382649630308151,-1.53780996799469,-0.12108274549245834,-0.9163957238197327,-0.9082098603248596,1.061429738998413,0.420843243598938,-0.7046670317649841,0.03779452666640282,0.20380309224128723,1.8637288808822632,-0.7449840903282166,0.7519259452819824,-0.4372806251049042,1.1734706163406372,1.949863076210022,0.37586072087287903,1.1024525165557861,0.7298766374588013,0.4169485867023468,-1.006536841392517,-0.037968821823596954,-0.21124157309532166,-1.2134665250778198,-0.3447325527667999,-0.471815824508667,-3.485900640487671,0.15287631750106812,0.4380609691143036,-0.21290530264377594,0.7114468216896057,1.4446067810058594,-1.1002061367034912,0.838160514831543,0.42572641372680664,0.3125843107700348,1.485094428062439,0.6947437524795532,0.11717305332422256,-1.2754484415054321,0.8025989532470703,1.0732568502426147
amazon-phones.csv,0.8038643598556519,-0.7589648962020874,0.3537263870239258,-0.5359005928039551,-0.7098373770713806,-1.2046922445297241,-0.6914035081863403,-1.3412939310073853,1.6595100164413452,-1.4501283168792725,-0.28554874658584595,0.5471534729003906,-0.2814308702945709,-1.32881498336792,0.3511599004268646,2.1370742321014404,-2.2951602935791016,0.32676050066947937,0.3876630961894989,1.3216098546981812,0.44437509775161743,-0.38941001892089844,1.4217898845672607,-0.5925921201705933,0.17491137981414795,0.054001808166503906,-0.6836889982223511,-0.9952042102813721,0.339924156665802,-0.15131640434265137,-1.6191003322601318,1.0725544691085815,0.5010926127433777,0.2352561205625534,-0.4085354506969452,0.059955429285764694,-0.8242523670196533,1.5218901634216309,-0.30800512433052063,-0.5944852232933044,1.0051835775375366,0.4217434823513031,0.09685338288545609,-0.29482021927833557,2.312530994415283,-0.7257068157196045,1.9414241313934326,-1.2969732284545898,-0.41780316829681396,-0.47899720072746277,-1.0408234596252441,-0.4184960722923279,-2.3412115573883057,0.4460430443286896,0.19071921706199646,0.6842707991600037,1.3198858499526978,-0.20784784853458405,0.04745648801326752,-1.5780266523361206,0.2181072235107422,-0.3130764365196228,-1.015234351158142,-1.0464165210723877,-0.17931096255779266,-0.4049917757511139,-0.1925048828125,-0.5357566475868225,0.6845928430557251,-2.098039388656616,0.6469290256500244,0.02350613847374916,1.982620358467102,1.0564780235290527,-2.038520574569702,-0.22282788157463074,0.4577450454235077,0.984839141368866,-1.1021167039871216,0.8427408337593079,1.051857590675354,-0.633662760257721,0.3245075047016144,-0.28116554021835327,-1.884781002998352,1.33875572681427,1.4507958889007568,0.7801684737205505,0.3545803427696228,0.4671587646007538,-1.3550269603729248,-0.042704399675130844,0.9518188238143921,0.43235963582992554,1.0292627811431885,0.8877139091491699,-1.5312799215316772,0.775872528553009,-0.17340625822544098,0.14886723458766937
amazon-office.csv,-0.03511204198002815,-0.12574517726898193,-0.48474937677383423,-0.589899480342865,-0.8970247507095337,-0.5160956382751465,0.32032182812690735,-1.8469656705856323,1.429280400276184,-1.3338730335235596,-0.37906089425086975,0.018048321828246117,0.835632860660553,-0.34643495082855225,-0.28946349024772644,1.9593780040740967,-2.494593858718872,0.615023672580719,0.46540963649749756,0.015944188460707664,0.8467153906822205,-0.7269817590713501,0.7654114961624146,-0.6046867370605469,1.7976772785186768,-0.02798871323466301,-1.2375046014785767,-0.6102222800254822,0.38980481028556824,-0.9460933804512024,-1.392340064048767,0.9828552603721619,1.7295352220535278,-0.8607242703437805,-1.198028564453125,1.1115317344665527,-1.325477123260498,0.7892968654632568,-0.7936550974845886,0.12047581374645233,1.2358953952789307,0.5207624435424805,-1.3587486743927002,0.6275886297225952,1.7286641597747803,-0.21095654368400574,1.5069026947021484,-1.6287002563476562,-1.1575262546539307,-0.28314414620399475,-2.263822555541992,-0.14982245862483978,-2.4750986099243164,-0.1350376456975937,-0.6051403284072876,-0.16203394532203674,-0.05279635265469551,-0.4840250015258789,-0.0993097648024559,-1.630476713180542,0.3381737768650055,-0.011292937211692333,-1.3800791501998901,0.46779629588127136,0.34291499853134155,0.3474080264568329,-0.7719486355781555,-0.1333717256784439,0.9146122932434082,-1.6750149726867676,-0.1542319804430008,-0.39574816823005676,0.5731679201126099,1.4089864492416382,-0.5838308930397034,-1.0095635652542114,0.043686751276254654,1.2591021060943604,-1.0834466218948364,0.6740706562995911,0.5757278800010681,0.10787889361381531,1.363405704498291,-0.857964038848877,-3.130476236343384,0.31649208068847656,0.0056475386954844,0.37158018350601196,-0.21791161596775055,0.8275627493858337,-0.8985710144042969,-0.44184020161628723,-0.050634533166885376,-0.04414449259638786,-0.29276517033576965,0.7571297883987427,-0.49224889278411865,-0.16821646690368652,0.2846079468727112,-1.0222833156585693
