jester2.csv,-0.47058987617492676,0.5741574764251709,0.5504100322723389,-0.5238023996353149,-1.5162031650543213,1.009536862373352,-0.9732386469841003,1.5940510034561157,-0.46325045824050903,-1.900006890296936,1.3352679014205933,0.00392616493627429,1.9763556718826294,0.5072547197341919,-0.6408498287200928,-0.3730664551258087,-0.7779625654220581,0.15131285786628723,-0.8487271070480347,-0.629396915435791
yahoo-movies.csv,-0.3760620653629303,0.6934026479721069,1.1232622861862183,-0.8894107341766357,1.133312463760376,0.11071066558361053,0.18648214638233185,1.124255657196045,-1.898337483406067,-0.7123594284057617,2.469616174697876,-0.566435694694519,0.6508227586746216,-0.14398929476737976,-0.794721782207489,-1.6008559465408325,0.044232532382011414,0.09335807710886002,0.6639387011528015,0.3294125497341156
amazon-digital-music.csv,0.7222166657447815,-0.06334254890680313,0.44970986247062683,-0.8521339297294617,0.2727965712547302,0.24335592985153198,-0.964980959892273,1.0993634462356567,-2.001622438430786,-1.529419183731079,-0.5664158463478088,0.47449833154678345,0.6102768182754517,1.4902769327163696,-1.3721208572387695,-1.9106932878494263,0.09924007207155228,0.44448545575141907,1.0110052824020386,0.15693429112434387
amazon-cd.csv,0.8639415502548218,0.5975014567375183,1.0458284616470337,-0.10953179746866226,-0.45256307721138,1.3025394678115845,-0.6616050601005554,0.35084694623947144,-1.7933019399642944,-0.7023255228996277,0.04778273403644562,-0.04533644765615463,1.1410735845565796,-0.930802047252655,-1.0700980424880981,-1.7358659505844116,-1.3776856660842896,0.6655766367912292,0.33809617161750793,-1.6831446886062622
amazon-instant-video.csv,1.1588020324707031,-0.22123150527477264,1.191509485244751,-1.0595612525939941,0.1567339301109314,0.8612378239631653,-1.0235469341278076,1.0626544952392578,-1.3781108856201172,-1.109681487083435,-0.20626379549503326,1.6029866933822632,0.30184903740882874,0.21958154439926147,-2.0470199584960938,-0.9569686651229858,-1.1157070398330688,-0.8390538096427917,0.1498248130083084,0.40413665771484375
jester3.csv,0.26338398456573486,-0.4859775900840759,-0.5918874144554138,0.5060763955116272,-0.7534581422805786,0.9884040355682373,-1.0021545886993408,0.44846585392951965,-1.7715011835098267,-1.8323801755905151,1.5877182483673096,1.1497796773910522,1.5655686855316162,-0.6304596066474915,-1.3227057456970215,0.2441232055425644,0.0670371726155281,-0.26883238554000854,0.9016566276550293,0.6722196936607361
amazon-phones.csv,0.8249097466468811,-0.8967393040657043,0.24937868118286133,-1.4758660793304443,0.42794090509414673,0.18267205357551575,-0.07682454586029053,1.9023493528366089,-1.4902997016906738,-1.307559609413147,1.0379936695098877,1.7862697839736938,-0.11943529546260834,-0.5695950388908386,-1.4656504392623901,-0.8757272362709045,-0.17653977870941162,0.3373948335647583,-0.8521533012390137,0.33148497343063354
yelp.csv,2.2610902786254883,0.18747194111347198,0.6069074869155884,-0.8919109106063843,-1.1099787950515747,-0.4484957158565521,-1.6286178827285767,0.08156367391347885,-0.4697030484676361,-0.11484244465827942,1.4649302959442139,0.24447676539421082,0.5577501654624939,-0.9046844244003296,-2.078003168106079,-0.8020650148391724,-0.7408276796340942,-0.016755444929003716,0.22755548357963562,-0.6817633509635925
flixter.csv,-0.015504306182265282,1.0535238981246948,-0.05026155337691307,0.21699132025241852,-0.6926670074462891,-0.5512460470199585,-1.6804132461547852,0.44656530022621155,-3.071009874343872,-0.523551881313324,0.6181040406227112,-0.2323455661535263,-0.6658180952072144,0.5185814499855042,-1.4826991558074951,-0.630872368812561,-0.6661283373832703,0.3738342523574829,0.9882316589355469,0.15298593044281006
amazon-home.csv,1.7368541955947876,-0.5559312701225281,-0.1274016946554184,-1.846789836883545,0.8068588972091675,0.44590532779693604,-0.9967765808105469,0.7636021375656128,-1.4009438753128052,-0.9412540197372437,1.1105773448944092,-0.6234346628189087,1.235799789428711,0.23938612639904022,-1.1339513063430786,-0.940675675868988,-0.28948700428009033,1.4869744777679443,-0.06596653163433075,-0.543860912322998
movielens100k.csv,0.7385135293006897,0.591485321521759,1.4590753316879272,0.01184957567602396,-0.7450263500213623,-0.13700692355632782,-0.9307757616043091,0.03162693977355957,0.2413523942232132,-1.9771339893341064,1.5106183290481567,0.2935408651828766,0.5155357122421265,0.6360102891921997,-2.3211045265197754,-1.1903988122940063,-0.3821141719818115,0.3993155062198639,0.14372871816158295,1.1824105978012085
movielens20m.csv,-0.5494474172592163,-0.8675090670585632,-0.34817612171173096,0.026865830644965172,-0.15711276233196259,-0.9385036826133728,-1.5282930135726929,0.5102595090866089,-0.4852144122123718,-1.7022860050201416,1.0596027374267578,0.33600154519081116,0.541598379611969,-0.8398093581199646,-0.6876922249794006,-2.16146183013916,-1.7334504127502441,0.9111543297767639,0.9448423981666565,-0.28631436824798584
movielens1m.csv,-0.9277173280715942,-0.10230144113302231,-0.10422118753194809,-1.7560076713562012,-0.6491119861602783,0.11000288277864456,-1.2351163625717163,0.5424737334251404,-0.749713659286499,-0.628398597240448,2.2266199588775635,0.5651314854621887,0.1201489269733429,0.7706720232963562,-2.194777727127075,-0.22902797162532806,-0.207040473818779,0.9129093289375305,0.6850100755691528,-0.8506841659545898
amazon-movies.csv,2.1381492614746094,1.7072460651397705,0.6829898357391357,-0.23176544904708862,0.28267502784729004,-0.07710865139961243,-0.5010332465171814,2.165585517883301,-1.358080506324768,-0.48070451617240906,1.3065474033355713,0.2772565484046936,0.5775158405303955,0.33036547899246216,-0.7564792633056641,0.029186682775616646,-0.33602645993232727,1.4021040201187134,-0.09050092846155167,0.06792348623275757
amazon-games.csv,0.3192090392112732,0.4935925304889679,0.48633939027786255,0.2789710462093353,0.5578456521034241,0.8085658550262451,-1.549697756767273,0.8140909075737,-0.6541739702224731,0.6350283622741699,1.075334906578064,1.0046675205230713,1.16521155834198,-0.34367409348487854,-1.6329388618469238,-1.4035084247589111,-0.8007969856262207,2.3438167572021484,0.09242430329322815,-0.24183693528175354
amazon-automotive.csv,1.364306926727295,-0.44380685687065125,-0.6263080835342407,-2.1106388568878174,-0.6428374648094177,-0.10240533202886581,-0.07005055248737335,1.5007998943328857,-1.987712025642395,-0.7928560376167297,0.776928186416626,0.4418816566467285,-0.1885283887386322,-0.3063046634197235,-1.4584426879882812,-1.2015036344528198,0.33490779995918274,0.7850820422172546,-0.15502125024795532,-0.7632376551628113
amazon-toys.csv,0.9712157249450684,-0.4473167955875397,0.4138006865978241,-1.1527374982833862,-0.9577808976173401,1.1312381029129028,-0.5936557650566101,2.073770761489868,-0.9779098629951477,-0.2506179213523865,0.9662603735923767,1.0076643228530884,0.5318253636360168,-0.3961186110973358,-0.9417888522148132,-2.084714889526367,0.3895787000656128,0.7899931073188782,-0.24017593264579773,-1.0159516334533691
amazon-tools.csv,0.005616586655378342,-0.31443947553634644,1.8891310691833496,-1.2950596809387207,-0.7980437874794006,-0.3303492069244385,-1.1580859422683716,0.8105435967445374,-1.4696285724639893,-0.7276747226715088,-0.02313397452235222,-0.7678369879722595,0.2842896282672882,-1.0793910026550293,-1.8755289316177368,-1.2434494495391846,0.12474954128265381,1.4951530694961548,-0.1781802624464035,0.19761554896831512
bookcrossing.csv,0.999308705329895,0.5625863671302795,0.3215387165546417,-0.29591402411460876,-0.5979899168014526,-0.612695574760437,-2.49255633354187,2.151473045349121,-1.1988636255264282,-0.19946524500846863,0.5102027654647827,1.0178064107894897,0.796099066734314,0.027686601504683495,-0.4612421691417694,-1.4524319171905518,-0.5002525448799133,0.9323434829711914,-0.16793504357337952,0.20348520576953888
movielens_latest.csv,0.3797987401485443,1.0662643909454346,0.39537686109542847,-0.3191743791103363,-1.5259037017822266,0.0326661616563797,0.2185153365135193,0.6853617429733276,-1.0407582521438599,-2.4306225776672363,1.468876600265503,0.7629105448722839,-1.2502260208129883,-0.21173134446144104,-0.23073990643024445,-1.0428805351257324,-0.7364535927772522,1.3748924732208252,-0.06299801170825958,-0.8352154493331909
amazon-office.csv,1.1426713466644287,0.40979692339897156,1.5028965473175049,-0.21634280681610107,-0.5028696656227112,-0.5234114527702332,-0.9127227067947388,1.931278944015503,-1.38613760471344,-0.8517131209373474,1.0953184366226196,0.699809730052948,0.49220967292785645,-1.4902695417404175,-1.6716200113296509,-0.299034059047699,0.9953936338424683,-0.20310598611831665,0.4767138957977295,-0.4343443810939789
amazon-clothes.csv,1.5504971742630005,0.7910565137863159,-0.888093888759613,-0.6479161381721497,0.021093714982271194,-0.20636066794395447,-1.1020628213882446,0.5313430428504944,-1.6192444562911987,-1.193459153175354,1.0811843872070312,1.0914900302886963,0.5942186117172241,-0.7960282564163208,-1.8359975814819336,-1.2389549016952515,0.05797199532389641,0.5261238813400269,-1.2705552577972412,0.167471244931221
movietweetings_recsys2014.csv,1.3728159666061401,0.47680068016052246,1.0823901891708374,-0.7450634837150574,-0.5889067649841309,-0.3432374894618988,-0.7291621565818787,0.10021492838859558,-1.0516717433929443,-1.1548773050308228,1.2014532089233398,1.6243218183517456,1.8661646842956543,-0.2586357295513153,-0.16222502291202545,-1.5683457851409912,0.04026611149311066,0.9637654423713684,1.122265338897705,-0.6386781930923462
movielens10m.csv,0.05092914402484894,-0.3253048360347748,1.624262809753418,-1.582152009010315,-0.7103095054626465,-0.5107223987579346,-2.018887758255005,-0.08025860041379929,-1.962949275970459,-0.8894667029380798,1.3302556276321411,0.7407185435295105,0.5063246488571167,0.5531887412071228,0.15177373588085175,0.014923802576959133,-1.233752727508545,0.683335542678833,-0.5377533435821533,0.27557992935180664
amazon-food.csv,0.9996817708015442,0.1434917449951172,0.487438440322876,-0.3532859981060028,-0.6034423112869263,0.879801869392395,-1.5395492315292358,0.8111177682876587,-2.701266288757324,-0.6935993432998657,0.34261804819107056,0.7436350584030151,1.098152756690979,-1.0878502130508423,-1.222352385520935,-0.8668484687805176,-0.325147807598114,0.44677475094795227,-0.868840754032135,-0.5548667907714844
amazon-kindle.csv,0.849607527256012,1.5773171186447144,0.720555305480957,-0.7662467360496521,-0.035728663206100464,0.0052497913129627705,-1.5312329530715942,1.273996114730835,-1.173984169960022,-1.1784952878952026,0.7937465906143188,1.205418348312378,0.5673378705978394,-0.22877760231494904,-1.4235804080963135,-1.7394918203353882,0.07953710108995438,-0.38261470198631287,-0.006403456907719374,-1.1337182521820068
yahoo-music.csv,-0.2422844022512436,-0.17661771178245544,0.2677750289440155,0.07104750722646713,-0.6594906449317932,-0.7040144801139832,-0.4733099937438965,0.05195998772978783,-2.080807685852051,-0.836955189704895,1.8698753118515015,1.5226792097091675,0.9693065881729126,0.5140999555587769,-1.5092443227767944,-1.63064706325531,-0.019201772287487984,0.2434178739786148,-1.2005515098571777,-0.4349706172943115
amazon-apps.csv,1.029091715812683,-0.09522231668233871,0.5738663077354431,-1.446597695350647,0.5685180425643921,-0.31310898065567017,-1.0459787845611572,1.7540048360824585,-1.0258463621139526,-1.6107699871063232,0.4294375479221344,0.9202956557273865,1.2138798236846924,-0.5795861482620239,-1.6691805124282837,-1.053633689880371,0.36553630232810974,0.4588586390018463,-0.5136667490005493,-0.9623003005981445
jester1.csv,0.08274414390325546,-0.7804345488548279,1.1817073822021484,0.6020274758338928,-0.252784788608551,0.1442173421382904,-1.6177304983139038,1.6805763244628906,-1.5211261510849,-1.7450568675994873,1.481703519821167,-0.07658743113279343,0.6608723402023315,0.009140586480498314,-1.310347557067871,-0.35412779450416565,-0.22473151981830597,1.2157973051071167,-0.7171356081962585,-0.465352326631546
movietweetings_latest.csv,0.6648890972137451,0.5481110215187073,0.655971884727478,-0.5885067582130432,1.307556390762329,0.2584805488586426,-1.5549511909484863,0.26736167073249817,-1.2210676670074463,-1.5480808019638062,1.14751398563385,1.486727237701416,-0.3244502544403076,-1.3487352132797241,-1.2438640594482422,0.3402036130428314,-1.3375009298324585,0.8115033507347107,0.0789267048239708,-0.8713854551315308
tripadvisor.csv,1.8486665487289429,-0.12444362044334412,1.5591295957565308,-0.6311958432197571,-0.46900907158851624,0.15578387677669525,0.1124873161315918,0.9276050329208374,-1.4030992984771729,-0.3872714042663574,0.47474488615989685,0.12019473314285278,0.11177728325128555,1.158691167831421,-2.2382194995880127,-0.700442910194397,0.2817150354385376,0.9024721384048462,-0.5847242474555969,-1.47335946559906
amazon-sports.csv,1.6023399829864502,0.8475660085678101,0.046819597482681274,-0.05381033942103386,-0.3311661183834076,0.16009314358234406,-1.2268835306167603,1.2753559350967407,-1.530588150024414,-1.0023101568222046,0.7034471035003662,-0.023861324414610863,1.4887220859527588,-0.47878292202949524,-0.7355145812034607,-2.081930160522461,-0.1574510782957077,-0.335936963558197,-1.3847233057022095,-0.4724387526512146
amazon-garden.csv,1.7181183099746704,-0.0856296718120575,1.100530982017517,-0.3250148892402649,0.7376016974449158,0.27243736386299133,-1.0569349527359009,1.8420016765594482,-1.4304089546203613,-1.286620855331421,0.23626075685024261,0.2870512008666992,-0.059105291962623596,-0.16582465171813965,-2.0600459575653076,-0.8990845680236816,-0.5425904989242554,-0.2860701084136963,0.029027825221419334,-1.1382776498794556
amazon-baby.csv,0.8744041919708252,0.9004581570625305,0.40910229086875916,-0.7307198643684387,0.09026500582695007,-0.46530216932296753,-0.07876421511173248,1.0612051486968994,-2.1156320571899414,-0.23250027000904083,-0.1380561739206314,0.1953306645154953,1.7474602460861206,0.05067458748817444,-2.1329140663146973,-0.8888776302337646,-1.343867301940918,0.2972700893878937,-1.2090789079666138,-0.1651068925857544
amazon-beauty.csv,0.6637160181999207,0.25482532382011414,0.3937791585922241,-1.334507942199707,-0.36862239241600037,1.2250651121139526,-0.6745040416717529,1.9591064453125,-1.4009127616882324,-0.6958932280540466,0.38449525833129883,0.6386783123016357,0.9843860864639282,-0.865460216999054,-0.8538253307342529,-1.2854201793670654,-1.439271330833435,0.4775310456752777,0.0347609706223011,-1.492037057876587
amazon-instruments.csv,0.3815014064311981,1.7604551315307617,-0.08074043691158295,-0.8565102219581604,-0.18670693039894104,0.30570513010025024,-0.6002973914146423,1.402653694152832,-0.7417421936988831,-1.6771104335784912,0.2578754425048828,-0.19159473478794098,1.1891083717346191,-0.808231770992279,-1.8650710582733154,-1.2404817342758179,0.25241169333457947,1.2426583766937256,0.9594639539718628,-0.692777156829834
amazon-health.csv,0.8004889488220215,0.652492105960846,1.511379599571228,-0.8461334109306335,-0.6704122424125671,1.1025261878967285,-0.5951682329177856,0.8429539799690247,-0.7885332703590393,-0.4361026883125305,1.875866413116455,0.408237487077713,-0.011747339740395546,-1.4189293384552002,-1.191436767578125,-1.8658709526062012,-0.2695171535015106,-0.46169888973236084,-1.1885838508605957,-0.3048126995563507
amazon-pet-supplies.csv,1.5657633543014526,-0.02513609454035759,0.5125477910041809,-0.19346824288368225,-0.845544159412384,1.4285467863082886,-1.7102397680282593,0.5653754472732544,-1.5968210697174072,-0.8316726684570312,0.5767594575881958,0.48728370666503906,0.06903158128261566,-0.739712119102478,-0.7466199398040771,-1.5017940998077393,1.1774091720581055,1.6345000267028809,0.0023840656504034996,-0.11440421640872955
