jester2.csv,0.005372538231313229,-0.5028778910636902,-0.9748468399047852,-1.2400816679000854,-0.2983939051628113,-1.3835324048995972,0.7228485941886902,0.5565863847732544,0.5768483877182007,1.4486455917358398,-0.2838902175426483,2.744661808013916,-0.2889639437198639,0.38315972685813904,0.4604131579399109,-0.26317697763442993,-0.9968553781509399,1.2869882583618164,0.25210118293762207,-0.5177667140960693,-1.087554931640625,-1.5575580596923828,-0.48584529757499695,1.108727216720581,1.2681362628936768,-0.7236585021018982,1.4997286796569824,-1.479478120803833,0.5691660046577454,-2.432283639907837,-0.3684636652469635,-1.537702202796936,0.8036181926727295,-0.7282183170318604,1.6648820638656616,1.6840158700942993,0.32422009110450745,-0.16173450648784637,-0.3255642354488373,0.8043850064277649,-0.3475533723831177,1.2435213327407837,-0.4077228307723999,-0.08368535339832306,-1.6740189790725708,-0.9187062382698059,1.7426508665084839,1.609230875968933,-1.701716423034668,0.07618004083633423,0.031948212534189224,0.08886609226465225,0.7020000219345093,-0.013290654867887497,0.8927324414253235,2.068629503250122,2.3664188385009766,-0.3890336751937866,0.8289672136306763,0.815460205078125,0.5980236530303955,-1.2922019958496094,0.40945854783058167,0.3738781809806824,-0.7401034235954285,-1.0743989944458008,0.2998991906642914,0.5112740397453308,0.4006045162677765,-1.1952412128448486,-0.6973277926445007,0.7679526209831238,0.01481182686984539,0.5905516743659973,0.3533710241317749,-1.004158616065979,0.29584476351737976,-1.2815399169921875,-1.4828988313674927,0.5845853686332703,0.017265306785702705,0.6688091158866882,-0.17084775865077972,0.7276222109794617,-0.2630124092102051,1.107216238975525,-0.5472216010093689,-0.8568421602249146,0.503605306148529,1.4894698858261108,-0.6554158329963684,-3.054396390914917,-0.1462346464395523,0.1797259896993637,0.608720064163208,-0.39067021012306213,-1.0499050617218018,-0.17562799155712128,-0.18353670835494995,-0.12394566833972931,0.36928558349609375,0.381477415561676,1.0423529148101807,1.3521112203598022,0.42198896408081055,-0.44023728370666504,-2.4751670360565186,0.3778187036514282,-0.2269972562789917,-0.2343861311674118,1.0189231634140015,-2.366513729095459,0.2744411826133728,0.1419200748205185,1.6759004592895508,2.564295530319214,0.4448987543582916,-0.29528117179870605,-0.36900994181632996,-0.37858322262763977,-0.937048614025116,1.3694846630096436,-0.43566325306892395,-0.258237361907959,0.7895462512969971,0.8575674295425415,-0.932237446308136,1.5339735746383667,-0.17211002111434937,0.6302978992462158,-1.0554754734039307,0.5262200236320496,-0.18565112352371216,-2.6223835945129395,-0.9172915816307068,1.1614071130752563,0.3683168888092041,0.2110300362110138,1.1888782978057861,0.15742234885692596,0.5090838074684143,-0.7987414002418518,-0.1730429083108902,-0.9231635928153992,-0.12052007764577866,-1.0716218948364258,-1.1668684482574463,0.7975349426269531,-1.879190444946289,0.5534690022468567,-0.7242280840873718,-0.47859224677085876,-0.4507316052913666,-0.651321530342102,1.3786698579788208,1.2799891233444214,-1.1359857320785522,0.4821724593639374,-0.12348824739456177,-0.22104309499263763,0.8905754685401917,-0.5593380928039551,1.1641430854797363,0.28079864382743835,0.4469834268093109,0.036117762327194214,0.07615679502487183,0.4518931210041046,-1.1229252815246582,-0.6829279661178589,-0.11099038273096085,-0.8084657788276672,0.5767009258270264,-1.705469012260437,-0.18324638903141022,-0.4067780673503876,0.2881971299648285,-0.21835492551326752,-0.4540054500102997,1.1938574314117432,1.0857988595962524,1.5657628774642944,2.2181291580200195,-0.877933919429779,-0.23397858440876007,-0.736867368221283,0.004378098528832197,-0.9185234904289246,0.664242684841156,0.05074787884950638,-0.2850220799446106,1.6014903783798218,1.5281929969787598,-0.03971394896507263,-0.5550391674041748,-0.8516713976860046,-0.4982040524482727,0.8355811834335327,-2.1462202072143555,-0.8012397289276123
yahoo-movies.csv,0.1383870393037796,-0.0001163775596069172,0.1574377864599228,-1.0755680799484253,0.3418063223361969,0.9372985363006592,-0.6036112904548645,-0.5165256857872009,0.7245697379112244,2.481292247772217,0.8800538778305054,2.410282850265503,-0.911763608455658,0.4303201735019684,0.5116408467292786,0.05874570831656456,-0.7087655067443848,1.3693422079086304,-1.207183837890625,1.2670942544937134,-0.10900041460990906,-1.013500452041626,-0.8288944363594055,0.803321897983551,0.2700730860233307,-0.2340863049030304,0.07738786190748215,0.3806203007698059,1.8146512508392334,-1.3858095407485962,-0.52342689037323,0.6607806086540222,2.4925169944763184,-0.484483540058136,0.8654157519340515,0.7749547362327576,-0.6265342831611633,0.5057893395423889,1.0032451152801514,-0.21901147067546844,0.13583482801914215,0.4156663119792938,-1.2299647331237793,1.0335055589675903,-0.7389516234397888,-1.7219125032424927,1.2656160593032837,0.2719464600086212,-1.1648536920547485,1.269230842590332,-1.3106762170791626,-0.2470463663339615,0.9954047203063965,-0.17944251000881195,0.9014531970024109,1.9563480615615845,0.5619397759437561,-0.6681379079818726,0.828114926815033,0.5344416499137878,-0.4941634237766266,0.18462806940078735,-1.5852855443954468,1.4561439752578735,-1.3359739780426025,0.5687960386276245,0.8711453676223755,-0.6589739322662354,-0.43326982855796814,-0.6896980404853821,0.6787005662918091,1.4924534559249878,-1.6348819732666016,-0.0016325820470228791,-0.6684316396713257,-1.7564369440078735,-0.49274536967277527,-0.7611762285232544,-1.6036313772201538,0.4902762174606323,-0.3852789103984833,0.7744451761245728,-0.3567692041397095,-0.30287450551986694,0.331310898065567,-1.3101170063018799,-0.16477656364440918,0.5237733721733093,-0.06722164899110794,1.3432587385177612,-1.0571520328521729,-2.3980367183685303,0.977380096912384,0.2198384553194046,1.223345160484314,0.1278250366449356,-1.2856718301773071,-0.7657995820045471,-0.13542771339416504,0.261048287153244,2.446136713027954,0.40138646960258484,0.9638575911521912,0.3726223409175873,0.20309863984584808,0.4409043788909912,-1.0315265655517578,-0.42103704810142517,0.3415873348712921,0.7913224697113037,-0.32828253507614136,-1.5119259357452393,0.6407759189605713,-1.769801139831543,1.1029376983642578,0.13252916932106018,-0.09626873582601547,1.0762553215026855,-0.18453620374202728,2.1416168212890625,-0.29676032066345215,1.9191335439682007,-0.11965667456388474,0.29341962933540344,1.5571640729904175,0.7007219195365906,1.2485939264297485,1.037391185760498,0.988869309425354,0.5974414944648743,-0.40181347727775574,0.8906652927398682,-0.41300511360168457,-1.9083362817764282,-0.0031061170157045126,-0.3801232874393463,0.19952377676963806,-0.7814551591873169,0.25681257247924805,-0.5521302223205566,-0.06073444336652756,-0.7650229334831238,0.8168381452560425,0.19688524305820465,0.16276618838310242,-1.2963244915008545,-1.8213196992874146,1.084564447402954,-0.11501588672399521,-0.24538718163967133,0.7754270434379578,-0.15934541821479797,0.852881908416748,-1.0011987686157227,-0.1998015195131302,0.5297082662582397,-0.3749247193336487,-0.5001893639564514,0.8860637545585632,0.1023901104927063,0.27551770210266113,0.6067824959754944,-1.246903896331787,-0.01144681591540575,-0.24846355617046356,-1.6247411966323853,0.6249366402626038,1.0276658535003662,0.041923023760318756,-0.21744415163993835,1.7815916538238525,0.4285353720188141,0.7642185091972351,-0.8961812853813171,-0.6709047555923462,-0.020993880927562714,0.9359308481216431,2.9627304077148438,-0.4240105450153351,0.9088186025619507,0.9963157176971436,1.678598165512085,1.1500049829483032,-1.6160991191864014,0.893869161605835,-1.8121426105499268,-1.0533634424209595,-0.24497345089912415,0.662103533744812,0.4269319772720337,-0.5969087481498718,1.2143397331237793,1.5207874774932861,0.8162701725959778,1.7360103130340576,-0.6655555963516235,0.5171200037002563,0.46699821949005127,-2.446725606918335,-0.2648197114467621
amazon-digital-music.csv,-1.08551824092865,-1.4848668575286865,-1.3069713115692139,-2.7123663425445557,0.10949212312698364,0.14616844058036804,-0.11496008187532425,-0.7557703852653503,-0.2858430743217468,0.7603173851966858,-1.9493699073791504,2.0372228622436523,-0.3898947238922119,0.1907755583524704,-0.737128734588623,1.6400132179260254,-0.958689272403717,0.36854201555252075,-0.8722982406616211,0.5053768157958984,-0.3136015236377716,-1.4458929300308228,-0.722571849822998,-0.6475874781608582,0.49470144510269165,-0.3605552017688751,1.7702351808547974,-0.3581372797489166,0.7882680892944336,-0.7358922362327576,-0.8285232782363892,-1.3526678085327148,0.8868378400802612,-1.3974846601486206,0.950019121170044,1.768839955329895,-0.2046004831790924,-0.1982511729001999,2.449500560760498,1.184316873550415,-1.1195101737976074,0.07939454168081284,-1.8163124322891235,-0.7562885880470276,-2.27226185798645,-1.0787557363510132,1.2973507642745972,0.743457555770874,-0.7060338854789734,0.07555759698152542,-0.7305974364280701,-0.6126226186752319,1.011441946029663,0.23793946206569672,0.025359442457556725,1.2664308547973633,0.5888163447380066,-1.7732820510864258,-0.45538851618766785,0.9162659645080566,0.9300273656845093,-1.5413349866867065,-0.24401898682117462,1.2940207719802856,0.47404515743255615,0.540790319442749,1.4575802087783813,-0.10650403052568436,-0.4259963929653168,-0.5257872939109802,0.45035964250564575,-0.7320430874824524,-0.5992841124534607,-1.5660368204116821,0.6150789260864258,0.2292364090681076,-0.08291418850421906,-0.3881850242614746,0.12535227835178375,1.135385274887085,-0.6749480366706848,0.33318543434143066,0.13443206250667572,0.004194597713649273,-0.031948819756507874,0.9460042119026184,-0.2924807071685791,0.16065041720867157,-0.2658439576625824,0.9245724081993103,1.140049695968628,-0.49558717012405396,1.1126315593719482,-0.493170827627182,-0.8081356287002563,-0.9670435786247253,-1.305623173713684,-0.22931718826293945,-0.3358216881752014,-1.0608267784118652,0.9041084051132202,0.9655155539512634,0.5650582313537598,1.6427884101867676,0.6585174798965454,0.6876145601272583,-1.9540183544158936,0.38636040687561035,-1.1840126514434814,-0.6485582590103149,0.9236083030700684,0.4731540083885193,0.0539424754679203,-1.6955552101135254,2.2481677532196045,0.07979279011487961,0.21019068360328674,0.5256309509277344,0.8631892800331116,-0.47483721375465393,1.2153868675231934,2.2152602672576904,0.11230374127626419,-0.2641258239746094,0.6066414713859558,0.9285664558410645,-0.9432822465896606,0.14152324199676514,0.5074309706687927,1.0228543281555176,0.21207325160503387,-0.05427107214927673,-1.39603590965271,-0.9484237432479858,-0.03832782432436943,1.1325932741165161,-0.19948036968708038,-0.3809758722782135,1.8534401655197144,-0.26246291399002075,-2.2730488777160645,-1.2928472757339478,-0.23074287176132202,0.2411857694387436,1.1470708847045898,-0.49142521619796753,-1.897526741027832,-0.6545217037200928,0.16170404851436615,-0.516428530216217,-1.8262277841567993,-0.009565921500325203,0.3481371998786926,-1.2682807445526123,1.089370608329773,0.7736082673072815,-1.1214576959609985,-0.9627326726913452,0.13491681218147278,-0.3333033621311188,-0.35142311453819275,-0.7728717923164368,0.299157977104187,0.9161567687988281,-0.4228157699108124,-0.9829241633415222,0.597305953502655,0.968486487865448,-0.06413335353136063,-0.7563511729240417,0.7183072566986084,0.3073616921901703,-0.32040467858314514,-1.1194615364074707,-1.117443561553955,-0.8190467953681946,0.7727813124656677,-0.012671797536313534,-1.0094151496887207,0.48240479826927185,1.0743019580841064,0.7425784468650818,2.0951716899871826,-2.0162672996520996,1.0398809909820557,-1.11994206905365,0.3923901319503784,-0.8812465667724609,0.2219480276107788,0.4670827388763428,-0.3301548659801483,2.654749870300293,2.3066325187683105,0.3001943528652191,0.9009517431259155,-0.32203343510627747,0.4308409094810486,0.5319980978965759,-1.5655498504638672,0.3228897452354431
amazon-cd.csv,0.6677693128585815,0.1836443990468979,-0.19706380367279053,-0.5648964047431946,0.3999480605125427,0.29245585203170776,-0.18700376152992249,-1.7131738662719727,0.07143326103687286,1.720150351524353,-0.552422285079956,2.865757465362549,-1.093762755393982,0.39398375153541565,0.5241403579711914,0.4915770888328552,-0.9462374448776245,0.4074512720108032,0.010903981514275074,0.679955005645752,0.2500969469547272,-1.2344825267791748,-0.2407817244529724,-0.1078985258936882,0.3250075578689575,-0.6495791077613831,0.32057446241378784,-0.38017889857292175,1.0586752891540527,-1.1203492879867554,-0.35879382491111755,0.13178758323192596,0.5827522277832031,-0.9536628127098083,0.5775635242462158,2.001253604888916,1.2868279218673706,0.4898434579372406,1.2636418342590332,0.14860758185386658,-1.2606698274612427,-0.007662006188184023,0.4988779127597809,1.7571638822555542,-1.3904098272323608,-0.9361103773117065,1.074522852897644,-0.05510375276207924,-1.15562903881073,0.41074255108833313,-1.8640116453170776,0.3821657598018646,0.3081372380256653,-1.5385688543319702,0.17158864438533783,-0.298247367143631,0.5510228276252747,-1.9092373847961426,-0.847870945930481,0.4398939311504364,0.31985101103782654,-0.024898270145058632,0.03971529379487038,2.142099142074585,0.0600469596683979,0.9028257131576538,0.6158854961395264,0.7114468216896057,-0.07641024142503738,0.16283586621284485,0.4788844585418701,0.7490772008895874,-0.6896840333938599,-1.089389443397522,-0.5737542510032654,0.5951989889144897,0.9168615341186523,-0.9849566221237183,-0.6309933066368103,1.2429198026657104,0.20414845645427704,1.5352283716201782,-0.8716848492622375,0.35277271270751953,-1.432002305984497,0.6412733197212219,0.3406403660774231,-0.23967862129211426,0.5539169907569885,0.3283484876155853,-0.5526514053344727,-1.9479179382324219,1.5596427917480469,1.5834304094314575,0.1368415355682373,-1.5221556425094604,-1.0218201875686646,0.018391147255897522,0.27660641074180603,-0.1836811602115631,-0.23825713992118835,0.249019056558609,1.3946760892868042,1.4476035833358765,-0.016549313440918922,-0.18836259841918945,-0.9804286956787109,0.9206218719482422,-0.8068222403526306,1.2830475568771362,0.7739357948303223,-0.9864791035652161,0.1158231645822525,-2.0168447494506836,0.8825624585151672,-0.18299950659275055,-0.2889725863933563,0.5717261433601379,0.39486709237098694,-0.6798353791236877,0.7964971661567688,1.126117467880249,-0.11728154867887497,-0.7431477904319763,-0.3130781650543213,0.33934688568115234,0.6929153800010681,1.489683747291565,1.0458418130874634,1.521737813949585,-0.5000131130218506,0.48955875635147095,-2.089468240737915,-0.7226554155349731,0.5721876621246338,0.9797025918960571,0.07614196091890335,-1.810357928276062,1.27825129032135,-0.005960175301879644,-0.8014712333679199,-1.438082218170166,0.2502574622631073,0.2834455370903015,-1.4144864082336426,0.714211106300354,-1.0738742351531982,1.239943265914917,-0.6483567357063293,0.8747364282608032,-2.5999836921691895,0.45216572284698486,-0.25127512216567993,-0.2778388559818268,1.3354207277297974,1.5711482763290405,-0.9547991156578064,0.1505005657672882,-1.223878264427185,-0.08163980394601822,-0.01837315782904625,0.6190205216407776,-0.23053008317947388,1.0825777053833008,0.8170704245567322,-1.1325786113739014,-0.5942649841308594,1.0435997247695923,0.04907292500138283,-0.11477773636579514,1.0686002969741821,0.07293256372213364,0.01382245309650898,-2.5123753547668457,0.12536251544952393,-0.8512163758277893,0.3459360897541046,0.5823163986206055,-1.8959321975708008,1.411669373512268,-0.24710993468761444,1.054844617843628,2.0911784172058105,-0.8212612271308899,0.6903480887413025,-2.0314459800720215,-0.8245729207992554,-0.7297502756118774,1.065704107284546,0.44654151797294617,-1.145916223526001,2.7788732051849365,1.404365062713623,-0.5074523687362671,1.2386507987976074,-0.7197130918502808,-0.07474061101675034,2.5956788063049316,-1.2123849391937256,0.08370999246835709
amazon-instant-video.csv,0.7925200462341309,-0.7844666838645935,0.0012428798945620656,-1.3703944683074951,1.190566897392273,0.5900982618331909,-0.5481389164924622,-1.0230461359024048,0.26615971326828003,0.5830560326576233,-0.3986971378326416,0.5915508270263672,-1.1450986862182617,-0.3875720500946045,-0.6980114579200745,1.758656620979309,-1.6367567777633667,0.6030890345573425,0.2942602336406708,1.943619966506958,0.37692031264305115,-0.7690140604972839,-1.2197091579437256,0.31468430161476135,1.2817063331604004,0.45546114444732666,0.8843913674354553,1.6135494709014893,0.43980541825294495,-0.9702721238136292,-1.4412117004394531,-0.49341103434562683,0.58665931224823,-0.6562567353248596,0.8693642020225525,0.4541032910346985,-1.138047218322754,-0.5330514311790466,1.3212718963623047,0.2878723442554474,-0.8523693680763245,-0.8691264390945435,-1.4073667526245117,0.7277097702026367,-2.0955193042755127,-0.7946112155914307,0.3120344281196594,1.2489393949508667,-1.5091077089309692,1.3356633186340332,-1.1650965213775635,-0.5949739813804626,1.0994433164596558,0.9530579447746277,0.3795923590660095,0.3525824248790741,0.13217705488204956,-1.777079701423645,0.7205390334129333,0.28285205364227295,0.6625809669494629,-1.1023029088974,1.0006285905838013,2.6677918434143066,0.48821571469306946,1.216027855873108,1.5379585027694702,0.40950697660446167,-0.14783494174480438,-0.614573061466217,-0.9394819140434265,0.02230232208967209,-1.0673171281814575,0.6477264165878296,-0.10916419327259064,0.9868379831314087,0.8036050796508789,-1.525917410850525,-1.3546746969223022,0.18559925258159637,-0.8834705352783203,-0.19363322854042053,-0.024550126865506172,1.2017788887023926,-1.7987744808197021,-0.4378555715084076,0.051411744207143784,-0.12164921313524246,-0.4084177315235138,1.0758427381515503,1.1597044467926025,-1.7052726745605469,0.7004762887954712,-0.272842139005661,0.10669464617967606,-1.0785222053527832,-0.08937235921621323,0.23231148719787598,-0.07899092882871628,-1.1104522943496704,2.2872543334960938,-0.7237085103988647,0.9775866866111755,1.838025450706482,-0.24115502834320068,0.4713662564754486,-2.1664063930511475,-0.7120314836502075,-0.8899207711219788,0.47499772906303406,1.3114147186279297,-0.45820173621177673,-0.8218054175376892,-1.3724355697631836,1.466452956199646,-0.07325150072574615,0.06392823904752731,0.44393274188041687,-0.4261864423751831,-0.3913838267326355,1.277026891708374,1.1435726881027222,-0.07076268643140793,-0.28112444281578064,1.2733937501907349,1.1672013998031616,-0.30090785026550293,0.5682486295700073,-0.4201328456401825,0.904627799987793,-0.16570322215557098,-0.4736540615558624,-1.3336490392684937,-2.2106990814208984,-0.4552325904369354,1.3674006462097168,-0.14588050544261932,0.3282257616519928,0.43910449743270874,-1.378076195716858,-1.654278039932251,-0.12954895198345184,-0.3323986530303955,-0.2876758277416229,1.4157695770263672,-1.1453797817230225,-1.6380383968353271,0.1136213168501854,-1.2012892961502075,0.6086602807044983,-2.376810073852539,-0.1397855430841446,-0.10748596489429474,0.29871416091918945,1.4946247339248657,1.212273120880127,-1.9007781744003296,-1.0922850370407104,-0.708440363407135,-0.8286559581756592,-0.4969410300254822,0.821733832359314,0.8222054243087769,0.7123720645904541,-0.31102800369262695,0.025246622040867805,0.4467569589614868,0.32006552815437317,-1.138981580734253,-0.5205768942832947,0.630614697933197,0.3662513792514801,0.8999834656715393,-1.036792278289795,0.38964951038360596,-0.11377168446779251,0.6135736703872681,-1.100419521331787,-0.05242255702614784,0.7597343325614929,1.368893027305603,0.09970498085021973,0.7937906980514526,-0.20400182902812958,0.867604672908783,-1.8372139930725098,0.2805677056312561,-0.7757459878921509,0.9185879230499268,-0.375789999961853,-0.28445157408714294,2.1434216499328613,1.8857817649841309,0.22649414837360382,1.447426676750183,-0.20302438735961914,0.294261634349823,1.913840413093567,-2.235853672027588,-0.3738512694835663
jester3.csv,-1.5886214971542358,0.06364480406045914,0.581369936466217,-0.8727745413780212,-0.46848154067993164,-1.9196131229400635,-0.32626110315322876,-0.10500466078519821,0.9556363224983215,1.2446597814559937,0.22417114675045013,1.357923984527588,-0.34956634044647217,0.24672392010688782,0.5504056215286255,0.7950449585914612,-0.8976739645004272,0.3160291314125061,0.5473589301109314,-0.28595954179763794,-0.03335817903280258,-1.5107461214065552,-0.27812454104423523,-0.9101173281669617,0.340765118598938,1.2564542293548584,-0.21312981843948364,-0.313478022813797,1.3667728900909424,-1.1894042491912842,-1.1706030368804932,-1.9526381492614746,0.7711364030838013,0.5076283812522888,-0.8302764296531677,1.388942003250122,0.1282198280096054,-0.36367619037628174,-0.09623704850673676,0.8180476427078247,-0.19979269802570343,-0.6987036466598511,-0.642387866973877,1.5070526599884033,-1.2506295442581177,-0.4422619342803955,0.7453229427337646,0.03934718295931816,-1.3710696697235107,1.2367061376571655,-1.648371934890747,0.019854988902807236,1.8189809322357178,-0.451117604970932,0.2588706612586975,1.5695186853408813,1.5218018293380737,-0.052250467240810394,0.6496179103851318,-0.9370499849319458,-0.4546540677547455,0.6421727538108826,-0.0810629203915596,-0.6878675222396851,-0.5996571779251099,-0.392598032951355,1.7142640352249146,0.5383639335632324,1.0068424940109253,0.35586026310920715,-0.16996923089027405,0.18251658976078033,-0.8109564781188965,1.4123090505599976,0.38419094681739807,1.471116304397583,1.6926268339157104,-0.08735190331935883,0.02362198568880558,-0.573407769203186,-0.2186361700296402,2.6390573978424072,-0.965470016002655,0.9642688035964966,-0.929662823677063,-0.19875818490982056,-0.2954426109790802,1.2302169799804688,-0.10114606469869614,0.18239013850688934,-0.6523575782775879,-1.6782640218734741,0.40123435854911804,-0.6029571294784546,-1.086891770362854,-0.28737491369247437,-0.8885791301727295,0.577719509601593,-0.606234610080719,-1.2584741115570068,1.5605294704437256,0.011679363436996937,0.7174720168113708,1.0556312799453735,-1.786685824394226,-0.7773391008377075,-0.9671109914779663,0.46929314732551575,-1.843664288520813,1.0551724433898926,0.6069688200950623,-1.763913631439209,0.3643041253089905,-1.3523143529891968,1.7826544046401978,2.389509677886963,0.5546902418136597,-0.6629965305328369,1.2647724151611328,-1.0709129571914673,0.2764156758785248,2.8742263317108154,-1.1522821187973022,-0.5064777135848999,1.8048919439315796,-0.2766171097755432,-0.5739322304725647,0.5772898197174072,-0.19627438485622406,0.29701218008995056,-1.9720865488052368,-0.08523231744766235,-0.33844858407974243,-1.6155990362167358,-0.7009466290473938,1.6400336027145386,0.8351011872291565,0.027730196714401245,1.745235562324524,0.017992381006479263,-1.7977718114852905,-1.4491991996765137,0.4248407781124115,0.4687509536743164,1.6797761917114258,-0.6677230000495911,-1.4782335758209229,-0.4914390742778778,-0.13954971730709076,0.5908764004707336,-0.5987099409103394,0.5414828658103943,0.7371812462806702,-0.37682047486305237,0.5910375714302063,1.1932581663131714,0.09171512722969055,0.7581782341003418,-0.3742227554321289,-0.8827225565910339,-0.8117078542709351,-0.21750180423259735,-0.27454903721809387,0.46919628977775574,0.6708744168281555,-0.5805969834327698,0.5685469508171082,1.3030880689620972,-1.5385154485702515,-0.24787546694278717,-0.6025404930114746,-0.4414040446281433,0.36929333209991455,-0.5565128326416016,0.9267681837081909,-0.6532748937606812,-0.729128897190094,1.5745387077331543,0.09544283151626587,0.9845083355903625,1.053712248802185,1.8100939989089966,0.5625608563423157,-0.7340884208679199,0.19201985001564026,-1.252242922782898,-0.4820448160171509,-1.6705737113952637,1.2882080078125,1.002036690711975,-0.7110612988471985,0.8628937005996704,0.6609565019607544,-1.0887243747711182,1.8651024103164673,-0.3828476667404175,-1.700541615486145,0.319163054227829,-1.586291790008545,-0.5770210027694702
amazon-phones.csv,-0.2688291370868683,-0.6233351826667786,-0.5361307859420776,-0.7161986231803894,1.0042177438735962,0.5556614398956299,-0.5240204334259033,-0.8534537553787231,0.20898354053497314,0.9721469879150391,-0.9131637811660767,0.4612720012664795,-0.43263205885887146,-0.08093198388814926,-0.5694049000740051,0.9449077248573303,-1.650017261505127,1.1329573392868042,0.8564105033874512,0.7250444889068604,-0.10379355400800705,0.6851597428321838,-0.5158588290214539,0.5437547564506531,0.499602347612381,0.13106076419353485,0.6859967112541199,0.4012925624847412,0.7316787838935852,-1.193859577178955,-1.5424307584762573,0.24564386904239655,0.7442430853843689,-1.2295032739639282,0.8428282737731934,0.8379033207893372,0.29050323367118835,-1.3693259954452515,1.231202483177185,1.0374038219451904,-1.433158278465271,-0.9264653325080872,-1.2247424125671387,0.8578593730926514,-2.552934408187866,-0.9543136954307556,0.5522739291191101,1.354136347770691,-1.5335955619812012,0.743379533290863,-1.990541934967041,-0.7978362441062927,1.1174795627593994,0.5514964461326599,-0.3724737763404846,0.5835559964179993,-0.48050442337989807,-2.1604599952697754,0.9732335805892944,0.17949937283992767,-0.3713688254356384,-1.3510767221450806,0.419264018535614,1.9091054201126099,-0.11642809212207794,0.051840778440237045,0.39384186267852783,0.8000026941299438,0.6061258912086487,-0.5054412484169006,-1.9552288055419922,0.1010090559720993,-0.6391994953155518,-0.5057913661003113,0.3606969714164734,2.136758327484131,-0.31188634037971497,-0.43939152359962463,-1.8849107027053833,0.30856725573539734,-0.8148285746574402,-0.1465737521648407,-0.41969701647758484,0.4165593087673187,-1.6226725578308105,-0.44970187544822693,-0.5457385778427124,-0.6992822289466858,0.025478657335042953,1.1773874759674072,-0.19285394251346588,-0.9718055129051208,1.2258996963500977,-0.18119551241397858,0.48429837822914124,-0.6162484288215637,-0.3292428255081177,-0.19502879679203033,0.19123521447181702,0.16191935539245605,2.229085683822632,0.2844443619251251,0.3493395447731018,2.3332152366638184,0.013168313540518284,0.6947759985923767,-2.3209049701690674,-0.09711167961359024,-0.9227167963981628,0.14669235050678253,1.303646445274353,-1.2991149425506592,-0.17964090406894684,-0.7273843288421631,1.1869280338287354,0.7747493982315063,0.0020011248998343945,0.5940338969230652,-0.09197156876325607,0.21877697110176086,0.5996661186218262,0.7484622597694397,-0.4391442835330963,-0.9963369369506836,1.8537895679473877,0.8058209419250488,-0.7292104959487915,0.5161611437797546,-0.3898735046386719,1.2382795810699463,-1.0057095289230347,-0.1410350501537323,-1.8222261667251587,-1.9034987688064575,0.2991003394126892,1.7545013427734375,-0.24980545043945312,-0.7730539441108704,-0.024174679070711136,-1.2271373271942139,-1.3365482091903687,0.32223641872406006,-1.0304204225540161,-0.17592637240886688,1.4278292655944824,-0.9027816653251648,-1.280495285987854,0.02682849019765854,-0.6646940112113953,0.22578279674053192,-1.608232855796814,0.30859267711639404,0.16428151726722717,-1.055794358253479,0.715554416179657,1.5355767011642456,-2.348790407180786,-0.5486375689506531,-0.2860303819179535,-0.07209335267543793,0.8153809905052185,0.3862760066986084,1.0512080192565918,0.43399688601493835,-1.1423336267471313,-0.7571818828582764,-0.04672342538833618,1.384564757347107,-1.7160985469818115,-0.6003490090370178,0.4105278253555298,0.7153366208076477,0.4618123769760132,-1.4726299047470093,1.1674655675888062,-0.3653305470943451,1.207525372505188,1.0094257593154907,-0.629174530506134,1.2603375911712646,1.258810043334961,0.21105249226093292,0.9492558836936951,-0.6266464591026306,0.24789074063301086,-2.0713751316070557,-1.1324220895767212,0.11002562195062637,0.22286690771579742,0.3684680163860321,-1.4064031839370728,2.467987537384033,1.4524492025375366,-0.26829808950424194,0.7342408895492554,0.33530041575431824,0.04892436042428017,1.7095005512237549,-2.5249412059783936,-0.016093477606773376
yelp.csv,0.8683504462242126,0.1786571443080902,-0.6544053554534912,-0.6703231930732727,1.544108510017395,-0.3543589115142822,0.48522046208381653,-1.2350330352783203,-0.382281631231308,0.4538681209087372,0.11678379774093628,1.427762746810913,-0.42281290888786316,0.6852855682373047,0.15224948525428772,0.23325484991073608,-0.9595369696617126,-1.284163236618042,0.22229093313217163,-0.3726475238800049,-0.44849029183387756,-1.6966274976730347,-1.011792778968811,-0.30849555134773254,0.1281796246767044,-1.6353970766067505,1.1597933769226074,-0.006838906556367874,0.7110699415206909,-1.6954255104064941,-0.09680268168449402,0.22309590876102448,1.1129446029663086,-1.5365630388259888,-0.181104376912117,2.351141929626465,-0.5864390134811401,0.25152161717414856,0.4526626467704773,-0.017304474487900734,-0.7485766410827637,0.6563603281974792,-1.3171436786651611,1.1987123489379883,-0.7753284573554993,-0.30990108847618103,1.9860376119613647,-0.25934645533561707,-1.332096815109253,1.4660006761550903,-1.2025692462921143,0.1427789181470871,1.297479510307312,-0.7865873575210571,0.16258689761161804,0.5650008320808411,0.39817729592323303,-1.2098006010055542,-0.8639295101165771,0.4879339337348938,0.14896614849567413,-0.4239961504936218,-0.34885773062705994,3.1628663539886475,-0.09023220837116241,0.3324395418167114,1.1592494249343872,0.976545512676239,-1.0797996520996094,-0.39182981848716736,-1.1912364959716797,0.01712840422987938,-0.17656715214252472,-0.023349739611148834,-0.3241841793060303,1.1666207313537598,1.583439826965332,-0.8035142421722412,-2.0051050186157227,0.624396800994873,-0.34422433376312256,-0.42205312848091125,-1.5148919820785522,-0.09385860711336136,-1.246572732925415,-0.34650683403015137,0.7849002480506897,0.618916928768158,-0.9168364405632019,-0.018543018028140068,0.19813776016235352,-1.6998053789138794,0.7777318358421326,1.0026278495788574,-0.72825688123703,0.26442235708236694,-0.31155869364738464,-0.40716132521629333,-1.026640772819519,0.4020744562149048,0.4023490846157074,0.14287279546260834,1.4162691831588745,1.4720189571380615,0.5128394961357117,0.2881587743759155,-1.2249343395233154,-0.8686882257461548,-0.24232102930545807,0.6800950169563293,1.15314519405365,-1.0691170692443848,-1.1930612325668335,-1.0917441844940186,2.253044605255127,2.080441951751709,-1.3687041997909546,-1.2075310945510864,1.038962721824646,-0.3247429132461548,-0.7646915316581726,0.6848768591880798,-1.1721076965332031,-0.7221859693527222,-0.040637388825416565,0.3406454622745514,-1.4838777780532837,2.266733407974243,0.23939800262451172,-0.34995362162590027,-1.683525562286377,-0.40258049964904785,-1.3156152963638306,-2.2165257930755615,-0.0975787341594696,0.09563471376895905,-0.398044228553772,-0.7564243674278259,-0.11070282012224197,0.7004573941230774,-0.48721855878829956,-2.142636299133301,0.7697186470031738,-0.31647878885269165,0.9231391549110413,-1.1875773668289185,0.4168139696121216,-0.5732408165931702,-0.4249766170978546,1.0787431001663208,-1.2584481239318848,0.01477001141756773,-0.8373020887374878,-1.2879031896591187,1.1613407135009766,1.6513675451278687,-1.0659669637680054,0.1362708956003189,-0.0007618607487529516,-0.49274295568466187,0.43776604533195496,0.7853043079376221,-1.0849781036376953,0.5499966740608215,-0.6211075782775879,-0.6564342379570007,-0.1471410095691681,0.6243009567260742,-0.1719500571489334,0.6766611933708191,-0.6750409603118896,0.06760923564434052,0.6088809967041016,-1.5563158988952637,0.2927066385746002,-0.5732029676437378,0.7262732982635498,1.2661802768707275,0.4489261209964752,0.8864822387695312,0.8230038285255432,1.4281291961669922,0.9007720351219177,-1.726822853088379,0.2132388800382614,-1.318791389465332,-0.23665936291217804,-1.3959203958511353,0.12571664154529572,0.6097543835639954,-1.0637706518173218,2.0918939113616943,1.8497813940048218,0.43816426396369934,0.3602222800254822,-1.6271408796310425,0.07420478016138077,1.5512112379074097,-0.863704264163971,-2.528723955154419
flixter.csv,0.2780504822731018,-0.051771022379398346,-0.1438707560300827,-2.0845277309417725,0.9479454159736633,-0.46638286113739014,-0.326768159866333,-0.43644222617149353,0.03555222600698471,0.9193183183670044,-0.26985031366348267,1.5601593255996704,-0.34014779329299927,-0.6069677472114563,-0.5159284472465515,-0.5854550004005432,-0.16182516515254974,1.0458719730377197,-0.13084924221038818,1.2269090414047241,-0.3111859858036041,-1.7777868509292603,0.8849414587020874,-0.41694456338882446,1.13645601272583,-0.1607120931148529,-0.18100832402706146,-0.18573318421840668,-0.0746101662516594,0.0633651614189148,0.30775436758995056,0.4699624180793762,-0.011838134378194809,-1.4301550388336182,0.5792869329452515,1.0269198417663574,0.8608159422874451,0.9193567037582397,1.3261317014694214,0.6831472516059875,-1.3725003004074097,0.7069091200828552,-0.688635528087616,0.7666451930999756,-1.585062861442566,-0.6894512176513672,0.3400605320930481,-0.9826213717460632,-1.7509770393371582,0.2977049648761749,-0.3937954902648926,-1.2239999771118164,-1.8013739585876465,0.33301395177841187,0.280272513628006,1.7464451789855957,0.07922269403934479,-1.2933892011642456,0.1727791726589203,0.3588598668575287,0.43824970722198486,0.7137715220451355,0.515392005443573,0.44837135076522827,0.469866007566452,0.2097032368183136,1.2408218383789062,-1.0096567869186401,0.004613998346030712,0.1913352906703949,0.6103905439376831,-0.3882192373275757,-1.4217673540115356,-0.6854667663574219,-0.49560779333114624,0.12257259339094162,-1.450753092765808,-0.710607647895813,-2.0045764446258545,-0.20639486610889435,-0.6537258625030518,0.2105673849582672,0.5653939247131348,1.702390193939209,-1.0903526544570923,0.1397194117307663,-1.1173598766326904,-0.05897176265716553,0.6176196932792664,1.0942237377166748,-0.9971494078636169,-2.3305304050445557,-0.3101141154766083,0.25120893120765686,1.07073974609375,-0.44203537702560425,-0.2052782028913498,-1.3237488269805908,-1.6107083559036255,0.744512677192688,0.2820735573768616,1.4076052904129028,0.2655062973499298,0.46172645688056946,-0.6507117748260498,-0.25758683681488037,-2.205836057662964,0.11445542424917221,-0.9296258687973022,-0.23643812537193298,0.07965045422315598,-0.49649831652641296,0.24555252492427826,0.20888455212116241,1.171173095703125,0.8951553702354431,-0.1454111784696579,-0.32952040433883667,1.46701979637146,-0.8380202054977417,0.5498471856117249,2.8567662239074707,-1.430241346359253,-0.38670438528060913,0.9371263384819031,1.7111095190048218,-1.963608741760254,1.1337112188339233,-0.3022231459617615,0.2210851013660431,-1.1432642936706543,0.6441327929496765,-1.276072382926941,-2.5585296154022217,0.2593003511428833,0.5670282244682312,-0.2547625005245209,-0.39265820384025574,1.2988128662109375,1.0457358360290527,0.004555429797619581,-1.6163781881332397,0.20192496478557587,1.623236060142517,0.169383704662323,-0.44388774037361145,-1.2528443336486816,-0.6254370212554932,-1.190582275390625,0.4509502947330475,-0.7218436002731323,1.2000019550323486,1.6854982376098633,0.4971257746219635,1.2138690948486328,2.158582925796509,-1.0497642755508423,-0.938025951385498,-0.6271123886108398,-0.9343416094779968,0.18367962539196014,0.5643290281295776,0.3252764046192169,1.3702173233032227,-0.22474220395088196,-1.022120714187622,0.7713304162025452,1.5102595090866089,0.3768927752971649,-0.36972036957740784,0.36269181966781616,0.7656652331352234,0.07353806495666504,-2.386986255645752,0.2847446799278259,-1.1487705707550049,-0.26854515075683594,1.3425402641296387,-0.7648171186447144,1.233174204826355,0.9814479351043701,-0.040193650871515274,1.2291131019592285,-1.8430851697921753,-0.17506788671016693,-1.0050039291381836,-0.4041915535926819,0.4764867126941681,-0.17821772396564484,2.6441736221313477,-2.3492839336395264,1.3201255798339844,1.8469876050949097,0.7606334686279297,1.2983300685882568,0.7045473456382751,-0.3186397850513458,1.1150641441345215,-0.625255286693573,-0.2746275067329407
amazon-home.csv,0.14205922186374664,-0.7064116597175598,-0.6694537401199341,-0.8689092397689819,1.0759435892105103,0.39483582973480225,0.9201409220695496,-1.4245445728302002,-0.2713058888912201,1.6296734809875488,0.791985809803009,2.4771299362182617,-0.134588360786438,0.7667998671531677,0.5053061246871948,0.6008281111717224,-1.3738170862197876,0.5552812218666077,-0.5406644940376282,-0.10421151667833328,-0.8657945990562439,-0.7165327668190002,-0.5719476938247681,-1.1640040874481201,1.8000726699829102,-1.1181336641311646,0.5118476748466492,-0.514428436756134,1.6473201513290405,-0.008055310696363449,-1.2410359382629395,0.00891161523759365,1.037225604057312,-0.7264511585235596,0.8062897324562073,2.463585376739502,0.3437049388885498,0.2243807464838028,0.202366903424263,1.0508867502212524,-0.5263891816139221,-0.5530335903167725,-0.5811000466346741,1.3858472108840942,-1.7009351253509521,-1.9903233051300049,1.0097233057022095,-0.11692279577255249,-1.0873558521270752,0.5543221235275269,-2.077704429626465,-0.0924219861626625,-0.0325472354888916,-0.23247063159942627,-0.30485600233078003,1.1821199655532837,0.35123249888420105,-2.779540777206421,-0.26818495988845825,0.4125566780567169,-0.3729029893875122,-1.3847986459732056,0.45375096797943115,1.759188175201416,-0.656988263130188,1.4726698398590088,0.9251536726951599,0.9043164849281311,-0.8915094137191772,-0.12638789415359497,-0.8476918339729309,1.5159046649932861,0.23453369736671448,-1.014868140220642,0.24288274347782135,0.8978095650672913,0.48699045181274414,-1.434506893157959,-0.5191875100135803,-0.30774107575416565,0.026341566815972328,0.756582498550415,-0.48190048336982727,1.8718537092208862,-2.09879994392395,0.388590931892395,0.4699893593788147,0.3455602824687958,-0.346004456281662,1.7447582483291626,-0.5567728281021118,-1.3672808408737183,1.5659767389297485,0.08242154866456985,0.7413609027862549,-0.4414883852005005,-0.328780859708786,-0.7510889172554016,-0.06902190297842026,-1.1917109489440918,0.6165223121643066,0.51529461145401,0.9169296026229858,1.354880928993225,-0.08211147785186768,0.9083054661750793,-2.10323429107666,-0.2797151505947113,-0.2881799340248108,0.5379294753074646,0.0711342841386795,-1.1683143377304077,-1.1372977495193481,-1.0088297128677368,1.3086775541305542,1.5046547651290894,0.11689445376396179,-0.15477138757705688,-0.7068066000938416,0.449820339679718,0.7569243311882019,1.7519677877426147,-1.8247098922729492,-0.815416157245636,0.48550260066986084,0.8923547863960266,-0.5597906708717346,1.270707368850708,0.5714318156242371,0.41190749406814575,-1.144697904586792,-0.31815487146377563,-1.441720724105835,-0.19110168516635895,-0.16613711416721344,0.6042885184288025,0.7230416536331177,-0.9555218815803528,1.2917320728302002,0.1691579818725586,-0.25488561391830444,-1.2556267976760864,-1.175073504447937,-0.4095490574836731,0.9030693769454956,-0.7756149172782898,-1.9205740690231323,-0.1257641613483429,0.04181371629238129,0.7825981378555298,-1.227049469947815,-0.20555661618709564,0.6573367118835449,-0.9958207607269287,0.5817320346832275,0.0606432780623436,-0.6079191565513611,1.296105146408081,-1.0551728010177612,0.01104937493801117,-0.3245808780193329,1.3245567083358765,0.08505292236804962,0.8717816472053528,-0.6186116337776184,-0.11359451711177826,0.927405834197998,0.7001774907112122,-0.5016573071479797,-0.9864861369132996,0.997653067111969,0.09185122698545456,-0.06001169979572296,-1.927401065826416,-0.4590068459510803,-0.8735417127609253,0.37064388394355774,0.06792393326759338,-0.5848195552825928,1.0318776369094849,1.0720276832580566,-0.23615720868110657,1.134344220161438,-0.7964798212051392,0.42264705896377563,-2.492584466934204,-1.1469342708587646,-1.891507625579834,0.4314509928226471,0.8085774779319763,-1.6234471797943115,1.2419883012771606,2.2836790084838867,-0.47933080792427063,0.28537145256996155,0.6127037405967712,-0.7928274869918823,0.5459543466567993,-2.1942663192749023,-0.18558138608932495
movielens100k.csv,-0.28042131662368774,-1.2090342044830322,0.42441970109939575,-1.2618539333343506,0.18152931332588196,-0.9278017282485962,0.29641470313072205,-0.6929085850715637,-0.5455248951911926,1.5121912956237793,0.6613270044326782,0.9771137833595276,0.36977747082710266,-0.7281118035316467,-0.1922806054353714,-0.4427838921546936,0.29168054461479187,-0.2485578954219818,-2.187093496322632,-0.8414116501808167,1.1299571990966797,0.552095353603363,-1.237064242362976,-0.2896457016468048,1.4192678928375244,0.3872605860233307,1.3126097917556763,-0.10045772045850754,0.3236943781375885,-0.05451948568224907,-0.9749888777732849,0.3467438817024231,0.7254922389984131,0.8721214532852173,0.09311283379793167,0.7108446359634399,-0.5813022255897522,0.4039917290210724,1.175997257232666,1.7082842588424683,-1.255966305732727,1.3468157052993774,-0.7505989670753479,-0.652312159538269,-1.9160351753234863,-0.07634928077459335,1.0595042705535889,-0.8866338729858398,-0.9410286545753479,0.3788662254810333,-0.027429616078734398,1.6249855756759644,-0.050622884184122086,0.2243030071258545,-0.6479435563087463,0.0741516500711441,0.5059472322463989,-1.3962732553482056,0.40191149711608887,0.4633959233760834,-0.8706342577934265,0.6188162565231323,-0.531940221786499,1.0704108476638794,-0.2711712121963501,-0.7413448691368103,1.2520257234573364,-1.1319175958633423,1.096725583076477,-0.5567649006843567,0.28819146752357483,1.8245769739151,-0.5191888213157654,-0.8278945684432983,0.13597750663757324,1.1731178760528564,-0.07331390678882599,-0.3213999569416046,-0.4196176528930664,0.6395917534828186,0.448395699262619,0.5195397138595581,0.9384211897850037,-0.3436245918273926,-2.906095504760742,-0.45457911491394043,-0.9887914657592773,0.6460710763931274,0.5846102833747864,0.545257031917572,0.3728237450122833,-2.193402051925659,0.1190638467669487,-0.6830087900161743,0.26680436730384827,-1.1043542623519897,-1.5144747495651245,-0.4856305718421936,-1.0420135259628296,-0.24341082572937012,1.3292838335037231,-0.5693200826644897,1.282265305519104,0.8024751543998718,0.15777216851711273,1.1599969863891602,-1.0704456567764282,0.7177667021751404,-0.6736969351768494,1.1715846061706543,2.3567373752593994,-1.6297053098678589,0.23492872714996338,-2.2174243927001953,1.702872395515442,2.891317129135132,0.8418553471565247,-1.0682108402252197,-0.21785646677017212,0.8012018203735352,-0.8942498564720154,1.8018317222595215,0.3564421236515045,-1.3934216499328613,0.41475769877433777,0.7418758869171143,-0.17791175842285156,1.4254282712936401,0.1669817715883255,1.1203324794769287,-1.2513928413391113,0.11118540167808533,-0.5857813358306885,-1.563025712966919,-0.21069638431072235,1.8856910467147827,0.08071079850196838,-0.38610419631004333,0.37390175461769104,0.4569690525531769,-0.5377788543701172,-1.6103017330169678,0.21643289923667908,-0.47165778279304504,1.8319934606552124,-0.9869192242622375,-0.8731514811515808,0.855567991733551,-0.8679853677749634,1.1464927196502686,-0.03370111063122749,1.1266146898269653,1.3791310787200928,-2.264075756072998,-0.43939200043678284,1.8545033931732178,-0.5974298119544983,-0.628602147102356,-1.3832852840423584,2.0033202171325684,-0.8325276374816895,-0.5824369192123413,1.3626455068588257,0.4627145826816559,0.6812761425971985,0.5569289922714233,-0.055065613240003586,0.19125106930732727,-0.016308844089508057,0.6843233704566956,-0.8404435515403748,0.47030311822891235,0.4077603816986084,-0.8135953545570374,-0.5347303748130798,0.6855393052101135,-1.1260226964950562,0.6031799912452698,-0.3777047097682953,-0.0006802263087593019,1.0026918649673462,0.7240695953369141,0.7517094612121582,-0.03239668533205986,0.5961026549339294,-2.2809345722198486,-0.10409581661224365,-0.8731749653816223,1.0154467821121216,1.3572227954864502,0.31970176100730896,1.301377773284912,2.229288101196289,0.07208838313817978,-0.011821853928267956,-0.16154268383979797,0.4608781039714813,0.6287754774093628,-1.9236418008804321,-0.9878208041191101
movielens20m.csv,0.8845058679580688,0.113873191177845,-1.8506758213043213,-1.961239218711853,1.4299812316894531,0.985202968120575,-0.20423756539821625,-0.4320957362651825,-0.3787149488925934,0.9503175020217896,-0.1434251368045807,0.5629157423973083,-0.7982800602912903,-1.0982156991958618,0.3597969710826874,-0.03241553157567978,0.4147634506225586,-1.0399020910263062,-0.8108857274055481,-0.9152161478996277,-1.5837410688400269,-1.6513320207595825,0.02051193080842495,0.8755452036857605,0.8804420232772827,-0.002395347924903035,-0.08186344057321548,-1.4009029865264893,1.1564997434616089,-1.4867370128631592,-0.8807935118675232,-0.30396851897239685,2.003274917602539,-0.9937163591384888,0.365801602602005,1.02739679813385,-0.016155818477272987,-0.5158066153526306,0.7735075354576111,0.6246712803840637,-0.15624520182609558,0.5355194211006165,-0.5588643550872803,0.6080375909805298,-0.40413421392440796,-0.8801043629646301,1.2504479885101318,-0.09552036225795746,-1.0956145524978638,-0.4134851098060608,-0.8765268325805664,-0.28939288854599,0.16641420125961304,0.08576350659132004,-0.30561286211013794,1.2322226762771606,0.7883331775665283,-1.7282921075820923,-0.39693960547447205,0.5726622939109802,0.3006000518798828,-1.4933687448501587,0.4883248209953308,1.3045356273651123,-1.7243192195892334,0.29993095993995667,1.8477052450180054,-0.9237958788871765,-0.7733190655708313,-0.3578772246837616,-0.28915396332740784,-0.013616269454360008,-0.776483416557312,0.40447360277175903,-0.12801212072372437,0.6349549293518066,0.9348944425582886,0.25665026903152466,-0.08288532495498657,-0.5287202596664429,0.08144239336252213,1.040049433708191,-0.07330154627561569,1.965455174446106,-1.195285677909851,0.2617643177509308,0.16313934326171875,0.2650156617164612,0.7209142446517944,2.0590879917144775,0.24171459674835205,-1.4304040670394897,1.1630867719650269,-0.6854090094566345,-0.07986588776111603,-1.3469669818878174,-0.30863434076309204,-0.7233622670173645,-0.11026221513748169,-1.2161788940429688,0.5270773768424988,-0.18927046656608582,0.8124200105667114,1.4971483945846558,-0.9250655174255371,-1.4792786836624146,-1.1481853723526,-1.328784704208374,0.7489168643951416,0.47967591881752014,0.5884613394737244,-1.7033051252365112,3.260469675064087,-0.4591241776943207,0.9586358666419983,1.310699224472046,-0.0394565723836422,-0.6228050589561462,-1.3907246589660645,-0.9730044007301331,0.2379932999610901,2.1410558223724365,0.8340449929237366,-0.2177216112613678,-0.10051752626895905,0.8579362630844116,-0.2141094207763672,1.4910637140274048,0.10287480801343918,-0.32772091031074524,-0.6228325366973877,-1.0797507762908936,-0.6757735013961792,-1.5351990461349487,1.0451703071594238,1.4251335859298706,-0.20893462002277374,-0.30173057317733765,-0.4964766502380371,-0.5829482674598694,-1.1181542873382568,0.8192404508590698,0.38534867763519287,0.669418215751648,1.9418169260025024,-0.39768797159194946,-0.07591039687395096,-1.2083629369735718,-0.19723638892173767,1.5570330619812012,-1.011562466621399,2.2155778408050537,1.7465165853500366,-1.092209815979004,0.34700095653533936,1.2798207998275757,-1.983817458152771,0.5718811750411987,-0.48522424697875977,-0.6207605004310608,-0.27318331599235535,0.8208999037742615,0.9292936325073242,-0.3384326696395874,-0.5993596315383911,-1.1709189414978027,-0.5224177241325378,0.5670692920684814,-1.179709553718567,-0.7520644664764404,1.2587822675704956,-0.06494668126106262,1.454997181892395,-0.683707058429718,-0.7834232449531555,-2.070431709289551,-0.3492761254310608,1.1824290752410889,-1.2375787496566772,0.25145021080970764,1.4516491889953613,0.9222998023033142,1.0321608781814575,-1.9699513912200928,0.16319157183170319,-1.0244851112365723,0.02116241119801998,-1.376105546951294,1.0683847665786743,1.0726264715194702,-1.4594995975494385,2.040722370147705,0.6796879768371582,0.2721632421016693,0.6688552498817444,-0.7064876556396484,0.38755959272384644,1.129729151725769,-1.380441427230835,-0.030002642422914505
movielens1m.csv,0.24146081507205963,0.713045060634613,0.16974756121635437,-1.3881189823150635,0.6411598324775696,-1.2391351461410522,-0.6930818557739258,-1.0639654397964478,-0.47084900736808777,2.0244979858398438,-0.09426262229681015,2.488621950149536,-1.36399507522583,0.7041871547698975,0.05247785523533821,-0.22555243968963623,-1.7168803215026855,1.0073798894882202,-0.9609783887863159,-0.7607764005661011,-1.2174917459487915,-0.6337535977363586,-1.7300435304641724,-0.5485315322875977,1.1123807430267334,0.7946094274520874,0.2873130440711975,-0.26134800910949707,0.38897907733917236,-1.1580418348312378,-1.075119972229004,-1.2623696327209473,0.766125500202179,-0.030021021142601967,1.2285875082015991,0.824054479598999,-0.6410103440284729,-0.3135559856891632,2.08270263671875,-0.5441539287567139,-0.3453112542629242,0.31804102659225464,-0.8952552080154419,1.738704800605774,-0.5706465244293213,-2.2527809143066406,0.21212780475616455,-0.5637696981430054,0.16619931161403656,0.6823242902755737,-0.8909311890602112,-0.019872138276696205,0.5519871711730957,-0.5432406067848206,1.4359195232391357,0.5749179124832153,0.9614564180374146,-1.3178050518035889,0.3478221297264099,0.051579635590314865,-1.1615251302719116,-0.3180904686450958,0.025255778804421425,1.8242803812026978,-0.027279065921902657,0.15454889833927155,0.8365048170089722,0.08502895385026932,0.4865667521953583,0.8181769847869873,-0.08368638157844543,0.4074828624725342,-0.4213675856590271,-0.08000598847866058,-0.6373755931854248,0.9033995866775513,1.0884240865707397,-0.19682036340236664,-0.9682195782661438,-0.3743845224380493,-0.04971642047166824,0.5544155836105347,0.2889235317707062,1.7644373178482056,-0.624447226524353,-0.4361051321029663,-1.0515974760055542,0.9671836495399475,0.1064491719007492,0.8325791954994202,0.26477837562561035,-2.33005952835083,-0.508497953414917,-1.156936526298523,-0.3093439042568207,-0.6445454955101013,-1.449607014656067,-1.9362688064575195,-1.738320231437683,-0.7792680859565735,0.7868068218231201,1.9413508176803589,1.3878895044326782,1.1268936395645142,-1.0665111541748047,0.5310883522033691,0.35820960998535156,-0.005677422508597374,0.056565236300230026,-1.2397754192352295,-0.06955152750015259,-1.9152554273605347,0.04329746961593628,-0.4569437801837921,2.3134279251098633,0.70186448097229,1.0780068635940552,-0.21057099103927612,-0.6670138239860535,-1.1214121580123901,1.0098932981491089,2.075141191482544,0.6421229243278503,-0.16503651440143585,0.5944343209266663,0.8099303245544434,-1.1068894863128662,0.31038668751716614,0.12386598438024521,1.2803367376327515,-0.5676193237304688,0.8072720766067505,-0.2368672788143158,-0.6083725094795227,-0.24073252081871033,0.5856895446777344,0.90915846824646,-0.7196927666664124,-1.1604881286621094,1.2670701742172241,-0.9711618423461914,-0.2705092430114746,-0.6478719711303711,0.1833593249320984,-0.05543425679206848,-0.07885847240686417,-2.0687003135681152,-0.5689257383346558,-1.9598380327224731,1.7419453859329224,-1.064013123512268,1.239321231842041,0.5580262541770935,-0.9155194163322449,-0.9278507232666016,1.7383885383605957,-0.41111353039741516,1.1742066144943237,-0.5603958368301392,-0.3479278087615967,-0.08817801624536514,0.7282915711402893,0.5370239019393921,-0.1466347575187683,0.568474292755127,-0.8092460632324219,-0.11979649215936661,0.39922624826431274,0.00922548770904541,-1.4932903051376343,0.13276004791259766,0.18343880772590637,0.43882322311401367,-0.9891362190246582,-0.7842965722084045,0.008187896572053432,-0.2940073013305664,0.5687181353569031,-0.31193849444389343,0.4658789336681366,0.5045186281204224,1.5632402896881104,1.085529088973999,-1.0598715543746948,0.20063963532447815,-1.9585436582565308,0.5230751633644104,-1.238548755645752,0.9968280792236328,1.0807501077651978,-0.8021363019943237,0.399181067943573,2.235682964324951,0.8808196783065796,0.03355874493718147,-2.760606050491333,-0.6200634837150574,1.6950808763504028,-2.097196102142334,-1.3351020812988281
amazon-movies.csv,0.22341859340667725,0.040261875838041306,-0.4709213376045227,-1.622121810913086,0.8461243510246277,1.2787245512008667,0.7972692847251892,-0.8783740401268005,-0.14953123033046722,1.5426632165908813,-1.3958200216293335,2.207782030105591,-0.2627825438976288,-0.7400253415107727,0.008337565697729588,1.486667513847351,-1.588641881942749,0.33206692337989807,0.0724397674202919,0.22178900241851807,-1.1226853132247925,-0.9993884563446045,-0.9649383425712585,0.3973068594932556,1.2721529006958008,-0.7513342499732971,0.847528338432312,-1.3045647144317627,0.5087956786155701,-0.5229811072349548,-0.8837243914604187,0.016090910881757736,1.5499502420425415,-0.019416406750679016,0.7237392663955688,1.5345919132232666,0.11793027818202972,0.22924594581127167,1.171773076057434,0.01918657496571541,-0.6456965208053589,-0.22768248617649078,-0.36217954754829407,-0.6169037818908691,-2.119778633117676,-0.11392903327941895,0.1743878275156021,-0.23847898840904236,-0.06578333675861359,0.9198055863380432,-0.5940344929695129,-0.767731249332428,-0.3783408999443054,-0.8966299891471863,0.7804245948791504,0.6561466455459595,0.21671873331069946,-2.8905112743377686,-0.5694298148155212,0.8484991788864136,-0.8099642992019653,-0.17365719377994537,0.6724188327789307,1.6710783243179321,-0.12743496894836426,0.40662330389022827,0.7674164772033691,2.1070733070373535,0.5468248128890991,1.06212317943573,-0.4428829252719879,0.42388156056404114,-0.661232590675354,-0.39803120493888855,0.1366153508424759,0.4081546366214752,-0.2706840932369232,0.2524430453777313,-2.096792459487915,-0.5108265280723572,0.788091242313385,0.6031649708747864,-0.2845506966114044,-0.6484801769256592,-1.847638726234436,0.23080556094646454,0.7989200353622437,0.04418918490409851,0.3593485653400421,2.015221118927002,-0.29469290375709534,-1.8278007507324219,0.7566872239112854,0.15393739938735962,-1.881669044494629,-0.35049882531166077,-0.7208209037780762,-0.9001723527908325,0.8819088935852051,0.26567724347114563,0.8163245320320129,0.9153766632080078,1.309983253479004,1.1167348623275757,-0.11809917539358139,0.04905308783054352,-1.227000117301941,-0.4272169768810272,-0.20286154747009277,0.45543473958969116,0.4751884937286377,0.06717116385698318,-0.7317938804626465,-1.4967905282974243,1.9250197410583496,1.614445447921753,-0.37879127264022827,-1.1265290975570679,1.4273828268051147,0.42504873871803284,0.6202179193496704,1.981950283050537,-1.4342252016067505,0.005696154665201902,0.17748671770095825,0.028449323028326035,-0.21938484907150269,2.1593239307403564,-0.17448854446411133,1.7530205249786377,-1.1205943822860718,1.1952465772628784,-0.7071618437767029,-0.7955769300460815,0.5664316415786743,0.1032731756567955,-0.6823166608810425,-0.1672189086675644,0.6423330903053284,0.6220827102661133,0.6679427623748779,-0.9988375306129456,-0.6269610524177551,0.3273884654045105,0.4076915383338928,-0.49532678723335266,-0.4363446533679962,0.3538612425327301,0.8177446722984314,0.831802248954773,0.20613330602645874,-0.6084527373313904,0.3673601746559143,-0.5324493050575256,0.935057520866394,0.48984798789024353,0.03549273684620857,0.9676662087440491,-0.5262062549591064,-0.23751170933246613,0.7870084047317505,0.6654120683670044,-0.11356370896100998,0.33835262060165405,0.32413172721862793,-1.3584283590316772,0.1852605789899826,0.4896506667137146,-0.3886140286922455,-0.8933636546134949,1.6095386743545532,0.31133514642715454,1.2914071083068848,-1.5398290157318115,-0.23198425769805908,-1.5614427328109741,-1.1299585103988647,0.8450976610183716,0.8472223281860352,-0.1801365464925766,1.7951534986495972,0.4880201816558838,1.986993670463562,-1.9064617156982422,0.9794843196868896,-2.444443464279175,-0.2808404564857483,-2.0437610149383545,-0.09070628881454468,1.013232946395874,-1.986730933189392,2.1777737140655518,1.9198802709579468,-0.5373976826667786,1.5220452547073364,0.40608301758766174,-1.5506832599639893,1.1996541023254395,-1.6392875909805298,0.31167349219322205
amazon-games.csv,0.22890032827854156,1.7780247926712036,-0.52238929271698,-1.0097156763076782,-0.012560355477035046,0.8368873000144958,0.2519383728504181,-0.29912427067756653,0.5925489664077759,0.4436863362789154,-1.0761418342590332,1.6631425619125366,-0.6582634449005127,-0.23589277267456055,1.2070876359939575,0.4885646104812622,-0.3068799674510956,0.0005479365936480463,0.8809910416603088,-0.6513123512268066,-1.2871452569961548,-0.7021635174751282,-0.16767871379852295,0.550653874874115,0.8731639981269836,-0.10818592458963394,1.4666953086853027,0.0735311210155487,1.602540373802185,-1.100821614265442,0.22860799729824066,0.18722912669181824,1.3671576976776123,-0.42930981516838074,1.7743457555770874,0.20590254664421082,-1.3011256456375122,-0.33942097425460815,1.323574185371399,0.5440549254417419,-1.3060824871063232,0.20085647702217102,-0.7010348439216614,0.17615801095962524,-1.5643030405044556,-2.168436050415039,1.0639190673828125,-0.04798388108611107,-0.9959456324577332,1.6892924308776855,-1.4016075134277344,1.4520912170410156,0.9759477376937866,-0.7178710103034973,0.6282169222831726,1.48358154296875,1.3996459245681763,-2.227701187133789,-0.690658688545227,0.4099024832248688,-1.1309173107147217,-0.10421311855316162,0.7028750777244568,1.8941245079040527,0.3749614357948303,-0.2307964563369751,1.191928505897522,-1.0224294662475586,-0.2932133078575134,0.686275839805603,0.7953115701675415,-0.22946637868881226,0.2560378909111023,-2.005803346633911,1.6471631526947021,0.7550237774848938,-0.06715069711208344,-1.178084373474121,-1.392708659172058,-0.2278532087802887,0.2458512932062149,0.7856311202049255,-1.0132732391357422,1.2199440002441406,-0.6973944902420044,0.19645485281944275,0.7779508233070374,-1.0029160976409912,1.057016372680664,0.7653027772903442,0.34335488080978394,-1.0050880908966064,1.3676365613937378,0.6138049364089966,0.47432681918144226,-1.004233479499817,0.6279934644699097,0.07540228962898254,-0.13136331737041473,-0.6381628513336182,-0.2977970838546753,0.7973560094833374,0.6585959196090698,1.7113300561904907,-1.2889513969421387,-0.7086859941482544,-1.8869096040725708,0.20052258670330048,0.3303101062774658,0.70388263463974,0.9609977602958679,-0.7037007212638855,-1.2668813467025757,-1.5180130004882812,2.3520638942718506,1.6958801746368408,0.15331612527370453,0.1955358237028122,-0.3833843469619751,-0.6186760067939758,0.37028780579566956,0.8515839576721191,-0.23732955753803253,-2.5577471256256104,0.13819828629493713,1.2650843858718872,-0.09908661246299744,0.39301660656929016,0.0149227948859334,1.0127203464508057,-1.3539652824401855,0.10513854026794434,-1.0787465572357178,-0.9490711092948914,-0.8714266419410706,1.1927258968353271,-1.3111059665679932,-0.784765362739563,0.13410022854804993,-0.7596831321716309,-0.8789002299308777,-1.734501838684082,0.133180633187294,-0.1788574606180191,-0.6371128559112549,-0.11507326364517212,-0.9488514065742493,-1.2262260913848877,-0.01809822954237461,0.25740912556648254,-0.3930191099643707,0.4410351514816284,0.6323733925819397,0.5228658318519592,0.7627955079078674,1.968414068222046,-0.628852367401123,0.18612147867679596,-0.6158615946769714,1.6419440507888794,-1.2494701147079468,0.3969842791557312,0.49908655881881714,0.9139131307601929,0.06675507873296738,-1.134493350982666,0.7272886037826538,2.045044422149658,-0.16412785649299622,1.3359581232070923,0.4543132185935974,-1.0386102199554443,0.5666495561599731,-1.575528621673584,0.26198211312294006,-0.6882757544517517,-0.10198937356472015,1.5274326801300049,-0.15653789043426514,0.7958159446716309,1.778322458267212,0.3903838098049164,0.17818713188171387,-0.6163902878761292,0.39494219422340393,-0.9191209077835083,-1.329996943473816,-0.3128262460231781,0.00627998448908329,0.661234974861145,-1.492442011833191,1.8214762210845947,1.5232656002044678,-0.44244036078453064,0.7790290713310242,-1.2847704887390137,-0.05233252793550491,0.9525368213653564,-2.98757004737854,-0.7071557641029358
amazon-automotive.csv,-0.156809464097023,-1.4660027027130127,-1.1284825801849365,-0.4877471625804901,0.009900450706481934,-0.9064721465110779,0.04561173915863037,-1.8076990842819214,0.6606627106666565,1.292855978012085,0.04431220144033432,0.6006290912628174,0.0816698670387268,0.13935662806034088,0.3089856207370758,0.739185094833374,-0.7293458580970764,0.9248138070106506,0.8309546709060669,-0.12878721952438354,0.4964275062084198,-0.8651381731033325,-0.34295040369033813,1.1648908853530884,0.1697060465812683,0.26329901814460754,0.9066706895828247,0.10582585632801056,1.4034433364868164,-0.6059587597846985,-0.8938146829605103,0.5286403298377991,-0.25660982728004456,-2.517765760421753,-0.028058867901563644,2.2181737422943115,0.1687929928302765,-0.6192377209663391,1.382954478263855,1.0415929555892944,-1.1408342123031616,0.8111600279808044,-0.9144297242164612,0.7696401476860046,-1.7423107624053955,-0.7434353828430176,-0.7477856874465942,0.49920955300331116,-0.8655771613121033,1.2739027738571167,-2.1805312633514404,0.42221546173095703,1.9521152973175049,0.016818270087242126,-1.0489742755889893,1.6422938108444214,0.18733565509319305,-2.425917387008667,-0.9413690567016602,0.28367936611175537,0.05091032385826111,-1.0972808599472046,-0.3966725766658783,2.2237558364868164,0.22065412998199463,0.6256933808326721,1.3371484279632568,0.3714958727359772,0.11241927742958069,0.11026064306497574,-0.9776855707168579,-0.5322291254997253,-0.9996634125709534,-0.4786839783191681,0.6764063239097595,1.6013085842132568,-0.027402285486459732,-0.10734432935714722,-1.0113239288330078,0.9869460463523865,-0.037237733602523804,-0.36231929063796997,-0.22418726980686188,1.045438289642334,-1.083616852760315,0.4468734562397003,-0.9065622687339783,-0.013812145218253136,0.7643300294876099,0.3689906597137451,-0.6996720433235168,-1.0417624711990356,1.234101414680481,0.4211750030517578,-0.025828950107097626,0.6775444746017456,-0.8811341524124146,-0.90510094165802,0.022028956562280655,0.4353877902030945,1.1075632572174072,0.3088892698287964,0.5349359512329102,2.114475727081299,-0.05792195722460747,1.1304508447647095,-1.3488285541534424,-0.3186640441417694,-0.5139186382293701,0.17633481323719025,1.3341665267944336,-2.009803295135498,-0.3107740879058838,-0.757345974445343,1.5017657279968262,0.963129997253418,-0.7053812742233276,0.40348705649375916,0.7681596875190735,-0.205631285905838,1.08987557888031,1.435211181640625,-0.9268211126327515,-1.9043294191360474,0.5279163122177124,-0.5532674193382263,-1.7279903888702393,1.7917214632034302,0.5387468934059143,1.5041418075561523,-1.3378289937973022,0.330401211977005,-0.9575840830802917,-0.6736647486686707,0.5102506875991821,1.733670711517334,-0.4735119938850403,-1.0825825929641724,0.43043893575668335,-0.2445349395275116,-1.3136334419250488,-0.7598130702972412,-0.8615003228187561,0.00022652753978036344,0.7959849238395691,-1.524889349937439,-1.7105075120925903,-0.7291038036346436,0.314912348985672,0.5821268558502197,-2.452444314956665,-1.1185753345489502,0.09849489480257034,-0.7053410410881042,0.5706548690795898,1.630526065826416,-0.7755158543586731,0.13903042674064636,-0.6948782205581665,-0.261741578578949,0.9211028218269348,0.8506800532341003,0.2100638747215271,1.2921385765075684,-1.2398096323013306,-0.20945774018764496,-0.6423498392105103,0.6135744452476501,-0.6322730183601379,-1.6265417337417603,1.1343854665756226,0.9900457262992859,-0.20440320670604706,-2.221605062484741,0.42809104919433594,-0.3422432243824005,1.1146023273468018,1.6785346269607544,-1.2935457229614258,1.3190727233886719,0.9708495140075684,-0.05007443577051163,0.9792801141738892,-1.1354032754898071,0.5648889541625977,-1.0428839921951294,0.08934915065765381,0.12802550196647644,0.030366357415914536,0.15354585647583008,-1.21225905418396,2.159217357635498,1.0759565830230713,0.36196500062942505,0.6791570782661438,0.11402984708547592,-0.4242103397846222,0.6926370859146118,-2.089003801345825,-1.020705223083496
amazon-toys.csv,-0.16997553408145905,-0.9983137249946594,-0.6278207898139954,-1.255220651626587,0.35897257924079895,-0.031751640141010284,-0.05894477665424347,-0.747400164604187,0.5072371959686279,1.4847630262374878,-0.04189525172114372,2.2861523628234863,-0.7330232262611389,0.14127445220947266,0.534059464931488,1.2092745304107666,-1.5499838590621948,0.13260123133659363,0.8134974837303162,-0.5918380618095398,0.05572270229458809,-0.10299105942249298,0.778693437576294,0.3647967278957367,-0.4588174521923065,-0.9296442866325378,0.23214393854141235,-0.3104451298713684,0.9416459798812866,-1.0573409795761108,-1.068566918373108,0.2549174129962921,0.7079902291297913,-1.9936968088150024,0.39348599314689636,1.304482102394104,0.9412998557090759,-0.4821262061595917,0.5953860878944397,0.787936806678772,-1.3889119625091553,0.6022492051124573,-1.1646019220352173,1.828861951828003,-1.8595107793807983,-1.3084657192230225,0.08513457328081131,0.8832653760910034,-0.8345190286636353,0.937242865562439,-2.00767183303833,-0.062020450830459595,1.6164910793304443,-0.2819742262363434,-0.29446110129356384,0.73931485414505,0.08933623135089874,-1.5555754899978638,-0.4200807213783264,0.4149913787841797,-0.14480821788311005,-1.3863584995269775,-0.2681077718734741,2.1519863605499268,0.4928242266178131,0.07489993423223495,0.6517609357833862,-0.2854870557785034,-0.1279049515724182,-0.3412969708442688,-0.9517706632614136,-0.14993804693222046,-0.3862442076206207,-0.6769472360610962,0.6187865138053894,0.8817553520202637,0.2910650968551636,0.2632612884044647,-1.8972400426864624,0.5885523557662964,-0.17479300498962402,0.964092493057251,-0.3778511881828308,0.5086469054222107,-2.025702953338623,-0.4220306873321533,-0.7641335129737854,-0.6478461623191833,0.01530400663614273,1.1920287609100342,-0.09242750704288483,-0.4503128230571747,1.15194833278656,0.14340031147003174,0.7521556615829468,-0.5941608548164368,-0.6511706113815308,-0.7890099883079529,-0.23969048261642456,0.6620848178863525,1.0620564222335815,-1.1258938312530518,2.106874465942383,1.9775677919387817,-0.09346869587898254,1.8127390146255493,-1.1555780172348022,-0.6058832406997681,-0.20390738546848297,0.3962222933769226,0.8138070702552795,-1.8046092987060547,-0.7752405405044556,-0.4884708821773529,1.8576940298080444,0.9666962623596191,-0.10883074253797531,-0.6215829849243164,-0.3193225562572479,-0.7678250074386597,0.3469679355621338,1.283177137374878,0.2715682089328766,-1.5479121208190918,0.9929197430610657,0.6321560740470886,-1.0320276021957397,0.8055857419967651,0.6357420682907104,2.2792744636535645,-0.9673455953598022,0.40437620878219604,-0.4056904911994934,-0.7099772095680237,-0.6908469200134277,0.5186591744422913,-0.9347680807113647,-0.6462936401367188,0.25428450107574463,-0.19703176617622375,-1.0352493524551392,-1.2565797567367554,-0.8728864192962646,-0.6713867783546448,0.4641079902648926,-0.25527656078338623,-1.4017002582550049,-0.30837351083755493,-1.4687060117721558,1.5051029920578003,-1.7534555196762085,0.03370991349220276,0.3305172622203827,-0.5125031471252441,2.0385801792144775,1.0113886594772339,-1.852054238319397,1.1767832040786743,-1.1658686399459839,0.5788925886154175,-0.6060189008712769,0.4783925712108612,0.05805227905511856,0.4632134735584259,-0.010447761975228786,-0.3040893077850342,0.28997066617012024,1.612718939781189,-0.2974063754081726,0.19077229499816895,1.2014777660369873,0.07179702073335648,1.00410795211792,-1.1850570440292358,-0.1915607899427414,-0.8215101957321167,0.2097666710615158,0.9712355136871338,-1.1694895029067993,0.48364853858947754,1.078944206237793,1.1501884460449219,0.687220573425293,-0.9101136326789856,0.9959003925323486,-1.7485746145248413,-0.3588778078556061,-0.727251410484314,-0.49291348457336426,0.8137854337692261,-1.5686208009719849,2.174809455871582,1.4978854656219482,-0.46299096941947937,0.25517070293426514,-1.0572439432144165,-1.0580674409866333,1.642800211906433,-3.438730001449585,-1.6298375129699707
amazon-tools.csv,1.1326638460159302,-1.4219422340393066,0.3551137447357178,-1.8408498764038086,0.3098856508731842,-1.220141053199768,-0.17076252400875092,-0.25233176350593567,-0.07717514038085938,2.593324661254883,-0.8191772103309631,1.0032352209091187,-0.27388864755630493,1.4799628257751465,0.951747477054596,0.5473734736442566,-1.436288833618164,0.1826384961605072,-1.4359095096588135,0.45548582077026367,0.522148609161377,-0.4111555814743042,-0.27029839158058167,0.5203567743301392,-1.1389193534851074,-0.24090437591075897,0.09725167602300644,0.11925838887691498,0.338547945022583,-0.5764603614807129,-1.2901936769485474,-0.35246118903160095,-1.1017861366271973,0.4519137442111969,0.49509355425834656,1.3446128368377686,-0.1825721114873886,0.41752126812934875,0.42115092277526855,0.6660580635070801,0.5699502825737,0.21493443846702576,-0.2570641040802002,-0.6572916507720947,0.19502143561840057,0.04855046048760414,0.3626999258995056,0.42488569021224976,-0.8720413446426392,1.3316712379455566,-1.6211875677108765,1.1278022527694702,0.20458269119262695,-1.267895221710205,0.387495219707489,0.42091137170791626,0.14298789203166962,-1.6053274869918823,-0.11414728313684464,0.11448831111192703,-0.7696856260299683,-0.3004533052444458,-0.5351666808128357,1.8119674921035767,0.3549883961677551,1.6746432781219482,1.176822543144226,0.13985908031463623,-0.9281102418899536,1.0722968578338623,-0.09052085876464844,0.3930324912071228,-0.5597677826881409,-1.6656162738800049,-0.06587590277194977,1.1065864562988281,1.0220140218734741,-0.4983297288417816,-1.6183170080184937,1.5961683988571167,-2.2543931007385254,0.30470511317253113,0.6280378699302673,0.6677983403205872,-1.0162638425827026,-0.6675249338150024,0.4611145257949829,0.1878216713666916,-0.02791752852499485,1.2294049263000488,-0.25248098373413086,-2.5378024578094482,0.2762146592140198,0.7298024296760559,-0.15756835043430328,0.17484042048454285,-0.6056186556816101,-1.0931239128112793,0.016140468418598175,-0.2575397491455078,0.6235290765762329,-0.062369104474782944,0.055660270154476166,0.9217252731323242,-0.2095964401960373,0.4164290726184845,-1.6753147840499878,-0.261301726102829,0.5402036309242249,0.5758466124534607,0.6637428998947144,-0.9701595306396484,0.7635538578033447,-0.7031593322753906,2.353332042694092,1.539729356765747,0.253724604845047,0.1993892937898636,0.887340784072876,-0.7079814672470093,0.8113468885421753,1.461424469947815,-1.1916334629058838,-2.0842273235321045,-0.43990129232406616,0.3360917866230011,-0.6951841711997986,1.5560177564620972,0.5817897319793701,1.1028151512145996,-1.6978141069412231,0.24950674176216125,-0.8331187963485718,-0.5232898592948914,-0.12302691489458084,0.6895642280578613,0.78908771276474,0.38243284821510315,1.2911689281463623,-0.11054975539445877,-0.9289952516555786,-0.6073368787765503,-0.3143191337585449,0.13934779167175293,-0.547577440738678,-0.5161997675895691,-1.4071630239486694,-0.087910957634449,0.7839123010635376,0.6237167119979858,-3.0649712085723877,-0.618037223815918,0.8062507510185242,-1.2531206607818604,1.6994661092758179,2.707881450653076,-0.8904062509536743,0.5048375725746155,-0.9681580662727356,0.0038528849836438894,-0.37014666199684143,0.801881730556488,1.4205715656280518,2.0703234672546387,-0.3113059997558594,-0.16573189198970795,1.2064508199691772,0.31088128685951233,-0.1787240356206894,0.45566314458847046,1.6180155277252197,0.8678640723228455,0.6131846904754639,-0.8676482439041138,-0.6021282076835632,-1.437282919883728,0.027005521580576897,1.7924174070358276,-1.4051374197006226,-0.02558763697743416,1.444766640663147,0.29274260997772217,2.2730236053466797,-1.6768872737884521,0.4509640634059906,-1.2744934558868408,-0.07115491479635239,-1.3067878484725952,0.3665819764137268,0.11599449068307877,-0.5466005206108093,1.8112156391143799,1.2343168258666992,1.370579719543457,1.1913862228393555,-0.2691516578197479,-1.330065131187439,0.7649419903755188,-1.7056300640106201,-0.11216140538454056
bookcrossing.csv,0.8886863589286804,0.1249033734202385,-1.1975128650665283,-1.280039668083191,1.6056257486343384,-0.6865442991256714,-0.37419968843460083,-0.5027751922607422,0.2977559268474579,1.5699939727783203,-0.7221329808235168,1.1126478910446167,0.16904835402965546,-0.40880897641181946,0.60793536901474,1.5761642456054688,-1.929671049118042,1.2074424028396606,-0.46242210268974304,-0.2139836996793747,-0.4987645745277405,0.1026366725564003,0.32911011576652527,0.6543622612953186,-0.1661062091588974,-0.5778316259384155,1.2083221673965454,-0.8658718466758728,1.3005083799362183,0.42805349826812744,-1.2879092693328857,-0.24572227895259857,1.0346533060073853,-0.5567536950111389,0.12279979884624481,2.0196876525878906,-0.06878618896007538,-0.3281928598880768,0.30670881271362305,1.5314215421676636,-0.05527142807841301,-0.8442099690437317,-0.01808464527130127,1.6615931987762451,-1.670758605003357,-1.8680447340011597,0.45692503452301025,-0.8691977858543396,-0.16677331924438477,1.2670954465866089,-0.5928634405136108,-1.0391149520874023,0.7480365037918091,-0.815211296081543,-0.5914005041122437,1.2071802616119385,0.7985092997550964,-1.5658141374588013,-1.26143217086792,0.3430034816265106,0.1368722766637802,-0.7261484861373901,2.192138433456421,2.898447036743164,0.07897725701332092,0.1852913349866867,0.38477709889411926,-1.1743844747543335,-0.23766010999679565,0.18142761290073395,-0.8177634477615356,-1.268394947052002,0.6609807014465332,-0.1588204801082611,-0.5257902145385742,-1.0065160989761353,0.702179491519928,-0.1855534017086029,-1.767199993133545,0.18404927849769592,0.4836687743663788,1.2811943292617798,0.2197069227695465,0.13458335399627686,-0.48459964990615845,0.6719171404838562,-0.6208707094192505,-0.881282389163971,0.3907085061073303,0.6031485199928284,-1.0667773485183716,-1.498970866203308,1.0017304420471191,0.05209490284323692,0.3450782299041748,-1.541117548942566,-1.276112675666809,-0.67802494764328,-0.8331396579742432,1.1205233335494995,0.5622443556785583,-0.2840758264064789,0.23539051413536072,1.150493860244751,-0.7575926184654236,0.8275890946388245,-0.5053529143333435,-0.7016119360923767,-0.9797866344451904,0.890032947063446,0.606515109539032,-0.6100298166275024,-0.41313663125038147,-1.156050443649292,1.994205355644226,0.9453281760215759,0.5848521590232849,-1.5711089372634888,-0.1994819939136505,-1.259278655052185,0.764124870300293,1.9323797225952148,-0.4742584526538849,-2.2074992656707764,1.0571167469024658,-0.25017884373664856,-0.16265243291854858,1.251500129699707,-0.8200069069862366,1.3662070035934448,-1.4773354530334473,-0.5598472952842712,-1.132073998451233,-0.7476016283035278,-0.8568949699401855,0.3559171259403229,-1.6683191061019897,0.8585860133171082,0.5709069967269897,-0.17260660231113434,-0.06181471422314644,-1.304416537284851,0.4843941330909729,-0.013314332813024521,0.9924540519714355,-1.35428786277771,-1.3079240322113037,0.6266326308250427,-0.908807098865509,0.9455113410949707,-1.0664925575256348,0.23552270233631134,0.6702535152435303,-0.26848360896110535,0.9460111856460571,0.5568695664405823,-0.1531042903661728,-0.23130753636360168,-0.18388372659683228,-0.6686431169509888,-0.044438526034355164,1.9321545362472534,-0.9484106302261353,-0.6212539076805115,-0.0472002774477005,-0.8714838624000549,0.83831387758255,1.6262589693069458,0.5203755497932434,-0.25055232644081116,0.19123034179210663,0.2947525084018707,0.8511438965797424,-1.4656203985214233,-1.5052921772003174,-1.133972406387329,-1.9646695852279663,1.0224452018737793,-0.8185470700263977,-0.3761242926120758,-0.6023820042610168,0.873799204826355,1.3140630722045898,-0.1484977900981903,0.1610688716173172,-1.6751999855041504,-0.34557652473449707,-1.374792218208313,-0.9917640089988708,-0.792061448097229,-0.8009232878684998,2.531421661376953,2.036987066268921,-0.7595338821411133,-0.48853787779808044,-1.0814327001571655,-1.3832679986953735,0.007131972815841436,-1.9436877965927124,-1.4281269311904907
movielens_latest.csv,0.7793776392936707,0.16078394651412964,-0.12875588238239288,-1.991349697113037,0.8813452124595642,0.8896625638008118,-0.2452591061592102,-0.9790391325950623,-1.1319490671157837,1.171179175376892,-0.05551345273852348,2.1460506916046143,-0.13237059116363525,1.4273658990859985,0.1795576810836792,1.2015247344970703,-0.6567838191986084,-0.557374119758606,-0.5312451720237732,-0.6543140411376953,-0.4071888327598572,0.6369211673736572,0.9964233040809631,-0.8826457858085632,-0.5367254614830017,-0.8588141202926636,0.9195256233215332,0.11119267344474792,1.1447206735610962,-1.1158196926116943,-2.2683966159820557,-0.45831409096717834,1.7373332977294922,-0.737852931022644,0.9042097926139832,-0.53101646900177,-0.545408308506012,-1.5572972297668457,0.18837685883045197,0.8402544856071472,-0.15471071004867554,0.11603519320487976,-2.0465645790100098,0.3219781219959259,-0.9199738502502441,-0.8171392679214478,0.40082645416259766,0.7688168883323669,-2.6515135765075684,2.235313892364502,1.3126872777938843,-1.1227914094924927,0.21161890029907227,0.42389073967933655,-1.1515699625015259,0.21721310913562775,1.1225459575653076,-1.782336950302124,-0.7739914655685425,-0.29721853137016296,0.6757896542549133,-0.303801029920578,0.1237168163061142,2.1276254653930664,0.32074129581451416,-0.6495699286460876,1.9099533557891846,0.5607999563217163,-0.03588458523154259,0.6704210042953491,-0.7427486777305603,0.6271323561668396,-0.14628715813159943,-0.9115378856658936,0.29043933749198914,-0.5699787139892578,0.9289599061012268,-0.015549522824585438,-0.029763521626591682,0.9644203782081604,-1.1131467819213867,0.42516475915908813,-0.11370223015546799,0.9024364352226257,0.7391664981842041,-0.7652735114097595,1.030699610710144,1.1012532711029053,1.0561972856521606,1.662042260169983,-1.1454623937606812,-2.664930820465088,-0.6233025789260864,0.3757646381855011,0.16423754394054413,-0.9278580546379089,-1.4553686380386353,-0.22393421828746796,-1.2858555316925049,0.22130800783634186,0.9166162610054016,0.9173961877822876,0.7352393269538879,2.124537467956543,0.7185118794441223,0.11008679866790771,-0.9209685921669006,1.728407621383667,-0.5010467171669006,0.8829656839370728,0.8233717083930969,-0.7882905006408691,-0.11522947996854782,-0.922070324420929,1.532249093055725,1.9482653141021729,0.5620207190513611,-0.1962931901216507,0.16346360743045807,-0.7652840614318848,-0.33843743801116943,0.10466621071100235,-0.4898517429828644,-0.47469353675842285,1.0364400148391724,-0.7825051546096802,-0.25709640979766846,0.49732255935668945,-0.4625886380672455,-0.9508333206176758,-0.07612873613834381,0.953802764415741,-0.8134585618972778,-1.0721102952957153,-0.8186070322990417,1.2966179847717285,0.4096466898918152,-1.3452816009521484,1.3958779573440552,0.14206759631633759,0.8374623656272888,-0.975141167640686,0.38919639587402344,0.7238296866416931,0.9388600587844849,-1.2015773057937622,-1.926611304283142,-0.004944206215441227,-1.3301151990890503,-0.053052134811878204,-0.3820327818393707,1.1080037355422974,0.7414816617965698,-0.5592495799064636,1.2364920377731323,0.611682653427124,-1.238242506980896,-0.1658463180065155,-0.45229843258857727,-0.008679099380970001,0.3535030484199524,1.2531242370605469,1.0798619985580444,0.14139540493488312,0.6834420561790466,-0.9616195559501648,0.2161446064710617,1.6160616874694824,-1.147009015083313,0.1435253769159317,0.4993766248226166,1.0943442583084106,0.04130435362458229,-0.44192057847976685,-0.576771080493927,0.787196695804596,0.4960341155529022,1.6549322605133057,0.1540246456861496,1.0348985195159912,1.7223979234695435,0.46943819522857666,1.141761302947998,-1.4027049541473389,0.37540024518966675,-0.3238074779510498,-0.8698135018348694,-0.7771448493003845,0.642837405204773,-0.02951149083673954,-1.105197548866272,2.3353259563446045,0.6233313679695129,1.740919828414917,-0.10039994865655899,-0.8488130569458008,-1.5815298557281494,0.5044352412223816,-2.479588270187378,-1.1688536405563354
amazon-office.csv,0.47060975432395935,-0.18917995691299438,-0.09752441197633743,-1.025247573852539,1.7566213607788086,0.8618642091751099,0.6395173668861389,-2.5512380599975586,-0.050318505614995956,1.4388184547424316,-0.5320212841033936,1.349854826927185,-0.1985507607460022,0.4722701609134674,-1.0269684791564941,2.4600939750671387,-1.2363977432250977,0.03732869401574135,0.4320639967918396,-0.20674830675125122,-0.9057347178459167,-0.10925330221652985,-0.6248574256896973,-0.03378843516111374,0.0590064600110054,-0.9251728057861328,0.7259849309921265,-0.033463235944509506,0.6601447463035583,-1.084110975265503,0.14143912494182587,0.5851815938949585,0.3158491849899292,-0.30705422163009644,0.19032540917396545,0.7620547413825989,-0.6856927275657654,-0.6062591075897217,0.10324744880199432,0.9771680235862732,-2.348937749862671,-0.3694384694099426,-1.7416905164718628,0.6374584436416626,-2.153225898742676,0.3249245285987854,1.1473497152328491,0.536063015460968,0.32396042346954346,1.6063668727874756,0.3318142890930176,-0.10220590233802795,1.6818821430206299,-1.6854684352874756,-0.4248236417770386,1.1530647277832031,-0.3087214231491089,-1.684371829032898,-0.20206494629383087,1.5836204290390015,1.1472218036651611,-0.9092518091201782,-0.2849375605583191,2.5838420391082764,0.12730242311954498,0.22410085797309875,1.0098627805709839,0.5256749987602234,1.0593591928482056,0.1514337658882141,0.049528419971466064,-0.08330325037240982,-0.09079688042402267,0.2793560028076172,0.6256542801856995,1.0172240734100342,1.165252447128296,0.2115902453660965,-2.016062021255493,0.3437559902667999,-1.1115076541900635,-0.4421650171279907,0.4816547632217407,0.1264421045780182,-0.47551000118255615,0.2020110785961151,-0.4484277665615082,0.31492871046066284,0.9198863506317139,1.341458797454834,-0.0532640740275383,-2.2499468326568604,-0.027398809790611267,-0.27512699365615845,-0.37089166045188904,-0.5797570943832397,0.2058255821466446,-1.6110527515411377,-0.6704559326171875,-0.37440386414527893,1.3594833612442017,-1.1063517332077026,0.04406005144119263,0.7373622059822083,1.1044647693634033,-0.40717387199401855,-1.4025235176086426,-0.005029306281358004,-1.1446226835250854,0.855003833770752,0.7457727193832397,-0.19133685529232025,0.5400370955467224,-1.2591279745101929,1.8788292407989502,2.9699196815490723,-0.18918606638908386,-1.4656902551651,0.2727912962436676,0.5051153898239136,0.973418653011322,1.6040291786193848,-0.9390388131141663,0.691149115562439,0.4633747637271881,0.7820854783058167,-1.504848837852478,0.9184715747833252,-1.5507899522781372,0.45507192611694336,-1.8624732494354248,0.3117313086986542,-0.700234591960907,-0.350516140460968,1.0920974016189575,-0.16607259213924408,-0.7519780993461609,-0.15371571481227875,0.08644010126590729,-0.47791382670402527,-0.03583996370434761,-0.2561466693878174,0.5426139831542969,0.22358578443527222,0.989716112613678,-0.6614553332328796,-0.6278716921806335,0.7566348910331726,-0.9055313467979431,1.4228036403656006,-1.6550995111465454,0.7796405553817749,0.5654637813568115,-0.9062622785568237,0.719209611415863,0.004639567341655493,0.07177259027957916,0.9404182434082031,-0.4872739017009735,0.12009537220001221,0.48675960302352905,1.4532126188278198,0.37658047676086426,0.9994794726371765,-0.6041633486747742,-0.43478864431381226,0.7704396843910217,0.9953864216804504,-0.8288626074790955,-0.38330742716789246,1.0041345357894897,-0.7419613003730774,-0.20249174535274506,-1.566890835762024,-1.7260578870773315,-1.2172200679779053,0.6352318525314331,0.8270066380500793,0.7626442313194275,0.7437410950660706,1.875727653503418,0.7297993898391724,0.6509170532226562,-0.48307937383651733,1.8169262409210205,-2.0871169567108154,-1.1064462661743164,-1.043677806854248,0.6425056457519531,0.1446233093738556,-0.4894333779811859,2.616445779800415,0.8645122647285461,-0.7882943153381348,0.0325394943356514,-1.706053376197815,-0.6462720036506653,0.6053853631019592,-1.9447646141052246,-0.4965617060661316
amazon-clothes.csv,0.7102754712104797,0.36280542612075806,-0.5654507875442505,-1.0536067485809326,0.0020175620447844267,0.00012895178224425763,-0.18868815898895264,-1.193339228630066,0.9878435134887695,1.5060245990753174,-1.0967628955841064,1.8507548570632935,0.4483815133571625,-0.4405249357223511,0.26223886013031006,0.1391872763633728,-1.2829811573028564,0.22169026732444763,0.5709541440010071,0.8546705842018127,-1.0131546258926392,-1.3680483102798462,-0.6192198991775513,0.10868389904499054,0.2679867744445801,0.32774803042411804,1.1641366481781006,-0.6585864424705505,1.8051470518112183,-1.6635026931762695,-1.0194365978240967,0.4318820536136627,0.09422966837882996,-0.9468730092048645,0.6363022327423096,1.9323704242706299,-0.2720924913883209,-1.0300707817077637,1.6337237358093262,0.7054668068885803,-0.3995746672153473,-0.13089428842067719,-0.6003897190093994,0.7190995216369629,-1.7820312976837158,-1.9979069232940674,0.5149486064910889,-1.1846665143966675,-1.1052204370498657,0.3375786542892456,-1.0581417083740234,-0.31590425968170166,0.7148598432540894,-0.17111839354038239,-1.4766159057617188,1.4478657245635986,0.35004740953445435,-1.0465083122253418,-1.0429422855377197,1.2770898342132568,0.19010664522647858,-0.3672085702419281,-0.976967990398407,2.7646143436431885,-0.2541264593601227,0.2370343655347824,1.2867034673690796,0.10626587271690369,0.18293127417564392,0.07771624624729156,-0.28901901841163635,-0.29546624422073364,-1.0004194974899292,0.04074573889374733,0.5283678770065308,0.5416684150695801,0.5180667042732239,-0.31201237440109253,-1.5262552499771118,0.15495428442955017,-0.8149478435516357,0.251130074262619,-1.5235155820846558,0.6824458837509155,-1.1625208854675293,0.397202730178833,0.623663067817688,-0.012045130133628845,0.38649681210517883,0.8758863806724548,-0.258993536233902,-0.5180167555809021,1.8813554048538208,-0.06935896724462509,0.7750745415687561,0.12019269168376923,-0.9239832758903503,-0.24189499020576477,-0.6404027342796326,-0.022878572344779968,1.1622662544250488,0.7706882953643799,1.533416986465454,1.856621503829956,-0.2368108481168747,0.35545775294303894,-1.0795780420303345,-0.3974607586860657,-1.1023937463760376,1.4349570274353027,0.48097658157348633,-1.1072410345077515,-0.5841504335403442,-1.4729056358337402,1.7810202836990356,1.1113108396530151,-0.724226713180542,-0.10923867672681808,1.3559825420379639,0.0050989361479878426,-0.1120915338397026,1.608986258506775,-0.6543914079666138,-2.0450985431671143,0.9256774187088013,-0.145257830619812,-1.7806422710418701,1.7835620641708374,0.9584149718284607,0.5614112019538879,-1.6431450843811035,-0.2533731162548065,-1.1152738332748413,-1.5615202188491821,-0.17082218825817108,1.1496930122375488,-0.761925995349884,-0.8302048444747925,-0.29913923144340515,0.2885792553424835,-0.7220973372459412,-0.9395260810852051,-0.7478403449058533,-1.1792923212051392,1.547836184501648,-1.0160014629364014,-0.22717393934726715,-0.3032383322715759,-0.0331086702644825,0.8606196045875549,-1.5768202543258667,-0.7298144102096558,0.27999305725097656,-0.7584463357925415,1.2648247480392456,1.326972246170044,-0.06395242363214493,0.10209061950445175,-0.21831904351711273,0.4313773810863495,1.3965768814086914,0.8168244361877441,0.0901004895567894,0.26928311586380005,-0.4172056019306183,-0.14392223954200745,-0.5350562930107117,1.4682717323303223,-0.702207624912262,-0.5710682272911072,0.24145883321762085,1.9918617010116577,0.1372445672750473,-1.2621978521347046,0.8501347303390503,-1.7710660696029663,0.4977937936782837,1.3840886354446411,0.04191811755299568,0.6638015508651733,0.7830258011817932,0.4649762511253357,1.0651503801345825,-1.713107943534851,0.47497865557670593,-0.919761061668396,-0.831934928894043,-1.0980890989303589,-0.5491591691970825,1.1397534608840942,-1.6636334657669067,1.867969036102295,2.2353947162628174,-0.8124212026596069,0.7124658226966858,-1.1279983520507812,-0.6526092290878296,1.6437116861343384,-2.3685083389282227,-1.343949794769287
movietweetings_recsys2014.csv,0.9244875907897949,0.27478012442588806,-0.622582733631134,-0.7423062920570374,1.3142080307006836,-0.3734700381755829,-1.3522746562957764,-0.8251996040344238,0.6257185935974121,0.340692400932312,-0.7347559332847595,0.7590705752372742,0.10620403289794922,-0.8037658333778381,-0.1392625868320465,-0.2921801209449768,0.023364391177892685,0.006771824322640896,-0.5255575776100159,-0.3240452706813812,-1.6142655611038208,-1.0787965059280396,-1.0116585493087769,0.8798682689666748,0.6472357511520386,-0.5142572522163391,1.2884364128112793,-0.7353677749633789,1.5459519624710083,-0.30410173535346985,0.16469910740852356,0.5277974605560303,1.0429316759109497,-0.29631009697914124,0.7708247303962708,1.5725479125976562,-1.2512991428375244,-0.23020073771476746,1.2829928398132324,1.6321414709091187,-0.340580552816391,0.7712358236312866,0.8984252214431763,0.9889495372772217,-2.0098764896392822,-1.2856245040893555,0.24654501676559448,0.6884415745735168,0.2363053262233734,1.2177993059158325,-0.8786879181861877,-0.8360729217529297,1.4846867322921753,-0.8717393279075623,0.2572551369667053,1.8523975610733032,0.042310990393161774,-2.181955575942993,-0.2730882167816162,0.3526190221309662,-0.021657193079590797,-1.0357826948165894,0.23604778945446014,1.5380094051361084,-0.8756694793701172,0.8555449843406677,-0.6292898654937744,0.14403049647808075,0.12493512779474258,1.6609606742858887,0.4752744436264038,0.02654345892369747,-0.1657853126525879,-0.616384744644165,1.3143415451049805,1.3743246793746948,1.3435263633728027,-1.8679331541061401,0.3325047791004181,0.8541763424873352,-0.6746281385421753,-0.7116374969482422,-0.49243202805519104,1.7570929527282715,-1.0605250597000122,-0.7425344586372375,-0.5520468354225159,0.47277843952178955,0.6248034238815308,0.7033768892288208,0.4553452730178833,-1.5368677377700806,1.892362356185913,-0.34805458784103394,0.20412829518318176,-0.979093611240387,-1.1177170276641846,-0.2604111135005951,-0.8993349671363831,0.6318339705467224,0.725407600402832,-0.6671338081359863,0.013787159696221352,2.363388776779175,0.8639166355133057,0.0880657434463501,-0.44752898812294006,-0.3561519682407379,0.1289924532175064,1.0921424627304077,0.8763613700866699,-0.675506591796875,-0.33190101385116577,-1.4427322149276733,2.7584357261657715,0.5552707314491272,0.0019964890088886023,0.8941114544868469,0.14629125595092773,0.006644937675446272,1.2251311540603638,1.2292940616607666,-1.3949341773986816,-0.40683501958847046,0.837321937084198,1.0703617334365845,0.1077597439289093,0.43482115864753723,-0.23883411288261414,1.1753730773925781,-0.6954359412193298,0.19840870797634125,0.3768988251686096,-1.4613844156265259,-0.7352104187011719,1.1649264097213745,-0.15003642439842224,-0.493023157119751,0.9574505090713501,-0.20325085520744324,0.6389063596725464,-2.135915994644165,1.0506315231323242,-0.2206221967935562,-0.09344744682312012,-0.7056527137756348,-1.2825517654418945,0.1662062555551529,0.19736693799495697,0.45042723417282104,-2.5232186317443848,1.1780164241790771,-0.9135133624076843,-1.6342310905456543,0.5345357060432434,1.304892897605896,-1.7021942138671875,1.282383918762207,-0.5983971357345581,-0.7389307022094727,-0.0051176296547055244,-0.19132044911384583,2.1618640422821045,0.39948582649230957,0.6066586971282959,-2.0827114582061768,-0.298370361328125,0.37570565938949585,-1.1917046308517456,0.2225259393453598,-0.10955747961997986,0.49884286522865295,0.18048103153705597,0.674322247505188,-0.4777328372001648,-0.4839330315589905,-0.0453072190284729,0.2670586407184601,-0.13681872189044952,-0.2670181095600128,0.1747649610042572,1.7960182428359985,1.4003009796142578,-0.9226488471031189,0.9415629506111145,-1.3641568422317505,-0.7294173240661621,-1.284026026725769,-0.07625077664852142,-0.8114219307899475,-2.1855132579803467,2.140005588531494,1.6164302825927734,0.7995209693908691,1.4826401472091675,0.504033088684082,-0.5323440432548523,1.4187736511230469,-1.9690970182418823,-1.535426139831543
movielens10m.csv,-0.46551820635795593,0.744783878326416,0.13121455907821655,-1.898603916168213,0.7629235982894897,-0.8404214978218079,-0.8092693090438843,-0.46162453293800354,-0.30522409081459045,1.2270276546478271,0.07568374276161194,1.9818525314331055,-0.725705623626709,-0.5734873414039612,0.7998812794685364,-0.06171539053320885,-0.3910054564476013,-0.06463276594877243,-1.1467944383621216,1.21977698802948,-1.0472168922424316,-2.2047033309936523,-0.7123110294342041,-0.1445133537054062,0.6741275787353516,-0.7939218878746033,2.6240384578704834,0.6538059115409851,0.08837400376796722,-0.8123924136161804,-1.6677742004394531,0.06559409201145172,0.8799393773078918,-1.6354916095733643,1.6547138690948486,-0.35866105556488037,0.029338303953409195,1.2464905977249146,0.6084204912185669,0.9213979244232178,0.09925130009651184,-0.6843586564064026,-1.1144449710845947,1.3053226470947266,-1.6709871292114258,-0.3199616074562073,0.8679946064949036,-0.380126416683197,0.46165162324905396,1.3453408479690552,-1.1234818696975708,0.41784191131591797,-0.11751476675271988,-0.8433419466018677,-0.3338741362094879,0.10451119393110275,1.9098830223083496,-0.1836751103401184,0.6520318984985352,0.5471100807189941,-0.5994179844856262,-1.0505990982055664,-0.4533553421497345,1.0360339879989624,-0.7641240954399109,-0.19581647217273712,1.1705573797225952,0.1671970784664154,-1.513327956199646,0.7857953310012817,-0.7935714721679688,0.8108195662498474,0.7189021706581116,0.09561498463153839,-0.7662190198898315,1.277226209640503,1.021090030670166,-0.3191346228122711,0.14412985742092133,1.030295491218567,0.27275699377059937,0.5264448523521423,0.2885671854019165,0.9394415616989136,-2.1890451908111572,-1.4912461042404175,0.3358251452445984,-0.12944768369197845,-0.005820156540721655,1.0147632360458374,0.5539484024047852,-3.0010995864868164,-0.14618544280529022,-0.6883252859115601,1.0648682117462158,-0.8860927820205688,-1.479492425918579,0.004872673191130161,1.3144042491912842,0.10037065297365189,-0.2920549511909485,0.42295047640800476,0.4895724952220917,1.499321460723877,0.18475984036922455,-0.44438114762306213,-1.0528978109359741,-0.44085076451301575,-0.1443690061569214,0.8787479996681213,-1.0469717979431152,-0.9148781895637512,0.35719844698905945,-0.27320802211761475,1.5785961151123047,0.8715546131134033,1.3941221237182617,0.3726195991039276,-0.24464762210845947,-0.4994184970855713,1.99689781665802,1.3062808513641357,-0.5114825963973999,-1.3547908067703247,0.7674218416213989,0.015373481437563896,-0.5909929275512695,0.9503923654556274,-0.7769413590431213,-0.07227853685617447,-0.2663302719593048,-0.055240172892808914,-0.5564787983894348,-1.3125216960906982,0.8570464253425598,1.3325066566467285,-0.5702815651893616,-0.8050975799560547,-0.243529811501503,0.6663824319839478,-2.1211304664611816,-1.3371318578720093,-1.103371500968933,0.5714720487594604,1.2228503227233887,-1.4398185014724731,-0.5391818284988403,-0.4210169315338135,-1.483748197555542,-0.4166758358478546,-0.9909625053405762,1.1936566829681396,1.2089942693710327,-1.0899423360824585,0.7789391279220581,2.0581090450286865,-1.2367855310440063,-0.1775292605161667,-0.36499685049057007,0.019245758652687073,0.08992888778448105,0.06259609013795853,0.15741384029388428,0.5908243656158447,1.3181347846984863,0.32895803451538086,-0.8360278606414795,1.0038628578186035,-0.6802663803100586,-0.20748098194599152,-0.2199966311454773,0.5231784582138062,0.15707635879516602,-1.195183277130127,-0.5793688893318176,-1.473462700843811,0.9715823531150818,2.120135545730591,0.5263428092002869,0.34939420223236084,0.5786524415016174,0.5448784828186035,1.1039131879806519,-1.9388171434402466,-0.05338799208402634,-2.9232749938964844,-0.02538865990936756,-0.9913392066955566,0.13724616169929504,0.7008039951324463,-0.4493212401866913,1.7254199981689453,1.8944008350372314,-0.9917551279067993,0.38980579376220703,-0.7080592513084412,-0.7915623784065247,-0.11727128177881241,-2.586811065673828,-0.21543021500110626
amazon-food.csv,0.49012917280197144,-0.019295072183012962,-0.05919322744011879,-1.0331677198410034,1.1257092952728271,0.2623099088668823,0.22672531008720398,-1.427330732345581,0.4901891052722931,2.1560733318328857,-1.6193808317184448,2.4284963607788086,-0.6273370385169983,-0.07925986498594284,-0.7433807253837585,1.2322852611541748,-1.5201433897018433,0.8843315243721008,0.1718633770942688,0.8877567648887634,-0.4774291217327118,-1.1077196598052979,0.19972115755081177,-0.8273003697395325,0.2929806709289551,-0.9087247848510742,0.28595516085624695,-0.3096487522125244,1.9060955047607422,-1.6488564014434814,-0.8133902549743652,0.5011127591133118,-0.047604188323020935,-0.440060555934906,1.1317358016967773,1.617412805557251,0.5647369027137756,0.34385114908218384,1.2060085535049438,0.11685721576213837,-0.9875131249427795,0.22946758568286896,-0.43496039509773254,1.499733805656433,-0.8331964015960693,-1.1027393341064453,1.3194600343704224,-0.4189688563346863,-0.8368484973907471,0.22914493083953857,-1.0701922178268433,0.369236558675766,0.9561731815338135,-2.111146926879883,-0.4482884705066681,-0.05488372966647148,0.22424310445785522,-0.8804116249084473,-0.6862871050834656,1.1172369718551636,0.8281726837158203,-0.11397124081850052,-0.036836523562669754,2.7707245349884033,0.3887546956539154,0.6557521224021912,0.7763093709945679,0.9414197206497192,0.5170380473136902,-0.5364473462104797,0.027874603867530823,0.1619565635919571,-0.7102176547050476,-0.2598130702972412,-0.1670037806034088,-0.43356209993362427,1.608404278755188,0.03668348118662834,-1.869400143623352,0.5996851921081543,-0.8504930138587952,0.5030659437179565,-1.214209794998169,0.002408556640148163,-1.2574676275253296,0.4658598005771637,0.2783805727958679,-0.21201854944229126,0.6896638870239258,0.8901618719100952,-0.3277094066143036,-1.1899313926696777,1.0648844242095947,-0.04876943305134773,0.6452323794364929,-1.3788025379180908,-1.6137343645095825,-0.2247217893600464,0.22254453599452972,-0.331149697303772,0.9129577279090881,0.35645484924316406,2.009290933609009,2.28336501121521,0.021110698580741882,1.1773591041564941,-1.3094868659973145,0.8845342397689819,-0.7469044327735901,1.2250823974609375,0.5656666159629822,-0.03201395645737648,0.2734649181365967,-1.7243379354476929,0.10683542490005493,0.9649581909179688,-0.2786793112754822,-0.8202716112136841,0.42415112257003784,-0.34395039081573486,0.09508423507213593,1.272651195526123,0.3128799796104431,-2.3364996910095215,-0.029705539345741272,-0.41767939925193787,-0.7384589314460754,0.6215896606445312,1.1650044918060303,1.296095848083496,-1.3501288890838623,-0.04983740672469139,-0.9990367293357849,-0.07482768595218658,0.43531522154808044,-0.25241056084632874,0.34537816047668457,-1.3326202630996704,0.8595247268676758,-0.08997536450624466,0.05440206825733185,-1.271343469619751,-0.7980788350105286,-0.9808754920959473,0.4612037241458893,1.300241470336914,0.119840607047081,1.2998757362365723,-1.2299405336380005,1.3974591493606567,-1.9778786897659302,0.6727352738380432,0.5768407583236694,-0.5661343932151794,2.051044225692749,1.1345423460006714,-0.47608569264411926,0.47352755069732666,-0.7324012517929077,0.38848811388015747,0.6208418011665344,0.49526581168174744,0.4304887056350708,1.151682734489441,-0.240413635969162,-1.1765319108963013,-0.29190704226493835,1.8062373399734497,0.10614968091249466,-0.2390037477016449,0.6485176086425781,1.217896819114685,0.5154382586479187,-2.155853509902954,0.09850175678730011,-1.4499175548553467,0.013499408029019833,0.8429294228553772,-0.020209964364767075,0.9875890612602234,0.5578336715698242,0.5144160985946655,1.575506329536438,-1.2130577564239502,0.20416387915611267,-1.6056039333343506,-0.7381829023361206,-1.638664722442627,0.2848750054836273,0.7288497090339661,-1.4200356006622314,2.329796314239502,0.6057415008544922,-1.1177260875701904,0.6898851990699768,-1.065859079360962,-0.21492743492126465,2.4233922958374023,-1.7947399616241455,-0.934935450553894
