amazon-health.csv,0.5148455500602722,-0.7049024105072021,-0.929356575012207,0.7807345390319824,1.2070757150650024,-0.42454516887664795,-0.34459465742111206,1.4551705121994019,-1.4822345972061157,-1.35758376121521,1.719834804534912,0.26088449358940125,0.07292375713586807,-0.16128228604793549,0.13193093240261078,-1.3397927284240723,-1.3413519859313965,0.25799185037612915,-0.5804257988929749,-0.7304475903511047,-2.123000383377075,-1.3384692668914795,-1.4638302326202393,-0.6454131603240967,1.2523640394210815,0.7105878591537476,-0.15292802453041077,0.5894936323165894,0.7473297119140625,0.6201399564743042
amazon-garden.csv,0.5221374034881592,-0.34605643153190613,-0.47457247972488403,1.318923830986023,1.5330179929733276,0.15893515944480896,0.6311284303665161,1.175640344619751,-1.4939098358154297,-0.8891186118125916,1.834430456161499,0.4030189514160156,-0.05779397487640381,2.074641452054493e-05,-0.3290722668170929,-0.5631280541419983,-0.9637424349784851,0.06793423742055893,-2.1015024185180664,-0.7591869831085205,-1.1203346252441406,-1.3988730907440186,-1.2646201848983765,0.037291668355464935,0.5230005383491516,0.29784655570983887,-1.8068009614944458,0.6234715580940247,1.1167010068893433,0.7121288180351257
amazon-kindle.csv,1.3884742259979248,-1.1410374641418457,-0.12019986659288406,0.6362672448158264,1.683091163635254,-0.3460407555103302,-0.1336970031261444,2.439014434814453,-0.08509617298841476,-0.9443628787994385,1.5256613492965698,-0.6299452185630798,0.162574902176857,-0.807072103023529,-0.03572492301464081,-1.1326782703399658,-2.1337406635284424,-0.11046630144119263,-1.2666189670562744,-0.7484748959541321,-1.0857751369476318,-1.1060758829116821,-0.07686561346054077,-0.9285174608230591,1.2277621030807495,0.10404934734106064,0.32309871912002563,0.2078937590122223,0.30964887142181396,-0.29058900475502014
amazon-pet-supplies.csv,0.7441242337226868,-1.1387407779693604,-0.03174038976430893,1.1566133499145508,1.4382051229476929,0.02531290240585804,-0.5546376705169678,1.8446213006973267,-0.03923308849334717,0.8677672743797302,1.5566704273223877,0.6589228510856628,0.34384432435035706,0.7430329322814941,-0.7913573980331421,-1.31772780418396,-0.8599324226379395,-0.8346266150474548,-2.580503225326538,-1.365099310874939,-0.4072519540786743,-0.976476788520813,-0.9822337031364441,-0.9842421412467957,0.15253479778766632,0.32628655433654785,-0.27145272493362427,0.6161187887191772,0.8592516183853149,0.23180805146694183
yelp.csv,0.8753235340118408,-1.0848426818847656,-0.6432111263275146,1.2067185640335083,1.538420557975769,-0.9565241932868958,-0.24856439232826233,1.9836862087249756,0.16393151879310608,0.345391184091568,-0.10053189098834991,-0.8411241173744202,0.2985714077949524,0.331137090921402,0.6857523322105408,-2.061161756515503,-0.8913679122924805,0.5598800778388977,-0.978005588054657,-0.815865159034729,-2.5362515449523926,-0.4468618333339691,-1.1251155138015747,-0.9799099564552307,0.2033071219921112,0.23337195813655853,-0.6797882318496704,-0.26231008768081665,0.9536142349243164,0.052558425813913345
amazon-clothes.csv,1.2025326490402222,-0.9140846729278564,-0.8443915843963623,0.9958921670913696,1.8944531679153442,-1.0863116979599,-0.6192761063575745,2.083873987197876,-0.9643465280532837,-0.277092307806015,1.5113837718963623,0.4749029576778412,0.07337351888418198,-0.06644265353679657,-0.2283802628517151,-0.7140507102012634,-1.1767570972442627,0.7256199717521667,-1.0466119050979614,-0.8824890851974487,-1.2713496685028076,-1.596705436706543,-0.26705628633499146,-0.24363626539707184,0.8391536474227905,0.9480892419815063,-0.6759563088417053,1.3509104251861572,0.6245771050453186,0.2704806625843048
movielens20m.csv,0.4242662489414215,-1.8978945016860962,0.30517202615737915,0.5950624942779541,0.10600120574235916,-0.525132954120636,0.22473321855068207,1.5719784498214722,-1.2555443048477173,-0.33620935678482056,1.1772363185882568,-0.3486114740371704,0.01910828799009323,-1.3771371841430664,-0.28386038541793823,-2.6266531944274902,1.1948723793029785,-0.5191035866737366,-0.16790662705898285,0.38255181908607483,-0.5423886179924011,-0.7509850859642029,-0.9989491105079651,-1.1565905809402466,0.5809702277183533,0.5860311388969421,-1.2373186349868774,1.406200885772705,1.274366021156311,-0.09860226511955261
jester2.csv,0.25223997235298157,-1.8781428337097168,-0.021587543189525604,1.3687305450439453,2.0920186042785645,-1.1637979745864868,-0.8168686628341675,1.0800156593322754,-1.1480728387832642,-0.0922216922044754,0.796089768409729,0.12194564193487167,0.9777185320854187,-0.7506664395332336,-0.300438791513443,-0.9543313980102539,-0.19415447115898132,0.7641080617904663,-0.002493449952453375,-0.6947821974754333,-0.13369597494602203,-1.6930733919143677,-0.3415274918079376,-1.0237077474594116,0.2598419785499573,-1.7498762607574463,-0.9719996452331543,0.6611315011978149,1.1585429906845093,1.211517333984375
amazon-automotive.csv,0.14142000675201416,-0.46552515029907227,-0.019986161962151527,0.5591362118721008,1.0234456062316895,-0.2767949104309082,0.13738036155700684,2.4243462085723877,-0.34471482038497925,0.4008542001247406,2.050510883331299,0.5653029084205627,-0.41230469942092896,-0.6323760151863098,-0.44521138072013855,-1.7282676696777344,-1.1585620641708374,0.6396275162696838,-0.7338188886642456,-1.7273319959640503,-2.2277417182922363,-1.2737373113632202,-0.5550477504730225,0.2123395949602127,0.07502006739377975,-0.07475685328245163,0.10880027711391449,0.6118043661117554,1.0854703187942505,0.289158433675766
amazon-movies.csv,0.6725037097930908,-0.5760375261306763,-0.21474994719028473,0.7477731108665466,1.639658808708191,-0.3549138307571411,-0.4574597477912903,1.8468588590621948,0.4016326069831848,-0.4429508447647095,1.1659201383590698,0.04312891140580177,1.4652907848358154,0.5730152726173401,0.14986705780029297,-1.4147554636001587,-1.1767642498016357,-0.0837981253862381,-0.09244335442781448,-0.3359089493751526,-0.5613837838172913,-0.5424056053161621,-2.6130728721618652,-0.12523134052753448,0.7096459269523621,0.07525759935379028,-0.4958491325378418,2.0683634281158447,-0.534265398979187,1.2933728694915771
movietweetings_recsys2014.csv,0.09526404738426208,-0.46267443895339966,-0.14712607860565186,1.1169322729110718,0.09580232203006744,-1.3486219644546509,0.6609289050102234,1.8458688259124756,-0.6605257391929626,0.2842405438423157,1.788936972618103,-1.1648746728897095,0.45474711060523987,0.3618062436580658,-0.9634817242622375,-0.9132522344589233,-1.1139065027236938,-0.755717933177948,-0.7204413414001465,-0.38192257285118103,-0.748760461807251,0.11013781279325485,-2.05519700050354,-0.6071619987487793,1.3944430351257324,-1.7464884519577026,-0.3351222276687622,-0.0607314296066761,1.5050240755081177,0.8021698594093323
amazon-office.csv,0.6279201507568359,-0.07608108222484589,0.05136477202177048,-0.22303126752376556,2.025578737258911,-0.8073866963386536,-0.4193410873413086,1.2300440073013306,-1.0809080600738525,0.1196298822760582,1.9971576929092407,-0.8943957686424255,-0.38108590245246887,-0.33114093542099,-0.6167225241661072,-1.5996817350387573,-1.1323713064193726,0.6877481341362,-1.387190341949463,0.045941829681396484,-2.0144731998443604,-0.8283435106277466,-0.4232349097728729,-0.16502368450164795,0.8620290756225586,-0.8947992920875549,-1.0770759582519531,1.6015386581420898,-0.037163712084293365,-0.18957549333572388
amazon-games.csv,0.11736427247524261,-1.0217018127441406,0.019467558711767197,-0.36670419573783875,2.001115083694458,-1.1706140041351318,-0.9788952469825745,1.1583651304244995,-1.5824742317199707,-0.2254306823015213,2.2121474742889404,0.40598371624946594,0.4719839096069336,-0.8188247680664062,0.08103641867637634,-1.2444506883621216,-1.384920597076416,0.07112928479909897,-0.9036113023757935,-0.9678213000297546,-1.462921142578125,-0.5335829854011536,-1.3040821552276611,-0.0012522696051746607,-0.3976118266582489,0.3169923424720764,-0.1424807459115982,0.33346158266067505,1.618939757347107,0.5078813433647156
amazon-baby.csv,0.49847978353500366,-0.46437859535217285,0.5868886709213257,0.4158259630203247,2.4243109226226807,-1.0063496828079224,0.21047762036323547,1.734124779701233,0.3070524334907532,-1.5520943403244019,0.9970350861549377,-0.11366010457277298,-0.51674884557724,-0.5672566890716553,-0.4695039391517639,-1.815031886100769,-1.1673154830932617,-0.5106638669967651,-0.6954295635223389,-1.0970216989517212,-0.7046096920967102,-0.5033915042877197,-0.2957959473133087,-0.31415629386901855,1.682010531425476,0.5747030377388,-0.47269606590270996,1.3222084045410156,1.399910807609558,-0.35458338260650635
amazon-cd.csv,1.8788644075393677,-1.004885196685791,0.7836330533027649,-0.0028475443832576275,0.7545883059501648,-0.23115868866443634,-0.4960429072380066,1.5541895627975464,-0.3964926302433014,-0.74862140417099,1.0695180892944336,1.0459855794906616,0.5637120008468628,0.4250812530517578,0.2021869271993637,-1.7876063585281372,-1.1384578943252563,0.06682518869638443,-0.947810173034668,-1.2052010297775269,-1.6521317958831787,-0.3969518542289734,-1.4557478427886963,-0.15250781178474426,1.742185115814209,-0.31623703241348267,-1.091627597808838,-0.36661943793296814,1.307938575744629,0.13473157584667206
amazon-instruments.csv,1.2077038288116455,-0.35200583934783936,-0.14281827211380005,0.7424950003623962,1.4011602401733398,-0.48819807171821594,-0.3840734660625458,1.6130648851394653,-0.13220010697841644,-0.5735043883323669,2.182924270629883,-0.0738481804728508,-0.11691851168870926,-0.14682422578334808,-0.19650320708751678,-1.3044217824935913,-1.2526137828826904,0.40169936418533325,-1.653334379196167,-0.30820876359939575,-1.5823343992233276,-1.181370496749878,-1.0944278240203857,-0.4877147972583771,1.4135524034500122,0.1449630856513977,-0.004949611146003008,1.7926511764526367,0.6712086796760559,0.6520431637763977
tripadvisor.csv,0.025421379134058952,-0.7793967127799988,-1.3938121795654297,0.28278857469558716,1.4792816638946533,-0.9286056756973267,-0.2564125657081604,1.5561147928237915,0.6678258776664734,-0.13044673204421997,2.6832709312438965,0.19812527298927307,0.8459315896034241,-0.8322265148162842,-0.24830612540245056,-0.5998132824897766,-0.44850191473960876,1.3064663410186768,-1.1801482439041138,-0.3577834367752075,-0.7631704807281494,-0.4075033664703369,-1.8196676969528198,-0.028059881180524826,1.3838688135147095,0.5632988214492798,-1.1125774383544922,0.3157152235507965,1.0899301767349243,0.2290477752685547
jester1.csv,0.6469085216522217,-1.5591094493865967,-0.39035528898239136,1.3445097208023071,2.0035159587860107,-0.35295841097831726,0.34887996315956116,1.6166026592254639,-0.4577067792415619,-1.675798773765564,1.538013219833374,-0.6166105270385742,-0.11131514608860016,-0.07539103925228119,-0.9324702024459839,-2.5272295475006104,-0.09686059504747391,0.10223697870969772,0.34515994787216187,-0.6937648057937622,-0.6905972957611084,0.10240081697702408,-0.4576331377029419,-0.09760262817144394,0.5023038387298584,-1.2251406908035278,-0.8032556772232056,-0.402371883392334,-0.3325928747653961,1.1319057941436768
bookcrossing.csv,1.3540650606155396,-0.2622612714767456,-0.732285737991333,0.05936729535460472,0.8048072457313538,-1.114862084388733,-0.9622990489006042,1.6302032470703125,0.3379110097885132,-0.5484498143196106,1.8965779542922974,-1.0791919231414795,-0.6829000115394592,-0.2215137779712677,-1.0080722570419312,-1.516965627670288,-0.45451438426971436,-0.6972243785858154,-0.5908098816871643,-1.4876247644424438,-1.2337218523025513,-1.545078992843628,-0.9343145489692688,-1.443432331085205,0.34932541847229004,0.882474422454834,-1.1635076999664307,-0.0734517052769661,0.4281066656112671,0.7145009636878967
movielens_latest.csv,0.8293425440788269,0.004167051985859871,0.24954324960708618,2.5407397747039795,1.1971173286437988,-0.09659148752689362,-0.13591495156288147,2.2376089096069336,-1.1084481477737427,1.0069459676742554,1.806811809539795,0.2860760986804962,0.717899739742279,-1.0892207622528076,-1.3411587476730347,-1.6238206624984741,-0.4097958505153656,0.8173086643218994,-0.15226614475250244,-0.3649188280105591,-0.4591442942619324,0.09893327206373215,-0.8720652461051941,-0.07348271459341049,1.3034381866455078,0.43984052538871765,-0.7911267876625061,0.23709997534751892,-0.16112644970417023,-0.14566463232040405
movietweetings_latest.csv,-0.06090181693434715,-0.16225095093250275,0.6793380975723267,1.075057029724121,2.4431915283203125,-0.46231910586357117,-0.8635143637657166,2.3444583415985107,-0.771634042263031,-0.16273199021816254,1.4318143129348755,-0.565218448638916,-0.5155971050262451,0.40935614705085754,1.1229878664016724,-0.23495694994926453,0.32443809509277344,-0.056629959493875504,-0.4846387803554535,-0.9916983246803284,-0.6813638806343079,0.36668264865875244,-1.8726941347122192,-1.5669407844543457,1.6641583442687988,0.25508588552474976,0.0035828372929245234,0.021589210256934166,0.1451476663351059,0.665300726890564
amazon-phones.csv,0.6348857283592224,0.5222780108451843,0.2111971378326416,0.6581728458404541,1.5326470136642456,-0.7687055468559265,-0.5496379137039185,1.0552170276641846,0.02612946927547455,-0.15987524390220642,1.7461895942687988,0.5899285078048706,-0.3135805130004883,-0.6696389317512512,0.3962036669254303,-1.8713856935501099,-1.4739618301391602,-0.5090365409851074,-1.1344496011734009,-1.184415578842163,-0.5696796774864197,-2.1772496700286865,-1.6129868030548096,-0.33776426315307617,1.6358206272125244,-0.08147430419921875,-0.6894024014472961,0.09336527436971664,0.7270731329917908,0.5139716863632202
amazon-toys.csv,-0.47646743059158325,0.9464371204376221,-0.1216149851679802,0.7787724733352661,0.7702603936195374,0.046475473791360855,-1.016356348991394,1.8763586282730103,-0.3672501742839813,-0.5676262974739075,1.8403493165969849,-1.3464678525924683,0.4007076025009155,-0.44557878375053406,-0.04442649707198143,-1.2397286891937256,-1.1999567747116089,0.2394663244485855,-0.9372357726097107,-1.7684121131896973,-1.3822996616363525,-1.0847244262695312,-0.7928450703620911,-0.6665188670158386,0.408471941947937,0.14866524934768677,-0.19999319314956665,1.6281217336654663,1.7098948955535889,0.29193446040153503
amazon-digital-music.csv,0.30238044261932373,-0.5872728824615479,0.3026905655860901,0.564089834690094,1.0421764850616455,-1.0421812534332275,-0.6676110625267029,1.5182955265045166,-0.2231260985136032,0.14367012679576874,1.1260007619857788,-0.13339847326278687,0.06505652517080307,-0.6143960356712341,0.037586748600006104,-1.3947632312774658,-1.1566967964172363,0.6657217144966125,-1.9454177618026733,-2.490241289138794,-1.6001384258270264,-1.5570837259292603,-0.6064678430557251,-0.8833550810813904,1.4324456453323364,0.49224206805229187,-0.030945071950554848,0.2102402299642563,0.15636268258094788,0.5311264395713806
amazon-beauty.csv,0.15771837532520294,0.25342443585395813,0.004528523422777653,-0.20509324967861176,2.3545925617218018,-0.8012738823890686,0.6715148687362671,1.864821195602417,-1.019181251525879,-0.2547220289707184,1.50660240650177,0.08757713437080383,0.24224136769771576,-0.33963239192962646,-0.7712708115577698,-1.105231761932373,-0.14493852853775024,-0.3329303562641144,-1.5246893167495728,-1.7237300872802734,-1.7273856401443481,-1.227859616279602,-1.0365771055221558,-0.06948857009410858,1.629423975944519,0.11979220062494278,0.03158223256468773,0.40230628848075867,0.42935335636138916,0.6061834692955017
flixter.csv,0.7036200761795044,-0.18091319501399994,-0.36762329936027527,1.036414623260498,0.7444100975990295,-0.34046605229377747,-1.619134545326233,1.5399084091186523,-0.49268946051597595,-0.5033287405967712,0.6394416689872742,-1.0749832391738892,0.9945490956306458,0.8300091624259949,-0.7792519330978394,-2.3445281982421875,0.5576145052909851,1.3556593656539917,-0.7765504717826843,-0.46145546436309814,-0.10959269851446152,-1.2986136674880981,-1.0269993543624878,-0.4717545807361603,2.3968143463134766,-0.5256767272949219,-0.05403592064976692,-0.2953229546546936,0.8393476605415344,-0.034059423953294754
movielens10m.csv,0.9343489408493042,-1.1483360528945923,1.3897260427474976,0.152134507894516,1.1192723512649536,0.2559233605861664,-0.49746760725975037,2.377387046813965,-0.5642749071121216,-0.18584811687469482,1.5029664039611816,-0.9998567700386047,-0.6781269907951355,0.3486589789390564,-1.4335341453552246,-0.3380220830440521,-0.19655722379684448,1.1954295635223389,0.35699722170829773,0.9506480097770691,-0.14628054201602936,-1.7568018436431885,-1.011748194694519,0.21530966460704803,0.934117317199707,0.21561522781848907,-0.8122656941413879,-0.17285549640655518,1.7179794311523438,1.0183693170547485
amazon-apps.csv,0.3077085614204407,0.04686819016933441,0.7345787286758423,-0.11790657043457031,1.0345722436904907,-1.3479971885681152,-0.25983020663261414,1.5070161819458008,-0.6313231587409973,-0.5853351354598999,1.3276294469833374,-0.5785143971443176,0.734065055847168,-0.9748007655143738,-0.6132854223251343,-1.9505045413970947,-2.5519330501556396,0.6400489211082458,-1.2145451307296753,-0.8782116174697876,-0.4467078447341919,-0.3987208306789398,-1.5966391563415527,-0.9168027639389038,0.29324132204055786,1.331238031387329,-0.43510398268699646,-0.32281556725502014,0.40506666898727417,0.6188094019889832
amazon-sports.csv,0.7694199681282043,-0.7801244258880615,-0.1498900055885315,-0.12154657393693924,2.003693103790283,0.2944348156452179,-0.9576053619384766,1.6126152276992798,-0.5543426275253296,-0.6616476774215698,2.213702440261841,-0.08687350153923035,0.2867247760295868,-0.3671081066131592,-0.8799178600311279,-1.372529149055481,-1.222909688949585,0.6669871807098389,-0.25644001364707947,-1.5716966390609741,-1.5781810283660889,-0.4264732599258423,-1.324708342552185,-1.5397379398345947,0.9613303542137146,-0.22105583548545837,-0.031091125681996346,0.578924834728241,0.1695140302181244,0.050441060215234756
yahoo-music.csv,-0.370797723531723,-0.812334418296814,-0.17072506248950958,0.22699686884880066,0.9885425567626953,-2.4845621585845947,-0.3663201332092285,2.876426935195923,-0.7072645425796509,-0.9082827568054199,1.1887314319610596,1.0178004503250122,-0.05437351018190384,0.11648544669151306,-0.5037318468093872,-1.284762978553772,-0.5031092166900635,1.1784303188323975,-1.077120065689087,-0.02741716057062149,-0.10453491657972336,-0.9486021399497986,-1.5299630165100098,-0.8641771674156189,0.4302121698856354,-0.7411331534385681,-0.21441538631916046,0.5109376907348633,-0.08202366530895233,0.13905587792396545
amazon-instant-video.csv,-0.20843826234340668,-0.8786430954933167,-0.40707316994667053,0.31488874554634094,1.9418280124664307,-0.21035143733024597,-1.7392579317092896,1.7329367399215698,-1.2333173751831055,-0.09275510162115097,0.8537499308586121,-0.9342475533485413,-0.18852733075618744,-0.3394201993942261,-0.7619468569755554,-2.0598959922790527,-1.2890357971191406,-0.4973619282245636,-0.5016973614692688,-1.7162327766418457,-0.8754108548164368,-0.2123744934797287,-1.4527140855789185,0.3896668255329132,1.0624099969863892,0.13888734579086304,-0.8290331959724426,0.8850449323654175,0.39469411969184875,0.12878787517547607
yahoo-movies.csv,1.876746416091919,0.04404255002737045,0.8276118040084839,1.606158971786499,1.8615431785583496,-1.2614554166793823,0.45855745673179626,0.7646706104278564,-0.32999059557914734,-1.3193703889846802,1.3044811487197876,-1.0522817373275757,0.6254597902297974,-0.20215550065040588,-0.6392405033111572,-0.6362636089324951,0.15167459845542908,1.1596726179122925,-0.32649365067481995,-1.7740586996078491,-0.7153281569480896,-0.5276045203208923,-1.922648549079895,0.5008010268211365,-0.06036335602402687,-0.18614692986011505,-0.4845643937587738,0.5507272481918335,0.990970253944397,-0.7333964705467224
movielens1m.csv,0.7829873561859131,0.3439887762069702,0.9271688461303711,0.47313249111175537,1.4022040367126465,-0.6882544159889221,-1.283671259880066,1.8563722372055054,-0.48558130860328674,-0.3332299590110779,0.6090524196624756,0.9790297150611877,1.2169331312179565,-0.5600892305374146,-1.6314691305160522,-1.4655338525772095,0.5355806946754456,-0.4443531036376953,-0.07017429172992706,-0.441466361284256,-1.4407567977905273,-0.5373885631561279,-1.2807846069335938,-0.9960183501243591,0.31280651688575745,0.3475516736507416,-0.6678540706634521,0.550571084022522,1.4550637006759644,1.898625373840332
movielens100k.csv,0.4647655189037323,-0.36809042096138,-0.3315066397190094,0.09864718466997147,0.8328132629394531,0.6862081289291382,0.14392657577991486,2.6885547637939453,-0.7322859168052673,-0.6778848171234131,0.3303626477718353,-0.06234437972307205,0.9401818513870239,-2.124619722366333,-0.4407196640968323,-0.9611945748329163,0.15941478312015533,0.9023141264915466,-0.7838634848594666,-0.48485133051872253,-1.1177845001220703,-0.821601390838623,-2.232822895050049,-0.8393539786338806,0.7211659550666809,-1.5743887424468994,-0.6823974251747131,0.07407934963703156,0.6556043028831482,0.535866916179657
amazon-home.csv,-0.4049907326698303,-0.8096472024917603,0.5236391425132751,1.1680223941802979,1.2861297130584717,-0.36698395013809204,0.632429838180542,0.8142734169960022,-0.7166649103164673,0.33609890937805176,2.178950548171997,0.010779550299048424,0.3256896138191223,0.8781881332397461,-0.299777626991272,-1.658036470413208,-1.6161671876907349,-0.14175234735012054,-0.9382074475288391,-1.4176265001296997,-1.9279751777648926,-1.4324456453323364,-0.2949087619781494,-1.1548395156860352,1.0741057395935059,0.46925145387649536,-0.843936562538147,0.47883492708206177,0.6079556345939636,0.45031511783599854
amazon-tools.csv,1.483576774597168,-0.5633239150047302,-0.608605682849884,0.3532211482524872,1.4301300048828125,-1.0812218189239502,-0.4923863410949707,1.9559541940689087,-1.4468532800674438,-0.5620664954185486,1.5285046100616455,-0.10314537584781647,0.6248088479042053,0.44250229001045227,0.07143554091453552,-1.8335819244384766,-0.8354009985923767,0.27116817235946655,-1.2294337749481201,-1.5332880020141602,-0.6362869739532471,-0.8583008646965027,-0.574733555316925,-0.9308966398239136,1.2921351194381714,0.10674786567687988,-0.37026527523994446,1.0938668251037598,0.8498080968856812,0.5340790748596191
amazon-food.csv,1.224569320678711,-0.5522923469543457,-1.4545297622680664,-0.02292412891983986,1.9445468187332153,-0.203779399394989,1.1271206140518188,1.3269773721694946,-0.37797948718070984,0.4042864441871643,1.5299466848373413,-0.30809199810028076,-0.4133108854293823,-0.6164255142211914,-0.7764971852302551,-1.6428695917129517,-1.577335000038147,0.49969789385795593,-1.3227791786193848,-0.6641702055931091,-0.5185105204582214,-0.7807257771492004,-0.7828508615493774,-0.22671106457710266,0.8738393187522888,0.3895876407623291,0.16358068585395813,1.3289594650268555,1.2342965602874756,1.38833487033844
jester3.csv,0.1640579104423523,-0.4219447374343872,1.1577165126800537,1.5501201152801514,0.4356071650981903,-0.7160261869430542,-0.2092517912387848,2.256359577178955,-0.27821722626686096,-1.3653267621994019,1.2426429986953735,-0.5113391876220703,-0.06269678473472595,-0.9560574889183044,0.28150075674057007,-1.6925861835479736,0.05683470517396927,1.2713589668273926,-1.3014330863952637,-0.5876733064651489,-0.5727095007896423,0.2210756093263626,0.2911866009235382,0.06732456386089325,1.2347776889801025,-0.25121134519577026,-0.5058035254478455,0.4669448137283325,1.0024168491363525,2.326777458190918
