amazon-health.csv,0.41318660974502563,0.5649347901344299,0.6740272045135498,-0.5637646317481995,-1.0939395427703857,0.5237439274787903,0.972204864025116,-1.2803860902786255,-2.1971628665924072,-1.13789963722229,0.09884808957576752,0.5230411887168884,0.9122284054756165,-1.3176143169403076,-2.1826086044311523,1.5459800958633423,-0.010585264302790165,1.7408790588378906,0.6893404126167297,0.05483357235789299,0.9414834976196289,0.7315124273300171,-1.9674230813980103,0.2734662592411041,0.16259419918060303,-0.26068153977394104,-1.5367203950881958,-0.26787346601486206,-0.5088931322097778,-0.6749451756477356,-0.446547269821167,0.07621755450963974,-0.7850403189659119,0.6282347440719604,0.5503125786781311,0.9384084939956665,-1.0926297903060913,-0.7086560130119324,-2.1256179809570312,-1.534417986869812,-0.5272307395935059,-0.5738586187362671,0.8174038529396057,-0.14673402905464172,0.8051013350486755,1.2533921003341675,-0.18498370051383972,-0.0379888117313385,-1.0281740427017212,-0.3542734682559967,0.9515847563743591,-0.20740552246570587,0.39685550332069397,1.7877129316329956,0.7123218178749084,0.8430238962173462,-1.020420789718628,-0.6457518339157104,-0.35307955741882324,-1.952581524848938,-0.3841298520565033,-0.26545044779777527,0.8816763162612915,-1.0562888383865356,0.21406608819961548,-0.04302763193845749,0.7451063394546509,-0.3989422023296356,-1.414609432220459,0.42376717925071716,-0.6238633394241333,1.146821141242981,-1.4207044839859009,-3.0514824390411377,-0.48813948035240173,0.49873626232147217,-0.6794463992118835,-0.17778265476226807,0.2363862693309784,0.008667891845107079,0.375592976808548,-0.368457168340683,0.36328527331352234,1.3161604404449463,-1.268528938293457,-1.7344751358032227,-1.1072285175323486,0.19066886603832245,0.7540379762649536,0.08693107962608337,1.5614778995513916,0.7014767527580261,-1.3293869495391846,0.3917541801929474,1.3506064414978027,-1.4975030422210693,-1.08809494972229,-1.352617621421814,-0.19855955243110657,-0.35490745306015015
amazon-garden.csv,1.5058469772338867,0.2283448427915573,0.7977954149246216,-0.38102665543556213,-1.4130371809005737,-0.20406274497509003,0.4712459146976471,-1.0761016607284546,-0.8167360424995422,-1.0265204906463623,-0.9400470852851868,0.2656710743904114,0.5088781118392944,-1.3437440395355225,-0.8703685402870178,1.0439127683639526,0.6442530155181885,1.3317548036575317,-0.6039031147956848,0.15297441184520721,0.9151971936225891,1.7255467176437378,-2.1947951316833496,1.1944897174835205,-0.4071770906448364,0.4918886125087738,0.30055493116378784,-0.21458275616168976,-1.3209314346313477,-0.10544897615909576,-0.4879710078239441,0.5576916337013245,-1.865648865699768,-0.188035249710083,0.24291068315505981,0.6991515159606934,-1.0081902742385864,0.042806025594472885,-2.221475601196289,-1.697794795036316,-0.7824422121047974,0.006182057783007622,0.43600302934646606,-0.27035802602767944,1.2606176137924194,0.8478612899780273,-0.8725417256355286,0.5583825707435608,-0.5509624481201172,-0.5261041522026062,1.0154057741165161,-0.5601158738136292,-0.21865271031856537,1.8775553703308105,1.2264444828033447,0.7091985940933228,-1.123283863067627,-0.5208722352981567,0.0674719363451004,-2.6768243312835693,0.3123675286769867,0.5985655784606934,0.8663052916526794,-0.5221968293190002,-0.3543557822704315,-0.2128252238035202,0.2177356332540512,-1.2858413457870483,-1.972375512123108,0.14356058835983276,-0.2257394939661026,0.8698489665985107,-1.475743293762207,-2.7476608753204346,0.1801520586013794,0.6180950403213501,-1.0299978256225586,-0.5407004952430725,1.0620213747024536,-0.4147205352783203,-0.439179003238678,0.414704293012619,-0.21791042387485504,1.2779231071472168,-0.32443657517433167,-1.3223212957382202,-1.0744115114212036,0.6856869459152222,0.1501367688179016,0.40113314986228943,1.177231788635254,0.9637465476989746,-1.5278569459915161,0.16697894036769867,1.302486538887024,-0.8248763084411621,-1.7014387845993042,-1.2139294147491455,0.20737110078334808,0.0840100347995758
amazon-kindle.csv,0.2424161732196808,0.7478960156440735,0.8552122116088867,-1.001559853553772,-0.8794294595718384,-0.31842854619026184,1.1661903858184814,-1.4226362705230713,-2.023465156555176,-1.4474557638168335,-0.4549664258956909,0.033159635961055756,0.18565647304058075,-2.258268356323242,-1.5809688568115234,0.7940589785575867,-0.6637179255485535,1.1783498525619507,-0.19820371270179749,-0.5278805494308472,0.8077531456947327,1.0339468717575073,-1.8841526508331299,0.4824519157409668,0.28621846437454224,0.7345892786979675,-0.5688011646270752,-0.1494893729686737,-0.556425929069519,-0.5358951091766357,-1.2254244089126587,0.5486833453178406,-1.2465624809265137,0.8012573719024658,0.26721611618995667,0.7501271367073059,-0.9609670042991638,-0.7934595346450806,-1.3746393918991089,-1.4829612970352173,-0.01866973005235195,-0.08745566755533218,-0.3143305778503418,-0.6863320469856262,1.04360830783844,1.3773002624511719,0.6139613389968872,1.1926825046539307,-1.6032238006591797,-0.018817197531461716,1.1134916543960571,-0.4770269989967346,-0.3003615438938141,1.9878017902374268,-0.006985560990869999,0.111231729388237,-1.040489912033081,0.3219863176345825,-0.15509267151355743,-2.112417459487915,-0.53840172290802,-1.292846918106079,-0.3028275668621063,-0.2920704483985901,-0.03379746153950691,-0.018882276490330696,0.8618961572647095,-1.4272575378417969,-1.9946534633636475,0.1228603646159172,-0.833838164806366,1.0489665269851685,-1.8141261339187622,-2.7029953002929688,0.21702098846435547,0.03931545838713646,0.1571558117866516,-0.6395692229270935,0.33255717158317566,0.5995233654975891,0.07143111526966095,-1.2149349451065063,-0.17777281999588013,1.3234734535217285,-0.33779430389404297,0.4125351905822754,-1.0464656352996826,0.540198802947998,0.4781329333782196,-0.3380206823348999,1.9279239177703857,0.46586936712265015,-0.38524129986763,-0.7785566449165344,1.6758710145950317,-1.3052726984024048,-1.1367391347885132,-1.0164433717727661,-1.0210641622543335,-0.05257740989327431
amazon-pet-supplies.csv,0.6781725883483887,0.5901302099227905,1.6345901489257812,0.17601363360881805,-1.203330159187317,-0.7260602712631226,0.23036237061023712,-0.8939412236213684,-1.1182760000228882,-0.053686171770095825,0.8575721979141235,1.5177565813064575,0.2572740316390991,-2.154994249343872,-2.4922943115234375,0.096244215965271,0.10219942778348923,1.3323848247528076,-0.08662575483322144,0.1861724853515625,0.4856839179992676,0.6126025319099426,-0.805217981338501,0.7980956435203552,-0.18287110328674316,0.9855430722236633,0.0960368812084198,-0.1381218582391739,-0.2317325919866562,-1.5145471096038818,-0.26178744435310364,1.0267131328582764,-0.6927902102470398,0.5412940979003906,0.939653217792511,1.840236783027649,-1.2828115224838257,-0.3094475269317627,-2.3547558784484863,-1.3498318195343018,-0.4936012327671051,-0.5578774213790894,0.5362794399261475,-0.8468493223190308,1.9658868312835693,-0.29636672139167786,0.082689069211483,0.25315576791763306,-1.1842156648635864,-0.4371643364429474,1.7695136070251465,0.45379704236984253,-0.18902869522571564,1.6952203512191772,0.904639720916748,0.6234586834907532,-0.21975676715373993,-0.6692051887512207,-0.12187840044498444,-0.9838844537734985,1.1457370519638062,0.8459501266479492,-0.26929202675819397,-0.9435867667198181,-0.6822596788406372,0.4347594976425171,1.2892721891403198,-1.039966344833374,-1.6932828426361084,0.5811648368835449,-0.2833815813064575,0.976609468460083,-1.3286073207855225,-2.230381488800049,-0.1758044809103012,-0.5503464341163635,-0.8773288130760193,-0.15538173913955688,0.49743935465812683,0.48385727405548096,0.18359267711639404,-0.24475263059139252,0.5058643817901611,0.5451892018318176,-0.24562278389930725,0.20235595107078552,-0.9959509372711182,1.9319508075714111,0.6864820718765259,-0.422450989484787,1.597277283668518,0.7194492816925049,-1.0046777725219727,-2.3738954067230225,0.8935747742652893,-0.2888852059841156,-0.7617136836051941,-1.8141123056411743,-0.42156344652175903,-0.45444491505622864
yelp.csv,-0.10528796166181564,1.6988102197647095,-0.9020707607269287,-0.4832812547683716,-1.1633260250091553,0.16894513368606567,0.740488588809967,-1.3191123008728027,-1.2301985025405884,-0.6296492218971252,-0.25119051337242126,0.38094183802604675,0.7951505780220032,-0.8399954438209534,-2.2635600566864014,0.8016656041145325,0.004503022879362106,-0.1550939381122589,-0.43213698267936707,-0.7877116799354553,1.7224109172821045,0.18533939123153687,-1.2128098011016846,0.8177334666252136,-0.9789344072341919,0.9704598784446716,-1.1218488216400146,-0.4280880391597748,-0.15524134039878845,-1.113215684890747,-1.0868421792984009,0.5903450846672058,-0.6971487998962402,1.590311050415039,0.96865314245224,1.1784766912460327,-0.023028837516903877,-1.0699167251586914,-2.3191404342651367,-1.2497708797454834,-0.2356184870004654,-0.43160948157310486,0.7044083476066589,0.2282751351594925,0.34233954548835754,0.8832067251205444,0.27744200825691223,1.240366816520691,-1.4186533689498901,-1.0973730087280273,1.8309590816497803,0.4855095446109772,-0.35731199383735657,1.3845534324645996,1.0117554664611816,1.3879517316818237,-1.806207537651062,0.3522458076477051,0.3723759055137634,-0.7943731546401978,0.6398016214370728,-0.4490565061569214,0.9469470977783203,-0.30770939588546753,-0.8556070327758789,0.36714833974838257,2.0642943382263184,0.5350353121757507,-1.9600248336791992,0.5795949101448059,0.16469214856624603,1.1839641332626343,-1.7381749153137207,-1.5598323345184326,0.12344172596931458,-0.5710161328315735,-0.6982594728469849,-0.03452202305197716,-0.03661920130252838,-0.7246674299240112,-0.30705514550209045,-1.1099681854248047,-0.4629653990268707,0.4163353741168976,0.1775095909833908,0.23404254019260406,-1.5687304735183716,-0.43584582209587097,-0.46828287839889526,-0.3736497759819031,0.3398973345756531,1.202329158782959,-1.1527358293533325,-0.2564241588115692,0.49077069759368896,-1.6341757774353027,-2.2567176818847656,-1.7011157274246216,-0.3938957750797272,0.3415907025337219
amazon-clothes.csv,0.25260040163993835,0.2943318784236908,0.6172738075256348,-0.3553454875946045,-0.671511709690094,0.22152484953403473,0.5819042325019836,-1.7384016513824463,-1.8093854188919067,-0.7079803943634033,-0.21666647493839264,0.32879355549812317,0.9069709181785583,-2.7932393550872803,-2.4354777336120605,1.8155686855316162,-0.03320189565420151,1.0945638418197632,-0.2020144909620285,0.04916895553469658,0.20222331583499908,0.9668741226196289,-1.4515366554260254,1.0771209001541138,-0.2782098352909088,1.2108956575393677,-0.66277015209198,-0.45064812898635864,-0.2800617218017578,-0.9554927945137024,-0.6678542494773865,0.2916899025440216,-1.3302005529403687,0.19557084143161774,0.676349937915802,0.6482723951339722,-0.8181136250495911,-0.3553770184516907,-2.488460063934326,-1.8015401363372803,-0.06710080802440643,0.2679056227207184,0.2707862854003906,0.19487760961055756,1.129496693611145,0.6673827767372131,-0.2513846755027771,0.8074125051498413,-0.9374091029167175,-0.19935889542102814,0.9114739298820496,-1.301153540611267,-0.39221271872520447,1.9671039581298828,0.3105064630508423,0.8089895844459534,-1.003104567527771,0.12418534606695175,-0.5125232338905334,-1.955098032951355,-0.0632081925868988,-0.4788617491722107,0.21325770020484924,-0.35041311383247375,-0.414654940366745,-0.46176984906196594,1.3579965829849243,-1.1810414791107178,-2.176093816757202,0.19446755945682526,-0.5838186144828796,0.8473892211914062,-1.2439206838607788,-3.206662654876709,-0.4742094874382019,0.5422543287277222,-0.7456769943237305,-0.024984048679471016,0.07188712805509567,0.13038012385368347,-0.021703969687223434,-0.10222525894641876,-0.05817823112010956,1.1206612586975098,-1.0908600091934204,-0.5441197156906128,-0.8286502361297607,0.47594600915908813,1.2683814764022827,0.11243884265422821,1.1795686483383179,0.6746353507041931,-0.7919893264770508,-1.1814374923706055,0.8754918575286865,-1.0903024673461914,-0.718575119972229,-1.061522364616394,0.146725594997406,-0.2701619863510132
movielens20m.csv,-0.6009647846221924,-0.6125758290290833,1.270649790763855,2.1037039756774902,-0.15673381090164185,-0.9464472532272339,-0.13978593051433563,-1.7469360828399658,-0.6062762141227722,-0.6827426552772522,-1.4093406200408936,-0.9274429678916931,1.3425469398498535,-2.2825045585632324,-1.4944384098052979,0.6355994343757629,0.11490165442228317,1.4697930812835693,0.024546371772885323,-0.2064639925956726,1.5738970041275024,0.9370819330215454,-0.6187021136283875,0.7190583348274231,0.4298692047595978,0.7043033838272095,-0.8311408758163452,-1.248276710510254,0.46912407875061035,-1.0247323513031006,-0.8547391295433044,0.4524296820163727,-0.816979706287384,0.4277077615261078,0.6797264218330383,0.4994056224822998,-0.14804401993751526,-1.1294145584106445,-1.4125926494598389,-0.49288409948349,-1.5515110492706299,-1.0906864404678345,-0.19697551429271698,1.7969584465026855,1.7275716066360474,-0.6671261191368103,-0.4109953045845032,0.23344703018665314,-0.32481276988983154,-0.3123500347137451,0.29994848370552063,-1.0952095985412598,0.9167196750640869,1.8341823816299438,0.22788234055042267,-0.4362514019012451,-1.2305495738983154,-0.8102155327796936,0.03785913437604904,-2.496102809906006,-0.07915191352367401,1.2279797792434692,1.2773319482803345,-0.92547607421875,-0.5000982880592346,-0.3713293969631195,0.82917320728302,-1.0511363744735718,-1.8975450992584229,0.008071930147707462,-0.8259475827217102,1.694923996925354,-0.4768887758255005,-1.6048123836517334,0.18210193514823914,-0.2274378389120102,0.2186385989189148,-0.6492592096328735,0.6757621765136719,0.7598565816879272,0.2044268548488617,-1.576077938079834,0.7198774218559265,-0.05287090316414833,-0.28884148597717285,0.45553597807884216,-0.7563744187355042,-0.47485870122909546,-0.5675560235977173,-1.5674704313278198,0.5593568682670593,0.7672427296638489,-0.7540258169174194,0.8559373617172241,1.821104645729065,-0.46298205852508545,-1.083673119544983,-1.4443377256393433,-0.5042409896850586,-0.667510986328125
jester2.csv,1.5748320817947388,0.4012545049190521,0.5394749641418457,0.7451455593109131,0.47785085439682007,0.5112876296043396,0.43340766429901123,-0.8409351706504822,-2.725067377090454,0.25487902760505676,0.6725470423698425,0.3885885179042816,0.8782644867897034,-1.350027084350586,-0.5075860023498535,2.0220935344696045,1.1498087644577026,0.2530357837677002,0.3111937344074249,0.47299739718437195,-0.32245758175849915,0.6569069623947144,-2.0513088703155518,0.744246244430542,0.18021421134471893,0.31285664439201355,-1.1376067399978638,0.6920652985572815,-0.3618415892124176,-2.0901684761047363,-0.8580801486968994,0.38829970359802246,-0.03825768828392029,-0.693938136100769,0.4570392966270447,1.2116217613220215,-1.4244675636291504,-1.023640513420105,-2.0348198413848877,-0.8519303202629089,-1.2169809341430664,-0.5442776083946228,-0.27804240584373474,-0.02712508849799633,1.606943964958191,0.14507339894771576,-0.49762603640556335,2.5967788696289062,-0.21153971552848816,0.7415557503700256,0.504440188407898,-0.19019195437431335,-0.8942978382110596,0.9145323038101196,0.06815207749605179,0.23294226825237274,-0.41210052371025085,0.5153186917304993,-0.0793154388666153,-3.2611243724823,0.03674973547458649,0.7305048704147339,0.5536870360374451,0.11198778450489044,-1.5235912799835205,-0.12784568965435028,0.2624836564064026,-0.7933251857757568,-1.8953949213027954,0.8745518922805786,-0.41106826066970825,0.5469054579734802,-1.5094550848007202,-0.9581927061080933,0.958179235458374,0.24863547086715698,-0.5080002546310425,-0.5835443735122681,-0.7509429454803467,-0.16118858754634857,0.6968862414360046,-1.5235086679458618,0.5828324556350708,1.4244507551193237,0.01706806942820549,0.3651343882083893,-1.137235164642334,-0.0646592229604721,0.003704816335812211,-1.0106374025344849,0.1283666342496872,1.3141571283340454,-0.6994346380233765,0.9403520822525024,0.2580120861530304,-0.6193894743919373,-1.2759073972702026,-1.5761734247207642,-0.9340282082557678,-0.573600172996521
amazon-automotive.csv,0.6856293082237244,0.19449932873249054,1.062171459197998,-0.27172523736953735,-0.4384991526603699,1.011296272277832,0.3210604190826416,-1.1059647798538208,-1.9632114171981812,-0.6464253067970276,-0.06398218870162964,0.9635562300682068,1.1264475584030151,-2.2702534198760986,-2.395806074142456,1.2011101245880127,-0.14850124716758728,0.8085697293281555,-0.7027912139892578,0.3778856694698334,1.0530195236206055,1.2446503639221191,-0.7114594578742981,0.24790377914905548,0.5402035117149353,1.460639238357544,-1.2015151977539062,-0.1623678058385849,0.8640669584274292,-0.3352715075016022,-0.15969215333461761,0.7314780950546265,-1.7080156803131104,-0.137348011136055,0.226779043674469,0.49427729845046997,-1.165287733078003,-0.4480946958065033,-2.3267059326171875,-0.9202906489372253,0.09900212287902832,-0.98939448595047,0.8708871006965637,-0.12836503982543945,0.8195092678070068,0.4339526295661926,-1.0053070783615112,0.7393704056739807,-1.1896268129348755,-0.5750447511672974,0.4272417426109314,0.4870631992816925,-0.9086828231811523,1.5039708614349365,1.130435585975647,0.9487802982330322,-1.0997166633605957,0.2910776734352112,0.8810348510742188,-2.0965402126312256,-0.3312045931816101,0.6135067343711853,0.5055500864982605,-1.024118185043335,-0.38925901055336,-0.07872529327869415,0.9688193798065186,-0.86052006483078,-1.3482376337051392,0.6704047918319702,-1.3590706586837769,0.16022755205631256,-1.5992833375930786,-3.271267890930176,0.074429951608181,-0.6277546286582947,-1.1049401760101318,-0.273215115070343,-0.1433340609073639,-0.10829577594995499,-1.173931360244751,-0.7417857050895691,-0.006072625983506441,1.019351840019226,-0.7955536246299744,-1.0269622802734375,-0.21119731664657593,0.21666374802589417,0.9808872938156128,-0.07479626685380936,0.639646589756012,1.3743739128112793,-1.4660664796829224,0.03404068201780319,1.2642441987991333,-1.4976732730865479,-0.9286872148513794,-0.5530614256858826,-0.07382648438215256,-0.15805822610855103
amazon-movies.csv,0.9332833886146545,0.39115288853645325,1.5572208166122437,0.2813226282596588,-0.5198801159858704,0.2883683443069458,0.37827032804489136,-0.7823202610015869,0.031568340957164764,-0.9649216532707214,0.505499005317688,-0.22719335556030273,-0.18379871547222137,-1.633247971534729,-1.8322573900222778,1.95068359375,0.6795538663864136,0.4007539451122284,0.9091907143592834,-0.9944795966148376,0.9181100726127625,0.13351018726825714,-1.427475094795227,0.7921060919761658,-0.09698875993490219,0.20538826286792755,-0.8064359426498413,-1.2524179220199585,-1.4751442670822144,-0.8091214299201965,-0.149257630109787,1.0183099508285522,-1.4405306577682495,0.8134676218032837,-0.5782409906387329,1.2169593572616577,0.49620485305786133,-0.6970300078392029,-1.8887574672698975,-1.2814067602157593,-0.7107898592948914,-1.8654909133911133,-1.0859379768371582,0.795569658279419,0.43249213695526123,-0.6488950252532959,0.1443500816822052,0.6489675641059875,-0.7796570062637329,-0.4740324318408966,-0.08774084597826004,0.09571190178394318,-0.015042047947645187,1.1528503894805908,0.5818789005279541,2.172020673751831,-0.7823952436447144,0.6087964773178101,0.2513084411621094,-2.133333206176758,0.7432985305786133,0.4341726005077362,0.2371555119752884,-1.1653926372528076,-0.9242396354675293,-0.16824795305728912,0.4269998371601105,-0.9675363898277283,-1.3776674270629883,0.06393609195947647,-1.145563006401062,0.2625047266483307,-1.9809937477111816,-2.3224658966064453,0.08487896621227264,0.13150115311145782,-0.42553454637527466,0.10706490278244019,0.11015777289867401,-0.4936707019805908,0.818533718585968,-0.21857959032058716,0.02671285904943943,1.6088476181030273,-1.1746985912322998,-0.09630996733903885,-1.4044162034988403,0.9770488739013672,0.9614894390106201,-0.5039455890655518,1.253720760345459,1.3490623235702515,0.1968526393175125,0.0852084830403328,1.0847558975219727,-2.198904037475586,0.15752717852592468,-2.153751850128174,0.8223462700843811,-1.0683131217956543
movietweetings_recsys2014.csv,-0.070599764585495,0.7566481232643127,0.9146661162376404,1.47048819065094,0.03697873651981354,-1.053727388381958,1.3410404920578003,-1.3989776372909546,-1.1523962020874023,-1.7444716691970825,0.45609980821609497,0.11754927039146423,-0.4194340407848358,-1.1589760780334473,-0.8567753434181213,2.2098331451416016,-0.6483711004257202,0.034603409469127655,0.3931124210357666,0.04485318809747696,1.5027203559875488,-0.29634082317352295,-1.0307012796401978,0.6391990184783936,0.5779262781143188,-0.034361258149147034,-0.07467487454414368,-0.24999277293682098,-0.9726028442382812,-1.0380326509475708,-1.6818466186523438,0.6175180077552795,-0.5439969897270203,0.9893321394920349,0.2916244566440582,0.5097765922546387,0.8950299024581909,-0.4333238899707794,-0.6174576282501221,-0.2483399659395218,0.7289133667945862,-2.208954095840454,0.7352922558784485,-0.4987674355506897,2.069650888442993,0.535392701625824,-1.0846530199050903,0.21258440613746643,-1.2529714107513428,0.351330041885376,0.5500514507293701,-1.2210235595703125,-1.5541256666183472,1.8434761762619019,1.0936566591262817,0.8752723336219788,-0.35207483172416687,1.0614594221115112,-0.7892506122589111,-2.5269031524658203,-0.46080633997917175,0.2865872085094452,0.5052841901779175,-0.5466626286506653,-0.09819625318050385,0.6998394131660461,1.2986881732940674,-0.6423513889312744,-2.9866750240325928,0.09310752153396606,-1.3232455253601074,0.5163850784301758,-1.9394575357437134,-0.5120282769203186,0.8214759230613708,-1.240607738494873,-0.8821661472320557,-0.32536906003952026,0.6075628399848938,-0.44551196694374084,-0.9033539891242981,0.0938776507973671,-0.48662540316581726,0.8387693762779236,0.4758019745349884,-0.08104441314935684,-1.3559798002243042,0.33509352803230286,-0.010678054764866829,0.5732555985450745,1.165777325630188,0.39462316036224365,-1.093192219734192,-0.670228898525238,1.8810421228408813,0.20267543196678162,-0.3602040410041809,-1.286946415901184,0.47011521458625793,-0.3517591953277588
amazon-office.csv,0.4130241572856903,0.18283632397651672,0.4855400621891022,0.332912802696228,-0.5326059460639954,0.7486565113067627,0.7133826613426208,-0.9771360754966736,-1.6288011074066162,-0.4480074942111969,-0.17476826906204224,-0.4754323661327362,0.7010152339935303,-2.1617703437805176,-2.3402774333953857,0.9997138977050781,0.8413152694702148,1.4452903270721436,-0.47481048107147217,0.6262134909629822,0.8586564064025879,0.9369311332702637,-1.2923458814620972,0.18429683148860931,-0.1837589293718338,0.27311667799949646,-0.1448487490415573,0.12506693601608276,-0.5229727029800415,-1.2808970212936401,0.27742815017700195,-0.011682887561619282,-2.211724281311035,1.596165657043457,-0.00038590608164668083,0.8059327006340027,-0.39027851819992065,0.24545370042324066,-1.6618038415908813,-0.3635411858558655,-0.20262664556503296,-0.8443586826324463,-0.5462684631347656,0.29299548268318176,1.4460200071334839,0.48426058888435364,0.09720993041992188,0.858573853969574,-0.743790864944458,-0.5539771318435669,1.1366643905639648,-0.31078630685806274,0.5458428263664246,1.5925356149673462,1.5350606441497803,-0.15269780158996582,-0.725749135017395,-0.28287163376808167,0.4368954300880432,-2.21795654296875,0.1662360280752182,-0.4034731984138489,0.4044225513935089,0.26656773686408997,-0.13672900199890137,-0.49047380685806274,-0.043840374797582626,-2.7387287616729736,-2.776475429534912,-0.27505844831466675,-0.43620502948760986,0.4426752030849457,-2.8482184410095215,-2.047670841217041,-0.41089969873428345,0.5561662316322327,-1.305436134338379,0.7229877710342407,0.7773469090461731,0.7361460328102112,-0.4561130106449127,-0.6871347427368164,0.029226018115878105,1.5535176992416382,-0.16786180436611176,-0.38931211829185486,-0.25823521614074707,-0.20966531336307526,0.5981107950210571,-0.14913150668144226,0.7821988463401794,1.2587189674377441,-0.8341239094734192,-0.9859886765480042,0.29096728563308716,-1.4673386812210083,-0.9884039759635925,-1.2069193124771118,0.20685066282749176,-0.27950888872146606
amazon-games.csv,1.315015196800232,-0.2272970974445343,1.136100172996521,-1.0718239545822144,-0.3544749915599823,0.9195299744606018,0.709515392780304,-1.326899766921997,-1.9531172513961792,-0.28785932064056396,0.6122322678565979,0.7020475268363953,0.4725799262523651,-1.132508397102356,-1.7554526329040527,1.575807809829712,0.4771132469177246,2.1732850074768066,0.23482857644557953,-0.698962926864624,0.560539960861206,0.9766460061073303,-0.5125792622566223,0.25851890444755554,-0.6569081544876099,-0.3127923905849457,-0.6885443925857544,-0.04003876820206642,0.010106387548148632,-0.7811439633369446,-0.44390034675598145,0.7024050951004028,-0.31096553802490234,0.6113765239715576,0.9672523140907288,0.6980125308036804,-0.852598249912262,-1.2864165306091309,-2.3212451934814453,-1.5779895782470703,-0.781108558177948,-1.1258970499038696,0.5029342770576477,1.2450640201568604,2.147163152694702,0.7965515851974487,-0.42706456780433655,0.5090515613555908,-1.5528438091278076,-1.2180246114730835,1.3719398975372314,-0.9948062300682068,-0.6854242086410522,0.7198787331581116,0.8094202280044556,0.320186585187912,-0.17767593264579773,-1.0444129705429077,0.7919831275939941,-0.8506935834884644,0.37271541357040405,-0.25708314776420593,0.569440484046936,-0.09185492992401123,-0.36225175857543945,-0.5059979557991028,0.3873836398124695,-1.2260189056396484,-2.330169200897217,-0.49129828810691833,-1.119789719581604,0.9968417882919312,-1.734433650970459,-3.070992946624756,0.19045446813106537,-0.5747022032737732,-0.6608476638793945,-0.03811325877904892,0.3053832948207855,-0.33037635684013367,-0.9756275415420532,0.4436238408088684,-0.31147173047065735,1.3315751552581787,-0.2085725963115692,-0.23750054836273193,-0.8379972577095032,-0.12413403391838074,-0.21301056444644928,0.0206720232963562,1.8884724378585815,0.46451911330223083,-1.2404946088790894,-0.09243451803922653,1.5242465734481812,-0.5361624360084534,-0.7392992973327637,-1.4111334085464478,-0.7025063037872314,0.08484160155057907
amazon-baby.csv,-0.28316256403923035,0.8833911418914795,2.008369207382202,-0.29032808542251587,-0.4383610188961029,0.3381490707397461,-0.3150007426738739,-0.9502938985824585,-1.5405057668685913,-0.7659724950790405,0.07955899834632874,0.36140403151512146,-0.30231115221977234,-2.51668119430542,-1.4976710081100464,0.7691664099693298,-0.43293946981430054,1.6578675508499146,-2.1025490760803223,-0.37934306263923645,0.13742315769195557,1.1671934127807617,-0.9990203976631165,-0.010651268996298313,0.3078834116458893,0.24139341711997986,-0.024590961635112762,-0.7178617119789124,-0.3460215628147125,-0.5618730783462524,-0.8104243278503418,0.13020877540111542,-0.41420769691467285,0.615436315536499,1.4602692127227783,0.8259717226028442,-1.6541563272476196,-0.7146875858306885,-2.235659122467041,-0.6405656337738037,-0.4516693353652954,-0.2046673744916916,0.20252838730812073,-0.12759338319301605,1.5203696489334106,1.145813226699829,-0.4641641080379486,1.3701361417770386,-1.4026296138763428,-0.31183409690856934,1.308048129081726,-0.51669842004776,-0.6625104546546936,2.077787399291992,-0.4171190559864044,0.9092950224876404,-1.078544020652771,0.3362128436565399,0.9249891638755798,-1.5841678380966187,0.8363540768623352,-0.009678785689175129,0.4007251262664795,-0.17331841588020325,-0.6286434531211853,-0.07348405569791794,0.14128662645816803,-1.0927764177322388,-1.4739649295806885,-0.01450147945433855,-1.092610478401184,1.048324465751648,-2.031873941421509,-2.0090889930725098,0.34319278597831726,0.6536080241203308,-1.0927716493606567,1.2242140769958496,0.7822094559669495,-0.6519554257392883,0.5141775012016296,-0.6842752695083618,-0.14177466928958893,2.5671815872192383,-0.6284923553466797,0.7892460823059082,-0.7291384339332581,0.5711597800254822,0.28135669231414795,-0.7176339030265808,0.9242537021636963,0.2677777409553528,-2.0046613216400146,0.026518043130636215,1.0770540237426758,-0.8309502601623535,-0.562584400177002,-0.7981374859809875,-0.10584506392478943,-0.48228129744529724
amazon-cd.csv,-0.10591355711221695,1.1663966178894043,0.13627079129219055,-0.13757355511188507,-1.6370130777359009,0.07932975888252258,0.7553550004959106,-1.5601121187210083,-1.3280422687530518,-1.1560449600219727,-0.8071516156196594,0.5695555806159973,0.3487604856491089,-0.9171584844589233,-1.4097182750701904,1.1405302286148071,-0.886673092842102,1.1225581169128418,-0.4258916974067688,-0.101719930768013,1.5302194356918335,-0.08373812586069107,-1.9010580778121948,-0.13570226728916168,-0.4128597378730774,0.0013972430024296045,-0.5726175308227539,-0.025306306779384613,0.41340503096580505,-0.13528652489185333,0.04424027353525162,0.1930881142616272,-1.1602118015289307,0.3960420787334442,1.504749059677124,1.6330957412719727,-0.7511277794837952,-1.4874927997589111,-2.4939932823181152,-0.690837562084198,-0.5371290445327759,-1.2306653261184692,-0.17360034584999084,0.6012789011001587,1.0317752361297607,0.09619098901748657,-0.4429585933685303,0.930935800075531,-1.5548197031021118,-0.343646377325058,0.05291364714503288,-0.4100114703178406,0.5268707871437073,0.8279907703399658,1.1167398691177368,1.0434240102767944,-0.7228184342384338,0.8073310256004333,0.6132603883743286,-2.3771421909332275,0.8263314366340637,0.32746341824531555,1.3689723014831543,0.026203962042927742,-0.8587079644203186,-0.5377304553985596,-0.09528196603059769,-1.7054387331008911,-2.057237386703491,1.0375401973724365,0.09335188567638397,1.2166426181793213,-1.0152777433395386,-2.973647356033325,0.31054940819740295,-0.24913091957569122,-0.44759291410446167,0.6764937043190002,-1.0940439701080322,1.2511556148529053,0.48903003334999084,-0.975273072719574,0.630366861820221,1.6238874197006226,-0.40026554465293884,0.20049381256103516,-0.6465787887573242,0.8530746102333069,1.0188720226287842,0.7302464246749878,0.6433849334716797,1.0906010866165161,-0.7435706853866577,-1.4509563446044922,1.2686065435409546,-0.49045905470848083,-0.15676355361938477,-1.2904059886932373,-0.6149643659591675,0.006976576521992683
amazon-instruments.csv,0.005441311746835709,0.9509850740432739,1.2040114402770996,0.2926192283630371,-1.5426197052001953,0.9196783900260925,-0.1255684345960617,-1.571545124053955,-1.6925578117370605,-0.8549257516860962,0.15835577249526978,0.002283035311847925,0.12883837521076202,-1.8361390829086304,-2.2934272289276123,1.6431446075439453,0.18814127147197723,0.9538544416427612,0.37276095151901245,0.4329478144645691,0.8160108923912048,0.9212664365768433,-2.12277889251709,-0.3386048674583435,0.42730969190597534,1.0573493242263794,-0.459333211183548,-0.5696749687194824,-0.459229975938797,-0.7217585444450378,-0.1104561984539032,0.460232675075531,-1.3251471519470215,0.7848289012908936,0.48410552740097046,0.8352522850036621,-1.084967851638794,-0.02673983946442604,-2.105924367904663,-1.3075361251831055,-0.2174757570028305,-0.8014158606529236,0.029905864968895912,-0.20555347204208374,1.2975711822509766,0.6627936363220215,-0.3310199975967407,0.9205339550971985,-0.4022888243198395,-0.38551512360572815,0.12191915512084961,-0.045468106865882874,0.0024905467871576548,2.0827670097351074,1.3521404266357422,-0.022536929696798325,-0.44549667835235596,-0.48226165771484375,-0.5002017021179199,-1.1172752380371094,0.3125762641429901,-0.5519528985023499,0.7138433456420898,-1.07376229763031,-0.38182467222213745,-0.5710160732269287,0.13684535026550293,-1.407248854637146,-1.7961944341659546,0.6871153712272644,-0.9945732951164246,0.10889175534248352,-2.037686824798584,-2.714154005050659,-0.3834226727485657,-0.046190209686756134,-0.7923836708068848,-0.49436062574386597,0.6805340647697449,-0.04082580655813217,0.21562589704990387,-0.015847675502300262,0.46133264899253845,1.840572714805603,-0.6420576572418213,-1.0052151679992676,-1.1106061935424805,1.0083961486816406,0.830115795135498,-0.3484055995941162,1.1804993152618408,1.1609059572219849,-1.4129045009613037,-1.236631989479065,0.8632262945175171,-1.5207651853561401,-0.8740254640579224,-1.7265396118164062,-0.0008577752741985023,-0.6151998043060303
tripadvisor.csv,0.7958062887191772,1.148911714553833,2.218259811401367,-0.24906520545482635,-1.1994603872299194,0.0978807806968689,1.3841807842254639,-0.043733566999435425,-1.7661077976226807,-0.1459718644618988,0.17800728976726532,0.0027790390886366367,-0.09036881476640701,-1.6610549688339233,-1.7945889234542847,1.4528071880340576,0.25133439898490906,1.2570682764053345,-0.02719119004905224,-0.013098605908453465,0.6512147784233093,0.9996084570884705,-1.0493701696395874,-0.48252689838409424,0.48517170548439026,0.030527450144290924,-0.6246846318244934,0.18521897494792938,-0.8600752353668213,-0.836807131767273,-0.9511721730232239,0.7259333729743958,-0.8811410069465637,0.649559497833252,0.4672437906265259,1.185057520866394,-0.28275254368782043,-0.8623058795928955,-1.0923187732696533,-1.2154428958892822,0.6393211483955383,-1.0935543775558472,0.17696566879749298,-0.2674052119255066,1.0862551927566528,-0.7248654365539551,0.12068486213684082,-0.520004153251648,-0.6641177535057068,-0.7972822189331055,0.47505301237106323,-2.0433740615844727,-0.33994144201278687,0.8128824234008789,0.20726247131824493,0.03588782250881195,-0.8196249604225159,-0.04522186145186424,0.5243393778800964,-1.909690499305725,0.6878063678741455,0.8430017232894897,1.6497817039489746,-0.37421444058418274,-0.9664528369903564,-0.2126081883907318,0.9863815903663635,-1.686947226524353,-1.8091357946395874,-0.7032835483551025,-0.08575284481048584,0.9244080185890198,-1.4663670063018799,-3.3565514087677,0.7068566083908081,-0.037277791649103165,-0.6389260292053223,0.38800087571144104,0.07492663711309433,-0.3959946036338806,-0.14998511970043182,-1.129889726638794,-0.4970383644104004,0.5932196974754333,0.16199864447116852,-1.5659141540527344,-2.293826103210449,0.788505494594574,1.0795142650604248,-0.41414788365364075,1.3851701021194458,0.578415036201477,-0.13193906843662262,-1.2502044439315796,0.4592786431312561,-0.7856650352478027,-1.6462469100952148,-0.4340530335903168,-1.5197341442108154,-0.08779013156890869
jester1.csv,0.7790482044219971,0.6147070527076721,-0.027692295610904694,0.9737619757652283,-0.19701240956783295,-0.3302045166492462,0.05883989855647087,-1.2972208261489868,-0.7371782064437866,-0.035853274166584015,-0.2068876028060913,-0.1125190332531929,1.0646963119506836,-2.059880256652832,-1.148356318473816,2.1290314197540283,1.4865124225616455,1.998937726020813,-0.8427825570106506,-0.017923928797245026,0.49898529052734375,1.3388891220092773,-1.2225902080535889,0.28191113471984863,-0.3402651846408844,0.06422852724790573,-0.15690302848815918,0.45233237743377686,-0.07613608241081238,-0.6643914580345154,-0.5738598108291626,0.347497820854187,-1.1427690982818604,0.7327048778533936,-0.14545831084251404,0.6839301586151123,0.963675320148468,-2.432264804840088,-1.909749150276184,-0.4524931013584137,-0.2741338312625885,-1.067405104637146,0.5696004629135132,1.033754587173462,1.4266184568405151,1.2356386184692383,0.9348430633544922,2.4236395359039307,-1.1429805755615234,0.04599935561418533,0.7402530312538147,0.5034658312797546,-1.0878876447677612,0.26884469389915466,-0.3472016453742981,-0.047574274241924286,0.6482831835746765,0.9228537082672119,-1.052294135093689,-1.9049493074417114,0.5833086371421814,0.8543136715888977,0.5145781636238098,-0.06238476186990738,-1.0694682598114014,0.7712725400924683,1.2694677114486694,-0.7913718223571777,-1.4701032638549805,-0.4234195649623871,-0.3273391127586365,-0.6058377027511597,-0.018018947914242744,-0.9019534587860107,1.097693920135498,-1.2173155546188354,-0.7561802864074707,-0.6565288305282593,0.9151234030723572,0.7831541299819946,1.4528340101242065,-0.9436846375465393,0.8879690170288086,1.9848209619522095,0.03796109929680824,-1.2958496809005737,-0.5788288712501526,1.3064721822738647,0.6687284708023071,0.24404756724834442,1.1813805103302002,0.4486679136753082,-1.2818560600280762,0.47237563133239746,1.177823781967163,-1.7892519235610962,-0.8667852878570557,-1.3025617599487305,-0.7967991828918457,-0.0740451067686081
bookcrossing.csv,1.7986313104629517,0.5422335267066956,-0.0469612218439579,0.07012917846441269,-1.4816913604736328,-0.046515412628650665,1.198978066444397,-1.2023601531982422,-0.9925954341888428,0.022997859865427017,-0.4015776515007019,-1.207311987876892,1.3797253370285034,-1.7715264558792114,-2.005718946456909,0.9603168368339539,-0.18539974093437195,0.42017459869384766,-0.43837255239486694,-0.5091699957847595,1.4479143619537354,0.2038474828004837,-1.5542117357254028,1.083103895187378,-0.025954606011509895,0.4958208203315735,-0.8001834750175476,-0.6523327231407166,0.27214479446411133,-1.2314848899841309,0.33231469988822937,-0.7229318022727966,-0.12100670486688614,-0.11461769044399261,1.5286349058151245,1.3272485733032227,-0.2669052481651306,-0.11793552339076996,-1.5581952333450317,-1.296736717224121,0.09309527277946472,0.38174980878829956,-0.08502040058374405,0.6102780103683472,1.8097928762435913,0.31172510981559753,-0.306671679019928,0.6245449185371399,-1.7722923755645752,-0.3183644711971283,0.8932778835296631,-1.1266318559646606,-0.8623079061508179,1.5534998178482056,-0.4685781002044678,0.4248329997062683,-0.2528606057167053,0.697380542755127,-0.18016508221626282,-2.0956404209136963,0.24924850463867188,0.06641525775194168,0.694846510887146,-0.15949037671089172,0.4268406331539154,0.2183925211429596,1.5686508417129517,-1.567895770072937,-1.0228732824325562,0.06224801391363144,-0.03755520284175873,1.2032318115234375,-2.5223195552825928,-2.2220122814178467,-0.22068621218204498,-0.876404881477356,-1.2068283557891846,-0.9760873317718506,0.16765953600406647,0.060751162469387054,0.2501276135444641,-0.9341328740119934,0.4196619987487793,0.9680055379867554,-1.182036280632019,0.7299492359161377,-1.7359025478363037,0.28961002826690674,0.6752355098724365,-0.8178174495697021,1.224084734916687,-0.027615588158369064,-1.5353909730911255,-1.3942463397979736,0.8250888586044312,-1.7036043405532837,-0.7767959833145142,0.16135315597057343,1.1426568031311035,-0.1207139641046524
movielens_latest.csv,0.9155508279800415,-0.0014274590648710728,0.9514482617378235,0.8071197867393494,0.47594374418258667,0.5566591024398804,0.6175955533981323,-0.13899286091327667,-0.2422877550125122,-0.7915698289871216,-0.6689233183860779,0.31582337617874146,0.7164856791496277,-1.43365478515625,-0.5110975503921509,1.0740636587142944,-0.178712397813797,0.3339802026748657,0.9848000407218933,0.3378905951976776,0.45424705743789673,0.523434579372406,-3.3312346935272217,0.12405774742364883,0.21789854764938354,-0.6093955636024475,-0.11973258852958679,-0.6982768177986145,-0.4073701798915863,-0.37698179483413696,-0.609565258026123,1.14495849609375,-1.1615800857543945,0.8821139335632324,0.24216468632221222,0.8511852025985718,0.6580674648284912,-0.06481898576021194,-0.9660208821296692,-0.9090543389320374,-0.6667150855064392,-0.4420674741268158,0.4666152596473694,0.40593045949935913,1.263135552406311,0.10078980028629303,-1.186246633529663,0.49652084708213806,-0.9941745400428772,1.0254215002059937,1.4398502111434937,-1.4131711721420288,-0.288226455450058,2.4247472286224365,0.7649255394935608,0.3010439872741699,-1.1300129890441895,1.0886383056640625,1.7036136388778687,-0.9238804578781128,1.0821088552474976,0.8085833787918091,-0.5872752666473389,-0.4549090564250946,-0.8112463355064392,-0.34648397564888,2.2930729389190674,-1.0923588275909424,-0.37407341599464417,-1.1436020135879517,-0.9742183089256287,-0.8179510831832886,-1.7722333669662476,-1.774095058441162,0.16210663318634033,0.6748011708259583,-0.5279922485351562,-0.6238196492195129,-1.346901297569275,1.0608385801315308,-0.9933567643165588,-1.3196330070495605,1.6713577508926392,1.0597732067108154,-0.040194444358348846,0.24962027370929718,-0.5559913516044617,0.3772743046283722,-0.07995511591434479,0.9346107840538025,-0.09820340573787689,1.0023554563522339,-2.310504198074341,0.047728657722473145,1.577466368675232,-1.3988866806030273,-0.8887898325920105,-1.4672014713287354,-1.5901124477386475,-0.06268995255231857
movietweetings_latest.csv,0.5575697422027588,-0.034002114087343216,1.4957274198532104,-0.3743138313293457,-0.3207874298095703,0.7241003513336182,0.5782232284545898,0.051314886659383774,-0.07001801580190659,-0.5451768040657043,-0.2279444932937622,-0.1693442165851593,0.34954044222831726,-1.8579001426696777,-2.0103094577789307,1.2651782035827637,-0.08029333502054214,1.3223209381103516,-0.736439049243927,-0.07722832262516022,0.6128361225128174,0.7580137252807617,-1.6804062128067017,1.160892367362976,0.5489564538002014,-0.19041936099529266,-0.8690588474273682,0.2879139482975006,-0.730401337146759,-0.7649477124214172,-0.6424258351325989,-0.8287214636802673,0.07069532573223114,0.6948640942573547,2.861233711242676,-0.15030764043331146,0.6219954490661621,-0.06937883794307709,-0.8793659210205078,-0.4643872082233429,-1.2600789070129395,-0.23901210725307465,1.3604927062988281,0.8596134185791016,1.8532298803329468,0.41893765330314636,-0.8918877840042114,1.6913553476333618,-0.8354350924491882,-1.1241387128829956,0.7031630277633667,-1.193382740020752,0.626125693321228,0.6938691139221191,1.5463298559188843,1.3927980661392212,-0.9759365916252136,1.4642317295074463,-0.5436512231826782,-1.3784737586975098,-0.43024271726608276,0.4244220554828644,0.23812279105186462,-1.0670685768127441,-0.9081161618232727,-1.3066598176956177,0.8428791165351868,-0.9873842597007751,-0.9462087750434875,0.2264038324356079,-1.483786940574646,0.6191384792327881,-0.8757093548774719,-1.366805911064148,0.2170969694852829,0.6805652976036072,-2.0729074478149414,0.07655564695596695,0.9441655278205872,0.18762347102165222,-0.3642517924308777,-1.337971568107605,0.9498854279518127,0.35433241724967957,-0.16986313462257385,-0.13110587000846863,-1.6452631950378418,0.8428472876548767,1.200709581375122,-0.12620317935943604,1.5495193004608154,1.933769941329956,0.07550876587629318,-1.0417423248291016,0.6482200622558594,-0.12845759093761444,-1.3859508037567139,-2.059138059616089,0.34302613139152527,-0.6861291527748108
amazon-phones.csv,1.5522302389144897,0.755405604839325,1.5074681043624878,-0.43394866585731506,-0.3213931620121002,0.26214399933815,0.3767731785774231,-1.8741317987442017,-1.3222661018371582,-1.582047462463379,0.5802539587020874,0.10499808192253113,-0.4148779809474945,-1.6775861978530884,-2.529280185699463,0.19107675552368164,0.6107040047645569,1.1725366115570068,0.36744171380996704,-0.1810159534215927,1.4577789306640625,0.9439348578453064,-1.4419353008270264,-0.13619115948677063,-0.036079246550798416,0.07206442952156067,-0.01864323392510414,0.4960825741291046,0.6160692572593689,0.2638261914253235,-0.03049984574317932,0.09672099351882935,-0.6748721599578857,0.6426162719726562,0.22114229202270508,0.8331989645957947,-1.4474512338638306,-1.3496781587600708,-1.3501147031784058,-0.019497010856866837,-0.7932447195053101,-0.6024649739265442,0.493008553981781,-0.951716423034668,0.7556261420249939,0.3535766005516052,-1.3964675664901733,2.0354459285736084,-1.7023274898529053,-0.7157831192016602,0.9299653768539429,-0.601586639881134,-0.6258765459060669,1.5963464975357056,-0.5423855185508728,1.0042107105255127,-1.0107449293136597,0.00682291341945529,-0.13294512033462524,-2.3806138038635254,0.566001296043396,0.41023528575897217,1.7892553806304932,-0.6852836608886719,-0.005235536955296993,-0.08314015716314316,0.41526728868484497,-1.6517030000686646,-1.8631724119186401,-0.45081809163093567,-0.42333653569221497,0.794003427028656,-1.6510679721832275,-1.9995863437652588,0.3237608075141907,0.4793255925178528,-0.9950259923934937,0.6223929524421692,0.42410415410995483,0.32470056414604187,-0.31735923886299133,-0.3844723105430603,0.16708944737911224,1.0103713274002075,-1.4267630577087402,-0.8744202256202698,0.15101656317710876,1.1782861948013306,-0.1323033720254898,-0.5320090651512146,1.1107219457626343,0.5543164610862732,-1.1055638790130615,-0.38522717356681824,1.4603047370910645,-1.3398011922836304,-1.308587670326233,-1.4707930088043213,0.12613804638385773,-0.5391373634338379
amazon-toys.csv,1.0558569431304932,0.1011580228805542,1.2716654539108276,-0.40183359384536743,-0.5949740409851074,0.6311417818069458,0.39066633582115173,-1.047186017036438,-2.089107036590576,-0.7894574403762817,-0.14476880431175232,0.839552104473114,0.6391263604164124,-1.6253303289413452,-2.237963914871216,0.6104029417037964,-0.2914770245552063,1.3633075952529907,-0.25823184847831726,0.10007387399673462,1.6733386516571045,0.12955237925052643,-0.6678597331047058,0.38047438859939575,0.13960376381874084,1.1351827383041382,-0.6063101291656494,-1.1919515132904053,-0.15583162009716034,-1.4365487098693848,0.5644355416297913,0.9051917791366577,-1.298775315284729,1.0757355690002441,-0.12202933430671692,0.27733927965164185,-0.464547336101532,-0.3163968324661255,-2.3638553619384766,-0.9255815744400024,-0.37418246269226074,-1.2917605638504028,0.060488201677799225,0.38642752170562744,1.7515838146209717,0.8260072469711304,-0.76799076795578,0.2641005218029022,-0.5485498905181885,-0.25034433603286743,0.36509406566619873,-0.22048179805278778,-1.3602315187454224,2.2798988819122314,1.6072795391082764,-0.01302682887762785,-0.4307500123977661,0.6117112636566162,-1.104135274887085,-0.8865281939506531,-0.1936091184616089,0.08796539902687073,0.34698885679244995,0.2036241590976715,-0.28236496448516846,-0.14918562769889832,0.492492139339447,-1.593205213546753,-1.841131329536438,0.06421508640050888,-1.1330721378326416,-0.10979745537042618,-1.361615538597107,-2.395491600036621,-0.3124624192714691,0.9172160029411316,-2.8004250526428223,-0.6461416482925415,-0.13987021148204803,-0.12034831941127777,0.24430570006370544,-0.8633441925048828,-0.09067501872777939,0.8879156112670898,-0.8554888963699341,0.0855410173535347,-1.2741827964782715,1.1603827476501465,1.02252197265625,-0.509376585483551,1.3387895822525024,0.37759390473365784,-0.9468331933021545,0.37401896715164185,0.3517412841320038,-0.7662322521209717,-2.0600392818450928,-0.7397192120552063,-0.4498019814491272,-0.7027113437652588
amazon-digital-music.csv,0.8878293633460999,1.3172727823257446,1.0661900043487549,0.0618387907743454,-0.7080579400062561,0.7903416752815247,1.3241509199142456,-1.3236135244369507,-1.2186217308044434,-1.169285535812378,0.3475686311721802,0.11970649659633636,1.2937839031219482,-3.1621339321136475,-2.6600890159606934,0.3029847741127014,-0.09321953356266022,-0.18622025847434998,-0.5750361680984497,0.5712301731109619,0.7875310182571411,0.7633489966392517,-1.8404473066329956,0.28855040669441223,0.5539196133613586,0.3063566982746124,-0.17189696431159973,0.2921319007873535,0.3431277871131897,-0.5516036748886108,-0.12261436134576797,0.43482837080955505,-0.9832279682159424,0.11637549102306366,-0.17870451509952545,1.2110300064086914,-1.0397593975067139,-0.9131736755371094,-2.2356553077697754,-0.6200059056282043,-0.16356821358203888,-0.8679583668708801,0.3820466995239258,-0.22404521703720093,1.627036213874817,-0.03369913250207901,0.5413109660148621,0.8845700621604919,-1.3766028881072998,-0.957976222038269,0.8927659392356873,0.37630411982536316,-0.4394409656524658,1.9685949087142944,0.45499786734580994,0.4331134259700775,-0.4645126461982727,-0.022164348512887955,-0.09314528107643127,-1.215864896774292,0.6290375590324402,-0.6880688667297363,1.0588182210922241,0.1939031481742859,-0.3460889458656311,-0.8547219038009644,0.9307857155799866,-1.1549732685089111,-1.7156269550323486,0.32923147082328796,-1.0287224054336548,1.2519689798355103,-1.4879878759384155,-2.9094109535217285,0.3123273551464081,-0.08990534394979477,-1.1354823112487793,-0.4792661964893341,0.3614040017127991,-0.05882810056209564,-0.8974778652191162,-1.5413005352020264,0.42735132575035095,0.6447323560714722,-0.6243484020233154,-0.4580078423023224,-1.1358708143234253,1.1097865104675293,0.5434810519218445,0.08625233918428421,1.5024038553237915,0.7546723484992981,-1.360708236694336,-0.45646965503692627,0.33691972494125366,-0.6979268789291382,-1.1935878992080688,-0.9632979035377502,-0.03227254003286362,-0.8536996841430664
amazon-beauty.csv,1.02633798122406,1.1809908151626587,1.8042534589767456,-0.2018577754497528,0.014369077980518341,-0.08447371423244476,0.42130422592163086,-1.044022560119629,-1.2458096742630005,-0.7641363143920898,0.5548423528671265,-0.0336524099111557,0.3755864202976227,-1.8395448923110962,-1.8106449842453003,1.4975990056991577,0.6053032279014587,0.49233993887901306,-0.9982920289039612,0.4085765779018402,1.1216204166412354,1.1197952032089233,-1.27472722530365,0.5687669515609741,0.7664217352867126,1.0328748226165771,-0.33310723304748535,0.4276829957962036,-0.7510060667991638,-0.8292228579521179,-0.4392945170402527,0.49932411313056946,-2.6744484901428223,0.3531261682510376,1.540907382965088,-0.41213902831077576,-1.571036696434021,-1.1510440111160278,-1.753881812095642,-1.5039005279541016,-0.5855876207351685,-0.859946072101593,1.023589849472046,-0.105462945997715,0.7039570808410645,0.386827677488327,-0.7587252259254456,1.0607390403747559,-1.2290520668029785,-1.1404322385787964,1.1302531957626343,-0.6239120364189148,-0.03214823454618454,1.3702514171600342,0.8240869045257568,0.1195521280169487,-0.3979553282260895,0.09887738525867462,0.3688448369503021,-1.4588814973831177,1.1926006078720093,0.1968950629234314,0.29470953345298767,-1.0369523763656616,-0.5032579302787781,-0.46546465158462524,1.1142054796218872,-2.0041370391845703,-2.2271010875701904,0.2365971952676773,-0.835155189037323,0.9596229195594788,-1.4296162128448486,-2.5334203243255615,0.16373227536678314,0.1336856484413147,-1.0258216857910156,0.07802411913871765,0.4215210974216461,0.27162477374076843,-0.16764004528522491,-0.7829681634902954,-0.580862820148468,1.2617549896240234,0.2682130038738251,0.05676724761724472,-0.5356993675231934,0.4215906262397766,0.09111706167459488,-0.036304354667663574,2.0351874828338623,0.21266311407089233,-0.9870260953903198,-1.0418736934661865,0.8211479187011719,-1.4372258186340332,-0.7709926962852478,-0.8745065927505493,-0.6511394381523132,-0.02734367549419403
flixter.csv,0.48876845836639404,-0.11810903251171112,1.4846464395523071,0.1228824034333229,-0.8713541626930237,-0.060698069632053375,0.6994550824165344,-0.9849018454551697,-1.5536035299301147,0.3382647633552551,-0.40993109345436096,-0.7698274850845337,-0.2840665578842163,-1.8319740295410156,-2.056180715560913,1.2492344379425049,0.8550354242324829,1.1543278694152832,-0.9079314470291138,-0.6900156140327454,0.851419985294342,-0.10608898103237152,-2.0369181632995605,-1.0292246341705322,-0.9803975820541382,-0.2528006434440613,-2.110189199447632,0.3282462954521179,-0.08894597738981247,-0.5770219564437866,-0.490041583776474,-0.42756208777427673,-1.7770525217056274,-2.410128355026245,0.0060617802664637566,0.5498621463775635,0.6594804525375366,-1.0519086122512817,-1.4367012977600098,-1.1840201616287231,-0.2209421694278717,-1.2843172550201416,0.6355863809585571,0.14684411883354187,1.2991715669631958,1.0435603857040405,0.42156779766082764,1.094701886177063,-0.9220611453056335,0.9507249593734741,0.9522140026092529,-0.5805609822273254,-0.8001487255096436,1.6413317918777466,0.5349331498146057,0.8461077809333801,-1.1546618938446045,1.0853430032730103,0.6356753706932068,-1.1265257596969604,0.8167951107025146,0.6006278395652771,1.0299055576324463,-1.0736572742462158,-0.8811718225479126,-0.60207200050354,1.0844473838806152,0.20924773812294006,-2.259786367416382,0.3473482131958008,-0.538392961025238,0.9965314865112305,-2.3274455070495605,-1.0539509057998657,-0.4597535729408264,0.8836448192596436,-1.5137529373168945,-0.7770628333091736,1.0668195486068726,0.7323950529098511,-0.26914575695991516,0.026188038289546967,0.257977157831192,-0.23400689661502838,0.9639386534690857,-0.2130882740020752,-0.5961570739746094,-0.07314655184745789,0.48562923073768616,-0.9554151892662048,0.6545905470848083,0.9437955617904663,-0.09236371517181396,0.2364620715379715,1.6175618171691895,-1.3433575630187988,0.03027254529297352,-0.8767380118370056,-0.9585134983062744,-0.8307329416275024
movielens10m.csv,1.067641258239746,1.8946213722229004,0.8930004239082336,0.9176747798919678,0.8930123448371887,0.3972235321998596,0.5539894700050354,-0.8136813640594482,-0.48507988452911377,0.8400375247001648,-0.5561991930007935,0.5625015497207642,0.5638699531555176,-0.45380425453186035,-1.5255441665649414,1.2447319030761719,0.7301548719406128,0.8326022624969482,-0.14085699617862701,-1.321620225906372,0.610654890537262,1.6624290943145752,-0.5375812649726868,-0.8319944143295288,0.5177831053733826,-0.019378865137696266,-0.6756033301353455,-0.005565059371292591,0.5820860266685486,-0.5681077241897583,-1.4483858346939087,1.6994240283966064,-2.1139800548553467,-0.060119714587926865,0.8502240777015686,0.21198692917823792,0.4246925711631775,-0.02347954921424389,-1.4905543327331543,-1.9418070316314697,-1.1230820417404175,0.36836230754852295,-0.5988654494285583,0.1555766463279724,1.8484889268875122,-0.6639496684074402,0.7171627879142761,0.8308414816856384,-1.3467520475387573,0.8451986908912659,-0.08845186978578568,-1.1348541975021362,-1.4899187088012695,2.3964667320251465,0.6505434513092041,1.5072509050369263,-1.0943917036056519,0.00930040329694748,0.011795209720730782,-1.7962955236434937,-0.44046616554260254,0.03593042865395546,0.9638718962669373,0.21151135861873627,0.182729572057724,0.2712925672531128,-0.06504318863153458,0.17386510968208313,-1.5175025463104248,0.40557658672332764,-0.23237289488315582,0.5273940563201904,0.20269852876663208,-1.956802248954773,0.967282235622406,-0.336886465549469,-1.473915457725525,0.9156236052513123,0.35495832562446594,1.0357805490493774,-0.016319049522280693,-0.22446179389953613,1.2158416509628296,0.9756936430931091,-0.29735711216926575,0.9250155091285706,-0.8519301414489746,-0.3595489263534546,0.47907233238220215,-0.056539032608270645,1.2426438331604004,1.2807281017303467,-0.7998949289321899,-0.4710420072078705,1.887093424797058,-0.061785582453012466,-1.8317370414733887,-2.373138666152954,-0.35885533690452576,0.7846829891204834
amazon-apps.csv,0.36714017391204834,0.03409157693386078,0.5887238383293152,0.36855000257492065,-1.2653584480285645,0.46190178394317627,1.1795845031738281,-0.8886399865150452,-1.7405328750610352,-0.28506603837013245,-0.988076388835907,0.21312184631824493,0.901628851890564,-2.087419271469116,-1.362464427947998,1.0185377597808838,-0.7340666651725769,0.46979033946990967,0.11579883843660355,-0.6696991920471191,0.5922102332115173,0.39087337255477905,-1.2274727821350098,0.48275333642959595,-0.30683958530426025,0.7495000958442688,0.5420997142791748,-0.3144803047180176,-0.7049049139022827,-0.8360078930854797,-0.8302927017211914,0.3306361138820648,-0.15106186270713806,0.8169791102409363,0.2356368899345398,0.23522038757801056,-0.4120703339576721,-0.5201202630996704,-2.4063832759857178,-0.8645711541175842,0.14733627438545227,-0.0384778268635273,0.27102717757225037,-0.5638515949249268,1.3754056692123413,0.13704034686088562,-0.3292299509048462,1.2560045719146729,-1.6086283922195435,-0.42114683985710144,1.6269357204437256,-0.4835927486419678,-0.6021005511283875,1.361350655555725,-0.0726737454533577,0.5207551717758179,-0.3733882009983063,0.299087256193161,1.0589786767959595,-0.8424175381660461,1.3680397272109985,0.2113601267337799,0.6564005017280579,0.26022717356681824,1.2750247716903687,0.11860121041536331,-0.015987709164619446,-1.0025924444198608,-2.3886635303497314,0.28633907437324524,-1.6500132083892822,0.1538705676794052,-1.7625946998596191,-3.5497732162475586,0.6679611802101135,-0.1948854774236679,-1.1701666116714478,0.5638590455055237,0.4317513108253479,1.0083848237991333,0.7237667441368103,-0.844420850276947,-0.538827657699585,0.4872376024723053,-1.3809292316436768,-0.2152673900127411,-1.8337279558181763,1.2363914251327515,0.25354355573654175,-0.26347827911376953,1.2295571565628052,1.8228400945663452,-0.34343084692955017,0.8356785774230957,1.4593743085861206,-0.4696219265460968,-1.3106739521026611,-1.6124608516693115,0.6081274747848511,-0.7649248242378235
amazon-sports.csv,0.27487537264823914,1.0091131925582886,1.694050908088684,-0.385994553565979,-0.5782514810562134,1.0231432914733887,0.29166749119758606,-1.1185858249664307,-1.5326645374298096,-0.6087058782577515,-0.14394550025463104,0.5848121047019958,1.225969672203064,-1.625190258026123,-1.9307105541229248,1.4231446981430054,-0.3654101490974426,1.1626908779144287,-0.22185179591178894,0.0797639712691307,0.8803421854972839,1.6792019605636597,-1.8488390445709229,0.2079167664051056,0.42788389325141907,0.20423410832881927,-0.4773782193660736,-0.07710647583007812,-1.1602685451507568,-1.2151216268539429,-0.8111108541488647,-0.02050984837114811,-1.2611510753631592,0.5240526795387268,0.23758766055107117,1.4093492031097412,-1.0074193477630615,-0.3809072971343994,-2.2360026836395264,-1.929613471031189,-0.7135714888572693,-1.7403517961502075,0.8501622676849365,0.25301262736320496,1.298839807510376,0.14066560566425323,-0.1346931904554367,0.8772152662277222,-1.4774150848388672,-0.9268331527709961,0.29468247294425964,-0.15025170147418976,-0.37664541602134705,0.8195099830627441,0.6335028409957886,-0.40388962626457214,-0.46319255232810974,-0.31446966528892517,0.4946022629737854,-1.7505279779434204,-0.04931275174021721,-1.6629390716552734,0.4680789113044739,0.24160750210285187,0.8655816912651062,-0.7546451091766357,0.2403080016374588,-1.0985718965530396,-1.3306772708892822,-0.27205154299736023,-0.6362413763999939,0.8265083432197571,-1.8237955570220947,-2.090130090713501,0.2691974341869354,0.2548096776008606,-0.7882681488990784,-0.7193505764007568,0.20692503452301025,0.0656912699341774,1.1671133041381836,-0.4896235466003418,1.320630669593811,0.2778189480304718,-0.30057045817375183,0.004944771993905306,-1.6113208532333374,0.25064605474472046,0.21491475403308868,-0.061892926692962646,1.0330156087875366,0.2600795030593872,-1.1099064350128174,-1.0898240804672241,2.0128285884857178,-2.074547290802002,-0.5357792377471924,-1.6880462169647217,-0.08054082840681076,0.19230471551418304
yahoo-music.csv,0.8573532104492188,0.6165949702262878,0.29998326301574707,1.5069868564605713,-1.246287226676941,0.1804879605770111,2.1404531002044678,-0.7773301601409912,-1.3967374563217163,-0.5110566020011902,-0.46275794506073,0.9562599658966064,-0.29818445444107056,-1.759164571762085,-0.045047078281641006,0.5291674137115479,-0.6858084797859192,1.3691567182540894,0.6824012994766235,0.15929821133613586,0.41708898544311523,0.9172971844673157,-1.797511100769043,0.5782097578048706,-1.6539589166641235,0.8001585006713867,-1.019553780555725,0.08201809227466583,1.0290278196334839,-1.8265131711959839,-1.7475374937057495,0.48936522006988525,-1.9146952629089355,0.8296284675598145,-0.2882549464702606,-0.04642728716135025,0.2289511263370514,-2.0638880729675293,-0.6380667090415955,0.09522025287151337,-0.8828801512718201,-0.7538169026374817,0.34933796525001526,0.18555434048175812,1.0896284580230713,-0.4253136217594147,-1.0257498025894165,0.7952218055725098,-0.44580134749412537,0.1685510128736496,0.6612733602523804,-1.1376025676727295,-1.462539792060852,0.46349242329597473,0.7218592166900635,0.483070969581604,-0.9626563787460327,-0.511956512928009,1.5041167736053467,-1.8545223474502563,0.25149714946746826,0.6452273726463318,0.6405860781669617,-0.4828310012817383,-1.215495228767395,0.10859663784503937,0.9914476275444031,0.16065317392349243,-1.6756311655044556,0.4633220434188843,-0.8599542379379272,0.9105821251869202,-0.13127799332141876,-1.6868596076965332,0.6098222136497498,1.4184890985488892,-0.5517499446868896,-0.6135514378547668,0.4098605215549469,0.02213229052722454,-0.6489415168762207,-0.38491493463516235,1.0930027961730957,1.2182356119155884,-0.7079259753227234,0.33031341433525085,-0.6234630346298218,0.45263275504112244,0.5282945036888123,-0.47679153084754944,2.5243332386016846,0.7489356994628906,-0.24031421542167664,-1.2939542531967163,-0.32970595359802246,-2.4945132732391357,-1.493941068649292,-0.83067387342453,0.685141384601593,-0.2869189977645874
amazon-instant-video.csv,0.8070812225341797,1.5893049240112305,0.7031857967376709,0.36935877799987793,-0.19323448836803436,0.601233720779419,0.39342838525772095,-1.9827505350112915,-2.2250311374664307,-1.3563722372055054,-0.05229748412966728,0.9339157342910767,0.9724653363227844,-0.8445438146591187,-1.5623884201049805,0.9618746042251587,0.2195013165473938,1.333968997001648,-0.5370388031005859,0.0018336063949391246,0.058787379413843155,-0.42599231004714966,-1.195989727973938,0.0013703383738175035,-0.5174379348754883,0.3940742015838623,-0.5340390205383301,0.29313260316848755,-1.4210166931152344,-0.5932177305221558,0.19917121529579163,-0.22578154504299164,-1.5060443878173828,1.310986876487732,1.6539349555969238,0.2356642484664917,-0.24789655208587646,0.753805935382843,-2.0161783695220947,-0.8958517909049988,-1.8862642049789429,-1.5862153768539429,-0.14998245239257812,0.5402635931968689,1.3008538484573364,-0.206571564078331,0.08546599745750427,0.6080377697944641,-1.2505162954330444,-1.2053436040878296,0.6429905295372009,-0.21349261701107025,-0.18742695450782776,1.6582177877426147,0.4336317777633667,0.5991001129150391,-0.4324830174446106,-0.03678831458091736,0.5507155060768127,-1.5396050214767456,0.3519960045814514,0.4262593984603882,0.9934689998626709,0.12902504205703735,-0.21002426743507385,0.38924089074134827,1.0747464895248413,-1.5237058401107788,-1.5685173273086548,-0.8411575555801392,-0.8018699884414673,1.816786289215088,-1.955617904663086,-2.3671536445617676,0.8397697806358337,0.5900444388389587,-1.67568838596344,-1.1457387208938599,-0.06238649785518646,0.43333861231803894,-0.6567456126213074,-0.6815234422683716,-0.019360225647687912,1.3524781465530396,0.21033808588981628,0.41194215416908264,-0.720067024230957,1.276357889175415,0.32386651635169983,-0.5663132667541504,1.1563875675201416,0.8540260195732117,-0.7898389101028442,0.5840854048728943,1.4720776081085205,-1.2801249027252197,-0.9413558840751648,-0.4612511694431305,0.544615626335144,-0.9756839871406555
yahoo-movies.csv,1.585740089416504,1.221877098083496,0.45366281270980835,-0.45821118354797363,-1.2657798528671265,-0.030537854880094528,2.243133783340454,-2.115399122238159,-0.31127408146858215,-0.22082696855068207,0.17959731817245483,0.9336031079292297,1.2150139808654785,-2.6534032821655273,-0.6429773569107056,0.834854781627655,-0.2600440979003906,1.164623498916626,0.4605296850204468,1.362675428390503,-0.0892024114727974,0.46985408663749695,-0.9299108386039734,-0.501226007938385,0.34951871633529663,0.3471272885799408,0.10305442661046982,-0.6761372089385986,-0.6948663592338562,0.050666190683841705,-1.0716489553451538,0.6401429176330566,-0.809916079044342,-0.10739932209253311,0.20373235642910004,0.5213978886604309,0.3057916760444641,0.40304654836654663,-0.884494423866272,-1.902418613433838,-1.5354211330413818,-1.186872959136963,0.0506284162402153,1.3331855535507202,1.4105674028396606,1.250167727470398,-0.1395135223865509,0.808492124080658,-1.0608978271484375,-0.9973808526992798,0.42331355810165405,-1.086970329284668,-0.16362011432647705,0.9259443283081055,0.6463620662689209,0.8700564503669739,-1.0909302234649658,0.8702940940856934,0.15398932993412018,-0.8454819321632385,0.17259414494037628,1.2810356616973877,1.063584327697754,-0.5487879514694214,-1.1054245233535767,0.37102392315864563,0.6419517397880554,-0.09627684950828552,-3.3896892070770264,0.5573994517326355,-0.3758290410041809,-0.11839395761489868,-2.617029905319214,-0.9838067293167114,-0.04674343764781952,-0.23727643489837646,-0.20274443924427032,0.4023328721523285,0.8088312149047852,0.24764953553676605,-0.021659882739186287,-2.138950824737549,0.32182952761650085,0.25404658913612366,-1.7377537488937378,0.21698901057243347,-0.4761676788330078,0.1504552662372589,0.9495786428451538,0.20228269696235657,0.65908282995224,0.5000281929969788,-0.4491722285747528,0.2337283343076706,0.6186304092407227,-1.248610258102417,-0.814987063407898,-1.9651291370391846,-0.42114555835723877,0.5831502676010132
movielens1m.csv,0.6618497967720032,0.7172866463661194,-0.1374761313199997,-0.20853163301944733,0.579211950302124,-0.6396966576576233,0.8373385071754456,-0.5706765651702881,-0.2320995330810547,-0.7865645885467529,0.7431054711341858,0.12912426888942719,0.07024510949850082,-1.9679853916168213,-1.5533173084259033,1.3676339387893677,1.1457393169403076,0.8240948915481567,-1.4682756662368774,-0.5321446061134338,0.20114146173000336,0.5313871502876282,-2.2561838626861572,-1.2824125289916992,-1.2638003826141357,1.4020912647247314,-0.8168985843658447,-0.05324274301528931,-0.6091881990432739,-0.21380369365215302,-0.38768270611763,1.117608666419983,-0.38274261355400085,0.7176592350006104,0.4368666112422943,0.5413731932640076,-0.15227529406547546,-0.820611834526062,-0.38975030183792114,-1.117935299873352,0.005004920996725559,-0.7924209833145142,0.3311447203159332,0.7796652913093567,1.7018158435821533,1.2866774797439575,-0.40790385007858276,0.8074507117271423,-0.7111898064613342,0.8096108436584473,-0.3056868016719818,0.2686057388782501,-1.3002970218658447,1.795819640159607,1.1212928295135498,-0.282844215631485,-0.28537219762802124,0.11347631365060806,0.22092711925506592,-1.3073601722717285,-0.6053562164306641,2.0132429599761963,0.7384456396102905,-0.28172361850738525,0.4848894476890564,-1.103253722190857,1.5715715885162354,-1.6508785486221313,-1.2517801523208618,-0.11730124801397324,-1.4076931476593018,2.7768139839172363,-0.690341055393219,-2.112722158432007,0.5866276621818542,-0.7227904796600342,-0.5417776107788086,0.6832917928695679,0.8521797060966492,-0.033794838935136795,0.27227509021759033,-0.9258372783660889,1.6539353132247925,0.7724975943565369,-0.8074907660484314,0.3645264804363251,-0.8738252520561218,-0.14019879698753357,-0.7332358956336975,0.565298855304718,0.28383126854896545,2.616663694381714,-0.31694623827934265,-0.3215581774711609,0.5541651248931885,-1.3877537250518799,-0.938644528388977,-0.7830187678337097,-0.5435133576393127,-1.66715407371521
movielens100k.csv,0.4836694598197937,1.2869572639465332,0.938197135925293,-1.2649294137954712,-0.822150707244873,1.2925503253936768,0.5068363547325134,-0.584616482257843,-0.710504412651062,-0.5191287398338318,-0.48355504870414734,-1.0450159311294556,-0.2176491916179657,-0.9393845200538635,-0.831488847732544,1.558565616607666,0.36563077569007874,0.4123017191886902,1.023958444595337,1.2332258224487305,-0.36720746755599976,1.2233855724334717,-1.4971240758895874,0.8675393462181091,-1.1085057258605957,0.26926276087760925,-0.35764285922050476,0.7622120380401611,0.8989474177360535,0.13466224074363708,-1.142469882965088,0.26441696286201477,-1.5578757524490356,0.22906742990016937,0.18040306866168976,0.2598092257976532,-0.7139009833335876,-1.4207502603530884,-1.4683579206466675,-0.859312891960144,0.08797081559896469,-1.027544379234314,-1.0175317525863647,0.5467884540557861,2.572965145111084,-0.00443626893684268,-0.2041151523590088,-0.04157138988375664,-0.9022121429443359,0.504564106464386,0.20752787590026855,0.3109988868236542,-0.81007981300354,1.3412578105926514,-0.19585977494716644,0.5295832753181458,-1.7164137363433838,-0.3448708653450012,-0.6618911623954773,-1.6997308731079102,0.1960882991552353,0.38639363646507263,1.7125680446624756,-0.043490421026945114,-0.05790841579437256,-1.0611779689788818,1.715163230895996,-0.8954132795333862,-2.23242449760437,-0.5800039172172546,-1.5279074907302856,0.01636013574898243,-1.0524452924728394,-0.1893433779478073,0.2508838474750519,-0.5952489972114563,-1.0034589767456055,-0.6435062885284424,-0.0928914025425911,1.1848580837249756,1.015353798866272,-1.2970398664474487,0.27741873264312744,0.11221534013748169,0.7096207737922668,0.364116370677948,-0.9280669689178467,0.24684523046016693,1.226840615272522,-0.4623628258705139,0.6080411672592163,2.4658241271972656,-2.049217462539673,-0.6543123722076416,0.9457383155822754,-1.1354855298995972,-1.5697232484817505,-1.8826912641525269,0.030197110027074814,-1.4106544256210327
amazon-home.csv,0.7495936751365662,0.45918819308280945,0.7321335673332214,0.07741411030292511,0.22820664942264557,0.1589631885290146,-0.0829009935259819,-1.2190744876861572,-2.161848545074463,-1.0535171031951904,-0.43501347303390503,0.9387504458427429,1.2227452993392944,-1.941637396812439,-1.786326289176941,0.40783989429473877,-0.2707478106021881,1.0173782110214233,-0.8110908269882202,0.09133115410804749,1.6258583068847656,0.498759925365448,-1.267740249633789,0.3193666338920593,-0.11838746815919876,0.04910712316632271,-0.6227890253067017,0.8232224583625793,-0.407408207654953,-0.8287138342857361,-0.7109712362289429,0.27106595039367676,-1.0022178888320923,0.11145045608282089,-0.5697678327560425,0.6422456502914429,-0.4026776850223541,-0.7840383648872375,-1.9374035596847534,-0.3853965103626251,1.3025588989257812,-0.40047991275787354,0.6466229557991028,0.5597463846206665,2.261582612991333,0.6322746872901917,-0.8100258111953735,0.609562873840332,-0.9726795554161072,-1.512872576713562,0.5046222805976868,-0.6344159245491028,-0.5067725777626038,1.6680060625076294,1.2318389415740967,0.9526162147521973,-0.7973059415817261,-0.5814179182052612,0.22491244971752167,-2.5456364154815674,0.3958478569984436,0.028955817222595215,0.8918589949607849,-0.6346039175987244,-0.7760666608810425,0.03911604359745979,-0.025792568922042847,-1.6132745742797852,-1.4344347715377808,-0.5241560339927673,-0.2213285118341446,0.6758341789245605,-2.055145025253296,-3.091238498687744,-0.38616299629211426,-0.7924476861953735,-1.3628981113433838,0.37110453844070435,0.09785096347332001,0.9613676071166992,-0.49637091159820557,-0.38813674449920654,0.40607506036758423,1.3402258157730103,-1.017338752746582,0.3184729814529419,-0.16403724253177643,0.5874642133712769,0.6573939919471741,0.200057715177536,1.4950780868530273,0.11919034272432327,-0.6119346618652344,-0.11462722718715668,0.929315984249115,-1.42411208152771,-0.8959610462188721,-2.1363658905029297,-0.14278465509414673,-0.4285399317741394
amazon-tools.csv,0.31756046414375305,2.5119218826293945,1.809754729270935,0.7745453119277954,-0.13717438280582428,-0.6584047675132751,-0.10730461031198502,-1.7078864574432373,-0.7215402722358704,-0.6863909363746643,-0.8983539342880249,0.7442762851715088,-0.13059194386005402,-1.5548677444458008,-2.0573320388793945,1.6940268278121948,-0.08759155869483948,1.6093628406524658,-0.3411898910999298,0.75831538438797,1.294420599937439,1.2030633687973022,-1.9514515399932861,0.556705117225647,-0.2790276110172272,0.5214501023292542,-0.5542556047439575,0.40864357352256775,-0.8122155666351318,-0.37950843572616577,0.9008491635322571,0.09443701803684235,-0.5113287568092346,-0.2579619288444519,0.3534742295742035,1.5045216083526611,-0.36755067110061646,-0.36077746748924255,-2.2248241901397705,-1.1232924461364746,-0.5173200964927673,-1.4545594453811646,0.027285665273666382,-0.30067890882492065,1.6122105121612549,0.7184184193611145,-0.23343628644943237,0.8836215138435364,-0.9847825169563293,-0.4622361958026886,1.237105131149292,-0.025224721059203148,-0.12891757488250732,1.4604164361953735,0.6555955410003662,0.9830970764160156,-0.6535513401031494,-0.11514471471309662,0.21067418158054352,-0.7953481674194336,0.9578184485435486,-0.2588127851486206,0.785014808177948,-0.4717826545238495,-0.276700496673584,-0.17287977039813995,0.5718831419944763,-1.8671492338180542,-1.7021764516830444,0.8260381817817688,-0.7805985808372498,1.0032485723495483,-1.3489415645599365,-2.2118704319000244,-0.9842731356620789,0.5253542065620422,-0.2975854277610779,-0.066512830555439,1.0437021255493164,0.16728638112545013,0.27401214838027954,-0.3315608501434326,0.12777571380138397,0.9925541281700134,-1.3624452352523804,-0.047071751207113266,-0.41509580612182617,0.9978405833244324,0.4122539460659027,0.08375819027423859,1.5160831212997437,1.4332504272460938,-1.3269968032836914,-0.7192835211753845,1.2301197052001953,-0.8416728377342224,-1.0784204006195068,-1.927261471748352,-0.4905393421649933,-0.0569753460586071
amazon-food.csv,0.35650119185447693,1.6850290298461914,0.5325329899787903,-0.11536265909671783,-1.035345196723938,0.015918755903840065,0.1729261726140976,-0.7325326800346375,-1.6332143545150757,-0.8631643652915955,-0.2538997232913971,0.3803313672542572,0.02965370938181877,-2.715869188308716,-0.9572577476501465,1.1711560487747192,-0.3559545576572418,0.12353354692459106,0.17493805289268494,0.3415687680244446,0.06454693526029587,1.013418436050415,-0.8261243104934692,0.7363003492355347,0.46732500195503235,1.2725155353546143,-1.0261878967285156,-0.3206150531768799,-0.7149441242218018,-0.2061038464307785,0.7257753014564514,0.8298884034156799,-0.9024289846420288,-0.14163996279239655,0.7928103804588318,-0.05819186940789223,-0.5195251703262329,-0.7632546424865723,-2.0183777809143066,-0.804256796836853,-0.738135814666748,-0.691250205039978,-0.18056336045265198,-0.4834747314453125,1.3736119270324707,-0.13613799214363098,-0.5291019082069397,0.586300790309906,-1.3786157369613647,0.21612641215324402,0.5216081142425537,-0.09723034501075745,-0.5788303017616272,1.535454273223877,0.540093719959259,0.538539469242096,0.1388276070356369,-0.5846921801567078,-0.11053171008825302,-2.059199333190918,0.7716450095176697,1.103623867034912,0.10225861519575119,-1.035218596458435,0.06323904544115067,0.014720861800014973,1.2613227367401123,-2.101072311401367,-2.648836374282837,-0.4120888411998749,-0.20651832222938538,0.9419161677360535,-2.5552992820739746,-2.5742995738983154,-1.0021454095840454,-0.2360749989748001,-1.2426594495773315,1.0088869333267212,0.05901841074228287,0.013897201046347618,-0.015820704400539398,0.3413568437099457,0.24401555955410004,0.9120801091194153,-0.06872878968715668,-0.7213142514228821,-1.4229626655578613,0.431276798248291,0.14514556527137756,-0.9807974100112915,1.4414329528808594,0.38913607597351074,-1.6450029611587524,0.0204888004809618,1.303911566734314,-2.07307505607605,-1.007559895515442,-1.677419662475586,-0.05821199342608452,0.4828660488128662
jester3.csv,0.8363404273986816,1.3918485641479492,0.4857487380504608,-0.33125564455986023,-0.05550619587302208,-0.4185691773891449,-0.5227992534637451,-1.3441648483276367,-0.4664149880409241,-0.3811757266521454,-0.3188346326351166,0.4828396737575531,0.7048822045326233,-2.84454345703125,-0.7616959810256958,0.8577008247375488,-0.11338254809379578,0.6989045143127441,0.342923641204834,-0.3858996629714966,1.8161544799804688,0.8111669421195984,-2.9734270572662354,-0.46275627613067627,-0.5326831936836243,-1.0753037929534912,-0.37211552262306213,-0.05006314069032669,-0.09430332481861115,-1.1733860969543457,-0.9206793308258057,0.8496138453483582,-0.6214128136634827,0.4329471290111542,0.9881285429000854,0.5165569186210632,-0.32585254311561584,0.16838857531547546,-1.4387297630310059,-1.4499444961547852,-0.8100702166557312,-0.0044197929091751575,-0.6515384912490845,1.7001378536224365,0.7558163404464722,0.6870816946029663,-1.5023773908615112,0.7622111439704895,-0.1232210025191307,1.2669076919555664,0.5110768675804138,-0.36517512798309326,-1.0228115320205688,-0.34740975499153137,0.7009187340736389,-0.014321469701826572,0.47619742155075073,-0.34907469153404236,0.9888752698898315,-2.5286080837249756,0.2451123297214508,-0.585457444190979,0.21056972444057465,-0.21582747995853424,-0.2329261749982834,-0.15890641510486603,1.671633243560791,-0.9601252675056458,-2.7549750804901123,0.307874470949173,-0.0924876257777214,1.670508861541748,-1.046261191368103,-1.3096529245376587,0.6629371047019958,-0.7460777163505554,-1.9660797119140625,-0.0841548964381218,1.2430124282836914,0.8371444940567017,0.3361527621746063,-0.726472795009613,0.02202032506465912,0.49841272830963135,0.3678548336029053,-0.5888985991477966,-0.46915581822395325,0.8942629098892212,2.170475721359253,-0.8439029455184937,1.14352285861969,0.8954528570175171,-0.175294429063797,0.0021046109031885862,0.8803423643112183,-0.3179129660129547,-1.3246031999588013,-1.320134162902832,-1.1033711433410645,-0.47786790132522583
