amazon-health.csv,0.893337607383728,1.3061074018478394,1.2774664163589478,0.1845606118440628,1.4867337942123413,-0.6020171642303467,-1.0072379112243652,1.1453659534454346,-0.3631393313407898,0.343613862991333,-0.33089202642440796,0.5380551815032959,2.2247607707977295,1.3169095516204834,-1.3554103374481201,-1.4157404899597168,1.3706564903259277,-0.23760610818862915,0.4460132122039795,0.09975035488605499,-0.03872612118721008,1.3241686820983887,0.4606207013130188,0.8940315842628479,-1.7638218402862549,-0.1997501105070114,-1.041581392288208,-0.3875953257083893,-0.6081094741821289,1.8051269054412842,-1.568696141242981,-0.025484608486294746,0.28172245621681213,-0.3596888482570648,0.1530405580997467,-0.49698081612586975,-0.9307518601417542,-0.8896040916442871,1.3075227737426758,0.1997489035129547,-0.1702485978603363,0.39406758546829224,-0.7625373601913452,-1.7023640871047974,0.35869237780570984,-0.5205140113830566,-0.6956605315208435,1.9758599996566772,-0.8364555239677429,-1.1545718908309937
amazon-garden.csv,2.4352805614471436,0.745549738407135,1.4065858125686646,-0.046038053929805756,1.8310151100158691,-0.45713406801223755,-0.575419545173645,1.444001317024231,0.5463531613349915,-0.9694105982780457,-0.6486832499504089,0.41104018688201904,1.7207976579666138,0.1782165914773941,-1.2733005285263062,-1.8709919452667236,1.0167289972305298,-0.20133136212825775,0.34958338737487793,-0.2531716227531433,-0.16607172787189484,1.4958703517913818,0.31456685066223145,0.36630627512931824,-1.1661803722381592,-0.8574634194374084,-0.6322622895240784,0.3278105556964874,-0.548594057559967,-0.0924510806798935,-1.008005976676941,-0.2389204204082489,-0.28207269310951233,-0.17165733873844147,-0.6372735500335693,-0.33437585830688477,-1.8165892362594604,-0.44607293605804443,0.24469022452831268,0.1705840677022934,-0.030811065807938576,0.013395433314144611,-1.3977994918823242,-0.7641735672950745,0.17948925495147705,-0.8258144855499268,-0.9513280391693115,2.858614206314087,-0.0867229551076889,-1.1471943855285645
amazon-kindle.csv,0.8701101541519165,1.3930171728134155,2.3161613941192627,0.09755445271730423,1.3907253742218018,0.5503187775611877,-1.0645265579223633,2.082495927810669,-0.8401334881782532,0.7402765154838562,0.14131201803684235,1.0333977937698364,2.0223636627197266,0.7373210191726685,-0.7215859293937683,-2.1517229080200195,1.8108577728271484,-0.5313101410865784,0.8631938099861145,0.38130462169647217,0.30730947852134705,0.8607200980186462,-1.1571524143218994,-0.3855789005756378,-0.7902460098266602,0.00953765120357275,-0.7677898406982422,0.19579307734966278,0.22281229496002197,0.6168532371520996,-0.45117345452308655,0.45742034912109375,0.2589946687221527,-0.9509302973747253,-0.46063992381095886,-0.3176427483558655,0.283672571182251,-0.5212528109550476,1.155741572380066,-0.3166707456111908,-0.3082430958747864,0.19677627086639404,-1.3715192079544067,-0.9871471524238586,-0.16410215198993683,-0.9504512548446655,-1.4505212306976318,1.9571723937988281,-0.3765888810157776,-0.39569392800331116
amazon-pet-supplies.csv,0.9883930087089539,0.8257370591163635,2.287135601043701,0.49884533882141113,0.4301769435405731,0.6126524806022644,-1.4683407545089722,1.1923348903656006,-0.13982973992824554,0.0967908576130867,-1.2326862812042236,0.3544595241546631,2.317361354827881,-0.4197198748588562,0.08893939107656479,-1.3497320413589478,2.330270290374756,-0.1150897815823555,-0.1124434769153595,-0.07817064970731735,-0.10556861758232117,0.44273024797439575,-0.7507376670837402,0.748534083366394,-1.0699273347854614,-0.8155438303947449,0.044469982385635376,0.468845397233963,-0.6171769499778748,0.8268861770629883,-0.10068432986736298,0.643592357635498,0.46040889620780945,-1.388032078742981,-0.3158612549304962,-0.8401214480400085,-1.7471745014190674,-0.1864444762468338,1.2643139362335205,0.48830312490463257,0.4975522458553314,0.25997182726860046,-0.06870554387569427,-1.5599589347839355,0.053394436836242676,-0.7864415645599365,-0.9506223797798157,2.361541271209717,0.4924149215221405,-1.1803183555603027
yelp.csv,-0.10068534314632416,0.4321291148662567,0.9699898362159729,0.7146209478378296,0.3305783271789551,-0.21107988059520721,-0.28398019075393677,1.8934826850891113,-0.4135180115699768,1.4541733264923096,-0.3076690137386322,1.1574406623840332,2.329897403717041,0.650745689868927,0.36304059624671936,-2.1782429218292236,1.9023669958114624,-0.37323513627052307,0.18280823528766632,0.20450495183467865,0.8127425909042358,1.525447130203247,-0.16546650230884552,0.336687296628952,-0.4821434020996094,0.44345271587371826,-0.18258465826511383,-0.6777570247650146,-0.2970729172229767,1.2382692098617554,-1.2221873998641968,1.143559217453003,-0.5147373080253601,-0.06339248269796371,-0.20222917199134827,-0.6716728806495667,-1.413011074066162,-0.5249175429344177,-0.07187909632921219,0.3743537664413452,0.11081211268901825,0.156328484416008,-1.2001452445983887,0.3258180320262909,0.021468792110681534,0.14711180329322815,-1.25926673412323,2.543813705444336,-0.6844569444656372,-2.1137070655822754
amazon-clothes.csv,1.1267526149749756,1.103098750114441,1.7810912132263184,-0.45514634251594543,1.49787175655365,-0.1405833512544632,0.09303262084722519,1.9530836343765259,-1.0667219161987305,0.06738763302564621,-0.31458523869514465,-0.02172088995575905,1.6866244077682495,1.033564567565918,-1.2692333459854126,-1.0369642972946167,2.45660662651062,-0.07607509940862656,0.32235750555992126,0.5591996312141418,0.5338847041130066,1.0903350114822388,-0.6929840445518494,0.5637844204902649,-1.4540023803710938,-0.16697567701339722,0.23076851665973663,-0.7906222343444824,-0.47908908128738403,1.2365199327468872,-0.36935433745384216,-0.1256716400384903,0.3904983401298523,-0.19319948554039001,-0.5435059666633606,-0.947856605052948,-1.1012417078018188,-0.33715561032295227,1.3874776363372803,0.0037305078003555536,0.6593713164329529,0.4795750379562378,-0.585662841796875,-1.4811257123947144,0.09868761897087097,-0.6568537950515747,-1.2151697874069214,2.5438249111175537,-0.4237529933452606,-0.5840157270431519
movielens20m.csv,0.7512962222099304,-0.27891120314598083,-0.14917947351932526,0.6274515390396118,0.1764688640832901,1.3583904504776,-0.35800084471702576,0.49376359581947327,-0.6367775797843933,-0.5614222288131714,0.763534665107727,0.6519156098365784,1.2981741428375244,0.10502956062555313,-0.5067505836486816,-1.7021080255508423,2.4380581378936768,-0.8542768359184265,1.8761101961135864,-0.633582592010498,-0.5014702081680298,0.1580844521522522,-0.20789259672164917,0.5218257308006287,-1.8002469539642334,-0.351886510848999,-1.2798439264297485,-1.087125301361084,-0.7820216417312622,0.4270029067993164,-0.06046590954065323,0.517638623714447,0.981256902217865,-0.01725863292813301,0.0741150975227356,-1.5671991109848022,-0.72552490234375,0.10381949692964554,0.9927700161933899,0.9595037698745728,-0.36296871304512024,-0.23598483204841614,0.33102506399154663,-1.815958857536316,-0.16130079329013824,-0.5502547025680542,-1.416391372680664,2.5374624729156494,-1.000815510749817,-1.5617926120758057
jester2.csv,0.23540981113910675,0.7661172747612,0.23730021715164185,0.650855302810669,2.2703959941864014,0.04815801978111267,-1.5036520957946777,0.6442897915840149,0.5641157031059265,0.41727176308631897,0.32036036252975464,-0.6335233449935913,1.763102412223816,0.10820063203573227,-0.7484550476074219,-0.9284409880638123,1.009358525276184,-0.7103883624076843,0.38851627707481384,-0.5260270833969116,0.0023513531778007746,1.485997200012207,-1.5145667791366577,0.34551361203193665,-0.7388854622840881,-0.4550669491291046,-0.24735242128372192,-0.6594114899635315,0.003850264474749565,1.283739447593689,0.4148563742637634,0.27686434984207153,2.0105080604553223,-0.414553165435791,-1.0358073711395264,-0.214745432138443,-1.5604240894317627,-0.06817401200532913,0.09137711673974991,1.2405723333358765,-1.2511653900146484,0.7256335616111755,-0.9616511464118958,-1.3903757333755493,-0.2608864903450012,0.6032079458236694,-1.2223913669586182,2.8740389347076416,-0.011293291114270687,-1.1538046598434448
amazon-automotive.csv,0.2817489802837372,1.3353779315948486,1.3319194316864014,-1.7818135023117065,0.37760862708091736,-0.07363278418779373,-0.8418561220169067,1.1148419380187988,0.19566494226455688,-0.3392007350921631,-0.19723725318908691,0.29963135719299316,2.5770599842071533,-0.2398742288351059,-1.6968544721603394,-1.5900182723999023,2.343459129333496,-0.9452237486839294,-0.5182240009307861,-0.666248619556427,0.4333495497703552,0.8972949385643005,-0.1183721274137497,0.7937535047531128,-2.0016539096832275,-0.6200680136680603,0.16633673012256622,-0.5275800824165344,-0.19424103200435638,0.8720442056655884,-1.0749849081039429,0.48088979721069336,-0.09432487934827805,-0.16916850209236145,0.43652796745300293,-0.2705167233943939,-1.251259207725525,-0.14216762781143188,1.0245425701141357,0.7751251459121704,-0.06996132433414459,0.54298996925354,-0.6878016591072083,-0.4202285706996918,0.35440972447395325,0.0007752725505270064,-1.58758544921875,1.9865773916244507,-0.030103515833616257,-1.4154025316238403
amazon-movies.csv,0.215848907828331,0.09706752002239227,0.9083632826805115,0.05658596009016037,0.47988444566726685,-0.15700902044773102,-1.4605576992034912,1.2892481088638306,-0.22266969084739685,-0.9373205304145813,-0.07010848820209503,0.9479209780693054,1.3274868726730347,0.880486249923706,-0.39928483963012695,-1.325498104095459,1.3129276037216187,1.3889544010162354,-0.2917761504650116,-0.6567240357398987,-0.34513211250305176,1.0079576969146729,-0.1832343190908432,0.24661923944950104,-1.2818632125854492,0.3578249216079712,-0.6786779165267944,-0.4741416275501251,-0.831508457660675,1.249427318572998,0.040453314781188965,0.12036681175231934,0.2684335708618164,-0.3621847629547119,-0.9099900126457214,-0.24786114692687988,-1.5358059406280518,-1.5705853700637817,2.278716802597046,0.42360907793045044,0.26674550771713257,0.2231932282447815,-1.5406073331832886,-0.9519698619842529,-0.14855127036571503,0.36302176117897034,-1.2287567853927612,3.349907159805298,0.37644845247268677,-0.9682940244674683
movietweetings_recsys2014.csv,0.690138578414917,1.7093440294265747,1.8170840740203857,0.5707452297210693,0.264695405960083,-0.44942227005958557,-0.8711643815040588,-0.42730143666267395,-0.6377734541893005,-0.6318823099136353,-0.13918064534664154,2.1520869731903076,2.097149610519409,0.444400817155838,-0.3167755603790283,-1.3559434413909912,1.8437678813934326,0.051998578011989594,0.11432016640901566,-1.1737500429153442,0.4558165669441223,1.7608957290649414,-0.0027165731880813837,-0.16191932559013367,-0.97983717918396,0.40928220748901367,0.4754221439361572,-0.12841546535491943,-0.1556079387664795,0.05398303270339966,0.4789450466632843,1.1552506685256958,0.18103913962841034,0.48621290922164917,-0.2821836769580841,-0.2725055515766144,-1.1171187162399292,-0.2939281761646271,0.5574756860733032,0.08815177530050278,-1.5792282819747925,0.06294462084770203,0.6471671462059021,-2.0143933296203613,0.2711595296859741,-0.4630468785762787,-1.5889111757278442,2.1887388229370117,0.38353875279426575,-1.3710376024246216
amazon-office.csv,0.2641269564628601,0.866981565952301,1.115803837776184,0.19172655045986176,-0.11875268071889877,-0.3897296190261841,-0.6569416522979736,1.4030400514602661,0.13277515769004822,-0.11302667111158371,-0.04053422436118126,0.8519226908683777,1.6814335584640503,0.853661835193634,-2.158069372177124,-2.2727982997894287,1.2511953115463257,-0.9761477112770081,1.04215669631958,-0.34398603439331055,0.07256592810153961,0.614213764667511,-0.33961132168769836,-0.06364453583955765,-1.4955904483795166,0.21222886443138123,-0.08618023246526718,-0.08271704614162445,0.36571964621543884,0.18994981050491333,-0.3636193871498108,0.5283424854278564,0.06271720677614212,-1.0927327871322632,-0.4264340400695801,-0.5066848993301392,-1.9409661293029785,0.3449709415435791,0.884920597076416,0.23387722671031952,0.8711124658584595,-0.1278848648071289,-1.4604709148406982,-2.1197125911712646,0.045143865048885345,0.33695855736732483,-0.9597890377044678,3.0405073165893555,0.21444055438041687,0.05078635364770889
amazon-games.csv,0.6706116199493408,1.253124713897705,1.655074954032898,0.12326057255268097,0.22578145563602448,-0.20368275046348572,-0.34972041845321655,0.19203923642635345,0.19396249949932098,0.46417009830474854,0.25016218423843384,1.3271212577819824,2.3521595001220703,-0.19878308475017548,-1.2199456691741943,-1.5723192691802979,1.6950020790100098,-0.502135157585144,0.14097751677036285,1.313279390335083,-0.49457937479019165,2.009531021118164,-0.5126901268959045,1.4773494005203247,-1.4861366748809814,-0.6153583526611328,-0.2866789698600769,-0.33708491921424866,-0.2551409900188446,0.4342584013938904,-0.5777824521064758,-1.1457363367080688,0.3800334632396698,-0.7744911313056946,-0.03981242701411247,-1.2346364259719849,-0.6077415347099304,-0.260175496339798,1.3419135808944702,0.3794451653957367,0.3814886808395386,0.6004773378372192,-0.41404497623443604,-0.7544679641723633,0.004249305929988623,-0.3008449375629425,-0.20288601517677307,3.2960102558135986,-0.21897828578948975,-0.37551796436309814
amazon-baby.csv,0.7937798500061035,-0.024779682978987694,1.8348746299743652,-1.1159844398498535,0.025292854756116867,0.7301030158996582,-0.6879627108573914,1.464854121208191,-0.39423370361328125,1.3337862491607666,-1.011372685432434,0.3824123740196228,2.307392120361328,-0.2429538369178772,-0.12087763100862503,-1.5318282842636108,1.5529347658157349,-0.9468784332275391,0.11825934052467346,0.26644161343574524,0.8543232083320618,0.31101319193840027,-0.2755883038043976,-0.038276806473731995,-1.7270901203155518,-0.05138683691620827,-0.9322255253791809,0.30950483679771423,0.5557330846786499,0.34289029240608215,-0.5610134601593018,-0.7851976752281189,0.5503214001655579,0.5355544090270996,-0.5472989082336426,0.03998637571930885,-1.2696746587753296,-0.6700541377067566,0.5583178997039795,0.2495899349451065,-0.5372858047485352,0.43847498297691345,-1.4192276000976562,-1.4538166522979736,-0.8400825262069702,-0.17656077444553375,-1.5229066610336304,3.0515410900115967,-0.908245861530304,0.15453849732875824
amazon-cd.csv,0.15012845396995544,1.1996080875396729,0.8443954586982727,0.223110169172287,1.0634574890136719,-0.9156984686851501,-0.31971031427383423,1.0330417156219482,0.564952552318573,0.36923450231552124,0.166396364569664,0.5838577747344971,2.07047700881958,-0.37710344791412354,-0.41403061151504517,-1.07668936252594,2.3025052547454834,-0.5849288702011108,0.6784083843231201,0.2911798059940338,0.21511361002922058,-0.1879928559064865,1.0041261911392212,0.5266773700714111,-0.250566303730011,-0.8942980766296387,0.4085735082626343,0.298451691865921,0.8437061309814453,1.3668322563171387,0.18941518664360046,0.7702898383140564,-0.6221606731414795,-1.0169471502304077,-0.2136329710483551,-0.749738872051239,-1.8861035108566284,-1.2325353622436523,1.416452169418335,0.1600521206855774,-0.6296209096908569,0.7312160730361938,-0.8413620591163635,-0.9867115616798401,0.0020679787266999483,-0.9501403570175171,-1.4375286102294922,3.248769521713257,-0.796988844871521,-0.5099738836288452
amazon-instruments.csv,1.090693473815918,0.22937898337841034,1.59940767288208,-0.2345801442861557,0.6389883756637573,-0.14783193171024323,-1.347514271736145,1.278535008430481,0.5226765871047974,0.3031594753265381,0.20027099549770355,0.2276267409324646,2.60685396194458,1.4472506046295166,-0.9591067433357239,-1.7470667362213135,2.1214842796325684,-0.3946986496448517,0.08288125693798065,-0.4017259180545807,-0.7245660424232483,0.23438504338264465,-0.31344300508499146,0.2544355094432831,-1.4235429763793945,-0.0014090228360146284,0.3022920489311218,-0.8517730236053467,0.16922254860401154,0.6223567724227905,-0.8908262848854065,-0.28858569264411926,0.6597204804420471,-0.7653830051422119,-0.36589017510414124,-0.298650324344635,-1.7399131059646606,-0.2911876142024994,1.367498517036438,-0.45268407464027405,0.2995947003364563,0.44596531987190247,-1.1374855041503906,-1.921127438545227,0.3141416311264038,-0.6714322566986084,-1.077647089958191,2.1226003170013428,-0.5827751159667969,-0.9902101159095764
tripadvisor.csv,1.7857139110565186,0.8402724266052246,-0.04585753753781319,-0.003653007559478283,0.8935042023658752,0.1349623054265976,-0.6334212422370911,1.5318491458892822,0.42434751987457275,0.38704171776771545,-0.3306548595428467,1.2995117902755737,2.6310219764709473,0.9578495025634766,-0.9454265236854553,-2.1689651012420654,1.579888105392456,-0.1236916109919548,-0.9484683871269226,0.3982981741428375,0.4301764965057373,0.6247543692588806,-0.1901915818452835,1.5634946823120117,-0.03879459574818611,0.2832975685596466,-1.1787992715835571,-0.4230717122554779,0.7395637035369873,1.66885507106781,1.0236116647720337,0.16683267056941986,-0.2620123326778412,-0.11222779750823975,0.020459981635212898,-0.4310457706451416,-0.9885627031326294,-0.8637585043907166,0.41394785046577454,0.5610423684120178,-0.007198682054877281,0.1370634287595749,-0.04958638548851013,-1.9740214347839355,1.2641441822052002,-0.6746669411659241,-0.8744588494300842,2.160004138946533,0.5853622555732727,0.2607879042625427
jester1.csv,1.4540859460830688,1.29172682762146,1.4981863498687744,-0.09935116022825241,2.037182331085205,-0.33986666798591614,-0.02881186082959175,1.1627832651138306,0.2093818038702011,-0.14096052944660187,-0.27998086810112,1.3615543842315674,1.2403444051742554,0.6252242922782898,0.3400893211364746,-1.3788448572158813,0.6597874760627747,-0.4412708282470703,0.06618232280015945,-0.9472552537918091,-0.04092280939221382,0.6562715768814087,-0.9877646565437317,0.7409289479255676,-2.19826340675354,0.14239490032196045,-0.5340015292167664,-0.5263775587081909,0.10899095237255096,1.2585563659667969,0.4500344395637512,-0.009339489042758942,1.2315983772277832,-0.9211558103561401,0.6708379983901978,-1.3916250467300415,-1.4686790704727173,0.35841038823127747,0.6776119470596313,1.1505813598632812,-0.410723477602005,0.4664551317691803,-0.2778184711933136,-0.40193772315979004,-0.9707903861999512,-0.6663223505020142,-1.9010556936264038,2.2391576766967773,-0.8453767895698547,-1.2351070642471313
bookcrossing.csv,1.5462409257888794,1.615700125694275,0.7029846906661987,0.33233267068862915,0.23091506958007812,0.49759387969970703,-0.02792605385184288,2.054687023162842,-0.8542927503585815,0.8704439401626587,0.1705254316329956,0.6790707111358643,2.146243095397949,1.0653302669525146,-0.9390420317649841,-1.0174521207809448,2.1025612354278564,-0.05035152658820152,1.025978684425354,-0.5490297675132751,0.7768679261207581,0.12249235808849335,0.10926546156406403,0.3962557315826416,-1.2431764602661133,0.34665849804878235,0.3542768955230713,1.133496880531311,-0.6496111154556274,1.1296437978744507,-0.23909637331962585,-0.03625078126788139,1.2241322994232178,0.05439731851220131,0.4378761649131775,-0.9944840669631958,-1.2167381048202515,0.16775104403495789,1.324987530708313,0.6756303310394287,-0.41506433486938477,-0.32013481855392456,-1.7577084302902222,-0.9200085997581482,-0.10220830142498016,0.06149771064519882,-0.8986204266548157,2.0800998210906982,1.2364846467971802,-1.2434371709823608
movielens_latest.csv,1.2157838344573975,0.5751804709434509,0.7796040773391724,-0.5251452326774597,0.10948914289474487,-0.23803174495697021,-1.3199304342269897,0.7443676590919495,0.46214741468429565,-0.6066933274269104,0.20033107697963715,-0.44835665822029114,1.3408961296081543,1.6586896181106567,0.6183368563652039,-2.1964917182922363,0.6253678798675537,-0.1087469831109047,0.013074624352157116,0.5335355997085571,-0.04665722697973251,1.3772027492523193,0.2940347194671631,0.5916702747344971,-0.7143251299858093,-0.5462324023246765,0.057509712874889374,0.9240809679031372,0.0982917919754982,1.2662911415100098,-0.05421868711709976,1.4194412231445312,0.962261438369751,-0.2021835446357727,-0.2303064912557602,-0.7149755954742432,0.3000216484069824,1.2064313888549805,1.050922155380249,0.5239912867546082,-0.1889379322528839,-0.25257378816604614,-0.5468553900718689,-1.4386072158813477,0.12463848292827606,-0.6443423628807068,-1.6398922204971313,3.515225887298584,-0.5427262187004089,-1.8299278020858765
movietweetings_latest.csv,1.160139560699463,1.2033013105392456,-0.5964483618736267,-0.9541637897491455,0.9701739549636841,0.9604917168617249,-0.580310583114624,0.025613266974687576,-1.458296775817871,0.16820605099201202,-0.5401409268379211,1.5545945167541504,1.8610416650772095,0.06392771005630493,-0.09180068224668503,-0.7111958861351013,0.8950290679931641,0.23592716455459595,0.1297699362039566,-0.748887300491333,0.5535632967948914,0.6579036712646484,-0.6434904336929321,0.030126800760626793,-0.6640644073486328,0.37575265765190125,0.21513444185256958,-0.17898598313331604,-0.07773318886756897,1.5487388372421265,-1.039298415184021,-0.02125200256705284,0.8200469017028809,-1.5115132331848145,-0.1745256781578064,-1.2608619928359985,-1.2670477628707886,0.1300843209028244,0.26313385367393494,-0.6728230118751526,-0.02190917171537876,-0.9185160994529724,-0.7542860507965088,-0.9117375016212463,1.1376986503601074,-0.7584965825080872,-0.9561793804168701,3.9719576835632324,-0.6171278953552246,-0.501885175704956
amazon-phones.csv,0.35563334822654724,0.7186483144760132,2.2391021251678467,-1.298749566078186,0.9444774389266968,-0.14495335519313812,-0.7477585673332214,0.9406806230545044,0.251523494720459,0.13928845524787903,0.14609065651893616,0.24213887751102448,2.1846141815185547,0.6610536575317383,-0.3173067271709442,-2.075500011444092,1.401357650756836,0.10937000811100006,1.199792504310608,-0.393881231546402,0.24363544583320618,0.40830960869789124,-0.0944024845957756,1.0110961198806763,-0.37813982367515564,-0.0023065032437443733,-0.9095589518547058,0.29763704538345337,0.09261486679315567,0.23927608132362366,-1.3259389400482178,0.7666395902633667,0.5529449582099915,-0.560321569442749,0.6617481112480164,-0.673675000667572,-1.9721015691757202,-0.7378907203674316,0.8137128353118896,1.3200570344924927,-0.7146328091621399,0.3470688462257385,-0.690633237361908,-1.4662034511566162,-0.06397899240255356,-0.24985317885875702,0.6621635556221008,3.082338333129883,-0.18434280157089233,-0.757219135761261
amazon-toys.csv,0.3228979706764221,0.5291014313697815,1.3047292232513428,0.6968375444412231,0.17600330710411072,1.2062749862670898,-0.2645696699619293,0.6293266415596008,-0.0839398205280304,0.18333883583545685,0.3725021183490753,0.761603057384491,1.7099181413650513,-0.01571745052933693,-1.7327704429626465,-2.363297700881958,1.3245905637741089,-0.150069460272789,-0.9199682474136353,-0.2247457504272461,1.6014347076416016,0.8725308775901794,0.07058598101139069,0.31126299500465393,-1.8951002359390259,-0.3817550241947174,-0.8153756260871887,0.1223331093788147,0.6911592483520508,0.35291004180908203,-1.2498151063919067,0.04169687628746033,1.1274447441101074,-0.9559935331344604,-0.5044105052947998,-0.044765908271074295,-1.8210116624832153,0.6060846447944641,1.6656196117401123,0.5487439632415771,0.17994385957717896,0.9208365678787231,-1.0312843322753906,-0.8322107195854187,0.9599840044975281,-0.4315029978752136,-1.3033971786499023,2.0740578174591064,-0.43454107642173767,-1.1772847175598145
amazon-digital-music.csv,0.6498459577560425,0.24806509912014008,0.8786526322364807,-0.5350781083106995,0.8950071334838867,0.004205917939543724,-0.7113961577415466,1.596504807472229,-0.09786572307348251,0.9836853742599487,-0.4053150415420532,0.19276310503482819,3.0538666248321533,-0.10489386320114136,-1.1432058811187744,-1.5725888013839722,1.4141825437545776,0.2669028043746948,0.4607660472393036,-0.16037148237228394,0.44078025221824646,1.0697011947631836,-0.8749390840530396,-0.1642288714647293,-1.3960622549057007,0.1980624794960022,-0.9835126399993896,0.8091306090354919,0.6525399684906006,0.7638353109359741,-0.36208322644233704,0.5703691840171814,0.39861297607421875,-1.1102828979492188,0.7070536613464355,-0.8823319673538208,-1.4596766233444214,0.006799678783863783,1.1922866106033325,0.31083446741104126,0.5117933750152588,0.852025032043457,-0.6423708200454712,-1.2703999280929565,0.19471938908100128,0.04721967130899429,-1.5083065032958984,2.252124071121216,0.24696579575538635,-2.002124309539795
amazon-beauty.csv,0.9024679660797119,0.7675909399986267,1.1960885524749756,-1.1647686958312988,0.49877944588661194,-0.07391873002052307,-0.7429469227790833,1.2859704494476318,0.39084550738334656,0.5429897904396057,-0.8035563826560974,0.6890279054641724,0.931145191192627,0.6100566387176514,-0.9050055742263794,-1.8485662937164307,2.4186208248138428,-0.8805793523788452,-0.5087440609931946,-0.3137393295764923,0.5322009325027466,1.0473275184631348,-1.527904987335205,0.2640221416950226,-1.139060378074646,-0.2644656300544739,-0.8691786527633667,0.35191610455513,0.07595806568861008,-0.10077092051506042,-0.47845134139060974,-0.5343122482299805,0.14269839227199554,-0.8559221625328064,0.11637356877326965,-1.1772582530975342,-1.2173478603363037,-0.7421759366989136,0.07073037326335907,-0.3381623923778534,0.04856184124946594,0.29043808579444885,-0.6647450923919678,-1.571142315864563,0.12135886400938034,-0.8733423948287964,-0.9366073608398438,3.4741320610046387,0.5164718627929688,-1.2120896577835083
flixter.csv,1.1139534711837769,1.7522413730621338,0.777958869934082,0.9019409418106079,-0.08200570195913315,0.3103812634944916,-0.5893492102622986,1.5383669137954712,-0.2613201141357422,0.7052843570709229,0.9654343724250793,0.4803121089935303,1.1907042264938354,0.38827094435691833,-0.24607108533382416,-1.3773854970932007,1.5241129398345947,-0.5232262015342712,-0.8448293805122375,-1.2946094274520874,-1.0887919664382935,1.1725618839263916,-0.4611024260520935,0.12373508512973785,-0.49388155341148376,-0.14906935393810272,-0.718524694442749,0.7464289665222168,0.3569567799568176,1.0332452058792114,-0.7643586993217468,-0.28135308623313904,0.6682815551757812,-0.3635716736316681,0.5308883786201477,0.09525751322507858,-1.1138854026794434,-0.376811146736145,1.1074118614196777,1.2809147834777832,-0.22445939481258392,-0.6938552856445312,0.7018277049064636,-1.1059976816177368,-0.3997885286808014,0.48991909623146057,-2.9449241161346436,2.894146203994751,-0.3370331823825836,-0.5443805456161499
movielens10m.csv,0.4298824369907379,0.034685537219047546,1.0131142139434814,-0.34447601437568665,-0.3979162871837616,-0.744369626045227,-0.7048532962799072,1.276766061782837,-0.4360693395137787,0.18737944960594177,-0.6095834374427795,1.3373794555664062,1.6515969038009644,1.3541723489761353,-1.0845675468444824,-0.04868375137448311,1.3137266635894775,0.26308444142341614,0.5410241484642029,-0.4300422966480255,-0.023610049858689308,1.4997875690460205,0.21565131843090057,0.08218604326248169,-0.8309439420700073,-1.6128891706466675,-1.0697942972183228,-0.049036912620067596,-0.9248388409614563,1.3442931175231934,0.21626165509223938,-0.1677519530057907,1.576550006866455,-0.8790678977966309,0.4000621438026428,0.005669082049280405,-0.9602444767951965,-0.0644882395863533,-0.948578953742981,1.117253303527832,-0.5661935210227966,0.2252739518880844,-1.4655629396438599,-1.5076011419296265,-0.5913218855857849,-1.2624155282974243,-2.654695987701416,2.228523015975952,-0.6845312714576721,-0.49144884943962097
amazon-apps.csv,0.34877920150756836,0.9228436946868896,0.41025587916374207,-0.5306657552719116,0.4527076184749603,-0.7372735142707825,-0.7688380479812622,1.4758678674697876,-0.5623093247413635,0.971436619758606,0.12367010861635208,1.603393793106079,2.6795363426208496,0.8296082019805908,-1.1312980651855469,-1.6270530223846436,1.2318447828292847,0.01659037172794342,1.3840667009353638,0.24913108348846436,0.7515555024147034,1.5141584873199463,-0.03210411220788956,0.6433051228523254,-0.5332378149032593,-1.027642011642456,-0.7435373067855835,0.3217694163322449,-0.08310940861701965,-0.3419525623321533,-0.6386248469352722,0.5038411021232605,0.9625022411346436,-0.9003360867500305,-1.29167902469635,-0.8518499732017517,-1.7398607730865479,-0.7126176953315735,2.084911823272705,1.133294701576233,0.25075647234916687,0.3120822310447693,0.14699828624725342,-0.44433850049972534,-0.6284525394439697,-0.9980005621910095,-1.1513862609863281,1.6534041166305542,0.2943178713321686,-0.8086593151092529
amazon-sports.csv,1.6213546991348267,1.0405552387237549,1.0352513790130615,-0.014669002033770084,0.11785482615232468,0.031173093244433403,-0.958374559879303,0.9742688536643982,-0.4099876582622528,0.16381630301475525,-0.4903433620929718,1.126444697380066,1.8941322565078735,1.1471190452575684,-1.4894596338272095,-1.1047483682632446,2.0532336235046387,-0.9811210036277771,0.6067642569541931,0.26822805404663086,0.2210436910390854,0.9799802899360657,-0.7472611665725708,0.37021419405937195,-0.9340154528617859,0.4114873707294464,-0.3231452405452728,-0.19635620713233948,0.1357734054327011,0.8425112366676331,0.08068881928920746,-0.28320810198783875,-0.23991647362709045,-1.9056143760681152,0.4478645920753479,-0.5095335841178894,-1.2229321002960205,-0.13438431918621063,1.9734972715377808,-0.6292805671691895,-1.152791976928711,0.8010688424110413,-1.379475474357605,-0.8096708059310913,-0.7743861079216003,-0.31846335530281067,-0.8446629643440247,2.2343902587890625,-0.6030794382095337,-1.6465003490447998
yahoo-music.csv,1.2899960279464722,1.7653837203979492,0.11059154570102692,0.1968437135219574,0.01070239394903183,0.3237868547439575,0.2714628279209137,0.32403361797332764,0.8414693474769592,-0.9897541403770447,-0.38556644320487976,0.08224578201770782,2.3096413612365723,0.9889165163040161,0.3886691629886627,-2.2863168716430664,1.1245698928833008,-0.11963919550180435,0.17518964409828186,-0.22545525431632996,0.3543994128704071,1.2231191396713257,-0.5348376035690308,-1.2281423807144165,-1.2464593648910522,0.3371591866016388,-0.2807569205760956,0.7712517976760864,-0.9899160265922546,0.8559209108352661,-0.5900529623031616,0.21671384572982788,0.9743924140930176,-0.848756730556488,0.010337579064071178,-0.5605190396308899,-1.0232722759246826,-1.8127644062042236,-0.2501184344291687,0.8084404468536377,-0.059587832540273666,1.1812785863876343,-0.1480189710855484,-2.09305739402771,-1.0052963495254517,0.09001526981592178,-1.1432491540908813,2.2605197429656982,-1.2721492052078247,-0.4862836003303528
amazon-instant-video.csv,0.3812122344970703,1.6961703300476074,1.1279301643371582,0.621145486831665,0.020861608907580376,0.042976003140211105,-1.3524091243743896,0.942607045173645,0.9307106137275696,1.4030157327651978,-0.7766593098640442,1.798395037651062,1.390886664390564,1.0956151485443115,-1.224218487739563,-1.4973996877670288,1.2561759948730469,0.4829036295413971,0.580354630947113,-0.17683151364326477,0.07505575567483902,0.09480258077383041,-0.34369364380836487,-0.45385268330574036,-1.9548393487930298,-0.38858336210250854,-0.3404209315776825,0.90030437707901,-0.4552815854549408,0.30257317423820496,0.21819734573364258,-0.29916906356811523,0.5498886704444885,-0.08083631098270416,-0.4502522349357605,-0.4585300087928772,-1.2506306171417236,-0.48183977603912354,0.910697340965271,0.6396320462226868,0.08680618554353714,1.0669032335281372,-0.5835590958595276,-1.10818350315094,0.9037410020828247,0.4333071708679199,-0.31769222021102905,3.1127662658691406,-1.0253565311431885,-1.6976332664489746
yahoo-movies.csv,1.4734350442886353,-0.07523064315319061,0.8679145574569702,0.47378474473953247,0.28827300667762756,0.8677595257759094,-0.8058356642723083,1.4917725324630737,-1.0662212371826172,-0.1341739296913147,-0.05161207914352417,1.1806175708770752,1.152557134628296,0.3340649902820587,0.42238813638687134,-1.3826359510421753,1.9501367807388306,0.3457821309566498,1.0559346675872803,-0.4708671271800995,-1.0813816785812378,2.15151309967041,0.7834793329238892,1.034481167793274,-1.8044641017913818,-0.08211466670036316,0.4321520924568176,0.9979305267333984,1.2242475748062134,1.0831812620162964,-0.32506096363067627,0.29765480756759644,1.2147471904754639,-0.14409135282039642,-0.768358051776886,-0.4030180871486664,-1.172232747077942,-0.6349331140518188,-0.9480816125869751,0.06276566535234451,0.2619866132736206,1.535330057144165,-0.06971651315689087,-0.29559990763664246,0.33372244238853455,-0.7807242274284363,-1.1047768592834473,2.645427703857422,0.13935677707195282,-0.7702674269676208
movielens1m.csv,-0.8046482801437378,0.7997402548789978,-0.06647466868162155,0.5092687606811523,1.4722497463226318,0.5646783113479614,-1.5832010507583618,0.6378610730171204,0.2434709519147873,-0.3490094840526581,-0.8265074491500854,1.2465195655822754,1.607625126838684,0.6495819091796875,-0.1625799834728241,-2.2239952087402344,2.2157113552093506,0.5090323090553284,0.4792143702507019,0.6824673414230347,0.4278172254562378,0.5955885052680969,-1.1630074977874756,1.1642309427261353,-1.2216506004333496,-0.14222575724124908,0.2370353490114212,0.8220211267471313,0.2521338164806366,0.13895274698734283,-0.1314988136291504,-0.1476050615310669,1.4454172849655151,-0.09273701906204224,1.552855134010315,0.35400739312171936,-1.3125758171081543,-0.04783200845122337,0.32468825578689575,0.43028029799461365,0.05848240107297897,-0.4048459827899933,-0.8565243482589722,-0.877849817276001,-0.9708284735679626,-0.8067624568939209,-2.196010112762451,2.285998582839966,-0.6652950048446655,-0.8775953054428101
movielens100k.csv,0.23167535662651062,0.31229066848754883,0.5930437445640564,0.15994468331336975,1.7034366130828857,0.5684446096420288,-1.5216195583343506,1.2576274871826172,-0.04789019376039505,-0.16589990258216858,0.34347209334373474,0.7822093367576599,1.7494832277297974,1.0130012035369873,-0.20913702249526978,-2.5789639949798584,1.1358329057693481,-0.7235152721405029,0.7059458494186401,-1.2742047309875488,1.3260880708694458,1.9449328184127808,0.5287051200866699,-0.23896165192127228,-0.7081724405288696,-0.7600176334381104,-0.2262668013572693,-0.22949865460395813,-1.5804033279418945,1.3679255247116089,0.5543282628059387,-1.2823905944824219,1.2444230318069458,-0.43582576513290405,0.6734340190887451,-0.4236440062522888,-0.9465923309326172,0.35590213537216187,0.7783501744270325,-0.3659355342388153,0.05462551862001419,0.6861498355865479,0.9914515018463135,-0.5399805903434753,0.006841625086963177,0.39344778656959534,-1.440452218055725,2.1674396991729736,-0.7065854668617249,-0.42682623863220215
amazon-home.csv,0.3438648581504822,1.260788083076477,2.1494522094726562,-0.6060779094696045,0.9761176705360413,0.44377899169921875,0.00701396819204092,0.6437792778015137,-0.09953706711530685,0.4810996949672699,0.3179997205734253,-0.07378951460123062,2.009908437728882,1.1044059991836548,-0.834037721157074,-1.4285097122192383,1.9523817300796509,-0.09439339488744736,0.8473495244979858,0.12990212440490723,0.7511231899261475,0.6555033326148987,0.43425098061561584,0.5708653926849365,-1.810756802558899,-0.9165326952934265,-1.1976507902145386,-0.11067196726799011,-0.39227354526519775,0.7659494280815125,0.13275496661663055,-0.0754961147904396,-0.7884703874588013,-1.410431146621704,-0.6358883380889893,-0.40409016609191895,-1.2324979305267334,-0.35856151580810547,0.31015071272850037,0.3512473702430725,0.04429224506020546,-0.807350754737854,-0.9555900692939758,-1.4117748737335205,0.25758805871009827,0.5871708393096924,-1.0413610935211182,2.9639954566955566,0.4064874053001404,-1.396999716758728
amazon-tools.csv,1.1296567916870117,0.2979632616043091,1.6897932291030884,0.1318030208349228,0.6335662007331848,-0.5707113146781921,-1.1163347959518433,1.3938411474227905,0.14017677307128906,-0.09328734874725342,0.21762140095233917,0.2974783778190613,2.1580352783203125,0.6658162474632263,-0.8806943893432617,-0.5050250291824341,2.5171093940734863,-0.19842737913131714,0.1516721248626709,0.14422908425331116,0.4096842408180237,0.7137778997421265,-0.6558558344841003,0.47196710109710693,-1.270843744277954,0.26855581998825073,-1.293604850769043,0.7724772095680237,-1.0607355833053589,0.7151383757591248,0.016309816390275955,0.6599040031433105,0.24951379001140594,-0.48670151829719543,-0.6575968861579895,-0.45727455615997314,-2.2226791381835938,-0.28150027990341187,1.2930450439453125,-0.8977741599082947,0.49184343218803406,0.6081685423851013,-0.4788861870765686,-1.1706355810165405,-0.1294371783733368,-0.0078426543623209,-0.611242949962616,2.9396612644195557,-1.138079285621643,-0.8916820287704468
amazon-food.csv,1.4535741806030273,0.7696695923805237,1.124855637550354,-0.4447293281555176,0.8843711614608765,-0.22037091851234436,-0.8738928437232971,0.0526558980345726,0.44885119795799255,0.8628345131874084,-0.014425155706703663,1.210235834121704,1.4297950267791748,0.8488467335700989,-0.631138801574707,-1.8182227611541748,2.940936326980591,-0.18153658509254456,-0.349312961101532,-0.5037269592285156,0.20446088910102844,1.2989507913589478,-0.5165196061134338,0.4458015561103821,-1.1924633979797363,-0.3953890800476074,-0.6533342599868774,0.26193103194236755,-0.13084855675697327,1.1740518808364868,-0.676999032497406,0.3569015562534332,-0.05742937698960304,0.20405331254005432,-0.7911601662635803,-0.8837097883224487,-1.482208013534546,0.24287377297878265,1.27030611038208,0.5728283524513245,0.6530157327651978,0.8635497689247131,-1.3318040370941162,-1.8015706539154053,-1.0000377893447876,-0.6039755344390869,-0.38712257146835327,2.511169910430908,0.3917323648929596,-0.4815930426120758
jester3.csv,-0.061938151717185974,2.15185809135437,0.2231931835412979,-0.21313506364822388,-0.4842003881931305,1.0430923700332642,-0.057708051055669785,2.0385260581970215,0.5434467792510986,-0.2736814022064209,-0.7523891925811768,0.5273581743240356,0.3942946493625641,-0.45579394698143005,0.23700319230556488,-1.094779372215271,1.1217877864837646,-1.1554110050201416,0.9610520005226135,-0.4389968812465668,0.3867734968662262,1.8131847381591797,-0.1836942434310913,-0.23328116536140442,-0.7784656882286072,-0.0011283966014161706,-1.3611173629760742,-1.5603694915771484,-0.4444042444229126,1.5855391025543213,0.21276825666427612,0.25695475935935974,1.5181804895401,-0.09538697451353073,0.41774439811706543,0.6342131495475769,-1.2669854164123535,0.731857180595398,1.034483551979065,-0.0929698571562767,0.22874975204467773,0.9189336895942688,-0.35798460245132446,-1.0995030403137207,-0.23750339448451996,-1.4899590015411377,-0.315833181142807,2.8282060623168945,0.5809049606323242,-1.7172287702560425
