amazon-toys.csv,0.7397418022155762,-0.4921778738498688,0.21349956095218658,-0.29705530405044556,-1.1310007572174072,-0.42446619272232056,0.7408972978591919,0.2164771556854248,-1.096463918685913,-0.29370710253715515,-0.7279248833656311,-1.3118971586227417,0.4572281837463379,-0.8375239968299866,0.8765725493431091,1.343834638595581,1.724546194076538,0.5657678842544556,0.9892563819885254,0.8220508694648743,0.1395007073879242,-0.07751403748989105,2.57002854347229,0.10365135222673416,-1.6076397895812988,-0.009329196065664291,-2.009237051010132,-1.1186376810073853,-0.4251546561717987,0.39187026023864746,-0.6553983092308044,0.02534760907292366,0.46184042096138,0.9814546704292297,-0.32777002453804016,1.1118804216384888,-2.1872847080230713,0.5052619576454163,-0.6636624932289124,-0.5739762187004089,1.5701100826263428,1.0279245376586914,0.4807095527648926,-1.1826924085617065,0.8357702493667603,-1.0251045227050781,-0.6348063945770264,0.3313034176826477,-0.9431962966918945,-1.7711541652679443
amazon-tools.csv,0.9246334433555603,-0.365113228559494,-0.47126078605651855,-1.29524827003479,0.07969950884580612,-0.65617835521698,1.9843319654464722,0.4200150966644287,-0.6470635533332825,0.09575890004634857,-0.9689688682556152,-0.6197687983512878,2.385958194732666,-1.2016077041625977,1.066267967224121,1.209082007408142,1.1117106676101685,0.6447838544845581,0.6584675908088684,-0.9682866930961609,-0.9277257919311523,1.9255812168121338,2.0166594982147217,1.016198754310608,-0.81917804479599,-1.2371288537979126,-1.6528815031051636,-0.8696026802062988,-0.43306031823158264,0.6647756099700928,-0.5296358466148376,-0.9401595592498779,0.7108652591705322,0.0899193286895752,-1.5366965532302856,0.7082133889198303,-0.05894917994737625,0.7688108682632446,-0.6314428448677063,0.10294783860445023,-0.20475801825523376,1.1092818975448608,1.6034706830978394,0.05406281724572182,-0.290475994348526,-0.4757504165172577,0.4233950972557068,0.0921059399843216,0.6611707806587219,-1.3182604312896729
bookcrossing.csv,0.6700748801231384,-1.5842585563659668,0.13038915395736694,-0.5753881335258484,-0.046675585210323334,-1.0908215045928955,1.3461073637008667,0.13527649641036987,-0.09432052820920944,0.2289203703403473,-0.9970276951789856,0.1590145379304886,1.3487210273742676,-0.37101849913597107,0.4958259165287018,-0.47663024067878723,0.5682500600814819,1.1522701978683472,0.9010538458824158,0.40170586109161377,-0.14500468969345093,-0.7475553154945374,2.0258121490478516,1.724422812461853,-0.977427065372467,-0.5971401333808899,-3.2078945636749268,-0.5958916544914246,0.2014703005552292,0.8100550174713135,-0.3096542954444885,-1.2520407438278198,-0.0848868191242218,1.3022115230560303,-0.6893550157546997,0.8138527274131775,-1.5045993328094482,0.997137725353241,-0.19401408731937408,-0.12265834212303162,-0.48829978704452515,0.9880645275115967,1.5904346704483032,-0.41827696561813354,0.21087731420993805,-0.14232060313224792,0.9256064891815186,0.28397783637046814,1.2852524518966675,-1.684234619140625
movielens_latest.csv,1.0320886373519897,-0.974936842918396,0.08267702907323837,-0.7867900133132935,-1.3750799894332886,-0.7901706695556641,1.7170298099517822,1.2744697332382202,-0.09930922836065292,-0.6324858665466309,-0.3108504116535187,-0.1890142560005188,-1.2878062725067139,-0.7345322370529175,0.5764134526252747,0.3480749726295471,0.2035178691148758,0.4791564643383026,1.7813833951950073,0.048279378563165665,0.5570305585861206,-0.10901075601577759,0.6660385131835938,0.5941429734230042,-0.12327463179826736,-2.688962936401367,-1.49898099899292,0.7018726468086243,-0.9754819273948669,0.6557745337486267,-0.06458152830600739,-0.6645671725273132,-1.051157832145691,0.5432624816894531,-1.4900139570236206,1.1557081937789917,-1.1214350461959839,-1.223014235496521,-1.5043678283691406,1.245592474937439,0.6384336948394775,0.7972866296768188,1.3444865942001343,-0.7739092111587524,1.8032296895980835,-0.014677937142550945,-0.8833305239677429,0.3265798091888428,0.7315847873687744,-1.025287389755249
amazon-office.csv,0.41865038871765137,-0.8746700882911682,-0.15013356506824493,-0.7479997277259827,-0.023657789453864098,-0.9914899468421936,0.8650553226470947,1.3658123016357422,-1.4649443626403809,0.7426233291625977,-0.6978804469108582,0.17388278245925903,0.664921224117279,-1.438651204109192,0.3943449854850769,-0.3319219946861267,1.092449426651001,0.5336534380912781,0.6829190254211426,0.5288450121879578,0.08107221871614456,-0.22507338225841522,2.2015931606292725,1.3071733713150024,-0.35214152932167053,-0.38094475865364075,-2.965684175491333,-0.5781446695327759,-0.16748233139514923,0.5800827145576477,0.11733884364366531,-0.41339510679244995,0.005204109940677881,1.7117433547973633,-1.1427525281906128,0.9009675979614258,-2.2396929264068604,-0.19940899312496185,0.049900561571121216,0.33809101581573486,-0.8993092179298401,1.2787071466445923,0.8659034371376038,-0.6353026032447815,1.148220419883728,-0.15161919593811035,0.1410018503665924,0.9010068774223328,0.7392351627349854,-1.8882566690444946
amazon-clothes.csv,0.882706880569458,-0.9599077701568604,-1.1304360628128052,-1.0295463800430298,-0.2983878552913666,-0.193141907453537,1.7426213026046753,0.22034472227096558,0.015205448493361473,-0.8948227763175964,-1.2128851413726807,-0.7042356133460999,1.1899572610855103,-1.1041992902755737,0.45233502984046936,-0.5677151679992676,1.054150104522705,1.4494906663894653,0.29936665296554565,-0.5085852742195129,-0.6428314447402954,-0.8111441731452942,1.2586508989334106,1.4461898803710938,0.2597995400428772,-0.4882558286190033,-1.574756383895874,-0.7813429832458496,0.49977216124534607,1.5149744749069214,0.03499061241745949,-1.4737582206726074,-0.08857510983943939,0.579677939414978,-0.2128850221633911,1.208229422569275,-1.1257314682006836,1.3941919803619385,-0.775718629360199,0.258069783449173,-0.5949732661247253,1.1656155586242676,1.9380639791488647,-0.4573529362678528,0.6259177327156067,0.7713931202888489,0.32342347502708435,0.7423135042190552,0.6966215372085571,-2.6199262142181396
amazon-food.csv,0.7505018711090088,-1.2852983474731445,1.3897877931594849,-1.2413438558578491,-0.11645612865686417,-0.757587194442749,2.3965821266174316,-0.44927844405174255,-0.49363505840301514,0.673029363155365,-0.8613714575767517,0.13777509331703186,0.7667259573936462,-0.15957127511501312,0.484062522649765,1.532802700996399,1.1532891988754272,1.1881442070007324,1.2391616106033325,-0.03620687499642372,0.3898107409477234,-0.39265313744544983,1.739172101020813,0.7194581627845764,-0.3101392090320587,-0.24454453587532043,-1.5391457080841064,-0.7246295213699341,0.41008344292640686,1.4544559717178345,0.10506275296211243,-1.1289790868759155,-0.5469046831130981,0.2382356971502304,-0.7974963188171387,1.573466181755066,-1.3698160648345947,0.931972086429596,-0.961256206035614,0.32405075430870056,0.480170875787735,1.0750012397766113,1.5634076595306396,-1.064289927482605,-0.07488533854484558,-0.3740447163581848,0.5261770486831665,0.4410903751850128,1.9081610441207886,-1.3840042352676392
amazon-kindle.csv,-0.6815898418426514,-0.7343918085098267,-0.6194580793380737,-0.2911403179168701,-0.18939761817455292,-0.6944795846939087,0.5912184119224548,1.7059613466262817,-1.1185553073883057,1.5311099290847778,0.1353100687265396,-0.9652048349380493,-0.3648173213005066,-0.9918657541275024,-0.4591044485569,0.3577428460121155,0.9988304376602173,1.1266052722930908,1.2206424474716187,-0.48124852776527405,0.5471999645233154,-0.5494813919067383,1.2445040941238403,1.2359275817871094,-0.642253577709198,-0.4018356204032898,-2.5135233402252197,-0.41963523626327515,0.022721992805600166,0.538611650466919,0.7140136957168579,-0.11244702339172363,0.26485562324523926,0.8484659194946289,-0.809870183467865,1.1750085353851318,-2.316793918609619,0.26584023237228394,-1.149567723274231,-0.5889073610305786,-1.1501692533493042,0.8927404284477234,0.8272567987442017,-0.5780071020126343,0.336069256067276,-1.2191468477249146,-1.0298327207565308,0.709905743598938,1.369513750076294,-2.2562615871429443
yahoo-music.csv,-0.37482964992523193,-0.027513043954968452,-0.16949476301670074,-1.0234562158584595,-1.7036999464035034,-0.8635874390602112,0.9311304688453674,1.0189425945281982,-0.8016715049743652,1.6060174703598022,-1.1622811555862427,-1.1899186372756958,0.8797333240509033,-0.6137939691543579,0.4732714295387268,0.26241743564605713,1.3632227182388306,0.10766527056694031,2.386209487915039,-0.34830614924430847,0.9783720970153809,-1.3646665811538696,0.42202475666999817,0.00016097903426270932,-0.7818005084991455,-1.124033808708191,-1.2723616361618042,-1.4339616298675537,-0.644478976726532,1.6457593441009521,-0.1505763828754425,-0.8467893004417419,-0.06931424885988235,1.6487385034561157,-0.9556293487548828,-0.5592886209487915,-1.0181167125701904,-1.4677265882492065,-0.472718209028244,0.7067104578018188,0.028246553614735603,2.0736281871795654,0.34746286273002625,0.5380190014839172,-1.1355408430099487,0.7271465063095093,-0.21885855495929718,0.6151960492134094,0.4308004081249237,-0.8344883322715759
amazon-health.csv,0.32189467549324036,-1.3908554315567017,-0.12558528780937195,-0.42463418841362,-0.46822983026504517,-0.8550670742988586,1.8318333625793457,0.6668193936347961,-0.12211955338716507,0.9151223301887512,-0.9372006058692932,-0.7422587871551514,0.5762596130371094,-0.9172756671905518,0.5475278496742249,0.6070535778999329,0.9338322281837463,1.418294072151184,1.7900207042694092,-0.11621341854333878,0.4979785680770874,-0.7416960597038269,1.2014355659484863,0.9381832480430603,-0.84807950258255,-1.025292158126831,-2.3342232704162598,-0.4737338125705719,0.08870557695627213,0.11135602742433548,-0.3203660249710083,-0.8458311557769775,-0.19144359230995178,0.18680864572525024,-0.9974088072776794,1.1318639516830444,-0.6140269637107849,1.1377915143966675,-2.7259366512298584,-0.11291472613811493,-0.5307204723358154,1.1473175287246704,0.9510255455970764,-0.2060670256614685,-1.192002296447754,-0.5762481093406677,0.4058912396430969,0.16069120168685913,1.8370912075042725,-1.435632348060608
jester1.csv,1.2311910390853882,-0.20542237162590027,0.9019411206245422,-1.8964745998382568,-0.36316534876823425,-0.5912225842475891,0.6069709658622742,1.7233259677886963,-0.9782781004905701,-0.9436216950416565,-0.21740585565567017,-1.3446344137191772,0.9293212890625,-0.7355526685714722,-0.07606397569179535,0.9857578873634338,-0.4254187047481537,1.0651999711990356,1.1332283020019531,-0.022920366376638412,0.25790080428123474,-0.9385208487510681,1.0900980234146118,0.7593154311180115,-1.6571210622787476,-2.1901872158050537,-1.381395936012268,-1.1941405534744263,0.1571643054485321,0.39847999811172485,-1.5042275190353394,0.41306883096694946,0.5529984831809998,-0.3908078968524933,0.03303719684481621,-0.2926730215549469,-2.145535707473755,0.40903228521347046,-0.728266716003418,0.17373357713222504,-0.7666378617286682,1.2816513776779175,-0.20192748308181763,-0.46059945225715637,0.0015826558228582144,0.47933104634284973,0.24246393144130707,1.7677046060562134,0.9913643598556519,-1.6014797687530518
amazon-automotive.csv,0.6963109374046326,-0.7691476345062256,0.6223243474960327,-0.9280164837837219,-0.18347163498401642,-0.07833769172430038,1.5250335931777954,1.0042024850845337,-1.3671330213546753,0.8815799951553345,-0.24818912148475647,-0.07355740666389465,-0.6421567797660828,-1.1529686450958252,0.8121399879455566,0.5649937987327576,1.04573392868042,1.0568662881851196,0.960594654083252,-0.5365349054336548,0.375267893075943,-0.9532251358032227,1.5710742473602295,0.36977601051330566,-0.9597034454345703,-0.5655975937843323,-0.9466354846954346,-0.6537182331085205,0.2135554850101471,1.719943642616272,0.3277059495449066,-1.5067590475082397,-0.4683767259120941,0.2551289200782776,-1.0307695865631104,0.7116145491600037,-2.238062620162964,1.4817707538604736,0.6234655976295471,-0.4345459043979645,-0.09402499347925186,1.1737176179885864,2.179856777191162,-0.5335820317268372,0.8485131859779358,-0.6616739630699158,0.8017613887786865,1.7962855100631714,0.8420060873031616,-1.4322096109390259
movietweetings_latest.csv,0.49573564529418945,-1.0468835830688477,0.7141039967536926,-0.18127405643463135,-1.5302835702896118,-0.91167813539505,0.9636895060539246,1.5123982429504395,-1.3239995241165161,0.05159834027290344,-0.05300275236368179,-0.11150306463241577,0.6247338652610779,0.2811063826084137,0.19799111783504486,-0.2479042261838913,1.5806556940078735,0.6387650966644287,0.9018270969390869,-0.2559007406234741,1.3613852262496948,-0.3977447748184204,0.7840781807899475,0.1380951702594757,-0.9486291408538818,1.1273279190063477,-2.839125633239746,-0.6637363433837891,-1.270288348197937,0.6714370250701904,1.0398744344711304,-0.006877079140394926,-0.18021048605442047,0.3516688048839569,-0.6969934105873108,1.0915136337280273,-2.4245972633361816,0.21578021347522736,1.2736585140228271,-0.10934315621852875,0.03715745359659195,0.7405417561531067,1.2835960388183594,-1.4854152202606201,0.5856876373291016,-0.3475629389286041,0.6309381127357483,0.8538803458213806,0.7341843247413635,-1.7917901277542114
tripadvisor.csv,-0.8181777596473694,-0.11894586682319641,-0.4341976046562195,-0.7531770467758179,-0.7049104571342468,0.42642688751220703,0.7406644225120544,1.7570606470108032,-1.2332940101623535,0.404606431722641,0.04551534727215767,-0.3583027124404907,1.8485283851623535,-0.23938071727752686,0.6221060752868652,-0.42126455903053284,0.42485594749450684,0.5073626637458801,1.277504801750183,0.41472116112709045,0.005258607212454081,-0.8703514933586121,2.251534938812256,0.2662412226200104,-1.1708887815475464,0.06323065608739853,-1.5655131340026855,-0.7696239352226257,0.3718022406101227,0.4692712426185608,0.6882622838020325,-0.39890140295028687,-0.504980206489563,1.9255449771881104,-2.188206672668457,0.6356785297393799,-2.687312602996826,0.4669123589992523,-0.41239631175994873,-0.4691943824291229,-0.7748046517372131,0.28508666157722473,0.37995976209640503,-1.110111117362976,0.7889567017555237,-0.06240108981728554,-0.46264564990997314,1.6313977241516113,0.013094734400510788,-1.5157818794250488
amazon-sports.csv,0.6521743535995483,-0.8839353322982788,0.3117799162864685,-0.1609967201948166,-0.4931255877017975,-0.6499592065811157,1.5251069068908691,0.8818439245223999,-1.2866016626358032,1.1388717889785767,0.2611943781375885,0.37597954273223877,0.2920159697532654,-1.1718038320541382,1.824184536933899,0.0717080608010292,0.5924442410469055,-0.1110197901725769,0.8487529158592224,0.9440035223960876,1.1248222589492798,-0.3790290355682373,1.9229182004928589,1.4014533758163452,-0.47166135907173157,-0.7206946611404419,-1.9709467887878418,-1.939760684967041,0.03431004285812378,-0.14805321395397186,-0.581620454788208,-1.170172095298767,-0.31209149956703186,1.783523440361023,-0.8269650340080261,0.7775505185127258,-1.1212283372879028,0.7135993838310242,-1.2107247114181519,0.703596830368042,-0.013534103520214558,1.4335676431655884,1.6488069295883179,-1.4686814546585083,0.5856803059577942,-0.16790549457073212,0.7450582981109619,0.5380702018737793,0.8065719604492188,-0.8313745856285095
amazon-garden.csv,0.1424223780632019,-0.670600175857544,0.7285240292549133,-1.2037404775619507,-0.0613199919462204,-0.7882182002067566,1.4210153818130493,0.37644681334495544,-1.1971348524093628,0.9133802652359009,-0.6493383049964905,0.38167864084243774,1.053076148033142,0.04518195614218712,0.3139936029911041,0.3656061887741089,1.0779615640640259,0.4994438588619232,0.5571027994155884,0.45417526364326477,0.18764068186283112,-0.6500924229621887,1.8733775615692139,1.4708832502365112,-0.1186525821685791,-0.1677204966545105,-2.759329319000244,-1.1075234413146973,0.13361093401908875,1.1038005352020264,0.4645974636077881,-1.0421738624572754,-0.261407732963562,1.1605355739593506,-1.1474932432174683,1.2521363496780396,-1.7904109954833984,0.2573671042919159,-0.2773764133453369,0.34093695878982544,-0.2331511676311493,1.2166892290115356,1.4248521327972412,-1.248520016670227,0.7170542478561401,-0.10838528722524643,0.3031655251979828,0.6443135738372803,2.16855525970459,-1.5755388736724854
amazon-baby.csv,0.06804189831018448,0.09373859316110611,-0.6043579578399658,-1.1008543968200684,0.11441617459058762,-0.9543725848197937,1.0821716785430908,1.5342925786972046,-0.45796459913253784,0.07659264653921127,0.2730419337749481,-0.9139645099639893,0.20404748618602753,-0.5007302761077881,0.5337702035903931,0.9634227156639099,1.1645768880844116,1.4164314270019531,1.768994688987732,-1.4479385614395142,1.3035297393798828,0.03671455383300781,1.6049036979675293,0.6597338318824768,-0.8727045655250549,0.29852017760276794,-0.7133586406707764,-0.43948885798454285,0.4285261631011963,1.6857712268829346,-0.012040642090141773,1.453766107559204,-0.9016796350479126,0.4045148193836212,-0.8250740170478821,0.7781550884246826,-2.051893472671509,1.2321436405181885,-1.2280141115188599,-0.06198443844914436,-0.17785507440567017,1.253179669380188,0.9601525068283081,-1.2753347158432007,1.0126383304595947,-0.4450039863586426,-0.8313891887664795,0.7487198710441589,-1.6573222875595093,-1.5691050291061401
amazon-beauty.csv,0.38142237067222595,-2.169877052307129,0.07900179922580719,-1.5795612335205078,-0.3276761770248413,-0.22831854224205017,0.31271639466285706,0.945457398891449,-1.2274762392044067,0.4162003695964813,-0.7651566863059998,-1.1822609901428223,0.8209016919136047,-0.967806875705719,1.3973718881607056,1.6945363283157349,1.312838077545166,-0.05133410170674324,1.7488949298858643,0.6766111850738525,0.32462990283966064,-1.7638663053512573,1.9790939092636108,0.646240770816803,-0.12874551117420197,0.04338202252984047,-1.3038575649261475,-0.13351970911026,0.614949107170105,-0.39340972900390625,0.5894002914428711,-0.5823633670806885,0.9422009587287903,0.9149336814880371,-0.503343403339386,1.784074068069458,-1.6510154008865356,-1.0251644849777222,0.5568572282791138,0.9503030180931091,-0.2982385754585266,0.8409582376480103,0.782210648059845,-0.7590066194534302,0.5986830592155457,-0.8074233531951904,-0.5890448689460754,0.18480859696865082,0.6653931736946106,-1.2950109243392944
amazon-phones.csv,1.1816478967666626,-0.09175242483615875,0.6618705987930298,-1.1900302171707153,-0.07128077745437622,-0.8639599680900574,2.719306468963623,1.414970874786377,-1.866114854812622,0.8804875612258911,-0.5064961314201355,0.18669773638248444,0.3895159661769867,-0.9506561756134033,0.1425134688615799,1.5018445253372192,2.2434070110321045,0.6871259212493896,0.42023181915283203,-0.9587845802307129,-0.03564894199371338,0.8000310659408569,1.755413293838501,-0.3939988911151886,-0.44395262002944946,-0.15092895925045013,-0.8222251534461975,-0.11780094355344772,-0.2338331788778305,1.6204450130462646,0.05723300203680992,-0.23999731242656708,-0.5423764586448669,-0.35398635268211365,-1.7723292112350464,1.2705992460250854,-1.766278624534607,-0.030928008258342743,0.14988483488559723,0.2509725093841553,-0.26328349113464355,1.3775180578231812,0.7099475860595703,0.26616770029067993,0.10146855562925339,-0.32936739921569824,0.6602820158004761,0.8954883217811584,0.6372070908546448,-1.3771981000900269
amazon-games.csv,-0.08890852332115173,-0.6612250804901123,0.12091982364654541,-1.084795355796814,0.021695174276828766,-0.986348032951355,0.9388171434402466,2.603442668914795,-0.2500168979167938,0.5876092314720154,-0.38688114285469055,-0.22615918517112732,0.02680237963795662,-0.3927868902683258,-0.177302286028862,0.6690284609794617,1.1223955154418945,1.48482084274292,1.5656518936157227,-1.0923869609832764,-0.0765303522348404,-0.17097949981689453,2.4827358722686768,1.182259440422058,-0.41954460740089417,-0.4806782603263855,-2.381776809692383,0.1848563849925995,0.3487381637096405,-0.026743778958916664,0.3238084614276886,-0.09893433004617691,-1.1223136186599731,1.4825711250305176,0.22338226437568665,0.4639167785644531,-2.002624273300171,0.38871702551841736,0.4175146818161011,-0.8571646809577942,-0.571190357208252,0.6914162635803223,1.279685139656067,1.2511208057403564,0.3780168294906616,-0.005498162005096674,-0.3390621840953827,0.5768865942955017,0.07443086057901382,-2.008592128753662
amazon-pet-supplies.csv,0.3394956886768341,-1.3904367685317993,0.20870710909366608,-0.2754155099391937,-0.7000609040260315,-1.0900319814682007,1.0888338088989258,0.9486217498779297,-1.096665620803833,1.1290919780731201,-0.46840089559555054,-0.3575962781906128,-0.4041365683078766,-1.4811028242111206,1.3075872659683228,0.47746020555496216,0.43818411231040955,1.1019320487976074,1.3675562143325806,0.2537475824356079,1.0936118364334106,-0.4620636999607086,2.0490012168884277,0.6824802756309509,-0.7738821506500244,-0.5473868250846863,-2.2888498306274414,-1.5092757940292358,0.5049500465393066,-0.15768560767173767,-1.065587043762207,-0.9944918155670166,0.27567973732948303,1.1798611879348755,-0.39928558468818665,0.8922024965286255,-0.9335570931434631,1.3949098587036133,-2.0576021671295166,0.09557422995567322,-0.17674575746059418,1.0316522121429443,1.328001856803894,-0.605449914932251,-0.49703148007392883,-0.25928759574890137,1.164260983467102,0.48001912236213684,0.9736764430999756,-1.075642704963684
jester2.csv,1.519633173942566,0.06307686865329742,1.1312103271484375,-1.1284233331680298,-0.4944919943809509,-0.7975054383277893,1.3080554008483887,0.9500436186790466,-1.4240503311157227,0.49227175116539,-1.149438738822937,-1.7516071796417236,0.6607346534729004,0.5964913368225098,-0.559335470199585,0.5886775255203247,1.626649260520935,-0.34201452136039734,1.2061790227890015,-0.26232320070266724,0.5535247325897217,-1.0561020374298096,2.064558744430542,-0.24595022201538086,-0.34464508295059204,-2.190678119659424,-2.560194253921509,-0.452891081571579,0.139665424823761,0.617449939250946,0.8845998048782349,-0.3900822699069977,-0.03181196376681328,0.16200608015060425,-0.8260800242424011,-0.2249559462070465,-1.375718593597412,1.6543776988983154,-1.3247796297073364,0.7761227488517761,-0.26690027117729187,-0.48438960313796997,0.1160760298371315,0.02234692871570587,0.18153709173202515,0.25646573305130005,-0.15056143701076508,1.1313635110855103,0.17196376621723175,-0.9929611086845398
amazon-digital-music.csv,1.8239290714263916,0.35649436712265015,0.20744770765304565,-0.922429084777832,-0.2574842572212219,0.9747016429901123,1.027248740196228,1.484110713005066,-1.2748485803604126,1.0571388006210327,-0.758043110370636,-1.2150659561157227,0.6324378252029419,-0.4865514636039734,0.3010624647140503,1.8885518312454224,1.0721206665039062,1.1352845430374146,1.9535261392593384,0.5634406805038452,-0.10163334757089615,-0.3802860677242279,-0.5945149064064026,2.098383665084839,-1.0229623317718506,0.3666476905345917,-1.4528419971466064,-0.9410668015480042,-1.1299790143966675,-0.07001685351133347,1.089726209640503,-0.8920708894729614,-0.9990667700767517,1.6557801961898804,-0.11643479019403458,1.012272596359253,-0.5818206071853638,-0.18472245335578918,-0.9999617338180542,0.2939746677875519,0.2620857059955597,0.11259611696004868,1.0538349151611328,-0.7707335948944092,0.5599626898765564,-0.016576141119003296,-0.15431952476501465,1.5059819221496582,0.36717796325683594,-1.6127657890319824
amazon-cd.csv,0.9439916014671326,-0.1963086724281311,-0.6854909062385559,-0.6021060347557068,-0.9277145266532898,-0.1675887107849121,1.7055494785308838,0.524559736251831,-1.493695616722107,0.017043277621269226,-1.6387237310409546,-0.09077192097902298,0.6307410001754761,-1.8287384510040283,0.3448082506656647,-0.07949190586805344,1.59540593624115,0.3263349235057831,0.10661567747592926,0.44425249099731445,-0.46477118134498596,-1.0202716588974,2.1525723934173584,1.2693272829055786,0.37585705518722534,0.11715129017829895,-1.4361926317214966,-0.7391880750656128,0.09224850684404373,0.5224605798721313,-0.6804229617118835,0.15777921676635742,0.728347897529602,0.9182391166687012,0.10014329105615616,1.8469948768615723,-1.0286459922790527,-1.0249706506729126,-1.179097056388855,0.8837863206863403,-1.119494080543518,0.9020357728004456,1.3560587167739868,-0.22525009512901306,0.925096333026886,1.470475673675537,-0.9788059592247009,1.1076092720031738,0.5553481578826904,-1.7128957509994507
movietweetings_recsys2014.csv,0.26433295011520386,-0.8227638602256775,2.231706142425537,0.044170450419187546,0.016834085807204247,-0.8140592575073242,0.6576255559921265,0.8717589378356934,0.22143302857875824,-0.3649308383464813,-0.7528928518295288,-0.33461934328079224,2.2308549880981445,-1.7228546142578125,0.11910232156515121,0.4666033089160919,0.7886708378791809,-0.021837210282683372,0.7568391561508179,-0.40396547317504883,0.8720274567604065,-0.4269196391105652,1.7138582468032837,0.0647827759385109,0.13156171143054962,-0.4246375858783722,-1.2030483484268188,-0.8025278449058533,-1.0930511951446533,0.6707598567008972,0.3998039662837982,0.1279359757900238,0.2684255838394165,1.6979888677597046,0.5212714672088623,1.059186577796936,-2.6904003620147705,-0.27564385533332825,-0.6870614886283875,0.8422805666923523,-0.15067850053310394,0.7531920671463013,0.890741765499115,-0.7516294121742249,0.4174208343029022,-0.8535994291305542,-1.861635446548462,0.8665013909339905,0.9175865054130554,-1.808484673500061
amazon-instant-video.csv,0.9373307824134827,-1.6076956987380981,0.6823155879974365,-0.25918692350387573,-0.12199456244707108,-1.55872642993927,0.9420678019523621,0.3295366168022156,-1.199134349822998,0.9730945229530334,-1.3224573135375977,-0.7325737476348877,1.2371193170547485,-0.7723175883293152,0.4995258152484894,-0.9035155177116394,0.9318548440933228,0.47498220205307007,2.0982258319854736,1.3562885522842407,-0.7105199098587036,-0.15972432494163513,1.8961831331253052,0.7783578634262085,-1.0721321105957031,-0.2581024467945099,-1.9569222927093506,0.24592196941375732,-0.695796549320221,1.107084035873413,-0.35794055461883545,-0.1246122270822525,-0.6382784247398376,1.4649224281311035,0.07860321551561356,1.1490952968597412,-1.2586228847503662,0.3016394078731537,0.39334988594055176,-0.026850074529647827,-1.5336264371871948,0.7228975296020508,0.7785654664039612,0.002188202692195773,0.6612849831581116,-0.047241345047950745,1.018110990524292,1.289996862411499,-0.3352740406990051,-1.7969523668289185
yelp.csv,-0.5021185874938965,-1.909478783607483,-0.1612621694803238,-0.696262001991272,-1.173293113708496,-0.4515073299407959,2.122462511062622,-0.16778799891471863,-0.643372118473053,-0.7694519758224487,-0.6281523704528809,-0.8320153951644897,1.5280747413635254,-0.5918017625808716,0.252156525850296,1.0065659284591675,1.462182641029358,1.0855869054794312,1.9225260019302368,-0.7536784410476685,0.527065634727478,0.11845707893371582,1.6922876834869385,1.274013876914978,-1.7008922100067139,-0.2125694751739502,0.13569152355194092,-0.5542904138565063,1.016105055809021,0.6311329007148743,0.11667751520872116,0.5320412516593933,-0.23657934367656708,1.0667827129364014,-0.6993165016174316,1.478440284729004,-1.2957921028137207,0.6823987364768982,-0.5053141713142395,0.5105363726615906,-0.0073092603124678135,0.01063732523471117,0.9175603985786438,-1.1377055644989014,-0.18418677151203156,0.9023736119270325,0.29852041602134705,0.30836039781570435,0.668254554271698,-2.4752707481384277
amazon-movies.csv,0.3034530580043793,-0.489604651927948,-0.01601932942867279,-1.0673096179962158,0.4579433500766754,-0.17577144503593445,1.6825240850448608,0.947064995765686,-0.9606188535690308,-0.01256911363452673,-1.3811817169189453,-0.7147094011306763,1.270882248878479,-0.7140927314758301,0.5890980362892151,-0.8536944389343262,0.058293964713811874,-0.32106655836105347,0.8830240964889526,-0.5278360247612,0.9050909876823425,-1.211273193359375,-0.08650530129671097,1.2901993989944458,-1.308236837387085,-0.026872284710407257,-2.7329137325286865,-0.23629240691661835,0.4158022105693817,0.04441431537270546,0.057487353682518005,-1.3641047477722168,-0.8841554522514343,-0.16430671513080597,-1.4265804290771484,0.36231860518455505,-0.9375702738761902,0.9263347387313843,-0.26292651891708374,-0.010629839263856411,0.06686563789844513,2.392981767654419,1.2584550380706787,-2.0311355590820312,0.42563918232917786,0.5988261103630066,0.11291054636240005,-0.18951798975467682,0.70602947473526,-2.0761687755584717
movielens10m.csv,-0.5459030270576477,-0.28141874074935913,0.4383554756641388,-1.9459306001663208,0.2781422436237335,-1.000634789466858,1.4491654634475708,1.160103678703308,-1.9485831260681152,1.0573034286499023,-0.8096024990081787,0.9209407567977905,1.2842559814453125,-1.6544322967529297,1.7618423700332642,1.3657293319702148,0.8045156598091125,0.6708566546440125,1.917716145515442,1.3668140172958374,0.8618506789207458,0.700077474117279,0.1390286237001419,0.4206219017505646,0.41572150588035583,-1.1872448921203613,-2.19826078414917,0.3022541105747223,0.10894595831632614,0.6332371830940247,0.008608964271843433,-0.4740534722805023,-0.4759046733379364,-0.3946579098701477,-0.04943471774458885,-0.16101260483264923,-1.5257145166397095,0.8413407206535339,-0.01119987666606903,0.39961710572242737,0.29935023188591003,0.20713312923908234,-0.24264644086360931,-0.5452756881713867,-0.30572348833084106,0.533717691898346,-1.3732167482376099,0.6119084358215332,0.2683075964450836,-1.8231719732284546
flixter.csv,1.0715731382369995,-0.5935267210006714,0.2547032833099365,0.0019749163184314966,0.31436988711357117,-0.35802415013313293,1.0855401754379272,-0.6331363916397095,-1.1450212001800537,0.31916385889053345,0.3272130489349365,-1.2362747192382812,2.2782061100006104,-0.32291555404663086,0.3414583206176758,1.025631308555603,-0.06491249799728394,0.7413986921310425,1.611765742301941,0.47035515308380127,1.3615061044692993,-0.2706815004348755,1.511619210243225,-0.13562531769275665,-0.36895811557769775,-0.5742566585540771,-1.1875739097595215,-2.7094531059265137,0.42980849742889404,0.8654581904411316,0.8844390511512756,-0.4833104610443115,-1.179898977279663,0.08332495391368866,-1.1844819784164429,1.1064631938934326,-1.7882590293884277,-0.5565546751022339,-1.2229559421539307,-1.0762535333633423,0.5172390341758728,0.8001265525817871,1.3202638626098633,-1.3179707527160645,-0.2652043104171753,-0.0399283692240715,-0.6910802721977234,-0.2892821133136749,0.8823922276496887,-1.5359307527542114
amazon-home.csv,-0.00888242106884718,-1.6632276773452759,-0.26001232862472534,-0.4582188129425049,-1.2343229055404663,0.8339577913284302,1.9535943269729614,0.6350958347320557,-0.14766661822795868,0.4422023892402649,-0.3377862274646759,-0.6575552225112915,1.5186306238174438,-0.5123972296714783,1.8524926900863647,-0.32626309990882874,0.5682752728462219,-0.05616094172000885,1.5696204900741577,1.19626784324646,0.6295682191848755,-2.4857535362243652,1.1421951055526733,1.0054014921188354,-1.4753581285476685,-0.4989907145500183,-1.4873862266540527,-0.112785704433918,0.22801660001277924,0.7315978407859802,0.7719114422798157,-0.4214838743209839,-0.33204764127731323,0.014595353975892067,-1.1789671182632446,1.160293698310852,-1.5003758668899536,0.7380285263061523,0.1768503040075302,-0.5631482601165771,-0.4871003031730652,0.6838833093643188,1.6540788412094116,-0.024841448292136192,0.6852410435676575,0.08569249510765076,-0.800086259841919,1.2461601495742798,-0.19282501935958862,-1.5438989400863647
movielens100k.csv,1.8640741109848022,-0.7927975654602051,-0.7449628114700317,-0.8631057739257812,1.1331815719604492,-0.29745346307754517,1.9951155185699463,1.127840280532837,-0.7599499821662903,-1.4409339427947998,-1.193838357925415,0.3706447184085846,1.1908268928527832,-0.5767120718955994,0.06540396809577942,-0.10825703293085098,1.3730828762054443,0.9106362462043762,1.3085392713546753,0.2744961380958557,1.8203814029693604,-0.3405526280403137,1.2387809753417969,-0.23484210669994354,-2.4400575160980225,-0.15799464285373688,-2.1381607055664062,-0.04960590973496437,0.3427584767341614,1.6488145589828491,-0.2014167159795761,-1.5870269536972046,0.11931858211755753,0.3336508572101593,-0.36429157853126526,0.564033567905426,-0.8449682593345642,-1.0569531917572021,-0.5605828166007996,0.7572506070137024,0.19388745725154877,0.298990935087204,0.49934324622154236,0.35406506061553955,-0.2546803653240204,-1.235803484916687,-0.2365647554397583,0.4614046812057495,-0.2862791419029236,-0.8824592232704163
movielens20m.csv,0.7565356492996216,1.2216180562973022,-0.19294701516628265,0.15390163660049438,0.4440687596797943,-0.6679094433784485,1.2398492097854614,0.7151416540145874,-0.34813281893730164,-0.34640607237815857,-0.38184401392936707,-0.4221276640892029,1.630001425743103,-1.0762507915496826,0.06698831170797348,0.8192100524902344,1.67201828956604,0.3337937891483307,2.2932772636413574,1.4662878513336182,0.7883931994438171,-0.32679709792137146,1.008081078529358,0.6117264032363892,-0.7580428719520569,-1.42032790184021,-1.1037602424621582,0.23249498009681702,0.05854851379990578,-0.1662219613790512,1.5548099279403687,-0.17470020055770874,0.9182246327400208,-0.15564191341400146,-0.8297735452651978,2.197209596633911,-1.3568376302719116,0.3938930630683899,-0.35086849331855774,0.62838214635849,-0.6005540490150452,2.776588201522827,0.6941689848899841,-0.3553323745727539,0.9565597772598267,1.1697962284088135,0.5868490934371948,0.23472683131694794,0.43723368644714355,-0.9476590752601624
movielens1m.csv,0.9431453347206116,-1.0181387662887573,0.023281462490558624,0.019460104405879974,-0.2237413227558136,-0.2101011425256729,-0.2834484577178955,0.03678133338689804,-0.6257631182670593,0.02348741702735424,-1.4140363931655884,-0.9836714267730713,0.8182937502861023,-1.712334394454956,1.9142212867736816,0.9333600401878357,2.724276065826416,1.3499037027359009,0.29891058802604675,-0.6794816255569458,1.124566912651062,-0.04207345470786095,0.9703201055526733,-0.4982236623764038,-1.2409114837646484,-1.4005030393600464,-1.5604153871536255,0.6641979813575745,-0.8415544033050537,0.4062850773334503,0.18712668120861053,-0.421154648065567,-1.3337956666946411,0.5030232071876526,-1.404191493988037,-0.264413446187973,-0.2791467607021332,0.7983947992324829,-0.9038774371147156,-0.9447317719459534,-0.8768791556358337,1.1570583581924438,-0.4179559648036957,-0.27299463748931885,-0.009554839693009853,0.8341195583343506,-0.47342386841773987,1.9428836107254028,0.7225770950317383,-1.616848111152649
yahoo-movies.csv,-0.026709411293268204,-0.4470576047897339,2.0322365760803223,-1.054831624031067,0.5518296360969543,1.3157038688659668,0.5847300887107849,0.7812801599502563,-0.3947453200817108,0.5528345704078674,-1.5636444091796875,-0.14073383808135986,-0.11646509915590286,-1.2852275371551514,0.10936804115772247,1.1292314529418945,0.22211189568042755,2.0329642295837402,1.4532049894332886,-0.6811197996139526,1.2076252698898315,-1.1665178537368774,1.914379596710205,-0.24978534877300262,-0.737854540348053,0.33150985836982727,-1.9495081901550293,0.11575771868228912,-0.011221221648156643,1.059739351272583,0.8905466198921204,0.05434926971793175,-0.1440957635641098,-0.6931952238082886,-0.8281894326210022,0.6426522135734558,-1.6493799686431885,-0.7148712873458862,-1.110660433769226,-0.15310688316822052,1.2953121662139893,1.7527681589126587,0.9845670461654663,0.10750038176774979,0.5321027636528015,0.9961346387863159,1.0920963287353516,0.7579546570777893,0.3408958613872528,-1.0098578929901123
amazon-instruments.csv,0.09103995561599731,-0.7775629162788391,1.1078779697418213,-1.2597206830978394,-0.3688996434211731,0.2588164806365967,2.0975868701934814,1.0898892879486084,-0.04098030552268028,1.384042501449585,-0.6586837768554688,0.5418720245361328,-0.08244744688272476,-0.06454543769359589,0.7342486381530762,0.5992478132247925,0.7802799344062805,-0.22182434797286987,0.38997524976730347,-0.28568464517593384,0.08597572892904282,-0.3601323664188385,1.8099321126937866,0.8464409708976746,-0.8413559198379517,-0.4143422842025757,-2.1868951320648193,-0.8710715770721436,0.06969404965639114,1.3394962549209595,0.8177986145019531,-0.3739628195762634,0.37415170669555664,1.411821961402893,-1.3986284732818604,1.518416166305542,-2.223090648651123,0.34015560150146484,0.09253393113613129,-0.5921421647071838,-0.806438684463501,1.7015420198440552,0.2114506959915161,-1.1434369087219238,1.0352530479431152,-0.03493184223771095,0.06636526435613632,1.9142038822174072,0.06321697682142258,-1.3126513957977295
jester3.csv,0.08418811857700348,0.2643437087535858,0.6533812880516052,-2.1591594219207764,-0.14879478514194489,-1.1378580331802368,1.1156806945800781,-0.30878883600234985,-1.5458904504776,-2.007814645767212,-0.5373263359069824,0.12167268991470337,-0.451282799243927,-0.47431352734565735,1.5873901844024658,0.010801003314554691,0.7188678979873657,0.49218034744262695,2.812772750854492,-0.31249597668647766,0.028930790722370148,-1.3283710479736328,1.1703424453735352,-0.22432851791381836,-1.1416999101638794,-1.226292371749878,-2.0881166458129883,-1.3710408210754395,-0.8479976058006287,0.4445154368877411,0.539823591709137,0.5698727369308472,0.6858960390090942,0.42981958389282227,-0.5726090669631958,0.7455927133560181,-0.3909960687160492,0.1968536078929901,-0.7294167280197144,-0.8747059106826782,-0.9458119869232178,-0.15310220420360565,0.15077169239521027,0.1310250163078308,-0.15872344374656677,0.2953977584838867,0.37594541907310486,2.015174627304077,0.6587417721748352,-1.1116613149642944
amazon-apps.csv,0.4151713252067566,-0.284664124250412,0.9617587327957153,-0.11445088684558868,-0.8854913115501404,-1.55973219871521,1.0302455425262451,-0.2114538550376892,-0.3396639823913574,-0.20768152177333832,-0.507270336151123,-0.7809237837791443,1.8633192777633667,-0.16312868893146515,-0.03950967267155647,1.9740320444107056,-0.051434483379125595,1.952735424041748,1.6679006814956665,-0.9587082266807556,0.5501543283462524,-0.37567147612571716,2.759106159210205,0.4721735715866089,0.10046860575675964,0.4160975217819214,-2.2630746364593506,0.08115129917860031,0.12898676097393036,-0.07351136952638626,-0.5399351119995117,-1.428912878036499,0.09279780089855194,1.1659502983093262,-0.6646236181259155,0.9497926235198975,-1.4928390979766846,0.27074262499809265,-0.3341255784034729,0.898639440536499,-0.3361304998397827,0.685312807559967,1.125662922859192,-1.3293914794921875,0.4457622468471527,0.2826082408428192,-0.040806859731674194,0.2785135805606842,0.6489756107330322,-1.5070011615753174
