movielens10m.csv,-0.3923448324203491,1.2341188192367554,-0.6957158446311951,-1.0105961561203003,1.1439145803451538,0.3516353368759155,0.7361534237861633,1.1402407884597778,0.7659482359886169,1.8036025762557983,-0.8590241074562073,1.0074958801269531,-0.32463759183883667,-0.2565196752548218,0.9571639895439148,0.8174466490745544,0.2265496551990509,-1.5775692462921143,0.7838223576545715,0.7080895900726318,-0.8401346206665039,0.09395147860050201,0.4714282155036926,0.4206623435020447,-0.4453922212123871,1.3543193340301514,2.1513431072235107,-0.04770459234714508,0.7202810049057007,-1.3534983396530151,-0.8716675639152527,-0.3999742567539215,-0.10481420159339905,-0.39517924189567566,-0.8862293362617493,1.05793035030365,-2.3960282802581787,1.5118082761764526,1.8119590282440186,1.1578850746154785,-0.9646061062812805,0.28317296504974365,1.5342057943344116,-0.04379952698945999,0.8265958428382874,-0.5666716694831848,-0.20480976998806,0.24112899601459503,0.9997838139533997,-0.8235287666320801,1.655851125717163,0.14422284066677094,-0.4075225591659546,0.22765414416790009,1.2048192024230957,0.8191239237785339,0.5174903273582458,-0.8490999341011047,-0.008028559386730194,-0.4681282341480255,0.13317523896694183,0.279854416847229,-0.1713552325963974,1.602529525756836,-1.0911221504211426,-1.3280164003372192,1.0247132778167725,0.7210449576377869,-0.5266456007957458,0.8325002789497375,0.12673503160476685,-0.7798904776573181,-0.1708288937807083,0.8693163394927979,1.206889033317566,0.09126552939414978,-0.3918609321117401,0.8229143023490906,0.3011736273765564,-1.1454646587371826,1.35921311378479,0.5604986548423767,-0.9719944596290588,-0.3809140622615814,-2.095682382583618,-0.25782766938209534,1.042114019393921,0.45181524753570557,-0.5892139077186584,1.6918799877166748,2.3931353092193604,-0.7971699237823486,0.5580772757530212,-0.23052974045276642,-1.5096322298049927,-0.6128252744674683,0.46731144189834595,0.435487300157547,-0.0960129126906395,0.11020661145448685,0.49573153257369995,0.7062430381774902,-0.611659586429596,0.9006596207618713,2.406172275543213,1.2730786800384521,0.14648927748203278,-1.2620207071304321,0.9491561651229858,-0.02994772605597973,-0.8040837645530701,0.27038443088531494,-1.572313904762268,-0.26068219542503357,-0.6366844773292542,0.06935568153858185,0.29901617765426636,0.8309667110443115,0.12076441943645477,0.0742332935333252,-0.893938422203064,-1.7276233434677124,0.16430628299713135,0.19567206501960754,1.333831548690796,0.5264256000518799,-0.41805246472358704,0.2632133662700653,-1.207279920578003,-0.8048024773597717,-0.32884442806243896,-0.586506187915802,1.0403269529342651,-1.7151877880096436,-1.8799731731414795,-0.44025087356567383,-2.103520154953003,1.6363122463226318,-0.740822434425354,3.3059258460998535,0.41053566336631775,1.1105084419250488,1.4992198944091797,-1.1375854015350342,0.453302264213562,0.40146327018737793,-0.11892908811569214,-0.5321105718612671,-0.7064273953437805,1.2353696823120117,1.2197102308273315,-0.684610903263092,-1.3954216241836548,-0.7978388667106628,-1.0357301235198975,-1.4664758443832397,-1.783684253692627,-0.8225805163383484,0.255774587392807,1.8074251413345337,-1.4874155521392822,0.26160916686058044,-1.0606470108032227,0.6218780875205994,-0.5143468379974365,-0.5137816071510315,0.4226604998111725,-0.5003439784049988,-0.6163266897201538,0.3873229920864105,-1.3809338808059692,0.45936062932014465,-0.7421199083328247,2.8156380653381348,-0.8853746056556702,-0.5754558444023132,0.5090280175209045,-0.1860731989145279,0.16827014088630676,0.11566238850355148,0.45928314328193665,-1.3886125087738037,-0.6944377422332764,-1.886101484298706,-0.3553852140903473,-0.7965709567070007,-0.4392818212509155,0.10089610517024994,-0.20258726179599762,0.10350983589887619,0.2913733720779419,-0.6504759192466736,-1.4121941328048706,-0.9586998820304871,0.8224789500236511,2.177490711212158,0.7732478976249695,-0.8787723779678345,-0.5551273822784424,-0.051092613488435745
amazon-toys.csv,-0.6814448833465576,-0.4810752272605896,0.034186817705631256,-2.052886486053467,1.111435055732727,0.04687853157520294,0.6448068022727966,0.876834511756897,0.9160134792327881,-0.16095076501369476,0.801569402217865,-0.41187697649002075,-1.194203495979309,-2.201460838317871,0.3592521846294403,-0.9353182911872864,0.08943451195955276,-1.4818780422210693,0.20793971419334412,0.5145193338394165,-0.016299713402986526,-0.0689358115196228,1.3889392614364624,0.9043627977371216,-0.399645060300827,1.130265235900879,1.3167476654052734,-1.0862475633621216,0.16776123642921448,-1.168273687362671,0.2204717993736267,0.43935754895210266,0.11401379853487015,-1.1271175146102905,1.0896614789962769,-1.2084791660308838,-0.9336831569671631,2.819575548171997,0.9363368153572083,0.6647993326187134,-1.014847993850708,-1.4549815654754639,1.8971030712127686,-0.08001689612865448,1.6712064743041992,-0.775489091873169,-0.042537592351436615,-0.9178186655044556,0.20816004276275635,-0.48823273181915283,0.5615012049674988,-0.0075325085781514645,0.8863410353660583,1.5885316133499146,0.8267361521720886,1.5239787101745605,-1.362413763999939,-1.253341794013977,-0.5336293578147888,-1.4506126642227173,-0.6655022501945496,0.5120939612388611,0.08392203599214554,-1.476060390472412,-1.559857964515686,-0.24303415417671204,0.5342878699302673,0.989106297492981,1.0802628993988037,0.153399258852005,-0.7135623097419739,-1.3804855346679688,-0.9493705034255981,1.1115883588790894,-0.017062535509467125,-0.9509556293487549,0.030235465615987778,0.30520257353782654,0.4427509605884552,-0.2893838882446289,0.353897362947464,8.477027586195618e-05,0.4149719476699829,0.7923149466514587,-3.4006235599517822,-0.6355431079864502,0.11226005107164383,-1.22367525100708,0.7690458297729492,1.697833776473999,1.2766289710998535,-1.4287190437316895,-0.06971714645624161,-1.508532166481018,-0.6295291781425476,-0.6944890022277832,-1.084070086479187,-0.7988277077674866,-1.0815843343734741,-0.26875948905944824,-1.2064839601516724,0.5265072584152222,0.3905108571052551,0.4444899559020996,0.7505701780319214,1.0023819208145142,-0.10274084657430649,-0.8289380669593811,0.19313065707683563,-0.8492506742477417,-0.691209614276886,-0.23135517537593842,-0.3879638910293579,0.37603989243507385,0.5158528685569763,-0.14916212856769562,0.967301607131958,-0.10054255276918411,1.0912350416183472,-0.4608064591884613,0.5205084085464478,0.022584259510040283,-0.9038649201393127,1.5696372985839844,0.31509125232696533,1.671363353729248,-0.6529250741004944,1.0105388164520264,-0.5792369246482849,0.2101544737815857,0.8744005560874939,-2.4734508991241455,0.37915095686912537,-0.2560569941997528,-1.3409640789031982,0.14135463535785675,0.22728556394577026,-0.3458649218082428,-2.0663232803344727,2.638184070587158,0.2790001928806305,-0.3772899806499481,0.3385999798774719,-0.12815667688846588,-0.017745858058333397,1.4250011444091797,0.8864883184432983,-1.689435362815857,2.3665225505828857,1.4404385089874268,0.34580323100090027,-2.2534236907958984,-0.6764392256736755,-1.0993585586547852,0.38771530985832214,0.3420187830924988,-1.1709678173065186,-0.00635321531444788,-1.5719637870788574,0.7831850051879883,-0.7996123433113098,-1.0426141023635864,0.40730583667755127,-0.4925522208213806,0.11230005323886871,0.6465974450111389,0.9804196357727051,0.4144001305103302,0.4085533916950226,0.6680806279182434,-0.9826669096946716,0.03708508610725403,-0.5694026947021484,2.018440008163452,-0.37437891960144043,0.9682693481445312,-1.1876217126846313,0.8807316422462463,0.2960977852344513,0.9145140647888184,0.23479579389095306,-0.1489449143409729,0.7965005040168762,-2.0410852432250977,-1.7092154026031494,0.7463734745979309,0.27350670099258423,-0.5941994190216064,0.27070939540863037,-2.051776170730591,-0.39717182517051697,-0.3240443468093872,0.04592371731996536,-0.3233990967273712,0.036920350044965744,1.394527792930603,0.9638605117797852,0.6600050330162048,-0.3837553858757019,-0.21799573302268982
movielens_latest.csv,-1.0606541633605957,1.2544671297073364,-0.3064349591732025,-0.27933087944984436,1.810957670211792,-0.8971243500709534,0.6495598554611206,-1.330496072769165,0.12024901807308197,0.2981451749801636,-1.0770848989486694,-0.13340222835540771,-0.5597796440124512,-1.0492539405822754,-0.08954596519470215,-0.29365843534469604,-1.3252569437026978,0.09660889953374863,-0.37587061524391174,1.4358516931533813,-1.134859323501587,0.7401994466781616,0.8054602742195129,-0.025677189230918884,0.40610426664352417,0.9569068551063538,0.8225122690200806,-0.7221935987472534,1.6439183950424194,-1.112799048423767,-1.5823043584823608,0.4909577965736389,0.15321148931980133,0.5322890877723694,-0.9579577445983887,-0.5026817321777344,-1.3158135414123535,0.5679970383644104,0.6471887826919556,0.15397849678993225,0.8403317928314209,-0.5005099177360535,2.6076204776763916,0.22307856380939484,1.004747748374939,-0.5359988212585449,0.9253664612770081,-0.4621850550174713,0.32891714572906494,-0.618042528629303,4.601775169372559,0.2841681241989136,0.8333984613418579,1.1881639957427979,0.23734033107757568,0.5456445813179016,-0.2838727831840515,0.738811731338501,-0.6900572180747986,-0.09333895146846771,1.3018710613250732,2.576265573501587,0.09908217191696167,-1.5041242837905884,-2.5629546642303467,-0.32342278957366943,0.030916674062609673,0.02546214684844017,-0.4692195653915405,0.001965171191841364,-1.7635524272918701,-0.34830498695373535,-1.5672099590301514,-0.10592219978570938,-0.01398537214845419,-0.8369925022125244,1.593143343925476,0.8086163997650146,-0.9780110716819763,0.41306859254837036,0.32474589347839355,-0.6822836399078369,1.1414331197738647,-0.8109429478645325,-1.9826854467391968,-0.6037251949310303,0.11734237521886826,-0.9203667640686035,0.9094422459602356,1.0707571506500244,0.08796026557683945,-0.4374117851257324,0.2879634499549866,-1.0959004163742065,-0.3844047784805298,0.492453396320343,-0.25131621956825256,-0.16520419716835022,-0.9544995427131653,-0.16427850723266602,-0.03212525323033333,-0.26947301626205444,-0.8992261290550232,0.628449559211731,0.5466017127037048,0.2660902142524719,-0.7208365797996521,-0.7146497368812561,-0.6757293343544006,0.7268892526626587,0.38244619965553284,0.558617353439331,-1.2523088455200195,1.9304414987564087,0.9039196372032166,0.9088467955589294,-0.07395288348197937,0.09207459539175034,1.2626042366027832,-0.37152037024497986,-1.0927354097366333,0.7896299958229065,-0.7747542858123779,-0.4818386733531952,0.025081893429160118,1.6252566576004028,-1.2823405265808105,-0.5018070340156555,-0.7273962497711182,0.4909205138683319,-0.030474161729216576,-2.6925482749938965,0.5237671732902527,-0.6556785702705383,-1.6632105112075806,-0.05025854334235191,-0.3979896306991577,0.7607402205467224,-0.9484386444091797,2.785249710083008,0.09185927361249924,0.13631358742713928,0.7774184346199036,0.790103018283844,-0.13922807574272156,-1.0558339357376099,1.19106125831604,-1.328872561454773,0.8074434995651245,1.246767520904541,0.10713793337345123,-1.769885540008545,-0.6565033793449402,-0.848937451839447,0.5986772179603577,-0.18223276734352112,-1.7891687154769897,-2.4660091400146484,-0.8740656971931458,1.3071924448013306,-1.1202698945999146,0.44573286175727844,-1.2155333757400513,0.1781120002269745,-1.3341050148010254,-0.208998903632164,0.780392050743103,0.20719075202941895,-1.6988333463668823,-0.9176020622253418,-1.2821272611618042,0.45225560665130615,-1.0683270692825317,0.3275038003921509,-0.87812739610672,0.45336803793907166,-0.0014980678679421544,-0.04908683896064758,0.7329133152961731,-0.05119757354259491,0.6694673299789429,-0.7611486911773682,0.08334492146968842,-0.8095061779022217,-0.7848600745201111,-2.1016499996185303,-0.25885987281799316,0.436257541179657,-0.7891611456871033,-0.24177931249141693,-0.8597797751426697,-0.6165990829467773,0.8447434306144714,0.12175671756267548,0.6282050013542175,1.1985048055648804,1.2929155826568604,0.7048481702804565,-0.0029740496538579464,-0.05850300192832947
amazon-health.csv,-1.1376705169677734,0.5443253517150879,-1.0500363111495972,-1.4964443445205688,1.822947382926941,-1.56705641746521,1.792946219444275,0.3718230724334717,0.359320729970932,-0.31871551275253296,0.5612940788269043,-0.4573934078216553,0.3624213635921478,-0.8468876481056213,-0.23908895254135132,-0.3924342691898346,-0.25640833377838135,-1.4462624788284302,0.022924546152353287,0.6091136336326599,-0.7773051261901855,1.8817713260650635,0.8684648275375366,0.9401999115943909,-0.19510376453399658,1.534454345703125,0.6604933142662048,0.07279060781002045,1.4411600828170776,-2.1578800678253174,0.029659822583198547,0.38198745250701904,-0.6588816046714783,1.197432041168213,-0.37319403886795044,-0.39114290475845337,-2.049485683441162,0.8777080178260803,0.274844765663147,1.9182685613632202,-0.8651587963104248,-0.710069477558136,1.4367278814315796,0.7268097400665283,-0.113039031624794,-1.5389125347137451,0.29222342371940613,-0.36056220531463623,-0.15153275430202484,-0.758510172367096,0.9629203081130981,0.830574095249176,0.8706003427505493,1.9290508031845093,0.05260595679283142,1.4150476455688477,-0.25824451446533203,-0.773561418056488,-1.0737990140914917,-0.6182329058647156,0.446638822555542,1.8380281925201416,0.7674403190612793,-0.08983263373374939,-2.6338932514190674,-0.4854458272457123,0.8592924475669861,0.08830328285694122,0.34322041273117065,1.3131232261657715,-0.07702381908893585,-1.1632777452468872,-1.0560756921768188,0.2046138048171997,-0.27374815940856934,-1.519751787185669,0.02987208403646946,0.9548754096031189,0.1084507629275322,0.8629709482192993,0.7510673999786377,-0.018148183822631836,0.6364542245864868,0.7409310936927795,-2.692967414855957,-0.8670070767402649,0.4374772906303406,-0.9096795320510864,1.5244241952896118,1.0921555757522583,1.8207770586013794,-0.5447568893432617,0.906816303730011,-1.7322496175765991,-0.6310420632362366,0.37075334787368774,-0.4936300218105316,-0.6981832981109619,-0.9675924777984619,-0.1790858805179596,-0.9144757986068726,-1.0826948881149292,-0.2606964111328125,0.15950830280780792,0.8553189635276794,0.23184239864349365,-0.17994175851345062,-1.0512447357177734,0.6522112488746643,-1.309327244758606,0.3544709086418152,0.2818324565887451,-0.6283546090126038,0.822668194770813,-0.3462546467781067,-1.2438963651657104,-0.5686118602752686,0.018589280545711517,0.3774723708629608,-0.7609065771102905,-0.9197347164154053,-0.9799553155899048,0.8787016272544861,0.7678695321083069,0.3729347288608551,0.7969515919685364,-1.4139683246612549,-0.22237148880958557,-1.2781167030334473,-0.8461854457855225,0.29974403977394104,-2.2553820610046387,0.14647114276885986,-1.2194087505340576,-1.414851427078247,-0.09790822863578796,-1.2417680025100708,1.2116222381591797,-2.7999002933502197,2.5434834957122803,0.9267131090164185,0.014933034777641296,0.9291605353355408,-0.8901062607765198,0.9535402655601501,-1.0678194761276245,0.2288079857826233,0.14373435080051422,0.4766498804092407,1.7287709712982178,0.4546113610267639,-1.2845715284347534,-0.300070196390152,-0.8470858335494995,0.2569131553173065,-0.4962327182292938,-3.0562610626220703,-1.344546914100647,-1.8972002267837524,1.0216675996780396,-2.0123748779296875,0.25812870264053345,-1.2161921262741089,-0.28932997584342957,-0.3727426826953888,-0.4236777424812317,0.6757093667984009,-0.17817001044750214,-0.3048675060272217,0.2143269032239914,-0.9293044209480286,0.7496787309646606,-0.7259933948516846,0.6930860280990601,-0.9703647494316101,1.0887560844421387,-0.40402135252952576,0.8649359345436096,-0.057122860103845596,-0.04580910876393318,0.1934366524219513,-0.4462442994117737,-0.5723318457603455,-1.7439887523651123,-1.2973138093948364,0.6780528426170349,-0.1906140297651291,-0.29585641622543335,0.43874529004096985,0.08338922262191772,0.42180171608924866,-1.1330578327178955,0.08845553547143936,-0.37502479553222656,0.37590304017066956,0.7490341663360596,0.9270439743995667,0.5524849891662598,0.9029229879379272,0.18989120423793793
amazon-clothes.csv,-0.7073037028312683,0.4370230436325073,-0.9356986880302429,-0.606194794178009,1.6705764532089233,-1.5795859098434448,1.5548862218856812,-0.337245911359787,0.9923769235610962,-0.8811397552490234,0.2444038987159729,0.3288266658782959,0.06969450414180756,-1.1789826154708862,0.7447178959846497,-0.0775737538933754,-0.05289691686630249,-1.328285574913025,0.07181349396705627,-0.2621353566646576,-0.4611084461212158,1.3367165327072144,1.5759130716323853,0.4097159504890442,-1.043358325958252,1.6062923669815063,-0.1406763195991516,0.010071336291730404,0.51368248462677,-2.0496482849121094,-0.18181480467319489,1.1150676012039185,-1.3655552864074707,0.5873783230781555,0.028219634667038918,-0.6473265290260315,-1.7420392036437988,1.5240671634674072,1.1088860034942627,1.603887915611267,-1.759142279624939,-0.016625074669718742,1.4641388654708862,-0.060768965631723404,0.7422141432762146,-1.1074649095535278,-0.6523919105529785,-0.46809855103492737,0.8280784487724304,-0.46612703800201416,0.3718189597129822,0.6561592817306519,0.3244403302669525,1.5919108390808105,0.6025545597076416,1.5757452249526978,-1.1974762678146362,-0.5498703122138977,-1.1814265251159668,-1.8437600135803223,0.46785837411880493,1.593700647354126,-0.32269370555877686,0.6888712644577026,-2.1345925331115723,0.6406384110450745,1.0260573625564575,0.2146695852279663,0.8853858113288879,0.967684805393219,0.17412450909614563,-1.429413914680481,-0.1287047117948532,0.7933635115623474,-0.48002079129219055,-1.097270131111145,-0.4290608763694763,-0.36594897508621216,-0.05224554240703583,-0.8363974094390869,-0.12847283482551575,-0.12885676324367523,0.8906012773513794,1.2713576555252075,-2.7097344398498535,-1.4031072854995728,-0.08458220958709717,-0.9030628204345703,1.296697974205017,0.8791729211807251,1.6184744834899902,-0.8114992380142212,0.4571709632873535,-2.136378526687622,-1.084964632987976,0.6238309741020203,0.37263962626457214,-0.12838461995124817,0.2862207889556885,-0.14151129126548767,-1.3832160234451294,-0.34716007113456726,-0.26327499747276306,1.1307694911956787,1.2044994831085205,-0.5375542044639587,0.5399598479270935,-0.2561441957950592,0.7629634141921997,-1.5166289806365967,0.15282149612903595,0.13788212835788727,0.018049422651529312,0.6250019669532776,0.5791714787483215,-1.1499149799346924,0.2114834487438202,0.29704222083091736,0.5697736144065857,-0.0886288583278656,0.4437467157840729,-0.9743753671646118,1.0077934265136719,0.7840846180915833,1.131062626838684,1.372131109237671,-0.8947836756706238,-0.6004343032836914,-0.9089598655700684,0.24191917479038239,-0.06915902346372604,-1.9653185606002808,0.37378355860710144,-1.6826826333999634,-1.7268227338790894,0.4015825092792511,0.07945320755243301,1.018032193183899,-2.5731256008148193,2.2462425231933594,0.2327813357114792,0.12311205267906189,1.2458492517471313,0.9237889051437378,0.3253525197505951,0.40417972207069397,0.6461874842643738,0.03242895379662514,0.28037402033805847,1.4661123752593994,1.1509802341461182,-1.5829535722732544,0.07364407926797867,-1.3360930681228638,0.16550032794475555,-0.2765265107154846,-1.6795400381088257,-1.1625956296920776,-1.4237277507781982,0.7668734788894653,-1.2256040573120117,-0.424011766910553,-0.05061280354857445,-0.18254540860652924,-0.6957370042800903,0.15375694632530212,2.144516706466675,-0.38573819398880005,1.132193922996521,0.4906880259513855,0.06491482257843018,0.5618066191673279,-0.9675523638725281,1.0944586992263794,-0.4386933445930481,1.3475162982940674,-0.650593638420105,0.5286912322044373,0.3471105098724365,0.5616622567176819,-0.36877569556236267,-0.6313566565513611,0.07521948963403702,-2.754899501800537,-1.0147663354873657,0.7229664921760559,-0.4668212831020355,-0.29716211557388306,-0.14287592470645905,-1.3621026277542114,0.21390685439109802,-1.5266224145889282,0.8761911392211914,-0.9424811601638794,-0.35550224781036377,1.8530056476593018,1.0743379592895508,0.7105428576469421,1.0470441579818726,0.7009227871894836
amazon-games.csv,-0.7327536940574646,0.7960615158081055,-0.0800509825348854,-0.22202835977077484,0.9960425496101379,0.2944624125957489,2.417301893234253,1.5050206184387207,0.5728386044502258,0.466067910194397,-0.1257515847682953,-0.43416380882263184,-0.023046743124723434,-1.6590290069580078,0.14857622981071472,0.2176184505224228,-0.3814395070075989,-1.173852801322937,0.4488929808139801,0.20799167454242706,-0.24339601397514343,0.8331419229507446,0.8965299129486084,0.28800562024116516,-0.8157751560211182,0.7025753855705261,0.02571716718375683,-0.012499958276748657,0.6392020583152771,-1.6824241876602173,0.08595350384712219,0.08909900486469269,-0.14308999478816986,0.563287615776062,0.575016438961029,-1.2512694597244263,-1.4279358386993408,2.0073461532592773,1.1291983127593994,1.2452369928359985,-1.43321692943573,0.13961921632289886,1.6720911264419556,1.017209529876709,1.083640456199646,-0.16617941856384277,-0.07711933553218842,-0.2409369796514511,-0.32706502079963684,-1.068436622619629,1.4032204151153564,0.3905358612537384,-0.3042951822280884,0.3025383949279785,1.4355604648590088,0.4991481602191925,-0.7202582359313965,-0.42102041840553284,0.16801616549491882,-1.6542941331863403,-0.4726763665676117,2.4205377101898193,-0.36283567547798157,-0.5273276567459106,-1.6707406044006348,0.4123687744140625,1.3204798698425293,0.4497399628162384,0.01948721334338188,1.1417949199676514,-0.6328365206718445,-1.097738265991211,-0.6912515759468079,2.0894200801849365,0.5012246966362,-1.4425702095031738,0.6732394695281982,-0.2022966891527176,0.29366838932037354,0.1470695585012436,0.16130180656909943,-0.22520753741264343,-0.8216187357902527,0.694396436214447,-2.1365609169006348,-0.09827390313148499,0.5639749765396118,-1.9148563146591187,0.8574314713478088,1.6673587560653687,1.7566279172897339,-0.034531306475400925,-0.5236207842826843,-2.1859817504882812,-0.7048390507698059,-0.13888102769851685,-0.7826027274131775,-0.25650081038475037,0.0029988677706569433,0.4661902189254761,-1.9927705526351929,0.028503481298685074,-0.18955625593662262,0.8447532057762146,0.17005643248558044,0.8012155294418335,-0.20002931356430054,-1.6289116144180298,-0.08171650022268295,-1.063683032989502,-0.03587405011057854,-0.0520319789648056,-1.2403149604797363,0.4597671926021576,1.6568989753723145,-0.495919406414032,-0.1362120509147644,0.10247159749269485,-0.5660382509231567,-0.4451029300689697,-0.2712273597717285,-1.5661014318466187,-0.015227303840219975,0.9153470396995544,0.17772923409938812,1.0084595680236816,-0.7304089665412903,1.147290587425232,-1.5576982498168945,-1.600762128829956,0.6823415756225586,-1.9768526554107666,1.3575619459152222,-1.1151419878005981,-1.5147837400436401,-0.13135461509227753,-1.2624245882034302,0.730572521686554,-3.353126049041748,2.585451126098633,0.5905853509902954,-0.14927402138710022,-0.6330803036689758,-0.8847250938415527,0.13620653748512268,0.7181039452552795,-1.2723336219787598,-0.7876896858215332,1.2359247207641602,0.6770234704017639,0.28606200218200684,-0.7836369276046753,0.15704530477523804,0.01698947884142399,0.14281097054481506,-0.020023148506879807,-1.0004075765609741,-0.6502104997634888,-1.2395470142364502,1.3120945692062378,-1.8502178192138672,0.5871570706367493,0.6461958289146423,-0.7058485150337219,-0.2942233383655548,-0.37862685322761536,1.6645610332489014,0.942187488079071,-0.06554140895605087,1.536892056465149,-0.8769567012786865,1.403238296508789,0.6180225610733032,2.079779624938965,-0.8196859359741211,0.13856948912143707,-0.5650477409362793,0.6776843070983887,-0.6552233695983887,0.10144148766994476,-0.8397632837295532,-1.1619806289672852,0.1250140517950058,-1.7572989463806152,-0.8075704574584961,0.345306396484375,0.1608205884695053,-1.1115500926971436,0.3227020800113678,-0.6775851845741272,0.38486403226852417,-1.3648098707199097,-0.22148986160755157,-0.20805269479751587,-0.9463928937911987,1.5757317543029785,1.8287546634674072,0.20165348052978516,0.3847605884075165,1.1070466041564941
bookcrossing.csv,-1.2011301517486572,0.1918817162513733,-0.5024580359458923,-0.8302130699157715,1.6169772148132324,-0.5778102874755859,1.5727812051773071,-0.351535439491272,1.7681626081466675,-0.3754037916660309,0.7013364434242249,-0.32601550221443176,-0.23660755157470703,-1.3106552362442017,0.23934248089790344,0.14944307506084442,-0.6662430763244629,-1.614113211631775,0.33801594376564026,0.3364381790161133,-0.5388720035552979,1.336767315864563,1.5626767873764038,0.3758803606033325,-1.2802619934082031,1.4945518970489502,-0.07812542468309402,-0.4161141514778137,0.9106409549713135,-1.768693447113037,0.34106406569480896,0.8038761019706726,-0.5479522943496704,0.2865365147590637,0.6560612916946411,-0.9028646945953369,-1.3462746143341064,1.5337892770767212,1.0281546115875244,1.561067819595337,-1.1593124866485596,-0.04511485621333122,1.0050926208496094,0.017652742564678192,0.7336502075195312,-0.9885621666908264,-0.8513175249099731,-0.17468665540218353,-0.04364690184593201,-0.9759053587913513,0.7171331644058228,0.5258459448814392,0.46232473850250244,1.3674232959747314,0.7425850033760071,2.0890355110168457,-0.6229869723320007,-1.2043246030807495,-0.7727662920951843,-1.8503071069717407,0.5287421941757202,1.787718415260315,0.15666425228118896,0.14649666845798492,-2.4211020469665527,0.7581682205200195,1.331699252128601,0.656339168548584,0.5270923972129822,1.2726192474365234,-0.01194301899522543,-1.7007312774658203,-0.38040754199028015,0.5844656229019165,-0.7810073494911194,-0.9358439445495605,0.2536388337612152,0.28984156250953674,0.0067475829273462296,-0.31521475315093994,0.13543196022510529,0.27072474360466003,0.6370569467544556,1.2163341045379639,-3.195378541946411,-1.3020910024642944,0.4236959218978882,-0.9188525676727295,1.0588994026184082,1.161149024963379,1.4347529411315918,-1.2787768840789795,0.46765631437301636,-1.9015787839889526,-0.5687399506568909,0.6384583115577698,0.09001866728067398,-0.16463755071163177,-0.26176631450653076,-0.2898496985435486,-1.4221960306167603,0.16609443724155426,-0.11332729458808899,0.8597546219825745,0.8171247839927673,-0.1922478973865509,0.1176498755812645,-1.116182565689087,0.5054072737693787,-1.4424681663513184,0.00809989683330059,0.26570573449134827,-0.2406609207391739,0.9234447479248047,-0.029108868911862373,-1.0837993621826172,-0.1547490358352661,0.03657182678580284,0.2388215959072113,-0.5523306727409363,0.09949785470962524,-1.5549180507659912,0.676098108291626,0.6587918400764465,0.7244960069656372,1.501341700553894,-1.0465747117996216,-0.6968278884887695,-1.5504223108291626,-0.5870625972747803,0.8685902953147888,-1.8978067636489868,0.555030345916748,-1.0300486087799072,-1.647392749786377,0.3966142237186432,-0.6497339606285095,0.37639209628105164,-3.1473636627197266,2.613821029663086,0.847949743270874,0.3883669078350067,0.42564916610717773,-0.5556367039680481,0.5407120585441589,0.30718228220939636,0.4157932698726654,-0.41600561141967773,0.8670165538787842,2.071377992630005,0.9237236976623535,-1.6037821769714355,0.21313676238059998,-0.9699971675872803,0.5198897123336792,-0.3365086019039154,-1.622365117073059,-1.320783019065857,-1.8519306182861328,1.2199445962905884,-2.074483871459961,-0.6618894934654236,-0.1453399360179901,-1.0344518423080444,-0.7354034185409546,0.01468176394701004,1.7535266876220703,0.07336971163749695,0.687824547290802,0.26476746797561646,-0.7969313859939575,0.45637866854667664,-0.7241594195365906,1.1719216108322144,-0.5895176529884338,0.65336012840271,-0.5627183318138123,0.5815879702568054,-0.2625385820865631,0.4799509048461914,0.07636983692646027,-0.15191316604614258,-0.040014807134866714,-1.255903959274292,-1.7925504446029663,0.6500932574272156,-0.5921188592910767,-0.09880924224853516,0.49014219641685486,-0.7115077376365662,0.12353598326444626,-1.4981167316436768,0.5039028525352478,-0.5558169484138489,0.4766983389854431,1.7655481100082397,0.7380924820899963,0.6271604895591736,0.9845184087753296,0.05472402647137642
amazon-office.csv,-0.7080830931663513,0.8026179671287537,-0.26839500665664673,-0.8520908951759338,1.9044816493988037,0.009283622726798058,1.2640841007232666,0.22296142578125,2.045456647872925,0.0602545365691185,0.4220558702945709,-0.3403213620185852,-0.9744576215744019,-0.9673792719841003,0.01798534207046032,0.4332323670387268,-0.1486964374780655,-1.6675364971160889,1.1407802104949951,0.14637696743011475,-0.453887015581131,0.7021980285644531,1.2724674940109253,0.0749424397945404,-0.9289200901985168,1.2477765083312988,0.11687112599611282,-0.6369195580482483,1.1929216384887695,-1.8834947347640991,-0.27174288034439087,0.6905821561813354,0.2798506021499634,-0.1201205849647522,0.5020596385002136,-0.7253633141517639,-1.0263088941574097,1.8339968919754028,1.7740556001663208,1.4003021717071533,-1.0878815650939941,-0.30277296900749207,1.6077510118484497,0.6834027767181396,1.404671311378479,-0.4289003312587738,-0.49835482239723206,-0.20855461061000824,0.17863346636295319,-1.2611420154571533,1.6072733402252197,-0.26985642313957214,0.207738995552063,1.0886873006820679,0.8698359131813049,1.8790233135223389,-1.2457293272018433,-1.0848486423492432,-0.2601459324359894,-2.534722089767456,0.6415385603904724,1.9249211549758911,-0.3303130865097046,0.16418765485286713,-1.7002525329589844,0.7933809757232666,1.2813317775726318,0.5923589468002319,0.006254858803004026,1.0497018098831177,-0.48910805583000183,-1.2735118865966797,-0.7702193856239319,1.036818027496338,-0.46547144651412964,-0.8226540684700012,0.8559187054634094,-0.28483352065086365,-0.07033514231443405,-0.48282918334007263,0.09471756219863892,0.23947347700595856,0.0758974626660347,0.3165264427661896,-2.84287428855896,-0.5238859057426453,0.4506705403327942,-0.8496781587600708,0.36897069215774536,1.175863265991211,1.2976243495941162,-1.1065504550933838,-0.15515431761741638,-2.002845525741577,-1.367720603942871,0.6983932256698608,-0.048609159886837006,-0.5309650897979736,0.048952367156744,-0.4319676160812378,-1.9553337097167969,0.3665282726287842,-0.4182646870613098,0.9008259177207947,0.9217523336410522,0.23211148381233215,-0.22286419570446014,-1.3213027715682983,-0.6823992729187012,-0.6504848599433899,-0.4571949541568756,0.424995094537735,-0.9229828715324402,0.7776152491569519,-0.21057651937007904,-0.6974648833274841,0.39726319909095764,0.6301330327987671,0.07421544939279556,-0.35913026332855225,-0.07413981109857559,-0.9447662234306335,0.006098165176808834,0.19720031321048737,0.6293231844902039,1.3668004274368286,-1.2214405536651611,-0.5672214031219482,-2.0334267616271973,-0.8664130568504333,1.211325764656067,-2.429466962814331,1.043166995048523,-0.8123210668563843,-1.6571094989776611,0.2078009694814682,-1.1428879499435425,0.3038683235645294,-2.9930806159973145,3.0288169384002686,0.342965304851532,0.21685849130153656,0.04339055344462395,-0.37417441606521606,0.0587773360311985,1.035602331161499,0.22054648399353027,-0.3670295774936676,1.0552316904067993,2.086804151535034,0.7982425093650818,-0.8676545023918152,0.5544074177742004,-0.8695088028907776,0.601945698261261,0.13976366817951202,-1.076072335243225,-1.6892597675323486,-1.1478149890899658,1.3181777000427246,-1.836372971534729,-1.0549685955047607,0.11216647177934647,-0.6124763488769531,-0.5935959815979004,0.252957284450531,1.2305512428283691,0.4728161096572876,0.32124754786491394,0.3299054205417633,-0.9715680480003357,0.12166100740432739,-0.918424665927887,1.2749706506729126,-0.5331596732139587,0.5526672601699829,-0.5272566676139832,0.40294787287712097,-0.7251084446907043,0.3619188070297241,-0.10629820078611374,-0.2290421426296234,0.06726666539907455,-1.3060036897659302,-2.166550636291504,0.16804242134094238,-0.3753349483013153,-0.2771259546279907,0.11539910733699799,-1.2210304737091064,0.29483306407928467,-1.4972740411758423,-0.05293632298707962,-0.34514859318733215,0.048740264028310776,1.8520339727401733,0.9755240082740784,0.0984080359339714,0.893159806728363,-0.22956357896327972
amazon-phones.csv,-0.4502240717411041,1.4757308959960938,-1.2862000465393066,-0.42383331060409546,0.8095571398735046,0.28318750858306885,0.9774020910263062,0.5892367959022522,0.3529912233352661,1.4327527284622192,-0.5598920583724976,1.082929253578186,0.35719653964042664,-1.7969220876693726,0.6640032529830933,-0.09693563729524612,-0.3633841574192047,-2.248453378677368,0.8685910701751709,0.2832295596599579,-0.30430305004119873,-0.43476012349128723,0.999340295791626,-0.7641594409942627,-0.19440199434757233,1.6337981224060059,0.025460969656705856,0.4495503604412079,0.599114716053009,-2.0418155193328857,-0.26516789197921753,-0.08521458506584167,0.32769283652305603,0.9524291753768921,-0.4213154911994934,-0.2263156920671463,-0.9912780523300171,1.3046423196792603,0.9197951555252075,1.0018266439437866,-0.18992309272289276,-0.5918442010879517,1.2045838832855225,1.9826990365982056,1.0670286417007446,-0.6539682745933533,-0.017756426706910133,-1.003991961479187,-0.04456571117043495,-0.7729126214981079,0.480059951543808,-0.18960139155387878,1.6089481115341187,0.1138085275888443,-0.6104952692985535,1.1062123775482178,-1.54715895652771,-0.18143285810947418,-1.0009808540344238,-1.877848744392395,0.38377416133880615,0.6075422167778015,-0.43022045493125916,-0.5149024128913879,-1.9305065870285034,0.07317879050970078,1.8630822896957397,-0.22211138904094696,0.5275601148605347,1.4177964925765991,-1.8986635208129883,-1.284480333328247,-1.1954560279846191,1.7795346975326538,0.6041828393936157,-1.8916884660720825,-0.028341451659798622,0.9715139865875244,0.23966187238693237,-0.5109759569168091,0.22628480195999146,0.4845898151397705,0.6351340413093567,0.6141430139541626,-2.5526905059814453,-0.7582416534423828,0.5902916193008423,0.1275065541267395,0.7876741886138916,1.195635199546814,1.1989455223083496,-1.870248794555664,-0.1293114572763443,-1.7258694171905518,-1.4713521003723145,-0.6693185567855835,-0.11673281341791153,-0.32319679856300354,0.11820143461227417,-0.11862549185752869,-1.0907018184661865,0.1736215502023697,-0.04167928546667099,0.322290301322937,0.9212585687637329,0.3212117552757263,-0.6953499913215637,-0.06292734295129776,1.0003657341003418,-1.108952522277832,0.2830948233604431,1.4791433811187744,-0.7019773721694946,-0.06253765523433685,1.5562266111373901,-0.9025108814239502,1.1344164609909058,0.4781072735786438,0.3975553810596466,-0.7497897744178772,-0.512103796005249,-1.5630196332931519,-0.5116093754768372,0.2535496652126312,1.6163320541381836,0.9781676530838013,-1.5722787380218506,-0.20761707425117493,-0.43030858039855957,-1.4036619663238525,-0.5197786688804626,-2.4074902534484863,0.9845499992370605,-1.065738320350647,-0.5051703453063965,-0.25736361742019653,-0.008246407844126225,1.2268222570419312,-1.4633448123931885,1.5591412782669067,0.4329979419708252,-0.13467761874198914,0.8576561212539673,-0.6332879662513733,0.21180316805839539,1.5455241203308105,0.46701595187187195,-1.1413209438323975,0.28068071603775024,1.994357705116272,1.1748112440109253,-0.9946852922439575,0.04558904096484184,-0.8253036141395569,-0.032726697623729706,-0.2918858528137207,-0.9021205902099609,-1.5614148378372192,-0.20696812868118286,1.7702223062515259,-2.1055543422698975,-0.16793464124202728,-0.3555995225906372,-0.9075689315795898,0.37127265334129333,0.32074347138404846,1.3056764602661133,-0.14300011098384857,-0.3069354295730591,0.9799420833587646,-0.4993407130241394,-0.18084605038166046,-0.18759147822856903,2.0582756996154785,0.36568260192871094,1.5397567749023438,-1.0727710723876953,1.6989140510559082,0.6712985634803772,0.700736939907074,0.04882902652025223,-0.9275016784667969,0.20919689536094666,-0.7384356260299683,-1.9729725122451782,0.12289166450500488,-0.2935866713523865,-0.96526700258255,0.9104733467102051,-1.4992642402648926,0.6015033721923828,-2.084141492843628,-0.6550505757331848,-0.8033609986305237,0.4277988374233246,0.7161032557487488,1.3636311292648315,-0.2860974967479706,0.37740376591682434,1.1967170238494873
amazon-food.csv,-1.1956568956375122,0.43167784810066223,-0.7432171106338501,-1.2187273502349854,1.3351631164550781,-1.0200519561767578,1.442095398902893,-0.5662456154823303,1.0152524709701538,0.5396199822425842,-0.19366653263568878,0.20198175311088562,0.090911865234375,-1.4879027605056763,0.6099385619163513,-0.8209694623947144,-0.7947609424591064,-1.9163310527801514,-0.08596207946538925,0.3794088363647461,-0.6246448159217834,1.4931790828704834,1.460487961769104,0.22604885697364807,-0.7749642729759216,1.2589514255523682,0.613083004951477,-0.04542529582977295,0.4392383098602295,-2.1557810306549072,0.060060832649469376,0.655541718006134,-0.4398660361766815,0.9419994950294495,0.24744239449501038,-0.4769850969314575,-1.083417534828186,1.6066676378250122,1.0223582983016968,1.3522980213165283,-0.8397858738899231,-0.5979285836219788,1.0629701614379883,0.17231950163841248,0.47488802671432495,-1.3604881763458252,-0.042734209448099136,-0.5945026874542236,-0.3067147731781006,-1.0148096084594727,0.8072746992111206,1.1632888317108154,0.696168065071106,0.572860062122345,0.09365708380937576,1.6587899923324585,-0.8835353255271912,-0.1886475682258606,-1.8175305128097534,-1.2308627367019653,-0.03316591680049896,1.4539637565612793,0.4475015103816986,-0.2604878544807434,-2.64135479927063,-0.27238228917121887,1.199699878692627,0.7056171894073486,1.000278353691101,1.1963344812393188,-0.7519071698188782,-2.0652735233306885,-0.4233373999595642,0.6505882740020752,-0.2437380999326706,-1.032743215560913,-0.7697830200195312,1.0087300539016724,0.0511406734585762,-0.3369123637676239,0.0921391174197197,0.13259388506412506,0.9865021705627441,1.590518832206726,-2.9783003330230713,-1.3676618337631226,0.9902601838111877,-0.5831682085990906,1.2610667943954468,1.5633076429367065,1.9600940942764282,-1.4108079671859741,0.48634544014930725,-2.118964195251465,-0.602026104927063,-0.1471882164478302,-0.20649778842926025,0.33786919713020325,-0.4179230332374573,-0.33213886618614197,-0.24208879470825195,0.19866631925106049,-0.27194592356681824,0.4517049193382263,1.3590072393417358,0.078973688185215,-0.7277946472167969,-0.6436051726341248,1.330876350402832,-1.1500880718231201,0.47950640320777893,0.652467668056488,-0.609556257724762,0.7192783355712891,0.6226668953895569,-1.2321360111236572,-0.09065252542495728,0.12133891135454178,0.1509726643562317,-0.8603522181510925,-0.2814429998397827,-1.6787400245666504,-0.16397039592266083,0.6117575168609619,1.0286586284637451,1.872281551361084,-1.3372989892959595,-0.32782548666000366,-1.0509427785873413,-0.05107637122273445,0.5100552439689636,-2.0789952278137207,0.41908320784568787,-1.560312032699585,-1.142962098121643,0.06057705730199814,-0.023194720968604088,0.5923560857772827,-2.4980359077453613,2.0729405879974365,0.6830869317054749,-0.1098049208521843,0.8316721320152283,-0.8852629065513611,0.9778298735618591,-0.0795900896191597,0.6985141038894653,-0.9670065641403198,0.673608660697937,1.6334125995635986,0.7071077823638916,-1.7864636182785034,-0.8062305450439453,-0.8148935437202454,0.5935041904449463,-0.001061995979398489,-2.158830404281616,-0.9382407665252686,-1.6973174810409546,0.78003990650177,-1.8847131729125977,-0.3213047981262207,-0.616285502910614,-1.4184192419052124,-0.2114391177892685,-0.3131352961063385,1.425475001335144,0.4058464467525482,0.46650806069374084,0.020795900374650955,-0.7572265863418579,0.24648654460906982,-0.4730222225189209,1.3931357860565186,-0.16558776795864105,1.3629549741744995,-0.878081738948822,1.2315739393234253,-0.00811680406332016,0.26683175563812256,0.3718565106391907,-0.4193636178970337,0.17943373322486877,-1.234967827796936,-1.1650782823562622,0.9640517830848694,-0.07099409401416779,0.22366438806056976,0.8268136382102966,-0.9195662140846252,-0.0818822979927063,-1.3708683252334595,0.5632460117340088,-1.4740556478500366,0.5198760628700256,0.9775190949440002,0.9560850858688354,0.3689216673374176,0.6341063976287842,0.46646133065223694
amazon-kindle.csv,-1.2370645999908447,0.3189032971858978,-0.15945285558700562,-1.5266010761260986,1.3913508653640747,-0.9658624529838562,1.9656599760055542,1.5967720746994019,0.9407785534858704,0.5167495012283325,0.227046400308609,-0.5974505543708801,-0.6151665449142456,-1.3346402645111084,-0.2025543600320816,0.11903858184814453,0.3400038182735443,-1.6025164127349854,0.9286761283874512,0.6189896464347839,-0.386902779340744,1.0677160024642944,0.748921811580658,0.9358187913894653,-0.4872879981994629,0.9187100529670715,0.5431835055351257,0.445442795753479,1.3293572664260864,-2.6243155002593994,-0.3284325897693634,0.41645869612693787,-0.3929321765899658,1.1368175745010376,0.263896107673645,-1.1458967924118042,-0.9071309566497803,1.769676685333252,1.317425012588501,2.3187479972839355,-0.8683369755744934,-0.7500577569007874,1.4435725212097168,1.673149585723877,0.375653475522995,-1.0459975004196167,0.5386916995048523,-0.4244009256362915,0.19368761777877808,-1.5132434368133545,0.8598030209541321,0.508948564529419,0.18688711524009705,0.7287825345993042,0.18621598184108734,1.3637562990188599,-1.3101688623428345,-0.5178471803665161,-0.09276861697435379,-2.311060905456543,-0.4487118721008301,1.9385135173797607,0.3256083130836487,-0.07927107810974121,-1.968588948249817,0.35919755697250366,1.2468205690383911,0.5145372152328491,-0.7601117491722107,1.750518798828125,-0.504634439945221,-0.7984234094619751,-1.3949180841445923,1.010497808456421,-0.08235069364309311,-1.1870713233947754,0.41141277551651,-0.18534314632415771,-0.14135156571865082,0.2802475690841675,-0.2983822524547577,-0.3320041000843048,0.29549503326416016,-0.3629043698310852,-2.3041188716888428,-0.27412480115890503,0.3796349763870239,-1.2191553115844727,0.5201234221458435,1.2935545444488525,1.1822725534439087,0.05706333369016647,0.23458242416381836,-1.7149039506912231,-1.2411710023880005,0.756115198135376,-0.5505598187446594,-0.3821868896484375,-0.15576431155204773,0.14783647656440735,-2.074566602706909,-0.5036318302154541,-0.3874973654747009,0.47794198989868164,1.3331255912780762,0.25071272253990173,-1.1513190269470215,-1.7095903158187866,-0.7770739793777466,-0.38169094920158386,-0.2021588832139969,0.14335647225379944,-0.701935887336731,0.5165364742279053,-0.4106808304786682,-1.0806453227996826,-0.45677298307418823,0.5103594660758972,-0.4949658215045929,-0.637966513633728,-0.4901829659938812,-0.9522745609283447,-0.07484378665685654,0.8414916396141052,-0.08915622532367706,1.0052869319915771,-1.3864294290542603,0.6132811903953552,-1.8484392166137695,-1.3911323547363281,1.278579831123352,-2.165286064147949,0.39689087867736816,-0.953732967376709,-1.6029608249664307,-0.07072915881872177,-1.2738332748413086,0.12140141427516937,-2.7934348583221436,2.537778377532959,-0.16650955379009247,-0.32321086525917053,0.2832912504673004,-1.2258778810501099,0.2099243551492691,0.43861153721809387,0.029741492122411728,-0.14423847198486328,0.9538558721542358,1.803288459777832,0.052682433277368546,-0.6975329518318176,0.4495847523212433,-1.0117911100387573,0.9180410504341125,-0.2333681583404541,-1.8854328393936157,-0.6000505685806274,-1.9204181432724,1.1476985216140747,-1.920842170715332,-0.05698933079838753,-0.5704309940338135,0.04178944230079651,-0.33422690629959106,-0.17690840363502502,1.3226280212402344,0.9670124053955078,-0.31744131445884705,0.21352462470531464,-0.6717708110809326,0.9288039803504944,-0.6931113600730896,1.0619088411331177,-0.5456751585006714,0.14426080882549286,-0.04208949953317642,-0.018334263935685158,-1.3003665208816528,-0.20103001594543457,-0.5614517331123352,-0.22850511968135834,0.2173864245414734,-1.866345763206482,-1.4569242000579834,0.3201153874397278,0.49327579140663147,-0.7320234179496765,0.5092365741729736,-0.8728222250938416,0.6189821362495422,-1.2915208339691162,-0.6309633255004883,0.17087732255458832,-0.5667227506637573,1.0992827415466309,1.0516308546066284,-0.5004059672355652,1.008658528327942,-0.043074775487184525
movietweetings_latest.csv,-1.0189210176467896,0.9079012274742126,0.11167386174201965,-1.1541014909744263,1.184881567955017,-0.4923825263977051,1.0104238986968994,0.12348227947950363,0.9999945759773254,0.4899444878101349,0.4254203736782074,0.42703181505203247,-0.022057292982935905,-1.1543787717819214,0.5557262897491455,-0.0447060652077198,-0.1828005015850067,-1.1063778400421143,0.7395764589309692,0.6432843208312988,-0.7883638739585876,0.19325222074985504,0.4518687129020691,-0.1784343421459198,-1.5845173597335815,-0.4071357250213623,-0.8648837804794312,-0.8961642384529114,-0.4323109984397888,-1.736467719078064,-0.5767196416854858,0.9906865954399109,0.7907497882843018,-0.38549450039863586,1.238004207611084,-0.8477980494499207,-0.37530624866485596,2.270397424697876,2.0496468544006348,0.04461515322327614,-1.0915032625198364,-0.37696799635887146,1.5960886478424072,0.889823853969574,0.8536531925201416,-0.662256121635437,-0.058421239256858826,-1.6334693431854248,-0.8866978883743286,-0.7652171850204468,1.5233261585235596,-0.5492910146713257,0.4854588210582733,0.31485578417778015,0.33087071776390076,1.4555284976959229,-2.4375717639923096,-0.7342213988304138,-0.026775268837809563,-2.429577350616455,0.5301300287246704,1.2240289449691772,0.8176290988922119,-0.9335498213768005,-1.5654692649841309,0.47923415899276733,1.4971712827682495,0.6703134179115295,-0.16794463992118835,0.6734753847122192,-0.2712627351284027,-1.6592386960983276,0.876337468624115,0.8745473027229309,-1.1129274368286133,-0.8793864250183105,0.6576281189918518,0.23289217054843903,0.19541166722774506,-0.06332707405090332,-0.19777002930641174,-0.3306346535682678,0.07393185794353485,0.05377282574772835,-2.1458919048309326,-0.5901755690574646,0.2983276844024658,-0.503501296043396,0.8387078642845154,1.1704612970352173,1.100000262260437,-0.9646185636520386,-0.32916876673698425,-1.6918359994888306,-0.7397080659866333,1.2851868867874146,-0.5693777799606323,-0.6667733192443848,0.36440032720565796,-0.60999596118927,-1.4744359254837036,0.013313282281160355,0.0786999836564064,-0.678392231464386,0.7938717603683472,0.47933417558670044,-0.6129474639892578,-0.6411423683166504,-1.6629070043563843,-0.7670003175735474,-0.665227472782135,0.05230317264795303,-1.2809484004974365,0.865308940410614,0.9967086911201477,-0.5664147734642029,0.6323090195655823,0.022139472886919975,0.1725490540266037,-0.8395459055900574,0.7107207179069519,-1.664696455001831,-1.8411000967025757,0.9152753353118896,0.9942276477813721,2.1084086894989014,-0.9279875755310059,0.4055057764053345,-1.1312143802642822,-0.6269318461418152,0.9334000945091248,-2.1703710556030273,-0.28021106123924255,-0.5107017755508423,-1.5261865854263306,0.044157639145851135,0.5545027852058411,0.4407271444797516,-2.723558187484741,2.2336935997009277,-0.618321418762207,-0.45306363701820374,-0.3850363790988922,-0.8791903257369995,-0.24839788675308228,1.6259256601333618,1.021915316581726,-0.6878369450569153,0.1741212010383606,1.5975538492202759,0.7723258137702942,-1.8407211303710938,0.35790693759918213,-0.4121209979057312,1.5578784942626953,0.31783974170684814,-1.3964070081710815,-0.6751763820648193,-0.5629802346229553,0.04139713943004608,-1.6052113771438599,-1.1017392873764038,0.4840657711029053,-1.1340001821517944,-0.407125860452652,0.8966143727302551,0.6078898906707764,1.3603973388671875,-0.31507107615470886,0.17601919174194336,-0.6585450172424316,0.511458694934845,-0.961991548538208,1.6822307109832764,-0.2671627402305603,0.6087855100631714,-0.08147147297859192,0.19372986257076263,-0.7008628249168396,1.159836769104004,-0.260309636592865,0.41490456461906433,0.44373100996017456,-0.22247935831546783,-0.9393135905265808,1.2177473306655884,-0.5861372947692871,-0.09800941497087479,-0.0925804153084755,-2.664907455444336,-0.6049020886421204,-1.378741979598999,-0.037645887583494186,-1.209265112876892,0.7276473641395569,1.6064826250076294,2.0257134437561035,-0.24476458132266998,1.3273993730545044,0.8891704082489014
amazon-apps.csv,-0.7421628832817078,-0.2109079658985138,-0.18178048729896545,-1.6428358554840088,0.1787920594215393,-1.1285202503204346,1.6084355115890503,0.35363060235977173,1.1675333976745605,-0.015492298640310764,-0.2044404000043869,-0.7563402652740479,-0.12733876705169678,-1.92002534866333,0.5306029915809631,-0.46911364793777466,-0.018017413094639778,-1.2961448431015015,0.5106309652328491,0.07436288893222809,-0.7355281710624695,0.6476499438285828,1.2739646434783936,1.0035313367843628,-0.7368937730789185,1.5841736793518066,0.30762621760368347,-0.4620945453643799,-0.6107004880905151,-1.8387477397918701,-0.5580978393554688,-0.18746431171894073,-0.22194357216358185,-0.27890101075172424,0.5481294989585876,-1.3454790115356445,-0.9645252227783203,2.4324939250946045,0.5972912311553955,0.7530275583267212,-1.580466866493225,-0.5744865536689758,1.7682533264160156,0.19563880562782288,1.2532529830932617,-0.5432804226875305,-0.43974247574806213,-0.4283249080181122,-0.40413978695869446,-0.5457159876823425,0.5135572552680969,0.6250491738319397,-0.17272725701332092,0.6616020202636719,0.11513740569353104,1.846720576286316,-1.1671878099441528,-0.9037163257598877,-0.8960109949111938,-0.9623331427574158,-0.06626441329717636,0.9726938605308533,0.2369147688150406,-0.01796610839664936,-3.0773589611053467,-0.5404024124145508,1.343661904335022,0.7466727495193481,0.7464982271194458,0.8559231162071228,-0.626477062702179,-1.4678682088851929,-0.9413361549377441,1.2328616380691528,-0.0523478128015995,-0.09260338544845581,-0.8475518822669983,0.8596674799919128,0.15428109467029572,-0.4686816930770874,0.3932754397392273,0.30499592423439026,0.3435109555721283,1.571764588356018,-2.58658504486084,-1.0212892293930054,1.198633074760437,-0.6287760734558105,0.7236717939376831,1.3310507535934448,0.9887322783470154,-1.6484951972961426,0.7896547913551331,-2.8352699279785156,0.12442328780889511,-0.16454072296619415,-1.1065888404846191,-0.213801771402359,-0.358097642660141,-1.0133507251739502,-0.814411997795105,0.2658724784851074,0.525171160697937,0.8183379769325256,0.9401186108589172,-0.4339675009250641,-0.7669379711151123,-0.8031176328659058,0.6013163924217224,-1.042928695678711,-0.4916459619998932,0.6035076975822449,-0.5832382440567017,0.5965828895568848,0.6984776258468628,-1.5833942890167236,0.8212363123893738,0.21710482239723206,-0.1585533171892166,-0.33885470032691956,-0.21055741608142853,-0.7416983842849731,0.05647189915180206,1.090610384941101,1.0474530458450317,2.035355806350708,-1.232511043548584,0.794046938419342,-0.8619183897972107,0.12977589666843414,0.9986010789871216,-1.635188102722168,1.231598973274231,-1.522142767906189,-0.24666281044483185,-0.05164586752653122,0.18293842673301697,1.0328168869018555,-3.4449613094329834,1.9025499820709229,0.5755853652954102,0.534213125705719,0.3450593054294586,-0.3024005591869354,0.2753930687904358,0.5665006637573242,-0.48557889461517334,-1.0207996368408203,0.6024000644683838,1.0084253549575806,0.2499837577342987,-0.9758508801460266,-1.0339393615722656,-0.6190066933631897,0.4638186991214752,-0.20542927086353302,-1.2080814838409424,-0.44436123967170715,-1.2233920097351074,1.059090256690979,-2.189556837081909,-0.9017662405967712,0.8750672340393066,-1.152647852897644,0.8059320449829102,0.2545255422592163,1.848724126815796,0.4829728305339813,0.6562520265579224,0.034162044525146484,-1.173607587814331,0.5211406350135803,-0.14099286496639252,1.2017518281936646,-0.7663629651069641,0.6631413102149963,-0.9675983190536499,0.27284133434295654,-0.2199401557445526,0.972396194934845,-0.11734067648649216,-0.6019911170005798,1.2365648746490479,-1.7023991346359253,-1.630118489265442,0.7716310024261475,-0.4057813584804535,0.5001993775367737,1.8846458196640015,-1.8636126518249512,0.3299933969974518,-1.4593486785888672,0.6985955834388733,-0.5647549033164978,0.39726758003234863,0.840435266494751,1.3317294120788574,0.3794351816177368,0.14189837872982025,0.39169982075691223
jester1.csv,-0.998960018157959,0.24814048409461975,-0.8422247767448425,-1.810743808746338,1.9115597009658813,-1.068676471710205,1.1900440454483032,0.20478229224681854,0.23979488015174866,1.4266546964645386,-0.32631030678749084,-0.511738657951355,-1.3628599643707275,-0.8199885487556458,-0.021256815642118454,0.3342249095439911,-1.0417425632476807,-0.02961672469973564,0.8682835102081299,-0.8697904348373413,-0.8528512716293335,0.3652970492839813,0.9709786176681519,0.3575931787490845,-0.44106850028038025,0.603487491607666,0.12721112370491028,-0.8077476620674133,1.3899236917495728,-0.6361665725708008,-0.6885259747505188,-0.5905855894088745,1.000586748123169,-0.3559117913246155,0.09356580674648285,0.06781496107578278,-1.7917754650115967,0.5050338506698608,1.3870688676834106,2.116262912750244,-1.4136183261871338,-0.2367008924484253,1.621759057044983,1.147037386894226,0.5249825119972229,-1.203763484954834,2.148336410522461,-0.6453264355659485,0.7885096073150635,0.06726440787315369,1.1861159801483154,0.48766812682151794,1.8311429023742676,0.8298560976982117,0.19969673454761505,2.6864736080169678,-0.26561039686203003,-0.9540857672691345,0.36958521604537964,-0.525532066822052,1.0067917108535767,0.9244995713233948,0.4264749586582184,0.2919107973575592,-1.1435301303863525,-0.8065102696418762,0.7388685941696167,-0.09399052709341049,-0.03798680379986763,-0.4352155029773712,-1.388603925704956,-1.2618730068206787,-1.7515586614608765,1.061137080192566,-0.8714776635169983,0.07969667762517929,1.007456660270691,0.8617714643478394,0.22804898023605347,0.3671925961971283,0.013237783685326576,0.6592957973480225,-0.4478466510772705,1.5146619081497192,-1.9898271560668945,-0.8937680721282959,-1.2706458568572998,-1.0922725200653076,1.2946165800094604,1.336356282234192,0.5587322115898132,-1.2859069108963013,0.5585312843322754,0.20013341307640076,-0.8511606454849243,-0.4597240090370178,0.6185880303382874,-0.7189655303955078,0.004013468511402607,0.10973019152879715,0.7819368243217468,-1.155529260635376,0.18838340044021606,0.8312353491783142,0.5579548478126526,0.5166267156600952,-0.2509537637233734,-0.4601760804653168,1.5590282678604126,-0.38404029607772827,0.1170024499297142,-0.8500776886940002,-2.245650291442871,0.5062269568443298,1.1263636350631714,-0.28835049271583557,-0.3967856764793396,0.5447009801864624,0.21862520277500153,-0.15617604553699493,-1.2138843536376953,0.22906896471977234,0.702876091003418,0.7355109453201294,-0.66841721534729,1.0064783096313477,-0.06227044761180878,1.2364356517791748,-0.8613371849060059,-1.2868027687072754,0.1068478599190712,-1.573239803314209,0.45896807312965393,-2.553020477294922,-0.05154598131775856,1.3540266752243042,-1.0373477935791016,-0.039795197546482086,-1.4053601026535034,3.267239809036255,-0.476034015417099,0.40184852480888367,0.23776225745677948,0.8481556177139282,0.5186676383018494,1.7165578603744507,0.7891914248466492,-0.2767849266529083,0.8847198486328125,2.2661569118499756,1.2322726249694824,-0.3798608183860779,1.2953394651412964,-1.5332549810409546,0.6095941066741943,-0.7925667762756348,-1.8046435117721558,-1.8204033374786377,-0.6820295453071594,1.1768168210983276,-1.638155221939087,0.25551092624664307,0.16737395524978638,0.04581164941191673,0.05718341842293739,-0.8506985902786255,0.8082038760185242,0.26509761810302734,-0.732154905796051,1.0051050186157227,-0.021597273647785187,-0.131583571434021,-2.240532159805298,0.01822507753968239,-1.2936514616012573,1.515306830406189,0.26355886459350586,0.7260762453079224,-0.7546350359916687,1.5745197534561157,-0.5839205384254456,-0.22218646109104156,-0.3954561650753021,-1.668587565422058,0.7272180914878845,0.2551112174987793,-1.0693608522415161,0.015424109064042568,-0.7458145022392273,-0.9989955425262451,0.5005549192428589,-0.1506391316652298,0.027829494327306747,0.5309700965881348,1.0140753984451294,-0.1165952980518341,0.5928542613983154,0.7700097560882568,0.8265664577484131,1.1960663795471191
yahoo-music.csv,-0.9644116163253784,0.9715781807899475,0.08646617084741592,-1.7674442529678345,1.6062302589416504,-0.8487961888313293,1.720331072807312,0.5869629383087158,1.3980519771575928,0.9905503988265991,-1.2155191898345947,-0.531265914440155,-0.47229042649269104,0.011394486762583256,0.44477179646492004,-0.8635923266410828,0.36688828468322754,-1.1795655488967896,-0.8228906989097595,0.9458268880844116,-1.9024780988693237,-0.30387967824935913,-0.23195509612560272,0.3109997510910034,0.3044320046901703,0.7882851362228394,0.4451318085193634,-0.8032676577568054,1.3504222631454468,0.5027261972427368,-1.2867392301559448,-0.47306379675865173,0.3989081084728241,0.724891722202301,-0.9894614219665527,0.30481192469596863,-2.159905195236206,0.18922044336795807,0.2948906421661377,1.6826441287994385,0.13226182758808136,-1.0713635683059692,2.1777026653289795,0.2450486123561859,0.3482321500778198,-1.2374277114868164,0.18100960552692413,-2.0635035037994385,0.6394389271736145,-0.007477044127881527,2.6029133796691895,0.25186848640441895,-1.0001665353775024,1.844862699508667,0.6420972943305969,1.563927412033081,-0.33685290813446045,-0.12879545986652374,-1.0360826253890991,-1.692286491394043,0.021401122212409973,1.319785237312317,0.5664055347442627,-0.48533809185028076,-1.250351905822754,1.2454860210418701,0.5915457010269165,-0.9199332594871521,0.24660608172416687,0.03442591428756714,-1.6037232875823975,0.6025084853172302,0.37146812677383423,0.13682502508163452,-1.0454621315002441,-0.2235071212053299,-0.32860565185546875,0.5080442428588867,0.3247769773006439,-0.18524937331676483,-0.3396821916103363,-1.648736834526062,0.43621987104415894,-0.4674704372882843,-0.9194263219833374,-0.5683616399765015,-0.3824002742767334,0.3408455550670624,1.4757639169692993,2.105447769165039,1.5097622871398926,-0.28773581981658936,-0.21938155591487885,-0.19021041691303253,-1.0962926149368286,0.2598118484020233,-0.37503063678741455,-0.900480329990387,-0.060191843658685684,-0.22597572207450867,-0.9163719415664673,-0.5655403733253479,0.04415031149983406,-0.601565957069397,1.3338834047317505,1.2544269561767578,-1.742096185684204,0.4234759509563446,0.48989784717559814,1.3684344291687012,-0.7569052577018738,-0.19595764577388763,-1.1421501636505127,0.3857012391090393,-0.8968594074249268,-1.2571289539337158,0.6097676157951355,1.352578043937683,1.0177240371704102,-0.6277511119842529,-0.5990325808525085,1.120283603668213,0.9965940117835999,-0.22048881649971008,2.0467865467071533,0.776271402835846,-0.08650301396846771,0.6094647645950317,-1.2748383283615112,-0.626912534236908,-0.04813165217638016,-1.7077054977416992,0.22380311787128448,-2.022221803665161,-0.6643489003181458,0.5765562057495117,-0.9967541098594666,0.8220878839492798,-1.7552483081817627,3.557844400405884,-2.0530855655670166,0.9368119239807129,-1.1568565368652344,-0.6986688375473022,-0.10165991634130478,-0.7267295718193054,-1.0887681245803833,0.4279569387435913,-0.4149479866027832,1.413257122039795,-0.3156985938549042,-0.49646133184432983,-0.0682956799864769,-0.4243040680885315,0.35979166626930237,-0.3621176481246948,-1.5060898065567017,-2.2156331539154053,-0.4517268240451813,-0.06151905655860901,-0.6878510117530823,-0.6535599231719971,0.06673859804868698,0.022180192172527313,-0.18651670217514038,-0.17460766434669495,-0.0494832769036293,0.98634272813797,-0.9023759365081787,0.6945530772209167,-0.09219297766685486,0.10155467689037323,-1.7127968072891235,0.5178656578063965,-1.1767668724060059,-0.14396117627620697,-1.0283231735229492,2.02652907371521,-1.1740021705627441,0.36835747957229614,0.6732205748558044,-0.9103229641914368,-0.8882185816764832,-0.8813127279281616,-1.2831729650497437,2.1254091262817383,-0.5362764596939087,0.5674846172332764,-0.20108777284622192,-0.48083382844924927,-0.12285997718572617,-0.56134033203125,-0.3933916985988617,-0.1707935631275177,0.14378932118415833,0.879974901676178,2.014892101287842,0.554215669631958,0.28727880120277405,-0.18293233215808868
amazon-baby.csv,-0.3911105990409851,-0.3431367874145508,0.0907672569155693,-2.3886120319366455,0.607259213924408,-0.05363021418452263,1.674999475479126,0.8341517448425293,0.8364690542221069,0.3392848074436188,0.5040672421455383,-0.09902132302522659,-0.9991258978843689,-1.7600573301315308,0.8361141681671143,-0.7543047070503235,-0.5678730010986328,-1.749755859375,-0.03520018234848976,1.0136648416519165,-0.02960631437599659,0.5071055889129639,0.5631964206695557,0.9777244329452515,-0.7214410901069641,0.8379629254341125,0.9777292609214783,0.2669505178928375,0.15793487429618835,-2.140126943588257,-0.20263732969760895,0.12775342166423798,0.12071587890386581,-0.40713170170783997,0.7911039590835571,-0.8565890192985535,-0.992610514163971,2.0818331241607666,1.5408521890640259,1.3864386081695557,-0.9192543029785156,-1.1169933080673218,2.0951170921325684,1.031788945198059,1.2069933414459229,-0.19203907251358032,0.4654500484466553,-1.149996042251587,0.07086070626974106,-0.8687568306922913,2.0003466606140137,0.538281261920929,1.0739376544952393,0.08132490515708923,-0.15740424394607544,0.5550597310066223,-1.69402277469635,-0.5144500136375427,-0.2579817473888397,-1.6240060329437256,-1.0419394969940186,0.9005119204521179,0.4494715631008148,-1.3680238723754883,-1.413758635520935,0.36380842328071594,0.7653751373291016,1.2607803344726562,0.6191322803497314,0.3728748857975006,-1.2167561054229736,-1.3231089115142822,-1.3157145977020264,1.9666430950164795,0.48687776923179626,-1.174399733543396,-0.09799858182668686,0.6317732930183411,0.356974720954895,-0.396541953086853,-0.3403710126876831,0.1136406809091568,0.7716209888458252,0.9699392914772034,-3.382585048675537,-0.4215262830257416,0.27692341804504395,-1.6039204597473145,1.184128999710083,1.5238845348358154,1.5921274423599243,-1.5572656393051147,0.6778821349143982,-0.8630733489990234,-0.5589231252670288,-0.6540800333023071,-0.9396780133247375,-0.8089990615844727,-0.8346421122550964,0.7080230712890625,-1.2631800174713135,0.04941358044743538,-0.07801246643066406,0.4773896336555481,0.9867212772369385,0.8635690212249756,-0.9092510342597961,-1.286165714263916,0.38937073945999146,0.23232902586460114,-0.6335537433624268,-0.11335891485214233,-0.9411766529083252,0.18078361451625824,1.0338332653045654,-0.08096067607402802,1.087758183479309,0.37936851382255554,0.4858323931694031,0.09380362927913666,0.264013409614563,-0.6410728096961975,-1.0321663618087769,0.9536489248275757,0.7762664556503296,1.6846562623977661,-0.6652437448501587,1.9294339418411255,-1.124029517173767,-0.18054230511188507,0.6621592044830322,-2.822634696960449,0.04776328057050705,-0.4689311981201172,-1.2611562013626099,0.23241589963436127,-0.05108708515763283,-0.4926720857620239,-1.8578492403030396,2.3285107612609863,0.06562776118516922,-0.5769342184066772,0.7216815948486328,-0.46845656633377075,0.049176860600709915,1.4521052837371826,0.8675022125244141,-1.3381896018981934,1.6997028589248657,1.078516960144043,0.07741974294185638,-1.7057515382766724,-0.7457038164138794,-0.46886762976646423,0.3935999572277069,0.022491831332445145,-1.0050431489944458,-0.2181777060031891,-0.7920271158218384,1.1621366739273071,-0.5767916440963745,-0.016353081911802292,1.3059498071670532,0.08700025826692581,-0.5600274205207825,0.07475704699754715,1.2259864807128906,1.0947622060775757,0.10015667974948883,0.9651076197624207,-0.8174660801887512,-0.3216067850589752,-0.2071371078491211,2.0184457302093506,0.4778270721435547,0.5098109245300293,-0.8779983520507812,1.0290957689285278,0.07268177717924118,0.8037141561508179,-0.27272722125053406,-0.020993392914533615,0.6507552862167358,-1.5513099431991577,-1.3071805238723755,-0.26635870337486267,-0.21088901162147522,-0.5612342357635498,0.6256108283996582,-2.2866172790527344,-0.007505274377763271,-0.5273247361183167,-0.6728436946868896,-0.1497780978679657,0.14315634965896606,1.0412251949310303,1.6951496601104736,0.6297264695167542,0.3245807886123657,0.30394166707992554
movietweetings_recsys2014.csv,-0.9906070828437805,0.9928169250488281,0.5066220164299011,-1.0518889427185059,0.9235289096832275,-0.6956343650817871,1.0213837623596191,1.2124102115631104,1.458434820175171,0.39982298016548157,-0.20902732014656067,0.09223005175590515,-1.0414254665374756,-1.2426117658615112,0.13365857303142548,-0.3832031488418579,0.5659525990486145,-0.9609130024909973,1.3383972644805908,0.1118028536438942,-0.7693512439727783,0.6665586233139038,1.0582046508789062,1.0471113920211792,-0.7569772601127625,1.4573251008987427,0.7938807010650635,-1.1803025007247925,0.19771917164325714,-1.7341222763061523,-1.4034265279769897,0.451048880815506,-0.41181480884552,-0.3833203613758087,-0.04259359836578369,-1.4537162780761719,-0.6096535325050354,2.8517024517059326,1.2482541799545288,0.45362067222595215,-0.9812179803848267,-1.323484182357788,1.869789481163025,0.2859199345111847,1.585030436515808,-0.5536501407623291,-0.506752073764801,-0.44142359495162964,0.021594833582639694,-0.8142232298851013,1.1704822778701782,0.6149708032608032,-0.6980212330818176,0.5493398308753967,0.04993405565619469,2.122083902359009,-1.704349398612976,-1.2552708387374878,-0.5387488603591919,-1.216134786605835,-0.8324131965637207,1.1526155471801758,-0.09976806491613388,0.3191395699977875,-2.914971351623535,0.5612673163414001,0.5436995625495911,0.2511022686958313,0.18022260069847107,0.2683456540107727,-1.814584493637085,-1.3520704507827759,-0.7871645092964172,0.7550715804100037,0.36402586102485657,-0.40317559242248535,-0.7952753901481628,1.2051162719726562,-0.3203946650028229,-0.47466960549354553,0.45506519079208374,0.53824383020401,-0.015460737980902195,0.41408929228782654,-1.7655483484268188,-0.4978592097759247,1.1715552806854248,-0.2920054793357849,-0.3328453004360199,0.8818384408950806,0.9764023423194885,-1.3226206302642822,0.38907304406166077,-3.2009520530700684,-0.37988436222076416,0.19549435377120972,-1.2536957263946533,-0.5833435654640198,-0.8472946882247925,-1.6504805088043213,-0.7606386542320251,1.2773195505142212,0.2519797384738922,0.5477625727653503,1.07875657081604,-0.5296555161476135,-0.7763821482658386,-0.626575767993927,0.14935091137886047,-0.41000473499298096,-0.5542906522750854,0.3541238605976105,-1.4809045791625977,0.6302305459976196,0.6543025374412537,-1.258310317993164,0.8688742518424988,0.6588086485862732,-0.1113801896572113,-0.8677040934562683,-0.00585327809676528,-0.017860282212495804,0.3009919226169586,0.8428879976272583,0.4686136245727539,2.1648151874542236,-1.0634260177612305,0.9613925218582153,-0.4161551892757416,-0.2927723824977875,0.7264095544815063,-2.0451717376708984,1.6936395168304443,-1.9588797092437744,0.0751877874135971,-0.30831480026245117,-0.14787019789218903,0.4999018907546997,-2.5685060024261475,1.9105299711227417,-0.0871109589934349,0.5260822176933289,0.34812286496162415,-0.25631704926490784,-0.35059523582458496,0.5474365949630737,0.15224716067314148,0.026284674182534218,0.5742563605308533,0.8888886570930481,1.208228588104248,-0.13612373173236847,-0.30609750747680664,-1.219375729560852,0.8210829496383667,-0.4143885672092438,-1.3156229257583618,-0.09346213936805725,0.17014144361019135,1.0394967794418335,-2.1073036193847656,-1.1689664125442505,0.23326268792152405,-0.894508421421051,1.0448918342590332,0.2655882239341736,1.2760597467422485,0.5716354846954346,0.3060992956161499,-0.6831200122833252,-1.1781975030899048,-0.15894125401973724,-0.23657862842082977,1.3020594120025635,-0.7127736806869507,0.7850615382194519,-1.3983464241027832,0.2608978748321533,-0.25651389360427856,0.4899720251560211,0.3092027008533478,-0.1302553415298462,1.388460397720337,-1.2152336835861206,-1.2017019987106323,1.0090316534042358,0.22022388875484467,1.0107288360595703,1.0092864036560059,-2.1799933910369873,0.22673794627189636,-0.6218968629837036,0.1499393731355667,-1.2034595012664795,-0.09023395925760269,0.7900634407997131,2.5084030628204346,0.12118235975503922,0.24035362899303436,-0.24676360189914703
amazon-garden.csv,-1.128613829612732,0.589139997959137,-0.3380536735057831,-0.8186683058738708,1.7397116422653198,-0.8697088360786438,1.3114925622940063,-0.12797775864601135,1.822187900543213,0.7861347794532776,0.021099627017974854,-0.06495795398950577,-1.0821739435195923,-1.226874589920044,0.09007930755615234,-0.11786376684904099,-0.4169427454471588,-1.7871344089508057,0.7348686456680298,0.3246540427207947,-0.6107550263404846,1.3294638395309448,1.3251416683197021,0.3495115637779236,-0.9093257784843445,1.3738205432891846,0.3985779881477356,-0.590853750705719,0.9731274843215942,-2.341383218765259,-0.452536016702652,0.6514166593551636,0.10304924100637436,0.7221071124076843,0.6863505244255066,-0.8459739685058594,-0.7013534307479858,1.613162875175476,1.385027289390564,1.6991276741027832,-0.8753414154052734,-0.4815623164176941,0.7214550971984863,0.27136605978012085,0.9239280223846436,-1.1800079345703125,-0.098910853266716,-0.2962944507598877,0.3658440113067627,-1.4039961099624634,0.6816228628158569,0.4924964904785156,0.2581077814102173,0.5529956817626953,0.47382357716560364,2.095845937728882,-1.2324309349060059,-0.5424429178237915,-1.0289132595062256,-2.5662970542907715,0.22484199702739716,1.6876604557037354,-0.06599321961402893,0.1455203741788864,-2.221266746520996,0.3115798830986023,1.562707781791687,0.8170685172080994,0.34874820709228516,1.7846735715866089,-0.7105129361152649,-1.9540244340896606,-0.4949054419994354,0.3669503927230835,-0.6429729461669922,-0.7248400449752808,-0.029478566721081734,0.42592355608940125,-0.16534675657749176,-0.579484760761261,-0.19362469017505646,-0.05820754915475845,0.9126606583595276,0.7490679621696472,-2.811403274536133,-0.8868721127510071,0.9872699975967407,-0.6470430493354797,0.5249336957931519,1.2426434755325317,1.2074297666549683,-1.0161033868789673,0.18946583569049835,-1.9632257223129272,-1.0067498683929443,0.4996364414691925,0.11705237627029419,0.3818094730377197,0.28452542424201965,-0.7728760838508606,-0.9813504815101624,0.6174603700637817,-0.48674333095550537,0.8262845277786255,1.329028606414795,-0.05009215697646141,-0.7310672402381897,-0.9414597749710083,0.3053100109100342,-0.6642328500747681,-0.029710164293646812,0.32946452498435974,-0.6686057448387146,0.8265362977981567,-0.37518051266670227,-1.2660093307495117,-0.4438813328742981,0.5477100014686584,-0.21004921197891235,-0.9155963063240051,-0.3203294575214386,-1.444044589996338,-0.1970280408859253,0.3011951148509979,0.7406110167503357,1.6537988185882568,-1.3071388006210327,-0.7551973462104797,-1.8272701501846313,-0.5711303949356079,1.1552268266677856,-1.9608585834503174,0.3375103771686554,-1.3247038125991821,-1.4158167839050293,0.17367592453956604,-0.6041454076766968,-0.1663140058517456,-2.8013949394226074,2.340763568878174,0.24258103966712952,0.25289079546928406,0.3226814866065979,-1.0467970371246338,0.8568233251571655,0.18051430583000183,0.5764650106430054,-0.43334704637527466,0.9012132287025452,2.2378997802734375,0.7135893702507019,-1.5829004049301147,-0.11909633129835129,-0.9917720556259155,0.9763212203979492,0.1381034255027771,-1.3450144529342651,-1.2536327838897705,-2.0215015411376953,0.8278123140335083,-2.1498959064483643,-0.8334875702857971,-0.5377569198608398,-1.167717695236206,-0.4698010981082916,0.06692279130220413,1.476784348487854,0.5475006103515625,0.4038112461566925,-0.12779971957206726,-0.7211952805519104,0.39259693026542664,-1.0726197957992554,1.0695301294326782,-0.09571047872304916,0.6023259162902832,-0.26327282190322876,0.6916993260383606,-0.7792202830314636,-0.3109884262084961,0.253153920173645,0.14302650094032288,0.45878666639328003,-1.225396752357483,-1.7725664377212524,0.5764189958572388,-0.2837725877761841,0.4691685140132904,0.5463156700134277,-0.7253157496452332,0.13241825997829437,-1.5089515447616577,0.4003163278102875,-1.0671387910842896,-0.11669516563415527,1.3599375486373901,0.454263299703598,-0.023342721164226532,1.0725936889648438,-0.08408588171005249
tripadvisor.csv,-0.3033040463924408,0.28205516934394836,0.3839343786239624,-2.1887998580932617,1.1386191844940186,0.2992652356624603,1.9761488437652588,0.29916709661483765,1.4155138731002808,-0.30128881335258484,0.5125631093978882,0.24028731882572174,-1.2256282567977905,-1.1659578084945679,0.2183014303445816,0.3314884901046753,0.06555687636137009,-1.1459993124008179,0.7046585083007812,0.7211481332778931,0.17218078672885895,0.6600465178489685,0.5222347974777222,0.7358846068382263,-1.0624885559082031,1.19197678565979,0.6261736750602722,-0.014982391148805618,0.7984212040901184,-2.037264108657837,-0.781944215297699,0.8430482745170593,0.23469017446041107,-0.34176239371299744,0.7413563132286072,-0.6266904473304749,-0.7137258648872375,1.688742756843567,1.9553756713867188,2.0323877334594727,-0.9127269387245178,-0.3765472173690796,1.5017390251159668,1.3726751804351807,1.3553825616836548,-0.07561679184436798,0.5279099941253662,-0.8756449222564697,0.1692667305469513,-1.0432137250900269,1.7390837669372559,-0.6163018941879272,0.2835603356361389,0.40710511803627014,0.6682989001274109,1.3503189086914062,-1.793800711631775,-1.0515650510787964,-0.36093640327453613,-2.754855155944824,-0.307485431432724,1.506999135017395,0.42343655228614807,-0.7184654474258423,-1.749322772026062,1.016904592514038,0.6570377945899963,1.356050729751587,-0.2670309245586395,1.022294521331787,-0.6253483891487122,-1.0966386795043945,-1.3323593139648438,0.6317747831344604,-0.22308599948883057,-0.15921571850776672,-0.024915356189012527,0.02557348646223545,-0.07615906000137329,-0.9336198568344116,-0.08001244068145752,0.029699692502617836,1.1508749723434448,0.2513275146484375,-3.0317060947418213,-0.30730947852134705,0.14026638865470886,-1.6993335485458374,0.6879339218139648,0.778576135635376,1.9190794229507446,-1.1004390716552734,1.0563335418701172,-0.6345663070678711,-0.09267210215330124,0.48821574449539185,-0.0885579064488411,-1.0738602876663208,-0.3843601644039154,-0.10792529582977295,-1.7704635858535767,0.19469866156578064,0.14176808297634125,1.0271466970443726,0.8113885521888733,0.6301791667938232,-0.23436938226222992,-1.0814483165740967,-0.5985365509986877,-0.07700933516025543,-0.6200113296508789,-0.2781056761741638,-1.0148882865905762,0.6916941404342651,0.16355766355991364,-0.4402720034122467,0.7579693794250488,0.35391998291015625,-0.18341302871704102,-0.2491822987794876,0.4598260223865509,-0.8098594546318054,-1.0002809762954712,0.7681409120559692,0.07259918749332428,1.3532776832580566,-0.7687565684318542,0.4056485593318939,-1.5218619108200073,-0.46234190464019775,0.8755658864974976,-2.6068196296691895,0.19888988137245178,-0.9189906716346741,-1.7930233478546143,0.49885985255241394,-0.49112603068351746,-1.202305793762207,-2.19735050201416,2.2888834476470947,0.5475039482116699,0.019997267052531242,-0.27569717168807983,-0.13752982020378113,0.009448309428989887,0.9465751647949219,0.5605345368385315,-1.648802638053894,0.8493098020553589,2.1800765991210938,0.41024380922317505,-1.1829490661621094,0.27221062779426575,-1.2308428287506104,0.6155219674110413,-0.41363850235939026,-0.5297978520393372,-0.7136148810386658,-1.5384656190872192,1.2788269519805908,-1.631346344947815,-0.8895270228385925,1.1684976816177368,0.34814199805259705,-0.5944583415985107,-0.10888183116912842,1.9057193994522095,1.6963567733764648,0.1857096403837204,0.5244232416152954,-0.8251937031745911,-0.5194581151008606,-0.9872303009033203,1.44609534740448,0.9183635115623474,0.44954487681388855,-0.2537291944026947,0.341743528842926,-1.0327595472335815,0.5514537692070007,0.07204374670982361,0.20042282342910767,0.6423549056053162,-1.3951812982559204,-1.6047667264938354,-0.12224267423152924,-0.4270736277103424,0.12985777854919434,0.9340150356292725,-2.1041767597198486,0.2742731273174286,-0.673370897769928,-0.3927904963493347,0.21460607647895813,-0.17489002645015717,1.276247262954712,1.133621335029602,-0.2840459942817688,1.256872534751892,0.043817292898893356
amazon-sports.csv,-0.5714723467826843,0.8676159977912903,-0.38621073961257935,-1.5772544145584106,2.13816237449646,-0.17041531205177307,1.0009229183197021,-0.5416473150253296,1.478258728981018,-0.8556244969367981,0.6396090984344482,-0.5591542720794678,-1.220613956451416,-1.2442288398742676,-0.46404027938842773,-0.27076539397239685,-0.6753770709037781,-0.8078335523605347,0.15106287598609924,0.7542340755462646,-0.43021515011787415,1.546433925628662,0.8832525610923767,0.5427535176277161,-0.930472195148468,1.7167134284973145,0.17868871986865997,-0.19852972030639648,1.1943310499191284,-2.096829891204834,0.04541093483567238,0.23284803330898285,-0.21198789775371552,0.11759473383426666,0.5050709247589111,-0.15899266302585602,-1.356996774673462,1.1130199432373047,1.2766838073730469,1.5363399982452393,-1.1325150728225708,-0.5033352971076965,0.6726779341697693,0.28421926498413086,0.6382288932800293,-1.3426673412322998,-0.8898084163665771,0.2093852460384369,0.24855664372444153,-1.018941879272461,1.222245454788208,0.23088617622852325,0.5120055079460144,1.5807344913482666,0.9311509728431702,1.7912073135375977,-1.0372939109802246,-1.253624439239502,-0.9817119240760803,-1.864042043685913,0.5619815587997437,1.3407655954360962,0.37364286184310913,-0.32717251777648926,-2.2807059288024902,0.6417674422264099,0.5809188485145569,0.4046908915042877,0.3348962068557739,1.1220088005065918,-1.1557766199111938,-1.7402880191802979,-1.1873270273208618,-0.0010506330290809274,-0.6789814233779907,-1.0880731344223022,0.48848122358322144,0.7570149898529053,0.5422323942184448,-0.6339036822319031,0.37191107869148254,-0.09651829302310944,0.7119314074516296,1.3976837396621704,-3.4226834774017334,-1.182685375213623,0.5392988324165344,-0.9510097503662109,0.7251824736595154,0.4472988545894623,1.4455764293670654,-1.3445048332214355,0.7782309651374817,-1.90102219581604,-0.7383794784545898,0.11195080727338791,-0.12375394254922867,-0.29010218381881714,-0.884645938873291,-0.41836315393447876,-1.2064703702926636,0.9832340478897095,-0.7333846092224121,0.3231046795845032,0.7678887248039246,0.29890602827072144,-0.05172084644436836,-1.313957929611206,0.4245145320892334,-0.9367106556892395,-0.42679083347320557,0.178626149892807,-1.4424880743026733,1.0667202472686768,-0.6265735626220703,-1.349847435951233,0.0767715722322464,0.10261493176221848,0.07835882157087326,-1.2318447828292847,0.04342648759484291,-1.0538736581802368,-0.40076979994773865,0.5912662744522095,0.026947345584630966,0.9525643587112427,-2.1536686420440674,-1.4447588920593262,-1.4622918367385864,0.10317311435937881,0.36824992299079895,-1.8996787071228027,-0.33103272318840027,-0.5764721632003784,-1.673153042793274,0.05738573521375656,-0.524579644203186,-0.36913713812828064,-2.5548696517944336,2.7862091064453125,1.3037370443344116,0.846207857131958,0.5509829521179199,-0.8638554215431213,1.450934648513794,-0.4712618589401245,0.6449915766716003,-0.286721408367157,0.9515653252601624,1.6107581853866577,0.5070770382881165,-0.7190423011779785,-0.3338349461555481,-1.1177246570587158,0.4873356819152832,0.35881534218788147,-1.641395926475525,-1.328627586364746,-1.7330509424209595,0.8889073729515076,-1.586119532585144,-1.1506997346878052,-0.6657633185386658,-0.47403427958488464,-0.6403911709785461,0.15436618030071259,0.6676767468452454,0.17709533870220184,0.15556581318378448,-0.2782951295375824,-1.3188598155975342,-0.035920023918151855,-0.9021690487861633,1.0591866970062256,-0.3997649848461151,1.0793952941894531,0.05450410023331642,0.4790850579738617,0.26181623339653015,-0.3304024636745453,0.18000027537345886,0.31449124217033386,-0.21398739516735077,-1.3046627044677734,-1.6309714317321777,0.731798529624939,-0.07705119252204895,0.44142499566078186,0.7348191738128662,-1.692611813545227,0.4456186294555664,-1.049124836921692,0.03165404871106148,-0.2462359368801117,0.6967180967330933,1.0863068103790283,1.3789175748825073,0.8435553312301636,0.3218463063240051,-0.5921649932861328
amazon-pet-supplies.csv,-0.9481477737426758,0.8501178026199341,-0.5502263307571411,-1.7187182903289795,1.7704609632492065,-0.3080885112285614,1.1803336143493652,0.19539639353752136,0.9323310256004333,-1.2651294469833374,0.8915930390357971,-0.984797477722168,-0.06720704585313797,-1.3423142433166504,-0.6057812571525574,-0.3991813659667969,-0.5319819450378418,-0.9466625452041626,0.15984855592250824,0.5191786885261536,-0.5764708518981934,1.3769359588623047,0.706281840801239,1.0266873836517334,-0.3434162735939026,1.3454461097717285,0.22303634881973267,0.6376439929008484,1.130283236503601,-1.8991947174072266,0.8378366231918335,0.039274200797080994,-0.13963499665260315,0.22743354737758636,0.3961091935634613,-0.2854408919811249,-2.037818431854248,1.1010822057724,0.5799157023429871,1.7331764698028564,-1.246554970741272,-0.4679594933986664,1.2928850650787354,0.857439398765564,-0.11483587324619293,-1.4174963235855103,-0.8493669629096985,-0.06371472030878067,-0.0966859981417656,-0.7858551740646362,1.0634803771972656,0.5346176028251648,0.6745019555091858,2.069047451019287,0.48188647627830505,1.4066014289855957,-0.5659233331680298,-1.4258205890655518,-1.0426777601242065,-0.9408698081970215,0.2526397705078125,1.7076985836029053,0.6879847645759583,-0.643639087677002,-2.2822580337524414,0.20666062831878662,0.4368344843387604,0.2523743510246277,0.10970259457826614,1.0971649885177612,-0.995471715927124,-1.2035009860992432,-1.5356758832931519,0.455425500869751,-0.17671480774879456,-1.5286251306533813,0.6758881211280823,0.6472241282463074,0.34405362606048584,0.3888719081878662,0.8388761878013611,-0.26787737011909485,0.19837333261966705,0.7088965773582458,-3.6296353340148926,-0.8668246865272522,0.25634822249412537,-1.2317192554473877,1.0931212902069092,0.9419335126876831,1.5697829723358154,-0.8037464618682861,0.7727980017662048,-2.0376365184783936,-0.5735125541687012,0.1378924399614334,-0.6196268796920776,-0.6976936459541321,-1.3394852876663208,-0.09299694746732712,-1.425222396850586,-0.04810985550284386,-0.6116787195205688,0.2992996275424957,0.3964569568634033,0.4810308516025543,-0.06726905703544617,-1.6019419431686401,0.11719159036874771,-1.0612260103225708,-0.035767942667007446,0.1317863166332245,-1.1986702680587769,1.1992857456207275,-0.36594051122665405,-1.315771460533142,-0.3659398853778839,-0.12169791013002396,0.2645651698112488,-1.0401229858398438,-0.28687524795532227,-0.97116619348526,0.10068739205598831,0.5721171498298645,-0.35821372270584106,0.6171242594718933,-2.0962111949920654,-0.8069921135902405,-1.3321038484573364,-0.629460871219635,0.33819642663002014,-2.0014114379882812,-0.1030515730381012,-0.31764769554138184,-1.8541247844696045,-0.04547112435102463,-0.8868370652198792,0.5806662440299988,-2.8051679134368896,2.71610689163208,1.4868695735931396,0.3692081570625305,0.437965452671051,-1.1111347675323486,1.1230415105819702,-0.5655382871627808,0.19774757325649261,-0.06747156381607056,0.9848840832710266,1.5419158935546875,0.3287661373615265,-0.989109456539154,-0.07927747070789337,-0.8362148404121399,0.49781233072280884,0.16333547234535217,-2.5269811153411865,-1.1130679845809937,-2.0600099563598633,1.143837332725525,-1.455183506011963,-0.21577727794647217,-1.0099387168884277,-0.2764117121696472,-0.5283719301223755,0.061222419142723083,0.4527507722377777,-0.08206091076135635,-0.3425478935241699,-0.02041090652346611,-1.3459687232971191,0.5079934597015381,-0.4870629906654358,1.1072851419448853,-1.1246370077133179,1.0050445795059204,-0.182623490691185,0.661696195602417,0.3775654137134552,-0.35516753792762756,-0.2561454772949219,0.03630214184522629,-0.5880748629570007,-1.495810866355896,-1.5224790573120117,0.7641544342041016,0.38075125217437744,-0.4415982663631439,0.7037113308906555,-0.8645075559616089,0.9142997860908508,-0.9268624782562256,0.18101628124713898,0.15599222481250763,0.5997066497802734,0.9851915836334229,1.233964204788208,0.6748714447021484,0.0726730152964592,-0.3393239676952362
amazon-instruments.csv,-0.6501505970954895,0.8425349593162537,0.10194941610097885,-1.5854653120040894,1.8558235168457031,0.4793442189693451,1.5637528896331787,-0.3202371299266815,1.78438138961792,0.5098530650138855,0.2881583571434021,0.27715250849723816,-1.266282558441162,-1.0610191822052002,0.207560732960701,-0.13234961032867432,-0.3796934187412262,-1.674129843711853,0.859213650226593,-0.03069160133600235,-0.058087971061468124,0.6529108285903931,0.8257867097854614,-0.273471474647522,-1.1214369535446167,0.936199426651001,0.2625980079174042,-0.012813236564397812,0.5728060603141785,-2.549015522003174,-0.6854343414306641,0.5960485935211182,-0.2258574515581131,0.3226228654384613,1.1262065172195435,-0.8902481198310852,-0.9265763759613037,1.2630228996276855,2.238588571548462,2.009826183319092,-1.263551115989685,-0.29519036412239075,1.5299513339996338,0.855701208114624,0.7802727222442627,-0.39992067217826843,0.1363619863986969,-0.7700217962265015,-0.09435330331325531,-1.3008774518966675,1.845492959022522,0.04915414750576019,0.7093151807785034,0.34037870168685913,0.6794417500495911,1.0499463081359863,-1.374345302581787,-0.9138048887252808,-1.0373011827468872,-2.967912197113037,-0.18781226873397827,1.807478427886963,0.3606696128845215,-0.43331998586654663,-0.9206383228302002,0.758423388004303,1.0892558097839355,0.6085497140884399,0.13737531006336212,1.389623999595642,-1.3414653539657593,-1.5729622840881348,-1.0820709466934204,0.9087990522384644,-0.3639647960662842,-0.561181366443634,0.2529478371143341,-0.1312982141971588,-0.07072606682777405,-0.3795594274997711,0.011457295157015324,-0.16355030238628387,0.18256045877933502,0.18781299889087677,-3.3802263736724854,-0.35645022988319397,0.09388764947652817,-1.3788707256317139,0.5557732582092285,1.0647339820861816,1.4745031595230103,-1.2760050296783447,0.10249222815036774,-0.6475642323493958,-0.6513898968696594,0.7265745401382446,-0.0022402105387300253,-0.5722268223762512,-0.33729299902915955,-0.38884422183036804,-1.7685233354568481,0.4678584039211273,-0.5917032361030579,1.2994050979614258,0.47770509123802185,0.873366117477417,-0.39122796058654785,-0.5636072158813477,-0.20959050953388214,0.10959769785404205,0.14896070957183838,0.429090678691864,-1.5839109420776367,0.8283260464668274,0.8729113340377808,-0.8005102872848511,-0.046957481652498245,0.34626325964927673,-0.46127739548683167,-0.7901020646095276,0.16782337427139282,-1.4082342386245728,-1.1596338748931885,0.08999413251876831,0.40168771147727966,1.5072649717330933,-0.979989767074585,-0.2121436446905136,-1.7894728183746338,-0.33299416303634644,1.4477499723434448,-2.6136887073516846,0.6679528951644897,-0.9068052172660828,-1.7208051681518555,0.4237787425518036,-0.38439807295799255,-0.5651217103004456,-2.2719037532806396,2.240058422088623,0.7834978699684143,-0.44686439633369446,0.2628788948059082,-1.0948246717453003,0.08323243260383606,0.49143239855766296,0.917572557926178,-1.589660882949829,0.9612040519714355,2.1773900985717773,0.4541846215724945,-0.847262978553772,0.4343312382698059,-0.8977062702178955,0.8892048001289368,0.5964792966842651,-1.0093106031417847,-0.9369561672210693,-1.1862468719482422,0.6577825546264648,-1.6342262029647827,-1.0422425270080566,0.4385557472705841,-0.37193068861961365,-0.7252876162528992,0.4220184087753296,1.630703091621399,1.2491464614868164,-0.020556269213557243,0.3869795799255371,-0.6371436715126038,0.04085259139537811,-0.9107689261436462,1.3061094284057617,0.9305127263069153,0.804000198841095,-0.7125090956687927,0.31179729104042053,-0.8914099335670471,0.13216109573841095,0.010782348923385143,-0.22075621783733368,0.057516440749168396,-0.8340847492218018,-1.1365035772323608,-0.4151753783226013,-0.8128014802932739,-0.04650652036070824,0.8406171202659607,-1.462347388267517,0.618808925151825,-0.9220157861709595,-0.48453018069267273,-0.3926088809967041,0.2196906954050064,1.2584950923919678,0.8039537668228149,-1.1016511917114258,1.4579167366027832,0.21097147464752197
amazon-beauty.csv,-0.31704992055892944,0.005669064354151487,0.36116665601730347,-0.7950063347816467,1.7870452404022217,-0.4653453230857849,1.104405164718628,0.7839191555976868,1.7229993343353271,-0.07842731475830078,-0.1131386086344719,0.1201033890247345,-0.9700378179550171,-1.7157267332077026,0.08804351836442947,-0.3276876211166382,0.5887995958328247,-1.547273874282837,0.5731682777404785,0.0357271209359169,-0.2059887945652008,0.4818609654903412,1.211051344871521,1.1304246187210083,-0.7215272784233093,1.9889570474624634,1.1445475816726685,-1.776880145072937,0.8539671301841736,-0.9909178018569946,-0.3030334413051605,0.5493136048316956,0.2422449290752411,-0.6733689308166504,0.44740891456604004,-1.023076057434082,-0.33868128061294556,3.082474708557129,0.9263604879379272,0.5768102407455444,-1.6132034063339233,-1.1911706924438477,1.7662644386291504,-0.3957229256629944,1.480892539024353,-1.5121740102767944,0.5356211066246033,-0.10475075244903564,0.5389910340309143,-0.6091718077659607,-0.2606166899204254,-0.6136981844902039,0.010300886817276478,1.181278944015503,-0.23481588065624237,2.3514719009399414,-1.9125603437423706,-0.6233497858047485,-1.1479313373565674,-2.1357696056365967,-0.7403193116188049,1.3338979482650757,-0.024131154641509056,-0.18197621405124664,-2.0020592212677,-0.45365583896636963,0.2155776172876358,0.4813252091407776,1.1499255895614624,0.3301551043987274,-0.13397713005542755,-1.4783613681793213,-0.43221139907836914,0.7683573961257935,-0.008566602133214474,-0.018126409500837326,0.32657018303871155,0.3864920139312744,-0.06744203716516495,-1.052886962890625,-0.12709297239780426,0.6365532875061035,0.3611702620983124,-0.19654710590839386,-2.5493247509002686,-0.48226410150527954,0.8474977016448975,-0.16460536420345306,0.05650537461042404,1.4415286779403687,1.8391392230987549,-1.1533743143081665,0.03984801471233368,-2.4308125972747803,-1.2725183963775635,0.1250188946723938,-0.06708476692438126,-0.9550004601478577,-0.5818985104560852,-1.2839831113815308,-0.8031895160675049,0.39601197838783264,0.031040150672197342,0.8285048007965088,1.2090811729431152,0.09277129173278809,-0.36348456144332886,-0.6945143938064575,-0.12446543574333191,-1.5490233898162842,-0.7229127883911133,0.24267150461673737,-0.6086838841438293,1.1076571941375732,0.22296142578125,-0.6340728998184204,0.35195446014404297,-0.43980589509010315,-0.14366202056407928,-0.4070340394973755,0.29903849959373474,-0.09199212491512299,-0.2153434157371521,1.145153522491455,0.036567676812410355,1.5391305685043335,-0.37148770689964294,-0.07877109944820404,-1.3446807861328125,-0.14618071913719177,1.0638399124145508,-2.555734157562256,1.7712688446044922,-1.0538909435272217,-1.267163634300232,0.41600871086120605,-0.46365365386009216,0.036122944205999374,-2.6037139892578125,2.3526268005371094,0.09993689507246017,-0.1921020895242691,0.15301181375980377,0.0465533509850502,0.18198668956756592,0.46337974071502686,0.0024996502324938774,-1.1603528261184692,1.0153690576553345,1.7013931274414062,1.1507790088653564,-1.6685737371444702,0.3591192364692688,-1.0039831399917603,0.5331756472587585,0.23493888974189758,-1.3166314363479614,-0.9730337858200073,-1.4634612798690796,1.2103832960128784,-1.3313994407653809,-0.41355544328689575,0.27573245763778687,-0.9224633574485779,0.3235263526439667,0.7240261435508728,0.6408384442329407,0.6343454718589783,-0.6771484017372131,0.08414365351200104,-1.0098458528518677,0.21521379053592682,-0.12678739428520203,1.4098684787750244,-0.6664960384368896,1.052007794380188,-0.9004704356193542,0.7926656007766724,-0.3258669674396515,0.08699341863393784,0.8925206065177917,-0.41565507650375366,1.1151049137115479,-2.2097225189208984,-1.583506464958191,-0.032055843621492386,0.6171826124191284,0.5631899833679199,0.6806516051292419,-1.8271174430847168,0.1513298600912094,-0.5175231099128723,0.18356139957904816,-1.2370628118515015,-0.5269555449485779,1.5187877416610718,0.7544687986373901,-0.13514499366283417,0.6515688300132751,0.19628968834877014
jester2.csv,0.016271770000457764,1.563326120376587,-1.2331856489181519,-0.39175376296043396,1.9008169174194336,-0.7924211621284485,1.2543728351593018,0.36802396178245544,0.5868919491767883,1.5646220445632935,-0.42534422874450684,-1.497060775756836,-0.38932085037231445,-0.6747756600379944,-0.01620941050350666,0.8438893556594849,-1.3805139064788818,-0.47984588146209717,-0.06011759862303734,-0.5543099641799927,-0.27526336908340454,0.9900109767913818,-0.21175751090049744,0.03927506506443024,-1.0175726413726807,1.1636790037155151,-0.5073721408843994,-1.2741667032241821,1.3443100452423096,-1.7842073440551758,-1.355839729309082,0.7900758385658264,0.8636260032653809,-1.418656587600708,-0.2740458846092224,1.852281928062439,-2.0996170043945312,0.7319220304489136,0.47871291637420654,0.33085528016090393,-1.7975950241088867,-0.539034903049469,1.5825012922286987,0.11095637828111649,0.8946263790130615,-0.1347174048423767,1.2408785820007324,-1.5343681573867798,-0.19439654052257538,-0.0753139927983284,0.9768453240394592,0.8334798812866211,0.5662894248962402,0.9986691474914551,0.7613069415092468,1.0821670293807983,-0.35533130168914795,-0.9561939835548401,0.9628389477729797,-0.5183250308036804,1.469709873199463,1.333173155784607,0.40036824345588684,-0.2856752574443817,-2.1492843627929688,0.018741577863693237,1.0788248777389526,-0.838998556137085,0.5893162488937378,-0.18187189102172852,-0.9679840207099915,-1.1452631950378418,-0.654265820980072,0.436418354511261,0.09459318220615387,-1.1406633853912354,0.8942891359329224,1.1707240343093872,0.602575421333313,0.5425897240638733,-1.290961503982544,0.44803622364997864,-1.6556644439697266,-0.3683234453201294,-2.6336522102355957,-1.5484962463378906,-0.5621611475944519,-0.8574159145355225,1.8642839193344116,1.2183889150619507,1.2406113147735596,-0.498386949300766,0.5669763088226318,-0.9959815144538879,-2.236445426940918,0.06958234310150146,0.053666628897190094,-1.1932616233825684,-0.9012711644172668,-1.788988471031189,0.8832858800888062,-0.7827450633049011,-0.6955931186676025,0.4894148111343384,0.8410558104515076,0.19179125130176544,0.9710389375686646,-0.4892117381095886,0.9526626467704773,-0.764585554599762,-0.15075252950191498,-0.12122626602649689,-2.5120787620544434,0.055468712002038956,0.9970384836196899,-1.332122802734375,0.3436709940433502,-0.21071265637874603,-0.4309980869293213,0.2157335877418518,-0.20190174877643585,-1.1838274002075195,-0.10830648243427277,0.4872325360774994,-0.2715977132320404,1.3712537288665771,0.2506290078163147,-0.5429658889770508,-0.590403139591217,-1.1862647533416748,0.22682712972164154,-2.9238455295562744,-0.34393179416656494,-1.6000243425369263,0.010040751658380032,-0.0389835387468338,-2.125650405883789,1.5244911909103394,-0.7034807205200195,1.9989010095596313,0.27067485451698303,-0.23004555702209473,0.990498423576355,-0.06623633950948715,0.6803157925605774,0.24775785207748413,-0.3439556956291199,0.12772196531295776,1.626466155052185,0.5638009309768677,0.1897742599248886,-1.0395667552947998,0.09302842617034912,0.26318374276161194,0.5586528778076172,-0.4975951910018921,-0.7937100529670715,-2.0372025966644287,0.6287885308265686,1.4133011102676392,-1.0940810441970825,-0.28127288818359375,-0.36913812160491943,0.009706754237413406,-0.25572365522384644,-0.3910596966743469,0.2790617048740387,-0.5294741988182068,-1.580344557762146,1.7330007553100586,-0.8245338201522827,-0.14240553975105286,-0.9357599020004272,1.4244565963745117,0.2923773229122162,1.0584739446640015,-0.37803176045417786,1.4731589555740356,-0.9694927334785461,0.5360352993011475,0.6847103238105774,-0.28098657727241516,-0.27739417552948,-0.3793484568595886,-0.39955663681030273,1.1365386247634888,-2.218430519104004,0.47929930686950684,0.13203266263008118,-0.08744367212057114,0.1803959757089615,0.6908966302871704,-1.0830365419387817,0.19324439764022827,1.162703514099121,0.2575169801712036,1.0524142980575562,1.1781061887741089,0.5513112545013428,0.9397232532501221
amazon-tools.csv,-0.4788554310798645,0.856902539730072,-1.4119038581848145,-0.6771750450134277,0.9737660884857178,-1.03762686252594,1.2867438793182373,0.36319613456726074,0.10245512425899506,0.3447605073451996,-0.24131371080875397,0.5865764021873474,-0.05763305723667145,-1.4396878480911255,0.4219004213809967,-0.565494179725647,-0.11097501218318939,-1.7577975988388062,0.04545050859451294,0.14587576687335968,-0.31617265939712524,-0.12547878921031952,1.1731939315795898,0.037535227835178375,-0.040417417883872986,2.0823471546173096,0.08762212097644806,-0.1437271535396576,0.9004974365234375,-1.8201104402542114,-0.5531296730041504,0.5861561894416809,-0.32915303111076355,1.020737886428833,-0.8162274956703186,-0.22321051359176636,-1.7904506921768188,1.237381100654602,0.4343574047088623,1.3195440769195557,-0.317824125289917,-0.641747772693634,1.1545010805130005,0.896102249622345,1.0670335292816162,-0.9467743039131165,-0.5293014049530029,-0.6136603951454163,0.4677121639251709,0.040100499987602234,0.01636786200106144,0.0325956866145134,1.4518052339553833,1.3913743495941162,-0.534223735332489,1.469242811203003,-1.331628441810608,-0.5332725048065186,-1.4907350540161133,-0.992294192314148,0.7002448439598083,0.5778805613517761,-0.15080973505973816,-0.06982730329036713,-2.5258493423461914,0.004248159006237984,1.074420690536499,-0.39760780334472656,0.7126032710075378,1.6326699256896973,-0.7912773489952087,-0.9743146896362305,-0.8151695132255554,1.104459285736084,0.36775949597358704,-1.7660202980041504,-0.07730821520090103,0.49787527322769165,-0.09480693191289902,-0.3744155466556549,0.3864167630672455,0.33115246891975403,1.1564767360687256,0.660431444644928,-2.5568225383758545,-1.2475287914276123,-0.05128762125968933,-0.20626528561115265,1.2397655248641968,0.9299132227897644,1.0131051540374756,-2.087648630142212,0.5428255200386047,-2.5608484745025635,-1.1770167350769043,-0.4649437665939331,0.30402275919914246,-0.26956087350845337,-0.021127954125404358,-0.3517085313796997,-1.1771130561828613,-0.1551157832145691,0.0939079150557518,0.6754743456840515,0.8738558292388916,-0.5320144295692444,-0.0007252758950926363,0.046716928482055664,1.772350788116455,-1.7976030111312866,0.2716100215911865,1.3770283460617065,0.2323596030473709,-0.08316947519779205,1.0947399139404297,-0.7571939826011658,0.9793460965156555,0.26582881808280945,1.5085790157318115,0.11221305280923843,-0.9621454477310181,-1.4063735008239746,0.5459161996841431,0.7974553108215332,2.0070888996124268,0.6355288028717041,-1.4652916193008423,-0.7084542512893677,-0.2895027995109558,-0.4432285726070404,-0.7919707894325256,-1.8190597295761108,0.1467917263507843,-1.378269910812378,-1.0951591730117798,0.022671686485409737,0.18217870593070984,1.4562181234359741,-1.547553539276123,1.4221558570861816,0.5350871682167053,0.2837887704372406,1.5420339107513428,0.45480775833129883,0.5724354386329651,0.33184894919395447,0.40440666675567627,-0.3852139413356781,0.26619136333465576,1.8048163652420044,1.6670382022857666,-1.2910934686660767,0.02033230848610401,-1.0439598560333252,-0.3686232268810272,-0.8817188143730164,-1.3354412317276,-1.495995044708252,-0.8169912695884705,2.062858819961548,-2.1032252311706543,-0.12163910269737244,-0.2667180299758911,-0.40543562173843384,0.14176172018051147,0.42157483100891113,1.2470167875289917,-1.4730603694915771,0.49105554819107056,0.6830248832702637,-0.23053127527236938,0.05199900642037392,-0.29298239946365356,1.4963316917419434,-0.21258966624736786,1.607908010482788,-1.1021441221237183,1.3463014364242554,1.1655480861663818,0.9883590340614319,0.10704910010099411,-0.648481011390686,0.025499751791357994,-1.8702489137649536,-2.4431276321411133,0.13527719676494598,-0.7011461853981018,-0.6078785061836243,0.19609247148036957,-0.7559009194374084,0.4323997497558594,-1.930802345275879,0.3590191900730133,-1.203835129737854,-0.011018400080502033,1.2992832660675049,1.2515110969543457,0.4834904372692108,0.3557107746601105,0.8259369730949402
