movielens_latest.csv,-0.8641560673713684,0.05726294964551926,0.5669655799865723,1.369002103805542,1.3644517660140991,-0.677044153213501,0.041317615658044815,-0.06719943135976791,-0.399023175239563,1.8536502122879028,0.6168349385261536,-2.040996551513672,0.6631255745887756,0.6565758585929871,-0.6945220232009888,-0.6512325406074524,0.4405154287815094,-0.33450812101364136,-0.3905419409275055,-1.2012629508972168,0.38343143463134766,1.9199888706207275,0.6821790933609009,-0.2461225390434265,1.1541187763214111,0.40856269001960754,0.759239673614502,-1.5608525276184082,-0.06967596709728241,-0.052263293415308,-0.2846238613128662,0.11971528083086014,-0.06744126975536346,-1.5212315320968628,-0.451083779335022,-1.1498109102249146,-1.2698750495910645,0.45713427662849426,1.0313116312026978,-0.006679108366370201,2.235671043395996,0.2115401327610016,0.01623610034584999,0.13506369292736053,-1.5137845277786255,0.1932479739189148,2.9013051986694336,-0.4632317125797272,1.0856906175613403,0.05701592564582825
amazon-cd.csv,-0.8036350011825562,0.25055259466171265,-0.7394854426383972,1.6027381420135498,0.3425101637840271,0.7176405787467957,1.5428078174591064,-1.0803649425506592,-0.4218966066837311,1.3110439777374268,-0.47172728180885315,-0.572562038898468,-1.128586769104004,1.063503623008728,0.4323132038116455,-2.2296226024627686,1.0736984014511108,-0.3818490207195282,0.7014595866203308,-0.4302632510662079,-0.8685972690582275,0.577073335647583,0.9527602791786194,-0.5602883100509644,1.1909682750701904,0.805133044719696,1.131203293800354,-1.81394362449646,-2.119816541671753,-0.93025803565979,-0.5038554668426514,-0.9353188276290894,-0.9270614385604858,-0.286339670419693,0.38503551483154297,-1.1444236040115356,-0.9503448605537415,0.4031524360179901,0.8387126922607422,0.17991802096366882,2.107421636581421,0.18893694877624512,-0.3726581633090973,0.9471422433853149,-1.3235571384429932,0.510297417640686,1.1747710704803467,-0.584248423576355,0.7258976101875305,0.7761017680168152
movielens100k.csv,0.15929172933101654,-0.2841307520866394,0.7133018374443054,1.2606446743011475,0.8786138892173767,-2.205970287322998,0.17016585171222687,-0.29566627740859985,-0.7988925576210022,2.337052583694458,-0.42523854970932007,-1.2644997835159302,-0.21389147639274597,1.771024227142334,0.8657488226890564,-2.173705577850342,-0.3397843539714813,-0.49700456857681274,-0.43066295981407166,-1.293105959892273,0.0652526319026947,1.053167700767517,-0.5625512599945068,-0.9693328738212585,-0.26006847620010376,-0.051278550177812576,1.880934715270996,-2.084956169128418,-0.23842015862464905,-0.9028931260108948,0.8289292454719543,-0.8968225717544556,0.8677242994308472,0.506223738193512,0.06588307023048401,-0.4830901324748993,-1.2718348503112793,0.32741835713386536,0.3469841182231903,-0.05403406172990799,1.535456895828247,-0.049292027950286865,0.11842256784439087,0.6926023960113525,-1.2849177122116089,1.1975007057189941,-0.21530064940452576,-1.1737793684005737,0.33560994267463684,-0.1606106162071228
amazon-movies.csv,-1.6317328214645386,0.27122822403907776,0.27694252133369446,1.3696506023406982,0.5103628635406494,-0.4451617896556854,1.085150122642517,-0.2909471392631531,0.4938751757144928,1.7902145385742188,-0.01752866804599762,-1.625736951828003,-0.705048143863678,-0.20562483370304108,0.06329432129859924,-1.2193344831466675,0.6525701284408569,-0.9840385913848877,-0.846384584903717,-0.9580722451210022,-1.673285722732544,0.5993727445602417,-1.4778738021850586,-0.23816180229187012,1.4227277040481567,0.7925524115562439,0.31276506185531616,-2.3542520999908447,-0.5110451579093933,-0.4485009014606476,0.8550944328308105,0.6205635666847229,-1.3192130327224731,-0.3892561197280884,1.2729750871658325,0.08374004065990448,-1.060969591140747,1.033150553703308,0.770096480846405,-0.3578828275203705,1.9978830814361572,0.10677623748779297,-0.7825990915298462,0.32325616478919983,-1.015955924987793,0.5372070670127869,-0.39320439100265503,-1.3176301717758179,1.0380548238754272,1.313785195350647
movielens10m.csv,-0.7648146748542786,-0.8844512104988098,0.9083243608474731,0.20484136044979095,0.8541962504386902,-1.0390052795410156,0.2872026860713959,-0.5046513676643372,-0.03254271671175957,1.2283762693405151,-0.20356687903404236,-1.6770029067993164,-0.48921918869018555,-0.4746335744857788,-0.4164876639842987,-1.1629143953323364,-1.3774349689483643,0.24675218760967255,1.1818723678588867,-0.1688663214445114,-0.3535470962524414,-0.04662080854177475,-0.9282163381576538,-0.5312706232070923,1.9158961772918701,0.7516722083091736,2.4473371505737305,-1.3697364330291748,-0.9449130296707153,-1.485413908958435,1.6065963506698608,-0.38774242997169495,0.7336075901985168,-1.478047251701355,0.6895925402641296,-1.0189851522445679,-0.6620602607727051,1.5629308223724365,1.012036681175232,0.04040483385324478,1.0615371465682983,-0.7785781025886536,0.40159672498703003,1.0113786458969116,-0.19676467776298523,0.648844301700592,1.2578330039978027,-1.2449424266815186,1.41907799243927,-0.11068787425756454
amazon-clothes.csv,-1.309723138809204,0.37393471598625183,-0.14638365805149078,2.429006576538086,0.4490980803966522,0.13161878287792206,0.10986007004976273,-0.018461760133504868,-0.3407571613788605,2.2128732204437256,-0.7040451765060425,-0.4270031154155731,-1.1276925802230835,-0.6566047668457031,-0.23749850690364838,-1.0685505867004395,-0.5974365472793579,-0.9070608615875244,0.651159405708313,-0.8894005417823792,1.0963389873504639,-0.21672841906547546,-0.049268290400505066,-0.8774834275245667,0.8125518560409546,0.23162579536437988,1.0535762310028076,-2.462556838989258,-1.2642922401428223,-1.8600109815597534,0.17994537949562073,-0.878007709980011,-1.4112565517425537,-0.8835373520851135,0.177843376994133,-0.6627772450447083,-0.5675346851348877,0.09591657668352127,1.1366509199142456,-0.3619937002658844,2.026205062866211,1.0484951734542847,-0.3552066683769226,-0.3121163547039032,-1.1335649490356445,0.677921712398529,0.804011881351471,-0.6539915800094604,0.788189709186554,1.1698455810546875
amazon-health.csv,0.18428094685077667,-0.33138227462768555,-0.5017967224121094,1.8951054811477661,1.0086238384246826,-0.11592476814985275,1.696268916130066,-0.7512537240982056,0.6621657013893127,1.3657796382904053,0.5950244665145874,-0.8478907346725464,-1.2732234001159668,-0.3692154884338379,-0.19579018652439117,-1.0275537967681885,-0.16366544365882874,-1.0374356508255005,0.16579808294773102,-0.10177181661128998,-0.03062436729669571,1.2652506828308105,-0.2704891860485077,-0.9051075577735901,1.1207925081253052,0.13656435906887054,0.9207092523574829,-2.8002002239227295,-0.758926272392273,-1.5068132877349854,0.42815542221069336,-1.0454310178756714,-0.9486569762229919,-0.2284020334482193,-0.814444363117218,-0.8180902600288391,-0.038012128323316574,0.6334927678108215,0.4879201054573059,-0.2601218819618225,2.3490195274353027,-0.20393505692481995,-1.286407232284546,-0.5962626934051514,-1.685978651046753,1.4360151290893555,0.7905765771865845,-0.6594904661178589,0.8459819555282593,0.5893614292144775
amazon-beauty.csv,0.268163800239563,0.9392621517181396,-0.19730618596076965,1.1332625150680542,0.366515189409256,0.9967787265777588,0.7437663078308105,-0.13965362310409546,-0.13085274398326874,1.5205628871917725,1.0201014280319214,-0.6601863503456116,-0.9739616513252258,-0.31602180004119873,0.03561890497803688,-1.4687997102737427,-0.3308696746826172,-0.337136834859848,1.4424606561660767,-1.0226593017578125,0.15213093161582947,0.44839122891426086,-0.9376662373542786,-0.4108071029186249,0.9915527701377869,0.6065336465835571,0.9055783152580261,-2.1553869247436523,-0.2474736124277115,-0.7824174761772156,-0.07124628871679306,-0.9333034157752991,-0.22264647483825684,-0.25386881828308105,1.035218358039856,-0.004701498430222273,-0.9074732065200806,0.7617271542549133,1.1151635646820068,-0.2998966872692108,2.8118035793304443,1.44539475440979,-0.43565577268600464,0.23218175768852234,-2.24776291847229,1.4513860940933228,1.087968111038208,-1.3957823514938354,1.2284313440322876,0.24305397272109985
amazon-games.csv,0.19265617430210114,-0.6776520609855652,0.6062655448913574,1.6505736112594604,0.5501418709754944,0.11793528497219086,1.0077784061431885,0.559798538684845,0.3875924348831177,1.5520700216293335,1.1806584596633911,-0.7759333848953247,-0.1606135368347168,0.22621770203113556,0.6114060282707214,-1.6602718830108643,-0.2778186500072479,-1.5507479906082153,0.7668148279190063,-0.01962016336619854,-0.3391661047935486,-0.28047841787338257,0.32913604378700256,-1.0208004713058472,0.613294780254364,-0.13157033920288086,1.0880181789398193,-2.0555334091186523,-1.1265947818756104,-0.27704060077667236,0.49721893668174744,-0.061421722173690796,-0.8372849822044373,-0.36968839168548584,0.08698480576276779,-0.5335716605186462,-0.750399649143219,1.809005856513977,1.6961194276809692,0.4636516571044922,1.990925908088684,0.693841814994812,-0.11577518284320831,0.09253831207752228,-2.2910807132720947,0.5386006832122803,-0.19379283487796783,0.3241390287876129,2.171814203262329,1.5055702924728394
amazon-digital-music.csv,-0.16567867994308472,0.6474838256835938,-0.2023811936378479,2.3697621822357178,-0.5870199799537659,-0.2726356089115143,1.0025584697723389,0.20999553799629211,0.5910008549690247,1.1752007007598877,0.15322314202785492,-1.2513344287872314,-1.2800298929214478,-0.5837820768356323,0.2128523886203766,-1.7648446559906006,-0.5376523733139038,-1.3058559894561768,0.023476649075746536,-1.053781270980835,0.006838756147772074,-0.30299070477485657,0.33321458101272583,-0.7006901502609253,2.309748888015747,0.23991380631923676,0.6800087094306946,-1.8008540868759155,-0.04116666689515114,-0.8207514882087708,0.49158698320388794,-1.13782799243927,-0.5487930774688721,0.37276914715766907,0.15005092322826385,-1.1077609062194824,-2.019634485244751,0.5995635986328125,1.885931134223938,-0.43865105509757996,2.656471014022827,0.0869552493095398,0.3421792984008789,-0.10735733807086945,-0.5673647522926331,0.2378399670124054,0.369832307100296,-0.9060326218605042,0.5236125588417053,0.4242915213108063
amazon-tools.csv,-1.606101393699646,0.5434789657592773,0.36052408814430237,2.235098123550415,-0.06846418231725693,0.042454060167074203,1.1991113424301147,-0.4470965266227722,-0.7239301204681396,1.3640556335449219,0.568000853061676,-1.531535267829895,-1.320603609085083,-0.19692328572273254,0.19272363185882568,-1.18623948097229,-0.14157067239284515,-0.7149772644042969,0.5732970237731934,0.1674502193927765,0.6012604832649231,0.7821969985961914,0.14012931287288666,-1.3339667320251465,1.2696597576141357,0.6219595074653625,0.5505922436714172,-2.414623260498047,-0.7539701461791992,-2.0036048889160156,0.33573511242866516,-1.0585548877716064,-0.10406357795000076,0.028141967952251434,0.8508930206298828,0.39159247279167175,-1.0684189796447754,0.6867669224739075,1.0138448476791382,0.2970837354660034,1.7942942380905151,0.5866515636444092,-0.32170119881629944,0.039232488721609116,-2.2094826698303223,1.0440502166748047,0.4561023414134979,-0.152149498462677,0.8047709465026855,0.5731494426727295
bookcrossing.csv,-0.8936576247215271,-0.11056046187877655,-0.2443341612815857,2.1448466777801514,-0.07892534136772156,-0.6726555228233337,0.904651939868927,0.3061094582080841,-0.1541777104139328,0.6944279670715332,1.0764045715332031,-1.5780894756317139,-1.380428433418274,1.2986117601394653,-0.3961188495159149,-1.8997055292129517,-0.6931509971618652,0.2232675701379776,0.04462018236517906,-0.11692417412996292,0.18177549540996552,0.00032538099912926555,-0.7346779704093933,-1.168033242225647,0.941398561000824,-0.25163841247558594,1.2244466543197632,-2.091215133666992,-0.4179927706718445,-1.2506755590438843,-0.36171573400497437,-0.5713143348693848,-1.5121471881866455,-0.24070827662944794,0.10485925525426865,1.0105328559875488,-0.41996467113494873,0.5190393924713135,1.2339370250701904,-0.519182562828064,2.091681718826294,-0.06575041264295578,-2.0621461868286133,0.4927569329738617,-0.7578402161598206,-0.2937399744987488,0.9199818968772888,-1.0901967287063599,1.5610684156417847,0.7228620648384094
amazon-instant-video.csv,0.12636542320251465,1.2162196636199951,-0.9107354283332825,2.465813636779785,0.4874124526977539,-0.965427041053772,1.6536810398101807,0.1392165869474411,0.4714687466621399,1.1686290502548218,-0.1791553497314453,-0.9208235740661621,-0.37270185351371765,0.019401241093873978,-0.6451663970947266,-1.5396881103515625,0.01751851662993431,-0.9139315485954285,-0.23254148662090302,-0.08823811262845993,-0.23345287144184113,0.011791671626269817,-0.19838234782218933,-1.0488080978393555,1.4811819791793823,0.7736712098121643,2.0385732650756836,-1.2054880857467651,-0.24426469206809998,-1.0312427282333374,0.16432680189609528,-0.27206557989120483,-0.7979719042778015,-0.8286978006362915,1.2969789505004883,-0.5816229581832886,-0.4324267506599426,0.5936195850372314,0.2579882740974426,1.426095724105835,1.39309561252594,0.8298733830451965,-1.057739019393921,-0.5561342835426331,-1.6667289733886719,1.5657823085784912,0.9618830680847168,-1.317094326019287,1.4487649202346802,0.7284636497497559
amazon-office.csv,0.10598564147949219,0.6327744126319885,-0.6410599946975708,1.3569107055664062,0.6940324902534485,-0.045052140951156616,0.9459277391433716,0.3177274763584137,-0.6707066297531128,2.2302374839782715,0.13434690237045288,-1.1431617736816406,-1.9352949857711792,0.7707412838935852,0.4121173322200775,-0.9150140285491943,0.3427039086818695,-0.6531738638877869,0.5135411620140076,-0.4517967998981476,0.3769676387310028,-0.08061021566390991,-0.20604948699474335,-0.7700328230857849,2.451155424118042,-0.5675808787345886,0.5079578161239624,-1.8808685541152954,-1.0103152990341187,-1.8783921003341675,-0.06422315537929535,-0.1698220819234848,-0.09341667592525482,-0.165745809674263,0.7603905200958252,-0.9726747274398804,-0.8149721026420593,1.4498209953308105,0.6799131631851196,0.27288639545440674,2.087254524230957,0.06577088683843613,-1.2039936780929565,-0.6648629903793335,-2.038161516189575,0.34284406900405884,0.4694242477416992,-0.5853493809700012,1.107567548751831,0.28327476978302
amazon-automotive.csv,-0.08734575659036636,0.7714674472808838,0.7650570273399353,2.207437515258789,1.099276065826416,0.10359308123588562,0.5143576264381409,-0.12075508385896683,-0.22979608178138733,1.1384937763214111,0.6423048377037048,-0.965979814529419,-2.044184684753418,0.06528290361166,0.4071284532546997,-1.4225231409072876,-0.40647464990615845,-0.338612824678421,-0.12550577521324158,-0.06944409012794495,-0.7601948380470276,-0.4399455189704895,0.9487692713737488,-1.483903169631958,1.0823580026626587,0.5954511761665344,0.8142411708831787,-2.4424970149993896,-0.6570027470588684,-1.6034120321273804,0.1218167319893837,0.14407432079315186,-0.8772866129875183,-0.09834234416484833,0.5062163472175598,-0.5065751671791077,-1.015480399131775,1.0470259189605713,0.957977294921875,-0.2034163773059845,2.2515201568603516,1.6701171398162842,-1.1559563875198364,0.2221182882785797,-0.721265435218811,1.1464422941207886,1.2420506477355957,-0.4872283637523651,0.6341544985771179,0.6058995723724365
amazon-pet-supplies.csv,-0.42167630791664124,0.30853718519210815,0.34695905447006226,1.4249769449234009,1.417270302772522,-0.24869079887866974,0.8432461619377136,-0.8697352409362793,0.2754589319229126,0.18293870985507965,-0.5123995542526245,-1.2660541534423828,-2.1081221103668213,-0.5527776479721069,0.3376780152320862,-2.0724101066589355,0.5771610736846924,-0.710763156414032,0.11025859415531158,-1.1653265953063965,0.7953084707260132,0.1547555774450302,-0.12701071798801422,-1.0333822965621948,1.7539838552474976,-0.13091342151165009,0.3100668489933014,-2.539992570877075,-1.0140587091445923,-0.8045928478240967,0.36437633633613586,-0.8660517930984497,-0.2708919048309326,-0.6914546489715576,-0.19046925008296967,-0.19340389966964722,0.1917169988155365,0.5802381038665771,0.9173433780670166,0.9465438723564148,2.144763708114624,0.897078812122345,-0.3571006953716278,0.23906663060188293,-2.1053755283355713,-0.7664533853530884,0.28321146965026855,-1.208016276359558,1.357971429824829,0.16346468031406403
yahoo-music.csv,0.08211876451969147,-0.5585559010505676,0.7789167165756226,2.1407155990600586,0.8724215626716614,-0.926490306854248,-0.44060248136520386,-1.1253416538238525,-0.580583393573761,1.9995256662368774,0.5530999302864075,0.2752407193183899,-1.2622376680374146,0.9341577887535095,-0.4561172425746918,-0.3032938838005066,0.6594006419181824,-0.4527972638607025,-0.20665916800498962,0.21257545053958893,-0.7808811664581299,0.6622225046157837,0.14118555188179016,-1.4656981229782104,1.085649847984314,0.30800294876098633,0.9450418949127197,-0.5071706771850586,-0.969577431678772,-0.1631946861743927,0.49490904808044434,-1.3973318338394165,-0.46991845965385437,-1.0708049535751343,1.204993724822998,0.22026945650577545,-2.128831148147583,0.4803265631198883,0.8902093768119812,-0.5172222256660461,1.7641198635101318,-0.6761040687561035,0.08031436800956726,-0.04454006999731064,-0.8867108821868896,1.0705368518829346,0.5408355593681335,-2.237043857574463,2.2069058418273926,-0.1701536923646927
jester2.csv,-0.5471505522727966,0.5558964610099792,0.7005376219749451,1.3135201930999756,2.137608051300049,-0.04724448546767235,-0.4236922860145569,0.713157057762146,0.4794822931289673,0.9868237972259521,0.4171522557735443,-0.6322357058525085,-0.9425176978111267,0.7748641967773438,0.7394179105758667,-0.5180323719978333,0.2880784571170807,-1.3874225616455078,0.16771894693374634,-0.9972347021102905,0.7081572413444519,0.24640926718711853,-0.9655457139015198,-1.0859630107879639,0.3508897125720978,0.688656747341156,2.5273373126983643,-2.8584885597229004,-1.2602468729019165,-0.548758864402771,0.28466179966926575,-1.3077092170715332,-0.9793645739555359,-0.23418153822422028,1.0994011163711548,-0.1352987438440323,-1.248803973197937,1.045534372329712,-0.2379833310842514,-0.10336616635322571,0.49732506275177,-0.854106605052948,0.25457823276519775,0.3148826062679291,-1.338620901107788,0.10997185856103897,1.9414522647857666,-0.2447851002216339,1.042820692062378,-0.6866748929023743
amazon-garden.csv,-0.5749631524085999,-0.2409311980009079,-0.6248929500579834,1.7914717197418213,0.5337381362915039,-0.18220077455043793,0.7638299465179443,-0.030288925394415855,0.21753275394439697,1.1653571128845215,0.9592353105545044,-1.721144676208496,-1.3362482786178589,-0.47804903984069824,0.3817114233970642,-0.7217336893081665,-0.3384055197238922,-1.5396671295166016,0.39966297149658203,-1.174222469329834,-0.38434261083602905,0.11686073988676071,0.6586008667945862,-1.155912160873413,1.443005084991455,-0.20936329662799835,2.0310821533203125,-1.7038625478744507,-1.5408823490142822,-0.996303915977478,-0.18725912272930145,0.06232396885752678,-0.12722034752368927,0.15737700462341309,0.9628731608390808,-0.3044191598892212,-0.6537046432495117,0.6171572208404541,0.0076200333423912525,-0.7689718008041382,2.2372326850891113,1.1980056762695312,-1.6687742471694946,0.1805148720741272,-1.9414551258087158,0.2377697229385376,0.7792339324951172,-1.2584861516952515,0.9302089810371399,0.15812250971794128
amazon-phones.csv,-1.0746458768844604,0.6837882399559021,0.4095880389213562,1.8673396110534668,0.013831665739417076,0.006323422770947218,1.444044828414917,0.7818715572357178,0.04692160710692406,1.353887677192688,0.2353525161743164,-0.22689799964427948,-0.9033443331718445,0.5692325234413147,0.9478873014450073,-0.1768244057893753,-0.6499306559562683,-0.1032559722661972,-0.16019968688488007,-0.7260553240776062,0.754780113697052,0.34192320704460144,0.7472282648086548,-0.7619068622589111,1.7106529474258423,0.6342300772666931,0.8671039342880249,-2.2025034427642822,-0.7001616358757019,-1.1338683366775513,0.20687712728977203,0.07487595081329346,-0.7092219591140747,-0.21780547499656677,0.31558957695961,-0.7634513974189758,-0.5231401920318604,1.1542903184890747,-0.11203505843877792,-0.16739404201507568,3.206439733505249,-0.1833001971244812,-0.689128041267395,0.8109565377235413,-1.7928955554962158,0.911321759223938,-0.08523537963628769,-1.263854742050171,2.0780115127563477,0.390368789434433
movietweetings_recsys2014.csv,0.22995764017105103,0.6719542741775513,0.8154783248901367,2.0517425537109375,2.2588930130004883,-1.2138816118240356,1.0021603107452393,-0.33927762508392334,-0.7055152654647827,0.6046035289764404,-0.5803813338279724,-1.2470182180404663,0.7141097187995911,0.3119352459907532,-0.45369401574134827,-0.8615109324455261,1.061415195465088,-1.004632830619812,0.21471746265888214,0.2756655216217041,1.4007017612457275,0.10214206576347351,-0.3738040328025818,-0.6665735840797424,1.837088942527771,0.22600817680358887,1.0242619514465332,-0.9693612456321716,-0.5409687757492065,-0.5889729261398315,1.3654636144638062,-0.19239401817321777,-1.5193792581558228,0.00851407554000616,1.0808411836624146,-0.6199390888214111,-1.337363362312317,0.9119794964790344,1.5614229440689087,-1.324033498764038,1.950848937034607,0.2761625647544861,-1.5842115879058838,0.7101036310195923,-1.009690761566162,0.8434744477272034,0.07925505191087723,-0.6775060296058655,0.27658212184906006,0.058631353080272675
amazon-home.csv,-0.6608549952507019,0.5433436632156372,0.17067718505859375,1.4768025875091553,-0.14524611830711365,0.02462691068649292,1.5236717462539673,-0.1561790406703949,-0.6482720375061035,1.2740342617034912,0.55985027551651,-1.4320695400238037,-1.6628867387771606,-0.3532983660697937,1.3770966529846191,-1.2162338495254517,0.49839964509010315,-1.2212551832199097,0.6081954836845398,-0.23212498426437378,0.61695396900177,0.1364372819662094,0.7622222304344177,-0.378335565328598,0.7605990767478943,-0.8859114646911621,1.211948275566101,-2.5063352584838867,-0.33722755312919617,-0.4832392632961273,0.3305688798427582,-1.13713538646698,-0.7166149616241455,-0.999189019203186,0.3880263864994049,-0.4990084767341614,-0.41151294112205505,1.338775634765625,0.9796482920646667,-0.5097770690917969,2.0722551345825195,0.7883152961730957,-0.7476701140403748,-0.0458550825715065,-0.7780617475509644,1.7764259576797485,1.0535094738006592,-1.8420906066894531,0.8486873507499695,0.5589639544487
jester3.csv,0.915532112121582,1.0989059209823608,1.8170357942581177,0.5814520120620728,0.5929504036903381,-1.0665181875228882,-0.5692951679229736,-0.2917979955673218,-0.6843557357788086,1.6725248098373413,0.2699251174926758,-1.78583562374115,-0.2741624116897583,-0.18792784214019775,1.145755410194397,-1.103873372077942,0.6323072910308838,-0.328184574842453,-0.16610164940357208,0.31614723801612854,-0.42044398188591003,1.3943597078323364,-1.0098150968551636,-1.4144858121871948,1.6473480463027954,0.29827576875686646,1.7024236917495728,-1.5599614381790161,-0.8372763395309448,-1.8983216285705566,-0.4244024157524109,-1.3093804121017456,-1.5077075958251953,-0.9681875705718994,0.18761153519153595,-0.5644410252571106,-0.705194354057312,0.8673613667488098,0.20451872050762177,-0.7490771412849426,1.7250739336013794,0.28784677386283875,0.5426225066184998,0.005330037325620651,-0.8958020806312561,-0.23473158478736877,0.8460109233856201,-0.6198205947875977,0.8359230160713196,1.3076910972595215
amazon-baby.csv,-0.4301074147224426,0.5801264047622681,-0.05362787842750549,1.6386072635650635,0.03844528645277023,-1.1814732551574707,0.7559438347816467,0.3046087324619293,0.4802818298339844,1.3457940816879272,0.6698713898658752,-1.3418949842453003,-1.1730331182479858,-1.0698615312576294,-0.4471770226955414,-0.9300190210342407,0.9954599738121033,-0.844474196434021,0.052180200815200806,-0.8942577838897705,0.25679636001586914,0.022906554862856865,0.011143164709210396,-0.2621608376502991,0.052524227648973465,-0.08118398487567902,0.7955776453018188,-1.9607818126678467,-0.515159010887146,-2.114853858947754,-0.9473916292190552,-1.2284352779388428,-1.3008017539978027,-0.1786511093378067,0.6122961640357971,-1.275976300239563,-0.9331145882606506,1.1080987453460693,1.0773882865905762,0.025011904537677765,1.7083821296691895,-0.07701660692691803,-1.1691724061965942,0.8455362915992737,-2.1340951919555664,1.0514894723892212,-0.05878199636936188,-1.0753741264343262,1.9404891729354858,0.006884654518216848
tripadvisor.csv,-0.5302905440330505,-0.36482366919517517,-0.3316739797592163,1.0317251682281494,1.0561505556106567,-0.8317315578460693,0.44605156779289246,-0.5068770051002502,-0.008927269838750362,0.7753178477287292,0.7860767841339111,-1.2628815174102783,-1.6359916925430298,0.3642559051513672,0.9250556230545044,-0.6073639988899231,0.2907290756702423,-0.22241462767124176,-0.04041558876633644,-1.0393471717834473,0.564221203327179,-0.5646063685417175,-0.5275377631187439,0.22996455430984497,1.5792902708053589,0.5826342701911926,1.0233925580978394,-1.6250330209732056,-1.20534348487854,-0.8461654782295227,-0.41741693019866943,-1.1777019500732422,-1.2775700092315674,0.47235050797462463,0.34541404247283936,-0.5255849957466125,-1.3217061758041382,0.768134593963623,0.6841146349906921,1.17076575756073,2.4385178089141846,0.719656765460968,-0.36205941438674927,0.32372239232063293,-1.5518975257873535,1.999143362045288,0.8122819066047668,-1.3319934606552124,0.6579762697219849,2.1132633686065674
jester1.csv,-0.584933340549469,0.7609537839889526,0.14052464067935944,1.1112403869628906,1.213196039199829,-0.3191107511520386,-0.5764038562774658,0.31719574332237244,-0.0053296443074941635,1.8982621431350708,0.3532947897911072,-0.16261106729507446,0.27016714215278625,-0.696150004863739,0.7715611457824707,-0.707360029220581,0.9315164089202881,-0.8187534213066101,-0.21079179644584656,-0.3045337200164795,0.038776177912950516,0.3822754919528961,-0.5701366066932678,-0.9359479546546936,1.2885327339172363,0.5942440629005432,2.2105495929718018,-2.79685640335083,-0.3355989456176758,-1.1726603507995605,0.2802921533584595,-1.113372802734375,0.629004716873169,-0.9777137041091919,-0.4859800934791565,0.7232584357261658,-2.0994794368743896,0.8847696781158447,0.5078241229057312,1.1742304563522339,2.5431480407714844,-0.19041837751865387,-0.9896012544631958,0.9981362819671631,0.4006141424179077,0.35409674048423767,0.6122807264328003,-0.48627379536628723,1.1513208150863647,-0.4659004807472229
flixter.csv,-0.7582151293754578,1.5249371528625488,0.49395522475242615,1.1230436563491821,1.936514973640442,-0.5203492641448975,0.3678504228591919,-0.21934355795383453,-0.37235647439956665,2.7635505199432373,-0.5937431454658508,-1.9273959398269653,-1.0626857280731201,-0.2353309839963913,-1.1510090827941895,-1.0961052179336548,-0.24466882646083832,-0.3014468252658844,-0.7433485984802246,0.07427063584327698,-0.48460474610328674,-0.5683429837226868,-0.12332328408956528,-0.9580042362213135,0.27939584851264954,-0.966222882270813,1.0078190565109253,-0.7435379028320312,-0.629445493221283,0.39445626735687256,0.5688610672950745,-1.5433045625686646,-0.7927002906799316,-0.27619704604148865,0.026917677372694016,0.28019827604293823,-0.6662214398384094,1.716782808303833,0.303488165140152,0.5986782908439636,2.5033206939697266,-0.2600533366203308,0.5538366436958313,1.4519164562225342,-1.4015852212905884,1.0513935089111328,0.9391623735427856,-0.2665913701057434,0.5586538910865784,0.2987217307090759
yahoo-movies.csv,-0.9748131036758423,-0.8736098408699036,1.9150943756103516,0.7203739881515503,1.252974271774292,0.06958860158920288,1.2141690254211426,-0.5709172487258911,1.4055743217468262,2.738900899887085,-0.5616551041603088,-1.7006577253341675,0.45396512746810913,0.45291486382484436,0.4525764286518097,-1.7057379484176636,0.6884323358535767,-0.702889084815979,-0.183168426156044,-0.11740793287754059,0.9519108533859253,-0.6933873891830444,-0.3473227918148041,-0.4931941628456116,0.9864834547042847,0.043639060109853745,1.495439887046814,-0.5546000003814697,-0.4398197531700134,-1.492388367652893,-0.231231689453125,-0.7577276229858398,-0.9212900996208191,0.3142801821231842,0.8105455040931702,0.004099105950444937,-1.003157138824463,-0.3429836332798004,0.24908478558063507,0.04703780636191368,2.4164364337921143,0.663966178894043,-0.6759054064750671,-0.02607118897140026,-0.5565886497497559,0.3114907741546631,0.9031018018722534,-1.2652273178100586,1.6802867650985718,0.06570868194103241
movielens20m.csv,-0.3613866865634918,0.17070846259593964,-0.25211718678474426,1.855452537536621,1.5217764377593994,-0.9394267797470093,0.7884760499000549,-0.29242178797721863,0.9097550511360168,2.3819830417633057,-1.0985594987869263,-1.0197131633758545,-1.3449780941009521,-0.251009464263916,0.9832079410552979,-1.091249942779541,0.20318390429019928,0.7236119508743286,1.419015645980835,-0.38398903608322144,0.26975202560424805,2.122680425643921,0.150130033493042,-0.26163429021835327,0.6230701804161072,0.6691674590110779,1.4679735898971558,-0.6632876992225647,0.0913219079375267,-1.0264838933944702,0.5458124279975891,-0.576485812664032,-0.8516570925712585,0.08455918729305267,0.31359490752220154,1.1850621700286865,-1.9405224323272705,2.5286641120910645,0.45042333006858826,-0.23922739923000336,0.9126102924346924,0.002100995508953929,0.03926270082592964,0.3846205472946167,-0.6359072923660278,-0.28739506006240845,0.9211199879646301,-0.7203551530838013,1.2142921686172485,0.407340407371521
yelp.csv,0.12999281287193298,0.13802529871463776,-0.20215566456317902,1.4092930555343628,-0.32877638936042786,0.49581047892570496,0.9282280802726746,-1.6815550327301025,0.05098036676645279,1.1405867338180542,-0.040172070264816284,-1.340503215789795,-0.6060817241668701,0.4853018820285797,1.0154248476028442,-0.1189144030213356,-0.13590192794799805,-0.20652428269386292,0.646774411201477,-1.2437855005264282,0.1362762153148651,-0.09546980261802673,-0.10174595564603806,-1.0822232961654663,0.9551901817321777,-0.9013707637786865,1.303254246711731,-2.3993728160858154,0.11447691172361374,-1.463587760925293,1.0204524993896484,-0.0843573808670044,-2.0280306339263916,-0.8811082243919373,0.3582155108451843,-0.8554609417915344,-1.8753001689910889,0.1663041114807129,1.5931452512741089,1.2197363376617432,1.3421108722686768,0.14321847259998322,-0.5550227761268616,1.4567738771438599,-1.7949767112731934,0.6250177025794983,0.6785182356834412,-0.41348996758461,1.2294299602508545,0.44380638003349304
amazon-apps.csv,-0.4364800751209259,0.4032987952232361,-0.8643525838851929,0.7537170052528381,0.7144719958305359,0.5473273992538452,0.7655074000358582,0.8354921340942383,-0.34042537212371826,1.1891977787017822,0.7882453799247742,-1.603147268295288,-1.139837622642517,-0.5586953163146973,0.578161358833313,-2.5194039344787598,0.4967656135559082,-0.6296930909156799,-0.4572172462940216,-0.6650474667549133,0.47223636507987976,1.0289288759231567,0.014292080886662006,-1.981972336769104,0.9976580142974854,-0.11318470537662506,0.8032747507095337,-0.7936418056488037,-1.086656928062439,-1.316723346710205,0.9509246349334717,0.22980386018753052,-1.5083321332931519,0.18997982144355774,0.6250117421150208,-0.9976707696914673,-1.3907843828201294,0.718360960483551,1.2158364057540894,0.7420819997787476,1.7729820013046265,0.19484741985797882,-0.5365174412727356,1.0606341361999512,-0.39237892627716064,0.9721852540969849,1.0728708505630493,-1.4843605756759644,1.754105806350708,0.5122186541557312
amazon-toys.csv,-0.41541609168052673,-0.22696295380592346,-0.27885496616363525,1.7526096105575562,-0.2742964029312134,0.47068163752555847,0.4632943868637085,-0.2354077249765396,-0.06538396328687668,1.5306580066680908,0.4150468707084656,-0.9325613975524902,-2.219045639038086,0.5549736022949219,-0.5856671929359436,-1.6106091737747192,0.5743268728256226,-1.4370039701461792,-0.38896432518959045,-0.39122599363327026,0.8545829653739929,0.6250800490379333,-0.4864562451839447,0.14179584383964539,1.7692993879318237,0.13152052462100983,1.3600530624389648,-2.23618483543396,-0.42808693647384644,-1.2160483598709106,0.865809440612793,-0.2644859254360199,-0.7370002865791321,-0.7665905356407166,0.4817993640899658,-0.396258145570755,-0.8276433348655701,1.41315758228302,0.1126127541065216,-0.6237256526947021,2.063337564468384,1.7736119031906128,-0.14694033563137054,1.1478508710861206,-1.1158653497695923,1.02899169921875,0.34052297472953796,-0.3657453656196594,1.407386302947998,-0.25379621982574463
movielens1m.csv,-1.6843013763427734,0.4766085147857666,-0.24987688660621643,1.947696566581726,1.7173620462417603,-0.9055737257003784,0.6750028729438782,-0.46547725796699524,0.809016227722168,1.5143911838531494,0.7744333148002625,-0.11280573159456253,-0.12625178694725037,0.8683529496192932,0.740153431892395,-0.780013382434845,0.3831126391887665,-0.8098302483558655,-0.33529695868492126,-0.8449094891548157,0.10797255486249924,0.773247241973877,-1.0144282579421997,-1.650228500366211,1.044189453125,-0.5097485184669495,2.114625930786133,-0.3133232295513153,-0.44574153423309326,-2.1683478355407715,-0.6743565797805786,-0.3806585967540741,-0.01280965656042099,-1.3334273099899292,-0.10991404950618744,-0.5966869592666626,-0.804229736328125,1.4209543466567993,1.4744987487792969,-0.48861274123191833,1.9939130544662476,0.34089428186416626,1.0968698263168335,0.8629858493804932,-0.8086037635803223,0.24979864060878754,0.5084192156791687,-1.138116478919983,-0.37735968828201294,0.25216156244277954
amazon-instruments.csv,-0.4056940972805023,-0.6918857097625732,0.03755360469222069,2.350144863128662,0.017987994477152824,0.48505353927612305,0.21255692839622498,-0.09391308575868607,0.09234318137168884,1.4343829154968262,-0.39891067147254944,-1.1612849235534668,-0.8251083493232727,-0.27738574147224426,0.4388124644756317,-0.6749776005744934,0.24327008426189423,-1.587977647781372,-0.6701146960258484,0.12233556061983109,0.14522020518779755,0.1011379212141037,-0.08892841637134552,-1.6016485691070557,1.331002950668335,0.31193801760673523,0.2725825309753418,-2.419435977935791,-0.2604662775993347,-1.4429378509521484,0.16729742288589478,-0.6680981516838074,-0.10298234224319458,0.026495223864912987,0.7463534474372864,-0.5033599734306335,-0.4373147785663605,2.095020294189453,0.6526447534561157,0.07643831521272659,1.5922573804855347,1.0442359447479248,-0.8367167115211487,0.8483317494392395,-1.872399091720581,0.00991340633481741,1.0479843616485596,-2.2360281944274902,0.7819311022758484,1.1822091341018677
amazon-kindle.csv,-0.6289492845535278,0.7714123725891113,0.44403713941574097,1.1854997873306274,-0.1068740263581276,-1.0031485557556152,1.4092154502868652,-1.0186012983322144,0.40720295906066895,1.7095848321914673,0.6620414853096008,-0.38206246495246887,-1.7249572277069092,0.5773493647575378,-0.28877440094947815,-1.1330506801605225,-0.21795380115509033,-2.1740520000457764,1.2016174793243408,-0.2289077490568161,0.6585510969161987,0.5198721289634705,-0.4290023148059845,-0.9905027747154236,0.9703622460365295,0.09432320296764374,0.17096509039402008,-2.4486899375915527,-0.8793348670005798,-0.8416383862495422,0.014258651994168758,-0.4665069282054901,-1.2653506994247437,-0.4564383029937744,0.7052943706512451,-0.35498812794685364,-0.8854224681854248,0.9577898383140564,0.23147578537464142,0.7063719630241394,1.9411009550094604,0.8106711506843567,-0.9686387181282043,1.0738089084625244,-0.8595066070556641,0.4482179582118988,1.437741994857788,-1.259313941001892,0.5575201511383057,1.447616696357727
amazon-food.csv,-0.010703807696700096,-0.6843153834342957,-0.4419187605381012,0.40401744842529297,0.4847014844417572,-0.7296034097671509,1.4013617038726807,-0.22736856341362,-0.4727974236011505,1.699708104133606,0.4013110399246216,-0.3298383951187134,-0.7471745610237122,-0.14602960646152496,-0.11432404816150665,-1.0188220739364624,-0.2929084599018097,-0.837016761302948,0.036233287304639816,-1.0846272706985474,0.35388022661209106,-0.1644865721464157,1.119166374206543,-0.8825010657310486,1.1023504734039307,0.5834448933601379,0.7974671721458435,-2.779505968093872,-1.1537543535232544,-1.2515398263931274,0.24457353353500366,-0.7890598773956299,-1.7648402452468872,-0.5237661004066467,0.6261142492294312,0.08321738243103027,-1.0653083324432373,1.701398491859436,1.1737815141677856,0.585969090461731,3.033226728439331,0.7311965227127075,-0.5156457424163818,-0.16239947080612183,-1.443588137626648,0.22513431310653687,0.43853312730789185,-1.1829406023025513,0.5487551689147949,-0.37266114354133606
amazon-sports.csv,-0.6265673637390137,0.7138347625732422,0.5074501037597656,1.7055983543395996,0.16354405879974365,0.3304225504398346,1.3749750852584839,0.15813572704792023,-0.2684608995914459,1.5231519937515259,0.6701146960258484,-0.653962254524231,-1.7769039869308472,0.49766436219215393,-0.46244868636131287,-0.5055990815162659,0.6233820915222168,-1.217928409576416,0.2432033270597458,-1.0655115842819214,0.20192445814609528,0.32128360867500305,-0.19989000260829926,-0.43363165855407715,1.0795975923538208,0.13718003034591675,1.3514056205749512,-1.6966010332107544,-0.7631493210792542,-1.8043338060379028,1.4801956415176392,-1.31902277469635,-0.4019506573677063,-0.05681326612830162,1.1153348684310913,-0.6175312995910645,-0.21027936041355133,0.9461276531219482,1.4695045948028564,0.45410752296447754,2.744849920272827,0.7831539511680603,-1.067826271057129,0.08091574907302856,-1.1954818964004517,-0.0839567705988884,0.8788543343544006,-0.9241218566894531,0.9907728433609009,1.098374366760254
movietweetings_latest.csv,-0.5548882484436035,-0.015266930684447289,1.0277538299560547,0.9315817356109619,0.20704086124897003,-0.0784248635172844,0.9941424131393433,-0.02749490551650524,0.7514278292655945,0.6888837814331055,-1.1919937133789062,-0.5533442497253418,-0.4991122782230377,0.19367139041423798,0.092653289437294,-2.174499988555908,-0.4004639983177185,-0.13039132952690125,-0.9682255387306213,-1.037580132484436,0.23189619183540344,0.5497398376464844,-0.9270138144493103,-1.7272738218307495,0.8132452368736267,-0.32760897278785706,0.7451184391975403,-1.1172547340393066,-1.090548038482666,-0.43318453431129456,-0.18741978704929352,-1.549904465675354,-0.13780029118061066,-1.79411780834198,1.5236833095550537,-0.68092942237854,-2.4775233268737793,1.5021535158157349,0.6669186949729919,-0.1838170289993286,1.8833057880401611,-0.29594168066978455,-1.963427186012268,-0.026967588812112808,-1.13933527469635,1.0789268016815186,0.7791363596916199,0.2090214490890503,0.4086403250694275,0.704785943031311
