yelp.csv,-0.9011558890342712,0.2411346733570099,0.3118043839931488,-0.03588825836777687,-0.6792845726013184,-0.580488920211792,-0.19186928868293762,-0.4733545780181885,-0.9793639183044434,-1.6274399757385254,0.6342485547065735,0.6085004210472107,-0.22265705466270447,-2.2476348876953125,2.329007387161255,-0.16712619364261627,0.8371230363845825,-1.121167540550232,-0.46073058247566223,-0.2836081087589264,-0.3040519952774048,-0.7987356781959534,-0.8175085186958313,0.006368046626448631,-0.553818941116333,-0.012791364453732967,-1.4383200407028198,1.4291832447052002,1.6173088550567627,-0.15383192896842957,0.42388784885406494,-0.8276965618133545,1.5110526084899902,-0.7896823287010193,0.3897138237953186,-0.04381338879466057,-0.38094085454940796,1.1298366785049438,0.8562833070755005,-1.9675440788269043,-1.3184173107147217,-1.9130409955978394,-0.6111653447151184,0.7690041065216064,-0.0670810118317604,0.24671418964862823,-0.5098109245300293,-0.4857761561870575,-0.4870791733264923,0.4030727446079254,0.9422587752342224,-0.48527881503105164,0.44315820932388306,1.672913670539856,-0.21869279444217682,0.7419443726539612,-0.01166739035397768,-1.3405065536499023,0.6850640773773193,2.0087029933929443,1.0135928392410278,0.5282660126686096,-0.7172626256942749,-0.14191262423992157,0.22623547911643982,-1.165219783782959,0.459558367729187,-0.6265510320663452,0.12700428068637848,0.8169407248497009,-1.1366139650344849,1.2447597980499268,0.175152987241745,0.6703769564628601,1.748920202255249,-1.3408374786376953,0.8115338683128357,1.071575403213501,-0.09084624797105789,0.2688489854335785,2.2546615600585938,-0.9832507967948914,0.5504096150398254,0.9679157733917236,-1.3288583755493164,-0.19478945434093475,-0.19261616468429565,-0.454728364944458,-0.6714773178100586,-0.15274278819561005,1.1594665050506592,-0.3073008954524994,-0.5451142191886902,1.3456144332885742,1.3568376302719116,0.16629955172538757,0.7390294075012207,-0.06425245851278305,-0.40768885612487793,-0.7161988019943237,0.20672141015529633,-0.6959342956542969,0.42455270886421204,0.253466933965683,0.4803403913974762,-0.5270171165466309,-0.14191487431526184,2.005685806274414,0.10347383469343185,0.03454434499144554,3.7223968505859375,-0.44762131571769714,-0.34752389788627625,1.651529312133789,0.559503436088562,-0.1910957247018814,-0.0781852975487709,-0.7457467913627625,-1.5926423072814941,-1.4925167560577393,-0.47188180685043335,0.9488510489463806,1.2322603464126587,0.5848684310913086,0.8840610384941101,-0.045810576528310776,-1.0352391004562378,-1.6946065425872803,-0.9405036568641663,-1.1529234647750854,1.6113762855529785,-0.002823692047968507,1.625335693359375,-2.4980266094207764,-0.6918548941612244,-0.28837525844573975,-1.0141777992248535,-0.35487985610961914,-0.19444900751113892,0.8912926912307739,-0.611670732498169,-1.0725702047348022,-1.2729111909866333,0.26318684220314026,-0.11507555842399597,-1.689267635345459,1.9487329721450806,1.9581196308135986,-0.035544026643037796,0.4556560516357422,0.9599785208702087,0.03566036745905876,1.1044092178344727,1.087717890739441,0.41326501965522766,0.6865988373756409,0.6846629977226257,0.003101607086136937,1.657762050628662,-0.31210944056510925,0.22216914594173431,0.6708236336708069,-0.8965994119644165,-0.39588889479637146,-0.6319701075553894,0.7647777199745178,-1.4257090091705322,-0.8980414867401123,0.09574123471975327,1.1342579126358032,2.051379680633545,1.4970052242279053,-0.17413857579231262,-0.9761633276939392,-0.6493703126907349,0.7986505031585693,-1.8488092422485352,2.009270668029785,0.4456777274608612,0.9073088765144348,0.1608298271894455,-1.2254284620285034,1.2543041706085205,1.4660717248916626,-0.937717854976654,-0.2670696973800659,-0.5779716372489929,0.3377652168273926,0.42644307017326355,1.7730958461761475,-0.055208154022693634,1.3747695684432983,0.1810367852449417,0.604115903377533,1.6688966751098633,0.36198997497558594,0.6361098885536194,-0.6837034821510315,-0.05489426106214523,-0.5502446293830872
amazon-phones.csv,-0.7515379786491394,0.33585721254348755,0.71708083152771,-0.13919664919376373,-0.34812131524086,-0.3434055745601654,-1.498719334602356,-0.6065125465393066,-0.7242574691772461,-0.5817200541496277,0.21879570186138153,2.241628885269165,-0.9203730225563049,-1.3090951442718506,0.14834140241146088,0.8594605326652527,1.3249337673187256,0.8538810610771179,-0.43326446413993835,-0.7700867056846619,0.04496967792510986,-0.848567008972168,-0.8029699921607971,-0.11457955837249756,-0.15552449226379395,-0.6399461030960083,-0.10072371363639832,-0.2912829518318176,0.47347795963287354,-0.014971289783716202,-0.4062182605266571,-0.6466079950332642,1.0647555589675903,-0.3701912760734558,0.3596433401107788,-0.2797018885612488,-0.4322327673435211,0.5727474093437195,-1.31059992313385,-1.1218459606170654,-0.35832488536834717,-2.690277338027954,0.03614147752523422,-0.49420589208602905,0.3372514843940735,0.43991246819496155,-1.069250226020813,2.1032586097717285,0.7680182456970215,0.44733113050460815,0.529699444770813,0.446977436542511,-0.4582171142101288,2.0350091457366943,-0.6512846946716309,1.0863362550735474,-1.4276212453842163,-0.8514291048049927,0.32339078187942505,-0.43521246314048767,0.6562849879264832,-0.6354365348815918,-0.6998974680900574,1.7106364965438843,1.0487600564956665,-1.782370686531067,-1.2011237144470215,0.08576016128063202,1.2710119485855103,1.1769315004348755,-0.1261530965566635,0.6869253516197205,0.24668766558170319,0.47300732135772705,0.211875319480896,-0.7709461450576782,-0.023775087669491768,0.10463206470012665,-0.1978035569190979,1.3847016096115112,-0.4921913146972656,-0.49681803584098816,0.2239203155040741,0.6861521005630493,-0.8683773875236511,-0.39414653182029724,-0.8495251536369324,-0.9135969281196594,-1.3899520635604858,0.2588408589363098,2.3545498847961426,1.590643286705017,-1.3314204216003418,0.02514411136507988,0.5006141662597656,1.3390878438949585,0.21334370970726013,-0.0012773212511092424,0.10343492776155472,-0.48380038142204285,0.7372381687164307,-0.6209676265716553,-0.385321706533432,0.2570875287055969,0.4726354777812958,-0.39147111773490906,1.2024269104003906,0.5246065258979797,-0.9700959920883179,1.0973238945007324,1.6516592502593994,-0.27467599511146545,-0.15937335789203644,-0.1685350388288498,0.22347483038902283,0.6213430762290955,1.9682533740997314,-0.037601567804813385,-1.7574509382247925,-0.16776393353939056,-1.3792123794555664,-0.8562452793121338,0.536504864692688,1.0565770864486694,-0.1141212061047554,-0.4782649874687195,-0.8682514429092407,-0.43269261717796326,0.3845473527908325,-0.4976990222930908,1.6457726955413818,-0.6120285987854004,0.4470996558666229,-0.9275174736976624,0.05203131213784218,-1.692175269126892,-0.4158990979194641,-0.6979254484176636,-0.4402178227901459,0.6081275939941406,-0.5104860663414001,-0.23413895070552826,-2.2746503353118896,0.47615525126457214,-0.7342726588249207,-0.7426159381866455,1.7589455842971802,3.084230899810791,0.026239683851599693,-0.4631889760494232,0.5570165514945984,-0.3541576862335205,1.3236305713653564,1.4505285024642944,-0.3426935076713562,1.4164009094238281,-0.40155553817749023,-0.9757013320922852,0.07420382648706436,-0.5544984340667725,-0.24185261130332947,0.27816930413246155,0.9248372912406921,-0.35382190346717834,0.9023342132568359,1.2349563837051392,-0.5869979858398438,0.1435243934392929,0.2900635302066803,0.6502795815467834,3.131727933883667,0.5098156332969666,0.045115988701581955,0.97901451587677,-1.534019947052002,0.3077317774295807,-1.0539344549179077,3.6262519359588623,-1.2309341430664062,1.4053218364715576,2.0968549251556396,-0.5491418242454529,0.8860967755317688,1.5690828561782837,-1.2463560104370117,-0.7865222692489624,0.17222023010253906,1.2233664989471436,-0.4267842173576355,2.568793535232544,-0.3761778771877289,0.47718340158462524,-0.30213186144828796,-0.8567166328430176,1.9395945072174072,0.07459495216608047,-1.3320151567459106,-0.17788167297840118,-0.06270132213830948,-0.44796422123908997
movietweetings_latest.csv,-0.06499619781970978,-0.22490915656089783,-0.43619251251220703,0.21071025729179382,0.040957316756248474,0.12371714413166046,0.16082064807415009,-1.853888988494873,-0.6976622939109802,-0.7530292868614197,0.7349621057510376,0.6748836040496826,0.2539535164833069,-0.31986889243125916,-0.2445758432149887,0.5782818794250488,0.1662483960390091,0.10731907188892365,-1.0439828634262085,-0.4025067985057831,0.12245820462703705,-0.1878402978181839,-2.0658955574035645,-0.17730489373207092,0.9598969221115112,0.017702411860227585,-1.5980762243270874,-0.19163087010383606,-0.4518502354621887,-0.7550557255744934,1.3990600109100342,-0.6581860184669495,2.0210180282592773,-1.386910080909729,0.21277745068073273,-0.59663987159729,-2.0793912410736084,0.1271553784608841,-1.1219851970672607,-0.5760418772697449,-1.115984320640564,-0.38715872168540955,-0.9505250453948975,-1.0602829456329346,0.17938029766082764,-0.6358034014701843,-0.672319233417511,-0.1460212618112564,0.28300604224205017,2.102738618850708,1.1490395069122314,0.6383489966392517,-0.8127278685569763,0.0699153020977974,-1.2498854398727417,-0.6326053738594055,0.9701476693153381,-0.3466048240661621,-0.4568052291870117,0.966189980506897,0.43939143419265747,0.7236574292182922,-0.5696613192558289,0.05640740692615509,0.2414279580116272,-2.33073091506958,-0.14440664649009705,-0.6253749132156372,-0.15594369173049927,0.6775121688842773,1.2083516120910645,0.588844358921051,0.8192503452301025,-0.11773911863565445,0.0024033186491578817,0.6450836658477783,0.15510194003582,0.09016963094472885,0.1685573011636734,0.4907495379447937,0.6123039722442627,0.3419150412082672,-0.31581437587738037,0.9936610460281372,-2.3657727241516113,0.0108389463275671,0.12114446610212326,0.3572354316711426,-0.032348550856113434,1.0765318870544434,2.385673999786377,0.2998010218143463,-1.2030760049819946,1.6258410215377808,0.6583907008171082,1.5142652988433838,0.5572742819786072,-0.5776142477989197,0.7208766341209412,-0.29884761571884155,1.1592315435409546,-1.071022868156433,-0.2937878966331482,-0.0019278505351394415,-0.25928795337677,-0.6206865310668945,0.9176484942436218,1.9479824304580688,-0.5914429426193237,1.3278025388717651,2.648498058319092,-0.4646599590778351,0.03581858426332474,0.9489073157310486,0.044332392513751984,-0.1699647605419159,1.476407527923584,-1.025902271270752,-0.5630896091461182,-0.4024655222892761,-0.11312568932771683,-0.8579779863357544,1.2606935501098633,1.3624485731124878,1.3454017639160156,-0.018852554261684418,-1.8733530044555664,0.12886737287044525,-0.229302778840065,-0.270840585231781,2.1492362022399902,0.1616985946893692,2.1969337463378906,-1.5449907779693604,1.1336928606033325,-1.363717794418335,-0.3949446976184845,-0.9535847902297974,-0.08673875778913498,0.16256114840507507,0.3260957598686218,-0.33138027787208557,-1.6894780397415161,-0.6486671566963196,0.02439803071320057,-1.8499631881713867,1.096318244934082,2.6638290882110596,0.5154805183410645,-0.473433256149292,0.3366624712944031,-0.5785900950431824,0.00023290720127988607,2.6707146167755127,-1.1861978769302368,0.6610234975814819,0.754631519317627,-0.11995664983987808,1.2467375993728638,-0.5373559594154358,0.24651111662387848,0.0891638696193695,-1.6953790187835693,-0.8207657337188721,-0.39571627974510193,1.496549367904663,-1.3046513795852661,0.0984906554222107,-0.7287150621414185,2.3679490089416504,1.4198964834213257,0.8202391266822815,-0.22467434406280518,-0.3184156119823456,0.17697808146476746,1.0089263916015625,-1.8303524255752563,1.384861707687378,1.2325633764266968,1.7198561429977417,2.0900251865386963,-1.141552448272705,-0.566845178604126,0.5518372058868408,-0.0912567675113678,-1.3561848402023315,0.3979454040527344,0.7881016731262207,1.0525474548339844,1.897461175918579,0.2802756726741791,-0.4696469306945801,-1.0083527565002441,-1.082957148551941,0.9744976758956909,-0.16989284753799438,0.036880433559417725,-0.9389514923095703,-0.17899014055728912,-0.3450269401073456
amazon-instruments.csv,0.30021700263023376,0.34953826665878296,0.7823684811592102,-0.011944874189794064,0.3622831404209137,-1.3138206005096436,-1.2917296886444092,-1.000631332397461,0.14470049738883972,-0.5208481550216675,-0.8151174187660217,1.8506770133972168,-0.3219241201877594,-0.4707479476928711,0.3851543664932251,-0.1701921671628952,1.787726879119873,-0.37220120429992676,-0.261465460062027,-0.8097906708717346,-0.9033705592155457,-0.6370725631713867,-1.6982872486114502,-0.9091610908508301,-0.2559038996696472,0.5970224738121033,-0.5889362692832947,-0.024541761726140976,0.5034785270690918,0.28244632482528687,1.0788687467575073,-1.6436665058135986,0.4321932792663574,-0.43286746740341187,0.9764683842658997,0.395887166261673,-0.6108469367027283,0.6029715538024902,-1.9882713556289673,-1.7539831399917603,-1.0236451625823975,-1.6296348571777344,-0.06328841298818588,-0.09072670340538025,0.08849947154521942,-0.7722633481025696,-1.1396232843399048,1.429544448852539,1.0657093524932861,-0.029063699766993523,-1.578082799911499,-0.9390841126441956,-0.8838956952095032,0.7605540156364441,0.7133671045303345,-0.8302660584449768,-1.176123857498169,0.008177516981959343,-0.6906102895736694,1.0941022634506226,0.9952988028526306,0.30999407172203064,-0.7481539845466614,-0.9512214064598083,0.6902979016304016,-0.4073686897754669,-2.235247850418091,-0.6864811778068542,1.4133659601211548,0.3669038414955139,0.9777607321739197,0.49454671144485474,0.9815122485160828,-0.06036779657006264,0.7639878392219543,-1.3786499500274658,0.5932945013046265,0.13632681965827942,-1.9963088035583496,0.7168656587600708,-0.3085083067417145,-0.022738244384527206,-1.094501256942749,1.0719079971313477,-1.119924783706665,0.14633023738861084,-0.3068968653678894,-0.4607639014720917,-1.7191214561462402,1.2555859088897705,2.2559244632720947,0.6080673336982727,-1.1373509168624878,0.529888391494751,0.05013679340481758,0.6715564727783203,-0.8625997304916382,0.24836698174476624,-1.0145701169967651,-0.6092864871025085,0.36180394887924194,0.7270147204399109,-0.7323638200759888,0.8220018148422241,-0.4220731556415558,0.4161106050014496,0.6087614893913269,0.9876042604446411,-0.6282854080200195,0.8215084075927734,2.6999661922454834,0.2692559063434601,-0.759698748588562,0.3072013854980469,0.8131800889968872,-0.5438441634178162,0.9343754053115845,-0.0005507329478859901,0.028852995485067368,0.6673932075500488,-0.3408713936805725,-0.6360921263694763,-0.026550274342298508,1.3612005710601807,0.23058070242404938,0.12146313488483429,-1.2277458906173706,-0.2056248039007187,-0.45654356479644775,-1.0161325931549072,1.8187527656555176,0.8010910749435425,2.323225498199463,-0.4729611277580261,-1.6580696105957031,-1.6642552614212036,-0.536264955997467,-0.25929832458496094,-0.606842041015625,0.5449815988540649,-1.8055216073989868,-1.545175313949585,-2.5047450065612793,-0.09563755244016647,0.22782941162586212,-2.7949185371398926,1.7769529819488525,2.3408203125,0.7366258502006531,0.04668804630637169,0.6343027353286743,0.25843724608421326,0.48394906520843506,2.6609578132629395,-1.9344357252120972,1.0442365407943726,0.915780782699585,-0.06465905159711838,-0.46033966541290283,-0.4146268665790558,0.8606991171836853,0.3155331611633301,0.7692531943321228,-0.011921397410333157,-0.020701516419649124,1.0043730735778809,-1.1531823873519897,-0.49253028631210327,1.1229734420776367,1.1623352766036987,2.2824482917785645,0.6906203627586365,-0.7943915724754333,0.04809417203068733,-1.4254037141799927,0.18566885590553284,-0.46060314774513245,2.008223533630371,-0.16867667436599731,0.6420296430587769,1.071029782295227,-1.2322043180465698,0.8415512442588806,1.0576305389404297,-0.14960883557796478,-1.1010184288024902,0.7507199645042419,0.12202033400535583,-0.9143877625465393,1.27238929271698,-0.23087598383426666,-0.755937933921814,-0.8878878951072693,-0.37693753838539124,0.16827355325222015,-0.16109426319599152,-0.3790583610534668,0.5377188324928284,0.04596809670329094,0.7679193615913391
amazon-baby.csv,0.08262691646814346,-0.26474469900131226,1.0622066259384155,0.7971339225769043,-0.4551704525947571,-0.48218128085136414,-1.195247769355774,-0.788104772567749,-0.9864165782928467,-1.4231640100479126,0.2495562881231308,0.4600480794906616,-1.3309985399246216,-0.518560528755188,1.4417030811309814,0.03783556446433067,1.671126127243042,-0.5837070345878601,-1.215714931488037,-0.02133730612695217,0.8572047352790833,-0.6576810479164124,-1.61060631275177,-0.607021152973175,0.24264897406101227,0.09016165882349014,-0.21720322966575623,-0.32297900319099426,1.4001988172531128,-0.20915038883686066,-0.27380868792533875,-0.9425509572029114,1.4501348733901978,0.13365398347377777,0.6656589508056641,-0.7383463978767395,0.10767195373773575,0.5336363911628723,-1.117382526397705,-0.21103517711162567,-1.1458096504211426,-0.8697375059127808,0.7885013222694397,-0.8167805075645447,0.4892997443675995,-0.4412919580936432,-0.8833823800086975,0.848027765750885,0.508217453956604,0.6931177377700806,-0.4200771450996399,0.09503015130758286,0.4230143129825592,1.276995062828064,-0.3007771372795105,-0.4314127564430237,-1.4361546039581299,-0.9774003028869629,0.4191952645778656,1.4320303201675415,0.9837217330932617,0.47462764382362366,-1.6914523839950562,0.25360092520713806,0.43865078687667847,-1.5818263292312622,-0.07391755282878876,-0.25716596841812134,0.7554818987846375,0.5865121483802795,-0.2746429145336151,0.2221876084804535,-0.7343201637268066,0.2668446898460388,0.917978823184967,-0.708477258682251,0.2498553842306137,0.5895786881446838,-1.0011637210845947,0.6486247777938843,0.503380298614502,0.33125582337379456,-1.2019743919372559,0.5083261728286743,-0.336463063955307,0.47932738065719604,0.085350900888443,-1.690626859664917,0.20674584805965424,0.34948980808258057,2.230703353881836,1.4209082126617432,-0.8160446286201477,1.5204323530197144,1.010082483291626,-0.273236483335495,1.4814335107803345,-0.193943053483963,0.41520628333091736,-0.01719408668577671,0.12277828902006149,0.1358405500650406,-0.32091405987739563,0.5971052050590515,1.0367867946624756,-0.0717194527387619,1.075695514678955,1.8908002376556396,-1.3297151327133179,1.2984321117401123,3.1131298542022705,-0.715094268321991,-0.5904489159584045,0.6834659576416016,1.4751595258712769,1.2421313524246216,1.1507145166397095,-0.1606101393699646,-0.8525886535644531,0.6049801707267761,1.5502744913101196,0.26529592275619507,-0.45995646715164185,0.4140488803386688,0.4778072237968445,0.9328634738922119,-0.5981596112251282,-0.6841375827789307,-0.6130974292755127,-1.5592087507247925,1.9020171165466309,0.9662259817123413,1.276227593421936,-1.891359567642212,-0.24440690875053406,-1.827937126159668,-0.02765175700187683,-2.0767688751220703,0.6110776662826538,1.2151894569396973,-0.37958449125289917,-0.20376910269260406,-1.6739412546157837,0.8842562437057495,-0.9696611166000366,-1.7395732402801514,0.7407577633857727,2.6057019233703613,-0.4255952835083008,-0.37183913588523865,1.8169523477554321,1.0757426023483276,1.894298791885376,1.281425952911377,-0.2904214859008789,0.5898926258087158,1.5522212982177734,-0.3021395206451416,-0.21758054196834564,-0.2492786943912506,-0.5468124747276306,-0.8152223825454712,-0.44619235396385193,0.5006237030029297,-0.49355247616767883,1.0573673248291016,-1.310684084892273,-1.457922339439392,0.5340537428855896,0.7326813340187073,0.7759754061698914,0.23597092926502228,-0.4943802058696747,1.0418896675109863,-1.0671170949935913,0.786440372467041,-1.759609580039978,2.483625650405884,-0.853111982345581,0.42009469866752625,2.3622381687164307,-1.2769019603729248,-0.6631337404251099,0.1336013376712799,-1.9324464797973633,-2.0553767681121826,-0.6536468863487244,-0.4627789855003357,-0.07332386821508408,1.247336745262146,-0.3781388998031616,-0.4610365331172943,-0.49950000643730164,-1.9483355283737183,0.6551668643951416,0.32520079612731934,-0.04962260648608208,-0.3820013105869293,-0.8891549110412598,-0.6674314141273499
amazon-kindle.csv,0.8933089971542358,-0.10630980879068375,0.49250084161758423,1.3608170747756958,0.18532520532608032,0.750594437122345,-1.9805018901824951,0.13242687284946442,0.07045983523130417,-0.17923758924007416,0.9278669953346252,1.5169886350631714,-0.795413613319397,-2.023223638534546,1.08527672290802,-0.3386448323726654,1.9019325971603394,0.5153648257255554,0.09655362367630005,0.3569681942462921,0.2265925109386444,-0.892572283744812,-0.9312161803245544,0.03843186795711517,0.7849633693695068,0.5408026576042175,-0.9358874559402466,-0.16685983538627625,0.47661200165748596,-0.4582009017467499,-0.16140557825565338,-0.8649505376815796,0.5751990675926208,-0.6079564094543457,1.0813390016555786,0.7504183053970337,-0.5642369985580444,-0.5070210695266724,-0.12487002462148666,-1.7705093622207642,0.13825982809066772,-1.257374882698059,-0.24142475426197052,0.38693952560424805,0.4754287898540497,-0.34716689586639404,0.0308229997754097,0.7669910192489624,-0.6670619249343872,1.1831884384155273,0.01902502402663231,-0.44701677560806274,-0.514360249042511,0.7701504826545715,-0.42557474970817566,-1.1424802541732788,-1.9237560033798218,-0.13360869884490967,-0.3051242530345917,1.94949209690094,0.11242860555648804,-1.0634326934814453,-0.2618502974510193,-0.9269965291023254,0.5729233622550964,-1.6470385789871216,-0.45180872082710266,-1.016908049583435,0.7116520404815674,0.2866319417953491,0.415497750043869,-0.5591883659362793,0.7262552380561829,-0.4378224015235901,0.3946739137172699,0.20169150829315186,0.47145235538482666,0.022607579827308655,-1.49868643283844,0.6917446255683899,1.4226337671279907,-0.051972392946481705,-0.47787800431251526,1.4345289468765259,-0.3119482100009918,0.9443656802177429,0.7340724468231201,-1.3205646276474,-1.1638175249099731,0.7586193084716797,1.5771225690841675,-0.30298158526420593,0.09753553569316864,0.35621777176856995,1.4344526529312134,1.2605979442596436,0.11424559354782104,-0.04456072673201561,-1.5187187194824219,0.07163616269826889,-0.21454063057899475,1.1833429336547852,1.0630450248718262,-0.1837141066789627,1.1164690256118774,-0.8583763241767883,0.9098461866378784,1.103474497795105,-0.4895017147064209,-0.06615656614303589,3.66332745552063,-1.11916184425354,-1.2865016460418701,1.0735665559768677,1.1535929441452026,0.33962157368659973,-0.17897722125053406,-0.9763156175613403,0.13066622614860535,-0.06442539393901825,-0.22070541977882385,0.09467846155166626,0.49724632501602173,0.4586799442768097,0.10072458535432816,1.0712950229644775,-1.8117386102676392,-2.08589768409729,-0.03790716081857681,-1.062440276145935,1.6562089920043945,0.30254486203193665,2.0268096923828125,-1.0551414489746094,-0.3703564703464508,-0.5954551696777344,0.5089764595031738,0.8233948945999146,-0.8655766844749451,0.9610189199447632,-0.7182800769805908,-0.27553001046180725,-0.6824179291725159,0.962927520275116,1.061989426612854,-2.228504180908203,1.0015825033187866,1.9161341190338135,0.8071942329406738,-1.6465544700622559,0.15710069239139557,-0.6831530928611755,-0.7089473605155945,1.42191743850708,-0.6283286213874817,-0.7152457237243652,1.2742481231689453,-0.7221196889877319,0.5273953080177307,0.17450813949108124,0.12129675596952438,0.4250592291355133,0.6691004633903503,-1.354573130607605,-0.45610901713371277,1.551933765411377,-1.3614200353622437,-0.297998309135437,-0.5582093000411987,1.428675651550293,2.223766803741455,-0.15315468609333038,-0.2148524969816208,-0.5947334170341492,-1.7899906635284424,0.18853901326656342,-1.7579509019851685,2.9259800910949707,0.3822343051433563,-0.195082888007164,1.0791701078414917,-0.4163280725479126,1.0587695837020874,0.7960993647575378,0.4845082461833954,-1.7883210182189941,2.2938480377197266,-0.8387294411659241,-1.3555718660354614,0.8927114009857178,-0.3003797233104706,-0.766989529132843,-0.20064549148082733,-0.9820643067359924,1.364032506942749,0.15991979837417603,1.0195668935775757,-0.40804967284202576,-1.8420827388763428,0.39528563618659973
jester3.csv,-2.536433219909668,-1.6951229572296143,0.006633291486650705,-0.8204770088195801,-0.2994382381439209,0.579135000705719,-1.6984527111053467,0.1302223652601242,-0.2029261440038681,-0.3459317088127136,0.09491988271474838,-0.0030365760903805494,-0.9821094870567322,-2.2994604110717773,0.7617051601409912,0.4281146824359894,1.5807558298110962,-0.0753306970000267,-0.233646959066391,-1.0391565561294556,-1.101732611656189,-0.3393426835536957,-2.0568549633026123,-0.5965337753295898,0.3006998896598816,-0.3497340977191925,-2.329289197921753,0.22478096187114716,-0.6239701509475708,-0.2990468442440033,0.09931699931621552,-0.8179375529289246,1.292275309562683,-0.6653228998184204,0.4627377390861511,-0.778160572052002,-1.1392585039138794,1.0574185848236084,-0.5959275960922241,-0.9815236330032349,-1.164719820022583,-0.4550703465938568,0.9083916544914246,-0.7732827067375183,0.4737281799316406,-0.3137704133987427,-1.2598705291748047,1.2576279640197754,0.29525282979011536,0.8586381077766418,0.02402777597308159,0.9069485664367676,0.7560172080993652,0.5581115484237671,-0.5666304230690002,0.8977807760238647,-0.791722297668457,-0.9263197779655457,0.7678890228271484,1.795880675315857,-0.13141967356204987,-0.22779668867588043,0.009261463768780231,0.9505733251571655,-1.370452880859375,-1.444405198097229,-0.3053462505340576,-0.7950612902641296,0.09500978887081146,1.4360615015029907,-0.3405981957912445,-0.06302448362112045,1.2376259565353394,1.4627721309661865,0.6215124130249023,-1.565150499343872,1.015567660331726,0.23730109632015228,-0.8715673685073853,0.9018110036849976,0.9830785393714905,0.3774438500404358,2.061415195465088,0.5300744771957397,-1.083822250366211,-0.12131647020578384,-0.20699171721935272,-1.4652924537658691,-0.8403448462486267,-0.46489429473876953,0.9835342168807983,0.08790716528892517,-2.023728132247925,0.30156615376472473,0.9939149618148804,0.5933752059936523,0.46919316053390503,0.3970758318901062,-0.5135263204574585,1.8379805088043213,0.08497565239667892,0.1199195384979248,0.7759156227111816,1.6878265142440796,-1.7515119314193726,-0.7237630486488342,-0.2362639158964157,2.1541547775268555,-0.9624609351158142,0.5161890983581543,2.0707414150238037,-0.2285761684179306,-1.5496922731399536,0.2877453565597534,-0.23917195200920105,0.25057974457740784,0.9216265678405762,-0.6725308895111084,1.28886878490448,-0.3450546860694885,-0.12408040463924408,-0.22866924107074738,0.24259836971759796,1.0551730394363403,0.540688693523407,-0.7185859680175781,-1.0000576972961426,-0.17769819498062134,0.0002570839715190232,-1.627947211265564,1.2829763889312744,0.13495942950248718,1.7434251308441162,-1.1598073244094849,-0.02766135334968567,-2.1079890727996826,1.0606098175048828,-0.4597944915294647,-0.5624076128005981,0.9300112724304199,-1.981637716293335,0.06031717360019684,-0.06388199329376221,0.20299449563026428,0.06636407226324081,-1.210866093635559,2.2723395824432373,2.333784580230713,0.875859797000885,-0.42783427238464355,0.3916633427143097,-0.2400088608264923,-0.2886216342449188,-0.09153006225824356,1.6654131412506104,0.9187288284301758,0.9070661664009094,-0.2954706847667694,0.32030126452445984,-0.6209496259689331,-0.8749079704284668,1.8891733884811401,-0.6380334496498108,-1.0163912773132324,-0.7656860947608948,0.2701212167739868,-1.7357686758041382,-1.0684254169464111,-0.38445454835891724,2.3742880821228027,1.0097053050994873,0.45607125759124756,0.624177873134613,-0.39601510763168335,-0.13995970785617828,0.2970503568649292,-1.769036054611206,1.9419422149658203,-0.22882802784442902,0.5429050922393799,0.5560776591300964,-1.377353310585022,-0.03642988204956055,0.2978534996509552,0.5463405251502991,-1.1450766324996948,1.2668222188949585,0.48985785245895386,0.06778419762849808,0.6623795032501221,0.9921737313270569,-1.667694330215454,-1.0019176006317139,-0.0800243616104126,0.8503880500793457,-0.5777738094329834,-0.10374949127435684,0.850364625453949,0.8912026286125183,-0.6448702216148376
movielens_latest.csv,-0.2754060626029968,0.14268827438354492,-0.556048572063446,0.2415671944618225,-1.6810184717178345,-0.7260410785675049,-0.8735620379447937,0.36660951375961304,0.5170557498931885,-0.6064373850822449,0.42037180066108704,0.12124387919902802,0.17616088688373566,-0.6520131826400757,-1.0446162223815918,-1.1222217082977295,1.6192511320114136,1.4363781213760376,-0.049306392669677734,-0.8956493139266968,-0.12662702798843384,-1.1386417150497437,0.5242860317230225,-1.117051124572754,0.3235534131526947,-1.1857421398162842,-1.3259506225585938,0.20031604170799255,0.42740488052368164,-0.7114973068237305,0.7185038924217224,-0.7309927940368652,1.1323901414871216,-1.6250320672988892,1.3648228645324707,-0.14371806383132935,-0.7616999745368958,0.10987800359725952,-0.4443513751029968,-0.8779670596122742,0.39741066098213196,-1.6700403690338135,0.9241974353790283,-1.6975573301315308,-0.5142444968223572,0.41904187202453613,0.07966742664575577,1.2760311365127563,0.18887747824192047,1.1044294834136963,-0.6682204008102417,0.22470968961715698,-0.5149017572402954,0.357769250869751,-0.16206438839435577,0.20665982365608215,-0.23975256085395813,-0.5980894565582275,1.2839957475662231,0.2699766755104065,0.6154485940933228,-0.984341025352478,-0.20440669357776642,1.5555702447891235,-0.6130045652389526,-0.6058650612831116,1.2744003534317017,0.9486154913902283,-0.16591724753379822,1.868646264076233,1.1257421970367432,-0.012176680378615856,0.6410533785820007,0.7116931080818176,0.6517428159713745,0.4606386721134186,1.1293169260025024,-0.800691545009613,-0.8986704349517822,0.8239681720733643,0.09884031862020493,0.9286949634552002,1.2169748544692993,1.004270315170288,-0.16963046789169312,0.006994142662733793,-0.6625446081161499,-1.6281952857971191,0.7076631188392639,0.9596707820892334,0.8239359259605408,0.5863699913024902,-1.781742811203003,1.410354733467102,0.2560918927192688,0.601222574710846,-0.3471095860004425,-0.4381134808063507,0.7364938259124756,0.300385445356369,0.013427261263132095,-1.454479455947876,0.900408148765564,0.2941938042640686,-0.25135180354118347,0.5274195671081543,0.11517045646905899,1.402805209159851,0.22846819460391998,0.27490127086639404,2.702282667160034,0.5022663474082947,-0.37264251708984375,1.331868290901184,-0.5472244620323181,0.8485229015350342,0.32118260860443115,-1.4518741369247437,0.2351795881986618,-1.0896413326263428,-0.29557889699935913,0.7344480752944946,-0.8563095927238464,-0.028538275510072708,0.7450143694877625,1.6218770742416382,0.022280750796198845,0.5336202383041382,-0.2892416715621948,-2.0586485862731934,1.9322148561477661,-0.4882807433605194,2.364076852798462,-1.3592215776443481,0.30803099274635315,-1.1388084888458252,-0.18976786732673645,-0.7250477075576782,-0.4003288447856903,2.16939115524292,0.6906245350837708,-0.43294477462768555,-1.4395991563796997,0.5487076640129089,0.4536496698856354,-1.741506814956665,1.7818480730056763,2.045074462890625,0.6760212182998657,-0.6911336183547974,0.2712106704711914,-0.37061557173728943,0.7873988151550293,1.884800672531128,-0.025131549686193466,0.9025084376335144,1.1234630346298218,-1.3568354845046997,0.6813850402832031,-1.8610126972198486,-1.4815256595611572,-0.06408758461475372,-0.5477595925331116,0.4586270749568939,0.16139569878578186,1.825058102607727,-3.0731842517852783,-2.446749210357666,0.8133206367492676,0.408652663230896,0.9574857354164124,1.3170229196548462,0.9277378916740417,-0.01245985459536314,0.33393025398254395,1.6807844638824463,-1.5558745861053467,1.9982917308807373,0.07005228102207184,0.16581033170223236,0.9018651247024536,-1.9051660299301147,-0.18570514023303986,0.35596320033073425,-0.505062460899353,-0.7547651529312134,1.5064436197280884,0.19790831208229065,-0.8999950289726257,1.2055696249008179,0.21580369770526886,0.6335158944129944,1.3422545194625854,-0.8139054775238037,1.4028593301773071,-0.6433186531066895,-0.6617985963821411,0.5101318359375,-0.6767061948776245,-0.5168339610099792
flixter.csv,-0.3002783954143524,-0.0026283026672899723,2.328238010406494,0.46476104855537415,-0.16840948164463043,0.5488755106925964,-1.0427738428115845,-0.8275684118270874,-0.7491328716278076,-0.7455679178237915,-0.46968626976013184,0.552951455116272,-1.3406054973602295,-0.6332712173461914,1.4834177494049072,-0.07848845422267914,1.7911056280136108,0.48365843296051025,-0.13184814155101776,-0.12562324106693268,-0.39215394854545593,-1.4578739404678345,-1.1183619499206543,-1.359765887260437,-0.29429686069488525,0.3040948808193207,-1.0616151094436646,-1.0701656341552734,0.3485397696495056,-1.1037694215774536,0.261360764503479,0.510654866695404,1.1615149974822998,-0.33544719219207764,0.4689409136772156,0.613961935043335,-1.8541991710662842,0.9559470415115356,-1.027254343032837,-0.8322421908378601,-0.3403080701828003,-2.7527196407318115,0.22980719804763794,-0.30111733078956604,-0.18384459614753723,-0.42125755548477173,-0.12650802731513977,1.4531440734863281,0.5397691130638123,1.8778729438781738,0.7018177509307861,0.15526029467582703,-0.6149802803993225,0.3646455407142639,0.6926023364067078,0.2889192998409271,1.1841365098953247,0.8559532761573792,-0.055947836488485336,2.4169976711273193,1.1153593063354492,0.3465947210788727,-1.2578699588775635,-0.8723354339599609,-0.7020807266235352,-1.5485635995864868,-1.6273856163024902,-0.6824523210525513,-0.3801172077655792,0.1485965996980667,-0.16425864398479462,1.201758861541748,0.5992082953453064,0.3972776532173157,1.2251611948013306,0.005679444409906864,1.3068201541900635,0.7487814426422119,-1.1337710618972778,2.5459141731262207,-0.13466806709766388,0.0880901888012886,-0.4536385238170624,-0.08642252534627914,-0.5374001264572144,-0.7085667848587036,-0.6998326778411865,-1.1374958753585815,-0.30642837285995483,0.2948986887931824,-0.3327085077762604,1.0688165426254272,-1.0350394248962402,1.6832280158996582,1.0675467252731323,-0.47667592763900757,0.47022372484207153,0.6327510476112366,0.5962086319923401,-1.937085509300232,0.780019998550415,-0.49821656942367554,-1.7277947664260864,0.45503857731819153,-1.9984644651412964,-1.5710073709487915,0.9152907133102417,1.3484878540039062,0.010916013270616531,1.1312175989151,2.6961209774017334,-0.7232797741889954,0.192525252699852,0.7067057490348816,-1.3914122581481934,0.2605295777320862,-0.1595316380262375,-0.44556352496147156,0.295742005109787,-0.43653351068496704,0.26771098375320435,0.028955010697245598,-0.319876104593277,0.6410508751869202,0.98656165599823,0.13611401617527008,-0.6373336315155029,0.41979077458381653,-0.04109783098101616,-0.39438512921333313,1.3521007299423218,0.6106653809547424,0.8238447308540344,-0.5715054273605347,-1.6172058582305908,-1.6499348878860474,-0.8186360597610474,-0.5589538812637329,-0.8690119385719299,1.2803332805633545,0.2768973410129547,-1.7915140390396118,-0.6674937009811401,-0.10961772501468658,0.3457634449005127,-1.3869304656982422,-0.41845810413360596,2.749786138534546,0.4826185703277588,0.5868826508522034,0.4004056453704834,-1.1240277290344238,-0.2917211353778839,1.1575686931610107,-0.09158626198768616,1.6323732137680054,-0.4067593216896057,-0.06997887045145035,0.36718621850013733,-2.105562210083008,-0.9788199067115784,0.7346104383468628,0.6533032655715942,-0.7457723021507263,-0.40763482451438904,1.222028136253357,-1.442926287651062,-0.5634337067604065,0.3191045820713043,1.6870185136795044,1.0873425006866455,0.4859772026538849,0.7972144484519958,0.40082794427871704,-0.8423674702644348,-0.3988243341445923,0.12327512353658676,1.9382846355438232,1.395341396331787,0.6081294417381287,-0.18487828969955444,-2.152164936065674,0.6226001977920532,-0.5849683880805969,-0.7382457256317139,-0.7270005941390991,0.9755136966705322,1.0135618448257446,-0.24192269146442413,1.6937859058380127,0.5965868830680847,0.10302293300628662,-1.7693092823028564,-0.43578335642814636,1.374480962753296,-0.41153115034103394,1.1220459938049316,0.5658848285675049,-0.7918840050697327,1.3805208206176758
amazon-apps.csv,-0.32056763768196106,-0.68255215883255,1.07025146484375,1.6654388904571533,-0.8996930718421936,0.549397349357605,-1.6360270977020264,-0.63443922996521,-0.7448971271514893,-1.3095940351486206,0.34677571058273315,0.6144510507583618,-0.6337822079658508,-1.8054474592208862,0.03839617967605591,-0.24344386160373688,1.4223499298095703,0.9013926386833191,0.08477601408958435,-1.1662304401397705,-0.21504752337932587,-1.4995574951171875,-1.4227547645568848,-0.4033111035823822,-0.7570360898971558,-0.013861768878996372,-0.4916851818561554,-1.0041779279708862,0.6510469317436218,0.6735149621963501,-0.28196173906326294,0.1427382379770279,1.4895014762878418,-0.7595223188400269,1.4997302293777466,-0.5092368721961975,-0.4959375560283661,0.6519837975502014,-1.7327938079833984,-0.7549781799316406,-0.09016269445419312,-0.8794034123420715,0.12542231380939484,-1.1510847806930542,0.27944061160087585,-0.9789204597473145,-1.3410652875900269,0.8733984231948853,1.39619779586792,0.7474976778030396,-1.1596674919128418,-0.6519012451171875,-0.29786452651023865,0.5417243838310242,-1.2485566139221191,-1.1627460718154907,-1.0783474445343018,-0.12898021936416626,-0.1864733099937439,1.3260912895202637,0.5683292150497437,0.32195332646369934,-1.64998459815979,-0.1024492010474205,0.2603056728839874,-0.8214260935783386,-0.7411706447601318,-0.228000670671463,1.1845382452011108,-0.40174558758735657,0.828583836555481,0.44766804575920105,-0.3108614683151245,-0.10949655622243881,0.5731050372123718,-0.38822585344314575,-0.14038671553134918,0.18149276077747345,-2.2142605781555176,0.4729166626930237,-0.3168264329433441,0.07684007287025452,0.8004778623580933,0.7281206250190735,-1.8963561058044434,-0.24015505611896515,1.4412596225738525,-1.5956908464431763,-0.34970158338546753,0.5863226652145386,1.500913143157959,0.7841624021530151,-0.7131765484809875,1.6092826128005981,0.7229093909263611,0.7789173722267151,-0.2107517272233963,-0.1381026953458786,0.3018151819705963,0.564895749092102,-0.003001859877258539,0.7011170387268066,-0.5649628043174744,1.0859553813934326,-0.03675796464085579,-0.3026416301727295,0.411763072013855,2.1182308197021484,-0.7198081612586975,1.3983774185180664,3.890725612640381,0.5193454623222351,-0.748852550983429,0.8420697450637817,2.019782066345215,-0.09235940873622894,0.8966922163963318,0.17882604897022247,0.1232183501124382,0.05911828204989433,0.7918868660926819,0.47628211975097656,0.2919101119041443,0.9522199630737305,0.01707139052450657,-0.19095666706562042,-0.5667456984519958,-2.2088189125061035,0.21674463152885437,-1.3678239583969116,1.6300681829452515,0.3886241316795349,2.089290142059326,-1.4243632555007935,-0.546859085559845,-1.6284394264221191,0.36764007806777954,-1.2659859657287598,0.02460785023868084,0.46514108777046204,-0.946642279624939,-0.0926871970295906,-1.0839016437530518,0.5379781723022461,-0.44015365839004517,-2.196441888809204,1.2333110570907593,1.4562395811080933,-0.44199609756469727,-0.29303672909736633,1.3982270956039429,0.5651847720146179,1.1349743604660034,0.7173664569854736,-0.5963183045387268,0.12804770469665527,1.6526978015899658,-0.14297163486480713,0.10076732188463211,-0.5346819758415222,-0.5814633369445801,0.6038292050361633,0.7612241506576538,0.4888302981853485,-0.46495917439460754,1.683240294456482,-1.6084729433059692,-0.9439306259155273,0.07961849123239517,0.8074230551719666,2.4200470447540283,-0.23544220626354218,-0.7406080961227417,-0.04115888848900795,-1.4387966394424438,0.5431613922119141,-2.5728671550750732,2.3759963512420654,0.6194318532943726,0.2037983536720276,1.7835323810577393,-0.6852352619171143,-0.3216873109340668,0.10157427936792374,-0.3705621659755707,-1.6655843257904053,1.0591511726379395,-0.6280890703201294,-0.6923131346702576,0.9612321853637695,-0.23876537382602692,-0.4050341248512268,-0.9145944714546204,-0.47607383131980896,0.5915319323539734,1.1605794429779053,-0.933751106262207,0.20374493300914764,-0.8101275563240051,0.3229026198387146
movietweetings_recsys2014.csv,-0.4374579191207886,0.32675299048423767,1.0991827249526978,0.361390084028244,0.37425875663757324,0.4576452076435089,-1.1695560216903687,-1.0599658489227295,0.04196876659989357,-0.8049408793449402,0.22757147252559662,0.19184240698814392,-1.3342289924621582,-1.4225594997406006,0.9736005067825317,0.5241819024085999,1.8516592979431152,-0.40085864067077637,-0.731285572052002,-1.181077480316162,-0.18589502573013306,0.6576721668243408,-1.1482539176940918,0.6153931021690369,1.4574873447418213,0.3668479323387146,-0.23935459554195404,0.28904974460601807,0.8207725882530212,-0.2716127634048462,-1.0897830724716187,-0.27669215202331543,0.6175472140312195,-1.3556797504425049,0.8516630530357361,-0.8951724171638489,-1.7200144529342651,0.6455584168434143,-0.3344082236289978,-0.7428831458091736,-0.24261103570461273,-1.155377745628357,-0.6448079943656921,-0.5309306383132935,-0.12931592762470245,-0.8286402821540833,-1.4798234701156616,0.9720782041549683,-0.8061318397521973,0.7124446034431458,0.33007773756980896,-0.04380428045988083,-0.5458341836929321,1.1527620553970337,-0.08432182669639587,0.7407434582710266,-0.03791714459657669,-0.91084223985672,-0.5559377670288086,0.23350195586681366,0.6674164533615112,-0.40994104743003845,-0.2891545295715332,0.7696108818054199,0.27641722559928894,-1.982987403869629,-0.11988863348960876,-0.38349172472953796,0.4104676842689514,0.6410208344459534,0.8419811725616455,1.270486831665039,0.6805188059806824,0.5750963091850281,1.3317244052886963,0.7544946074485779,0.1065363734960556,0.3959120512008667,-0.7612300515174866,1.3320945501327515,0.8038210868835449,-0.8826277852058411,0.1572037935256958,0.8139922618865967,-0.21652011573314667,-1.2323822975158691,-0.7413055300712585,-1.0894839763641357,-0.5425724387168884,-0.3234294056892395,0.6888353824615479,1.7175782918930054,-1.03398859500885,0.5466136932373047,1.057820439338684,-0.33890384435653687,0.09870297461748123,-0.7263721227645874,-0.2249651700258255,0.29957056045532227,0.9882209300994873,0.007326832972466946,0.8568325042724609,1.0905505418777466,-0.5082142949104309,-1.4800770282745361,-0.12009797245264053,0.08614417910575867,-0.9696159362792969,1.4521900415420532,3.100522756576538,-0.03333599865436554,-1.4359713792800903,0.31667283177375793,0.3748079240322113,0.017525268718600273,2.2577035427093506,-0.48047202825546265,-0.5450009703636169,-0.0735401138663292,0.1522328108549118,-0.8259499669075012,-0.004526100587099791,1.2103503942489624,-0.024722184985876083,-0.38315051794052124,-1.630305528640747,-0.19069108366966248,1.1056115627288818,0.34101077914237976,2.6403567790985107,-0.15468229353427887,1.2817302942276,-1.426274061203003,-0.12034803628921509,0.2829757034778595,0.3446296453475952,-0.49255165457725525,-1.0662357807159424,0.7591177821159363,-1.1559141874313354,-1.1180205345153809,-1.5502780675888062,0.7257703542709351,0.10273290425539017,-2.277925491333008,1.4095580577850342,3.5260088443756104,0.040828581899404526,0.4534452557563782,1.1097244024276733,-0.6519868969917297,0.2226845920085907,0.6565382480621338,-0.3958585560321808,0.01872844062745571,0.4854365289211273,0.7446455359458923,1.4802145957946777,-2.7585859298706055,-0.7613924145698547,-0.41509899497032166,-0.6928631067276001,-0.2630833685398102,-0.9592524766921997,2.380903482437134,-2.3743045330047607,-1.9868223667144775,0.3102150559425354,2.266390800476074,1.7082988023757935,0.1521817147731781,0.8866587281227112,0.07098090648651123,0.3137967586517334,-0.07460706681013107,-0.9322452545166016,1.2400497198104858,-0.9133694767951965,1.0881232023239136,1.5371861457824707,0.7855693697929382,-0.4282606542110443,1.2142045497894287,-1.1138383150100708,-0.692916989326477,0.5729100704193115,0.4760890603065491,-0.30299508571624756,1.5044227838516235,0.09683942049741745,0.770904004573822,-0.22121562063694,-1.6309720277786255,1.6262441873550415,-0.1608317643404007,-0.8736065030097961,0.8505279421806335,-1.2438647747039795,0.34882989525794983
amazon-office.csv,-0.025987114757299423,-0.14458152651786804,1.6800538301467896,0.39747536182403564,-1.0749620199203491,0.7713707685470581,-1.5299044847488403,-0.7293086647987366,-0.36072108149528503,-0.7957721948623657,-0.5055387616157532,1.7180546522140503,-0.7497812509536743,-1.3439632654190063,0.8902497291564941,-0.026842638850212097,1.0320308208465576,-0.3800782263278961,-0.10621197521686554,0.022372765466570854,0.055949680507183075,0.13108943402767181,-1.15059494972229,0.129836305975914,0.2518935799598694,0.6014073491096497,-1.1630597114562988,0.4864005148410797,1.8153066635131836,-0.7501009702682495,0.07005537301301956,-0.761085569858551,2.00640606880188,-0.27258604764938354,0.5235317349433899,0.39446672797203064,-0.7467993497848511,-0.3562188446521759,-1.0972082614898682,-0.22106671333312988,0.6710730791091919,-0.44262227416038513,-0.7317518591880798,0.2838037610054016,0.3011501729488373,-1.3654286861419678,0.05347810685634613,0.16203181445598602,0.6513485908508301,0.6697895526885986,0.507946252822876,-0.4695436656475067,-0.15696579217910767,0.3898760676383972,-1.5534439086914062,-0.7286922335624695,-0.3713439404964447,0.7551984190940857,0.04901351034641266,0.8141406774520874,0.5561124682426453,-0.6424563527107239,-1.0761140584945679,-0.17830772697925568,-0.24562139809131622,-0.5252676606178284,-0.14848920702934265,0.13644865155220032,1.012387990951538,0.42837169766426086,-0.6081661581993103,0.05490739271044731,0.5108656287193298,0.39915791153907776,0.8082918524742126,-0.8961237668991089,0.24189192056655884,1.5008893013000488,-1.2149447202682495,0.13812516629695892,-0.7028115391731262,0.8877128958702087,-1.1507245302200317,1.1218549013137817,-1.0986802577972412,-1.0197073221206665,0.3685581386089325,-1.1471835374832153,-0.33115819096565247,1.1825339794158936,1.3355318307876587,1.8659605979919434,-1.3115140199661255,1.0985443592071533,-0.07689139991998672,1.101259708404541,1.1395726203918457,0.47988155484199524,-0.47504767775535583,-0.6512306928634644,0.2433343529701233,0.7307277917861938,-0.048240333795547485,1.2509077787399292,0.7977447509765625,-0.723228931427002,0.5163182616233826,2.302987813949585,-0.11084660142660141,1.0854272842407227,3.056377649307251,-0.5941651463508606,-0.9665182828903198,1.1464028358459473,0.7088721990585327,0.391008585691452,1.0667190551757812,-0.623732328414917,0.6099342703819275,-0.22206369042396545,0.3859037160873413,0.531898021697998,0.8097847700119019,1.2110546827316284,0.27480408549308777,1.866269826889038,-0.7838010191917419,-1.5607829093933105,-1.1408617496490479,-1.5515215396881104,0.8627789616584778,0.699032187461853,-0.19660493731498718,-0.294394314289093,-0.8402146697044373,-0.9748643040657043,-0.25366654992103577,-0.16990850865840912,0.3127474784851074,1.7923943996429443,-1.3162648677825928,-1.2618948221206665,-2.6320011615753174,0.23710031807422638,-1.2092540264129639,-2.553614854812622,0.22587203979492188,2.740206480026245,-1.3924399614334106,-1.4055386781692505,2.3971056938171387,0.6342841386795044,0.5058374404907227,1.5956043004989624,-0.7809092402458191,0.29930010437965393,0.9891407489776611,-0.5496328473091125,-0.2664738893508911,0.21348434686660767,-0.281442791223526,-0.58280348777771,0.3527958393096924,-0.3822884261608124,-0.03999093919992447,1.6183617115020752,-1.720969557762146,0.07996584475040436,0.7239407300949097,1.008395791053772,2.581984043121338,0.35337305068969727,0.43197357654571533,-0.3015613555908203,0.6704752445220947,1.1437679529190063,-1.2542484998703003,2.8042447566986084,0.7882355451583862,1.0050619840621948,2.037480354309082,0.8326646685600281,0.3388318121433258,-0.2796878516674042,0.5531060099601746,-2.237168788909912,0.8720189332962036,-0.32545116543769836,-1.3228044509887695,0.7650802731513977,-0.8833878636360168,-0.32020556926727295,-1.151010274887085,-0.5718758702278137,0.899390459060669,-0.23340682685375214,0.43789705634117126,0.6791941523551941,-0.5888071656227112,0.19421842694282532
yahoo-music.csv,0.6489527821540833,0.718777596950531,0.9615991711616516,-0.4542136788368225,-1.6932932138442993,1.4309524297714233,-1.1224956512451172,-0.21920092403888702,0.08647233247756958,-0.4671953022480011,0.15553462505340576,0.29508233070373535,0.0802106261253357,-1.9278151988983154,-0.0796419158577919,-0.11376085877418518,0.4777861535549164,-0.11517616361379623,-0.44981497526168823,0.09836557507514954,-0.07555259764194489,-1.685437798500061,-1.3804676532745361,0.17785242199897766,0.9420607686042786,-0.6653051376342773,-0.8535481095314026,-0.924509584903717,0.40226560831069946,-0.578747570514679,0.1493510752916336,0.7332068681716919,0.6733225584030151,0.16988246142864227,1.4120423793792725,0.025565512478351593,-1.8792803287506104,1.1207414865493774,0.21335583925247192,-0.23162730038166046,-0.493999719619751,-3.127586603164673,1.3275569677352905,0.5144624710083008,0.9099834561347961,-0.19393081963062286,-0.1651587337255478,0.6251567006111145,-0.26215097308158875,0.5215350985527039,0.5784783363342285,-0.8291975259780884,-1.0433576107025146,0.38841307163238525,0.1885254830121994,0.7849743962287903,0.3798692524433136,0.05990093946456909,0.0788441151380539,2.2313313484191895,0.19827525317668915,0.6755584478378296,-1.1391546726226807,-1.6473695039749146,-0.8025395274162292,-0.9367514848709106,-0.33092188835144043,0.7764882445335388,-0.9855253100395203,-0.1290396898984909,0.31834062933921814,-0.6930620074272156,1.5216238498687744,0.006998568307608366,0.24064666032791138,-1.5172710418701172,0.06110066547989845,-0.28312191367149353,-1.279181718826294,0.3005705773830414,0.6310114860534668,-0.13535119593143463,0.6091358065605164,0.8883287310600281,-0.8303066492080688,-0.010907148011028767,-0.9427165985107422,-0.2719573378562927,0.03559960052371025,0.1706724762916565,1.1226791143417358,0.7526777982711792,-0.7725961804389954,1.1509575843811035,0.5834090709686279,0.13908901810646057,1.3842030763626099,-0.8474509119987488,0.00854277890175581,0.4246518015861511,-0.03720502927899361,-1.8884997367858887,-0.6131040453910828,0.5953448414802551,-0.5377437472343445,-1.201921820640564,0.26645442843437195,1.7244025468826294,-0.8303118944168091,1.6711729764938354,2.6661911010742188,0.22461721301078796,-1.0124067068099976,-0.2530297636985779,1.1949166059494019,0.12524168193340302,1.7353991270065308,0.13629233837127686,0.03587949648499489,0.27507415413856506,-1.5486706495285034,-0.6306345462799072,-0.5286579132080078,1.6177834272384644,0.38556191325187683,-0.2592240273952484,-0.9204031229019165,-0.8020423650741577,-0.9275152683258057,-1.3443585634231567,2.3569247722625732,-0.7521814107894897,2.169177293777466,-1.651724100112915,-0.1086006760597229,-0.39951151609420776,0.979907751083374,-0.49479934573173523,-1.119330883026123,0.8870865106582642,-0.2801055908203125,-0.08357559889554977,-1.8188951015472412,0.0010376984719187021,0.9104846119880676,-1.496416687965393,1.081631064414978,1.7238118648529053,1.730647087097168,0.548348605632782,2.0267882347106934,-1.2550629377365112,0.5330068469047546,0.3872719705104828,-1.1303542852401733,0.13352999091148376,0.9407029747962952,-0.04122583568096161,0.17576910555362701,-1.562505841255188,-1.1763993501663208,0.6369827389717102,-1.0064141750335693,0.4049566388130188,-1.2987598180770874,0.8789648413658142,-2.4494993686676025,-1.5015560388565063,0.7933896780014038,1.8407286405563354,1.200340986251831,0.016309404745697975,-0.18337443470954895,0.8155146837234497,-1.1120531558990479,1.4334427118301392,-0.7698014378547668,2.5788583755493164,-0.31301623582839966,0.6617857217788696,1.0698689222335815,-0.09777924418449402,0.8443285822868347,0.9017634391784668,-0.46149200201034546,-1.306450605392456,0.8703176379203796,0.4775753915309906,-1.4409955739974976,1.5592806339263916,1.8050038814544678,0.5926746129989624,-0.5275281071662903,0.12092870473861694,1.1438848972320557,0.6518473625183105,0.4832876920700073,0.26846322417259216,-0.38581791520118713,-0.4447551667690277
tripadvisor.csv,0.37751615047454834,-0.03138090297579765,0.9538578391075134,0.41025757789611816,0.6944233179092407,1.539892554283142,-1.0758627653121948,0.19679856300354004,-0.12328416109085083,-1.5172885656356812,0.9045143127441406,0.2000507414340973,0.2649732232093811,-1.3464717864990234,1.2076810598373413,0.13183388113975525,1.8337316513061523,0.19273591041564941,0.9259329438209534,0.15979191660881042,-0.3594847023487091,0.07777351886034012,-0.7995561957359314,-0.22817635536193848,-0.5875332951545715,0.21862958371639252,-0.7868615984916687,-0.6011698246002197,1.4991720914840698,-0.9319077134132385,-0.24490052461624146,0.2095867544412613,1.5171632766723633,-0.8077214360237122,0.6386160850524902,-0.5605758428573608,-0.48897790908813477,0.4363599717617035,-0.6707100868225098,-0.23196293413639069,-2.0163676738739014,-0.8867749571800232,-0.18398132920265198,0.40793317556381226,-0.522039532661438,-1.1075667142868042,-0.2985318899154663,1.186156988143921,0.1320275217294693,0.9104562997817993,0.042858194559812546,-1.4402917623519897,-0.8836091756820679,0.5303278565406799,-1.2155123949050903,0.26470130681991577,-0.23590810596942902,-0.5191041827201843,0.32634979486465454,1.6232171058654785,-0.2623271346092224,-0.8494024276733398,-1.551377296447754,0.5759102702140808,0.2547470033168793,-2.099424362182617,-1.0511671304702759,0.5596417188644409,1.2380939722061157,1.525268316268921,0.4881036579608917,0.5706058740615845,1.7294224500656128,-0.19153577089309692,0.5358783006668091,-1.3937513828277588,-0.1852593570947647,-0.11598673462867737,-0.3027638792991638,0.9533444046974182,0.7559923529624939,0.09622171521186829,0.5264962911605835,0.8647710084915161,-0.7769336700439453,1.2448912858963013,-0.48599082231521606,-0.1731620728969574,-0.5387134552001953,0.49350348114967346,0.7150644063949585,0.6891120076179504,-0.9846173524856567,1.9108679294586182,0.7058099508285522,0.6247581839561462,0.48783090710639954,-0.6931024193763733,-1.2628750801086426,-0.41909563541412354,0.715659499168396,0.6956208944320679,0.4480436146259308,-0.30208441615104675,0.6417434811592102,-0.5770444273948669,0.37372663617134094,1.4047499895095825,-0.7351555228233337,1.278030514717102,3.005751848220825,0.048103172332048416,-1.7489644289016724,-0.4433347284793854,0.8816293478012085,2.4035749435424805,1.1009340286254883,-1.0865936279296875,-0.7572904825210571,-0.4398110806941986,0.8198268413543701,0.5269740223884583,0.8503048419952393,1.1156361103057861,0.18327949941158295,0.8455778360366821,-2.075709104537964,-1.0462214946746826,-0.4319358766078949,-1.4992311000823975,1.5745341777801514,-0.22648164629936218,1.3803132772445679,-0.12893682718276978,-0.8661138415336609,-1.192080020904541,0.02625134028494358,0.04452424868941307,-0.2402757704257965,0.8514760732650757,-0.24840405583381653,-0.1508065164089203,-2.0128679275512695,0.06462882459163666,-0.3667225241661072,-1.7886072397232056,2.054356098175049,1.6514439582824707,-0.6850948333740234,-1.7981432676315308,1.5735567808151245,-0.5926898121833801,0.21127986907958984,1.0170098543167114,-0.39223894476890564,0.8260283470153809,0.9629127383232117,0.012001440860331059,-0.5551855564117432,-1.7240163087844849,-0.35083481669425964,0.45707038044929504,0.11217810213565826,0.5296223759651184,0.8311823010444641,1.8411009311676025,-1.5986770391464233,-0.1844339668750763,0.9324853420257568,0.9606358408927917,1.1710110902786255,1.9267033338546753,0.4221600592136383,-0.3942005932331085,-1.4711953401565552,-0.40997299551963806,-0.8500155806541443,1.9424477815628052,0.6558660864830017,1.4464483261108398,0.8930590152740479,0.09921365976333618,0.7308748364448547,0.35293278098106384,-1.120194673538208,-1.8722740411758423,1.3843110799789429,-0.5634315013885498,0.07088080793619156,2.58071231842041,0.6644156575202942,0.8046566247940063,-1.3571356534957886,-0.6021209359169006,1.5223948955535889,0.20052258670330048,-1.026810646057129,0.5054700970649719,-1.692301869392395,0.6522549390792847
movielens10m.csv,-0.24468347430229187,-1.4038783311843872,-0.3609550893306732,-0.13376037776470184,-0.8216132521629333,0.9005346298217773,-1.0863165855407715,0.01169377751648426,-0.9931317567825317,-1.3652127981185913,0.47543275356292725,1.2168800830841064,0.4759082794189453,-1.2780858278274536,0.3215504288673401,-0.026917997747659683,1.3447530269622803,1.5708553791046143,-0.7598261833190918,-0.7555192112922668,-1.1077840328216553,-1.4503496885299683,-1.0584132671356201,-0.7090849280357361,0.7917439341545105,0.18935663998126984,-0.921002209186554,-0.02820299193263054,0.4223985970020294,-0.7293346524238586,-0.1924654096364975,-0.379232257604599,1.082086443901062,-1.9142814874649048,0.20182131230831146,0.025604920461773872,0.21287736296653748,0.5334858298301697,1.4410558938980103,-0.08544363081455231,-0.9327661395072937,-2.332578182220459,-0.8132638931274414,0.46186840534210205,1.1085851192474365,0.4939843714237213,-0.9065751433372498,-0.8477993011474609,-0.23296955227851868,1.874779462814331,0.15266799926757812,0.20536459982395172,-1.2583034038543701,-1.044412612915039,0.36702534556388855,-1.0330890417099,-0.8756054043769836,-0.7747166156768799,0.16953817009925842,1.481367826461792,0.016492320224642754,-0.910352885723114,-0.73111891746521,-0.8168087005615234,1.49563467502594,-1.2687236070632935,-0.6592347621917725,-0.9561796188354492,-0.6477242112159729,0.4785751402378082,0.21130342781543732,-0.3178505003452301,-0.606010913848877,-0.8625052571296692,2.1570355892181396,-1.5131670236587524,-0.1503925621509552,-0.1250152289867401,-0.9494486451148987,1.5482869148254395,-0.7779482007026672,-0.7768893837928772,1.1723573207855225,-0.32005661725997925,-0.7314693331718445,0.2569684684276581,-0.781933605670929,-0.9013016223907471,-0.9375975131988525,0.40496698021888733,1.5905773639678955,0.8655768036842346,-1.7717427015304565,0.10081780701875687,-0.21577253937721252,0.7953237891197205,-1.6105989217758179,0.7004595398902893,1.2424798011779785,0.44283562898635864,-0.6269968748092651,-0.8937390446662903,0.6676777005195618,-0.2338041067123413,-1.699218511581421,-1.301047682762146,0.6393148303031921,1.58571195602417,-0.677566647529602,1.100129246711731,2.1670587062835693,0.25228893756866455,-1.1517560482025146,0.2226286679506302,1.1543220281600952,1.6630868911743164,1.2861499786376953,-0.9634953737258911,-0.46064862608909607,0.049911223351955414,0.18050456047058105,0.9235718846321106,0.726727306842804,1.2673875093460083,0.8059763312339783,0.25388258695602417,-2.504129648208618,0.318347305059433,-0.574710488319397,-0.7248155474662781,2.108166217803955,1.5831167697906494,0.6431407928466797,-2.33581280708313,0.7040732502937317,-1.207451581954956,1.0463950634002686,-0.19470010697841644,-0.8485333919525146,0.046812690794467926,-0.36632469296455383,-0.596118688583374,-2.0035266876220703,0.4244743287563324,0.7547481656074524,-2.6114842891693115,0.1921972781419754,1.2939484119415283,0.8941656351089478,0.1645464450120926,1.564020037651062,0.6444552540779114,0.3039371371269226,-0.37022829055786133,-0.6568543910980225,0.08451478183269501,-0.29967159032821655,-0.9993265271186829,0.9739694595336914,-1.241066336631775,-1.106459140777588,1.3958522081375122,0.24873870611190796,-0.641440749168396,-0.09554314613342285,0.8546692132949829,-3.6182169914245605,-0.5885487794876099,0.28246769309043884,1.5300219058990479,0.8400458097457886,-0.1915609985589981,0.9790448546409607,-0.7829585075378418,0.038568127900362015,-0.6189573407173157,-1.7533278465270996,1.3924707174301147,-0.20066465437412262,0.330329954624176,-0.2439909726381302,0.08493383973836899,-0.3817826807498932,-0.2556626498699188,-0.5999442338943481,-0.8265331387519836,0.04159429296851158,0.08894138783216476,-0.43788498640060425,1.1415400505065918,0.905348002910614,-0.7486428618431091,-0.7330252528190613,-0.44108086824417114,0.7106640934944153,-0.6215939521789551,0.04132401943206787,-1.262863039970398,-0.6122701168060303,-1.027184247970581
movielens20m.csv,0.9805152416229248,0.6743947863578796,-0.19970457255840302,1.1865910291671753,-0.45063552260398865,1.0781195163726807,-0.7679445743560791,-0.17143605649471283,0.2537486255168915,-0.17320235073566437,0.5217166543006897,1.4859232902526855,-0.9604586958885193,-1.6017242670059204,0.25488531589508057,0.19863763451576233,1.656095027923584,0.4478326737880707,-0.3628522753715515,-1.6600372791290283,0.3761190176010132,-0.9915307760238647,-2.516427755355835,-0.14883849024772644,0.6025776863098145,-0.8884137868881226,-2.174992561340332,-0.3169294595718384,2.5957226753234863,-0.9241398572921753,0.06361208111047745,0.6878507733345032,0.12378864735364914,-1.5108208656311035,0.9641470313072205,-0.43268126249313354,-1.1875991821289062,1.3807836771011353,-0.20146788656711578,-1.7317171096801758,-0.4079141914844513,-1.6179981231689453,0.21563582122325897,-0.3038235306739807,-0.034966811537742615,-0.033437035977840424,-0.4263980984687805,-0.5071375370025635,1.1645551919937134,0.9914027452468872,-0.47412559390068054,0.7386983633041382,-1.0934728384017944,-0.2030825912952423,0.3099510073661804,0.40151217579841614,-0.8025888204574585,-1.10415518283844,-0.9510930180549622,0.958209753036499,2.007615804672241,-1.068122386932373,-0.004063187632709742,0.7981478571891785,1.2354251146316528,-1.9164304733276367,0.9139930009841919,0.07035109400749207,-0.31265243887901306,0.6209754347801208,-0.017209872603416443,-0.15994998812675476,0.2606663703918457,-0.09103210270404816,0.33819523453712463,-2.1925723552703857,0.4613163471221924,1.0250998735427856,-0.14359405636787415,-0.03843158483505249,0.2585385739803314,-0.23663046956062317,-0.3418590724468231,0.6983781456947327,-1.9423205852508545,-0.4190645217895508,-0.7524135112762451,-0.5311205387115479,0.28617212176322937,0.15025445818901062,1.3082903623580933,0.16743110120296478,-0.8133805990219116,0.9252020716667175,1.2388273477554321,0.16150835156440735,-0.20077748596668243,-0.46840620040893555,-1.035029649734497,-0.2103741317987442,0.014958047308027744,-1.200866937637329,-0.0791289210319519,0.1984958052635193,-0.4589383602142334,0.15890242159366608,0.6724174618721008,0.7093412280082703,-1.1440203189849854,0.6651257872581482,2.32853627204895,0.37417107820510864,-0.13175739347934723,-0.590259313583374,-0.5968132019042969,-0.04565254598855972,0.435355544090271,0.17416131496429443,-1.1027206182479858,-0.15479162335395813,-0.2593531012535095,0.026079077273607254,0.18193626403808594,1.0807887315750122,0.7389867901802063,1.5205988883972168,-1.155811071395874,-1.0360182523727417,-0.07918494194746017,-1.085484266281128,2.114579677581787,0.2259400337934494,2.328932523727417,-2.0697903633117676,-0.42806360125541687,-1.7081003189086914,1.2252341508865356,-1.6864264011383057,-1.4054628610610962,0.6084319353103638,-0.47653618454933167,-0.34163591265678406,-0.7688648700714111,1.397574543952942,-1.6467868089675903,-1.7858752012252808,1.3008878231048584,0.6806402206420898,-0.008287238888442516,0.28535646200180054,-0.3673763573169708,-1.0530246496200562,0.4771082401275635,0.8535484671592712,-0.630787193775177,0.729955792427063,-0.45675337314605713,-0.2799638509750366,-0.614201545715332,-1.0350968837738037,-1.4239054918289185,1.3735859394073486,-1.4076809883117676,0.4031289219856262,-0.7967413663864136,0.8177059292793274,-1.9295347929000854,-1.1295439004898071,0.6794382929801941,1.2422770261764526,1.58543062210083,0.43583816289901733,0.4462871849536896,0.48527348041534424,-1.262666940689087,0.8958621025085449,-1.5344668626785278,2.559182643890381,1.2559770345687866,1.4652235507965088,0.5256362557411194,-0.5812744498252869,0.2241228222846985,-0.8082001209259033,0.652534008026123,-1.6610782146453857,0.24389015138149261,-1.3566545248031616,-1.3676905632019043,1.361223578453064,0.772914707660675,1.005979061126709,-0.7449634671211243,-0.2445354461669922,1.0652055740356445,0.18577991425991058,-1.0237675905227661,0.903756320476532,-1.3958113193511963,-0.2456960529088974
amazon-tools.csv,0.37276196479797363,-0.1625431478023529,0.6620544195175171,0.4626906216144562,-0.5323755145072937,-0.19877615571022034,-0.7419590950012207,-0.24635843932628632,0.26633012294769287,-1.0400378704071045,-0.3045039474964142,2.002239942550659,0.20272812247276306,-1.5891765356063843,0.5227193236351013,-0.186758354306221,2.0434794425964355,-0.6122638583183289,-1.6125540733337402,0.6721426844596863,-0.13932585716247559,0.17962205410003662,-1.6149718761444092,-1.6666653156280518,0.13008667528629303,-0.5380547642707825,-0.5115429759025574,-0.18465138971805573,0.5828810334205627,-0.8800688982009888,0.02784714475274086,-0.8874602913856506,1.2934331893920898,0.15064813196659088,0.6720770001411438,0.04179434850811958,-0.40246817469596863,-0.1186598613858223,0.2724570631980896,-1.7723952531814575,-0.5607642531394958,-0.6736394166946411,-0.012092256918549538,0.46885767579078674,0.32294583320617676,-0.5624269247055054,-0.5613287091255188,0.3084869086742401,-0.032326873391866684,0.6845746636390686,-0.7071354389190674,-0.40103572607040405,0.02991189807653427,1.7202054262161255,-0.13297195732593536,-0.7010485529899597,-0.8463326096534729,-0.9354343414306641,-0.3532297611236572,0.8153929114341736,2.112079381942749,1.1348515748977661,-0.7424712777137756,0.1272444874048233,0.26761654019355774,-1.4637099504470825,0.5191938877105713,0.44562456011772156,0.6699416041374207,0.5026645064353943,-0.09552402049303055,0.4680926501750946,1.9293869733810425,-0.4105020761489868,0.37427353858947754,-0.4623466432094574,0.2790476977825165,0.4284522533416748,-0.8086709976196289,0.5776410102844238,-0.03679675981402397,-0.7844283580780029,-0.4346522390842438,-0.11782804876565933,-0.8309602737426758,0.2995762526988983,-0.7214065790176392,-0.8755630850791931,-0.7189934253692627,0.84569251537323,2.702540636062622,0.3228949010372162,-1.2223103046417236,1.855911374092102,0.593292772769928,0.48425236344337463,-0.7426502108573914,-0.7393577694892883,-0.40998315811157227,0.3869606852531433,-0.45287463068962097,-0.08255838602781296,0.7525278925895691,-0.607658863067627,-0.21056140959262848,-0.6128005981445312,1.1227684020996094,1.740996241569519,-0.5302734375,1.3533639907836914,2.157581090927124,-0.7735834717750549,0.3164331018924713,1.0650519132614136,0.09653320163488388,0.48004958033561707,1.7833858728408813,-0.10173308104276657,-0.047332268208265305,0.645385205745697,-0.005269951187074184,-0.0603279247879982,-0.028416041284799576,1.5972306728363037,-0.004723651334643364,1.1865346431732178,-1.935165524482727,-0.1965455561876297,0.4477207362651825,-1.9991413354873657,1.7784574031829834,1.043623685836792,2.2388923168182373,-1.539831280708313,0.3959491550922394,-1.1521600484848022,-0.5074676275253296,-0.01953165978193283,-0.07048068940639496,0.4484640061855316,-1.5108983516693115,-0.2861568331718445,-0.7714316248893738,0.7929748296737671,-0.028414683416485786,-1.5532371997833252,1.1659997701644897,2.1922435760498047,-1.5975326299667358,-0.3243500590324402,1.0573086738586426,0.33150792121887207,1.761555552482605,3.12031626701355,0.21243028342723846,0.642190158367157,1.1967086791992188,-0.07606671005487442,0.7961621880531311,-0.676542341709137,-0.8182477355003357,0.8329874873161316,-0.15156522393226624,1.4596039056777954,-0.3674878776073456,1.203874111175537,-0.8121939897537231,-0.4055198132991791,-0.0836869329214096,1.7671234607696533,0.3710869550704956,0.7133074402809143,-0.11716990172863007,0.5889962315559387,0.16084378957748413,-0.4032747745513916,-1.0983881950378418,2.9371232986450195,-0.8046599626541138,0.26025277376174927,1.29753839969635,-0.6726760864257812,1.0867491960525513,1.7605704069137573,-1.4812275171279907,-2.35357403755188,-1.1751145124435425,-0.5227549076080322,-0.6319889426231384,1.5178558826446533,0.5206326842308044,-1.309238314628601,-2.6285481452941895,-0.37008219957351685,0.7906173467636108,0.5418271422386169,0.16942831873893738,0.23073144257068634,-0.9699017405509949,0.5898223519325256
amazon-sports.csv,-0.0313803032040596,0.043302521109580994,1.8816895484924316,0.2546599209308624,-0.9207146167755127,0.26826003193855286,-1.0380537509918213,-0.09639177471399307,-0.17019419372081757,-0.9516753554344177,0.19822585582733154,1.145223617553711,0.4292635917663574,-1.5179429054260254,1.2478108406066895,0.3648122549057007,1.4153978824615479,0.5571380257606506,0.7991982102394104,-0.7995182275772095,-0.36021941900253296,-1.125320553779602,-1.1708259582519531,-0.7487619519233704,-0.37303051352500916,-0.5945793390274048,-0.17551791667938232,0.02345592901110649,0.13904407620429993,-0.928774356842041,0.32273566722869873,-0.9588636755943298,1.4964865446090698,-0.15475286543369293,0.5404115319252014,0.19463370740413666,0.23784853518009186,0.08940491825342178,-0.8611836433410645,-0.8748265504837036,-0.9602878093719482,-1.5315179824829102,0.5260371565818787,-0.3527543842792511,-0.019472112879157066,-2.052489757537842,-0.17940080165863037,1.1998426914215088,0.21263547241687775,0.9548763632774353,-0.6035031080245972,-1.2998971939086914,-0.5067571401596069,0.9648294448852539,-0.6868064403533936,-0.6139538288116455,0.2030743658542633,-1.3858232498168945,0.35421720147132874,1.1017955541610718,0.028869114816188812,0.594883143901825,-1.3659775257110596,0.0607183575630188,-0.0800689086318016,-1.631365418434143,-0.6351125836372375,-0.16209641098976135,0.6730335354804993,0.9785537123680115,0.037459105253219604,-0.028469914570450783,0.29458633065223694,-0.023940445855259895,0.792195200920105,-1.401041865348816,0.7857908010482788,0.06640876084566116,-1.3314381837844849,0.5709717869758606,0.20959925651550293,-0.7463801503181458,-0.5005016326904297,-0.05896277353167534,-1.503239393234253,1.2694311141967773,-0.5281893610954285,-0.6008327007293701,-0.6821786165237427,-0.46960294246673584,1.6095036268234253,0.5447700023651123,-1.155508041381836,1.2861104011535645,0.786336362361908,0.4142504930496216,-0.7464639544487,-0.7285906672477722,-0.9640091061592102,-0.7990971803665161,0.3631182014942169,0.8960014581680298,0.17400535941123962,0.5823369026184082,0.6101513504981995,-0.35156774520874023,0.43741482496261597,0.698539674282074,-0.06041672080755234,1.4292075634002686,3.33140230178833,0.030018432065844536,-2.372882843017578,-0.5097203850746155,1.6552218198776245,1.256481647491455,0.7327122092247009,-0.5116248726844788,-0.5791959166526794,0.2979150414466858,-0.07435574382543564,0.7329975962638855,0.2094559222459793,1.4493567943572998,-0.5619005560874939,0.3597215712070465,-1.5100823640823364,-0.8931009769439697,-1.22831130027771,-1.5741958618164062,2.186899185180664,0.1727760136127472,2.115992546081543,-0.0513940304517746,-0.7745913863182068,-1.8641785383224487,-0.6960851550102234,-0.5515790581703186,-0.005323417484760284,0.21272791922092438,-1.634546160697937,-1.0794029235839844,-1.3405827283859253,0.08863453567028046,-0.30303680896759033,-1.6455656290054321,2.3062121868133545,2.5174343585968018,-0.5734654068946838,-1.2140350341796875,1.9001461267471313,0.45305684208869934,0.6115437150001526,2.0185365676879883,-0.32880574464797974,0.45127514004707336,0.7805606722831726,-0.9582371711730957,0.05179167166352272,-0.7211982011795044,-0.15304872393608093,-0.2914302945137024,0.38192218542099,1.0473511219024658,-0.18182437121868134,1.4403327703475952,-1.4471443891525269,0.9232996702194214,1.9178111553192139,1.3413074016571045,1.4282543659210205,1.1334638595581055,0.5813971757888794,-0.7948801517486572,-1.633772611618042,-0.7151702046394348,-1.6957372426986694,1.6095913648605347,1.5173861980438232,0.41842761635780334,0.29254668951034546,-0.4256739616394043,0.8201919794082642,0.6986402869224548,-0.8594086170196533,-1.1761295795440674,0.9655084013938904,-0.7200887203216553,-0.2781781554222107,2.001392126083374,0.7435510754585266,0.2966923713684082,-1.2522687911987305,0.02176453359425068,1.4350134134292603,1.6191853284835815,-0.7868471741676331,0.09021995216608047,-0.9537695050239563,0.6350314021110535
amazon-garden.csv,0.42320287227630615,-0.0783618837594986,0.5671393871307373,-1.1355712413787842,0.5103787779808044,-0.850513756275177,-2.1031699180603027,-1.0809040069580078,-1.565904140472412,-1.0727770328521729,1.3087143898010254,0.8035317659378052,-0.8700278401374817,0.3360881209373474,1.0199182033538818,0.04533156380057335,1.4857287406921387,-0.7881055474281311,-0.7696785926818848,-1.900251865386963,-0.6461254358291626,-0.8572645783424377,-1.290562629699707,-1.2271761894226074,-0.13366267085075378,0.9137193560600281,-0.5020378828048706,-0.7603105306625366,1.10558021068573,-0.3698588013648987,0.26582521200180054,-0.1445547193288803,0.9704360365867615,0.18008126318454742,0.5637502074241638,-0.6957911252975464,-1.9041887521743774,0.35844406485557556,-1.4550211429595947,-0.7681858539581299,-0.5213369727134705,-1.3417868614196777,0.8376948833465576,-0.5132067799568176,0.6866353750228882,-0.8600677847862244,-1.5707011222839355,0.7051922678947449,0.9845365881919861,0.6623566150665283,-0.16474907100200653,-0.3374880850315094,-0.4816928207874298,0.4892745614051819,0.11534249782562256,0.2304542064666748,-0.9797759056091309,-0.8091105818748474,0.5066518783569336,1.3572458028793335,0.9022393822669983,-0.0018193903379142284,-0.9099472165107727,-0.6566588878631592,0.9614540934562683,-1.5005862712860107,-0.1956668645143509,-0.16458944976329803,1.0116655826568604,-0.12005472183227539,-0.0005617855349555612,-0.9624313116073608,-0.43745896220207214,0.8050800561904907,0.6631566882133484,-0.3637228012084961,0.6516113877296448,0.8314406871795654,-1.011851191520691,1.3887063264846802,-0.3649786412715912,-0.5456788539886475,-1.0798158645629883,0.8130892515182495,-0.14122971892356873,-0.6813373565673828,0.2879737317562103,-1.4087276458740234,-2.211819648742676,-0.05030309408903122,1.9820679426193237,2.2872071266174316,-0.1250135451555252,1.01747465133667,1.3969025611877441,0.31752851605415344,-0.17598311603069305,-0.05184030532836914,-0.06931638717651367,-0.23524248600006104,-0.9436628222465515,-0.39336562156677246,-1.0835411548614502,-0.19587747752666473,-0.33177894353866577,0.014603775925934315,1.0230059623718262,3.1374588012695312,-0.7764102816581726,0.5125222206115723,2.093993902206421,-0.4912344813346863,-0.7986547350883484,0.04568200558423996,0.4771400988101959,0.3132748305797577,0.5146334171295166,-0.9562276601791382,-0.7593236565589905,0.15749071538448334,0.10925070196390152,-0.11881425976753235,-0.8781466484069824,0.8580166697502136,1.051995038986206,-0.3043566942214966,-0.9868841767311096,0.1284041851758957,0.07906906306743622,-0.1668551117181778,1.9082393646240234,1.3488577604293823,1.4975509643554688,-0.6523898243904114,-0.5176175832748413,-1.937503457069397,0.8236886858940125,-1.1755764484405518,0.15730075538158417,0.5049008131027222,-0.23692816495895386,-0.8584808707237244,-1.8724045753479004,0.9748827815055847,-0.2899579107761383,-1.955168604850769,1.3335001468658447,2.5723886489868164,0.46414095163345337,0.4943462312221527,0.5981146693229675,0.7387353777885437,0.7983191013336182,0.5056509971618652,-0.808759331703186,0.17077291011810303,0.5585340261459351,0.2907450497150421,-0.40607762336730957,-0.9976568222045898,-0.7242786884307861,-0.3087494671344757,-0.4355497658252716,0.6062359809875488,-1.0511748790740967,0.8974848985671997,-2.3919947147369385,-1.331499695777893,0.8836789727210999,1.2023974657058716,-0.1300230771303177,2.0448856353759766,-0.31019604206085205,0.41206809878349304,-1.0626240968704224,1.0017145872116089,-1.7127749919891357,1.6177183389663696,-1.0090736150741577,1.635988473892212,2.5429794788360596,-1.5272446870803833,0.0727313980460167,-0.18374547362327576,-1.3132015466690063,-1.4510706663131714,-0.8583928346633911,0.04558002948760986,0.006126524414867163,0.41315096616744995,1.4785953760147095,0.24650922417640686,-0.09447900205850601,-2.263929605484009,0.702624499797821,-0.07455122470855713,0.15130625665187836,0.8762069940567017,-0.0850413590669632,0.7033172845840454
amazon-games.csv,-1.053367018699646,-0.7412956953048706,0.845277726650238,1.520101547241211,-0.05608132481575012,-0.9171260595321655,-1.3963960409164429,-1.9700367450714111,-0.371995210647583,-0.8749850392341614,0.6876091361045837,2.1117665767669678,-0.9892354607582092,-1.4444928169250488,0.13768699765205383,1.0166908502578735,1.3679319620132446,0.5275722742080688,-1.1876004934310913,-1.132163166999817,-0.507687509059906,-0.9901501536369324,-1.1685848236083984,-1.6096314191818237,-0.3832392394542694,-0.094888836145401,-0.5074860453605652,-0.09541573375463486,1.616127610206604,0.49176061153411865,0.7706105709075928,-1.0550237894058228,1.1872466802597046,0.05974901095032692,0.45693501830101013,-0.8748165965080261,-0.8870404362678528,-0.13544727861881256,-1.2604403495788574,-0.6419991850852966,-0.3218991458415985,-1.7406976222991943,0.8658765554428101,-0.42077070474624634,0.018370356410741806,-1.3260152339935303,-1.421021819114685,1.5933138132095337,1.126444935798645,0.8368576765060425,0.16743582487106323,-1.2521541118621826,-1.1010273694992065,0.9922140836715698,-0.21530865132808685,-0.6753044128417969,0.025813622400164604,-0.41990965604782104,-1.4064189195632935,0.6159082651138306,0.2007441371679306,0.10245154052972794,-1.1854506731033325,0.69447922706604,1.0616575479507446,-0.9931038022041321,-0.004632477182894945,0.0007113636238500476,0.9364728331565857,0.0245719812810421,-0.4713526964187622,-0.43162330985069275,0.048914168030023575,-0.1372847855091095,1.5470892190933228,-1.580855369567871,-0.380652517080307,0.1998828500509262,-1.2695417404174805,0.25191089510917664,-0.607243001461029,-0.6533003449440002,0.09616927057504654,0.8287528157234192,-0.9382836818695068,-0.47035548090934753,-0.14729875326156616,-0.01423624623566866,-0.2204023003578186,0.8261688947677612,2.0874385833740234,0.7617669701576233,-0.46121734380722046,1.7224470376968384,0.4149649441242218,-0.413680762052536,0.7647019624710083,-1.1790820360183716,1.4246113300323486,-1.2675031423568726,0.08385610580444336,-0.2762988209724426,-0.40047159790992737,1.4792815446853638,0.7586303949356079,0.33277666568756104,0.2750219404697418,1.0384732484817505,-1.2008494138717651,1.4102072715759277,2.6687333583831787,0.6762591004371643,-0.42455244064331055,-0.12526935338974,0.9719246625900269,0.6647889018058777,0.9076937437057495,-0.16890349984169006,-0.8509018421173096,-0.5735676288604736,0.3116707503795624,-1.1627538204193115,9.03424879652448e-05,0.9207606911659241,0.22995494306087494,0.7930363416671753,0.45301395654678345,-0.5934572815895081,-0.8680894374847412,-1.438468337059021,2.4961090087890625,0.3412592113018036,0.41092970967292786,-1.1845581531524658,-0.9802514910697937,-1.4637200832366943,0.8129497170448303,-0.5289177894592285,0.023022806271910667,0.8210725784301758,-1.1601206064224243,-0.4849693477153778,-0.9635778665542603,0.09008960425853729,-0.1848379373550415,-2.504098415374756,0.9935052394866943,1.4940428733825684,-0.24053357541561127,-0.33964526653289795,1.2292602062225342,0.2549620270729065,0.8516395092010498,0.39651232957839966,0.31901687383651733,0.36325716972351074,1.4183452129364014,-0.9112058281898499,0.03027225099503994,-0.5727514624595642,-1.4052523374557495,-0.4728235602378845,0.8756438493728638,-0.827862024307251,-0.161100372672081,1.8722617626190186,-0.7785541415214539,-1.2053385972976685,1.122405767440796,2.347170352935791,1.6480979919433594,0.5841621160507202,-0.5461435317993164,1.173932671546936,-1.0588109493255615,-0.620910108089447,-1.0414506196975708,2.5439493656158447,-0.3934749960899353,1.0108424425125122,2.350916862487793,-0.9180155396461487,-0.5888164639472961,0.5991639494895935,-0.8110190033912659,-1.885553002357483,1.2396519184112549,0.5544243454933167,-0.01624990999698639,2.166826009750366,-1.203121304512024,0.5761152505874634,0.21964354813098907,0.13746164739131927,0.2980315685272217,-1.680560827255249,0.09256316721439362,-0.15697528421878815,-0.07895376533269882,-0.5594112277030945
jester2.csv,0.10160726308822632,-0.5495609045028687,-0.3212171792984009,-0.8999046087265015,-1.1959340572357178,0.1834661215543747,-1.213173270225525,-0.17453134059906006,-0.2321292906999588,-1.1915202140808105,-0.2700531482696533,1.2356152534484863,0.9591587781906128,-0.8697625994682312,0.3610096573829651,0.8164269924163818,1.2968281507492065,0.6640204787254333,-0.39826151728630066,-1.5412311553955078,-0.4824855327606201,-1.7629889249801636,-1.782465934753418,-0.6782850027084351,0.12406377494335175,-0.0707743689417839,-0.8528906106948853,-1.2292553186416626,0.2545219659805298,0.26941612362861633,-0.18729104101657867,0.8599505424499512,1.6178628206253052,-1.8103342056274414,0.48092150688171387,-0.0011930792825296521,-1.5925543308258057,1.8700562715530396,-0.11683333665132523,0.011154172010719776,-0.6600603461265564,-1.7735915184020996,0.9950879216194153,-0.2246178537607193,-0.6927552223205566,-0.8271905779838562,-1.315481424331665,0.8608927130699158,0.0008582943701185286,1.3366955518722534,0.35919705033302307,-0.2715664207935333,-0.07149427384138107,0.32634666562080383,1.2655302286148071,0.4626728594303131,-0.34673166275024414,-0.306092768907547,1.1469917297363281,2.1084723472595215,0.5027117133140564,1.037925362586975,-1.3009719848632812,-0.010884081944823265,-0.32287412881851196,-1.9602890014648438,0.4684953987598419,-0.7389477491378784,1.109671950340271,-0.4446399211883545,0.9536907076835632,0.005182778928428888,0.06154710799455643,0.33034080266952515,0.715881884098053,-0.28683167695999146,0.34648680686950684,-0.18644782900810242,-1.2069661617279053,-0.2547113597393036,-0.05666280910372734,0.07021137326955795,1.2680846452713013,1.7828421592712402,-0.40389254689216614,0.6408610343933105,-0.6944243311882019,-0.9332789778709412,-1.1128201484680176,-0.7057331204414368,1.1702563762664795,-0.5304856300354004,-0.6853021383285522,1.571160078048706,-0.2760336399078369,0.2943163812160492,0.18341074883937836,-1.049378514289856,0.00016724075248930603,0.04354473203420639,-1.8028353452682495,-0.04087783768773079,0.46357110142707825,0.30806469917297363,-1.9171134233474731,-0.3752838671207428,-0.29301515221595764,3.067845344543457,-0.5524751543998718,0.5860390067100525,2.258460760116577,-0.7723442316055298,1.326111078262329,0.6022763848304749,0.6663005352020264,0.8472310304641724,1.4894722700119019,-1.30520498752594,-1.5702779293060303,-0.6382337212562561,-1.6846855878829956,0.9253882765769958,0.4572122097015381,-1.1031219959259033,1.533300757408142,-0.3524664044380188,-1.819618582725525,-0.8312242031097412,-1.0285615921020508,-1.7070503234863281,0.5211583971977234,0.3896038830280304,1.0086452960968018,-1.008383870124817,0.37563714385032654,-1.0200518369674683,0.4555816650390625,0.18908025324344635,-1.39945387840271,0.8936614990234375,-0.5489302277565002,-1.7188016176223755,-0.7098729610443115,0.3015888035297394,0.14098891615867615,-2.912336587905884,1.4674547910690308,1.4676827192306519,0.3727398216724396,-0.5053179264068604,0.16640232503414154,-0.038409095257520676,0.13741925358772278,2.029050588607788,0.3913434147834778,0.06233466416597366,0.05853588506579399,-0.26506876945495605,-0.6469299793243408,-0.9221388101577759,0.6224058866500854,0.862252950668335,0.15269878506660461,-0.472556471824646,-0.7551056146621704,0.6870372891426086,-1.3776096105575562,-1.1000843048095703,1.3011360168457031,2.2384285926818848,0.9489094018936157,0.532171368598938,0.8031679391860962,0.29944661259651184,-1.3155255317687988,-0.8589990139007568,-0.936836838722229,1.638045310974121,1.1062091588974,0.385548859834671,2.131558656692505,-0.07330898940563202,-0.022183692082762718,0.7488210201263428,0.3162291944026947,-1.4812201261520386,0.3220016658306122,-0.7234102487564087,-0.11682156473398209,1.8768948316574097,0.6308073997497559,0.4360860586166382,-0.2879219651222229,1.2236833572387695,1.2961945533752441,0.01367985736578703,-0.9390220046043396,0.01284119300544262,0.25791221857070923,1.4782735109329224
movielens100k.csv,0.2374868243932724,0.6105216145515442,-0.3161689043045044,1.4079172611236572,-0.6937392950057983,0.29291921854019165,-1.8494231700897217,0.42441463470458984,-0.6353381872177124,-1.2386724948883057,0.8721187710762024,1.537189245223999,-0.04763294756412506,-0.25364410877227783,-0.3024405539035797,-1.5906790494918823,1.3381826877593994,0.5907172560691833,-0.42107006907463074,-0.21269728243350983,-0.3992260694503784,-0.9393358826637268,-2.3687705993652344,1.5425866842269897,-0.0737236812710762,-0.15523873269557953,-1.9213224649429321,-1.2205970287322998,0.5871837139129639,-0.8959670662879944,0.6434454917907715,-0.19519592821598053,-0.16379263997077942,-0.9747340083122253,0.5933658480644226,0.3168566823005676,-1.3812304735183716,-0.18236567080020905,-0.5203417539596558,-1.1766157150268555,-0.909736692905426,-1.4741624593734741,0.3823973536491394,-0.7050451040267944,-0.3400682210922241,1.3290092945098877,-1.6668784618377686,0.649711012840271,0.848538875579834,0.711693525314331,1.1253374814987183,0.6141458749771118,-1.2710368633270264,1.5292673110961914,0.886680006980896,-0.48427680134773254,-0.0031786763574928045,-0.9797282814979553,0.22148288786411285,0.4596579074859619,0.7676717042922974,0.5928864479064941,-1.6093674898147583,1.1111674308776855,-0.2099153846502304,-1.1185356378555298,-0.5854180455207825,0.25260263681411743,-0.416037917137146,0.460103303194046,0.3616653084754944,-1.088839054107666,0.6232893466949463,0.34661993384361267,1.0961496829986572,-0.15002775192260742,0.01631881482899189,0.8079298734664917,-1.3375099897384644,1.1148642301559448,1.8981678485870361,-0.29186275601387024,0.6318515539169312,0.372591495513916,-1.1852649450302124,0.1572536677122116,0.4706608057022095,-0.4589708149433136,-0.17965920269489288,-0.4891076982021332,2.202662467956543,0.5983524918556213,-1.2096344232559204,1.7645453214645386,-0.3833028972148895,0.5974587202072144,1.4771002531051636,-0.09056846052408218,-0.39854246377944946,0.32782384753227234,-1.5970102548599243,-0.8256608247756958,0.5687066316604614,0.4586428999900818,-0.8484816551208496,-0.25423797965049744,-0.4391796290874481,1.114820122718811,-0.1452677845954895,1.4000473022460938,2.753861427307129,0.39059704542160034,-0.4692787230014801,1.0832844972610474,0.2106507420539856,0.3026886582374573,0.6411693096160889,-0.5414092540740967,-0.742505669593811,-0.7149931192398071,-0.6510629057884216,-0.05762862041592598,0.21426533162593842,0.5276787281036377,0.7851409912109375,-0.4670746624469757,-2.5670175552368164,-1.5115543603897095,1.0277312994003296,-1.4643704891204834,2.048579692840576,1.8256727457046509,1.2162072658538818,0.0846673846244812,-0.7796311974525452,-1.268419861793518,0.7042169570922852,-0.0030876025557518005,0.2902420163154602,-0.26053038239479065,-0.23342303931713104,0.6168115735054016,-0.9191749691963196,0.37236878275871277,-0.3401949107646942,-1.7717512845993042,1.4364113807678223,1.6144614219665527,1.258504033088684,0.4720013439655304,0.974064290523529,0.48138388991355896,0.7721929550170898,2.637162208557129,0.46255552768707275,1.2182891368865967,1.063445806503296,0.4243328869342804,0.91331547498703,-2.7499701976776123,-2.6445586681365967,1.1977286338806152,0.19470375776290894,-0.3367234170436859,0.17912481725215912,1.053065538406372,-1.769996166229248,0.19693370163440704,1.399591088294983,1.8676174879074097,0.5710773468017578,0.14963595569133759,-0.22801807522773743,-0.3658722937107086,-0.5450752973556519,-0.3539856970310211,-0.5923109650611877,1.6664466857910156,0.5451143980026245,-0.20950792729854584,1.141289234161377,-0.019361238926649094,1.0756556987762451,0.2311001867055893,-0.6088319420814514,-1.013649582862854,0.7743898630142212,-0.29255467653274536,-2.0065019130706787,0.9715854525566101,0.23436863720417023,0.02844916470348835,-0.041697658598423004,-0.2531242370605469,1.4610259532928467,-0.2653345763683319,-0.933432400226593,-0.0791022852063179,-0.3010255694389343,0.6331770420074463
amazon-clothes.csv,0.6162353754043579,-0.07912679016590118,1.2921867370605469,0.15615376830101013,0.2496175467967987,-0.7924095392227173,-0.8392375111579895,-1.6831626892089844,-0.6561819911003113,-1.1359046697616577,0.38414496183395386,0.6517364382743835,-0.8418320417404175,-0.2617059648036957,1.604743480682373,0.32933276891708374,0.6589624881744385,0.07352041453123093,-0.8239500522613525,-0.9626446962356567,0.2710757851600647,-1.6221946477890015,-0.9875491857528687,-0.9457108974456787,-0.4401755928993225,0.018478846177458763,0.26546916365623474,0.5345938801765442,1.227671504020691,-0.518674910068512,-0.8578876852989197,-1.0743446350097656,1.4495513439178467,-0.3534013032913208,0.3021504580974579,-0.747495174407959,-0.7694545388221741,1.5542511940002441,-0.5371230840682983,-1.8822323083877563,0.4637563228607178,-1.249192476272583,0.06415623426437378,-1.1770405769348145,0.06544391810894012,-0.19944573938846588,-0.8762521147727966,1.3252900838851929,0.9256529808044434,-0.22128501534461975,0.527080774307251,-1.1635754108428955,-0.8600555062294006,1.299191951751709,-0.6693704128265381,-0.683673620223999,-1.634413242340088,-1.3245888948440552,-0.00034867526846937835,2.064361572265625,0.7516419887542725,0.07171622663736343,-0.6433612108230591,0.4108821451663971,1.1041021347045898,-2.0496251583099365,-0.9538081288337708,0.7116559743881226,0.4668331444263458,-0.37453603744506836,0.12516330182552338,0.24366988241672516,-0.03172895684838295,0.04720879718661308,0.1373559683561325,-1.1028321981430054,0.4082428216934204,-0.48042723536491394,-1.4303139448165894,-0.03450367599725723,0.4647733271121979,-0.31891775131225586,-0.041044216603040695,1.9353431463241577,-0.09126006811857224,1.4522004127502441,0.5231974720954895,-0.8963783979415894,-1.8792393207550049,0.0004832702688872814,1.4642175436019897,0.35078713297843933,-0.6439492106437683,1.4278583526611328,-0.052327871322631836,1.45589017868042,0.29495641589164734,-0.145882248878479,-0.9802621006965637,-0.1686328649520874,0.0404716357588768,0.6353906989097595,-0.21448278427124023,-0.5081437826156616,-0.23597970604896545,0.39179062843322754,-0.11504831910133362,1.0028043985366821,-0.9628376960754395,1.2324903011322021,1.9301652908325195,0.31907880306243896,-1.0139226913452148,1.2320671081542969,0.2548253536224365,0.45316314697265625,1.5091339349746704,0.48834121227264404,-1.3920223712921143,0.6883755922317505,0.6076570153236389,0.6613503694534302,0.06298135221004486,0.742235004901886,0.42689839005470276,0.2447051852941513,-0.16208893060684204,1.3296092748641968,0.15749399363994598,-2.059194803237915,2.244020938873291,-0.08985382318496704,1.1586744785308838,-0.44397515058517456,-0.4121265709400177,-0.5726452469825745,-0.9359921813011169,-1.7903180122375488,0.48691415786743164,1.2844367027282715,-1.4968135356903076,0.1360529512166977,-2.3420932292938232,0.1209479570388794,0.179303377866745,-1.8126412630081177,0.2120020091533661,3.0000343322753906,0.3844447135925293,-0.3747789263725281,1.829330563545227,-0.012443682178854942,0.9089186191558838,1.7468841075897217,-0.10332745313644409,1.2470160722732544,0.9547312259674072,0.06574449688196182,0.9278339147567749,-0.44696977734565735,-0.05331011489033699,0.382752925157547,0.11393384635448456,-0.8638983964920044,-0.11413374543190002,0.5024294257164001,-1.0130388736724854,-0.8245115280151367,-0.5307289361953735,1.043522834777832,2.0852489471435547,1.6710888147354126,-0.565136730670929,-0.3016633689403534,-1.6097241640090942,0.19476790726184845,-1.6960278749465942,2.2729976177215576,0.7914829254150391,0.32849904894828796,0.00416079256683588,-1.4090344905853271,0.19916076958179474,2.084939956665039,-2.3147165775299072,-1.8462427854537964,0.12462878227233887,-0.37114661931991577,-0.522605299949646,1.1881965398788452,0.4349139928817749,1.3599238395690918,-0.9617011547088623,-0.31611400842666626,1.4385894536972046,1.1029716730117798,-0.32494860887527466,0.2743212878704071,0.846537172794342,-0.9862107038497925
yahoo-movies.csv,-0.48587164282798767,0.17249050736427307,1.3223443031311035,-0.2555370628833771,-0.19610458612442017,0.8785583972930908,-1.5264812707901,-0.5337830185890198,1.106943130493164,-1.6060734987258911,1.0766494274139404,0.063812255859375,0.7063696980476379,-1.2778630256652832,-0.48648133873939514,-0.012905125506222248,1.1355465650558472,0.14755196869373322,-0.2515068054199219,-0.9372276663780212,-0.21450433135032654,0.6099039912223816,-1.4727861881256104,0.6580829620361328,0.9725239276885986,0.159528449177742,-1.808032512664795,0.3395850360393524,1.4684780836105347,-0.25195541977882385,-0.20177067816257477,-0.10471044480800629,1.4199011325836182,0.5435217022895813,1.404657244682312,-0.07065465301275253,-0.8127402663230896,0.5713068842887878,-0.5342398285865784,-1.8647360801696777,-1.1366541385650635,-1.7417412996292114,0.23430217802524567,-0.31818661093711853,-0.504653811454773,-0.9404762983322144,0.5537622570991516,0.2698724865913391,-0.8338523507118225,1.6172678470611572,-0.3749094009399414,-0.11354992538690567,-0.8510201573371887,-0.5471106171607971,0.38682347536087036,-0.4202020764350891,-1.256003975868225,-0.01771187223494053,1.1128138303756714,0.34494295716285706,1.8212411403656006,0.2164348065853119,-0.7068393230438232,0.05282527953386307,0.8792062401771545,-1.2492175102233887,-0.6915911436080933,0.39245712757110596,1.4511827230453491,0.9460498690605164,0.8694682121276855,0.26810422539711,0.2733193337917328,0.412806898355484,0.6802601218223572,-0.028127092868089676,0.6156724691390991,1.0553760528564453,-0.8393739461898804,0.7582693696022034,0.7906206846237183,0.6396614909172058,0.9129421710968018,-0.9054244160652161,-0.8628309369087219,0.05652129277586937,-0.6104024648666382,-0.059169989079236984,-1.9893468618392944,0.3378610908985138,1.1503305435180664,-0.10495446622371674,-0.4593541920185089,0.9589508771896362,-0.709968626499176,1.6519235372543335,0.6027822494506836,-0.08922301232814789,-1.0628340244293213,0.22424529492855072,0.05169082432985306,0.5773594975471497,-0.28013530373573303,-0.8562420010566711,-1.323654055595398,-0.9927207231521606,0.7594664096832275,1.5520720481872559,-1.1408874988555908,1.2441781759262085,2.1952035427093506,0.8311058878898621,-1.3696436882019043,0.7790163159370422,0.6392812728881836,0.5125170946121216,0.8222548365592957,-0.34801599383354187,-0.023729972541332245,-0.3047746419906616,-0.6141236424446106,0.10422980040311813,1.3504233360290527,0.7225587368011475,0.6293246150016785,0.29197707772254944,-0.18560749292373657,-0.5186728239059448,-0.376150906085968,-1.9890213012695312,2.1667697429656982,0.4976639747619629,-0.009161891415715218,-0.500572681427002,-0.6180950403213501,-1.8716830015182495,0.10643462836742401,-1.8998085260391235,0.32074904441833496,1.4570149183273315,-1.1613341569900513,-1.0600088834762573,-2.0951502323150635,0.8742488622665405,0.9791556596755981,-2.4295880794525146,2.0624942779541016,2.293219566345215,1.028688907623291,0.1558840125799179,1.3760944604873657,-1.5284712314605713,0.5787487626075745,2.5197184085845947,-1.3222386837005615,0.6760311722755432,0.5507174134254456,-1.0337918996810913,0.7783723473548889,-0.11353976279497147,0.21373730897903442,1.0834730863571167,0.29549387097358704,0.45009541511535645,0.07048466056585312,1.1872981786727905,-0.3046022057533264,-1.7488577365875244,0.41492393612861633,1.9841382503509521,2.389437198638916,1.2522265911102295,0.2344360649585724,-0.9020504951477051,-0.7363395690917969,0.10511119663715363,-0.9392378330230713,0.996131181716919,-0.07553554326295853,0.647490382194519,0.863201379776001,-2.374894380569458,1.4268345832824707,-0.1796492487192154,0.09033370018005371,-0.572560727596283,-1.0885177850723267,-0.049790285527706146,-1.0634266138076782,-0.8024733662605286,0.2947114109992981,0.5650442838668823,-0.9662543535232544,-0.585433304309845,1.6890898942947388,-0.9883629083633423,-0.7400796413421631,-0.9921861290931702,-0.9709694385528564,0.5138970613479614
jester1.csv,-1.2065136432647705,-0.19030791521072388,-0.4228037893772125,0.3974009156227112,-0.7080073952674866,1.3701763153076172,-2.2142586708068848,0.30251726508140564,0.08121597766876221,-0.486860454082489,0.32314616441726685,0.9451829195022583,-0.5306554436683655,-0.3249344825744629,1.2123440504074097,0.6595092415809631,1.5396068096160889,0.18133549392223358,-1.7946960926055908,-0.5405437350273132,0.7767396569252014,-0.9220619201660156,-2.0177342891693115,-1.0950803756713867,-1.11891508102417,-0.8853543996810913,-0.8688057661056519,-1.42412531375885,0.11436062306165695,-0.3144212067127228,0.040761809796094894,-0.25078585743904114,0.8816725611686707,-0.3477155268192291,1.373928427696228,0.2295888364315033,-0.07749563455581665,0.34215402603149414,-0.8880005478858948,-1.23757803440094,-0.8041663765907288,-2.47005295753479,-0.2797103822231293,0.027184078469872475,0.6397591233253479,-0.48352086544036865,-1.2040159702301025,1.0146337747573853,-1.2235910892486572,1.9264200925827026,0.4436960220336914,-0.4409189224243164,-0.42685776948928833,0.564533531665802,0.22758999466896057,0.5556466579437256,-0.8141945004463196,0.7879666686058044,-0.19777484238147736,1.8745412826538086,0.4354903995990753,0.005981700960546732,-0.3156507909297943,-0.1957465261220932,0.8860504627227783,-2.5712804794311523,0.06540893763303757,-0.06158820539712906,0.02580626681447029,-0.14233389496803284,0.6261008381843567,0.2803545296192169,-0.04413239285349846,0.196480393409729,1.818434715270996,-0.5273394584655762,-0.0015168614918366075,1.0622738599777222,-0.28974780440330505,-0.14879606664180756,-0.17160585522651672,-0.15088990330696106,0.3328200578689575,0.8237473368644714,-0.2833452522754669,-0.6448456645011902,-0.9813381433486938,-0.7713007926940918,-1.4145267009735107,0.03168854862451553,2.5256152153015137,0.005951375234872103,-0.4157281517982483,0.929966151714325,0.5274242162704468,0.14279355108737946,0.23680151998996735,0.16531135141849518,0.18665125966072083,-0.15575428307056427,-0.9458418488502502,-1.8008760213851929,0.5071843862533569,0.5057823061943054,-1.9267253875732422,-0.019096925854682922,-0.07929614931344986,3.315789222717285,0.9782256484031677,1.756845474243164,3.1800007820129395,0.7063633799552917,-0.4472024738788605,0.7489685416221619,0.5516159534454346,0.9482813477516174,1.6092047691345215,-1.390586018562317,-0.41964858770370483,0.5607478022575378,-1.1381174325942993,0.4322020709514618,0.08665616810321808,0.8708848357200623,0.3053281307220459,-0.17805519700050354,-1.3842679262161255,-1.555175542831421,0.41818881034851074,-2.152315855026245,1.9033217430114746,0.9208303689956665,1.4319038391113281,-0.6617634892463684,-1.231266975402832,-1.3555176258087158,-0.2178097814321518,-0.9506102204322815,-0.057554397732019424,-0.07002700865268707,-0.1610850840806961,-0.17097052931785583,-2.3124353885650635,-0.9518369436264038,0.22596363723278046,-0.7901420593261719,1.5619754791259766,2.030022621154785,0.7184584736824036,-1.076255440711975,0.5821447968482971,0.2751215696334839,0.06972616165876389,1.9712053537368774,1.0440412759780884,0.7855926156044006,0.2836781442165375,-0.5476412773132324,0.07816145569086075,-0.905549168586731,-0.25211042165756226,0.5090227127075195,-0.011853206902742386,-0.31020089983940125,-1.3736144304275513,0.7603775262832642,-1.434207797050476,-1.232784390449524,0.8734668493270874,2.1935298442840576,0.9965819716453552,0.6669826507568359,0.7228306531906128,-0.22574441134929657,0.03120872937142849,0.1562594622373581,-1.587808609008789,1.380349040031433,0.4624492824077606,1.2961928844451904,0.7521907091140747,-0.6661216616630554,0.3034050762653351,0.9824997782707214,0.6274210214614868,-0.7581372857093811,0.1518358290195465,-1.6242233514785767,-0.6816739439964294,1.0824556350708008,-0.046006135642528534,0.4626863896846771,0.23495377600193024,-0.5915863513946533,0.8111116290092468,1.0088990926742554,-0.8389499187469482,0.07003358751535416,-0.49001237750053406,-0.2618224322795868
