amazon-health.csv,-2.167191982269287,1.4658598899841309,-0.6526226997375488,0.5062574148178101,-1.5024968385696411,1.1479257345199585,1.4554798603057861,0.5980010628700256,-0.22298544645309448,0.3855423629283905,0.012013830244541168,-1.4243505001068115,-0.6068593859672546,-0.7128511667251587,-0.8978837728500366,1.3720226287841797,0.05033351853489876,0.4838230311870575,1.1465380191802979,2.4114468097686768,-0.0879010334610939,1.224354863166809,0.051282573491334915,0.3299112617969513,-0.14236819744110107,-1.4443186521530151,1.606153130531311,-0.09755279868841171,1.4740900993347168,1.6506688594818115,1.0198945999145508,-0.701487123966217,0.20745214819908142,-0.39161086082458496,-0.8434727787971497,1.3524458408355713,1.0810853242874146,0.20075483620166779,0.19361400604248047,-0.7016183137893677,0.1696276217699051,-0.6190587282180786,0.7672643661499023,1.030658483505249,-0.1733422428369522,-0.048426467925310135,0.6632484197616577,0.3538275957107544,1.285615086555481,-1.3151891231536865
amazon-garden.csv,-2.0922555923461914,-0.0153115913271904,-1.5619654655456543,-0.2717793881893158,-1.656745195388794,1.188981533050537,1.2260229587554932,1.5530706644058228,-0.2795764207839966,-0.35028064250946045,1.4181578159332275,-1.7664841413497925,-0.7852838039398193,-1.4980778694152832,-1.5871737003326416,0.43121156096458435,-0.33509472012519836,0.4478730261325836,1.6916825771331787,0.8634499311447144,-0.43196189403533936,1.2610890865325928,-0.11703765392303467,0.3986150026321411,-1.823336124420166,0.11596430093050003,0.2956680357456207,0.30278584361076355,0.7148051857948303,0.9705519080162048,1.208551287651062,-0.13965150713920593,-0.1418776661157608,0.343548983335495,-1.1799951791763306,-0.21038098633289337,0.6284602880477905,0.31989774107933044,0.5834832787513733,0.18127037584781647,-0.025859279558062553,-0.9747909903526306,0.990224301815033,1.1276131868362427,-0.5935024619102478,0.81902015209198,1.7588253021240234,1.2765933275222778,0.5659698843955994,-0.3190479576587677
amazon-kindle.csv,-1.3825390338897705,0.1713273823261261,-0.9947272539138794,-0.07866000384092331,-1.1261013746261597,0.06346552073955536,1.0906744003295898,1.3316166400909424,-1.6327725648880005,0.5985115766525269,1.3745205402374268,-1.1980477571487427,-0.5719606280326843,-1.4959160089492798,-0.5976754426956177,1.9379093647003174,0.06631511449813843,1.7134467363357544,1.7249524593353271,1.2827033996582031,2.6168670654296875,1.3252352476119995,0.10437974333763123,-0.18694418668746948,-0.39731597900390625,-0.8425520062446594,1.3781377077102661,-0.17561320960521698,-0.4778768718242645,0.31185346841812134,0.46089547872543335,0.7316448092460632,1.003723382949829,0.055842943489551544,-0.07130023092031479,-0.07569210231304169,0.3721129894256592,0.2493913769721985,0.4570607542991638,0.6467887163162231,-0.193866565823555,-1.1924132108688354,1.314392328262329,0.6049066781997681,-0.20955346524715424,0.2585437297821045,1.0935442447662354,0.3728529214859009,1.0741742849349976,-1.3107831478118896
yelp.csv,-1.8477662801742554,0.13992103934288025,-1.660733699798584,-0.6382526159286499,-1.4631521701812744,1.3863834142684937,0.15393595397472382,0.84044349193573,0.18067492544651031,-0.16592590510845184,-0.013994279317557812,-0.5362346768379211,0.9218094944953918,-0.8915591835975647,-0.2550715506076813,1.1642817258834839,-0.8449805378913879,1.15823233127594,1.3759593963623047,1.053179383277893,0.9390485882759094,1.1181293725967407,-1.235757827758789,0.5641133785247803,-0.9822731614112854,-0.3846950829029083,0.7992706298828125,-0.25764384865760803,1.4472079277038574,1.2210369110107422,0.7381296157836914,-0.40858015418052673,0.07787435501813889,0.7203006148338318,-1.6841285228729248,1.1739991903305054,0.6882060766220093,-0.37599048018455505,0.558814287185669,0.027794452384114265,0.6467482447624207,-0.6670342087745667,2.5202882289886475,0.14186401665210724,0.7191908359527588,-1.0420781373977661,1.4938347339630127,0.9746054410934448,0.6302193999290466,-1.399935245513916
amazon-clothes.csv,-1.920862078666687,-0.7007359266281128,-1.3693431615829468,1.0147806406021118,-0.9712131023406982,0.11476722359657288,1.504522681236267,0.9367138147354126,-0.14966736733913422,-0.35061851143836975,0.7537541389465332,-2.0347518920898438,0.47280648350715637,-0.39558103680610657,-0.48723798990249634,0.49633491039276123,0.12268628925085068,1.2507057189941406,2.1688718795776367,1.2576805353164673,0.677824854850769,0.36832064390182495,-0.12933427095413208,-0.006055907346308231,-0.9747769236564636,-0.4721969962120056,0.46306952834129333,-0.06324179470539093,0.053023286163806915,1.2629882097244263,1.4188196659088135,-1.1161835193634033,1.3274586200714111,0.20800918340682983,-1.7113690376281738,0.8984077572822571,1.3344027996063232,0.06214812770485878,1.2976176738739014,0.7170043587684631,-0.4092628061771393,-0.91965651512146,0.8961158990859985,0.8146577477455139,-0.5578116774559021,0.42492932081222534,0.9533541798591614,1.2104246616363525,1.175339937210083,-1.4571213722229004
amazon-pet-supplies.csv,-0.6763026714324951,-0.681755006313324,-1.3601019382476807,-0.2475828379392624,-1.116883397102356,0.5004183650016785,0.3523813784122467,0.24693864583969116,-0.7588034272193909,-0.732783854007721,0.2554212808609009,-1.9372659921646118,0.39234450459480286,-1.4089431762695312,0.6063781976699829,1.3785654306411743,0.00281930691562593,1.3048110008239746,2.1045641899108887,1.6450800895690918,-0.3568601608276367,-0.4019680917263031,0.7072464227676392,0.0066207051277160645,-1.5798078775405884,0.07316888868808746,1.689899206161499,-0.1487131416797638,-0.18954956531524658,0.7750860452651978,2.053184986114502,-0.37406930327415466,1.1034324169158936,1.0575942993164062,-1.4842846393585205,0.2974702715873718,0.7279938459396362,-0.44717177748680115,0.2770344614982605,0.21658170223236084,-0.4510161578655243,-0.6890767216682434,1.1211178302764893,1.0351183414459229,0.11702029407024384,0.4242036044597626,1.2641191482543945,1.8822211027145386,0.5274906754493713,-1.4305801391601562
jester2.csv,-2.3304226398468018,0.8806823492050171,-0.9948468804359436,-0.5071976780891418,-0.5694155097007751,1.5149742364883423,0.6613064408302307,2.051015615463257,0.5432150363922119,-0.4513229727745056,-0.0752175971865654,-0.8536514639854431,1.3541326522827148,0.1699327975511551,-0.8535658121109009,0.411149799823761,0.557342529296875,1.4300296306610107,1.6890573501586914,1.8468661308288574,-0.41506755352020264,0.36366304755210876,0.6529484987258911,-0.7285755276679993,-1.4053887128829956,-0.8210892081260681,0.10578946024179459,0.5197350382804871,-0.22054918110370636,0.9993869066238403,0.4758851230144501,-0.47571733593940735,1.286319613456726,0.2706073224544525,-0.7171235084533691,-0.2078927755355835,1.1763347387313843,0.2544381320476532,-0.592298686504364,0.46429237723350525,-0.34037765860557556,-0.106448233127594,3.008641481399536,0.9365137219429016,-0.23017483949661255,0.16502217948436737,1.210227370262146,0.6223512291908264,0.7890397906303406,-0.2583644986152649
movielens20m.csv,-2.213400363922119,0.26864364743232727,-0.9388568997383118,0.1933516412973404,-1.187057614326477,1.8132117986679077,0.8799989223480225,0.7300706505775452,-1.5711919069290161,-0.3899059295654297,0.4719274640083313,-0.04550367221236229,0.07520059496164322,0.8147181868553162,-0.41282907128334045,1.063881516456604,0.409706711769104,1.747757077217102,0.8461846709251404,2.531578540802002,0.05771574378013611,0.3372291922569275,-0.3795549273490906,-0.6564736366271973,-1.275314211845398,0.6587015986442566,-0.036459166556596756,-0.4395116865634918,1.332363247871399,1.6557881832122803,-0.45359572768211365,0.565768837928772,0.8700003623962402,0.3746648132801056,-1.8846983909606934,-0.6830325722694397,1.9005391597747803,0.9913439750671387,0.005626471247524023,-0.10083875060081482,-0.33983346819877625,-0.8129820227622986,0.9466069936752319,0.78358393907547,-0.20483829081058502,0.22318287193775177,0.43327441811561584,1.4998821020126343,-0.10580121725797653,-0.7769979238510132
amazon-automotive.csv,-2.471526622772217,-0.22070449590682983,-0.7451525330543518,-0.12538133561611176,-0.1049220860004425,1.4886194467544556,0.22766701877117157,0.8829260468482971,-1.2071229219436646,-0.2076667845249176,0.49486616253852844,-1.8555885553359985,0.06850707530975342,-1.3811254501342773,-1.5275682210922241,1.0428650379180908,-0.5784651637077332,0.3713647127151489,1.186030387878418,1.9336447715759277,0.6083195209503174,-0.2311893254518509,-0.2678620517253876,0.18765538930892944,-0.36346006393432617,0.033104512840509415,2.563584566116333,-0.3216055631637573,-0.6225075125694275,0.976494312286377,1.5491122007369995,-1.0708435773849487,0.993100106716156,0.219609335064888,-0.957899272441864,1.242567777633667,1.7629451751708984,-0.22563974559307098,-0.11627291887998581,0.14471684396266937,-0.042451102286577225,-0.766320526599884,0.5841427445411682,0.6005938053131104,-1.1992950439453125,0.7807996273040771,0.051415976136922836,0.48692211508750916,0.29819798469543457,-1.2207176685333252
amazon-movies.csv,-2.438875198364258,-0.13901188969612122,-0.3328806161880493,1.5535895824432373,-1.648073673248291,0.17886462807655334,0.8964727520942688,-0.21989664435386658,0.36124956607818604,-0.28756967186927795,0.49155473709106445,-1.0036506652832031,0.7811054587364197,-0.3358461856842041,-0.7318708300590515,1.0888885259628296,0.024685168638825417,0.9993055462837219,2.7954044342041016,2.185602903366089,0.7455847859382629,0.9581870436668396,-0.2809256315231323,0.16526736319065094,-1.0919673442840576,-0.1884586662054062,1.4256563186645508,-0.09491914510726929,1.5806257724761963,1.0048644542694092,0.709442138671875,-0.22081869840621948,0.1524762064218521,0.23074454069137573,-0.7743298411369324,-1.5364285707473755,0.7804057598114014,0.0020022718235850334,-0.7503111958503723,0.8112432956695557,0.5218470096588135,-0.49935755133628845,0.35898539423942566,0.25917312502861023,-0.5984718799591064,0.8810004591941833,1.0574315786361694,1.806709885597229,0.5934715270996094,-0.21889656782150269
amazon-office.csv,-2.1594979763031006,0.23201674222946167,-0.9848129749298096,-0.14051377773284912,-0.44506320357322693,1.4817445278167725,1.1070752143859863,0.28278812766075134,-0.6838536262512207,0.4829878807067871,0.5111302137374878,-2.36498761177063,0.9259775876998901,-0.2408815324306488,-0.8112963438034058,0.7415722012519836,-0.9624612331390381,1.017754077911377,1.6992789506912231,0.9549028277397156,0.11538625508546829,0.22273218631744385,-0.047956399619579315,0.5293334126472473,-1.0793920755386353,-0.401337593793869,0.6966691017150879,0.5468844175338745,0.8795000314712524,0.9081370234489441,0.7568439841270447,0.7280678749084473,-0.436008483171463,-0.5973960161209106,-2.1892306804656982,-0.8411344289779663,0.3047124445438385,0.6799756288528442,0.21613837778568268,0.9487064480781555,-0.8666256666183472,-0.7162297964096069,1.2661900520324707,0.890844464302063,-1.365326166152954,1.3715486526489258,1.5755069255828857,0.3186649680137634,1.381859302520752,-1.2440434694290161
movietweetings_recsys2014.csv,-1.3279967308044434,0.6132621169090271,0.18710269033908844,0.20657655596733093,0.03728361800312996,-0.0300187636166811,0.5256022214889526,0.8527722954750061,-0.05467822775244713,-0.6080595254898071,0.7308072447776794,0.2952275574207306,-0.458609402179718,-0.6251186728477478,-1.2909055948257446,-0.22480441629886627,-0.9041482210159302,2.065659284591675,1.54086172580719,2.9613325595855713,0.9177711606025696,-0.6185117363929749,-0.3575417399406433,-0.04775360971689224,-1.0891772508621216,-1.460414171218872,1.3031744956970215,1.0359348058700562,-0.11683196574449539,1.6697696447372437,0.8466084599494934,0.9229270219802856,0.6190987825393677,0.6066669225692749,-1.3109219074249268,-0.2816857099533081,0.6659572124481201,0.8399595618247986,0.6267917156219482,0.9868990778923035,-0.775087296962738,-1.0810811519622803,1.479946255683899,-0.005231508053839207,-0.8692688941955566,0.4259883463382721,1.3364657163619995,1.7043951749801636,-0.823178231716156,-0.30030688643455505
amazon-games.csv,-2.146637201309204,0.6852887272834778,-0.22240470349788666,1.1340411901474,-1.7553596496582031,0.7752799391746521,0.8930939435958862,0.4192405641078949,-0.08686093986034393,0.5344945192337036,-0.19181109964847565,-0.5520637631416321,-1.039377212524414,-1.0285725593566895,-0.6595531702041626,1.140828013420105,0.893140971660614,1.4538053274154663,1.5246554613113403,1.563420295715332,-0.3311654031276703,-0.05255390331149101,-0.7731940150260925,0.23301416635513306,-0.07754050940275192,0.5744955539703369,-0.20293843746185303,1.0871286392211914,0.915241539478302,1.820643424987793,1.4729936122894287,-0.6396538019180298,-0.43735334277153015,-0.1279578059911728,-1.3251712322235107,0.4636530578136444,0.1975432187318802,-0.4433912932872772,0.8036410212516785,1.2371898889541626,0.13369764387607574,-0.06595002859830856,0.9113488793373108,0.40569522976875305,-0.8612925410270691,0.7604317665100098,1.9862688779830933,0.8324853777885437,0.7857887744903564,-2.345737934112549
amazon-cd.csv,-1.2535545825958252,1.0922939777374268,0.06518038362264633,0.2650825083255768,-0.9564117789268494,1.1824815273284912,0.480141818523407,1.1093223094940186,-0.48023301362991333,0.04309481754899025,0.2985743582248688,-2.1800107955932617,0.7221378684043884,-0.7962716221809387,0.04391120746731758,1.345776081085205,-0.8944799900054932,1.5970287322998047,2.664214611053467,1.2170594930648804,-0.05780395120382309,-1.1270636320114136,-0.8482599258422852,0.05954602360725403,-2.396817922592163,-0.16481220722198486,0.4827331304550171,-0.35999688506126404,0.9976618885993958,0.7652917504310608,1.2785290479660034,0.5359011292457581,0.44297873973846436,0.7862619161605835,-1.1157654523849487,1.3003724813461304,1.286271572113037,0.40309953689575195,0.24774153530597687,1.5139564275741577,0.12131030857563019,-0.29917430877685547,0.2666938900947571,0.4847610294818878,-0.8212693929672241,-0.694402277469635,0.672411322593689,1.2978293895721436,0.3880465626716614,0.07361885160207748
amazon-baby.csv,-3.0926806926727295,0.4755327105522156,-0.3336154818534851,-0.5686311721801758,-2.002641439437866,1.0100637674331665,1.9204508066177368,0.9127941131591797,-0.8023962378501892,0.26220354437828064,-0.1066238060593605,-1.2122676372528076,0.08209399878978729,-0.6957584023475647,0.24092920124530792,1.0378265380859375,0.368476539850235,1.6491607427597046,1.125557780265808,1.6927515268325806,0.16799797117710114,-0.3744131922721863,-0.7510014176368713,0.12398724257946014,-0.6836086511611938,-0.063478983938694,1.1475385427474976,0.2330228090286255,-0.2687166631221771,1.6112306118011475,0.6425666213035583,0.4059852063655853,0.3753240704536438,0.2547075152397156,-0.9340208172798157,-0.024179495871067047,-1.011840581893921,0.34016069769859314,0.46774008870124817,-0.26311951875686646,-0.4761897325515747,-1.1516060829162598,1.7782976627349854,0.8375658988952637,0.222013920545578,0.4790079891681671,1.0911422967910767,1.1476808786392212,1.4983799457550049,-0.7900229096412659
amazon-instruments.csv,-2.432359457015991,0.9000190496444702,-0.8738258481025696,-0.1985335797071457,-1.1902744770050049,0.3831624388694763,1.0420210361480713,0.5155552625656128,-0.6371434926986694,-0.33283498883247375,0.5718632340431213,-1.771908164024353,-0.512026309967041,-0.5033697485923767,-0.9393590092658997,0.49414604902267456,-0.050748106092214584,1.0029842853546143,2.3537938594818115,1.9054607152938843,0.21280427277088165,0.21491296589374542,0.3090350329875946,0.6226328015327454,-0.9253125190734863,-1.4088406562805176,1.8704568147659302,-0.05821320787072182,0.6110290288925171,0.27545928955078125,0.4780644476413727,0.7817524075508118,-0.09462571144104004,-0.3434993624687195,-0.8010274171829224,0.5361948013305664,0.8827859163284302,0.726030170917511,1.1544305086135864,-0.10558748990297318,-0.4156537353992462,-0.49543213844299316,0.6744328141212463,1.3199468851089478,-1.3247551918029785,0.4577731788158417,1.6708478927612305,0.5999186635017395,0.8171630501747131,-1.8541741371154785
tripadvisor.csv,-1.7162944078445435,0.13967563211917877,-1.3063420057296753,0.29862678050994873,-1.663722276687622,0.2061060518026352,0.8061237335205078,0.7565172910690308,-0.3670983612537384,-0.3631860613822937,0.8920917510986328,-1.5057557821273804,0.7237979173660278,-0.4492592215538025,-0.31118232011795044,0.8076437711715698,-0.41690167784690857,1.7084959745407104,2.0468292236328125,1.5517939329147339,0.4653349220752716,0.5512109994888306,-0.16073915362358093,0.2570338845252991,-1.5142085552215576,0.02941630408167839,0.6867058277130127,1.2492469549179077,1.0265357494354248,-0.0011951914057135582,0.9184872508049011,-0.40601062774658203,-0.15408432483673096,-0.7973639965057373,-1.1349433660507202,1.3448817729949951,1.462156891822815,-0.9170123934745789,-1.3918356895446777,0.49195683002471924,-0.024804383516311646,-1.5622447729110718,0.762877345085144,1.2909411191940308,-1.0765401124954224,0.7372897267341614,1.820617437362671,0.9613135457038879,-0.08054211735725403,-0.39904844760894775
jester1.csv,-2.7844905853271484,-0.7048904895782471,-1.885311245918274,-0.22360104322433472,-0.0717218741774559,0.6120409965515137,1.0293958187103271,0.8565655946731567,-0.5525621175765991,1.2301273345947266,-0.4706707298755646,-1.2044217586517334,-0.3644751310348511,-0.2499171495437622,-1.051426887512207,0.6976801156997681,-0.4919590353965759,2.257791757583618,1.1050103902816772,1.3015071153640747,-0.5705481171607971,-0.017497042194008827,-0.8814487457275391,-1.1756919622421265,-1.37356698513031,-0.5387901067733765,0.3192695379257202,0.668562650680542,1.2412676811218262,0.8179277777671814,1.2899808883666992,0.085263691842556,1.6649317741394043,0.6840842366218567,-0.8035477995872498,-0.703394889831543,1.5498689413070679,0.38252148032188416,-0.31170564889907837,0.09144420176744461,-0.18928596377372742,-0.10502677410840988,2.0263497829437256,0.7025572657585144,0.02683155983686447,0.09098844230175018,0.9797674417495728,0.4183065891265869,0.3919595777988434,-0.6073830127716064
movietweetings_latest.csv,-1.0849531888961792,-0.12963813543319702,-0.46075013279914856,-1.0022705793380737,-1.0933527946472168,0.28201550245285034,1.3158692121505737,1.3143287897109985,-0.6746597290039062,-0.5075913071632385,1.0372947454452515,-0.28659167885780334,1.5269620418548584,-1.2667940855026245,-0.15471847355365753,-0.04028449207544327,-1.8458142280578613,1.5776185989379883,1.361378788948059,3.351874589920044,-0.34372207522392273,0.17176061868667603,-1.1389459371566772,0.23904894292354584,0.03708919510245323,0.1554909646511078,-0.35729193687438965,-0.6900125741958618,0.5442140698432922,-0.04401618242263794,1.0904183387756348,-0.9777543544769287,0.6326985955238342,-0.21808144450187683,0.5172459483146667,0.1587812453508377,0.44968289136886597,1.66688072681427,0.5107706785202026,0.8795305490493774,-0.33406737446784973,-0.06160261482000351,0.6546866297721863,0.3371337056159973,0.5489065647125244,0.3544442355632782,1.7935534715652466,1.6146302223205566,0.28398820757865906,-1.3110209703445435
amazon-toys.csv,-2.321462869644165,0.8203621506690979,-1.5014557838439941,0.45892760157585144,-0.8169947862625122,0.26239123940467834,-0.5438383221626282,1.3260431289672852,-1.1608392000198364,0.8423111438751221,0.4182380437850952,-0.279251366853714,0.30525898933410645,-1.6967054605484009,-0.5352738499641418,0.9565578699111938,-0.4009510576725006,-0.5211783051490784,2.257006883621216,1.7931216955184937,0.22171835601329803,0.9042503237724304,-1.1934694051742554,0.16787558794021606,-1.1356208324432373,0.23283779621124268,1.7053834199905396,0.6143082976341248,-0.1530163437128067,0.8635339736938477,0.2198987454175949,-0.5372362732887268,0.811954915523529,-0.12727537751197815,-0.7642332315444946,0.06989136338233948,1.2655606269836426,0.590052604675293,0.5181371569633484,0.21809501945972443,-0.013337753713130951,-0.5466644763946533,1.0389904975891113,1.814094066619873,-0.6812964677810669,-0.41738811135292053,1.6890941858291626,1.4002150297164917,0.7646515965461731,-1.0796797275543213
bookcrossing.csv,-1.4293849468231201,0.7945045232772827,-1.759866714477539,1.1498907804489136,-1.139573097229004,0.6242762207984924,1.6930805444717407,0.03135038539767265,-0.647956907749176,0.1278095245361328,0.15460234880447388,-1.071419596672058,0.931812584400177,-0.10680708289146423,-1.6335558891296387,0.8425865769386292,-0.6604480743408203,1.2952197790145874,0.823570728302002,1.1813844442367554,-0.17061296105384827,0.2677924633026123,-1.062349557876587,-0.3651577830314636,-1.1136534214019775,0.4386178255081177,2.280198812484741,-1.2286566495895386,-0.13369791209697723,0.46410873532295227,0.6016271710395813,-0.1390497386455536,0.3531778156757355,0.34149494767189026,-1.179608702659607,-0.10891928523778915,0.7846269011497498,-0.6438642144203186,1.0270705223083496,1.3767569065093994,-0.43171918392181396,-1.7685447931289673,0.9709557294845581,0.9837448596954346,-0.7345429062843323,-0.7083466649055481,1.5795971155166626,0.7377780675888062,1.4267864227294922,-1.1006121635437012
amazon-digital-music.csv,-1.5671559572219849,0.5873361825942993,-1.2553292512893677,-0.18273279070854187,-1.5485824346542358,1.1527159214019775,0.9303100109100342,0.2594352066516876,-1.4092084169387817,-0.4811449944972992,0.7181373834609985,-1.4884636402130127,0.9024385809898376,-0.6357083916664124,-1.459635615348816,1.3850654363632202,0.17676712572574615,1.3603131771087646,0.4701355993747711,1.4948402643203735,0.40384578704833984,0.7313608527183533,-0.8261101841926575,-0.39716780185699463,-1.9628206491470337,0.0660124123096466,2.21264386177063,0.5673007369041443,0.22896505892276764,0.9340090155601501,1.0048977136611938,-0.05214522406458855,-0.2585875988006592,1.041079044342041,-0.5991889834403992,0.7116562128067017,0.3291149139404297,0.4578618109226227,0.10859999060630798,0.27726858854293823,0.5093786120414734,-1.2156805992126465,1.108460783958435,0.45950040221214294,-0.4559570848941803,0.7144814133644104,1.584910273551941,0.14882320165634155,0.9409372210502625,-2.022085666656494
amazon-phones.csv,-2.003613233566284,1.23690664768219,-0.48248887062072754,-0.9955435991287231,-1.2083755731582642,1.325307846069336,0.5859758257865906,0.7530133724212646,-0.8242572546005249,-0.1338094174861908,-0.1607009917497635,-0.8388308882713318,-0.27731290459632874,-0.279354453086853,-0.8832125663757324,1.8306739330291748,-0.552787184715271,1.8033004999160767,0.9889048933982849,1.7812236547470093,1.5280574560165405,-0.1283266246318817,0.013640396296977997,-0.35855814814567566,-1.039162278175354,0.1523766666650772,0.6043291687965393,-0.11277586966753006,1.1565977334976196,0.6107981204986572,2.135308027267456,0.3895716667175293,1.0088562965393066,0.2138921171426773,-0.9822689890861511,-0.8015615344047546,-0.12664321064949036,0.4810320734977722,0.8349212408065796,0.8771884441375732,0.5714597105979919,-1.2331619262695312,-0.026667244732379913,1.3533656597137451,-0.9186217188835144,1.5520212650299072,1.3128944635391235,-0.7200764417648315,0.24036778509616852,-1.2973219156265259
amazon-beauty.csv,-0.9521932005882263,-0.07525239139795303,-1.802791953086853,-0.060333363711833954,-1.6858009099960327,1.5857975482940674,0.5183879137039185,0.701362133026123,-0.9008321762084961,-0.3517346978187561,-0.2219754308462143,-3.0068821907043457,-0.5276505351066589,-0.7954437732696533,-1.0795204639434814,0.42769521474838257,0.03197002038359642,1.2737047672271729,1.1186779737472534,1.7472271919250488,0.44063350558280945,-0.8132131695747375,-0.10653211176395416,0.21464508771896362,-0.8216348886489868,-0.20648448169231415,0.9024382829666138,-0.7087452411651611,-0.4542258083820343,0.3433710038661957,1.1034623384475708,-0.8797342777252197,0.7281525731086731,0.9823483228683472,-1.8053264617919922,0.4700371325016022,-0.7272161841392517,1.2387375831604004,-0.061380185186862946,0.543796718120575,-0.15073059499263763,-0.8105265498161316,0.88674396276474,0.7182050943374634,-0.4358903169631958,1.549274206161499,1.780730128288269,0.6727968454360962,-0.05274278298020363,-0.8390728235244751
flixter.csv,-1.7934550046920776,-0.1743638813495636,-1.8200106620788574,0.47249773144721985,-0.3720402419567108,-1.0876895189285278,0.8653512597084045,2.21755051612854,-0.23763489723205566,-1.1580826044082642,0.8538849353790283,-1.1608463525772095,0.3794243037700653,0.2892957627773285,-0.16289900243282318,0.06352140754461288,1.0050278902053833,-0.01927563175559044,0.7828666567802429,2.3900551795959473,-0.784677267074585,0.7526456713676453,-1.383976697921753,-0.5968584418296814,-0.6326627731323242,-0.3834749460220337,0.3451983332633972,0.6056665778160095,1.1192125082015991,0.6339592933654785,2.081934690475464,1.1251239776611328,0.9000604748725891,0.8627857565879822,-0.9170200824737549,-0.8777309656143188,0.44737082719802856,0.17719583213329315,1.1183868646621704,0.48614150285720825,1.476579189300537,-0.2984056770801544,1.7351059913635254,-0.12837159633636475,-0.044779255986213684,1.4047781229019165,0.8054996728897095,0.2944810092449188,-0.7209116816520691,-0.08794510364532471
amazon-sports.csv,-2.4293718338012695,0.18154101073741913,-1.2029834985733032,0.2666197717189789,-1.8821803331375122,0.8774349093437195,1.703940987586975,1.1291725635528564,-1.6762886047363281,0.7444513440132141,0.3354446589946747,-1.4438494443893433,0.4060747027397156,-0.16854912042617798,-1.0261691808700562,0.8821031451225281,-0.5460861921310425,0.744269847869873,1.413653016090393,1.8870038986206055,0.41240906715393066,0.21634739637374878,-0.23033082485198975,0.04062897339463234,-1.0768424272537231,-1.145341396331787,1.338250756263733,-0.0054487911984324455,0.8301841616630554,1.0200554132461548,0.7557733058929443,-0.5168414115905762,-0.1292969435453415,0.11369987577199936,-1.4632315635681152,0.32847100496292114,0.5667822957038879,-0.9257835745811462,1.454628586769104,0.18676842749118805,0.5989305973052979,0.1770797073841095,1.0743002891540527,0.6327170729637146,-0.1947006732225418,1.2801905870437622,1.576183795928955,0.4436394274234772,0.5479358434677124,-0.8639574646949768
amazon-apps.csv,-1.9086254835128784,1.691240668296814,-0.18804170191287994,0.4386565089225769,0.2706928253173828,1.2562693357467651,0.8348759412765503,0.6366910934448242,-1.2034955024719238,0.4107169806957245,0.16490429639816284,-1.4416946172714233,0.925101637840271,1.1906142234802246,0.24835416674613953,0.5720354914665222,0.22034984827041626,1.96620774269104,1.6373178958892822,1.3937078714370728,0.1077268123626709,2.1152002811431885,-0.6301968097686768,0.655409038066864,-1.5828670263290405,-0.09726524353027344,1.6848872900009155,-0.012699074111878872,-0.3159174919128418,1.4988231658935547,1.7010736465454102,0.05661753937602043,0.14558465778827667,0.39655429124832153,-0.25536686182022095,0.5516863465309143,0.7612554430961609,0.48048272728919983,0.6408406496047974,0.019039951264858246,-0.7151322960853577,-0.21640145778656006,0.7232581973075867,-0.163292795419693,0.717698872089386,0.7364993095397949,1.8899452686309814,0.22362004220485687,0.8904837369918823,-1.154603123664856
yahoo-music.csv,-1.6163806915283203,-0.8367074728012085,-0.45566385984420776,-0.5229294896125793,-1.0570310354232788,1.38882315158844,0.38552728295326233,1.5686347484588623,1.3230702877044678,-0.3777291774749756,0.21786168217658997,-1.215625524520874,-0.17260612547397614,-0.36678874492645264,-0.07211162149906158,0.3497067093849182,-0.7164034247398376,1.2725780010223389,1.0476925373077393,2.0706708431243896,0.2233642041683197,1.173214077949524,-0.9615084528923035,-1.998177170753479,-1.74990713596344,0.4555750787258148,1.3407082557678223,-0.35432735085487366,0.8616374135017395,0.8392689824104309,0.2644132673740387,-0.3618091642856598,2.491140842437744,-0.5482420921325684,-1.4977298974990845,0.4661782383918762,-0.21995092928409576,-0.842316746711731,0.29128384590148926,-0.0401296429336071,-0.4524502158164978,-1.018737554550171,0.6082401275634766,0.23976504802703857,0.357131689786911,0.34385690093040466,1.9203892946243286,0.766518235206604,0.22272245585918427,-0.29424265027046204
movielens_latest.csv,-2.056544780731201,-0.9698855876922607,0.08063419163227081,-0.29065796732902527,-1.2825332880020142,0.22879299521446228,2.05351185798645,2.274543523788452,0.11948754638433456,-1.4818822145462036,-0.22463488578796387,-0.07908068597316742,0.14449343085289001,0.06981012970209122,-0.957461416721344,1.5041500329971313,-0.417079359292984,0.9607378244400024,0.82796311378479,0.553205132484436,-0.1655208170413971,-0.4585013687610626,-0.6787056922912598,0.7662820219993591,-0.8360379934310913,0.05811211094260216,1.7261966466903687,-0.1041322723031044,0.6280971169471741,0.8338038921356201,1.4233921766281128,-0.47483861446380615,0.829713761806488,0.3048061728477478,-0.8682332634925842,-0.9940342903137207,1.2958343029022217,0.31700074672698975,-0.7217876315116882,-0.20383040606975555,-0.6325618028640747,-0.4939178228378296,0.2316637486219406,0.4185636341571808,-0.680168092250824,-1.396369218826294,2.889970064163208,0.8461913466453552,0.7284924983978271,-0.14701838791370392
amazon-instant-video.csv,-2.5584304332733154,1.0564689636230469,-0.27011266350746155,0.2840626835823059,-1.434415578842163,0.5590347051620483,0.7200549244880676,0.2786499857902527,-1.2700117826461792,-0.4056096076965332,0.662233293056488,-1.5428041219711304,0.392657995223999,-1.1588420867919922,-1.3856760263442993,2.3812520503997803,-0.6320235133171082,1.457585096359253,1.1756035089492798,1.2129871845245361,-0.40919750928878784,-0.504669189453125,-1.1338640451431274,-0.5839097499847412,-0.25855568051338196,-1.4415216445922852,1.2204591035842896,-0.12794245779514313,0.4808584749698639,1.6773828268051147,0.6966784596443176,-0.03513447940349579,0.5952242612838745,-0.8901022672653198,-0.6941331624984741,0.39737242460250854,0.273124635219574,0.06011234223842621,0.3471490144729614,-0.288164347410202,0.47462883591651917,-1.2501603364944458,1.3945437669754028,1.1476720571517944,1.4579317569732666,0.5508916974067688,0.7096341848373413,0.4731528162956238,0.718991219997406,-0.36713916063308716
movielens1m.csv,-0.8203821778297424,-0.6031712293624878,-0.2265464812517166,0.781402051448822,-1.1064095497131348,0.726242184638977,0.20048505067825317,1.7043899297714233,-0.3355477750301361,0.0039006329607218504,-0.20485614240169525,-0.26947346329689026,-0.8245065808296204,0.07296740263700485,-1.290805459022522,1.219355821609497,-0.6166852116584778,1.1616626977920532,1.465108036994934,1.487196683883667,0.0842461958527565,0.4153258204460144,-1.5465530157089233,-0.48221760988235474,-2.513244390487671,-0.10890016704797745,0.6202987432479858,-0.48525694012641907,0.9306941628456116,-0.256350576877594,1.743874192237854,-1.1352002620697021,0.5706421136856079,-0.6237668991088867,-0.893916130065918,-0.6391296982765198,1.2964762449264526,0.9591594338417053,-0.24059443175792694,0.008765135891735554,-1.0362532138824463,-0.9922351837158203,2.898794412612915,0.2282920628786087,-0.471456915140152,1.0305299758911133,0.7222080230712891,0.13731729984283447,0.7363879680633545,-0.9876612424850464
movielens100k.csv,-1.2727694511413574,0.4157329201698303,-1.3796952962875366,-0.14477257430553436,-0.22326405346393585,1.6178818941116333,1.2107465267181396,1.4507758617401123,-0.49228259921073914,-0.04792068526148796,-0.7741796970367432,-1.4347292184829712,0.8682165741920471,-1.2444531917572021,0.23497961461544037,1.561469316482544,0.14115823805332184,0.9536848068237305,0.6414549946784973,2.2408981323242188,-0.36408525705337524,0.038717158138751984,-0.9073720574378967,0.5283757448196411,-1.7840923070907593,-0.9916700124740601,0.35768625140190125,1.3220176696777344,0.36290085315704346,0.9020298719406128,0.8687765598297119,-1.2882133722305298,0.2241179347038269,-0.5646916627883911,-0.8687063455581665,-2.0635242462158203,1.0362457036972046,-0.4430885910987854,0.17904575169086456,-0.15968762338161469,-0.7203487753868103,-1.4074316024780273,0.308173269033432,-1.2431881427764893,-0.4203900098800659,-0.5032891035079956,-0.10532864183187485,1.6652885675430298,-0.3013972043991089,-1.09114408493042
yahoo-movies.csv,-3.1915597915649414,-0.18142357468605042,-1.4391586780548096,1.08048677444458,-1.1117682456970215,-0.42112308740615845,0.9530364274978638,0.27433472871780396,-0.5944281816482544,-0.8034801483154297,-0.8573697805404663,0.0033265529200434685,0.7599172592163086,-0.7471736073493958,0.010703866370022297,1.020563006401062,-0.6418226957321167,1.2317503690719604,-0.443655401468277,1.819913625717163,0.867313802242279,-0.1113734096288681,0.03320646658539772,-0.01467920746654272,-2.330749034881592,-0.9170240759849548,0.14117538928985596,-0.5772463083267212,0.4740614593029022,1.0743693113327026,1.3972291946411133,-0.17266574501991272,0.540137529373169,-0.584568440914154,-0.4696817100048065,0.6014478206634521,-0.30613216757774353,0.13619807362556458,-0.725894033908844,0.32719698548316956,-0.8611685037612915,0.20168103277683258,0.9855666756629944,1.4064733982086182,-1.1109470129013062,-0.4847439229488373,1.895358681678772,1.4766101837158203,-0.20164981484413147,-1.0325005054473877
amazon-home.csv,-2.2705023288726807,0.4095860719680786,-1.7179900407791138,-0.4594479203224182,-0.895729124546051,0.7850634455680847,1.1059976816177368,0.2964240312576294,-0.697447657585144,0.7760921716690063,0.592058002948761,-1.0869868993759155,-0.4994964897632599,-0.7902745008468628,-1.7837940454483032,1.8075017929077148,-0.3862970173358917,-0.03351634368300438,1.2737644910812378,0.7899482250213623,1.0100117921829224,0.7024284601211548,-0.538993775844574,-0.9241544008255005,-0.12032555043697357,-0.09497760236263275,1.5492740869522095,0.2612343430519104,0.24161627888679504,1.3645676374435425,2.212686777114868,-1.3266706466674805,0.47274717688560486,-0.0488286130130291,-1.4498319625854492,0.33322471380233765,0.7846460342407227,0.2694665789604187,-0.06729334592819214,0.8206161856651306,-0.8611134886741638,-0.5026991963386536,0.46249473094940186,1.0836082696914673,-0.7118386030197144,1.1841449737548828,1.4041330814361572,0.8184168338775635,0.5609819293022156,-1.2903457880020142
movielens10m.csv,-2.6163318157196045,0.1457253247499466,-0.3414345979690552,0.07905234396457672,0.3925638496875763,0.14536060392856598,0.9324581027030945,1.564706563949585,0.09999661147594452,-0.9446126222610474,0.4288802146911621,-2.0618929862976074,-0.5779884457588196,0.5694357752799988,-0.25626039505004883,2.0717263221740723,-1.3428279161453247,0.7455121874809265,1.4216983318328857,1.9466270208358765,-0.3432850241661072,-0.4298996329307556,-0.16332043707370758,0.7999769449234009,-2.0323474407196045,0.46547645330429077,-0.040044788271188736,-0.2518165111541748,-0.17235703766345978,0.2648417055606842,-0.21587803959846497,-0.5622013807296753,1.4188066720962524,0.7435187101364136,-1.0892456769943237,-0.9036974906921387,0.9669815897941589,-0.6068331003189087,-0.6193943023681641,0.9045105576515198,0.4583817422389984,-0.5887392163276672,1.8948078155517578,-0.25506216287612915,-0.05104755982756615,0.4843679964542389,0.3204166889190674,0.6371361613273621,-0.09216971695423126,-1.7635475397109985
amazon-tools.csv,-1.1629375219345093,0.33889147639274597,-1.1935691833496094,-0.027057437226176262,-1.7627798318862915,0.9269816279411316,1.4045692682266235,0.932324230670929,-0.6096638441085815,-0.9613848924636841,-0.4582688510417938,-2.1270854473114014,0.2158292829990387,0.11796948313713074,-0.5737980604171753,1.5244910717010498,-1.121431827545166,1.2926057577133179,1.756575107574463,1.3580344915390015,0.7655846476554871,0.6031284928321838,0.3914249539375305,-0.09904393553733826,-1.6139122247695923,-0.5573405027389526,1.8806167840957642,0.8343356847763062,1.4993228912353516,1.1878862380981445,0.8840184807777405,-0.9745055437088013,0.5934691429138184,0.9091763496398926,-1.047446846961975,0.9743204116821289,-0.2936784029006958,0.8119732737541199,0.8174037933349609,0.24821074306964874,-0.027500804513692856,-0.004843493923544884,0.9185627698898315,1.4175398349761963,-0.2948710322380066,0.16614770889282227,-0.6558560132980347,0.8923661112785339,1.071045160293579,0.04672624543309212
jester3.csv,-1.4406403303146362,1.3414430618286133,-0.8666118383407593,0.43403950333595276,0.3626757264137268,1.0081672668457031,1.0532970428466797,1.5276095867156982,-1.2399609088897705,0.5994679927825928,0.8766869306564331,-1.0339375734329224,0.04305890202522278,-0.8738059997558594,0.047046270221471786,0.6750600934028625,-0.3424183130264282,2.042652130126953,0.6510525941848755,1.2579540014266968,-0.06835196167230606,-0.574546754360199,-0.2819748818874359,-0.6508129239082336,-0.7143637537956238,-0.4591814875602722,1.2166653871536255,-1.0605849027633667,1.8277363777160645,1.2703697681427002,0.32972732186317444,-1.172529935836792,1.4671390056610107,-0.37750595808029175,-1.1868891716003418,-0.5216045379638672,0.6669006943702698,0.4801838994026184,0.06346669793128967,-0.6350583434104919,0.6849634647369385,-1.0358860492706299,1.8290964365005493,-0.8079783916473389,-1.5339938402175903,0.4668996036052704,1.7062745094299316,1.4997788667678833,-0.42978695034980774,-0.472395658493042
amazon-food.csv,-2.413139581680298,0.16243430972099304,-1.2659075260162354,0.2031497359275818,-2.0810470581054688,0.8687138557434082,-0.04745867848396301,-0.7588935494422913,-1.0229389667510986,-0.9047517776489258,1.5052084922790527,-1.9999130964279175,-0.2184087485074997,-0.2433689385652542,-0.20968660712242126,0.6535593867301941,0.40950262546539307,1.0973849296569824,0.4597252607345581,0.7982423901557922,-0.31469258666038513,-0.3746664822101593,-0.4780905544757843,-0.10543175041675568,-1.4168531894683838,-0.31867218017578125,2.1109859943389893,0.707045316696167,0.9505751729011536,1.2765356302261353,1.3323123455047607,-1.33283269405365,0.658776044845581,-0.31144243478775024,-1.6165831089019775,0.29385003447532654,1.1449226140975952,0.534377932548523,0.8859154582023621,1.1654491424560547,-0.36044004559516907,-0.2837059199810028,0.9955487251281738,0.48832207918167114,-0.34531474113464355,0.3146471381187439,0.9741740822792053,0.5326097011566162,1.487738013267517,0.45910516381263733
