amazon-health.csv,0.3331368863582611,-0.8193596005439758,-0.9036449790000916,1.177694320678711,-1.3336095809936523,-0.4133461117744446,2.0619611740112305,0.09095967561006546,-0.8970076441764832,-0.013431200757622719
amazon-garden.csv,-0.13239137828350067,-0.32224327325820923,-0.1139487475156784,1.3244043588638306,-0.5905319452285767,-0.7896985411643982,1.97909677028656,0.7745928764343262,-1.6105138063430786,0.16933976113796234
amazon-kindle.csv,-0.49147894978523254,-0.12104157358407974,-1.4183926582336426,1.125407338142395,-0.506075382232666,-0.8317087888717651,2.2000224590301514,0.52182537317276,0.10766518115997314,-0.6273549795150757
yelp.csv,-0.589923083782196,-0.766251802444458,-0.8779918551445007,0.4315989911556244,-1.63877272605896,-1.3857653141021729,1.366525650024414,0.31846311688423157,-0.005600458942353725,-1.2381186485290527
amazon-clothes.csv,-0.326612651348114,-0.8126779198646545,-0.23145703971385956,1.4502960443496704,-1.0647153854370117,-0.791285514831543,2.1995317935943604,0.37102895975112915,-0.4511778950691223,-0.37017709016799927
amazon-pet-supplies.csv,-0.7301175594329834,-0.009391297586262226,0.2548857629299164,1.5267254114151,-1.0989168882369995,-1.4166144132614136,1.6809459924697876,0.9396073818206787,-0.040494404733181,-0.3827366828918457
jester2.csv,-0.3479444086551666,-0.8753741979598999,-0.8695394992828369,1.2435638904571533,0.008349531330168247,-2.499887704849243,0.7353285551071167,0.055808600038290024,-0.02829141728579998,-0.12637987732887268
movielens20m.csv,-1.4071452617645264,0.09194138646125793,-1.7114540338516235,1.7268668413162231,-0.7777595520019531,-0.8946340680122375,0.5441659688949585,0.23027291893959045,-0.5038290023803711,-0.3034467399120331
amazon-automotive.csv,-0.7355386018753052,-1.3885705471038818,-0.5756848454475403,1.17885422706604,-0.6860204935073853,-0.9755805134773254,1.554429292678833,1.1591631174087524,-0.6376553773880005,-0.46994441747665405
amazon-movies.csv,1.2338305711746216,-0.49144306778907776,-0.2650699317455292,1.4480105638504028,-0.7098317742347717,-1.1110485792160034,1.473799467086792,-0.2695706784725189,-1.1596565246582031,-0.860989511013031
amazon-office.csv,0.07148657739162445,0.21655994653701782,-0.25958743691444397,2.4482839107513428,-0.3701631426811218,-0.5301183462142944,1.4815423488616943,0.9070178270339966,-0.6711136698722839,0.020561710000038147
movietweetings_recsys2014.csv,0.46456459164619446,0.6761162281036377,-0.4125259220600128,1.5828015804290771,-1.2750290632247925,-2.056520462036133,0.42685168981552124,0.22201772034168243,-0.7474174499511719,-0.08065348863601685
amazon-games.csv,0.27621203660964966,-0.45050710439682007,-0.7924760580062866,1.1839193105697632,-1.277355432510376,-0.7452922463417053,1.0531185865402222,1.1656373739242554,-1.223488688468933,-1.240675926208496
amazon-cd.csv,-0.22805285453796387,-0.4718685746192932,-0.8020442128181458,1.9274601936340332,-1.9625126123428345,-0.8054815530776978,0.4536689221858978,0.49159419536590576,-0.23039081692695618,-0.605093240737915
amazon-baby.csv,-0.16586941480636597,-0.3428090512752533,-1.3791019916534424,0.8807583451271057,-0.2902079224586487,-0.692387580871582,1.670252799987793,1.652040719985962,-0.5926259756088257,-0.8622664213180542
amazon-instruments.csv,0.15235963463783264,-0.5699087977409363,-0.5862770080566406,1.800118327140808,-0.8455314040184021,-0.9823676943778992,2.0385003089904785,0.3715503215789795,-0.3025895357131958,-0.05273854359984398
tripadvisor.csv,-0.5564636588096619,0.6035345792770386,-0.3244568109512329,2.2326016426086426,-1.1359065771102905,-0.09900115430355072,1.2018017768859863,-0.25888657569885254,-0.5408011078834534,-1.0641484260559082
jester1.csv,-0.9119506478309631,-0.6762483716011047,-0.1752176731824875,0.6791667342185974,0.458362340927124,-1.5795129537582397,1.724007248878479,0.3982863426208496,-1.0823923349380493,-1.100773572921753
movietweetings_latest.csv,-0.7010200619697571,-1.041254997253418,-0.1464828997850418,2.266021728515625,-1.341715693473816,-0.5211958885192871,0.06526997685432434,-0.03942010551691055,-1.0530366897583008,0.285481333732605
amazon-toys.csv,-0.03822210431098938,-0.8897164463996887,-0.7886579036712646,1.8387115001678467,-0.3765444755554199,-1.1547635793685913,1.1846294403076172,1.2766550779342651,-0.36706480383872986,0.7489370107650757
bookcrossing.csv,-1.5972412824630737,-0.6949859857559204,-0.817739725112915,1.636843204498291,-0.9744781851768494,-0.23986965417861938,1.5870085954666138,-0.11313322186470032,-0.278554230928421,-0.041581641882658005
amazon-digital-music.csv,-1.0601273775100708,-0.590229868888855,-0.7753159999847412,1.9685803651809692,-0.6060951948165894,-0.6245706677436829,1.3523038625717163,1.154793381690979,0.14146891236305237,-0.3340764343738556
amazon-phones.csv,-0.7030106782913208,0.349856436252594,-0.8603421449661255,1.3577121496200562,-1.0544688701629639,0.2570394277572632,1.572515845298767,1.2433092594146729,-1.2018059492111206,-0.39858585596084595
amazon-beauty.csv,-0.6793695688247681,-0.195973739027977,-0.10887791216373444,1.8445926904678345,0.011186361312866211,-0.3986052870750427,1.494982123374939,0.9963690042495728,-0.7702929973602295,-1.451064944267273
flixter.csv,-0.7271249890327454,-1.1299947500228882,-0.9531958699226379,0.4275807738304138,-1.07296621799469,-1.4232139587402344,0.075445257127285,-0.2408006489276886,-1.5095525979995728,-1.2584806680679321
amazon-sports.csv,0.06297828257083893,-0.5840681195259094,-1.2738516330718994,1.9304335117340088,-0.6328514814376831,-0.8516147136688232,1.5482642650604248,0.13504140079021454,0.21965697407722473,-0.8463280200958252
amazon-apps.csv,-0.25513094663619995,0.507988691329956,-1.223569393157959,1.0524383783340454,-1.5342955589294434,-1.0987917184829712,1.5406594276428223,1.0088766813278198,-0.33350610733032227,-0.08950607478618622
yahoo-music.csv,0.10199378430843353,0.7132331728935242,-0.9009245038032532,0.6317828893661499,0.09151267260313034,-1.4323327541351318,1.7485531568527222,0.1362888365983963,-1.6847463846206665,-0.5438247919082642
movielens_latest.csv,-0.5436323881149292,-0.49992483854293823,-0.31130701303482056,1.8058981895446777,-0.15046413242816925,-0.7839168906211853,1.1527811288833618,-1.1935678720474243,-1.572975516319275,-0.4810752868652344
amazon-instant-video.csv,0.48491132259368896,-1.185510277748108,-1.1678766012191772,1.6446576118469238,-0.5998465418815613,-0.870228111743927,0.8279416561126709,1.0572881698608398,-0.9851562976837158,-0.6321395039558411
movielens1m.csv,-1.2561440467834473,-0.026412013918161392,-1.105986475944519,-0.029419513419270515,-0.8500566482543945,-1.8014336824417114,1.4649800062179565,-0.3589133620262146,-0.9665957093238831,-0.14240925014019012
movielens100k.csv,-0.9803854823112488,0.00451688515022397,0.09130030125379562,1.8831976652145386,0.10063617676496506,-1.4582000970840454,-0.17805641889572144,1.0078151226043701,-1.3804774284362793,-0.6280642747879028
yahoo-movies.csv,-0.6658326387405396,0.5766223669052124,-0.4627746343612671,0.7064765095710754,-1.6556241512298584,-0.7684356570243835,0.8078041672706604,0.5288631916046143,-2.0599987506866455,-0.05899308621883392
amazon-home.csv,-1.0370973348617554,-0.6180083751678467,-0.27612948417663574,1.6208000183105469,-1.018351674079895,-0.41095036268234253,1.3023509979248047,1.0791444778442383,-1.3256189823150635,-0.1240924671292305
movielens10m.csv,-1.372791051864624,0.9678910374641418,-0.42942342162132263,1.4132877588272095,-0.010129929520189762,-1.1915138959884644,1.659345030784607,0.16216374933719635,-0.7373287081718445,0.5036466121673584
amazon-tools.csv,0.45451951026916504,-0.5762321352958679,0.15721333026885986,1.353385329246521,-0.8218015432357788,-1.6224218606948853,1.621380090713501,0.891368567943573,-0.5918542742729187,-0.723662257194519
jester3.csv,-0.07647419720888138,-0.6371281743049622,-1.405258059501648,0.9824559688568115,0.30015382170677185,-1.135610818862915,0.9112831950187683,0.6500465273857117,-1.8536871671676636,0.7611780166625977
amazon-food.csv,-0.01688304916024208,-0.3915267288684845,0.4121544361114502,1.4756909608840942,-0.8195798397064209,-0.7188948392868042,1.7366626262664795,0.5484694242477417,-1.2145330905914307,-1.2322582006454468
