amazon-toys.csv,1.770464301109314,2.040579080581665,1.1904233694076538,0.9975441694259644,-0.29924526810646057,0.9192659854888916,0.11788510531187057,-0.24994423985481262,0.16920976340770721,0.05699596181511879,0.9928818345069885,0.3884811997413635,0.6155638098716736,1.2866520881652832,-1.4970251321792603,0.6595009565353394,-0.04062065854668617,1.7303266525268555,-0.31360718607902527,-0.5525073409080505
amazon-health.csv,2.3643434047698975,0.10251716524362564,2.4468371868133545,-0.6333104372024536,-0.24220485985279083,0.6014931201934814,-0.24547390639781952,-0.7185438871383667,0.028791166841983795,-1.236302375793457,1.4228163957595825,0.10771800577640533,-0.10018082708120346,-0.31452059745788574,0.04708343744277954,0.49533605575561523,0.6588966250419617,1.363574743270874,0.7949753403663635,-0.4086216688156128
bookcrossing.csv,1.200998067855835,-0.2577750086784363,1.8713756799697876,-0.9918605089187622,-1.5271275043487549,0.6724801063537598,0.04614417627453804,-1.813339352607727,-0.3704865276813507,0.04038754105567932,1.347087025642395,0.055926281958818436,0.34266233444213867,0.7811005115509033,-1.2073746919631958,0.09943639487028122,-0.4077253043651581,1.4055845737457275,-0.2843874990940094,-1.2474055290222168
amazon-games.csv,1.538063645362854,0.22721418738365173,1.0889582633972168,-0.027292495593428612,-0.34773150086402893,1.2135486602783203,0.003204736625775695,0.1123412698507309,-1.4713890552520752,0.19931615889072418,1.7775517702102661,0.49974027276039124,1.166055679321289,0.13097113370895386,0.18500839173793793,0.8245171904563904,-0.515264093875885,1.969328761100769,0.4071885645389557,-1.6659281253814697
amazon-automotive.csv,2.0317494869232178,-0.26693499088287354,0.40835970640182495,-0.815159022808075,-0.6523579955101013,0.8419899344444275,-0.5773966908454895,-0.24700956046581268,-0.410194993019104,-1.0410853624343872,1.24886953830719,1.2211122512817383,1.033257246017456,0.6107847690582275,-1.0855882167816162,-0.2255285531282425,-0.6075347661972046,2.4351582527160645,-0.19550009071826935,-0.3609861135482788
amazon-clothes.csv,1.4305557012557983,-0.6938027143478394,1.1219799518585205,-0.7468191385269165,-0.42477327585220337,0.4721212685108185,0.15141233801841736,-1.5789910554885864,0.20211158692836761,-0.9031656384468079,1.456333041191101,0.09177759289741516,0.15045234560966492,1.076553463935852,-2.450571298599243,0.8442868590354919,-0.11323947459459305,0.7132768630981445,0.9371026754379272,-0.6713734865188599
amazon-office.csv,1.7586264610290527,0.5010678768157959,0.5217094421386719,-0.186156764626503,-1.7089756727218628,0.6404259204864502,1.120338797569275,-1.0382574796676636,0.1291516274213791,0.7465739846229553,1.9070912599563599,1.0023856163024902,0.40393078327178955,0.5904794931411743,-0.30441591143608093,0.6374643445014954,-0.7727486491203308,1.3261765241622925,-0.16943594813346863,-1.440198540687561
movietweetings_recsys2014.csv,1.618906021118164,2.0002999305725098,0.5776975750923157,-0.7304016947746277,-1.068318486213684,0.48577621579170227,-0.010524091310799122,0.639214038848877,-0.7958451509475708,0.07905751466751099,1.4526950120925903,-0.30731797218322754,-0.4829729497432709,1.2878252267837524,-0.6011380553245544,1.2899292707443237,-0.35575124621391296,1.1810284852981567,1.5141891241073608,-0.38619688153266907
amazon-kindle.csv,1.6424769163131714,0.6979949474334717,1.6684057712554932,-0.36011946201324463,-0.3552680015563965,0.31005072593688965,0.5155658721923828,0.6878244876861572,-0.19088107347488403,-0.272678017616272,2.7069265842437744,1.4736989736557007,0.08345353603363037,0.1382666677236557,-0.03522258251905441,0.4001021981239319,-0.39180976152420044,1.270626425743103,0.8007698059082031,-0.8566663265228271
amazon-food.csv,1.8977584838867188,0.5996938943862915,1.568049669265747,-0.7448469400405884,-1.2223275899887085,0.7278215885162354,-1.322324275970459,-0.7693185210227966,-0.27298760414123535,-1.3668222427368164,0.19114911556243896,0.34289422631263733,-0.12273076176643372,0.12095996737480164,-1.9360202550888062,-0.1251753568649292,-0.024665091186761856,1.2973867654800415,0.5130783915519714,-0.9075533151626587
yahoo-music.csv,2.15301513671875,1.2908204793930054,1.3779526948928833,-0.7506124377250671,-0.14399805665016174,0.18493320047855377,1.0387414693832397,0.7361794710159302,1.236702799797058,0.5362011790275574,0.03242829069495201,0.7891954779624939,-0.5668362975120544,0.9144970774650574,0.8304188251495361,1.012168288230896,1.659037470817566,0.9000515937805176,0.3003566861152649,-0.7713817358016968
jester1.csv,0.7067469954490662,-0.08518493175506592,1.8621805906295776,0.2793594300746918,-0.3933398723602295,0.6616012454032898,-0.24322403967380524,0.35634928941726685,-0.34022125601768494,-0.7071309089660645,0.508623480796814,0.7389479279518127,0.43138623237609863,3.0097057819366455,0.09953653812408447,-0.30209484696388245,0.37540969252586365,1.3905893564224243,1.1758029460906982,-0.9724283218383789
amazon-apps.csv,1.158303141593933,1.0836760997772217,0.6840988397598267,-0.0967169776558876,-1.2455300092697144,1.5934711694717407,-0.570449948310852,-0.40291956067085266,-0.021653616800904274,-0.28186848759651184,1.591113567352295,-1.033121109008789,-0.5615660548210144,0.23072662949562073,-1.120204210281372,0.6531556844711304,-0.6026365160942078,1.9218305349349976,0.3934285640716553,-1.577349066734314
yahoo-movies.csv,2.2520906925201416,1.8128361701965332,0.01850428432226181,-0.48991358280181885,-0.47629016637802124,-0.17759060859680176,-0.5973025560379028,0.6022334098815918,-1.52769136428833,-0.5752471685409546,-0.33605334162712097,0.5227491855621338,-0.5507842302322388,0.3968910574913025,-0.3700965642929077,-0.25445082783699036,-0.11095631867647171,2.454713821411133,-0.25924840569496155,-0.7776998281478882
movietweetings_latest.csv,0.5160662531852722,2.1415884494781494,0.847740113735199,-0.6612252593040466,-0.5970821976661682,0.8856261968612671,1.0862418413162231,-0.06508097797632217,0.18621473014354706,-0.08507336676120758,0.7541040778160095,1.46534264087677,0.6838260889053345,0.4831746518611908,-1.3215807676315308,0.6350288391113281,-0.5512238144874573,2.3907132148742676,-0.19228829443454742,0.03650307282805443
amazon-sports.csv,2.867532730102539,-0.3064439594745636,1.3764382600784302,0.2169034630060196,-2.147186517715454,0.510188639163971,0.13755176961421967,-0.14282257854938507,0.573816180229187,-0.5252529382705688,0.7114020586013794,-0.19606046378612518,-0.09155349433422089,0.4196127653121948,-0.693972110748291,-0.962524950504303,-0.11023738980293274,1.396440029144287,-0.22224169969558716,-0.2791330814361572
tripadvisor.csv,2.0018632411956787,0.9207178950309753,1.1080585718154907,-0.48151764273643494,-0.2157820463180542,0.5755093097686768,1.1029884815216064,0.25110340118408203,0.29455554485321045,0.22236265242099762,1.7754197120666504,0.05181046947836876,1.1072163581848145,0.7276663780212402,-0.7412357330322266,-0.31886807084083557,-1.141430377960205,1.3048404455184937,-0.28820276260375977,-1.80046808719635
amazon-garden.csv,1.6477954387664795,0.9650080800056458,1.6060625314712524,-0.540936291217804,-2.2484498023986816,0.4103497266769409,0.20566131174564362,-0.07448995113372803,-0.0443657711148262,-0.04494099318981171,1.066793441772461,1.2978461980819702,0.13078327476978302,0.40379106998443604,-1.1715835332870483,-0.35838180780410767,-0.8909281492233276,1.139054775238037,0.5658694505691528,-1.136080026626587
amazon-phones.csv,2.173102378845215,0.5238896608352661,-0.21109996736049652,-0.8376126289367676,-0.42221367359161377,0.9548596739768982,-0.9116240739822388,0.07695110887289047,-0.2448505461215973,-1.5214813947677612,-0.2548539340496063,1.4089435338974,1.0448367595672607,0.5644552707672119,-0.4484982192516327,1.3506734371185303,-0.5759806632995605,1.1859564781188965,0.24336323142051697,-1.6345762014389038
amazon-baby.csv,1.312267541885376,1.0803167819976807,0.8599024415016174,0.08358451724052429,1.3655977249145508,1.1819438934326172,0.18965184688568115,0.8638114929199219,-0.14041851460933685,-0.4170730412006378,1.7305771112442017,0.37855955958366394,-0.033152077347040176,1.3139467239379883,-1.004679799079895,0.6871458292007446,-0.27426719665527344,1.3634424209594727,-1.0922280550003052,-1.628597378730774
amazon-beauty.csv,1.7130353450775146,1.3899688720703125,0.4266927242279053,0.4314884841442108,-1.3983973264694214,0.6508074998855591,0.29100921750068665,0.1845291256904602,-0.40342527627944946,0.8313150405883789,0.5977774858474731,0.16269773244857788,1.2222356796264648,0.5801756978034973,-1.202095866203308,-0.29430273175239563,0.7799603343009949,1.2740554809570312,1.606368064880371,-1.689886212348938
amazon-instruments.csv,2.3664422035217285,1.1477298736572266,0.2790753245353699,-0.49423640966415405,-0.6121939420700073,0.5379018783569336,0.25700652599334717,-0.30920588970184326,-0.13390344381332397,-0.17819005250930786,1.3119274377822876,1.9288029670715332,0.7732155323028564,0.5036810040473938,-1.1010143756866455,-0.8943595886230469,-1.229339599609375,0.6255415678024292,-0.5320687294006348,-1.1807944774627686
jester2.csv,1.1671576499938965,0.9574859738349915,1.7367016077041626,-0.14224892854690552,-0.9718847870826721,-0.013124024495482445,0.031303923577070236,-0.14231795072555542,1.3227769136428833,-1.7130929231643677,-0.5823792219161987,0.3153206706047058,1.1203503608703613,1.2320729494094849,0.815261960029602,0.4108770191669464,-0.8490483164787292,1.8090473413467407,0.14701201021671295,-0.986813485622406
amazon-tools.csv,2.5409181118011475,-0.3718716502189636,1.2458199262619019,-0.5652666091918945,-0.58573979139328,0.9524499773979187,-0.27912604808807373,-0.6431434154510498,0.023993119597434998,-1.5824427604675293,-0.02925795316696167,-0.3541383743286133,0.4437415897846222,0.6008407473564148,-1.1413122415542603,1.7181355953216553,-0.08367745578289032,-0.05897718295454979,0.5900732278823853,-1.410644769668579
amazon-digital-music.csv,2.2270777225494385,0.8713134527206421,0.6488900780677795,0.17059093713760376,0.5521081686019897,0.8185716867446899,0.016692033037543297,0.43107548356056213,1.5532642602920532,-0.8452515006065369,0.844923734664917,1.0142062902450562,0.07022226601839066,-0.08044302463531494,-0.726701557636261,-0.6286252737045288,-0.04147792235016823,1.197964072227478,2.0944581031799316,-1.0207538604736328
amazon-cd.csv,2.392770290374756,0.7466272115707397,0.029172834008932114,0.06057910621166229,-1.2054873704910278,-1.026861310005188,0.6045178174972534,-1.4009488821029663,0.49621865153312683,-0.31625232100486755,1.2940243482589722,0.28642013669013977,0.371431827545166,1.3181239366531372,-1.315988302230835,1.0778173208236694,0.013853928074240685,0.23179841041564941,1.1483078002929688,-0.7954167723655701
amazon-instant-video.csv,1.6536166667938232,0.3023231029510498,0.6512418389320374,0.1962498426437378,-0.9044472575187683,1.2086880207061768,0.14801186323165894,-2.126387596130371,0.9440628886222839,0.44522714614868164,1.4458647966384888,1.2210114002227783,0.7908981442451477,0.5382419228553772,-0.23807783424854279,0.35414770245552063,0.19067370891571045,1.5044740438461304,0.450314998626709,-1.2721452713012695
movielens_latest.csv,1.3989635705947876,0.05575302243232727,1.6425814628601074,0.5096983313560486,-0.2032286673784256,-1.8918731212615967,0.5866908431053162,-0.31121787428855896,-0.34193098545074463,-0.8697308301925659,0.4077664613723755,1.3597766160964966,0.43144628405570984,-0.26929718255996704,-0.35202255845069885,0.016852986067533493,1.1664711236953735,1.4270669221878052,0.31593120098114014,-2.062014579772949
amazon-movies.csv,1.7514632940292358,0.08870480954647064,1.4844920635223389,-2.2689809799194336,-0.44134336709976196,0.8648557662963867,1.001197338104248,-0.5024870038032532,-0.01390824280679226,-0.4999890625476837,0.6925864815711975,0.44073227047920227,0.08679986745119095,0.5537716746330261,-1.4524940252304077,-0.6050196886062622,0.39927372336387634,1.5590215921401978,0.31241926550865173,-0.9865113496780396
yelp.csv,1.2931426763534546,0.6080850958824158,0.9010469913482666,-0.511711597442627,-0.31972044706344604,-0.1316511034965515,-1.1976677179336548,-0.22255851328372955,0.6663833856582642,-0.9241482019424438,1.2470797300338745,-1.375472068786621,0.9351678490638733,1.0205860137939453,-1.8699537515640259,0.0960712730884552,0.782519519329071,1.0875866413116455,0.4980895519256592,-1.7521915435791016
jester3.csv,2.0766565799713135,-0.09597605466842651,0.8734776377677917,-0.28858792781829834,-0.039990782737731934,-1.2267409563064575,0.04185318946838379,-0.8455484509468079,0.6921197175979614,-0.824478805065155,0.4656669795513153,0.7197905778884888,-1.0515540838241577,2.289875030517578,0.872711181640625,-1.0070315599441528,-1.0699249505996704,0.9739325642585754,0.3845843970775604,-0.5906670093536377
flixter.csv,1.2135326862335205,2.059523582458496,1.9716452360153198,-0.5113869905471802,0.24588380753993988,-0.6893675923347473,0.9691314101219177,-0.2307630181312561,-0.02133043110370636,-0.6440526247024536,0.3356121778488159,-0.5273035764694214,-0.7703425884246826,0.5448023676872253,-1.7019041776657104,-0.2232094705104828,-0.940319299697876,1.2759058475494385,0.8431951999664307,-0.8620042204856873
amazon-home.csv,2.172297477722168,0.7830617427825928,1.3236223459243774,-1.0409281253814697,0.6080566644668579,0.1738944947719574,0.6553371548652649,-0.8440073728561401,-0.5754783153533936,0.4601355493068695,0.3663462996482849,0.7035338282585144,2.047642707824707,0.4153102934360504,-1.3582103252410889,-1.194272756576538,0.14089275896549225,0.5900225043296814,0.6635326147079468,-0.82095867395401
movielens10m.csv,1.6757439374923706,0.9182619452476501,1.9549332857131958,-0.06330777704715729,0.270925372838974,1.2668980360031128,0.01138180773705244,-1.1908297538757324,-0.5064000487327576,0.2778227925300598,-0.5092882513999939,0.9452839493751526,-0.5930216312408447,0.22931408882141113,0.40964919328689575,0.4253949522972107,-1.0812407732009888,0.4993933439254761,1.1781328916549683,-2.09289288520813
movielens100k.csv,1.6627322435379028,0.028127366676926613,1.1468867063522339,-1.0305534601211548,0.7712737917900085,-0.3768387734889984,-0.7128250002861023,-0.7411555647850037,0.3644842207431793,0.9792614579200745,-0.1849048137664795,0.1240445077419281,0.4835849404335022,0.933680534362793,-0.5285360217094421,1.0941990613937378,-0.565517783164978,2.7358500957489014,1.0478910207748413,-0.6606530547142029
movielens20m.csv,1.7932534217834473,-0.21005180478096008,0.0989205464720726,0.7198057174682617,-0.5610942840576172,0.7373809814453125,2.1227805614471436,-0.1246892660856247,0.16911731660366058,-0.6538093686103821,-0.529604434967041,0.270177960395813,-0.6250984072685242,0.7144126892089844,-1.1383310556411743,0.5310642123222351,-0.4255548417568207,2.2606024742126465,1.2082608938217163,-0.8899949193000793
movielens1m.csv,1.045365333557129,1.2330291271209717,-0.08275921642780304,-0.4408456087112427,0.8917921781539917,0.8533862233161926,0.26480668783187866,-1.5854219198226929,0.35239243507385254,-1.6759792566299438,0.8164395689964294,0.23727577924728394,-0.219930037856102,0.9759958386421204,0.9931586384773254,0.13079045712947845,0.8462420701980591,1.7568988800048828,0.4530676305294037,-1.8466054201126099
amazon-pet-supplies.csv,2.5855772495269775,0.19249126315116882,2.105177164077759,-0.020390300080180168,-0.7713713645935059,0.4229941964149475,-0.17682990431785583,-0.5093974471092224,0.36912307143211365,-0.5159267783164978,1.4520584344863892,-0.21864154934883118,-0.002495967550203204,-0.3358854055404663,-0.01956307701766491,-0.41632822155952454,0.6553329825401306,2.030238151550293,-0.5994580388069153,-0.1578982025384903
amazon-toys.csv,1.770464301109314,2.040579080581665,1.1904233694076538,0.9975441694259644,-0.29924526810646057,0.9192659854888916,0.11788510531187057,-0.24994423985481262,0.16920976340770721,0.05699596181511879,0.9928818345069885,0.3884811997413635,0.6155638098716736,1.2866520881652832,-1.4970251321792603,0.6595009565353394,-0.04062065854668617,1.7303266525268555,-0.31360718607902527,-0.5525073409080505
amazon-health.csv,2.3643434047698975,0.10251716524362564,2.4468371868133545,-0.6333104372024536,-0.24220485985279083,0.6014931201934814,-0.24547390639781952,-0.7185438871383667,0.028791166841983795,-1.236302375793457,1.4228163957595825,0.10771800577640533,-0.10018082708120346,-0.31452059745788574,0.04708343744277954,0.49533605575561523,0.6588966250419617,1.363574743270874,0.7949753403663635,-0.4086216688156128
bookcrossing.csv,1.200998067855835,-0.2577750086784363,1.8713756799697876,-0.9918605089187622,-1.5271275043487549,0.6724801063537598,0.04614417627453804,-1.813339352607727,-0.3704865276813507,0.04038754105567932,1.347087025642395,0.055926281958818436,0.34266233444213867,0.7811005115509033,-1.2073746919631958,0.09943639487028122,-0.4077253043651581,1.4055845737457275,-0.2843874990940094,-1.2474055290222168
amazon-games.csv,1.538063645362854,0.22721418738365173,1.0889582633972168,-0.027292495593428612,-0.34773150086402893,1.2135486602783203,0.003204736625775695,0.1123412698507309,-1.4713890552520752,0.19931615889072418,1.7775517702102661,0.49974027276039124,1.166055679321289,0.13097113370895386,0.18500839173793793,0.8245171904563904,-0.515264093875885,1.969328761100769,0.4071885645389557,-1.6659281253814697
amazon-automotive.csv,2.0317494869232178,-0.26693499088287354,0.40835970640182495,-0.815159022808075,-0.6523579955101013,0.8419899344444275,-0.5773966908454895,-0.24700956046581268,-0.410194993019104,-1.0410853624343872,1.24886953830719,1.2211122512817383,1.033257246017456,0.6107847690582275,-1.0855882167816162,-0.2255285531282425,-0.6075347661972046,2.4351582527160645,-0.19550009071826935,-0.3609861135482788
amazon-clothes.csv,1.4305557012557983,-0.6938027143478394,1.1219799518585205,-0.7468191385269165,-0.42477327585220337,0.4721212685108185,0.15141233801841736,-1.5789910554885864,0.20211158692836761,-0.9031656384468079,1.456333041191101,0.09177759289741516,0.15045234560966492,1.076553463935852,-2.450571298599243,0.8442868590354919,-0.11323947459459305,0.7132768630981445,0.9371026754379272,-0.6713734865188599
amazon-office.csv,1.7586264610290527,0.5010678768157959,0.5217094421386719,-0.186156764626503,-1.7089756727218628,0.6404259204864502,1.120338797569275,-1.0382574796676636,0.1291516274213791,0.7465739846229553,1.9070912599563599,1.0023856163024902,0.40393078327178955,0.5904794931411743,-0.30441591143608093,0.6374643445014954,-0.7727486491203308,1.3261765241622925,-0.16943594813346863,-1.440198540687561
movietweetings_recsys2014.csv,1.618906021118164,2.0002999305725098,0.5776975750923157,-0.7304016947746277,-1.068318486213684,0.48577621579170227,-0.010524091310799122,0.639214038848877,-0.7958451509475708,0.07905751466751099,1.4526950120925903,-0.30731797218322754,-0.4829729497432709,1.2878252267837524,-0.6011380553245544,1.2899292707443237,-0.35575124621391296,1.1810284852981567,1.5141891241073608,-0.38619688153266907
amazon-kindle.csv,1.6424769163131714,0.6979949474334717,1.6684057712554932,-0.36011946201324463,-0.3552680015563965,0.31005072593688965,0.5155658721923828,0.6878244876861572,-0.19088107347488403,-0.272678017616272,2.7069265842437744,1.4736989736557007,0.08345353603363037,0.1382666677236557,-0.03522258251905441,0.4001021981239319,-0.39180976152420044,1.270626425743103,0.8007698059082031,-0.8566663265228271
amazon-food.csv,1.8977584838867188,0.5996938943862915,1.568049669265747,-0.7448469400405884,-1.2223275899887085,0.7278215885162354,-1.322324275970459,-0.7693185210227966,-0.27298760414123535,-1.3668222427368164,0.19114911556243896,0.34289422631263733,-0.12273076176643372,0.12095996737480164,-1.9360202550888062,-0.1251753568649292,-0.024665091186761856,1.2973867654800415,0.5130783915519714,-0.9075533151626587
yahoo-music.csv,2.15301513671875,1.2908204793930054,1.3779526948928833,-0.7506124377250671,-0.14399805665016174,0.18493320047855377,1.0387414693832397,0.7361794710159302,1.236702799797058,0.5362011790275574,0.03242829069495201,0.7891954779624939,-0.5668362975120544,0.9144970774650574,0.8304188251495361,1.012168288230896,1.659037470817566,0.9000515937805176,0.3003566861152649,-0.7713817358016968
jester1.csv,0.7067469954490662,-0.08518493175506592,1.8621805906295776,0.2793594300746918,-0.3933398723602295,0.6616012454032898,-0.24322403967380524,0.35634928941726685,-0.34022125601768494,-0.7071309089660645,0.508623480796814,0.7389479279518127,0.43138623237609863,3.0097057819366455,0.09953653812408447,-0.30209484696388245,0.37540969252586365,1.3905893564224243,1.1758029460906982,-0.9724283218383789
amazon-apps.csv,1.158303141593933,1.0836760997772217,0.6840988397598267,-0.0967169776558876,-1.2455300092697144,1.5934711694717407,-0.570449948310852,-0.40291956067085266,-0.021653616800904274,-0.28186848759651184,1.591113567352295,-1.033121109008789,-0.5615660548210144,0.23072662949562073,-1.120204210281372,0.6531556844711304,-0.6026365160942078,1.9218305349349976,0.3934285640716553,-1.577349066734314
yahoo-movies.csv,2.2520906925201416,1.8128361701965332,0.01850428432226181,-0.48991358280181885,-0.47629016637802124,-0.17759060859680176,-0.5973025560379028,0.6022334098815918,-1.52769136428833,-0.5752471685409546,-0.33605334162712097,0.5227491855621338,-0.5507842302322388,0.3968910574913025,-0.3700965642929077,-0.25445082783699036,-0.11095631867647171,2.454713821411133,-0.25924840569496155,-0.7776998281478882
movietweetings_latest.csv,0.5160662531852722,2.1415884494781494,0.847740113735199,-0.6612252593040466,-0.5970821976661682,0.8856261968612671,1.0862418413162231,-0.06508097797632217,0.18621473014354706,-0.08507336676120758,0.7541040778160095,1.46534264087677,0.6838260889053345,0.4831746518611908,-1.3215807676315308,0.6350288391113281,-0.5512238144874573,2.3907132148742676,-0.19228829443454742,0.03650307282805443
amazon-sports.csv,2.867532730102539,-0.3064439594745636,1.3764382600784302,0.2169034630060196,-2.147186517715454,0.510188639163971,0.13755176961421967,-0.14282257854938507,0.573816180229187,-0.5252529382705688,0.7114020586013794,-0.19606046378612518,-0.09155349433422089,0.4196127653121948,-0.693972110748291,-0.962524950504303,-0.11023738980293274,1.396440029144287,-0.22224169969558716,-0.2791330814361572
tripadvisor.csv,2.0018632411956787,0.9207178950309753,1.1080585718154907,-0.48151764273643494,-0.2157820463180542,0.5755093097686768,1.1029884815216064,0.25110340118408203,0.29455554485321045,0.22236265242099762,1.7754197120666504,0.05181046947836876,1.1072163581848145,0.7276663780212402,-0.7412357330322266,-0.31886807084083557,-1.141430377960205,1.3048404455184937,-0.28820276260375977,-1.80046808719635
amazon-garden.csv,1.6477954387664795,0.9650080800056458,1.6060625314712524,-0.540936291217804,-2.2484498023986816,0.4103497266769409,0.20566131174564362,-0.07448995113372803,-0.0443657711148262,-0.04494099318981171,1.066793441772461,1.2978461980819702,0.13078327476978302,0.40379106998443604,-1.1715835332870483,-0.35838180780410767,-0.8909281492233276,1.139054775238037,0.5658694505691528,-1.136080026626587
amazon-phones.csv,2.173102378845215,0.5238896608352661,-0.21109996736049652,-0.8376126289367676,-0.42221367359161377,0.9548596739768982,-0.9116240739822388,0.07695110887289047,-0.2448505461215973,-1.5214813947677612,-0.2548539340496063,1.4089435338974,1.0448367595672607,0.5644552707672119,-0.4484982192516327,1.3506734371185303,-0.5759806632995605,1.1859564781188965,0.24336323142051697,-1.6345762014389038
amazon-baby.csv,1.312267541885376,1.0803167819976807,0.8599024415016174,0.08358451724052429,1.3655977249145508,1.1819438934326172,0.18965184688568115,0.8638114929199219,-0.14041851460933685,-0.4170730412006378,1.7305771112442017,0.37855955958366394,-0.033152077347040176,1.3139467239379883,-1.004679799079895,0.6871458292007446,-0.27426719665527344,1.3634424209594727,-1.0922280550003052,-1.628597378730774
amazon-beauty.csv,1.7130353450775146,1.3899688720703125,0.4266927242279053,0.4314884841442108,-1.3983973264694214,0.6508074998855591,0.29100921750068665,0.1845291256904602,-0.40342527627944946,0.8313150405883789,0.5977774858474731,0.16269773244857788,1.2222356796264648,0.5801756978034973,-1.202095866203308,-0.29430273175239563,0.7799603343009949,1.2740554809570312,1.606368064880371,-1.689886212348938
amazon-instruments.csv,2.3664422035217285,1.1477298736572266,0.2790753245353699,-0.49423640966415405,-0.6121939420700073,0.5379018783569336,0.25700652599334717,-0.30920588970184326,-0.13390344381332397,-0.17819005250930786,1.3119274377822876,1.9288029670715332,0.7732155323028564,0.5036810040473938,-1.1010143756866455,-0.8943595886230469,-1.229339599609375,0.6255415678024292,-0.5320687294006348,-1.1807944774627686
jester2.csv,1.1671576499938965,0.9574859738349915,1.7367016077041626,-0.14224892854690552,-0.9718847870826721,-0.013124024495482445,0.031303923577070236,-0.14231795072555542,1.3227769136428833,-1.7130929231643677,-0.5823792219161987,0.3153206706047058,1.1203503608703613,1.2320729494094849,0.815261960029602,0.4108770191669464,-0.8490483164787292,1.8090473413467407,0.14701201021671295,-0.986813485622406
amazon-tools.csv,2.5409181118011475,-0.3718716502189636,1.2458199262619019,-0.5652666091918945,-0.58573979139328,0.9524499773979187,-0.27912604808807373,-0.6431434154510498,0.023993119597434998,-1.5824427604675293,-0.02925795316696167,-0.3541383743286133,0.4437415897846222,0.6008407473564148,-1.1413122415542603,1.7181355953216553,-0.08367745578289032,-0.05897718295454979,0.5900732278823853,-1.410644769668579
amazon-digital-music.csv,2.2270777225494385,0.8713134527206421,0.6488900780677795,0.17059093713760376,0.5521081686019897,0.8185716867446899,0.016692033037543297,0.43107548356056213,1.5532642602920532,-0.8452515006065369,0.844923734664917,1.0142062902450562,0.07022226601839066,-0.08044302463531494,-0.726701557636261,-0.6286252737045288,-0.04147792235016823,1.197964072227478,2.0944581031799316,-1.0207538604736328
amazon-cd.csv,2.392770290374756,0.7466272115707397,0.029172834008932114,0.06057910621166229,-1.2054873704910278,-1.026861310005188,0.6045178174972534,-1.4009488821029663,0.49621865153312683,-0.31625232100486755,1.2940243482589722,0.28642013669013977,0.371431827545166,1.3181239366531372,-1.315988302230835,1.0778173208236694,0.013853928074240685,0.23179841041564941,1.1483078002929688,-0.7954167723655701
amazon-instant-video.csv,1.6536166667938232,0.3023231029510498,0.6512418389320374,0.1962498426437378,-0.9044472575187683,1.2086880207061768,0.14801186323165894,-2.126387596130371,0.9440628886222839,0.44522714614868164,1.4458647966384888,1.2210114002227783,0.7908981442451477,0.5382419228553772,-0.23807783424854279,0.35414770245552063,0.19067370891571045,1.5044740438461304,0.450314998626709,-1.2721452713012695
movielens_latest.csv,1.3989635705947876,0.05575302243232727,1.6425814628601074,0.5096983313560486,-0.2032286673784256,-1.8918731212615967,0.5866908431053162,-0.31121787428855896,-0.34193098545074463,-0.8697308301925659,0.4077664613723755,1.3597766160964966,0.43144628405570984,-0.26929718255996704,-0.35202255845069885,0.016852986067533493,1.1664711236953735,1.4270669221878052,0.31593120098114014,-2.062014579772949
amazon-movies.csv,1.7514632940292358,0.08870480954647064,1.4844920635223389,-2.2689809799194336,-0.44134336709976196,0.8648557662963867,1.001197338104248,-0.5024870038032532,-0.01390824280679226,-0.4999890625476837,0.6925864815711975,0.44073227047920227,0.08679986745119095,0.5537716746330261,-1.4524940252304077,-0.6050196886062622,0.39927372336387634,1.5590215921401978,0.31241926550865173,-0.9865113496780396
yelp.csv,1.2931426763534546,0.6080850958824158,0.9010469913482666,-0.511711597442627,-0.31972044706344604,-0.1316511034965515,-1.1976677179336548,-0.22255851328372955,0.6663833856582642,-0.9241482019424438,1.2470797300338745,-1.375472068786621,0.9351678490638733,1.0205860137939453,-1.8699537515640259,0.0960712730884552,0.782519519329071,1.0875866413116455,0.4980895519256592,-1.7521915435791016
jester3.csv,2.0766565799713135,-0.09597605466842651,0.8734776377677917,-0.28858792781829834,-0.039990782737731934,-1.2267409563064575,0.04185318946838379,-0.8455484509468079,0.6921197175979614,-0.824478805065155,0.4656669795513153,0.7197905778884888,-1.0515540838241577,2.289875030517578,0.872711181640625,-1.0070315599441528,-1.0699249505996704,0.9739325642585754,0.3845843970775604,-0.5906670093536377
flixter.csv,1.2135326862335205,2.059523582458496,1.9716452360153198,-0.5113869905471802,0.24588380753993988,-0.6893675923347473,0.9691314101219177,-0.2307630181312561,-0.02133043110370636,-0.6440526247024536,0.3356121778488159,-0.5273035764694214,-0.7703425884246826,0.5448023676872253,-1.7019041776657104,-0.2232094705104828,-0.940319299697876,1.2759058475494385,0.8431951999664307,-0.8620042204856873
amazon-home.csv,2.172297477722168,0.7830617427825928,1.3236223459243774,-1.0409281253814697,0.6080566644668579,0.1738944947719574,0.6553371548652649,-0.8440073728561401,-0.5754783153533936,0.4601355493068695,0.3663462996482849,0.7035338282585144,2.047642707824707,0.4153102934360504,-1.3582103252410889,-1.194272756576538,0.14089275896549225,0.5900225043296814,0.6635326147079468,-0.82095867395401
movielens10m.csv,1.6757439374923706,0.9182619452476501,1.9549332857131958,-0.06330777704715729,0.270925372838974,1.2668980360031128,0.01138180773705244,-1.1908297538757324,-0.5064000487327576,0.2778227925300598,-0.5092882513999939,0.9452839493751526,-0.5930216312408447,0.22931408882141113,0.40964919328689575,0.4253949522972107,-1.0812407732009888,0.4993933439254761,1.1781328916549683,-2.09289288520813
movielens100k.csv,1.6627322435379028,0.028127366676926613,1.1468867063522339,-1.0305534601211548,0.7712737917900085,-0.3768387734889984,-0.7128250002861023,-0.7411555647850037,0.3644842207431793,0.9792614579200745,-0.1849048137664795,0.1240445077419281,0.4835849404335022,0.933680534362793,-0.5285360217094421,1.0941990613937378,-0.565517783164978,2.7358500957489014,1.0478910207748413,-0.6606530547142029
movielens20m.csv,1.7932534217834473,-0.21005180478096008,0.0989205464720726,0.7198057174682617,-0.5610942840576172,0.7373809814453125,2.1227805614471436,-0.1246892660856247,0.16911731660366058,-0.6538093686103821,-0.529604434967041,0.270177960395813,-0.6250984072685242,0.7144126892089844,-1.1383310556411743,0.5310642123222351,-0.4255548417568207,2.2606024742126465,1.2082608938217163,-0.8899949193000793
movielens1m.csv,1.045365333557129,1.2330291271209717,-0.08275921642780304,-0.4408456087112427,0.8917921781539917,0.8533862233161926,0.26480668783187866,-1.5854219198226929,0.35239243507385254,-1.6759792566299438,0.8164395689964294,0.23727577924728394,-0.219930037856102,0.9759958386421204,0.9931586384773254,0.13079045712947845,0.8462420701980591,1.7568988800048828,0.4530676305294037,-1.8466054201126099
amazon-pet-supplies.csv,2.5855772495269775,0.19249126315116882,2.105177164077759,-0.020390300080180168,-0.7713713645935059,0.4229941964149475,-0.17682990431785583,-0.5093974471092224,0.36912307143211365,-0.5159267783164978,1.4520584344863892,-0.21864154934883118,-0.002495967550203204,-0.3358854055404663,-0.01956307701766491,-0.41632822155952454,0.6553329825401306,2.030238151550293,-0.5994580388069153,-0.1578982025384903
